-1.947712153196334839e-02
2.767765894532203674e-02
3.891840204596519470e-02
2.686389908194541931e-02
4.998348280787467957e-02
-1.625404506921768188e-02
-1.436322834342718124e-02
-2.072477154433727264e-02
-8.300163783133029938e-03
4.529074579477310181e-02
3.127081552520394325e-03
1.024533528834581375e-02
2.051101811230182648e-02
3.876092284917831421e-02
-3.413157537579536438e-02
4.253845289349555969e-02
7.538861036300659180e-02
1.033350359648466110e-02
3.829391673207283020e-02
-3.930601105093955994e-02
-2.258613705635070801e-02
8.395221666432917118e-04
-2.076187543570995331e-02
6.704408442601561546e-04
-4.070800170302391052e-02
-9.625475853681564331e-03
8.621899411082267761e-03
-4.061872512102127075e-02
2.141175977885723114e-02
-1.558521296828985214e-02
3.357543051242828369e-02
-1.084074750542640686e-02
-1.046471646986901760e-03
8.529343642294406891e-03
-3.233886882662773132e-02
-1.212240569293498993e-02
-4.720650985836982727e-02
4.025769885629415512e-03
1.368954032659530640e-02
1.821942394599318504e-03
-9.677790803834795952e-04
-7.983731105923652649e-03
1.858955249190330505e-02
-1.918217539787292480e-02
-3.672289103269577026e-02
1.627917401492595673e-02
1.352783408947288990e-03
1.899590599350631237e-03
4.126984253525733948e-02
3.066086210310459137e-02
3.417510911822319031e-02
4.289464280009269714e-02
1.073885522782802582e-02
8.990530855953693390e-03
-1.126520149409770966e-02
-3.452134877443313599e-02
-5.123875569552183151e-03
2.144936285912990570e-02
2.187552861869335175e-02
-8.608300238847732544e-03
3.857321571558713913e-03
3.720302134752273560e-03
-1.499794796109199524e-02
-5.269161891192197800e-03
7.171387225389480591e-02
2.551249973475933075e-02
4.849722608923912048e-02
3.235078603029251099e-02
1.349585037678480148e-02
-1.494817715138196945e-02
7.486985623836517334e-02
-1.749703288078308105e-02
-9.062073193490505219e-03
2.763738669455051422e-02
-1.115850824862718582e-02
1.619864627718925476e-02
2.636990882456302643e-02
1.430284138768911362e-02
-4.175341129302978516e-02
5.224752798676490784e-02
3.451324254274368286e-02
3.389490023255348206e-02
5.145211890339851379e-02
7.144286483526229858e-02
-2.452215738594532013e-02
4.265838488936424255e-02
-3.465559333562850952e-02
2.531565912067890167e-02
-5.429241061210632324e-02
9.148899465799331665e-02
1.839007996022701263e-02
-4.344183951616287231e-02
4.693311452865600586e-02
-1.348613947629928589e-02
3.262987360358238220e-02
-9.786787442862987518e-03
9.169746190309524536e-02
4.673301428556442261e-02
7.262597233057022095e-02
5.900077149271965027e-02
3.704137727618217468e-02
-1.607153750956058502e-02
7.604403793811798096e-02
-2.020066231489181519e-02
-9.993216022849082947e-03
8.218673057854175568e-03
2.462334930896759033e-02
5.588817968964576721e-02
-2.590875700116157532e-02
6.103031709790229797e-02
-3.655615821480751038e-02
9.055913239717483521e-02
9.188577532768249512e-02
5.567301437258720398e-02
9.314053691923618317e-03
2.047058939933776855e-02
-2.193332649767398834e-02
5.800608173012733459e-02
-3.596659749746322632e-02
1.989239081740379333e-02
-4.495043307542800903e-02
9.453212469816207886e-02
1.212518382817506790e-02
-5.079586431384086609e-02
-1.493181195110082626e-02
-1.499771140515804291e-02
4.412310197949409485e-02
-1.109990663826465607e-02
