-1.107926666736602783e-02
-3.108326811343431473e-03
-2.346942434087395668e-03
-1.180856022983789444e-02
-1.140194665640592575e-02
-1.926557160913944244e-02
-6.351962685585021973e-03
-1.927346177399158478e-02
-1.066616550087928772e-02
-1.146592013537883759e-02
-2.069091610610485077e-02
-5.410647951066493988e-03
-7.450817618519067764e-03
-1.845218800008296967e-02
-8.430827409029006958e-03
-5.693211685866117477e-03
1.342385075986385345e-04
-3.547516651451587677e-03
-7.106559351086616516e-03
-8.275572210550308228e-03
-5.626983940601348877e-03
2.695683762431144714e-02
-7.736789993941783905e-03
-7.673459127545356750e-03
-8.741513825953006744e-03
-1.125116832554340363e-02
-1.903780922293663025e-02
-5.525134038180112839e-03
-9.790365584194660187e-03
-3.809531917795538902e-03
-7.153337355703115463e-03
-4.854323342442512512e-02
-6.151701323688030243e-03
-1.077616773545742035e-02
-3.736981307156383991e-04
-1.219310984015464783e-02
-8.460692130029201508e-03
-7.153708953410387039e-03
3.268375061452388763e-03
3.898273035883903503e-02
2.612881362438201904e-02
-2.036401303485035896e-03
4.310127347707748413e-02
-4.232261702418327332e-02
-3.895193710923194885e-02
1.939811743795871735e-03
3.563188388943672180e-02
1.032632030546665192e-02
3.518220409750938416e-02
-1.710100844502449036e-02
3.493145108222961426e-02
-1.647824421525001526e-02
-6.839764770120382309e-03
-1.093312632292509079e-02
-9.530943818390369415e-03
5.520128645002841949e-03
-6.233165040612220764e-03
-4.172218963503837585e-03
-1.402265299111604691e-02
-8.307887241244316101e-03
-1.298218034207820892e-02
-2.173645235598087311e-02
-1.139614731073379517e-02
-1.795299351215362549e-02
-8.376835845410823822e-03
3.174962941557168961e-03
4.978937213309109211e-04
-1.673163351370021701e-04
3.087384975515305996e-04
-6.335641723126173019e-03
8.325091912411153316e-04
8.895077917259186506e-05
1.740145031362771988e-03
4.059474449604749680e-03
-1.152841281145811081e-02
3.808368695899844170e-03
-1.327323261648416519e-03
1.163686905056238174e-02
1.976727508008480072e-03
-8.768091211095452309e-04
1.088831201195716858e-02
1.230799593031406403e-03
-2.805730327963829041e-04
3.519550198689103127e-03
3.937454428523778915e-03
-9.118665009737014771e-03
-3.048152429983019829e-03
1.936041982844471931e-03
4.121017176657915115e-03
4.986858926713466644e-03
-1.733611151576042175e-02
1.150754187256097794e-02
-9.185966104269027710e-03
-4.720761789940297604e-04
2.946961438283324242e-03
1.417835056781768799e-02
-1.218463603436248377e-05
1.203253027051687241e-02
-1.948304101824760437e-02
3.661980852484703064e-03
-8.084365166723728180e-03
-1.008765655569732189e-03
1.222134381532669067e-02
3.501917421817779541e-02
-3.727855626493692398e-03
6.439114455133676529e-03
3.640861832536756992e-04
-4.973816219717264175e-03
1.007425598800182343e-02
4.488783888518810272e-03
-1.350566651672124863e-02
6.669309805147349834e-04
-5.279531702399253845e-03
-8.506289683282375336e-03
1.169720431789755821e-03
-1.449616625905036926e-02
3.806837601587176323e-03
7.281367434188723564e-04
2.225557109341025352e-03
-1.226929575204849243e-02
7.420340552926063538e-04
-6.436843890696763992e-03
-1.510045723989605904e-03
-1.375928800553083420e-02
-9.690986014902591705e-03
1.758637465536594391e-02
-2.424858324229717255e-02
9.459631517529487610e-03
-1.037203706800937653e-02
-4.295414313673973083e-03
-2.192390616983175278e-03
-8.955341763794422150e-03
-1.430105511099100113e-02
-2.100713364779949188e-02
-6.315249018371105194e-03
-1.204200647771358490e-02
-8.902604691684246063e-03
-9.773992002010345459e-03
-1.695040054619312286e-02
-3.127020085230469704e-03
-5.223913583904504776e-03
-9.680720046162605286e-03
-6.369534879922866821e-03
-4.014194477349519730e-03
-1.721842447295784950e-03
-3.522664774209260941e-03
-2.800141926854848862e-03
-7.360994350165128708e-03
-4.876635968685150146e-03
1.314814947545528412e-02
-7.577591575682163239e-03
-7.549637928605079651e-03
-8.408899419009685516e-03
-9.987455792725086212e-03
-1.146632246673107147e-02
-8.890260010957717896e-03
-2.109161205589771271e-02
-3.621032694354653358e-03
-7.666254881769418716e-03
6.497217714786529541e-02
-3.215675707906484604e-03
-1.147556491196155548e-02
-4.043028224259614944e-03
-1.127530261874198914e-02
6.178198009729385376e-02
-3.526180284097790718e-03
2.810522913932800293e-03
-9.168846532702445984e-03
-2.485873550176620483e-02
-1.880043931305408478e-02
-3.456684644334018230e-04
5.457157269120216370e-02
4.610497877001762390e-02
9.428254328668117523e-03
2.417019754648208618e-02
-3.976367224822752178e-05
4.469292983412742615e-02
-1.113360654562711716e-02
1.455245725810527802e-02
-1.170103903859853745e-02
-3.876672126352787018e-03
-1.222753059118986130e-02
-7.382877171039581299e-03
8.720055222511291504e-03
-4.564781207591295242e-03
3.150594606995582581e-02
-1.129255816340446472e-02
-9.642701596021652222e-03
-8.901174180209636688e-03
-1.350374147295951843e-02
1.831290661357343197e-03
4.467530176043510437e-02
-1.323004346340894699e-02
-1.597969420254230499e-02
-1.430582627654075623e-02
-1.252644322812557220e-02
-2.979282662272453308e-02
-2.568792738020420074e-02
-5.114689934998750687e-03
-1.926328986883163452e-02
-1.024459861218929291e-02
-1.014235988259315491e-02
-2.069633454084396362e-02
-1.221194677054882050e-02
-9.312190115451812744e-03
-2.063863538205623627e-02
-1.077223382890224457e-02
-7.499217521399259567e-03
-2.661781013011932373e-02
-8.158781565725803375e-03
-9.720436297357082367e-03
-8.681141771376132965e-03
-5.306014325469732285e-03
4.854452610015869141e-02
-1.036609802395105362e-02
-8.278672583401203156e-03
-7.041897624731063843e-03
-1.098639331758022308e-02
-2.349853701889514923e-02
-3.134862706065177917e-02
2.897040918469429016e-02
-3.899955889210104942e-03
-2.720933035016059875e-02
4.781896993517875671e-02
-5.557031370699405670e-03
-3.009482845664024353e-02
-2.979090623557567596e-02
-1.452469080686569214e-02
5.404730886220932007e-02
-7.940818555653095245e-03
-2.443943172693252563e-02
5.191551893949508667e-02
2.345898002386093140e-02
-7.191230077296495438e-03
5.780179426074028015e-02
5.614905059337615967e-02
5.092181637883186340e-02
2.092187851667404175e-02
4.773153737187385559e-02
2.700558491051197052e-02
5.654169246554374695e-02
-1.839534752070903778e-02
4.234098270535469055e-02
-2.064944431185722351e-02
-6.991903763264417648e-03
-1.285027991980314255e-02
-9.815542958676815033e-03
-1.414082664996385574e-02
-1.521877106279134750e-02
5.202626436948776245e-02
-1.459355838596820831e-02
-5.575039889663457870e-03
-1.215577591210603714e-02
-2.318574674427509308e-02
2.911522239446640015e-02
4.544459283351898193e-02
