-1.392617914825677872e-02
8.845033124089241028e-03
-2.096592634916305542e-02
-2.071568183600902557e-02
1.094738766551017761e-02
3.535763919353485107e-02
-1.560576632618904114e-02
8.390535600483417511e-03
1.241438183933496475e-02
-2.225985378026962280e-02
-2.006564848124980927e-02
-8.098073303699493408e-03
6.795915309339761734e-03
-2.376457490026950836e-02
-2.256477018818259239e-03
1.420162618160247803e-02
-1.063116360455751419e-02
-4.774572793394327164e-03
1.522875856608152390e-02
5.716316401958465576e-03
1.511815842241048813e-02
7.744525559246540070e-03
-1.242459192872047424e-02
-2.150280168280005455e-03
1.780811347998678684e-03
2.058108570054173470e-03
-1.740890182554721832e-02
-2.024134434759616852e-02
-7.191034499555826187e-03
-1.045408286154270172e-02
2.138448413461446762e-03
1.766854152083396912e-02
9.101817384362220764e-03
1.217368338257074356e-02
-2.376013249158859253e-02
7.319084368646144867e-03
1.132339384639635682e-04
-1.159236952662467957e-02
2.823589311446994543e-04
-6.913397926837205887e-03
9.714913554489612579e-03
1.903466694056987762e-02
-1.278370525687932968e-02
-1.780257746577262878e-02
6.860622670501470566e-03
-2.128117019310593605e-03
1.246942300349473953e-02
-2.072064392268657684e-02
-1.426560617983341217e-02
3.617860609665513039e-03
1.796486205421388149e-03
-1.088728569447994232e-02
1.989261480048298836e-03
-1.503060385584831238e-02
1.085489336401224136e-02
2.900817431509494781e-03
-1.415611896663904190e-02
-1.199151854962110519e-02
-4.290346521884202957e-03
-8.511709980666637421e-03
1.186500862240791321e-02
5.534805357456207275e-03
-1.079673878848552704e-02
-1.858616247773170471e-02
-1.823844201862812042e-02
2.041706116870045662e-03
1.172906067222356796e-02
1.602752879261970520e-02
1.336516230367124081e-03
-2.103794924914836884e-02
-1.484951376914978027e-02
2.266901545226573944e-02
-2.531731501221656799e-03
-5.129936151206493378e-03
-3.249260038137435913e-02
-1.003243587911128998e-02
1.265769940800964832e-03
-1.227682549506425858e-02
2.617634134367108345e-03
-7.713156286627054214e-03
3.898423630744218826e-03
-1.170817669481039047e-02
-1.677344739437103271e-02
6.784330122172832489e-03
-9.332656860351562500e-03
-1.247543282806873322e-02
5.212227813899517059e-03
3.864345839247107506e-03
8.053329773247241974e-03
-1.722182705998420715e-02
1.417862810194492340e-02
1.416617631912231445e-02
-1.897214911878108978e-02
1.106246002018451691e-02
-1.856753230094909668e-02
1.297495607286691666e-02
-1.087951473891735077e-02
1.333952974528074265e-02
-1.741490326821804047e-02
1.375083439052104950e-02
-5.741996574215590954e-04
-1.229541562497615814e-02
-3.775863442569971085e-03
9.949062950909137726e-03
-3.114709630608558655e-03
6.905605550855398178e-03
-7.083301432430744171e-03
1.203960645943880081e-02
-9.515219135209918022e-04
-9.799401275813579559e-03
-1.626507379114627838e-02
1.250028051435947418e-02
1.049244496971368790e-02
-1.594079285860061646e-02
1.187959918752312660e-03
-1.835980825126171112e-02
2.166497334837913513e-02
-2.116650110110640526e-03
-1.024804916232824326e-02
-2.829024754464626312e-02
-1.406886707991361618e-02
-6.752919405698776245e-03
5.173050798475742340e-03
-2.476707287132740021e-02
1.040150132030248642e-02
2.525091916322708130e-02
6.090548355132341385e-03
7.074328023009002209e-04
-4.226750228554010391e-03
5.108728539198637009e-03
1.837446354329586029e-02
-1.301255729049444199e-02
1.233702711760997772e-02
-6.889404903631657362e-05
1.384797226637601852e-02
5.704732611775398254e-03
-1.357369497418403625e-02
1.402901113033294678e-02
-6.484679412096738815e-03
1.348646078258752823e-02
-9.018169716000556946e-03
-1.669596694409847260e-02
-3.643443807959556580e-03
1.413123495876789093e-02
-1.335005462169647217e-02
-1.797912176698446274e-03
8.627712726593017578e-03
-1.410406082868576050e-02
-1.486853579990565777e-03
1.407536491751670837e-02
-9.191449498757719994e-04
-8.370935916900634766e-03
-1.476600486785173416e-02
-6.935650948435068130e-03
1.198495458811521530e-02
-2.335297130048274994e-02
-1.396146020852029324e-03
1.443237997591495514e-03
-3.177836537361145020e-03
1.160057261586189270e-02
1.353513170033693314e-02
1.119059510529041290e-02
3.819256555289030075e-03
5.290194880217313766e-03
-3.247810993343591690e-03
2.394998259842395782e-02
-8.013361366465687752e-04
3.281322773545980453e-03
-1.813082396984100342e-02
1.635482721030712128e-02
5.081618670374155045e-03
1.430947426706552505e-02
-2.502244664356112480e-03
-3.837663680315017700e-03
-1.307558547705411911e-02
2.144957520067691803e-02
-1.202715281397104263e-02
7.024055812507867813e-04
5.118920933455228806e-03
-1.600014790892601013e-02
3.344791941344738007e-03
-4.504828713834285736e-03
-1.274629402905702591e-02
1.217539981007575989e-02
-5.092284176498651505e-03
1.262864330783486366e-03
-1.116203796118497849e-02
-3.714436199516057968e-03
-1.486614532768726349e-02
1.770846359431743622e-02
-5.204708781093358994e-03
-3.991830628365278244e-03
-2.241665124893188477e-02
3.529561217874288559e-03
1.302321534603834152e-02
1.835075579583644867e-02
1.398935541510581970e-02
-1.698211766779422760e-02
-1.576079986989498138e-02
-5.863807164132595062e-03
-1.336962915956974030e-02
-2.840170171111822128e-03
-2.495481446385383606e-02
-1.098770648241043091e-02
-1.899784663692116737e-03
-1.526251900941133499e-02
-1.404034066945314407e-02
1.156279165297746658e-02
1.474970951676368713e-02
-9.465620853006839752e-03
2.028294280171394348e-02
-1.276071276515722275e-02
-4.482887685298919678e-03
-5.171617958694696426e-04
2.853971440345048904e-03
-2.596288686618208885e-03
-3.945575561374425888e-03
1.282846648246049881e-02
-1.327159069478511810e-02
2.699331939220428467e-02
6.311880424618721008e-03
-1.273383572697639465e-02
-8.150879293680191040e-04
1.475076191127300262e-02
-1.363206282258033752e-02
-1.348158810287714005e-02
-8.081934414803981781e-03
1.480954047292470932e-02
-8.102380670607089996e-03
-1.980663090944290161e-02
1.273621106520295143e-03
2.383875427767634392e-03
-2.313588187098503113e-02
2.244398230686783791e-03
4.256978631019592285e-03
1.468716468662023544e-02
5.832812166772782803e-04
-8.942167623899877071e-04
-1.166121941059827805e-02
-1.169418543577194214e-02
-3.405061084777116776e-03
-1.159389317035675049e-02
-1.228739786893129349e-02
1.016835123300552368e-02
-2.885394729673862457e-03
2.061728760600090027e-02
-2.695057075470685959e-03
-7.640069350600242615e-03
1.406602468341588974e-02
3.141352208331227303e-03
1.333476603031158447e-02
1.067081815563142300e-03
-1.442278735339641571e-02
1.056040916591882706e-02
-3.627557773143053055e-03
1.170290447771549225e-02
-1.334995683282613754e-02
7.616218645125627518e-03
-1.800650916993618011e-02
-1.907537318766117096e-02
1.380727812647819519e-02
3.299471735954284668e-02
-1.618276536464691162e-02
9.622076526284217834e-03
1.375451683998107910e-02
-1.893751695752143860e-02
-1.436123251914978027e-02
3.688962012529373169e-02
-2.998305950313806534e-03
-2.158628962934017181e-02
-5.686768330633640289e-03
1.408055424690246582e-02
-1.725503429770469666e-02
2.992014586925506592e-02
4.876658786088228226e-03
9.432314895093441010e-03
7.558797486126422882e-03
7.064611651003360748e-03
8.206970989704132080e-03
-6.406325846910476685e-03
1.219122018665075302e-02
6.287393625825643539e-05
-1.518823672086000443e-02
-2.737598121166229248e-02
-1.115794107317924500e-02
-1.458426285535097122e-02
2.362581668421626091e-03
2.728473953902721405e-02
4.554525017738342285e-03
1.363853644579648972e-02
1.730190217494964600e-02
1.341162482276558876e-03
2.501240000128746033e-03
-1.526037044823169708e-02
4.635456483811140060e-03
-1.029722578823566437e-02
-9.408103302121162415e-03
1.921748556196689606e-02
-1.199629716575145721e-02
-1.725395210087299347e-02
7.995787076652050018e-03
-6.496759597212076187e-03
1.122804265469312668e-02
-1.996022649109363556e-02
-1.375859417021274567e-02
5.397679749876260757e-03
1.213869662024080753e-03
-8.375230245292186737e-03
5.964038427919149399e-03
-1.485977787524461746e-02
1.039104443043470383e-02
4.571143072098493576e-03
-1.407972723245620728e-02
-1.009242609143257141e-02
-1.137201488018035889e-02
-1.576440408825874329e-03
1.478826068341732025e-02
4.544170573353767395e-03
-1.541174296289682388e-02
-2.025628834962844849e-02
-1.982592232525348663e-02
-5.453262478113174438e-03
1.137720234692096710e-02
1.551877427846193314e-02
-3.139619366265833378e-04
-1.904348284006118774e-02
-1.145729143172502518e-02
1.139639876782894135e-03
-9.249377064406871796e-03
-2.924820408225059509e-03
-2.850379981100559235e-02
-1.403014454990625381e-02
5.890361499041318893e-04
-1.266387198120355606e-02
-2.598076360300183296e-03
8.235435932874679565e-03
1.145581249147653580e-02
-1.116011198610067368e-02
-1.088031940162181854e-02
6.680589169263839722e-03
-1.469903974793851376e-03
-1.254761964082717896e-02
6.872670724987983704e-03
7.686131633818149567e-03
3.955777268856763840e-03
-1.790849678218364716e-02
1.417609956115484238e-02
2.185150235891342163e-02
-1.915827207267284393e-02
1.825312897562980652e-02
-1.841687771957367659e-04
7.973326370120048523e-03
-2.262698253616690636e-04
1.376417372375726700e-02
-1.991648040711879730e-02
1.408157963305711746e-02
-6.903938483446836472e-03
-1.479855831712484360e-02
-1.439797785133123398e-02
5.630823317915201187e-03
-7.538939826190471649e-03
-3.875890048220753670e-03
-7.185402326285839081e-03
1.307658758014440536e-02
-4.532503895461559296e-03
-1.046665664762258530e-02
-2.045802772045135498e-02
1.175035722553730011e-02
1.363473199307918549e-02
-1.736075431108474731e-02
5.801202263683080673e-03
-1.726711168885231018e-02
3.444888070225715637e-02
-1.119277905672788620e-02
-1.041986048221588135e-02
2.791209518909454346e-02
-1.440051384270191193e-02
-1.572952792048454285e-02
9.708491154015064240e-03
-2.187192626297473907e-02
1.031323056668043137e-02
2.607197500765323639e-02
-1.085465028882026672e-02
8.755911141633987427e-03
-1.437836140394210815e-02
1.010745763778686523e-02
-1.869322173297405243e-02
-2.102540247142314911e-02
-2.542942296713590622e-03
2.846121042966842651e-02
-1.782696321606636047e-02
2.294352976605296135e-03
2.096529584378004074e-03
-1.850592158734798431e-02
-2.242380008101463318e-02
3.874208778142929077e-02
-1.575199188664555550e-03
-2.410101331770420074e-02
-5.475805606693029404e-03
4.802061885129660368e-04
-2.193401195108890533e-02
1.996141858398914337e-02
-2.908817958086729050e-03
-2.151248045265674591e-02
1.004979386925697327e-02
-1.062831375747919083e-02
-7.777309510856866837e-03
-1.151577476412057877e-02
-1.260904874652624130e-02
-8.248158730566501617e-03
-1.691869087517261505e-02
-2.703634090721607208e-02
-1.781018823385238647e-02
-1.686699129641056061e-02
-1.018797792494297028e-02
3.822908550500869751e-02
-1.124254055321216583e-02
-7.197822909802198410e-03
2.226039394736289978e-02
-3.973506856709718704e-03
-8.871912956237792969e-03
-1.555180083960294724e-02
-1.076985616236925125e-02
-1.128727477043867111e-02
-4.554091952741146088e-03
-6.745547987520694733e-03
-1.013039704412221909e-02
-1.724861189723014832e-02
-1.764296204783022404e-03
-9.311457164585590363e-03
-2.045487519353628159e-03
-1.948240026831626892e-02
-1.438082568347454071e-02
-1.326524931937456131e-02
-2.752307103946805000e-03
-1.365036144852638245e-02
-2.063026418909430504e-03
-1.498224120587110519e-02
-2.559649059548974037e-03
-5.374782253056764603e-03
-1.308482605963945389e-02
-1.680469140410423279e-02
-6.456823553889989853e-03
-1.336554298177361488e-03
-4.053965210914611816e-03
-1.283500622957944870e-02
-1.365521736443042755e-02
-1.925277709960937500e-02
-1.281057577580213547e-02
-7.918640971183776855e-03
-2.785247284919023514e-03
-2.670480869710445404e-03
-2.059562597423791885e-03
-2.204371988773345947e-02
-1.541648246347904205e-02
1.186121534556150436e-02
-1.591465249657630920e-02
-4.251091741025447845e-04
-1.679001003503799438e-02
-1.311946660280227661e-02
-1.253174338489770889e-02
-9.707543067634105682e-03
-7.499223574995994568e-03
-2.668456640094518661e-03
-1.355753373354673386e-02
-1.054095011204481125e-02
-1.543435454368591309e-02
-7.902504876255989075e-03
1.447974983602762222e-02
-1.157537009567022324e-02
-1.419345475733280182e-02
1.531310752034187317e-02
-1.085640862584114075e-02
-1.880923286080360413e-02
-7.895470596849918365e-03
7.691425736993551254e-03
-1.932899653911590576e-02
9.004863910377025604e-03
9.998304303735494614e-04
5.094551481306552887e-03
7.733603939414024353e-03
-7.509776623919606209e-04
-4.805231001228094101e-03
-1.476411055773496628e-02
-5.375058390200138092e-03
-1.466779131442308426e-02
-1.443563960492610931e-02
-1.346747949719429016e-02
-1.779860630631446838e-02
-3.063889686018228531e-03
-2.979526761919260025e-03
-1.730687543749809265e-02
-1.950703095644712448e-03
-1.025106199085712433e-02
-1.225653849542140961e-02
-1.812850683927536011e-02
-5.113705527037382126e-03
-1.795589737594127655e-02
-1.361907925456762314e-02
-1.945541799068450928e-02
1.160357240587472916e-02
-1.857441104948520660e-02
-1.041895151138305664e-02
1.965176500380039215e-02
-1.461798604577779770e-02
-1.340283360332250595e-02
-1.352671440690755844e-02
-2.263198420405387878e-02
1.785986474715173244e-03
-6.762754172086715698e-03
2.621703082695603371e-03
-5.403819493949413300e-03
