-3.904166398569941521e-03
-9.993567364290356636e-04
-7.485420792363584042e-04
2.498524449765682220e-02
1.151409652084112167e-02
1.995060592889785767e-02
-4.846532363444566727e-03
2.704951912164688110e-02
-7.279792800545692444e-03
-1.388948038220405579e-02
-2.128353528678417206e-02
2.549978438764810562e-03
2.095112018287181854e-02
-2.319321036338806152e-02
-2.045826800167560577e-02
-2.384200692176818848e-02
-1.567096263170242310e-02
-1.437076088041067123e-02
3.140814974904060364e-02
-1.342220976948738098e-02
5.054894369095563889e-03
-7.567869499325752258e-03
1.792981661856174469e-02
2.175146527588367462e-02
-2.789244172163307667e-04
1.480178441852331161e-03
-2.356165274977684021e-02
2.823774516582489014e-02
-9.812640026211738586e-03
2.490426180884242058e-03
2.992345718666911125e-03
-1.386900153011083603e-02
1.189622003585100174e-02
-3.770017530769109726e-03
-1.498580351471900940e-02
1.344790402799844742e-02
-5.997330881655216217e-03
-2.000984922051429749e-02
-2.004175214096903801e-03
-1.710627600550651550e-02
2.643620409071445465e-02
-8.292492479085922241e-03
4.705529427155852318e-04
-9.557648561894893646e-03
-1.376450061798095703e-02
6.549269892275333405e-03
4.520844202488660812e-03
-2.192321000620722771e-03
-2.393038477748632431e-03
-1.628948189318180084e-02
1.186009310185909271e-02
2.260486362501978874e-03
-3.507646732032299042e-03
-2.845661947503685951e-03
-1.465234067291021347e-02
1.313287764787673950e-03
-1.067971903830766678e-02
9.318094700574874878e-03
1.805281080305576324e-02
5.335163325071334839e-03
1.317429263144731522e-02
-1.409104000777006149e-02
1.436688704416155815e-03
-2.320286259055137634e-02
-6.939551327377557755e-03
1.532913744449615479e-02
7.477774634025990963e-04
5.960805807262659073e-03
-8.765807375311851501e-03
-1.449132245033979416e-02
8.170541375875473022e-03
1.096161920577287674e-02
3.950164187699556351e-03
6.826314143836498260e-03
-2.990980399772524834e-03
1.579159987159073353e-03
2.273638732731342316e-03
4.875732585787773132e-03
-1.364716910757124424e-03
8.633879944682121277e-03
1.551491091959178448e-03
4.437229596078395844e-03
-3.656649729236960411e-03
-1.176544744521379471e-02
-8.227827027440071106e-03
-1.823073253035545349e-02
1.803169585764408112e-02
-2.035022340714931488e-02
7.906475104391574860e-03
8.974221535027027130e-03
1.951716095209121704e-02
1.031556632369756699e-02
1.337274163961410522e-02
-3.099979599937796593e-03
5.729945842176675797e-03
-9.428001008927822113e-03
-3.533010603860020638e-03
2.897726662922650576e-04
-1.336306240409612656e-02
1.194344926625490189e-02
2.127935178577899933e-03
1.325016375631093979e-02
-5.362335126847028732e-03
-2.431804081425070763e-03
9.354369103675708175e-05
-1.651785522699356079e-02
2.106957696378231049e-02
9.266874752938747406e-03
5.958303343504667282e-03
-2.805611817166209221e-03
5.551770795136690140e-03
7.230668794363737106e-03
-1.010611560195684433e-02
-2.892545657232403755e-03
3.105132374912500381e-03
-1.875117071904242039e-03
-7.199618034064769745e-03
6.928687915205955505e-03
-8.528445847332477570e-03
-5.570583045482635498e-03
-6.676282268017530441e-03
2.243479248136281967e-03
2.172215469181537628e-02
1.394972205162048340e-02
2.158435760065913200e-03
-5.335621535778045654e-03
-5.854546092450618744e-03
-9.270511567592620850e-03
-3.895160974934697151e-03
-1.876281807199120522e-03
2.440781518816947937e-02
2.622486837208271027e-02
1.117097679525613785e-02
2.425026148557662964e-02
-7.267750333994626999e-03
4.519169032573699951e-02
-6.713303271681070328e-03
-1.499414723366498947e-02
-2.428910136222839355e-02
-3.777935344260185957e-04
1.939088292419910431e-02
-2.482974901795387268e-02
-2.139613777399063110e-02
-2.739586494863033295e-02
-1.816738024353981018e-02
-1.493340451270341873e-02
3.193372488021850586e-02
-4.166042897850275040e-03
3.455633996054530144e-03
-4.750704392790794373e-03
3.001026809215545654e-02
1.983899995684623718e-02
4.254202358424663544e-03
-1.228623674251139164e-03
-2.586120553314685822e-02
3.234805539250373840e-02
-1.146728172898292542e-02
1.404150156304240227e-03
-4.712029476650059223e-05
-1.388397626578807831e-02
1.324300188571214676e-02
-8.193498943001031876e-04
-1.551096327602863312e-02
1.207384467124938965e-02
-4.007423762232065201e-03
-1.822705380618572235e-02
6.663557142019271851e-03
-1.754754781723022461e-02
2.564658038318157196e-02
-8.078524842858314514e-03
-1.762292929925024509e-03
-7.880439981818199158e-03
-1.307387091219425201e-02
1.467139180749654770e-02
7.967878133058547974e-03
6.604287307709455490e-03
-4.374345764517784119e-03
-1.512310653924942017e-02
3.878445178270339966e-02
3.639915259554982185e-03
-4.295271355658769608e-03
1.039159949868917465e-03
-1.361765433102846146e-02
2.038211328908801079e-03
-5.650531966239213943e-03
1.153345592319965363e-02
3.163107484579086304e-02
2.473409473896026611e-02
3.802348300814628601e-02
-1.518353354185819626e-02
2.237443346530199051e-03
-2.349232323467731476e-02
-5.577166564762592316e-03
1.424347865395247936e-03
1.505658868700265884e-02
2.829824015498161316e-02
1.100350357592105865e-02
2.210689708590507507e-02
-2.150807762518525124e-03
2.896430343389511108e-02
-7.865159772336483002e-03
-1.447497308254241943e-02
-2.026992477476596832e-02
-5.884831771254539490e-03
1.310661248862743378e-02
-2.856334857642650604e-02
-2.247662656009197235e-02
-2.210717834532260895e-02
-1.772215962409973145e-02
-1.653271913528442383e-02
3.150219097733497620e-02
-8.791687898337841034e-03
-1.951600890606641769e-03
-7.350488565862178802e-03
1.963162049651145935e-02
1.256779860705137253e-02
1.807438908144831657e-03
-8.842090610414743423e-04
-2.528389543294906616e-02
2.772566862404346466e-02
-1.148251816630363464e-02
3.132571466267108917e-03
1.799431629478931427e-03
-1.788164116442203522e-02
1.648176833987236023e-02
3.173936856910586357e-03
-1.636670529842376709e-02
1.306493952870368958e-02
-7.589592598378658295e-03
-2.125531435012817383e-02
3.990061115473508835e-03
-1.716674864292144775e-02
1.541916560381650925e-02
-6.368753500282764435e-03
-1.300695585086941719e-03
-6.953223142772912979e-03
-1.328564714640378952e-02
1.218147762119770050e-02
4.378197714686393738e-03
2.117768162861466408e-03
-4.493782296776771545e-03
-1.719901710748672485e-02
1.084534078836441040e-02
3.745286026969552040e-03
-5.918466951698064804e-03
8.336440077982842922e-04
-1.336468290537595749e-02
1.216681441292166710e-03
-8.724994026124477386e-03
5.916921421885490417e-03
2.401500940322875977e-02
-6.278175278566777706e-04
2.090603485703468323e-02
-1.415550429373979568e-02
-3.592438297346234322e-03
-2.289420738816261292e-02
