1.382905244827270508e-01,-8.213817328214645386e-02,1.969677582383155823e-02,-3.859903663396835327e-02,-2.036126970779150724e-04,-4.618381336331367493e-02,-2.345005981624126434e-02,8.664730936288833618e-02,9.391341358423233032e-03,-4.030314274132251740e-03,1.140685975551605225e-01,-6.725270301103591919e-02,1.809253008104860783e-03,3.401162847876548767e-02,-6.643623113632202148e-02,6.182895973324775696e-03,3.801903803832828999e-04,1.381695456802845001e-02,7.249952107667922974e-02,-1.075186114758253098e-02,-6.129047274589538574e-02,3.181855753064155579e-02,-2.737457863986492157e-02,5.667106062173843384e-02,-2.721857978031039238e-03,1.874805055558681488e-02,1.450969837605953217e-02,1.806377992033958435e-02,-3.636135160923004150e-02,-1.863656751811504364e-02,-1.214623972773551941e-01,-9.088901802897453308e-03,-9.950274974107742310e-02,-1.331196259707212448e-02,-3.000434301793575287e-02,5.623368918895721436e-02,-7.869621738791465759e-03,-7.436313666403293610e-03,1.232971251010894775e-01,-7.519927620887756348e-02,4.293183796107769012e-03,-1.024261023849248886e-02,5.005948245525360107e-02,-8.663818240165710449e-02,-1.139765083789825439e-01,3.019031137228012085e-02,3.841019794344902039e-02,1.042152568697929382e-02,3.589358553290367126e-02,-5.349637940526008606e-02,9.475564211606979370e-02,1.936903223395347595e-02,2.069870196282863617e-02,7.811246067285537720e-02,1.691235974431037903e-02,-6.450281292200088501e-02,3.440945595502853394e-02,2.132642641663551331e-02,5.896486714482307434e-02,3.618774190545082092e-02,1.674005948007106781e-02,-3.458637371659278870e-02,7.790530100464820862e-03,-9.905058890581130981e-02,-1.077639609575271606e-01,1.180642768740653992e-01,-1.104598417878150940e-01,-1.373814493417739868e-01,-1.051485911011695862e-02,-1.243278235197067261e-01,4.803246632218360901e-02,-5.427556484937667847e-02,3.611608874052762985e-03,1.748710870742797852e-02,2.285361662507057190e-02,1.031968463212251663e-02,-6.301394104957580566e-02,-2.085905708372592926e-02,-1.109631285071372986e-01,1.163327321410179138e-02,-3.321229814901016653e-05,7.781964540481567383e-02,3.121567703783512115e-02,6.031881202943623066e-04,6.899935007095336914e-02,6.761857122182846069e-02,9.200917929410934448e-02,1.178495865315198898e-02,-9.366239607334136963e-02,7.731771562248468399e-03,-7.633198052644729614e-02,6.378010660409927368e-02,-2.138670906424522400e-02,6.878786534070968628e-02,-4.596573300659656525e-03,4.335810616612434387e-02,6.132335867732763290e-03,4.095728695392608643e-02,4.916304722428321838e-02,-7.296609133481979370e-02,4.787044599652290344e-02,2.633832208812236786e-02,-2.378533035516738892e-02,1.013659983873367310e-01,-3.642290830612182617e-02,1.252566091716289520e-02,9.892380237579345703e-02,-5.396350845694541931e-02,8.658710867166519165e-03,-1.606778800487518311e-02,2.058633230626583099e-02,-6.081555411219596863e-02,9.621261805295944214e-02,1.050617098808288574e-01,2.264682762324810028e-02,4.844803363084793091e-03,-8.982764929533004761e-02,2.774511650204658508e-02,2.894955128431320190e-02,7.408184558153152466e-02,2.000679820775985718e-02,-6.678894162178039551e-02,3.871740028262138367e-02,-6.151780486106872559e-03,5.752928927540779114e-02,-3.959015756845474243e-02,-1.026546061038970947e-01,-8.221288025379180908e-02,-3.126790001988410950e-02,-7.163360714912414551e-02,4.601043835282325745e-02,-8.815099298954010010e-02,3.779220627620816231e-03,7.223840057849884033e-02,-2.694329619407653809e-02,-6.021688878536224365e-02,4.884143825620412827e-03,-9.245338849723339081e-03,6.787143647670745850e-02,-4.190824180841445923e-02,-4.091084003448486328e-02,1.218375936150550842e-02,6.066688802093267441e-03,2.593287965282797813e-03,3.809649497270584106e-03,1.420911308377981186e-02,-9.493551403284072876e-02,-3.291921690106391907e-02,-3.081242367625236511e-02,6.812345981597900391e-02,7.659373432397842407e-02,-1.164394840598106384e-01,-3.766792593523859978e-03,-3.113663522526621819e-03,3.087495639920234680e-02,-1.187258493155241013e-02,8.615522645413875580e-03,7.948321849107742310e-02,3.099630028009414673e-02,-1.119071617722511292e-02,6.496343016624450684e-02,-7.252550125122070312e-02,8.080732822418212891e-02,-9.017123281955718994e-02,-3.667632117867469788e-02,1.790168508887290955e-02,6.324893981218338013e-02,-2.645904570817947388e-02,2.826201543211936951e-02,5.006497725844383240e-02,4.207554459571838379e-02,2.578590624034404755e-02,-1.172814741730690002e-01,-5.795850604772567749e-02,6.374576687812805176e-02,-4.976315051317214966e-02,5.594699457287788391e-02,6.696941563859581947e-04,1.433669496327638626e-02,5.601921677589416504e-02,-4.732706025242805481e-02,-3.776096925139427185e-02,3.604395780712366104e-03,8.334595710039138794e-02,3.925251215696334839e-02,1.351134944707155228e-02,5.620237812399864197e-02,-1.006785482168197632e-01,-6.669943034648895264e-02,-7.265047729015350342e-02,-6.615828722715377808e-02,1.405568420886993408e-01,1.104196906089782715e-01,1.083139702677726746e-01,-1.144839599728584290e-01,5.895500257611274719e-02,-9.263351559638977051e-02,2.453163452446460724e-02,1.566302776336669922e-02,6.928518414497375488e-02,-3.590552136301994324e-03,2.671077661216259003e-02,-1.460061990655958652e-03,-6.741008162498474121e-02,-2.460809610784053802e-02,4.172563087195158005e-03,-9.938356280326843262e-02,1.310956198722124100e-03,-1.059430763125419617e-01,8.311112970113754272e-02,-5.514018237590789795e-02,1.050860621035099030e-02,-9.397690743207931519e-02,-6.605815608054399490e-03,-1.034828722476959229e-01,3.408525884151458740e-02,4.091585800051689148e-02,1.167975459247827530e-02,8.029510825872421265e-02,6.797283887863159180e-02,-4.581166803836822510e-02,-7.386040687561035156e-02,7.160810381174087524e-02,-6.588232517242431641e-02,-3.068755939602851868e-02,4.218402504920959473e-02,1.563545688986778259e-02,-9.503404609858989716e-03,-8.691258728504180908e-03,-5.843270942568778992e-02,-2.487531490623950958e-02,-7.659307867288589478e-02,-5.923333019018173218e-02,7.136546820402145386e-02,5.509334802627563477e-02,-5.744870379567146301e-02,-4.359959065914154053e-02,-2.152259927242994308e-03,-7.834771275520324707e-02,-7.561666518449783325e-02,6.749962270259857178e-02,-9.461673349142074585e-02,-7.499051094055175781e-02,7.843905687332153320e-02,3.705681860446929932e-02,-9.329801052808761597e-02,9.328960441052913666e-03,5.763398855924606323e-02,-8.476171642541885376e-03,-3.407691256143152714e-04,1.039394438266754150e-01,-7.883930951356887817e-02,-1.197643801569938660e-01,1.288821697235107422e-01,-1.016334537416696548e-02,6.930676102638244629e-02
6.550870835781097412e-02,8.062328211963176727e-03,-7.907346298452466726e-05,-8.924850262701511383e-03,4.162779951002448797e-04,-1.074153110384941101e-01,1.195117272436618805e-02,1.730233989655971527e-02,8.836471242830157280e-04,-5.037346482276916504e-02,-4.315109550952911377e-02,8.030110038816928864e-03,-1.314152032136917114e-01,-3.516665101051330566e-02,4.123092070221900940e-02,5.025886930525302887e-03,-3.879542055074125528e-04,4.771823808550834656e-02,7.533150911331176758e-02,1.384727749973535538e-02,2.593397162854671478e-03,4.744109697639942169e-03,-1.106515992432832718e-02,1.784273423254489899e-02,-3.391640633344650269e-02,-1.644996367394924164e-02,-9.697424620389938354e-02,3.148962743580341339e-03,7.593207061290740967e-03,1.473941840231418610e-02,2.660462446510791779e-02,2.489419654011726379e-03,-8.436682075262069702e-02,7.621960714459419250e-03,2.091719303280115128e-03,3.946296870708465576e-02,4.191477783024311066e-03,-1.924098702147603035e-03,-6.775309890508651733e-02,2.064348012208938599e-02,5.666389479301869869e-04,2.467154711484909058e-02,-2.246872894465923309e-02,-7.053475826978683472e-02,1.046947836875915527e-01,3.138061612844467163e-02,1.451768795959651470e-03,-1.104846820235252380e-01,-6.549178808927536011e-02,-3.061712719500064850e-02,3.810503333806991577e-02,4.733018949627876282e-02,-9.904658049345016479e-02,-5.056260526180267334e-02,-5.593708530068397522e-02,4.486584290862083435e-02,1.265539415180683136e-02,-3.491815924644470215e-02,3.246730938553810120e-02,-6.781031191349029541e-02,6.092457845807075500e-02,1.181505098938941956e-01,3.964611515402793884e-02,5.173901095986366272e-02,-9.172147512435913086e-02,1.220542490482330322e-01,-7.023576647043228149e-02,1.166942436248064041e-02,3.377684205770492554e-02,8.181648701429367065e-02,6.201803311705589294e-02,9.522107429802417755e-03,1.059937663376331329e-02,1.242396887391805649e-02,-8.690729737281799316e-02,-1.522097503766417503e-03,-6.664817780256271362e-02,-7.942976080812513828e-04,-8.813336491584777832e-02,-2.390487119555473328e-02,-1.794579438865184784e-03,-1.231794580817222595e-01,-7.795570790767669678e-02,-3.044604510068893433e-02,3.990564122796058655e-02,-1.226691603660583496e-01,1.283808052539825439e-01,9.272582083940505981e-02,6.779938936233520508e-02,3.042816184461116791e-03,-1.244908124208450317e-01,6.141576915979385376e-03,-1.190606802701950073e-01,2.427612058818340302e-02,1.690541580319404602e-02,2.915890514850616455e-02,1.519506610929965973e-02,7.622477132827043533e-03,1.168901622295379639e-01,-3.613039106130599976e-02,-6.631611287593841553e-02,7.044097036123275757e-02,-1.291756704449653625e-02,5.691833049058914185e-02,-8.703651279211044312e-02,-2.518776431679725647e-02,-1.088442653417587280e-01,8.208352141082286835e-03,3.624777123332023621e-02,-5.139518179930746555e-04,-1.511975284665822983e-02,-6.320741027593612671e-02,6.306409090757369995e-02,-3.930099308490753174e-02,-2.749485336244106293e-02,-5.486925132572650909e-03,-1.264391560107469559e-02,3.353106230497360229e-02,2.211333997547626495e-02,-2.450296282768249512e-02,1.133005097508430481e-01,-1.075265929102897644e-01,-3.008810430765151978e-02,-4.286831244826316833e-02,-5.188098549842834473e-02,-8.313604444265365601e-02,-2.979080565273761749e-02,-3.190919384360313416e-02,1.749275438487529755e-02,2.744370698928833008e-02,3.184602130204439163e-03,4.445586353540420532e-02,4.878416191786527634e-03,-3.070239908993244171e-02,1.604525744915008545e-02,2.580338902771472931e-02,3.876075148582458496e-03,-3.545282036066055298e-02,-1.225186362862586975e-01,-2.043525874614715576e-02,-4.539740085601806641e-02,2.092715539038181305e-02,-2.324336767196655273e-02,7.891090586781501770e-03,5.777509068138897419e-04,1.024679318070411682e-01,-1.547762565314769745e-02,-2.606449276208877563e-02,1.747399219311773777e-04,3.681845590472221375e-02,5.447954870760440826e-03,8.127611875534057617e-02,-8.126284182071685791e-02,-2.681366400793194771e-03,-9.825159609317779541e-02,-1.016227761283516884e-03,4.729264602065086365e-02,9.659269452095031738e-02,7.180948555469512939e-02,5.583032499998807907e-03,-1.706484332680702209e-02,-2.495364751666784286e-03,6.109369173645973206e-02,-1.350888330489397049e-02,6.108118686825037003e-03,-1.428462937474250793e-02,-1.503054425120353699e-02,2.662728307768702507e-03,3.377785440534353256e-03,-2.407916635274887085e-02,-1.993431150913238525e-02,-3.308884799480438232e-03,-2.964765578508377075e-02,2.438117749989032745e-02,2.851471863687038422e-02,9.426365606486797333e-03,-6.750506907701492310e-02,1.136470660567283630e-01,-1.306964457035064697e-01,-6.585891544818878174e-02,4.998157918453216553e-02,5.007808655500411987e-02,-5.709061771631240845e-02,-8.396734297275543213e-02,-1.567670144140720367e-02,1.495876908302307129e-02,-4.073021002113819122e-03,3.200743347406387329e-02,-1.208467409014701843e-01,3.053728863596916199e-02,3.577634692192077637e-02,5.713389441370964050e-02,6.102254986763000488e-02,2.635651640594005585e-02,-1.114624291658401489e-01,-1.674356311559677124e-02,-7.249695062637329102e-02,2.566460333764553070e-02,-4.096358641982078552e-02,2.085981145501136780e-02,9.825405431911349297e-04,8.171462267637252808e-02,9.375638514757156372e-02,-6.881590187549591064e-02,-1.893276232294738293e-03,2.458495832979679108e-02,-1.206869911402463913e-02,-1.125772073864936829e-01,8.697208762168884277e-02,-1.040393561124801636e-01,7.264540344476699829e-02,6.322694569826126099e-02,2.324196882545948029e-02,-2.561295963823795319e-02,-1.122527420520782471e-01,8.261832594871520996e-02,-4.273329302668571472e-02,-1.850752905011177063e-02,4.935982450842857361e-02,-4.823464527726173401e-02,2.674445044249296188e-03,9.987066686153411865e-02,-1.016748398542404175e-01,3.579031676054000854e-02,-1.135622709989547729e-01,-7.276758551597595215e-03,-1.533194724470376968e-02,4.000402241945266724e-02,-2.577435597777366638e-02,-7.708397507667541504e-02,-1.259191930294036865e-01,1.945494674146175385e-02,-1.343730539083480835e-01,-8.665920048952102661e-02,9.024320542812347412e-02,-4.527395591139793396e-02,1.154580991715192795e-02,-8.124621957540512085e-02,1.024772375822067261e-01,-4.260320588946342468e-02,5.877312272787094116e-02,-2.499552071094512939e-02,3.821033611893653870e-02,-2.347938902676105499e-02,2.937749028205871582e-02,-1.381140295416116714e-02,4.570202901959419250e-03,1.027252376079559326e-01,2.322493121027946472e-02,2.987364772707223892e-03,-7.245258241891860962e-02,-3.571743518114089966e-02,-2.191944606602191925e-02,1.078419238328933716e-01,9.520179033279418945e-02,-2.255373168736696243e-03
-2.579150535166263580e-02,-7.211469858884811401e-02,-3.591779619455337524e-02,-6.132290139794349670e-02,1.107944292016327381e-03,-8.122521638870239258e-02,-6.583334505558013916e-02,-7.415832369588315487e-04,1.617282861843705177e-03,-7.913283258676528931e-02,-1.059771627187728882e-01,2.138691954314708710e-02,2.104347199201583862e-02,-7.176204770803451538e-02,1.218479052186012268e-01,8.376562036573886871e-03,6.103467312641441822e-04,-6.368204206228256226e-02,-8.595220744609832764e-02,-3.392472490668296814e-02,1.837138086557388306e-02,1.018770933151245117e-01,-2.104924060404300690e-02,5.673491954803466797e-02,-1.080042570829391479e-01,3.390217572450637817e-02,2.509589120745658875e-02,8.331148885190486908e-03,-3.272160515189170837e-02,7.916092127561569214e-02,-1.220677345991134644e-01,-8.172725327312946320e-03,2.835107408463954926e-02,-2.212006598711013794e-02,-3.127192333340644836e-02,7.707189768552780151e-02,-3.190273419022560120e-02,-8.464963175356388092e-03,9.533149749040603638e-02,6.048268452286720276e-02,1.579560455866158009e-03,-7.721702754497528076e-02,1.145108714699745178e-01,6.707286834716796875e-02,1.016282364726066589e-01,-5.799888819456100464e-02,5.498532578349113464e-02,9.979078918695449829e-02,5.143681541085243225e-02,4.624899849295616150e-02,-1.109047830104827881e-01,8.289673924446105957e-02,-1.028123721480369568e-01,8.609344810247421265e-02,4.736616089940071106e-02,-1.091998186893761158e-03,-4.581660497933626175e-03,-2.723599039018154144e-02,-7.058764249086380005e-02,-9.600607305765151978e-02,-2.054397715255618095e-03,3.695185109972953796e-02,4.241086915135383606e-02,-7.363925874233245850e-02,8.374016731977462769e-02,9.194453060626983643e-02,-3.820100799202919006e-02,2.519664354622364044e-02,-2.278402075171470642e-02,1.380514446645975113e-02,-9.195116907358169556e-02,2.753852494060993195e-02,2.436428889632225037e-02,-1.633443310856819153e-02,-5.825680866837501526e-02,3.654149174690246582e-02,6.710705906152725220e-02,-2.864172495901584625e-02,3.787636756896972656e-02,3.671425208449363708e-02,-1.022721547633409500e-02,-1.298328787088394165e-01,-7.986035943031311035e-02,1.016016976791433990e-04,2.157186158001422882e-02,-2.834465820342302322e-03,-2.184147946536540985e-02,1.078048795461654663e-01,1.045832633972167969e-01,-4.901621956378221512e-03,-7.381600886583328247e-02,-1.071975082159042358e-01,-2.565463632345199585e-02,2.952914498746395111e-02,3.595543652772903442e-02,-9.349101781845092773e-02,-9.724158793687820435e-02,1.416481286287307739e-02,5.736435949802398682e-02,-1.050678417086601257e-01,1.247838288545608521e-01,-8.426228165626525879e-02,8.016912266612052917e-03,-1.357822418212890625e-01,-5.722726881504058838e-02,-1.458242256194353104e-02,-9.868850558996200562e-02,1.782295480370521545e-02,8.167638629674911499e-02,9.972305595874786377e-02,-8.672817051410675049e-02,-2.193176932632923126e-02,-6.450717896223068237e-02,7.366880774497985840e-02,8.150544762611389160e-02,-2.818916738033294678e-02,-4.941276833415031433e-02,-2.754190936684608459e-03,-6.511841714382171631e-02,-1.353141479194164276e-02,-1.800495572388172150e-02,3.806309401988983154e-02,-1.918733865022659302e-02,2.543234452605247498e-02,-6.549745798110961914e-02,-1.232385262846946716e-01,7.003657519817352295e-02,-5.632140859961509705e-02,3.089491091668605804e-02,3.460206091403961182e-02,3.324854746460914612e-02,1.346192602068185806e-02,2.706410735845565796e-02,-3.826142102479934692e-02,4.538711160421371460e-02,1.180305052548646927e-02,5.451380275189876556e-03,-7.260955125093460083e-02,9.253381192684173584e-02,-1.701873913407325745e-02,2.912565320730209351e-02,-2.449315041303634644e-02,-5.165249481797218323e-02,7.577523123472929001e-03,2.207980258390307426e-03,-3.518181294202804565e-02,1.508840024471282959e-01,5.735586583614349365e-02,6.185841560363769531e-02,-9.516456630080938339e-04,-5.852821096777915955e-02,-2.352464012801647186e-02,-2.111610770225524902e-02,-3.603516612201929092e-03,3.651509806513786316e-02,2.606647647917270660e-02,6.304039154201745987e-03,7.886194437742233276e-02,3.875266388058662415e-02,-2.163302153348922729e-02,-5.065330862998962402e-02,-1.314708590507507324e-02,6.932178139686584473e-02,9.642227739095687866e-02,-8.263713680207729340e-03,2.120100334286689758e-02,-9.483481943607330322e-02,2.621039003133773804e-02,4.576543718576431274e-02,-1.822872087359428406e-02,-9.423874318599700928e-03,7.301583141088485718e-02,-1.283753011375665665e-02,-5.120926350355148315e-02,-1.728127710521221161e-03,5.802122130990028381e-02,-1.042200159281492233e-02,7.960184477269649506e-03,-4.244636371731758118e-02,2.458248659968376160e-02,-6.804603338241577148e-02,7.111914455890655518e-02,-7.611824572086334229e-02,-5.177311226725578308e-02,7.248182594776153564e-02,1.645107567310333252e-02,3.591796010732650757e-02,-4.189997538924217224e-02,4.795395955443382263e-02,1.252032071352005005e-01,4.339493811130523682e-03,-1.021957583725452423e-02,-3.769901022315025330e-02,-8.830869197845458984e-02,1.750103896483778954e-03,-7.960744202136993408e-02,6.478928029537200928e-02,2.540593035519123077e-02,1.883241720497608185e-02,6.957538425922393799e-02,5.548561457544565201e-03,-1.011726558208465576e-01,-6.840436160564422607e-02,3.130510076880455017e-02,1.886544190347194672e-02,-7.904356718063354492e-02,3.913410753011703491e-02,-2.567452378571033478e-02,-3.821553662419319153e-02,-1.081488355994224548e-01,3.539625927805900574e-02,-1.022362932562828064e-01,-1.143104210495948792e-01,-1.060196533799171448e-01,-8.977016061544418335e-02,-8.730269223451614380e-02,3.340961411595344543e-02,-5.752937495708465576e-02,-9.507440030574798584e-02,-7.398117333650588989e-02,1.939202286303043365e-02,-1.090915575623512268e-01,-6.315994262695312500e-02,1.536786463111639023e-02,4.041958972811698914e-02,-4.985664784908294678e-02,8.225630223751068115e-02,-3.473398834466934204e-02,-1.407442688941955566e-01,1.390639599412679672e-02,4.622527584433555603e-02,9.670501947402954102e-02,-2.341828308999538422e-02,-1.206479296088218689e-01,1.536384318023920059e-02,8.100769668817520142e-02,8.096358925104141235e-02,-7.583036273717880249e-02,-2.283274382352828979e-02,7.435096800327301025e-02,1.635921187698841095e-02,1.265203505754470825e-01,7.290104031562805176e-02,1.028234288096427917e-01,-5.382125079631805420e-02,-1.916828379034996033e-02,5.039061233401298523e-02,-7.196990400552749634e-02,-3.137233853340148926e-02,7.510555442422628403e-03,-9.645044058561325073e-02,-7.632213085889816284e-02,6.926243007183074951e-02,-3.897894639521837234e-03,-4.451704025268554688e-02,-4.482974112033843994e-02
-4.172910377383232117e-02,2.791669964790344238e-02,5.375827103853225708e-02,6.706076115369796753e-02,6.448426283895969391e-04,7.622936367988586426e-02,-2.981519140303134918e-02,6.332237273454666138e-02,3.026004997082054615e-04,-4.569716751575469971e-02,-9.736405313014984131e-02,-4.024477303028106689e-02,2.450505085289478302e-02,-1.092111393809318542e-01,-5.589702166616916656e-03,2.547430573031306267e-03,-1.854416914284229279e-03,7.719246204942464828e-04,2.226903289556503296e-02,-1.637611910700798035e-02,1.316462736576795578e-02,-7.524710148572921753e-02,-5.456103943288326263e-03,-3.878355026245117188e-02,-7.144968956708908081e-02,1.127069583162665367e-03,9.615889936685562134e-02,2.517705224454402924e-02,1.608406193554401398e-02,1.237772870808839798e-03,1.245815604925155640e-01,2.339348895475268364e-03,-1.678900979459285736e-02,-8.652654651086777449e-05,2.656717225909233093e-02,7.324457913637161255e-02,-3.318964038044214249e-03,-6.658370140939950943e-03,7.294489443302154541e-02,-1.968782581388950348e-02,6.387977628037333488e-04,-4.434657841920852661e-02,-3.899405524134635925e-02,4.407127201557159424e-02,-1.229275204241275787e-02,-1.578938029706478119e-02,4.844805970788002014e-02,6.754731386899948120e-02,4.592505097389221191e-02,-8.950231969356536865e-02,-2.555277571082115173e-02,1.526831742376089096e-02,-7.307658903300762177e-03,-4.231899231672286987e-02,-5.503199249505996704e-02,-6.796238012611865997e-03,3.467828780412673950e-02,-3.380330651998519897e-02,5.399666354060173035e-02,-8.084148913621902466e-02,7.626201212406158447e-02,-1.290331035852432251e-01,-5.980976391583681107e-03,6.947181187570095062e-03,-7.057643495500087738e-03,1.123446151614189148e-01,-4.667642712593078613e-02,6.507339328527450562e-02,3.810698166489601135e-02,1.122520677745342255e-02,7.360221352428197861e-03,-3.991809487342834473e-02,1.906094700098037720e-02,-1.740962732583284378e-03,1.300814598798751831e-01,2.746404381468892097e-03,1.015641689300537109e-01,1.411940029356628656e-04,-6.770816445350646973e-02,-9.624574333429336548e-03,-1.376248197630047798e-03,-7.062695920467376709e-02,6.071501225233078003e-02,2.738058194518089294e-02,-3.103519417345523834e-02,-9.537248313426971436e-02,-9.064024686813354492e-02,8.518321439623832703e-03,5.451674759387969971e-02,3.375729545950889587e-03,4.792159795761108398e-02,-4.262740910053253174e-02,5.343077331781387329e-02,-6.930571794509887695e-02,-8.734264224767684937e-02,7.795953750610351562e-02,7.108853012323379517e-02,7.183591835200786591e-03,6.376809626817703247e-02,-5.621941760182380676e-02,1.129626855254173279e-01,-7.395847886800765991e-02,-4.611231270246207714e-04,3.122615255415439606e-02,-5.924843996763229370e-02,-3.168454393744468689e-02,2.568118274211883545e-02,-8.705587685108184814e-02,6.463579833507537842e-02,6.384603679180145264e-02,1.288507319986820221e-02,1.100612580776214600e-01,-7.878292351961135864e-02,-2.191953361034393311e-02,1.654425635933876038e-02,1.164448447525501251e-03,-1.008234545588493347e-01,7.117950171232223511e-02,1.130504608154296875e-01,-4.445273429155349731e-02,5.402734875679016113e-02,-9.692307561635971069e-02,9.011722169816493988e-03,-1.821666955947875977e-02,9.553033858537673950e-02,1.076835319399833679e-01,-7.320843636989593506e-02,6.320773810148239136e-02,5.228463187813758850e-02,-2.401749789714813232e-02,-3.533927723765373230e-02,8.055440336465835571e-02,2.723899437114596367e-03,-8.106576651334762573e-02,2.393013425171375275e-02,-3.484835475683212280e-02,3.009420121088624001e-03,-6.105289980769157410e-02,-1.062600761651992798e-01,-4.242181032896041870e-02,1.410671025514602661e-01,-6.366472691297531128e-02,6.626300513744354248e-02,3.637047717347741127e-03,-1.463347114622592926e-03,5.074464529752731323e-02,-5.573520809412002563e-02,4.754358436912298203e-03,3.815071657299995422e-02,2.494970569387078285e-03,-8.312636637128889561e-04,1.599973067641258240e-02,2.418004162609577179e-02,9.285462438128888607e-04,-9.048706293106079102e-02,3.512657433748245239e-02,-9.270421415567398071e-02,3.608993254601955414e-03,1.143984720110893250e-01,1.058877445757389069e-02,3.156075626611709595e-02,2.268332988023757935e-02,7.976855337619781494e-02,6.923994421958923340e-02,3.066367469727993011e-02,9.509690426057204604e-05,-7.462839037179946899e-02,1.560098491609096527e-02,5.332304537296295166e-02,8.925364911556243896e-02,-7.108701765537261963e-02,1.970767229795455933e-02,-8.993117511272430420e-02,-1.282728742808103561e-03,2.641455270349979401e-02,-5.457105115056037903e-02,-5.716323480010032654e-02,1.026271060109138489e-01,-9.148123115301132202e-02,-6.032441928982734680e-02,-5.305818468332290649e-02,9.330200031399726868e-03,-3.921774774789810181e-02,1.557639334350824356e-03,4.014796018600463867e-02,3.292012214660644531e-02,-8.506646007299423218e-02,1.527738384902477264e-02,1.248057931661605835e-02,6.012793257832527161e-02,-3.786584734916687012e-02,-3.219886496663093567e-02,-3.417926281690597534e-02,-1.177475508302450180e-02,-8.544787764549255371e-02,4.628878459334373474e-02,-4.919338226318359375e-02,-2.367767319083213806e-02,7.517200428992509842e-03,-1.561011932790279388e-02,-2.788978861644864082e-03,1.170651055872440338e-02,-5.151222646236419678e-02,1.068732887506484985e-02,1.189829856157302856e-01,2.800213918089866638e-02,9.361120313405990601e-02,-2.495795954018831253e-03,-1.059425473213195801e-01,1.306328475475311279e-01,4.546172916889190674e-02,-7.658580690622329712e-02,-7.822285592555999756e-02,7.846957445144653320e-02,-2.096560038626194000e-02,9.198845177888870239e-02,3.275024006143212318e-03,-2.689361572265625000e-02,-4.490138217806816101e-02,2.785616554319858551e-02,-1.324120312929153442e-01,-7.215844839811325073e-02,9.525310993194580078e-02,6.330410391092300415e-02,-1.058684363961219788e-01,8.193103969097137451e-02,1.450163125991821289e-01,5.984370037913322449e-02,-7.061143964529037476e-02,6.972590833902359009e-02,1.204626783728599548e-01,-6.311115808784961700e-03,-2.435967139899730682e-02,-5.952522158622741699e-02,6.575456261634826660e-02,4.855083301663398743e-02,-2.312110923230648041e-02,4.424013197422027588e-02,5.258271936327219009e-03,-3.940821811556816101e-02,1.911653578281402588e-02,1.114489957690238953e-01,6.778836995363235474e-02,-1.034851893782615662e-01,3.110665269196033478e-02,-2.636875212192535400e-02,2.008221670985221863e-02,-2.685889974236488342e-02,-3.776155039668083191e-02,6.896880269050598145e-02,2.299761213362216949e-02,2.471789158880710602e-02,1.204360625706613064e-03,1.107054352760314941e-01,6.881528999656438828e-03,-4.735497012734413147e-02
-7.952482998371124268e-02,9.598059207201004028e-02,-2.159534581005573273e-02,-2.093060314655303955e-02,5.539957433938980103e-03,-5.035680904984474182e-02,1.530965231359004974e-02,5.724563449621200562e-02,3.615475725382566452e-04,9.559479542076587677e-03,6.565479934215545654e-02,-4.530404135584831238e-02,2.305014990270137787e-02,2.511981315910816193e-02,5.463279411196708679e-02,9.176338091492652893e-03,1.425275579094886780e-03,-3.675834089517593384e-02,7.405014336109161377e-02,-6.021407619118690491e-02,5.000046268105506897e-02,3.779826685786247253e-02,6.145226582884788513e-02,-7.077050209045410156e-02,-9.522513486444950104e-03,8.036358281970024109e-03,-3.799265483394265175e-03,-1.600267179310321808e-02,1.247854204848408699e-03,-9.730980731546878815e-03,9.588421136140823364e-02,1.990458928048610687e-02,-8.889790624380111694e-02,5.626810714602470398e-02,2.971418760716915131e-02,-4.717085883021354675e-02,3.755822544917464256e-03,1.271405164152383804e-02,-5.834103748202323914e-02,3.100808011367917061e-03,1.038154005073010921e-03,-6.778078526258468628e-02,-4.224418103694915771e-02,-1.084579154849052429e-01,3.159664943814277649e-02,-1.734364050207659602e-04,-3.229072317481040955e-02,6.517881900072097778e-02,1.896406989544630051e-03,5.792946368455886841e-02,-1.039863154292106628e-01,-2.385732159018516541e-02,-2.923635067418217659e-03,3.577819094061851501e-02,9.728129208087921143e-02,-9.928519278764724731e-02,1.582755148410797119e-02,-4.305864684283733368e-03,5.359960719943046570e-02,-1.067563518881797791e-01,-7.914803922176361084e-03,-1.793996691703796387e-01,-5.542148649692535400e-02,-2.499477937817573547e-02,-5.825052037835121155e-02,1.490977220237255096e-02,-5.163645371794700623e-02,5.823077261447906494e-02,2.232361398637294769e-02,1.004794239997863770e-01,3.199619054794311523e-02,-1.174095273017883301e-01,4.157104715704917908e-02,4.730665311217308044e-02,7.216221094131469727e-02,8.618559688329696655e-03,1.633110642433166504e-02,-1.996923424303531647e-02,-3.797747194766998291e-02,-7.313489168882369995e-02,-1.880696043372154236e-02,-5.339391529560089111e-02,6.198496744036674500e-02,-6.556837260723114014e-02,-8.479945361614227295e-02,-1.786605082452297211e-02,-6.333556026220321655e-03,9.471046179533004761e-02,-7.117085903882980347e-02,1.955616101622581482e-02,7.789046969264745712e-03,-8.802997320890426636e-02,-9.669677168130874634e-02,1.234425157308578491e-01,3.959236294031143188e-02,8.131570369005203247e-02,2.361658215522766113e-02,2.987251058220863342e-02,-6.846936047077178955e-02,-5.743604153394699097e-02,-5.779932439327239990e-02,8.241191506385803223e-02,2.090488187968730927e-02,-9.739759378135204315e-03,-1.047445461153984070e-02,-2.543411217629909515e-02,4.045885428786277771e-02,3.361059352755546570e-02,-5.109677836298942566e-02,-1.739774644374847412e-02,-5.227171629667282104e-02,-5.648061260581016541e-02,1.167228445410728455e-01,1.014274060726165771e-01,-5.525797232985496521e-02,-1.726329140365123749e-02,-8.149681240320205688e-02,-3.391170874238014221e-02,-2.781846560537815094e-02,-3.787117451429367065e-02,-3.906341269612312317e-02,1.073548048734664917e-01,1.286839693784713745e-01,7.888931035995483398e-02,9.330751746892929077e-02,-3.834414761513471603e-03,-4.972701519727706909e-02,1.092422828078269958e-01,-3.044902160763740540e-02,7.300025224685668945e-02,2.493658103048801422e-02,-2.286009490489959717e-03,2.094948105514049530e-02,4.557809233665466309e-02,-5.122686177492141724e-02,-5.527593195438385010e-02,2.976798452436923981e-03,-7.237433642148971558e-02,-9.841439127922058105e-02,-5.940917134284973145e-02,-3.234109282493591309e-02,7.503321766853332520e-02,-9.447334706783294678e-02,1.045313547365367413e-05,1.075046695768833160e-02,-3.718345612287521362e-02,6.020669825375080109e-03,7.802006602287292480e-02,2.901849709451198578e-02,-3.271495178341865540e-02,1.060540825128555298e-01,-6.940432637929916382e-02,6.738992780447006226e-02,-4.031166434288024902e-02,8.822902292013168335e-02,-1.759835146367549896e-02,1.003217697143554688e-01,5.792899057269096375e-03,7.462309300899505615e-02,3.834525123238563538e-02,3.912271559238433838e-02,6.331149488687515259e-03,1.757157780230045319e-02,5.765314400196075439e-02,4.674415569752454758e-03,3.724017739295959473e-02,6.385585665702819824e-02,-6.314961612224578857e-02,8.351910114288330078e-02,8.604008704423904419e-02,9.837481379508972168e-02,-7.359251379966735840e-02,1.029510200023651123e-01,2.449025586247444153e-02,-2.472657710313796997e-03,-9.658217430114746094e-02,8.569952845573425293e-02,-9.445641934871673584e-02,7.266657054424285889e-02,-1.134978234767913818e-02,-8.987014298327267170e-04,1.072583049535751343e-01,9.331796318292617798e-02,1.683295331895351410e-02,6.439349055290222168e-02,3.329692408442497253e-03,1.102678477764129639e-02,5.382326990365982056e-02,-4.782695695757865906e-02,1.229018419981002808e-01,-6.737212091684341431e-02,-1.431228686124086380e-02,7.302701473236083984e-02,-1.038687676191329956e-01,6.572308950126171112e-03,3.495122119784355164e-02,-6.397823244333267212e-02,2.965115569531917572e-02,-1.807279884815216064e-02,2.168167382478713989e-02,-4.914532881230115891e-03,1.008331701159477234e-01,9.780361503362655640e-02,-1.383081078529357910e-02,2.479941584169864655e-02,-6.395977735519409180e-02,6.810581684112548828e-02,-7.487033307552337646e-02,-6.901594251394271851e-02,-8.890070766210556030e-02,1.112396195530891418e-01,6.957970559597015381e-02,-5.095332488417625427e-02,6.413933634757995605e-02,1.083593517541885376e-01,5.887599289417266846e-02,6.620421260595321655e-02,8.013392239809036255e-02,9.468963742256164551e-02,3.957432135939598083e-02,1.633195579051971436e-02,4.168522357940673828e-02,3.353385999798774719e-02,2.826587297022342682e-03,-1.189255118370056152e-01,-8.676503598690032959e-02,-8.695079945027828217e-03,1.927131228148937225e-02,-4.286228120326995850e-02,3.601228073239326477e-02,-4.842356592416763306e-02,1.423312257975339890e-02,1.405402366071939468e-02,-6.519076228141784668e-02,-7.219115644693374634e-02,4.453293606638908386e-02,8.292377740144729614e-02,-5.031214654445648193e-02,-7.459109276533126831e-02,-4.138219729065895081e-02,1.088616177439689636e-01,-5.396125838160514832e-02,-6.163285300135612488e-02,-8.918078988790512085e-02,4.500126093626022339e-02,3.941483050584793091e-02,3.583998978137969971e-02,1.137823686003684998e-01,-2.783468924462795258e-03,5.678058788180351257e-02,9.308462589979171753e-02,-9.177192300558090210e-02,-4.945969209074974060e-02,1.261245012283325195e-01,-1.350039094686508179e-01,-5.035426095128059387e-02
-1.213360726833343506e-01,2.928753383457660675e-02,-1.341896248050034046e-03,9.125391393899917603e-02,1.393061393173411489e-04,1.228821873664855957e-01,2.306474931538105011e-02,9.528718888759613037e-02,4.546051786746829748e-04,-2.507589571177959442e-02,-5.004545301198959351e-02,1.288284547626972198e-02,3.652551397681236267e-02,5.801092367619276047e-03,-1.456774212419986725e-02,1.047952799126505852e-03,-8.952300995588302612e-04,-1.938220113515853882e-02,-8.217158913612365723e-02,-1.053571235388517380e-02,-8.246419019997119904e-05,3.995864465832710266e-02,5.047142039984464645e-03,1.319716125726699829e-02,-1.467189937829971313e-02,-4.998785443603992462e-03,-6.479415297508239746e-02,1.094579929485917091e-03,2.651486778631806374e-03,7.155278325080871582e-02,-9.818167239427566528e-02,-1.228468958288431168e-03,6.587456911802291870e-02,-2.013635821640491486e-02,3.044256567955017090e-02,-1.718688569962978363e-02,-3.044348768889904022e-02,-9.777707600733265281e-05,5.287545919418334961e-02,5.676511675119400024e-02,5.298561882227659225e-04,7.144154049456119537e-03,-2.615511789917945862e-02,3.326984494924545288e-02,-8.546756207942962646e-02,-1.623141393065452576e-02,2.231051027774810791e-02,1.097873225808143616e-02,-9.663926321081817150e-04,4.818249866366386414e-02,-2.958627883344888687e-03,5.520114302635192871e-02,-4.955353960394859314e-02,-1.134467590600252151e-02,-1.307288464158773422e-02,5.819669365882873535e-02,-3.447349590715020895e-04,2.104357257485389709e-02,2.036004886031150818e-02,3.416481986641883850e-02,-1.732487464323639870e-03,1.544905360788106918e-02,-4.096334055066108704e-02,1.336341053247451782e-01,1.532005053013563156e-02,-3.717036545276641846e-02,-2.231977507472038269e-02,8.889127522706985474e-02,4.723079502582550049e-03,-2.650649659335613251e-02,1.739378459751605988e-02,-5.308326333761215210e-02,-1.407657004892826080e-02,-1.407138071954250336e-02,2.414055354893207550e-02,-2.183267846703529358e-02,-3.941946104168891907e-02,2.665038220584392548e-03,-8.883901685476303101e-02,1.954848412424325943e-04,-4.002905625384300947e-04,-1.846025325357913971e-02,-5.546751618385314941e-02,3.115384466946125031e-02,3.123313188552856445e-02,4.141436144709587097e-02,-7.780226320028305054e-02,-1.426252871751785278e-01,-4.829825833439826965e-02,-3.034202381968498230e-03,-9.724801778793334961e-02,7.784628868103027344e-02,5.340560525655746460e-02,1.682573705911636353e-01,-3.384077921509742737e-02,2.229257486760616302e-03,-6.368463486433029175e-02,-4.883436486124992371e-02,4.194206371903419495e-02,2.332152798771858215e-02,-5.186480656266212463e-02,-2.254811674356460571e-02,2.204011194407939911e-03,-2.388117089867591858e-02,-4.676716029644012451e-02,-2.208642428740859032e-03,1.587657332420349121e-01,-1.760852336883544922e-02,6.157495081424713135e-02,-4.651466384530067444e-02,-5.150340497493743896e-02,-2.129301242530345917e-02,-1.640509814023971558e-02,1.726567000150680542e-02,-9.530325420200824738e-03,-1.050825603306293488e-02,1.609116047620773315e-01,-6.803873693570494652e-04,4.378652200102806091e-02,-4.072820767760276794e-02,2.806716226041316986e-02,-1.331652165390551090e-03,6.385534256696701050e-02,1.058155298233032227e-01,7.174711674451828003e-02,1.025704815983772278e-01,4.475867748260498047e-02,7.463356480002403259e-03,-1.555818691849708557e-02,4.229232668876647949e-02,-7.772479671984910965e-03,4.460757225751876831e-02,4.450982902199029922e-03,6.560384482145309448e-02,-1.919451914727687836e-02,-2.923202887177467346e-02,-6.437571719288825989e-04,1.693687587976455688e-02,8.035097271203994751e-03,9.495762060396373272e-05,1.369448285549879074e-02,-1.239404175430536270e-02,-5.417875573039054871e-02,2.898471429944038391e-03,-1.572489782120101154e-05,-1.856515742838382721e-02,1.098312959074974060e-01,-2.194404415786266327e-02,6.593599100597202778e-04,-6.695210188627243042e-02,-2.601082064211368561e-02,1.495689805597066879e-02,-4.137840121984481812e-02,-1.528663909994065762e-03,-5.890541523694992065e-02,-2.574330195784568787e-03,-3.548669337760657072e-04,-5.821568891406059265e-02,-1.252681314945220947e-01,-1.475451048463582993e-03,3.781847655773162842e-02,-1.417408976703882217e-02,-1.054464653134346008e-02,-7.180905342102050781e-02,4.823832772672176361e-03,-2.236261218786239624e-02,7.577582448720932007e-02,2.627579867839813232e-02,-1.115910336375236511e-02,-3.669721260666847229e-02,-8.007127046585083008e-02,2.249479666352272034e-02,-7.149172574281692505e-02,3.679862711578607559e-04,1.985083147883415222e-02,7.739559561014175415e-02,-4.292680323123931885e-02,1.146340221166610718e-01,9.835585951805114746e-04,2.537450753152370453e-02,-4.567078314721584320e-03,2.845113165676593781e-02,2.123599499464035034e-02,-1.062313467264175415e-02,-5.683844909071922302e-03,1.504935882985591888e-02,9.118769317865371704e-02,6.628882838413119316e-04,-7.982303947210311890e-02,2.952321618795394897e-02,-4.360440373420715332e-02,1.060938164591789246e-01,-1.681279577314853668e-02,1.146260648965835571e-01,2.706948854029178619e-02,5.865569412708282471e-02,2.902685897424817085e-03,6.578928977251052856e-02,1.741553191095590591e-03,1.313688326627016068e-02,1.287833787500858307e-03,-1.502000167965888977e-02,-5.113780125975608826e-02,2.412780188024044037e-02,-1.479620784521102905e-01,-9.291015565395355225e-02,-2.395559661090373993e-02,4.289997369050979614e-02,-4.248279333114624023e-02,4.591843485832214355e-02,1.000038683414459229e-01,6.828266382217407227e-02,8.230964094400405884e-02,-1.025588512420654297e-01,-9.784951806068420410e-03,-3.857110813260078430e-02,1.883248984813690186e-02,-5.355567485094070435e-02,-7.255630940198898315e-02,1.639941707253456116e-02,-1.116687953472137451e-01,5.310918390750885010e-02,4.036074876785278320e-02,-2.749957144260406494e-02,6.916337460279464722e-02,5.861253943294286728e-03,1.357413083314895630e-01,-3.976866602897644043e-02,2.031900919973850250e-02,1.269353926181793213e-01,7.372360676527023315e-02,7.030631601810455322e-02,-7.917619496583938599e-02,-1.006008163094520569e-01,-3.142163902521133423e-02,1.459399610757827759e-02,3.547565778717398643e-03,1.303358655422925949e-02,-4.412164539098739624e-02,9.755405038595199585e-02,-1.154006365686655045e-02,9.211590886116027832e-02,-6.796766072511672974e-02,5.424277856945991516e-02,4.652942880056798458e-04,-1.853079721331596375e-02,-1.051418017596006393e-02,3.840636461973190308e-02,-2.146892994642257690e-02,-2.310136146843433380e-02,6.261721998453140259e-02,1.622470282018184662e-02,1.291366666555404663e-01,6.956025958061218262e-02,5.908644571900367737e-02,2.833801880478858948e-02
-7.765138894319534302e-02,8.129717782139778137e-03,6.249900162220001221e-02,-3.015477396547794342e-02,7.669774349778890610e-03,8.635686710476875305e-03,5.533881857991218567e-02,-8.570311218500137329e-02,6.208288017660379410e-03,-7.969494163990020752e-02,1.201721876859664917e-01,-3.590916050598025322e-03,1.212513819336891174e-02,3.730882424861192703e-03,6.614366173744201660e-02,4.613272845745086670e-03,4.327740680309943855e-05,2.659433986991643906e-03,-2.933278912678360939e-03,-4.344822838902473450e-03,-2.628999948501586914e-02,2.219870872795581818e-02,4.682835936546325684e-02,9.526557475328445435e-02,-7.888317853212356567e-02,-1.498140767216682434e-02,9.201587736606597900e-02,2.276830561459064484e-02,8.300667256116867065e-02,8.804863691329956055e-02,4.794841632246971130e-03,-4.290095064789056778e-03,2.846452640369534492e-03,-3.554992005228996277e-02,-1.254421100020408630e-02,6.537809967994689941e-02,3.300256654620170593e-02,-1.566186174750328064e-02,-7.656255364418029785e-02,-1.099348217248916626e-01,1.011446875054389238e-05,8.958390355110168457e-02,7.680816203355789185e-02,7.319501787424087524e-02,-1.010826602578163147e-01,-1.232261955738067627e-02,-3.483644686639308929e-03,-1.215301305055618286e-01,-2.314858883619308472e-02,-9.594491124153137207e-02,8.668164908885955811e-02,-1.210677847266197205e-01,-7.360852323472499847e-03,8.451625704765319824e-02,8.094121515750885010e-02,2.023035101592540741e-02,2.063902281224727631e-02,-4.012440145015716553e-02,7.043028622865676880e-02,-6.383644789457321167e-02,7.339934259653091431e-02,5.188760347664356232e-03,-7.269188761711120605e-02,1.819529756903648376e-02,-2.955340407788753510e-02,-2.866434119641780853e-02,-1.901882328093051910e-02,8.174480497837066650e-02,2.305764518678188324e-02,-3.182932734489440918e-02,3.772127255797386169e-02,-5.220431461930274963e-02,2.965196222066879272e-02,1.423090323805809021e-02,-8.843059092760086060e-02,6.793719716370105743e-03,1.280392706394195557e-01,1.590478606522083282e-02,-2.649451419711112976e-02,-7.841535657644271851e-02,-1.040229666978120804e-02,-2.663773111999034882e-02,2.115043066442012787e-02,5.076611042022705078e-02,-7.237325608730316162e-02,6.311132013797760010e-02,-1.656624488532543182e-02,-8.073052763938903809e-02,4.983580484986305237e-02,1.274471729993820190e-02,8.243012242019176483e-03,8.909552544355392456e-02,4.704776406288146973e-02,1.660059019923210144e-02,2.409567311406135559e-02,-1.012811362743377686e-01,-1.664932630956172943e-02,-5.331664811819791794e-03,2.098039537668228149e-02,-5.271521210670471191e-02,6.319792475551366806e-03,7.601548731327056885e-02,-2.669268660247325897e-02,-1.239616498351097107e-01,-9.454774670302867889e-03,2.447479218244552612e-02,-6.209975853562355042e-02,5.908352881669998169e-02,5.772382766008377075e-02,-2.324240095913410187e-02,6.095947697758674622e-02,8.799452334642410278e-02,9.929317235946655273e-02,1.225314959883689880e-01,2.304961346089839935e-02,-1.498499885201454163e-02,-1.078533679246902466e-01,-3.689848259091377258e-02,-2.417652681469917297e-02,-8.220782130956649780e-02,2.462614886462688446e-02,2.763435989618301392e-02,1.395184430293738842e-03,2.088767848908901215e-02,-4.090796038508415222e-02,5.055035278201103210e-02,6.572426110506057739e-02,-1.498049683868885040e-02,-8.615359663963317871e-02,-5.709651485085487366e-02,-3.636366873979568481e-02,-1.167712062597274780e-01,2.811191417276859283e-02,-5.970937013626098633e-02,-3.984523564577102661e-02,-1.959692500531673431e-02,5.188746843487024307e-03,2.704955823719501495e-02,-1.207836195826530457e-01,3.447353094816207886e-02,4.806514084339141846e-02,-5.629643797874450684e-02,8.743784576654434204e-02,1.290635857731103897e-02,5.267700646072626114e-03,3.244275227189064026e-02,-7.231871783733367920e-02,-3.886202350258827209e-02,-2.474511042237281799e-02,8.186501264572143555e-02,7.304939627647399902e-02,9.204879403114318848e-02,9.232775866985321045e-02,1.421260274946689606e-02,-1.074027717113494873e-01,2.238414809107780457e-02,-8.355042338371276855e-02,-2.563136164098978043e-03,-1.032396182417869568e-01,2.029844559729099274e-02,-6.286551803350448608e-02,-1.775650866329669952e-02,6.979384273290634155e-02,-5.292391777038574219e-02,5.913991108536720276e-02,-8.748738095164299011e-03,-2.469281293451786041e-02,-8.840706199407577515e-02,4.618264362215995789e-02,-5.785629898309707642e-02,5.860374495387077332e-02,-8.498584479093551636e-02,1.877542585134506226e-02,-2.865799516439437866e-02,-3.140371292829513550e-02,3.337082266807556152e-02,3.249683976173400879e-02,1.313872486352920532e-01,-8.067098446190357208e-03,-4.140263423323631287e-02,3.840688243508338928e-02,6.529413163661956787e-02,-8.393387496471405029e-02,-1.120436191558837891e-01,4.761837795376777649e-02,1.945384219288825989e-02,-1.095809042453765869e-01,9.519474953413009644e-02,-2.855916321277618408e-02,4.039344377815723419e-03,-4.342232365161180496e-03,-1.090153530240058899e-01,-6.726542115211486816e-02,7.170634809881448746e-03,-8.348757028579711914e-02,-1.147840395569801331e-01,-6.675510667264461517e-03,1.888818293809890747e-02,1.344540808349847794e-02,5.029109120368957520e-02,2.178590185940265656e-02,-9.128704667091369629e-03,-4.760285466909408569e-02,-7.778523117303848267e-02,-6.146068871021270752e-02,-9.503982216119766235e-02,-5.883904173970222473e-02,8.972920477390289307e-02,2.645755372941493988e-02,7.784766703844070435e-02,2.697352319955825806e-02,-3.493465855717658997e-02,-1.070372015237808228e-01,-5.435409396886825562e-02,-2.562951669096946716e-02,8.290809392929077148e-02,-3.842614218592643738e-02,-6.584439426660537720e-02,2.083340194076299667e-03,1.069333963096141815e-02,-4.171527177095413208e-02,6.387192755937576294e-02,9.227944910526275635e-02,-2.148880250751972198e-02,4.820178449153900146e-02,7.425126433372497559e-02,7.363250851631164551e-02,3.011214546859264374e-02,1.327444799244403839e-02,-3.014219179749488831e-02,6.067467108368873596e-02,-4.031537100672721863e-02,-7.950030267238616943e-02,-1.128345057368278503e-01,1.120893880724906921e-01,-5.283399671316146851e-02,8.207318931818008423e-02,-2.691082842648029327e-02,-7.770128548145294189e-02,-4.839028045535087585e-02,-4.547517001628875732e-02,-4.599963501095771790e-02,2.496466040611267090e-02,-1.095368340611457825e-01,2.430172637104988098e-02,-5.660250037908554077e-02,-7.561937719583511353e-02,8.444338291883468628e-02,-1.008287146687507629e-01,2.873935922980308533e-02,-8.326116949319839478e-02,7.033485919237136841e-02,8.537846058607101440e-02,9.904550760984420776e-02,2.660802938044071198e-02,-1.027408405207097530e-03
2.666121115908026695e-03,-1.926941983401775360e-02,8.885006536729633808e-05,5.426407605409622192e-02,1.036876565194688737e-04,4.684036970138549805e-02,-3.786998242139816284e-02,-1.071637272834777832e-01,4.875169601291418076e-03,-4.482309892773628235e-02,-8.292063325643539429e-02,3.136084601283073425e-02,4.829458519816398621e-02,1.562262047082185745e-02,-5.809827893972396851e-02,4.948861431330442429e-03,7.710841018706560135e-04,5.364389624446630478e-03,8.808797597885131836e-02,-2.415846288204193115e-02,1.576594331709202379e-05,-5.364558100700378418e-02,1.247889921069145203e-02,-2.549965574871748686e-04,2.200710587203502655e-02,1.159388385713100433e-02,8.904770761728286743e-02,2.304964698851108551e-03,2.864486724138259888e-02,5.049377679824829102e-03,3.353318199515342712e-02,-2.079490339383482933e-03,-1.127974092960357666e-01,1.784725673496723175e-02,8.376981317996978760e-02,1.197482272982597351e-01,-7.431914657354354858e-02,4.422912839800119400e-03,-7.941666245460510254e-02,-3.475660830736160278e-02,1.211479771882295609e-03,-6.788007169961929321e-02,-7.988329045474529266e-03,-9.777338802814483643e-02,-4.716023802757263184e-02,8.071949705481529236e-03,3.447584435343742371e-02,1.785590499639511108e-01,-1.247329823672771454e-02,7.707289606332778931e-02,-3.587089851498603821e-02,-7.948992401361465454e-02,-8.404735475778579712e-02,2.359154075384140015e-02,-2.594133280217647552e-02,5.677292868494987488e-02,2.696142764762043953e-03,-8.268308825790882111e-03,4.169384017586708069e-02,-6.042113900184631348e-02,5.095294117927551270e-02,5.924439802765846252e-02,7.109117507934570312e-02,5.231032613664865494e-03,1.386284679174423218e-01,-6.996200233697891235e-02,7.335166912525892258e-03,2.886774018406867981e-02,2.399424789473414421e-03,1.037993119098246098e-03,2.331911399960517883e-02,-4.356462880969047546e-02,-2.585159149020910263e-03,2.270971983671188354e-02,-1.201167926192283630e-01,2.201109379529953003e-02,9.981520473957061768e-02,-4.563861060887575150e-03,-5.358642339706420898e-02,-1.013781130313873291e-02,-1.445288769900798798e-03,-1.106662824749946594e-01,-4.865282028913497925e-02,1.320839859545230865e-02,-5.064040794968605042e-02,9.282926470041275024e-02,-2.418615296483039856e-02,-5.900837853550910950e-02,8.415704220533370972e-02,4.894063342362642288e-03,2.013665623962879181e-02,-2.035946957767009735e-02,-8.592472970485687256e-02,-7.711631245911121368e-03,5.750284716486930847e-02,-1.346149574965238571e-02,1.390058454126119614e-02,-1.232904964126646519e-03,8.831422775983810425e-02,7.431635260581970215e-02,8.204010128974914551e-02,5.748818814754486084e-02,-1.012323144823312759e-02,-1.133034452795982361e-01,-9.605197608470916748e-02,4.210503306239843369e-03,-8.549428731203079224e-02,-5.725949257612228394e-02,9.518112987279891968e-03,-1.923866197466850281e-02,7.674933224916458130e-02,4.403788968920707703e-02,1.193133443593978882e-01,-1.072595044970512390e-01,1.457620225846767426e-02,-1.171718444675207138e-02,-1.828624308109283447e-02,1.977814920246601105e-02,-9.944473206996917725e-02,-3.987446799874305725e-02,-1.997178420424461365e-02,2.580553106963634491e-02,-4.204813018441200256e-02,7.107630837708711624e-03,2.451468072831630707e-02,-7.174771279096603394e-02,-9.915113449096679688e-03,1.090273335576057434e-01,4.917035996913909912e-02,9.364139288663864136e-02,-9.848111309111118317e-03,-7.775571197271347046e-02,-7.069195620715618134e-03,1.050135195255279541e-01,1.133340992964804173e-05,6.908062845468521118e-02,4.307653754949569702e-03,-2.618144638836383820e-02,-3.871020674705505371e-02,-7.668665144592523575e-03,-6.376371532678604126e-02,3.366982855368405581e-04,-7.408103346824645996e-02,4.175096284598112106e-03,1.361795701086521149e-03,-7.460127770900726318e-02,-4.103129357099533081e-02,-1.621476002037525177e-02,-2.061017090454697609e-03,-1.804414577782154083e-02,9.947858750820159912e-03,6.470855325460433960e-02,2.763488329946994781e-02,1.722916058497503400e-04,3.716143220663070679e-02,7.092325016856193542e-03,-3.651411831378936768e-02,3.988514468073844910e-02,-1.695020310580730438e-02,-6.472884211689233780e-03,2.709045540541410446e-03,-4.112900048494338989e-02,2.815740182995796204e-02,7.083924114704132080e-02,-1.205167174339294434e-02,1.377326063811779022e-02,1.247627806151285768e-04,4.794066771864891052e-02,-8.499542251229286194e-03,-6.601288169622421265e-02,5.028869956731796265e-02,-2.848905324935913086e-02,7.969677448272705078e-02,-5.022185854613780975e-03,-5.424347240477800369e-03,1.840247362852096558e-01,-2.784422598779201508e-02,-5.004794895648956299e-02,-3.432828560471534729e-02,8.103921264410018921e-02,4.979189485311508179e-03,6.103045120835304260e-02,-4.380911588668823242e-02,-2.960242331027984619e-02,-1.562251802533864975e-02,-9.254467673599720001e-03,-6.075498647987842560e-03,6.699070334434509277e-02,3.710842691361904144e-03,8.123933523893356323e-02,1.062413826584815979e-01,8.173810690641403198e-02,4.635928198695182800e-02,-1.132072135806083679e-02,-3.106449358165264130e-02,-1.149676442146301270e-01,-6.999602913856506348e-02,-4.951258655637502670e-03,-3.831924870610237122e-02,3.087483579292893410e-03,4.161628428846597672e-03,7.542652636766433716e-02,5.727512016892433167e-02,1.440472714602947235e-02,9.030907601118087769e-02,1.129456087946891785e-01,7.411038875579833984e-02,3.604041412472724915e-02,5.716053396463394165e-02,2.488341368734836578e-02,6.923840194940567017e-02,-1.174620003439486027e-03,4.849807545542716980e-02,-3.723036497831344604e-02,1.814486645162105560e-02,-9.497521445155143738e-03,5.028381198644638062e-02,-3.983838111162185669e-02,-8.039290457963943481e-02,8.726587146520614624e-02,-3.194304415956139565e-03,-2.205787785351276398e-02,-1.050472185015678406e-01,-1.489866263000294566e-04,1.098768319934606552e-02,1.120934858918190002e-01,-4.583400208503007889e-03,-5.840146541595458984e-02,-8.029319345951080322e-02,-1.002451702952384949e-01,-2.872289856895804405e-03,9.866825491189956665e-02,-2.045182883739471436e-02,-1.161712706089019775e-01,-2.001880668103694916e-03,-2.458364516496658325e-02,3.927228972315788269e-02,-7.374148070812225342e-02,-4.025176912546157837e-02,6.397750228643417358e-02,-1.072631925344467163e-01,-9.801674634218215942e-02,5.499992892146110535e-02,-9.373264759778976440e-02,-8.366082794964313507e-03,-3.402508562430739403e-03,8.465333282947540283e-02,-6.257956475019454956e-02,-1.106051579117774963e-01,-3.572686016559600830e-02,6.207632273435592651e-02,6.562008988112211227e-03,3.673070669174194336e-02,-5.171931907534599304e-02,9.277984499931335449e-02,7.246416993439197540e-03
2.422049269080162048e-02,-4.005723074078559875e-02,8.303792856168001890e-05,-9.460929781198501587e-02,-8.119989070110023022e-04,-1.092637702822685242e-01,-1.753238402307033539e-02,3.891989961266517639e-02,4.472179338335990906e-03,3.651792928576469421e-02,8.576808869838714600e-02,-3.309718891978263855e-02,-7.694470882415771484e-02,-1.421940699219703674e-02,9.212389588356018066e-02,3.122095949947834015e-03,1.190844923257827759e-03,-1.049322634935379028e-02,1.855622977018356323e-01,3.424528241157531738e-02,-2.191007297369651496e-06,6.624358892440795898e-02,-3.192860633134841919e-03,-2.820711024105548859e-02,4.712771624326705933e-02,1.030120346695184708e-02,-2.301761135458946228e-02,2.579587278887629509e-03,-4.126909188926219940e-03,-2.747501805424690247e-02,-2.940678037703037262e-02,-4.031545948237180710e-03,-1.673372276127338409e-02,-4.819735419005155563e-03,-2.361529320478439331e-02,-3.516661748290061951e-02,-3.675594343803822994e-04,-1.398783409968018532e-03,1.562274061143398285e-02,-2.458401396870613098e-02,9.053194080479443073e-04,2.937522018328309059e-03,1.040367875248193741e-02,-8.157572709023952484e-03,-1.084793452173471451e-02,-5.586884543299674988e-02,-1.831809990108013153e-02,5.639627575874328613e-02,9.188593178987503052e-02,-9.051056951284408569e-02,2.658446505665779114e-02,-8.846455067396163940e-02,6.682672351598739624e-02,-1.666059531271457672e-02,-6.825419515371322632e-02,-6.538989394903182983e-02,-4.300274886190891266e-04,7.914233021438121796e-03,3.915875405073165894e-02,1.756969466805458069e-02,2.438815683126449585e-02,-5.219542607665061951e-02,-5.729193612933158875e-02,-1.170819774270057678e-01,1.381810009479522705e-01,7.854825258255004883e-02,1.778934337198734283e-02,-1.046671345829963684e-01,-2.212206646800041199e-02,-1.435232311487197876e-01,-3.977823629975318909e-02,-5.109780654311180115e-02,-2.248382661491632462e-03,9.737761691212654114e-03,6.722090765833854675e-04,1.022085314616560936e-03,-2.374729141592979431e-02,-1.349576748907566071e-02,-1.114173904061317444e-01,-4.531204700469970703e-02,-1.139377825893461704e-03,-2.591648511588573456e-02,1.600618362426757812e-01,1.875573210418224335e-02,3.425202518701553345e-02,-1.405530124902725220e-01,-5.133874714374542236e-03,-1.241948455572128296e-01,-6.421227008104324341e-02,3.404671791940927505e-03,2.317605540156364441e-02,-1.038995012640953064e-01,-8.965414017438888550e-02,-7.216444611549377441e-02,9.792423248291015625e-02,-5.256313364952802658e-03,-2.527368068695068359e-02,1.700232736766338348e-02,3.326071193441748619e-03,-1.862050220370292664e-02,7.070950418710708618e-02,4.842936992645263672e-02,-1.533528231084346771e-02,3.127313032746315002e-02,-8.170834183692932129e-02,9.270039387047290802e-03,1.047756243497133255e-02,1.449423879384994507e-01,2.167152613401412964e-02,-2.782304212450981140e-02,5.336644873023033142e-02,1.011581253260374069e-02,1.442355848848819733e-02,-1.345242280513048172e-02,6.120595708489418030e-02,-7.214225362986326218e-03,-3.229454159736633301e-02,2.366388216614723206e-02,7.594140619039535522e-02,-1.153335496783256531e-01,4.357666522264480591e-02,3.148205950856208801e-02,-3.562312945723533630e-02,-4.734851419925689697e-03,9.109216183423995972e-02,6.283275783061981201e-02,3.978954628109931946e-03,6.554556638002395630e-02,-7.587868720293045044e-02,7.245685160160064697e-02,-4.089824855327606201e-03,4.137809202075004578e-02,-3.261117031797766685e-03,-5.773171037435531616e-02,-1.276082266122102737e-02,-4.962304141372442245e-03,7.500626612454652786e-03,-5.625977367162704468e-02,-1.495958305895328522e-02,-1.655513886362314224e-03,8.173392713069915771e-02,-1.647521555423736572e-02,8.159232139587402344e-02,-1.895926659926772118e-03,1.179846120066940784e-03,-3.028982877731323242e-02,-4.161651805043220520e-02,-3.688365221023559570e-02,3.196225687861442566e-02,-2.657529339194297791e-02,-3.936775028705596924e-03,-9.749329090118408203e-02,-2.095964178442955017e-02,-1.061656977981328964e-02,1.364596933126449585e-01,-1.400474552065134048e-02,6.874924898147583008e-02,-8.698656409978866577e-02,7.743735611438751221e-02,-1.666971296072006226e-02,5.253481492400169373e-02,8.270329982042312622e-02,-1.369967013597488403e-01,1.423027068376541138e-01,-3.089334070682525635e-02,1.101255882531404495e-02,-1.117171645164489746e-01,4.327010735869407654e-02,7.711377460509538651e-03,1.151995640248060226e-02,-4.474595561623573303e-02,-1.347299367189407349e-01,-5.660394206643104553e-02,-1.897390815429389477e-03,-5.318804085254669189e-02,8.391735702753067017e-02,-1.999275200068950653e-02,-2.550006844103336334e-02,-4.533653706312179565e-02,1.025075018405914307e-01,1.780667528510093689e-02,-6.110514514148235321e-03,1.222665142267942429e-02,-3.929574415087699890e-02,8.762117475271224976e-03,-1.466959528625011444e-02,6.271493434906005859e-02,7.856959849596023560e-02,-2.524515055119991302e-02,-2.288670837879180908e-02,-7.299313694238662720e-02,-7.412045449018478394e-02,7.746078073978424072e-02,2.834342233836650848e-02,-3.552628681063652039e-02,-1.301093399524688721e-02,4.020802304148674011e-02,1.592843420803546906e-02,1.427537668496370316e-02,1.213713921606540680e-02,4.733443725854158401e-03,4.630200564861297607e-02,1.026951149106025696e-01,-6.387473642826080322e-02,-1.206792145967483521e-01,9.291511774063110352e-02,3.871968016028404236e-03,5.679367482662200928e-02,8.047648519277572632e-02,-3.655532747507095337e-02,1.382129825651645660e-02,7.198577374219894409e-02,-1.226799786090850830e-01,1.058538854122161865e-01,-1.222243905067443848e-01,-1.066914647817611694e-01,2.019396796822547913e-02,-2.062970213592052460e-02,-4.895966127514839172e-02,6.205700710415840149e-02,3.253431618213653564e-02,4.996374621987342834e-02,9.278208762407302856e-02,-5.133873224258422852e-02,-9.390436112880706787e-03,6.042116880416870117e-02,-1.211017817258834839e-01,5.473935976624488831e-02,-1.334131881594657898e-02,-1.277746260166168213e-01,7.018201798200607300e-02,1.272764429450035095e-02,-8.479215949773788452e-02,-2.288575842976570129e-02,-1.170018836855888367e-01,-9.277152270078659058e-02,5.280245468020439148e-02,-2.457674965262413025e-02,-1.926146447658538818e-02,-1.472994778305292130e-02,9.121043235063552856e-02,1.115715280175209045e-01,-1.037745252251625061e-01,-4.281531646847724915e-02,-3.325575497001409531e-03,-9.512141346931457520e-02,1.098410412669181824e-02,-3.156375512480735779e-02,-5.192685127258300781e-02,4.261583089828491211e-02,-1.614875905215740204e-02,1.957564055919647217e-02,-1.129155233502388000e-01,-6.168577447533607483e-02,-3.232404962182044983e-02,9.164020419120788574e-03
-9.951193630695343018e-02,1.706629805266857147e-02,-4.682847112417221069e-02,-1.487163099227473140e-04,3.196278586983680725e-03,2.885323716327548027e-03,-8.485589176416397095e-02,-2.869814867153763771e-03,1.293500233441591263e-02,-6.440893281251192093e-03,-5.749881267547607422e-02,1.443103794008493423e-02,-1.702613979578018188e-01,-1.142908558249473572e-01,-5.826549604535102844e-02,3.859728341922163963e-03,-1.007522107101976871e-03,1.249941997230052948e-02,-6.387744098901748657e-02,-1.414800621569156647e-02,5.346781760454177856e-02,-2.623360417783260345e-02,-4.139596596360206604e-02,-7.839117944240570068e-02,-9.850602596998214722e-02,-1.525364536792039871e-02,5.211466923356056213e-02,2.484934870153665543e-03,4.452560096979141235e-02,7.665203511714935303e-02,-8.447121083736419678e-02,-5.823194049298763275e-03,-9.725424647331237793e-02,4.215875267982482910e-02,6.500072311609983444e-03,-6.068163365125656128e-02,4.290281981229782104e-02,-3.487181616947054863e-03,1.911694370210170746e-02,2.545899152755737305e-02,-1.440705382265150547e-04,1.949169859290122986e-02,7.374733686447143555e-02,3.437029197812080383e-02,-1.098394021391868591e-01,-9.157463163137435913e-02,-3.308292850852012634e-02,-8.212910592555999756e-02,5.601980537176132202e-02,-1.181132495403289795e-01,-6.580266356468200684e-02,-9.844623506069183350e-02,-6.245970726013183594e-02,-6.887122988700866699e-02,-6.452087312936782837e-02,5.230036750435829163e-02,-8.458499796688556671e-03,-3.500320017337799072e-02,4.510790109634399414e-02,4.360781237483024597e-02,7.018718123435974121e-02,-1.468292321078479290e-04,-2.216700837016105652e-02,-1.142806932330131531e-01,8.790444582700729370e-02,3.984870761632919312e-02,-7.279399782419204712e-02,8.902652561664581299e-02,2.390859834849834442e-02,9.212312847375869751e-02,2.003440819680690765e-02,-2.702098526060581207e-02,1.531701814383268356e-02,1.401449833065271378e-02,-1.120454519987106323e-01,-6.901491433382034302e-03,-2.418876439332962036e-02,-1.323062181472778320e-02,1.026531681418418884e-01,-6.349359638988971710e-03,-3.902608295902609825e-03,-1.403207033872604370e-01,-4.560814797878265381e-02,4.110225290060043335e-02,3.164692968130111694e-02,6.882748752832412720e-02,1.063877250999212265e-02,-5.038569495081901550e-02,-8.425016701221466064e-02,2.271257340908050537e-03,8.326473832130432129e-02,1.020253747701644897e-01,9.885382652282714844e-02,-7.183201611042022705e-02,-6.552622467279434204e-02,1.527932565659284592e-02,-4.514727741479873657e-02,-2.239796333014965057e-02,-1.129349321126937866e-01,-1.668806374073028564e-02,7.693246006965637207e-02,-5.711903795599937439e-02,-7.901066914200782776e-03,-7.210823893547058105e-02,-5.194558203220367432e-02,-2.402747608721256256e-02,5.339670553803443909e-02,4.130660742521286011e-02,-6.215315312147140503e-02,-1.311272662132978439e-02,9.317884594202041626e-02,3.640751913189888000e-02,-5.906161293387413025e-02,-3.987649828195571899e-02,7.642236351966857910e-02,-6.709622219204902649e-03,8.179342746734619141e-02,6.167540792375802994e-03,-4.050541296601295471e-02,5.155064631253480911e-03,-8.041786402463912964e-02,4.058350622653961182e-02,-1.069708913564682007e-01,4.682163894176483154e-02,1.118228584527969360e-01,1.076948717236518860e-01,1.086745224893093109e-02,-4.220495745539665222e-02,-6.503571569919586182e-02,7.715488225221633911e-02,8.037912845611572266e-02,-3.588609769940376282e-02,1.822734810411930084e-02,1.623551174998283386e-02,9.227994829416275024e-03,-1.713323965668678284e-02,6.806417368352413177e-03,4.979229345917701721e-02,5.820326879620552063e-02,-2.350812964141368866e-02,7.420274615287780762e-02,6.614864617586135864e-02,3.241081722080707550e-03,5.538860335946083069e-03,-1.177776372060179710e-03,5.982472002506256104e-02,1.035761386156082153e-01,1.897840527817606926e-03,-2.420472539961338043e-02,6.172277405858039856e-02,-4.901838675141334534e-02,-6.935913115739822388e-03,3.435532376170158386e-02,-3.630843479186296463e-03,-3.869017958641052246e-02,-2.750750258564949036e-02,3.157691285014152527e-02,1.003771796822547913e-01,-6.087327003479003906e-02,7.948448183014988899e-04,-9.704840183258056641e-02,3.610878810286521912e-02,7.118313759565353394e-02,-8.993455022573471069e-02,6.357931345701217651e-02,2.588375099003314972e-02,7.123217731714248657e-02,2.006374532356858253e-03,9.763292036950588226e-03,-3.285167738795280457e-02,1.034595370292663574e-01,-8.880285918712615967e-02,-5.679934099316596985e-02,-3.991820849478244781e-03,-5.141499452292919159e-03,-3.300594165921211243e-02,1.001336649060249329e-01,4.174529109150171280e-03,-7.906548678874969482e-02,-7.019885350018739700e-03,-1.388256438076496124e-02,1.542932540178298950e-02,-6.097682937979698181e-02,9.902416728436946869e-03,1.068390067666769028e-02,-6.833518855273723602e-03,-9.397906810045242310e-02,-2.169341593980789185e-02,-2.689547091722488403e-02,-4.579083994030952454e-02,1.407905668020248413e-02,-1.135035157203674316e-01,6.706870347261428833e-02,2.726181037724018097e-02,4.173435270786285400e-02,-4.741284996271133423e-02,-1.087234541773796082e-02,1.721739210188388824e-02,-6.353785842657089233e-02,-4.277382418513298035e-02,-1.278312527574598789e-03,-8.516925573348999023e-02,6.802883744239807129e-02,2.815921790897846222e-03,1.307921707630157471e-01,-1.046589240431785583e-01,-1.253647208213806152e-01,4.440424218773841858e-02,5.135373212397098541e-03,-6.149557232856750488e-02,-1.849325560033321381e-02,3.686649724841117859e-02,-1.567953638732433319e-02,-8.940854668617248535e-02,4.249736294150352478e-02,-9.092675894498825073e-02,2.694975212216377258e-02,6.518700718879699707e-02,1.752820983529090881e-02,-6.446273624897003174e-02,3.722892329096794128e-02,-7.239449769258499146e-02,-1.273132977075874805e-03,-3.110175952315330505e-02,8.237668871879577637e-02,-1.242407038807868958e-01,-1.515355426818132401e-02,-5.887971445918083191e-02,9.505634754896163940e-02,6.348057836294174194e-02,7.791288197040557861e-02,7.436172664165496826e-02,1.844165287911891937e-02,1.838185638189315796e-02,9.809322655200958252e-02,4.160644486546516418e-02,-4.041865468025207520e-02,-9.153053164482116699e-02,-7.534789294004440308e-02,-7.849667221307754517e-02,1.929247006773948669e-02,-5.833419039845466614e-02,1.886103488504886627e-02,4.596668854355812073e-02,-3.399852290749549866e-02,-1.206701844930648804e-01,-1.092731580138206482e-01,7.846263051033020020e-02,-4.365450516343116760e-02,3.594503179192543030e-02,-5.315661896020174026e-03,-3.057055920362472534e-02,-9.288141131401062012e-02,-4.884546995162963867e-02,7.191724330186843872e-02,-1.402491051703691483e-02
7.482574135065078735e-02,6.214038282632827759e-02,-6.205402687191963196e-02,9.662995487451553345e-02,4.986710846424102783e-03,-1.163975447416305542e-01,-3.629492130130529404e-03,-8.581663668155670166e-02,-2.731997147202491760e-02,2.301378734409809113e-02,1.173533797264099121e-01,-2.088819444179534912e-02,-4.637324064970016479e-02,-1.276054829359054565e-01,1.255201827734708786e-02,7.646048907190561295e-03,1.183786807814612985e-04,8.640488982200622559e-02,3.797226399183273315e-02,-2.319988235831260681e-02,2.343162707984447479e-02,8.309184759855270386e-02,-2.275705151259899139e-02,5.267401039600372314e-02,-9.251260757446289062e-02,-1.874089986085891724e-02,5.314102023839950562e-02,-1.960237510502338409e-02,3.232968738302588463e-03,3.898657485842704773e-02,6.508570909500122070e-02,2.288369648158550262e-02,1.692742295563220978e-02,-7.802529726177453995e-03,9.633051231503486633e-03,-1.167221963405609131e-01,-3.024911507964134216e-03,-4.838408902287483215e-03,-1.002578530460596085e-02,1.920762099325656891e-02,1.052404055371880531e-03,-3.122882917523384094e-02,-5.759499222040176392e-02,2.188870310783386230e-02,-9.988234937191009521e-02,8.387858048081398010e-03,1.097063906490802765e-02,4.685828834772109985e-02,8.873671293258666992e-02,4.282410815358161926e-02,3.499979898333549500e-02,5.379829928278923035e-02,-9.496803581714630127e-02,-5.241741240024566650e-02,4.923159256577491760e-02,-1.008441392332315445e-02,-1.947339274920523167e-03,-3.033364657312631607e-03,2.448664419353008270e-02,1.191399246454238892e-02,-2.744047529995441437e-02,-9.334243088960647583e-02,-7.647376507520675659e-02,-1.031123176217079163e-01,8.209520019590854645e-03,4.986629262566566467e-02,-8.819490671157836914e-02,9.375525265932083130e-02,-3.444351255893707275e-02,-1.142672300338745117e-01,-6.565145403146743774e-02,3.757880255579948425e-02,-6.514531560242176056e-03,-6.418423727154731750e-03,8.837243169546127319e-02,2.287906408309936523e-02,-1.105468198657035828e-01,-1.435243804007768631e-02,3.444422781467437744e-02,4.054515063762664795e-02,-8.415245451033115387e-03,1.078094765543937683e-01,-8.530159294605255127e-02,6.422346830368041992e-02,-4.273600131273269653e-02,-6.866969168186187744e-02,9.888093918561935425e-03,1.291289925575256348e-01,-4.132620617747306824e-02,4.262686707079410553e-03,-9.553088247776031494e-02,3.566076606512069702e-02,1.115863174200057983e-01,6.657909601926803589e-02,-5.650548636913299561e-02,-3.004906699061393738e-02,-5.547403916716575623e-02,2.448704093694686890e-02,-9.780384600162506104e-02,-8.940061926841735840e-02,4.653705656528472900e-02,3.667772933840751648e-02,-1.054716575890779495e-02,1.372392382472753525e-02,3.332439437508583069e-02,-1.639674883335828781e-03,-8.813588321208953857e-02,3.432735428214073181e-02,-8.993085473775863647e-02,2.162444032728672028e-02,-7.500317692756652832e-02,-8.057937771081924438e-02,-2.466359734535217285e-02,-5.171777680516242981e-02,9.925410896539688110e-02,-2.422326710075139999e-03,5.059551447629928589e-02,6.437686830759048462e-02,-7.529847323894500732e-02,-7.245496381074190140e-03,-3.426052257418632507e-02,9.722946584224700928e-02,-6.969921756535768509e-03,-1.073313057422637939e-01,-8.999450504779815674e-02,-9.119857102632522583e-02,-1.122468411922454834e-01,8.496423810720443726e-02,-5.472804978489875793e-02,5.628504324704408646e-03,-1.118837948888540268e-02,3.112703328952193260e-03,2.376357465982437134e-02,6.027444079518318176e-02,-1.843610405921936035e-02,-8.769057691097259521e-03,1.091851037926971912e-03,-6.017209216952323914e-02,1.150083914399147034e-01,7.112936116755008698e-03,3.240774944424629211e-02,-9.340405464172363281e-02,-9.782402217388153076e-02,1.115432847291231155e-02,3.044978249818086624e-03,6.295196712017059326e-02,-3.442002460360527039e-02,2.758904360234737396e-03,1.307684183120727539e-02,-6.718386709690093994e-02,1.010158732533454895e-01,1.214427128434181213e-02,5.722607672214508057e-02,-1.090203993953764439e-03,8.908771723508834839e-02,-4.176318272948265076e-02,6.294704973697662354e-02,-5.210753157734870911e-02,-5.516035854816436768e-02,3.353213891386985779e-02,4.648575186729431152e-02,3.567042574286460876e-02,8.799182623624801636e-02,-9.259642660617828369e-02,8.842142298817634583e-03,1.553157903254032135e-02,-7.460162043571472168e-02,4.463468864560127258e-02,-1.524948794394731522e-02,5.224297940731048584e-02,-5.233664531260728836e-03,1.209793463349342346e-01,2.162098325788974762e-02,-4.336367174983024597e-02,-6.453783065080642700e-02,-1.558278314769268036e-02,9.782102704048156738e-02,3.705547749996185303e-02,4.344788938760757446e-02,-5.676944926381111145e-02,2.697284100577235222e-03,5.451939627528190613e-02,-8.429225534200668335e-03,-7.574347406625747681e-02,1.252689491957426071e-02,5.203726701438426971e-03,1.906348019838333130e-02,7.247649878263473511e-02,-5.317340418696403503e-02,-6.411356385797262192e-03,-3.363961353898048401e-02,3.663157671689987183e-02,-6.060826126486063004e-03,-7.943468540906906128e-02,3.115372266620397568e-03,-9.519203007221221924e-02,-5.438076704740524292e-02,-6.018361821770668030e-02,-5.323795601725578308e-02,7.217381894588470459e-02,8.924092166125774384e-03,7.803696393966674805e-02,-4.737399145960807800e-02,-6.307169795036315918e-02,1.204364895820617676e-01,-1.193242240697145462e-02,-8.285757154226303101e-02,-9.398225694894790649e-02,2.187776938080787659e-02,2.879813313484191895e-02,8.755222707986831665e-02,9.827140718698501587e-02,1.028963401913642883e-01,7.347366213798522949e-02,-5.994556471705436707e-02,-1.034073978662490845e-01,-9.910901077091693878e-03,6.906560808420181274e-02,5.406154692173004150e-02,-1.134290099143981934e-01,-1.214120686054229736e-01,5.162891373038291931e-02,8.908310532569885254e-02,2.773365378379821777e-02,-4.948274791240692139e-02,8.749846369028091431e-02,1.034589949995279312e-03,8.698903769254684448e-02,-3.905843198299407959e-02,-1.291772425174713135e-01,-1.197131127119064331e-01,-5.302913859486579895e-02,2.441795915365219116e-02,-6.121668219566345215e-02,-6.424944847822189331e-02,5.277489125728607178e-02,8.277771621942520142e-02,-5.021790973842144012e-03,-1.110953167080879211e-01,5.963826552033424377e-02,1.068113818764686584e-01,5.504874512553215027e-02,3.058665804564952850e-02,-1.035167872905731201e-01,-1.011280994862318039e-02,-7.100559026002883911e-02,-2.567899599671363831e-02,-8.757945895195007324e-02,1.202358398586511612e-02,2.422518655657768250e-02,-5.615040287375450134e-02,-7.130847312510013580e-03,2.976419404149055481e-02,1.200823783874511719e-01,-1.001499406993389130e-02,8.769537508487701416e-02
6.277514994144439697e-02,7.623088546097278595e-03,7.855886593461036682e-03,-1.195623576641082764e-01,5.596057977527379990e-03,3.223189711570739746e-02,-4.524268954992294312e-02,-8.145290613174438477e-02,4.249822814017534256e-05,-9.023782610893249512e-02,7.451538927853107452e-03,2.816101186908781528e-04,-1.229152083396911621e-01,-2.060909941792488098e-02,4.991328343749046326e-02,6.599526386708021164e-03,2.129467669874429703e-03,-9.759323671460151672e-03,-2.091936580836772919e-02,2.485153265297412872e-02,1.028054859489202499e-02,1.761395856738090515e-02,-2.927550231106579304e-04,5.915717035531997681e-02,8.094468712806701660e-02,-4.046519845724105835e-02,-5.395274236798286438e-02,4.814144223928451538e-03,-3.045763820409774780e-02,-1.833626814186573029e-02,1.213175710290670395e-02,5.903523415327072144e-03,8.078108727931976318e-02,7.310423254966735840e-02,-3.631084412336349487e-02,-6.218694522976875305e-02,-2.073350548744201660e-02,-4.169648513197898865e-03,1.390558015555143356e-02,-3.817860409617424011e-02,-5.815126001834869385e-03,-2.757837064564228058e-02,-3.402509912848472595e-02,-1.060449481010437012e-01,2.471417933702468872e-02,-1.046678274869918823e-01,-4.936049133539199829e-02,8.009415119886398315e-03,-2.192928455770015717e-02,-6.238453090190887451e-02,4.977367818355560303e-02,9.743325412273406982e-02,7.356417924165725708e-02,-6.693417578935623169e-02,-3.752301633358001709e-02,8.997733145952224731e-02,1.047307252883911133e-02,-4.748640209436416626e-02,1.013216003775596619e-02,3.135630488395690918e-02,-3.963626548647880554e-02,3.607566654682159424e-02,1.291973292827606201e-01,-5.631269887089729309e-03,1.205146536231040955e-01,9.204668551683425903e-02,-3.094151616096496582e-02,-6.931968033313751221e-02,1.634487300179898739e-03,-4.856136441230773926e-02,7.856387645006179810e-02,5.123624950647354126e-02,3.449943289160728455e-02,-3.221696242690086365e-02,4.277018830180168152e-03,1.910007186233997345e-02,3.947827592492103577e-02,-3.339811041951179504e-02,-2.009842172265052795e-02,-3.165215253829956055e-02,-8.292637765407562256e-03,5.487064365297555923e-03,9.649509191513061523e-02,6.093340460211038589e-03,9.845732897520065308e-02,5.552385468035936356e-03,-6.691668182611465454e-02,-9.696458280086517334e-02,4.334963858127593994e-02,4.224721342325210571e-03,-6.589767336845397949e-02,-1.146424189209938049e-01,-3.526458516716957092e-03,-1.158922985196113586e-01,-7.531695067882537842e-02,-6.772466748952865601e-02,-7.045885082334280014e-03,2.974951826035976410e-02,3.555716201663017273e-02,-7.843638770282268524e-03,-9.411048889160156250e-02,-1.034917011857032776e-01,-4.746795445680618286e-02,-8.102906495332717896e-02,-1.945997029542922974e-02,-2.471941336989402771e-02,-1.042282134294509888e-01,1.632831059396266937e-02,1.109181493520736694e-01,-7.652414590120315552e-02,2.159168198704719543e-02,1.742746913805603981e-03,-3.607260808348655701e-02,-9.670688211917877197e-02,-6.862165033817291260e-02,-3.535682801157236099e-03,5.772282555699348450e-02,-5.232540518045425415e-02,-3.323403000831604004e-02,9.166648983955383301e-02,-7.423792034387588501e-02,2.901389962062239647e-03,6.177474930882453918e-02,-5.614514648914337158e-02,-1.115314215421676636e-01,1.220118105411529541e-01,-8.559717237949371338e-02,9.307224303483963013e-02,-1.916447468101978302e-02,5.324125289916992188e-02,2.818793244659900665e-02,-1.240198239684104919e-01,-6.701907608658075333e-03,-5.747443065047264099e-03,3.814818337559700012e-02,-9.211038053035736084e-02,6.091047078371047974e-03,-2.011161297559738159e-02,1.160018262453377247e-03,1.660221442580223083e-02,8.546441793441772461e-02,2.792024984955787659e-02,1.253405362367630005e-01,4.127583932131528854e-03,5.418151617050170898e-03,-3.398824250325560570e-03,6.604540348052978516e-02,-4.093372821807861328e-02,-5.669295042753219604e-02,-1.221817824989557266e-02,-4.467787221074104309e-02,6.833401322364807129e-02,-5.746914818882942200e-02,-1.940999738872051239e-02,1.121408492326736450e-01,1.297188177704811096e-02,1.195640563964843750e-01,1.072764024138450623e-01,6.042502447962760925e-02,-1.633526943624019623e-02,6.990133970975875854e-02,-3.546397760510444641e-02,-1.687306165695190430e-02,1.187772601842880249e-01,-3.555296733975410461e-02,3.905861452221870422e-02,-1.687788218259811401e-02,4.206683486700057983e-02,-8.120164275169372559e-03,-2.539642527699470520e-02,4.859033226966857910e-02,5.120146274566650391e-02,3.240685537457466125e-02,-9.479917585849761963e-03,4.042291268706321716e-02,6.024710088968276978e-02,6.167577579617500305e-02,9.707943350076675415e-02,-9.426060318946838379e-02,6.359226256608963013e-02,3.974557667970657349e-02,6.163505464792251587e-02,-9.156369604170322418e-03,-5.367583036422729492e-02,-2.225312031805515289e-02,-1.627233065664768219e-02,3.102044388651847839e-02,-5.131112784147262573e-02,4.170235618948936462e-02,3.859667479991912842e-02,7.366598583757877350e-03,8.360975980758666992e-02,-2.174191363155841827e-02,7.403802871704101562e-02,6.942293792963027954e-02,-4.837768152356147766e-02,-2.039175480604171753e-02,-6.568035483360290527e-02,-2.660687267780303955e-02,5.367720127105712891e-02,-4.181388299912214279e-03,6.078436970710754395e-02,-2.175398170948028564e-02,-4.446059837937355042e-02,5.369437485933303833e-02,2.450113184750080109e-02,-1.088032051920890808e-01,-1.059520691633224487e-01,-7.475471496582031250e-02,7.606694102287292480e-02,1.022317856550216675e-01,5.337075144052505493e-02,-1.851887628436088562e-02,-6.053109094500541687e-02,-9.555142372846603394e-02,-8.566457778215408325e-02,5.746844038367271423e-02,2.883938327431678772e-02,-2.804337628185749054e-02,7.630511373281478882e-02,1.084453891962766647e-02,4.377317801117897034e-02,-8.841089904308319092e-02,-8.287371695041656494e-02,7.051162421703338623e-02,1.071460247039794922e-01,-2.839281596243381500e-02,4.738898202776908875e-02,9.071587026119232178e-02,6.742659211158752441e-02,7.470014691352844238e-02,2.277024835348129272e-02,4.338889196515083313e-02,4.644278809428215027e-02,4.080276936292648315e-02,9.291128069162368774e-02,-1.128027290105819702e-01,6.590269505977630615e-02,7.938686013221740723e-02,3.600505180656909943e-03,-5.886323377490043640e-02,3.646807372570037842e-02,1.867268048226833344e-02,-7.279668003320693970e-02,-6.557545810937881470e-02,4.372384026646614075e-02,-3.756990283727645874e-02,-4.118227958679199219e-02,1.456889696419239044e-02,3.429565951228141785e-02,-3.522947803139686584e-02,7.632545381784439087e-02,4.919243603944778442e-02,5.392228811979293823e-02,-2.447141706943511963e-02,-1.257301960140466690e-02
-9.420231729745864868e-02,4.159416630864143372e-02,4.770481027662754059e-03,-1.189454272389411926e-01,7.091845618560910225e-04,1.119314581155776978e-01,-5.656449869275093079e-02,-2.003746293485164642e-02,1.986808143556118011e-03,1.700281910598278046e-02,2.534952946007251740e-02,-5.216635297983884811e-03,6.602367013692855835e-02,-6.979190558195114136e-02,3.094921261072158813e-02,3.708353266119956970e-03,-7.225015724543482065e-05,-6.774916779249906540e-03,-1.344521194696426392e-01,-1.463112607598304749e-02,3.355997055768966675e-02,-5.967058241367340088e-02,3.770384937524795532e-02,-9.135518223047256470e-02,-4.912796616554260254e-02,9.604853694327175617e-04,1.066393330693244934e-01,1.477917772717773914e-03,1.219462417066097260e-02,1.290751397609710693e-01,1.025747358798980713e-01,2.406792191322892904e-05,7.042472809553146362e-02,-3.023113496601581573e-02,1.499432139098644257e-02,4.861682280898094177e-02,-4.042412154376506805e-03,-2.871537581086158752e-03,-5.604750290513038635e-02,-1.671378873288631439e-02,7.111368468031287193e-04,-6.705963984131813049e-03,-4.360248893499374390e-02,-1.153063103556632996e-01,-4.112583771347999573e-02,3.935282304883003235e-02,1.970167085528373718e-02,-5.074787512421607971e-02,1.006970461457967758e-02,2.684247447177767754e-03,2.207487821578979492e-02,-8.064515143632888794e-02,-1.670916914008557796e-03,4.973027482628822327e-02,4.028113558888435364e-02,2.309374324977397919e-02,-9.752160869538784027e-03,-6.923669576644897461e-02,6.421796232461929321e-02,-6.563554704189300537e-02,6.790569424629211426e-02,-1.223618164658546448e-01,4.440187662839889526e-02,2.705949358642101288e-02,1.288429796695709229e-01,-4.070247989147901535e-03,-1.057201623916625977e-01,9.299688972532749176e-03,2.188499830663204193e-02,4.150047525763511658e-02,-1.164937205612659454e-02,1.974745653569698334e-02,8.404830470681190491e-03,8.755503222346305847e-03,-7.764103263616561890e-02,-2.645023353397846222e-02,-3.042425215244293213e-02,-6.861417787149548531e-04,-2.560240402817726135e-02,-8.728006854653358459e-03,-1.572249107994139194e-03,-1.039176136255264282e-01,-4.972420632839202881e-02,3.127524256706237793e-02,-5.248348414897918701e-02,-9.764132648706436157e-02,-1.651159487664699554e-02,-8.001795411109924316e-02,-8.718539029359817505e-02,7.902496727183461189e-04,-1.049153059720993042e-01,-5.558473989367485046e-02,-5.567730404436588287e-03,6.801409274339675903e-02,5.587615445256233215e-02,7.959831506013870239e-02,6.091543659567832947e-02,-3.424788638949394226e-02,-8.845490962266921997e-02,1.558718457818031311e-02,7.821676880121231079e-02,7.447210699319839478e-02,1.000322494655847549e-02,-6.123420968651771545e-02,-1.254211813211441040e-01,-1.043366454541683197e-02,-7.447955757379531860e-02,-1.442353334277868271e-02,3.807078674435615540e-02,-7.207947969436645508e-02,9.895832091569900513e-02,6.835716962814331055e-02,-2.872466668486595154e-02,-7.275282591581344604e-02,3.549819812178611755e-02,-1.164623419754207134e-03,-7.022038847208023071e-02,-1.687247119843959808e-02,4.882470145821571350e-02,-1.220379397273063660e-02,-6.630997359752655029e-02,3.599946945905685425e-02,6.920783221721649170e-02,9.685361385345458984e-02,-5.490171536803245544e-02,-4.573948308825492859e-02,-4.075923562049865723e-02,6.457386165857315063e-02,-7.248564809560775757e-02,-6.959190219640731812e-02,1.009498350322246552e-02,3.126243874430656433e-02,5.819926504045724869e-03,1.174912229180335999e-01,-1.668629469349980354e-03,6.332812458276748657e-02,4.837922286242246628e-03,-5.335177108645439148e-02,5.037370324134826660e-02,-6.514051463454961777e-03,-1.467120088636875153e-02,-7.030840218067169189e-02,8.480726741254329681e-03,4.017499741166830063e-03,2.056623779935762286e-04,7.472401112318038940e-02,-1.025545597076416016e-01,4.016568884253501892e-02,9.202185319736599922e-04,-5.398769397288560867e-03,-2.267156168818473816e-02,3.562600538134574890e-02,-8.231946080923080444e-02,2.934731892310082912e-04,-6.810344755649566650e-03,-2.167717553675174713e-03,4.583515599370002747e-02,4.805283620953559875e-02,-9.129920601844787598e-02,-1.170590287074446678e-03,-4.473659768700599670e-02,-7.339138537645339966e-02,3.903890028595924377e-02,-1.043392252177000046e-02,1.435625180602073669e-02,1.564263924956321716e-02,-4.162777215242385864e-02,-1.351122464984655380e-02,4.447049926966428757e-03,-8.312449604272842407e-02,7.797799259424209595e-02,-1.677630841732025146e-02,7.852098904550075531e-03,-1.368524320423603058e-02,-6.656344048678874969e-04,6.693257391452789307e-02,4.507689177989959717e-02,1.339268088340759277e-01,6.497604306787252426e-03,-9.878185391426086426e-02,1.377791259437799454e-02,2.141918614506721497e-02,-3.054948896169662476e-02,-6.626898795366287231e-02,-3.238621726632118225e-02,-1.872259750962257385e-02,9.263881295919418335e-02,-1.310244854539632797e-02,-1.034797206521034241e-01,1.188902854919433594e-01,-7.590106129646301270e-02,9.408928453922271729e-02,2.823492512106895447e-02,-6.979609280824661255e-02,4.276820644736289978e-02,1.047988310456275940e-01,-7.693772017955780029e-02,8.419457823038101196e-02,3.258782625198364258e-02,-1.456894166767597198e-02,2.755429130047559738e-03,8.950940519571304321e-02,2.079006750136613846e-03,-4.820151627063751221e-02,8.610941469669342041e-02,-3.917847294360399246e-03,-8.540008217096328735e-02,5.114315450191497803e-02,-1.893461495637893677e-02,1.042040213942527771e-01,4.410963878035545349e-02,-8.893045037984848022e-02,5.805055797100067139e-02,-4.901129007339477539e-02,6.980110704898834229e-02,1.162845082581043243e-02,-3.331387042999267578e-02,-5.543967708945274353e-02,6.027555465698242188e-02,-7.333796471357345581e-02,-5.418313667178153992e-02,-5.547897145152091980e-02,-1.083014160394668579e-01,3.767152782529592514e-03,-4.678130149841308594e-02,4.342766478657722473e-02,-1.885542646050453186e-02,5.431553348898887634e-02,-1.059920862317085266e-01,-8.580188453197479248e-02,-4.624277725815773010e-02,-3.072923608124256134e-02,-1.236442029476165771e-01,1.087001487612724304e-01,-8.095637708902359009e-02,-1.451340969651937485e-02,8.828099071979522705e-02,-1.182329282164573669e-02,9.926575236022472382e-03,-1.534793153405189514e-02,3.754966333508491516e-02,-8.509282767772674561e-02,-7.198609411716461182e-02,6.984587758779525757e-02,1.912999898195266724e-03,-4.920408874750137329e-02,-8.524715155363082886e-02,-1.190057843923568726e-01,-1.318072993308305740e-02,-4.286226350814104080e-03,8.694374561309814453e-02,2.813517488539218903e-02,-2.021323703229427338e-02,1.422049999237060547e-01,-3.487445414066314697e-02,3.261634334921836853e-02
2.825494669377803802e-02,8.479719609022140503e-02,-2.441927604377269745e-02,-5.220692977309226990e-02,1.145424394053407013e-04,7.859643548727035522e-02,-6.681592762470245361e-02,1.069492995738983154e-01,-5.875883623957633972e-03,5.189252272248268127e-02,-6.490821950137615204e-03,-1.224983483552932739e-02,1.591003984212875366e-01,4.321868345141410828e-02,4.974557459354400635e-02,5.605783313512802124e-03,2.968070039059966803e-04,1.695324294269084930e-02,-7.101641595363616943e-02,1.446506008505821228e-02,1.741133257746696472e-02,1.303191296756267548e-03,3.084080666303634644e-02,-9.890761226415634155e-02,-9.880156069993972778e-02,-1.000139676034450531e-02,-6.569875031709671021e-02,2.404458448290824890e-02,-2.080515027046203613e-02,-2.203059196472167969e-02,1.061155200004577637e-01,2.763698808848857880e-03,-1.086626499891281128e-01,-8.312697522342205048e-03,1.622701995074748993e-02,-6.596950441598892212e-02,3.890443220734596252e-02,-3.752339107450097799e-04,-9.249765425920486450e-02,-4.367431253194808960e-02,1.364512834697961807e-03,5.237830802798271179e-02,2.842593938112258911e-02,-3.064420446753501892e-02,7.645883411169052124e-02,-5.214108526706695557e-02,1.815011724829673767e-02,4.124084115028381348e-02,-8.941035717725753784e-02,-1.618313640356063843e-01,5.714972317218780518e-02,-1.616723984479904175e-01,2.392795309424400330e-02,3.482033684849739075e-02,1.485427725128829479e-03,4.403559491038322449e-03,4.209114983677864075e-02,3.827733453363180161e-03,-2.760183811187744141e-02,-1.303841173648834229e-02,-9.468786418437957764e-03,-1.463509500026702881e-01,7.807847112417221069e-02,2.190426923334598541e-02,2.809511125087738037e-02,5.484896898269653320e-02,7.139378041028976440e-02,-9.277129545807838440e-03,-2.527846395969390869e-02,1.043379381299018860e-01,3.634224832057952881e-02,-4.646339640021324158e-02,-3.101005963981151581e-02,1.830085366964340210e-02,9.300014376640319824e-02,-9.760126704350113869e-04,-5.590892862528562546e-03,-5.977178923785686493e-03,-7.156495749950408936e-02,-7.742773275822401047e-03,-4.086582455784082413e-03,7.323595136404037476e-02,3.644410520792007446e-02,4.445158690214157104e-02,-3.218668699264526367e-02,-9.492377191781997681e-02,-1.087807398289442062e-02,6.277919281274080276e-03,-2.796438522636890411e-02,5.098948604427278042e-04,-3.094463376328349113e-03,6.857258081436157227e-02,-2.445197105407714844e-02,-2.780933119356632233e-02,9.145520627498626709e-02,-1.073620468378067017e-01,-6.391663849353790283e-02,1.275148801505565643e-02,-1.410848796367645264e-01,-8.193984627723693848e-02,-7.357347756624221802e-02,-7.600103318691253662e-02,-5.637770518660545349e-03,-1.125648766756057739e-01,6.053674221038818359e-02,-2.517712861299514771e-02,2.024381607770919800e-02,-5.973982438445091248e-02,4.735643416643142700e-02,3.272895887494087219e-02,1.695666275918483734e-02,4.510260373353958130e-02,6.005604192614555359e-02,8.366912603378295898e-02,-2.333285845816135406e-02,3.879680531099438667e-03,5.594560131430625916e-02,-1.447145175188779831e-02,4.351473972201347351e-02,7.633760571479797363e-02,-3.422624617815017700e-02,6.226025149226188660e-02,-7.015706598758697510e-02,-1.020646989345550537e-01,5.547268316149711609e-02,1.145849376916885376e-01,-3.869089856743812561e-02,5.885495990514755249e-02,-3.275770694017410278e-02,-7.297759503126144409e-02,6.007513776421546936e-02,1.121095940470695496e-01,8.881960064172744751e-03,-6.495063006877899170e-02,-8.842693641781806946e-03,1.062897741794586182e-01,2.405699808150529861e-03,-2.218890935182571411e-02,-1.216579750180244446e-01,-1.716489344835281372e-02,1.152033805847167969e-01,-5.747015401721000671e-02,-4.700108990073204041e-02,3.617112059146165848e-03,1.686883158981800079e-03,1.795038208365440369e-02,-7.148650288581848145e-02,2.360812388360500336e-02,-2.821522764861583710e-02,-1.264122724533081055e-01,-6.433167308568954468e-02,1.486430689692497253e-02,7.846604101359844208e-03,-1.072191749699413776e-03,-9.873800724744796753e-02,-3.955569118261337280e-02,7.361917290836572647e-03,3.571434412151575089e-03,7.453177589923143387e-03,2.964617684483528137e-03,-6.076974049210548401e-02,9.607763029634952545e-03,-7.093092054128646851e-02,6.073071062564849854e-02,3.548469766974449158e-02,-8.086887188255786896e-03,8.836698532104492188e-02,-4.373062029480934143e-02,-4.213761910796165466e-02,-5.673611909151077271e-02,-4.094345122575759888e-02,1.202822625637054443e-01,-1.089100837707519531e-01,2.790644392371177673e-02,3.379833418875932693e-03,-2.061470225453376770e-02,1.122025400400161743e-01,1.095099374651908875e-01,4.474025592207908630e-02,-3.094964101910591125e-02,8.644523040857166052e-05,2.342619188129901886e-02,4.033416882157325745e-02,-4.405926913022994995e-02,-3.587802499532699585e-02,6.990476977080106735e-03,-3.318255394697189331e-02,-1.216567121446132660e-02,-3.466856479644775391e-02,5.553885176777839661e-02,9.603420644998550415e-02,1.573113948106765747e-01,4.739135876297950745e-02,8.014005422592163086e-02,9.629384428262710571e-02,8.543618768453598022e-02,-9.635072201490402222e-02,1.716840080916881561e-02,-2.043857611715793610e-02,4.666846618056297302e-02,-7.004017010331153870e-03,-7.663852721452713013e-02,5.544477701187133789e-02,-2.149153687059879303e-02,8.468566089868545532e-02,5.450318381190299988e-02,-5.623841658234596252e-02,-7.129827141761779785e-02,2.365178428590297699e-02,-4.889250546693801880e-02,-1.036627814173698425e-01,-5.775701720267534256e-03,6.142287328839302063e-02,6.592500954866409302e-02,-5.944130197167396545e-02,-7.424044609069824219e-02,-6.372267007827758789e-02,-4.836089909076690674e-02,6.548567116260528564e-02,-3.015161305665969849e-02,-4.885140806436538696e-02,5.368288233876228333e-02,9.768033772706985474e-02,-6.491833366453647614e-03,4.800944123417139053e-03,7.555995136499404907e-02,1.941046863794326782e-02,4.151089861989021301e-02,8.714471757411956787e-02,-6.354486942291259766e-02,2.122320421040058136e-02,-8.644866943359375000e-02,8.047361671924591064e-02,3.581788390874862671e-02,-1.798178069293498993e-02,-6.527171283960342407e-02,-5.141875892877578735e-02,3.855277597904205322e-02,-3.357419744133949280e-02,3.519066795706748962e-02,3.182100504636764526e-02,-6.430935114622116089e-02,5.807441473007202148e-02,4.647190123796463013e-02,1.692577823996543884e-02,5.591057986021041870e-02,-9.629758447408676147e-02,-4.292045906186103821e-02,9.088589251041412354e-02,2.005421184003353119e-02,-1.380116343498229980e-01,5.503827705979347229e-02,5.115236714482307434e-02,1.374059021472930908e-01,1.023087501525878906e-01,-9.632504545152187347e-03
-6.976807117462158203e-02,-3.768940269947052002e-02,-4.263860359787940979e-02,4.377689957618713379e-02,7.083809003233909607e-03,-6.960919499397277832e-02,-8.118037134408950806e-02,-4.787323251366615295e-02,8.399031357839703560e-04,-5.517677217721939087e-02,-9.553003311157226562e-02,-8.647517114877700806e-02,-1.576937735080718994e-02,-8.568398654460906982e-02,1.029263287782669067e-01,1.127087697386741638e-02,2.825881587341427803e-03,4.510490968823432922e-02,-3.665197268128395081e-02,8.289410918951034546e-02,1.114791142754256725e-03,-9.599131345748901367e-02,-2.635226817801594734e-03,7.963091135025024414e-02,-9.256099909543991089e-02,9.583049453794956207e-03,4.437936842441558838e-02,-4.118989408016204834e-02,9.188855439424514771e-02,-8.853120729327201843e-03,-1.073206439614295959e-01,7.135970517992973328e-03,-6.168143451213836670e-02,2.698736637830734253e-02,-1.676537841558456421e-02,-1.190813258290290833e-01,1.928199315443634987e-03,-1.169110741466283798e-02,-5.789855867624282837e-02,-3.843547031283378601e-02,1.530063431710004807e-02,8.336506783962249756e-02,1.745434477925300598e-02,1.282039135694503784e-01,-9.731931984424591064e-02,2.168890088796615601e-02,-1.770418696105480194e-02,-5.361532047390937805e-02,6.530123949050903320e-02,-5.436478927731513977e-02,-9.957193396985530853e-03,-8.605350553989410400e-02,-1.246407162398099899e-02,-5.152700096368789673e-02,4.488842934370040894e-02,7.204109430313110352e-02,-4.048737138509750366e-02,-2.554591186344623566e-02,2.163709513843059540e-02,7.941361516714096069e-02,9.756889194250106812e-02,5.246143415570259094e-02,2.662751823663711548e-02,1.014969050884246826e-01,-6.978944689035415649e-02,-6.150102987885475159e-02,-6.504654884338378906e-02,-9.533726610243320465e-03,-3.297795727849006653e-02,3.999825939536094666e-02,1.840089447796344757e-02,6.152213737368583679e-02,-3.288649395108222961e-02,7.639498449862003326e-03,3.844716772437095642e-02,8.874368853867053986e-03,-9.361948817968368530e-02,-1.537005417048931122e-02,-5.789285898208618164e-02,-6.219350174069404602e-02,-1.124998927116394043e-02,6.211740151047706604e-02,5.540601536631584167e-02,-1.924957847222685814e-03,-1.026042774319648743e-01,7.241638749837875366e-02,1.653774082660675049e-02,1.124302819371223450e-01,7.014957256615161896e-03,8.327547693625092506e-04,9.731150418519973755e-02,1.081508770585060120e-02,-3.295379132032394409e-02,1.113914623856544495e-01,-5.399299412965774536e-02,-7.102681789547204971e-03,-9.689311683177947998e-02,4.110537469387054443e-02,6.565969437360763550e-02,-3.841288015246391296e-02,1.221764311194419861e-01,-7.422966510057449341e-02,-4.962692037224769592e-02,-1.254727542400360107e-01,-2.039128914475440979e-02,-2.196959033608436584e-02,8.725753426551818848e-02,7.975552231073379517e-02,-1.336497515439987183e-01,-3.539635613560676575e-02,-5.172778293490409851e-02,6.464338302612304688e-02,-2.771874517202377319e-02,-6.675689667463302612e-02,-7.500939071178436279e-02,-3.955892473459243774e-02,1.203602529130876064e-03,9.205926954746246338e-02,-3.118461929261684418e-02,-8.116719126701354980e-02,8.954657614231109619e-02,-2.662279456853866577e-02,6.060163676738739014e-02,-2.891563624143600464e-02,3.494968637824058533e-02,-6.327259540557861328e-02,-3.112315200269222260e-02,1.098958551883697510e-01,2.497817017138004303e-02,1.129130050539970398e-01,8.817139267921447754e-02,-8.171981573104858398e-02,2.437053993344306946e-02,-8.909410238265991211e-02,-7.985004782676696777e-02,7.532384246587753296e-02,6.670848932117223740e-03,-1.103109493851661682e-01,5.173397064208984375e-02,-2.868595765903592110e-03,1.614488475024700165e-02,-8.583338558673858643e-02,-1.084175482392311096e-01,1.074537076056003571e-02,1.163146551698446274e-02,6.403634697198867798e-02,-2.855219319462776184e-02,-3.779508545994758606e-02,-6.283296644687652588e-02,9.344305843114852905e-02,6.779751926660537720e-02,6.334393471479415894e-02,7.750292122364044189e-02,-2.514017000794410706e-02,-6.408762186765670776e-02,5.345237627625465393e-02,2.664231508970260620e-02,2.027819678187370300e-02,8.629939705133438110e-02,2.342287264764308929e-02,-7.154926657676696777e-02,5.018457397818565369e-02,2.800833061337471008e-02,-8.272483199834823608e-02,1.050909906625747681e-01,5.813997238874435425e-02,9.269527159631252289e-03,4.468601942062377930e-02,-4.127542674541473389e-02,5.128949508070945740e-02,-8.060510456562042236e-02,-1.874367892742156982e-02,-2.802757732570171356e-02,1.400565821677446365e-02,-4.861598834395408630e-02,-9.832663834095001221e-02,-5.319631099700927734e-02,-2.091395668685436249e-02,6.371750682592391968e-02,7.978183776140213013e-02,2.064940333366394043e-02,1.818377524614334106e-02,3.743375837802886963e-02,-1.052547991275787354e-01,-7.498773932456970215e-02,-2.756063267588615417e-02,5.529480054974555969e-02,2.432907372713088989e-02,-9.106890857219696045e-02,1.155159771442413330e-01,4.512674733996391296e-02,5.780839547514915466e-02,6.075569614768028259e-02,-5.622830241918563843e-02,-1.016152277588844299e-01,4.037808626890182495e-02,9.850448369979858398e-02,-6.413464248180389404e-02,-8.454184979200363159e-02,4.514027759432792664e-02,-5.605269595980644226e-02,-7.614935934543609619e-02,6.185197457671165466e-02,3.166082501411437988e-02,-6.158671900629997253e-02,-1.175556778907775879e-01,7.616845518350601196e-02,8.916290849447250366e-02,-1.496903784573078156e-02,1.171582788228988647e-01,1.837187074124813080e-02,-2.165920659899711609e-02,4.097951576113700867e-02,8.776096999645233154e-02,5.067751184105873108e-02,-2.334978803992271423e-02,-9.356614947319030762e-02,-1.092253699898719788e-01,4.608378559350967407e-02,-2.718319557607173920e-02,2.863821946084499359e-02,9.299353510141372681e-02,5.559345334768295288e-02,8.790931105613708496e-02,2.653764002025127411e-02,1.440427266061306000e-02,-6.755040027201175690e-03,4.035459831357002258e-02,-5.848134681582450867e-02,6.232439354062080383e-02,-4.277602210640907288e-02,9.313604980707168579e-02,1.065247692167758942e-02,6.973739713430404663e-02,1.140800490975379944e-01,3.756142407655715942e-02,5.234416574239730835e-02,-2.085227519273757935e-02,7.071224600076675415e-02,1.053525432944297791e-01,-7.460095733404159546e-02,-9.384748339653015137e-02,2.820602059364318848e-02,1.473676692694425583e-02,4.768562689423561096e-02,6.419691443443298340e-02,3.318902105093002319e-02,-6.230588257312774658e-02,-6.494905799627304077e-02,-5.378909036517143250e-02,9.166692197322845459e-02,-3.669037716463208199e-03,-1.465039886534214020e-02,4.158614948391914368e-02,7.767014950513839722e-02,-5.484984256327152252e-03
