-1.052126381546258926e-02
5.489715375006198883e-03
-8.831687271595001221e-03
2.559719234704971313e-02
1.828515203669667244e-03
-1.685463357716798782e-04
-1.112417783588171005e-02
2.370995283126831055e-02
1.001965068280696869e-02
1.491285394877195358e-02
-2.146204374730587006e-02
4.634859040379524231e-02
-8.225350175052881241e-04
3.916191402822732925e-03
6.015207618474960327e-03
-8.097454905509948730e-02
-2.180806733667850494e-02
6.070750299841165543e-03
-1.745652779936790466e-02
1.642172597348690033e-02
2.949091233313083649e-02
-8.296422660350799561e-02
8.149437606334686279e-03
-1.422466896474361420e-02
9.587380103766918182e-03
-8.101683924905955791e-04
-2.385877771303057671e-03
1.055428851395845413e-02
1.540295127779245377e-02
2.281912975013256073e-02
-1.136300433427095413e-02
-2.567668631672859192e-02
4.304790869355201721e-02
-1.433530449867248535e-02
9.325362741947174072e-03
2.375943586230278015e-02
-2.469556778669357300e-02
-3.223195672035217285e-03
-1.627364009618759155e-02
7.887072861194610596e-03
8.634408004581928253e-04
3.440636442974209785e-03
-1.235101930797100067e-02
-1.340923644602298737e-02
-2.156934142112731934e-02
8.425927720963954926e-03
-7.371808402240276337e-03
-1.359020452946424484e-02
-2.507519721984863281e-02
1.550804264843463898e-02
6.359623279422521591e-03
-1.211375929415225983e-02
2.013908885419368744e-02
-1.279423385858535767e-02
-1.728735305368900299e-02
-1.822511665523052216e-02
-1.584602892398834229e-02
1.269519794732332230e-02
-1.744390651583671570e-02
7.122629787772893906e-03
1.042150799185037613e-02
1.863739639520645142e-02
-3.008150961250066757e-03
5.454057361930608749e-03
-1.283274032175540924e-03
1.778339967131614685e-02
5.754455178976058960e-02
2.847630064934492111e-03
9.125008247792720795e-03
-4.273112397640943527e-03
3.580136224627494812e-03
5.423355475068092346e-02
4.353930242359638214e-03
1.404653675854206085e-02
4.357916861772537231e-02
4.587656259536743164e-02
2.184663899242877960e-02
-4.180718096904456615e-04
2.390339411795139313e-02
6.279493123292922974e-02
6.028484087437391281e-03
7.181792752817273140e-04
-8.087745867669582367e-03
2.434411272406578064e-02
2.116633206605911255e-02
5.859614908695220947e-02
1.292775757610797882e-02
1.731113716959953308e-02
4.619604442268610001e-03
3.866477683186531067e-02
1.572114229202270508e-02
9.642921388149261475e-03
4.271637648344039917e-02
2.129068970680236816e-02
1.917464658617973328e-03
-2.574900537729263306e-02
3.550023538991808891e-03
-9.848982095718383789e-03
5.507582426071166992e-02
1.137883681803941727e-02
1.070713810622692108e-02
-8.218546397984027863e-03
3.595002228394150734e-03
4.966800287365913391e-02
1.106872130185365677e-02
6.788420025259256363e-03
5.779222398996353149e-02
6.354477256536483765e-02
3.793480107560753822e-03
-2.310554962605237961e-03
1.015073526650667191e-02
2.486917749047279358e-02
-1.340987905859947205e-02
-8.075478486716747284e-03
-1.845237612724304199e-02
1.486503984779119492e-02
3.461529687047004700e-02
3.885515034198760986e-02
2.436311915516853333e-03
1.914961077272891998e-02
1.964431814849376678e-02
1.156033365987241268e-03
4.041549749672412872e-03
-9.797196835279464722e-03
3.175565972924232483e-03
3.889202699065208435e-02
2.481953473761677742e-03
-2.146523073315620422e-02
