-4.890925437211990356e-02,9.068711660802364349e-04,-8.266926556825637817e-02,-1.115596294403076172e-02,-3.057705424726009369e-02,-8.816844969987869263e-02,-9.177593141794204712e-02,4.244551062583923340e-02,1.075034663081169128e-01,2.156312344595789909e-03,-1.703133620321750641e-02,4.798622056841850281e-02,1.101414561271667480e-01,1.104981824755668640e-02,2.738047391176223755e-03,9.560324996709823608e-02,-1.098421812057495117e-01,1.783371903002262115e-02,3.076016902923583984e-02,8.279023692011833191e-03,1.086763218045234680e-01,-3.647317364811897278e-02,1.012616325169801712e-03,-3.989882243331521749e-04,7.402994483709335327e-02,3.916448354721069336e-02,-4.031927511096000671e-02,2.545397914946079254e-02,9.715191088616847992e-03,-1.467978395521640778e-02,-1.164474934339523315e-01,9.299013018608093262e-02,-9.498954564332962036e-02,-3.746492555364966393e-03,-1.548586189746856689e-01,-3.058647736907005310e-03,-5.287254229187965393e-02,-1.174942702054977417e-01,1.444836556911468506e-01,-1.006959453225135803e-01,-4.290148615837097168e-02,-9.729875251650810242e-03,8.250677585601806641e-02,7.271239906549453735e-02,3.724661841988563538e-02,1.552428770810365677e-02,-2.885305695235729218e-02,1.534436363726854324e-02,-8.416674286127090454e-02,-9.385021775960922241e-02,1.129274442791938782e-02,2.223350480198860168e-02,-2.276227064430713654e-02,-7.014887034893035889e-02,-1.598122157156467438e-02,-1.142055355012416840e-02,3.823174163699150085e-02,-2.570256777107715607e-02,-5.623222514986991882e-02,-4.286369308829307556e-02,1.822784692049026489e-01,1.251856386661529541e-01,6.346286833286285400e-02,-1.044075489044189453e-01,-2.694603614509105682e-02,5.757642909884452820e-03,1.558020859956741333e-01,-5.242757499217987061e-02,-1.191521733999252319e-01,2.222995646297931671e-02,-1.655432730913162231e-01,-7.204306125640869141e-02,3.444771515205502510e-03,2.085742503404617310e-01,1.999650150537490845e-01,9.923429787158966064e-02,-1.121237948536872864e-01,5.392114073038101196e-02,3.590980544686317444e-02,-5.716196447610855103e-02,-8.317846059799194336e-02,3.120599780231714249e-03,2.027043141424655914e-02,3.746551461517810822e-03,9.004851430654525757e-02,9.745870530605316162e-02,1.866099797189235687e-02,-4.906459152698516846e-02,5.671142786741256714e-02,2.001256123185157776e-02,-7.116550207138061523e-02,3.026924841105937958e-02,6.407402455806732178e-02,1.364406049251556396e-01,-8.265045285224914551e-02,-3.728068619966506958e-02,3.311846777796745300e-02,1.089227292686700821e-02,1.448843181133270264e-01,-6.909679621458053589e-02,9.724934399127960205e-02,7.949805259704589844e-02,-1.315331459045410156e-01,-2.135131880640983582e-02,1.166463941335678101e-01,2.805274911224842072e-02,-5.072018504142761230e-02,1.441946029663085938e-01,-1.611166074872016907e-02,-4.185243695974349976e-02,1.187619864940643311e-01,-2.602076157927513123e-03,1.026664897799491882e-01,-1.027774214744567871e-01,-8.533324301242828369e-02,4.172680899500846863e-02,-2.700034342706203461e-02,1.202855184674263000e-01,-1.791034489870071411e-01,-1.099095270037651062e-01,7.443861663341522217e-02,-5.657880753278732300e-02,1.830573379993438721e-02,-7.233645766973495483e-02,-7.496055960655212402e-02,1.728846728801727295e-01,-1.068449914455413818e-01,5.700003728270530701e-02
-2.146762609481811523e-02,3.470203280448913574e-02,4.633208736777305603e-02,-6.171139702200889587e-02,4.158516600728034973e-02,-5.846770014613866806e-03,6.234960630536079407e-02,-1.100159883499145508e-01,1.372068561613559723e-02,-8.158003538846969604e-02,9.037911146879196167e-02,8.335944265127182007e-02,-1.003552749752998352e-01,1.924581453204154968e-02,-4.303651861846446991e-03,-2.668904960155487061e-01,-9.602508507668972015e-03,-6.844247132539749146e-02,-9.321717172861099243e-02,1.084684804081916809e-01,-7.530380040407180786e-02,6.811799108982086182e-02,-1.602167496457695961e-03,2.428320050239562988e-02,-3.659409005194902420e-03,-5.754981935024261475e-02,1.194646731019020081e-01,2.350653707981109619e-02,1.616219431161880493e-01,-4.891853779554367065e-02,-1.503891050815582275e-01,-1.141029000282287598e-01,1.280288100242614746e-01,-8.869843184947967529e-02,-1.140359118580818176e-01,-1.652118712663650513e-01,-1.800067350268363953e-02,9.104134887456893921e-02,2.153291553258895874e-02,6.874558329582214355e-02,-1.402139961719512939e-01,1.433194875717163086e-01,1.324054002761840820e-01,7.404826581478118896e-02,1.462961137294769287e-01,3.634819760918617249e-02,-1.337365657091140747e-01,-5.715021491050720215e-02,-1.389214396476745605e-02,1.822317987680435181e-01,1.078654676675796509e-01,-2.400523080723360181e-04,5.726239457726478577e-02,-1.555246114730834961e-01,-8.043472468852996826e-02,-1.065133437514305115e-01,-5.659248679876327515e-03,1.347251981496810913e-01,2.931486442685127258e-02,7.104073464870452881e-02,6.734639406204223633e-02,-1.026954278349876404e-01,7.862073183059692383e-02,1.360903680324554443e-02,-6.938231736421585083e-02,4.869626462459564209e-02,1.216287910938262939e-01,-3.536141663789749146e-02,-9.141451865434646606e-02,-1.135894581675529480e-01,-9.250742942094802856e-02,-8.608977496623992920e-02,-1.527742892503738403e-01,8.484567701816558838e-02,-1.232158392667770386e-01,2.498023398220539093e-02,-7.101337891072034836e-03,-2.371191605925559998e-02,1.294887959957122803e-01,1.873898506164550781e-01,6.626667827367782593e-02,5.275823920965194702e-02,2.782332152128219604e-02,-9.731752797961235046e-03,-5.828444659709930420e-02,-5.390071868896484375e-02,-2.033036760985851288e-02,1.193324401974678040e-01,-7.676520198583602905e-02,4.036245495080947876e-02,1.619482971727848053e-02,1.356273144483566284e-01,-1.277274191379547119e-01,-7.153321802616119385e-02,-7.604137063026428223e-02,-1.097512021660804749e-01,5.407609790563583374e-02,6.980614364147186279e-02,-1.299625262618064880e-02,-1.254992336034774780e-01,-4.143129289150238037e-02,6.194597855210304260e-02,-9.380023926496505737e-02,1.968073397874832153e-01,4.141587764024734497e-02,-1.116962656378746033e-01,1.622159183025360107e-01,-2.294681221246719360e-02,-6.446436047554016113e-02,6.214815378189086914e-02,-1.548332571983337402e-01,4.675053060054779053e-02,-1.640283018350601196e-01,-5.110215395689010620e-02,2.069101668894290924e-02,5.444156005978584290e-02,-9.012579917907714844e-02,-1.352551113814115524e-02,-1.611313968896865845e-01,-1.189964707009494305e-03,-4.813650250434875488e-02,1.233845129609107971e-01,-6.207420665305107832e-05,3.074736148118972778e-02,1.169865727424621582e-01,-4.334100335836410522e-02,6.956224888563156128e-02,-1.919250935316085815e-02
-1.708758920431137085e-01,8.331566117703914642e-03,2.028015404939651489e-01,6.060561537742614746e-02,2.200707793235778809e-02,-1.194341331720352173e-01,6.129760667681694031e-02,5.160325206816196442e-03,-2.378600277006626129e-02,3.348398953676223755e-02,-4.782456904649734497e-02,-5.919784307479858398e-02,8.175993710756301880e-02,1.381984539330005646e-02,-7.689098827540874481e-03,-2.156393378973007202e-01,8.310033380985260010e-02,5.103338509798049927e-02,6.305819749832153320e-02,9.557452984154224396e-03,1.593352705240249634e-01,1.064149513840675354e-01,-9.443745948374271393e-03,1.167949941009283066e-02,-4.937044903635978699e-02,-6.741614639759063721e-02,-1.100484505295753479e-01,-7.897947728633880615e-02,-1.613599807024002075e-01,-1.478524059057235718e-01,7.882785052061080933e-02,4.368616640567779541e-02,-2.444515004754066467e-03,-3.168818354606628418e-02,3.736359253525733948e-02,1.661171764135360718e-01,-4.732334613800048828e-02,1.170392185449600220e-01,-2.648155391216278076e-02,-1.332044005393981934e-01,-4.559003561735153198e-02,-1.228229478001594543e-01,5.727999657392501831e-02,-1.032178103923797607e-01,1.281089782714843750e-01,-6.940172985196113586e-03,-1.347035914659500122e-01,6.488506682217121124e-03,-1.435338407754898071e-01,1.384453624486923218e-01,-7.701490819454193115e-02,1.228340044617652893e-01,7.395004481077194214e-02,1.367371827363967896e-01,-6.831344962120056152e-02,1.507932096719741821e-01,4.428108781576156616e-02,1.161539703607559204e-01,-5.880545452237129211e-02,5.640065297484397888e-02,-4.188844934105873108e-02,-4.721894115209579468e-02,-3.065199591219425201e-02,5.229094624519348145e-02,-1.510038673877716064e-01,2.982637844979763031e-02,-2.809612266719341278e-02,9.713829495012760162e-03,-1.083649620413780212e-01,6.432836502790451050e-02,7.933776080608367920e-02,6.456111371517181396e-02,-9.911896288394927979e-02,-1.436553597450256348e-01,4.653040319681167603e-02,-6.602846551686525345e-03,6.452507525682449341e-02,3.020418994128704071e-02,8.655379712581634521e-02,9.008855372667312622e-02,-1.116665080189704895e-01,-6.168221309781074524e-02,-6.079502031207084656e-02,-1.013955473899841309e-01,1.722595095634460449e-01,2.049138769507408142e-02,2.730406448245048523e-02,3.929789364337921143e-02,-1.045502796769142151e-01,9.201308339834213257e-02,1.572111546993255615e-01,9.903239458799362183e-02,4.402254521846771240e-02,-1.260628178715705872e-02,-6.146829947829246521e-02,9.929719567298889160e-02,4.442531242966651917e-02,1.385148167610168457e-01,1.352408826351165771e-01,-2.676699683070182800e-02,-3.990109637379646301e-02,4.051449149847030640e-02,-6.914815306663513184e-02,4.654453322291374207e-02,1.318630874156951904e-01,1.669453643262386322e-02,2.953829802572727203e-02,-3.325799852609634399e-02,2.814949676394462585e-02,5.010391399264335632e-02,5.749915540218353271e-02,-4.681690037250518799e-02,1.364810913801193237e-01,1.325253993272781372e-01,-5.245722830295562744e-02,-3.045199438929557800e-02,1.920107193291187286e-02,7.912951707839965820e-02,-5.606399103999137878e-02,8.994193375110626221e-02,-7.843826711177825928e-02,-1.676899045705795288e-01,-1.709348708391189575e-01,-1.174023076891899109e-01,1.762125827372074127e-02,-2.083486132323741913e-02,2.109477855265140533e-02,9.360428154468536377e-02
-6.093480042181909084e-04,2.901877087424509227e-05,7.377702859230339527e-04,-2.374011965002864599e-04,7.247303728945553303e-04,-6.481396849267184734e-04,-1.551834028214216232e-02,-3.355175256729125977e-03,4.848698736168444157e-04,5.024231038987636566e-03,-4.289571195840835571e-03,-1.758536556735634804e-03,1.061338844010606408e-04,3.626665784395299852e-05,7.264528539963066578e-05,-8.347799070179462433e-03,5.761094391345977783e-03,1.423362755303969607e-05,-1.691462122835218906e-03,-1.057927293004468083e-04,2.370199763390701264e-05,4.462749639060348272e-04,-2.678484861462493427e-06,-1.045434619300067425e-04,8.171450463123619556e-04,-2.378562930971384048e-05,-7.938396185636520386e-03,7.173317135311663151e-04,-6.768157240003347397e-03,2.984818071126937866e-03,1.387590891681611538e-03,4.015401937067508698e-03,1.821552432375028729e-04,-2.310067211510613561e-04,2.853272017091512680e-04,-1.197713240981101990e-02,-2.469523751642554998e-04,-9.997617598855867982e-05,-1.425413996912539005e-03,-4.925737157464027405e-02,1.144702546298503876e-03,-8.422263711690902710e-02,4.581497237086296082e-02,-5.004172027111053467e-02,1.522326259873807430e-03,8.825955774227622896e-06,-8.589999197283759713e-05,-5.993540980853140354e-04,-8.078363025560975075e-04,7.854150317143648863e-05,-4.891204833984375000e-02,-1.784409396350383759e-02,-1.878090202808380127e-02,1.119192466139793396e-01,-8.867245014698710293e-06,9.455560357309877872e-04,7.025752565823495388e-04,2.800189191475510597e-03,1.328416261821985245e-02,5.164821050129830837e-04,-1.485748868435621262e-02,2.880784869194030762e-02,1.057299319654703140e-03,-4.021157510578632355e-03,-1.862814999185502529e-03,-1.328622747678309679e-04,1.485038810642436147e-04,7.379068993031978607e-04,4.959534271620213985e-04,-2.910662151407450438e-04,-5.497548729181289673e-03,5.258575454354286194e-02,-6.933727127034217119e-05,-3.073690831661224365e-02,-1.898472942411899567e-02,4.214897286146879196e-03,-2.018617524299770594e-04,-1.078704954124987125e-04,-3.877437393384752795e-06,3.092764178290963173e-03,4.457473289221525192e-03,4.953856114298105240e-05,-9.911987930536270142e-03,-2.392589114606380463e-03,1.159181701950728893e-04,-1.903820433653891087e-03,-6.288959411904215813e-06,-8.522470598109066486e-04,4.877610481344163418e-04,-8.451520116068422794e-04,4.315889440476894379e-03,8.517013629898428917e-04,-2.981008728966116905e-03,-1.414800994098186493e-03,5.660319002345204353e-04,2.956505166366696358e-03,-4.712134832516312599e-04,-6.328022107481956482e-03,-3.333375789225101471e-04,6.641003768891096115e-03,6.718554068356752396e-04,-2.294579899171367288e-04,-5.757169798016548157e-03,4.249315825290977955e-04,-3.398942135390825570e-05,-1.799551682779565454e-04,-4.823944182135164738e-04,-1.322856056503951550e-03,8.342060755239799619e-05,2.452810062095522881e-03,5.001244135200977325e-03,2.585182199254631996e-03,3.033160697668790817e-03,1.956078689545392990e-03,-3.805990330874919891e-03,-9.695132263004779816e-03,-3.824058920145034790e-03,-9.242974221706390381e-03,2.483984571881592274e-04,-1.795603457139804959e-04,5.209669470787048340e-03,-1.202995795756578445e-02,2.443361794576048851e-03,4.460141528397798538e-03,-1.395650790072977543e-03,1.848954474553465843e-03,1.046358374878764153e-03,9.986183140426874161e-04
1.045385450124740601e-01,9.366842918097972870e-03,1.732816547155380249e-01,7.432023435831069946e-02,-1.878771930932998657e-01,2.066111378371715546e-02,-1.834636777639389038e-01,6.529071182012557983e-02,-1.213822588324546814e-01,1.526403725147247314e-01,3.349288925528526306e-02,9.877755492925643921e-02,2.025895752012729645e-02,3.558792546391487122e-02,-1.463473495095968246e-02,-7.341462373733520508e-02,7.717118412256240845e-02,-2.912776172161102295e-02,-4.169479385018348694e-02,-8.073474466800689697e-02,-4.854261875152587891e-03,1.808698773384094238e-01,1.146978512406349182e-02,1.743246056139469147e-02,4.335575550794601440e-02,5.947192665189504623e-03,-9.799306094646453857e-02,-9.254845976829528809e-02,3.391032340005040169e-03,4.752706736326217651e-02,-1.549053043127059937e-01,-8.198854327201843262e-02,4.027940705418586731e-02,-3.616762533783912659e-02,4.726469889283180237e-02,6.312838196754455566e-02,-1.176825240254402161e-01,1.611292511224746704e-01,1.377885043621063232e-01,-8.120708912611007690e-02,-1.877588480710983276e-01,-2.904379181563854218e-02,-1.495517194271087646e-01,1.880683153867721558e-01,4.394115135073661804e-02,7.080591470003128052e-02,-1.701513677835464478e-01,-8.720678836107254028e-02,-5.957593023777008057e-02,-2.793181128799915314e-02,1.583616435527801514e-01,-1.908152103424072266e-01,-5.715017672628164291e-03,5.357633158564567566e-02,-4.481713753193616867e-03,-1.750950217247009277e-01,1.096705123782157898e-01,-7.802652567625045776e-02,-9.094369411468505859e-02,-2.180113829672336578e-02,-3.978620469570159912e-02,-3.358446806669235229e-02,-2.646132931113243103e-02,9.420111775398254395e-02,1.312893927097320557e-01,4.091475903987884521e-02,1.237056553363800049e-01,6.661698222160339355e-02,-1.577247306704521179e-02,6.217795237898826599e-02,8.355415612459182739e-02,-6.154081784188747406e-03,4.656255245208740234e-02,1.614504158496856689e-01,1.795533448457717896e-01,-4.906231537461280823e-03,4.266509041190147400e-02,1.276671886444091797e-01,-9.532260708510875702e-03,9.457319229841232300e-02,-1.236097887158393860e-01,-3.039744624402374029e-04,-1.258553713560104370e-01,-1.932322978973388672e-02,1.650421619415283203e-01,1.539282873272895813e-02,-2.459750697016716003e-02,-3.674974665045738220e-02,-2.618838660418987274e-02,-7.935532182455062866e-02,-7.847943902015686035e-02,-4.521420598030090332e-02,-6.267262995243072510e-02,-1.206406876444816589e-01,4.639221355319023132e-02,-1.481606811285018921e-01,-6.337068974971771240e-02,1.010533422231674194e-01,-8.919474482536315918e-02,4.956441000103950500e-02,-7.308674603700637817e-02,-9.012679755687713623e-02,1.456325799226760864e-01,1.752782166004180908e-01,-1.165736094117164612e-01,1.134450957179069519e-01,-4.520046710968017578e-02,-4.156449064612388611e-02,1.718645840883255005e-01,-6.747472565621137619e-03,7.418817281723022461e-02,1.451561897993087769e-01,-6.458701938390731812e-02,-1.355688273906707764e-02,-1.544521749019622803e-02,-3.008874692022800446e-02,5.363412201404571533e-02,-8.814892917871475220e-02,-7.452287524938583374e-02,2.010856270790100098e-01,8.875025808811187744e-02,4.369590058922767639e-02,-4.471635073423385620e-02,1.052696034312248230e-01,-4.959532991051673889e-02,1.540639251470565796e-01,1.067404374480247498e-01,1.489608734846115112e-01
-6.893429905176162720e-02,6.941100116819143295e-03,1.732098758220672607e-01,-6.424463540315628052e-02,9.336290508508682251e-02,3.526050597429275513e-02,-1.589577198028564453e-01,7.056517899036407471e-02,-9.068790823221206665e-02,1.597254723310470581e-01,9.277068078517913818e-02,5.906669795513153076e-02,-9.330129623413085938e-02,-9.887928143143653870e-03,1.708881754893809557e-04,7.430797815322875977e-02,9.448654204607009888e-02,1.077192835509777069e-02,-9.524592757225036621e-02,-3.623352572321891785e-02,3.476209193468093872e-02,-1.051008105278015137e-01,2.394733205437660217e-02,-3.693895787000656128e-02,1.427973657846450806e-01,1.703990972600877285e-03,4.236635193228721619e-02,5.516920611262321472e-02,-2.813433855772018433e-02,1.067181229591369629e-01,-5.683546513319015503e-02,-1.574059128761291504e-01,1.369495987892150879e-01,1.203035842627286911e-02,7.832067087292671204e-03,1.549794226884841919e-01,-1.692333258688449860e-02,-3.410946344956755638e-03,-1.270466446876525879e-01,-9.733731299638748169e-02,-1.294895261526107788e-01,-1.460530459880828857e-01,8.384455740451812744e-02,1.534006893634796143e-01,1.199921071529388428e-01,-6.335154175758361816e-02,1.662835180759429932e-01,2.321854466572403908e-03,-1.539335027337074280e-02,-1.413362026214599609e-01,-1.832782626152038574e-01,-3.094692341983318329e-02,1.480295658111572266e-01,1.708606928586959839e-01,-5.073369294404983521e-02,-1.009533833712339401e-02,-1.018414832651615143e-02,-1.561939567327499390e-01,-8.504384011030197144e-02,-8.052383549511432648e-03,1.498128324747085571e-01,1.138818357139825821e-02,-1.161424368619918823e-01,-1.334230750799179077e-01,8.831669390201568604e-02,2.585167624056339264e-02,1.409097164869308472e-01,-1.141581758856773376e-01,-1.165890228003263474e-02,-1.388493366539478302e-02,-1.073171868920326233e-01,1.602847278118133545e-01,4.870899766683578491e-02,-5.466314032673835754e-02,-1.400439888238906860e-01,-2.071455121040344238e-02,1.026982814073562622e-01,2.624443359673023224e-02,-4.777683317661285400e-02,1.970473378896713257e-01,-3.651742357760667801e-03,3.289790824055671692e-02,-1.825001239776611328e-01,-2.265291102230548859e-02,1.163749843835830688e-01,1.298614442348480225e-01,3.925225883722305298e-02,-1.016764193773269653e-01,5.217954143881797791e-02,2.999242581427097321e-02,-2.452016109600663185e-03,-7.407206296920776367e-02,-1.366719603538513184e-01,1.633128225803375244e-01,-2.957147732377052307e-02,7.947317324578762054e-03,1.235583350062370300e-01,5.726458877325057983e-02,1.185315027832984924e-01,-1.031405255198478699e-01,-7.599428296089172363e-02,4.262540116906166077e-02,-1.442204266786575317e-01,2.713406831026077271e-02,7.552524656057357788e-02,1.756809651851654053e-01,-1.006445512175559998e-01,1.770675927400588989e-01,-8.030231297016143799e-02,-1.020896434783935547e-01,-3.290664777159690857e-02,-6.079793348908424377e-02,-1.339368289336562157e-03,-1.644525378942489624e-01,-1.204479932785034180e-01,1.319320797920227051e-01,7.594402134418487549e-02,-6.179127097129821777e-02,5.685039609670639038e-02,1.260777115821838379e-01,1.083910390734672546e-01,-6.507580168545246124e-03,1.293262988328933716e-01,-8.192894607782363892e-02,-5.072502046823501587e-02,1.043803095817565918e-01,7.079042028635740280e-03,-1.178879961371421814e-01
5.312617495656013489e-02,7.536967750638723373e-03,-2.213230729103088379e-01,5.599058419466018677e-02,9.999834001064300537e-02,2.256925217807292938e-02,1.139040738344192505e-01,-2.182951197028160095e-02,1.033980250358581543e-01,-8.189987391233444214e-03,-1.470308452844619751e-01,1.640375852584838867e-01,-9.885915368795394897e-02,3.057368099689483643e-03,-3.618479240685701370e-03,-1.344453394412994385e-01,5.065002292394638062e-02,9.791124612092971802e-03,-9.480872005224227905e-02,5.996691063046455383e-02,-1.083278879523277283e-01,-3.783198446035385132e-02,1.394179370254278183e-02,1.933379389811307192e-04,-8.983105421066284180e-03,1.151482462882995605e-01,9.867206960916519165e-02,-2.274570055305957794e-02,1.620944705791771412e-03,-5.230459943413734436e-02,9.135042876005172729e-02,-1.387817114591598511e-01,-1.230820417404174805e-01,-1.412484422326087952e-02,-8.779971301555633545e-02,1.163713634014129639e-01,-1.075450479984283447e-01,-1.256158296018838882e-02,6.326882541179656982e-02,2.484585158526897430e-02,1.589905768632888794e-01,-1.126462072134017944e-01,1.027751117944717407e-01,-4.065413028001785278e-02,6.079127267003059387e-02,7.892023772001266479e-02,1.208765879273414612e-01,7.433745265007019043e-02,-2.963202446699142456e-02,6.369039416313171387e-02,-8.384844660758972168e-02,-3.179872408509254456e-02,-1.170348674058914185e-01,-1.785908490419387817e-01,-3.530295798555016518e-03,1.612219363451004028e-01,-9.468664228916168213e-02,-2.392191998660564423e-02,5.497306585311889648e-02,2.764628268778324127e-02,2.969504892826080322e-02,-4.510727897286415100e-02,8.166485279798507690e-02,-9.390559047460556030e-02,-2.616539783775806427e-02,2.847577910870313644e-03,1.648566573858261108e-01,-3.785900771617889404e-02,-2.750755473971366882e-02,-1.820795424282550812e-02,1.327870041131973267e-01,1.658949702978134155e-01,9.958997368812561035e-02,-1.143836602568626404e-02,8.478920906782150269e-02,-8.238010853528976440e-02,-7.648947089910507202e-02,-1.193148940801620483e-01,-6.348768947646021843e-04,1.905842572450637817e-01,2.676235698163509369e-02,-3.998229652643203735e-02,-3.876676037907600403e-02,-7.193122059106826782e-02,-3.488383069634437561e-02,-1.266359984874725342e-01,-1.072129816748201847e-04,-2.463435940444469452e-02,1.092011407017707825e-01,1.137190759181976318e-01,1.280388534069061279e-01,4.879056662321090698e-02,-1.684353314340114594e-02,-4.550576955080032349e-02,1.002858877182006836e-01,-7.240124791860580444e-02,4.654172807931900024e-03,4.085041582584381104e-02,1.043074950575828552e-01,-1.202523931860923767e-01,1.035647466778755188e-01,-6.030135974287986755e-02,-1.381818801164627075e-01,-8.195250481367111206e-02,1.329112648963928223e-01,-8.961603790521621704e-02,-7.684926688671112061e-02,-6.668578833341598511e-02,1.319509595632553101e-01,-3.126056864857673645e-03,1.438793092966079712e-01,-1.220122799277305603e-01,6.344240158796310425e-02,4.585182666778564453e-02,7.768793497234582901e-03,3.275943174958229065e-02,1.463022977113723755e-01,8.490070700645446777e-02,-3.200468420982360840e-02,-4.932293668389320374e-02,7.693480700254440308e-02,-1.261047273874282837e-01,1.220507398247718811e-01,-5.533947050571441650e-02,-1.380538642406463623e-01,5.698484182357788086e-02,-3.019181312993168831e-03,9.788822382688522339e-02
9.254698455333709717e-02,-4.476052708923816681e-03,-2.961361221969127655e-02,2.025671675801277161e-02,1.435266342014074326e-02,-5.153887718915939331e-02,8.311726152896881104e-02,1.244411803781986237e-02,-5.417252704501152039e-02,8.688863366842269897e-02,-2.549399137496948242e-01,-1.177929192781448364e-01,1.220691502094268799e-01,-4.197590984404087067e-03,-1.444638706743717194e-02,1.170013770461082458e-01,1.010207086801528931e-01,1.078714500181376934e-03,1.009441986680030823e-01,-4.987219348549842834e-02,1.985435187816619873e-02,-3.069527447223663330e-03,1.026311237365007401e-02,1.825758721679449081e-03,-2.738447859883308411e-02,1.572037190198898315e-01,-2.877584286034107208e-02,3.911140840500593185e-03,-1.281425058841705322e-01,-3.610673919320106506e-02,-9.249902516603469849e-02,-7.123095542192459106e-02,-1.605457998812198639e-02,5.904707126319408417e-03,-2.281867153942584991e-02,5.059988796710968018e-02,-2.039603330194950104e-02,1.241970136761665344e-01,2.094877809286117554e-01,1.862679235637187958e-02,6.612664461135864258e-02,3.633409366011619568e-02,-7.197797298431396484e-02,5.775665398687124252e-03,6.803802214562892914e-03,3.393504023551940918e-02,-4.280420020222663879e-03,1.524287909269332886e-01,-4.889477789402008057e-02,-1.249274611473083496e-02,-5.787304788827896118e-02,-6.740908138453960419e-03,-6.073840335011482239e-02,-1.883294060826301575e-02,1.550099463202059269e-03,-5.452471971511840820e-02,6.665607541799545288e-02,-4.977831989526748657e-02,6.278881430625915527e-02,1.820023916661739349e-02,1.882580071687698364e-01,-2.537583932280540466e-02,2.235193736851215363e-02,-1.685384102165699005e-02,-8.055760711431503296e-02,-2.869543386623263359e-03,-8.373942971229553223e-02,3.237434104084968567e-02,1.923480443656444550e-02,-1.120674517005681992e-02,1.642944216728210449e-01,-1.673756241798400879e-01,1.195464376360177994e-02,-1.168214455246925354e-01,-8.072708547115325928e-02,1.788902878761291504e-01,1.537248492240905762e-01,2.046755142509937286e-02,-2.391510456800460815e-02,-2.733720652759075165e-02,1.726716607809066772e-01,-4.220579285174608231e-03,2.059090435504913330e-01,-2.347876550629734993e-03,-7.081537693738937378e-02,-1.251482218503952026e-01,-3.809555433690547943e-03,1.242893636226654053e-01,7.522191107273101807e-02,-1.660038903355598450e-02,-3.228458017110824585e-02,1.533930003643035889e-02,4.983548820018768311e-02,-1.430687457323074341e-01,3.669876605272293091e-02,-2.303112484514713287e-02,6.528256088495254517e-02,6.676796823740005493e-02,1.138434000313282013e-02,1.499818116426467896e-01,1.311135739088058472e-01,4.128983616828918457e-02,-7.378975301980972290e-02,6.451164186000823975e-02,7.287099212408065796e-02,1.051140855997800827e-02,-1.224456354975700378e-01,4.469679668545722961e-02,2.223219908773899078e-02,3.888577222824096680e-02,9.505968540906906128e-02,7.377021014690399170e-03,1.890108883380889893e-01,-6.637538969516754150e-02,8.116814494132995605e-02,-9.165382385253906250e-02,-5.405446514487266541e-02,-1.101823151111602783e-01,9.510778635740280151e-02,8.831197768449783325e-02,1.423477847129106522e-02,-6.927824765443801880e-02,-5.781752616167068481e-02,1.427423954010009766e-01,-1.769734174013137817e-01,-1.233644634485244751e-01,-3.584732115268707275e-02,7.946347445249557495e-02
1.652518510818481445e-01,4.126244690269231796e-03,-1.997394859790802002e-02,-3.259265422821044922e-02,-3.279770538210868835e-02,-8.738692849874496460e-02,-1.381251215934753418e-01,1.643837541341781616e-01,-1.099747046828269958e-01,7.332905381917953491e-02,1.021682918071746826e-01,7.293532788753509521e-02,4.872564226388931274e-02,5.374698899686336517e-03,2.139407396316528320e-02,-1.556041240692138672e-01,4.548845067620277405e-02,2.036373876035213470e-02,-1.651119738817214966e-01,-8.378949860343709588e-05,-1.626239903271198273e-02,-3.881626576185226440e-02,5.205956753343343735e-03,2.625502180308103561e-03,-4.899625666439533234e-03,-2.379280142486095428e-02,1.358818858861923218e-01,1.023096516728401184e-01,9.111448377370834351e-02,-9.851475059986114502e-02,-1.304539889097213745e-01,7.262162119150161743e-02,1.974860671907663345e-03,-1.984474435448646545e-02,-6.137072667479515076e-02,-1.070710178464651108e-02,1.444104500114917755e-02,-8.267197012901306152e-02,9.057657420635223389e-02,-2.341870218515396118e-02,1.765546351671218872e-01,2.819349803030490875e-02,1.101704463362693787e-01,8.141006529331207275e-02,-7.612884044647216797e-02,-1.048430148512125015e-02,-1.436889916658401489e-01,5.578206852078437805e-03,1.537897586822509766e-01,5.951603502035140991e-02,1.353351175785064697e-01,1.066735908389091492e-01,-7.195362448692321777e-02,-3.322594985365867615e-02,-1.191196218132972717e-02,-1.867656111717224121e-01,-3.042721562087535858e-02,-9.271460771560668945e-02,1.363038867712020874e-01,1.935578510165214539e-02,-7.757494598627090454e-02,-1.632241904735565186e-01,-8.170253038406372070e-02,1.416165232658386230e-01,-2.110354602336883545e-02,1.017386675812304020e-03,4.380441829562187195e-02,3.618395701050758362e-02,-7.504292577505111694e-02,-6.922422349452972412e-02,-6.033518817275762558e-03,-6.193260662257671356e-03,1.857558190822601318e-01,-4.364054277539253235e-02,-2.241970598697662354e-01,4.008786007761955261e-02,-1.580566465854644775e-01,1.420193933881819248e-03,-3.867210354655981064e-03,-6.789645180106163025e-03,-6.086878851056098938e-02,1.857713237404823303e-02,-5.134203936904668808e-03,1.145889982581138611e-01,2.019266784191131592e-01,5.989713221788406372e-02,7.981083355844020844e-03,3.593037277460098267e-02,8.662535250186920166e-02,6.596707552671432495e-02,4.234736040234565735e-02,-5.463268980383872986e-02,1.184210404753684998e-01,9.497711807489395142e-02,-1.401679813861846924e-01,-1.062735319137573242e-01,5.092398077249526978e-02,-1.749209761619567871e-01,-8.005447685718536377e-02,-7.834292948246002197e-02,7.240352779626846313e-02,-1.154581233859062195e-01,1.152158603072166443e-01,2.346264719963073730e-01,5.894519761204719543e-02,1.928885877132415771e-01,-5.492015182971954346e-02,3.472078358754515648e-03,6.199418008327484131e-02,3.282916918396949768e-02,1.036861389875411987e-01,6.041517853736877441e-02,3.023806773126125336e-02,-9.854650497436523438e-02,2.330440841615200043e-02,1.990790516138076782e-01,1.801015585660934448e-01,1.356618851423263550e-01,-9.530074149370193481e-02,6.022331118583679199e-02,3.202639520168304443e-02,1.263104826211929321e-01,1.216468289494514465e-01,1.721208356320858002e-02,-2.601958625018596649e-02,-8.625052869319915771e-02,7.123472541570663452e-02,7.938428968191146851e-02
-6.678059697151184082e-02,3.091522492468357086e-03,-2.381834760308265686e-02,-3.648099722340703011e-03,-5.934730544686317444e-02,-3.557246923446655273e-02,-2.791298367083072662e-02,-2.517323382198810577e-02,8.212850987911224365e-02,-2.821087278425693512e-02,-3.775330260396003723e-02,-6.430864334106445312e-02,1.088887304067611694e-01,-3.049489110708236694e-03,-6.270722951740026474e-03,-1.207698881626129150e-01,-5.338544398546218872e-02,1.263645011931657791e-03,1.676985435187816620e-02,6.169886328279972076e-04,-1.516126655042171478e-02,1.239751428365707397e-01,1.205562264658510685e-03,1.302242930978536606e-02,-7.394677400588989258e-02,2.555842511355876923e-02,1.014380604028701782e-01,-1.300792209804058075e-03,-8.755073696374893188e-02,6.776670366525650024e-02,-4.635346680879592896e-02,-2.164642699062824249e-02,8.396785706281661987e-02,-6.236023269593715668e-03,6.238142028450965881e-02,-9.455261379480361938e-02,-4.497949033975601196e-02,1.665845513343811035e-02,-1.231319233775138855e-01,-8.829122036695480347e-02,-1.570710986852645874e-01,-8.373344689607620239e-02,2.162474207580089569e-03,-1.877687275409698486e-01,8.031176775693893433e-02,1.054618787020444870e-02,9.829202294349670410e-02,-1.215633675456047058e-01,-2.428369969129562378e-02,-1.211701035499572754e-01,4.946898296475410461e-02,-5.525587126612663269e-02,7.632340490818023682e-02,-7.275435328483581543e-02,2.978384308516979218e-02,1.930056661367416382e-01,-2.910154685378074646e-02,-4.076482355594635010e-02,-8.649008721113204956e-02,-1.350620016455650330e-02,-8.207064867019653320e-02,-4.878477379679679871e-02,4.558295942842960358e-03,-2.260303497314453125e-02,-5.515791848301887512e-02,5.012723617255687714e-03,-7.209149003028869629e-02,3.187467157840728760e-02,-1.512154587544500828e-03,5.795332416892051697e-02,3.715872298926115036e-03,2.447765171527862549e-01,4.739877209067344666e-02,-2.440172992646694183e-02,1.207985728979110718e-01,-5.625945702195167542e-02,8.397126942873001099e-02,-1.050851419568061829e-01,-5.023866426199674606e-03,1.759252548217773438e-01,1.657016947865486145e-02,-4.932047054171562195e-02,5.632206797599792480e-02,3.180338069796562195e-02,-7.120582461357116699e-02,-1.128564924001693726e-01,1.741841435432434082e-02,4.602889716625213623e-02,2.879770845174789429e-02,2.088486403226852417e-02,1.373741030693054199e-01,-7.906103273853659630e-04,-1.460045110434293747e-02,1.439892798662185669e-01,2.731477096676826477e-02,1.063541993498802185e-01,6.524058431386947632e-02,1.062125042080879211e-01,4.635852947831153870e-02,2.686895988881587982e-02,9.751176834106445312e-02,4.623380303382873535e-02,1.891290582716464996e-02,-6.295357365161180496e-03,1.529198233038187027e-02,-1.136268451809883118e-01,-8.430453389883041382e-02,-5.928733199834823608e-02,-3.898973762989044189e-02,-1.256575286388397217e-01,9.381415694952011108e-02,7.258640229701995850e-02,1.063112616539001465e-01,-7.007304579019546509e-02,2.723111072555184364e-03,2.810539305210113525e-02,-5.505013093352317810e-02,-1.298331916332244873e-01,-5.677384138107299805e-02,2.818044647574424744e-02,3.124314360320568085e-02,5.989500135183334351e-02,4.017550032585859299e-03,-7.463219761848449707e-02,-1.001713499426841736e-01,2.782198786735534668e-02,-2.123242616653442383e-02,6.068530678749084473e-02
1.082353964447975159e-01,1.207235641777515411e-02,-2.508163750171661377e-01,1.346780657768249512e-01,-4.912216961383819580e-02,-1.359224319458007812e-02,8.084959536790847778e-02,1.596513763070106506e-02,-1.809061877429485321e-02,1.131372451782226562e-01,-3.818424418568611145e-02,1.587526947259902954e-01,-1.174774616956710815e-01,5.059994012117385864e-02,7.301008794456720352e-03,1.334828883409500122e-01,8.137357234954833984e-02,3.733370080590248108e-02,-1.135195568203926086e-01,9.401530027389526367e-03,-1.170860901474952698e-01,2.091752365231513977e-02,-1.037374977022409439e-02,1.323425490409135818e-02,-1.193691417574882507e-01,6.771422922611236572e-02,5.080119706690311432e-03,-2.500461786985397339e-02,1.928203552961349487e-01,2.058626711368560791e-01,1.579918414354324341e-01,-2.864521695300936699e-03,-1.304615437984466553e-01,-7.590895402245223522e-04,1.058653667569160461e-01,-9.063512086868286133e-03,-6.974357366561889648e-02,6.197823956608772278e-02,-8.910559862852096558e-02,-1.161109805107116699e-01,-1.724686101078987122e-02,1.460102945566177368e-01,-7.693991810083389282e-02,1.592711955308914185e-01,-9.375268220901489258e-02,-1.107311546802520752e-01,7.651643455028533936e-02,-5.465905647724866867e-03,-1.038104370236396790e-01,7.577675580978393555e-02,-1.076831072568893433e-01,-1.789533793926239014e-01,4.857400432229042053e-02,1.699962839484214783e-02,3.870331868529319763e-02,-2.754794899374246597e-03,1.070032343268394470e-01,9.689620137214660645e-02,7.668074220418930054e-02,-1.957928203046321869e-02,-4.006008431315422058e-02,5.446168407797813416e-02,1.336632817983627319e-01,-7.441101223230361938e-02,-3.249677643179893494e-02,6.800186634063720703e-02,1.684163659811019897e-01,1.324783116579055786e-01,2.157123200595378876e-02,-7.507520169019699097e-02,-2.340527623891830444e-02,2.007728070020675659e-01,9.087792597711086273e-03,-5.361610278487205505e-02,6.204147264361381531e-02,1.337369978427886963e-01,-4.158890619874000549e-02,-1.871670223772525787e-02,1.567477732896804810e-01,-9.369803220033645630e-02,9.850154072046279907e-02,5.804481450468301773e-03,6.923888623714447021e-02,9.283954650163650513e-02,-5.692740529775619507e-02,1.664113104343414307e-01,4.839301109313964844e-02,1.428225487470626831e-01,-1.363842934370040894e-01,-4.828476347029209137e-03,1.414839327335357666e-01,1.139053627848625183e-01,-5.580268800258636475e-02,-1.739242821931838989e-01,1.378156095743179321e-01,9.235013276338577271e-02,5.815679207444190979e-03,9.264475852251052856e-02,1.186810731887817383e-01,5.649356544017791748e-02,-4.492503032088279724e-02,6.389189511537551880e-02,-5.556185171008110046e-02,1.464769095182418823e-01,6.960639357566833496e-02,-1.424432545900344849e-01,1.427296698093414307e-01,5.972132831811904907e-02,-3.722082450985908508e-02,-1.147720403969287872e-02,2.683308534324169159e-02,2.633711788803339005e-03,-9.556212276220321655e-02,-5.606847256422042847e-02,-1.439294368028640747e-01,-9.315143525600433350e-02,1.580337882041931152e-01,1.898358762264251709e-01,4.301713779568672180e-02,-8.139318227767944336e-02,9.891562908887863159e-02,1.680855602025985718e-01,1.780720800161361694e-01,7.854350656270980835e-02,-2.331654727458953857e-02,-1.233768686652183533e-01,5.110342055559158325e-02,-1.666550189256668091e-01
-6.578586250543594360e-02,1.023464929312467575e-02,-1.008408218622207642e-01,1.293062086915597320e-04,-2.622084878385066986e-02,7.531750202178955078e-02,-7.550361752510070801e-02,-3.203321248292922974e-02,-3.191280737519264221e-02,3.393412753939628601e-02,1.157854869961738586e-01,-8.264845609664916992e-02,-9.335869550704956055e-02,5.430678837001323700e-03,2.093219384551048279e-02,9.119648486375808716e-02,-6.583449244499206543e-02,3.268123418092727661e-02,-6.658940017223358154e-02,1.052700579166412354e-01,1.776495724916458130e-01,7.264660298824310303e-02,9.070430882275104523e-03,-5.183715745806694031e-02,-2.517354441806674004e-03,5.617620423436164856e-02,-1.727302819490432739e-01,-6.864134222269058228e-02,3.776817768812179565e-02,-1.371070146560668945e-01,5.707886070013046265e-02,3.347674012184143066e-02,2.417241595685482025e-02,-4.225537925958633423e-02,-1.858418732881546021e-01,1.692103147506713867e-01,3.349382802844047546e-02,5.740863271057605743e-03,5.636188760399818420e-02,-1.569855958223342896e-01,1.364543884992599487e-01,6.893935799598693848e-02,6.299354881048202515e-02,1.948822289705276489e-01,3.929168358445167542e-02,-8.566512912511825562e-02,7.048377394676208496e-02,-6.188007071614265442e-02,4.759474098682403564e-02,9.690900146961212158e-02,-9.939789026975631714e-02,1.403474062681198120e-01,-8.765716850757598877e-02,3.750441595911979675e-02,-3.088161908090114594e-02,-1.633431315422058105e-01,1.408927375450730324e-03,5.022779572755098343e-03,-6.165861710906028748e-02,1.430622674524784088e-02,1.504987329244613647e-01,7.050138711929321289e-02,6.128495931625366211e-02,-5.503750964999198914e-02,4.198820516467094421e-02,4.970515146851539612e-02,-6.243206094950437546e-03,7.981298863887786865e-02,-1.472429782152175903e-01,-7.646609842777252197e-02,-1.016113087534904480e-01,7.619666308164596558e-02,3.537353873252868652e-02,8.717150776647031307e-04,-6.152690574526786804e-02,6.098189949989318848e-02,3.705791011452674866e-02,-1.081727445125579834e-02,2.215675637125968933e-02,1.173645555973052979e-01,-4.674312472343444824e-02,9.727326035499572754e-02,1.197720170021057129e-01,1.121848225593566895e-01,1.585119962692260742e-01,-1.152196526527404785e-01,-1.700853928923606873e-02,-7.704088091850280762e-02,8.683531731367111206e-02,4.846911132335662842e-02,-1.225766167044639587e-01,2.874273434281349182e-02,1.667595058679580688e-01,-4.432402551174163818e-02,-1.588499248027801514e-01,8.709701895713806152e-02,1.257184594869613647e-01,-1.710504740476608276e-01,-6.115266308188438416e-02,1.228029504418373108e-01,1.330639421939849854e-01,-9.518320113420486450e-02,8.374500274658203125e-02,1.134499013423919678e-01,2.597860246896743774e-02,2.049606889486312866e-01,1.236555874347686768e-01,3.966423391830176115e-04,1.383924782276153564e-01,8.985830843448638916e-02,-1.039994433522224426e-01,-3.402613103389739990e-02,6.997840851545333862e-02,-3.891433402895927429e-02,-1.176518350839614868e-01,8.319380134344100952e-02,-9.141681343317031860e-02,-6.954144686460494995e-02,1.055190265178680420e-01,7.319071795791387558e-03,-2.476770058274269104e-02,-4.176218062639236450e-02,-1.069039851427078247e-01,-9.501133859157562256e-02,1.874683424830436707e-02,1.877807825803756714e-01,-2.020861059427261353e-01,1.231563761830329895e-01
4.177389666438102722e-02,6.052173674106597900e-03,6.920401751995086670e-02,-7.771812379360198975e-02,-1.216509491205215454e-01,-1.086055710911750793e-01,-7.107183337211608887e-03,4.829425737261772156e-02,-6.042364239692687988e-02,9.583709388971328735e-02,-1.284890342503786087e-02,-1.951426118612289429e-01,-9.474022686481475830e-02,1.172675471752882004e-02,2.717362530529499054e-02,-1.034335698932409286e-02,-8.360209316015243530e-02,-2.322258055210113525e-02,1.216372400522232056e-01,-3.541706874966621399e-02,1.870178058743476868e-02,1.805965751409530640e-01,5.262007471174001694e-03,4.391772672533988953e-03,-7.154309004545211792e-02,-9.037350863218307495e-02,-7.268609851598739624e-02,8.101455867290496826e-02,-9.177019447088241577e-02,-2.540474757552146912e-02,-1.605099290609359741e-01,1.705220788717269897e-01,5.461326986551284790e-02,-1.032997504808008671e-03,-1.120866835117340088e-01,-1.464937031269073486e-01,7.314949762076139450e-03,-5.925013497471809387e-02,1.756923198699951172e-01,9.257897734642028809e-02,-2.783465199172496796e-02,-1.052517294883728027e-01,1.045778244733810425e-01,-2.682198956608772278e-02,-1.343536525964736938e-01,5.113639682531356812e-02,4.902739822864532471e-02,1.530262380838394165e-01,-5.309562757611274719e-02,-2.930749952793121338e-02,-1.614400148391723633e-01,1.170739307999610901e-01,-1.311189532279968262e-01,-2.686834149062633514e-02,-1.503388024866580963e-02,2.231284044682979584e-02,3.605951368808746338e-02,1.940496265888214111e-01,-2.758191525936126709e-02,-1.342976186424493790e-02,1.542166918516159058e-01,3.466075286269187927e-02,2.018127031624317169e-02,-1.184375509619712830e-01,2.794686332345008850e-02,2.332552522420883179e-02,3.067773953080177307e-02,1.064691990613937378e-01,-3.148913383483886719e-02,-7.291069626808166504e-02,-1.537629216909408569e-01,-1.519269049167633057e-01,4.470016807317733765e-02,1.259802132844924927e-01,-3.444882482290267944e-02,1.907709636725485325e-03,-1.317868847399950027e-02,1.290462631732225418e-02,1.301833540201187134e-01,-6.001022178679704666e-03,6.609497964382171631e-02,-4.314132779836654663e-02,-1.466501411050558090e-02,9.917182475328445435e-02,6.380861997604370117e-02,-2.614424005150794983e-02,-1.489370502531528473e-02,8.811415731906890869e-02,9.145265072584152222e-02,-1.357412664219737053e-03,7.862041145563125610e-02,-7.989411801099777222e-02,-7.849686592817306519e-02,9.151315689086914062e-02,8.040593564510345459e-02,-7.995490729808807373e-02,-2.792293764650821686e-02,-1.187415495514869690e-01,3.985930979251861572e-02,6.540077924728393555e-02,-1.413156092166900635e-01,6.238115578889846802e-02,-5.343404039740562439e-02,-3.197141736745834351e-02,7.927131652832031250e-02,1.344089508056640625e-01,-9.508373588323593140e-02,-6.429471075534820557e-02,1.477105468511581421e-01,-8.983082324266433716e-02,3.274031728506088257e-02,-4.861471801996231079e-02,-2.050441689789295197e-03,-4.829373583197593689e-02,7.931759208440780640e-02,-1.276203542947769165e-01,1.681770980358123779e-01,-9.500499814748764038e-02,-1.157674565911293030e-01,1.022005677223205566e-01,1.348895579576492310e-01,5.852309241890907288e-02,3.031940758228302002e-02,-2.435993216931819916e-02,9.377836436033248901e-02,1.146747320890426636e-01,-1.259375661611557007e-01,1.184493536129593849e-03
8.784502744674682617e-02,-2.285487717017531395e-03,-1.895028948783874512e-01,3.527313098311424255e-02,5.401721224188804626e-02,-2.195801213383674622e-02,-3.257064521312713623e-02,6.583467870950698853e-02,-5.718995258212089539e-02,6.659296154975891113e-02,7.955863326787948608e-02,-1.869080811738967896e-01,-2.529826597310602665e-04,-2.806202042847871780e-03,-1.398773747496306896e-03,1.309403330087661743e-01,1.072026491165161133e-01,1.268872618675231934e-02,2.958227507770061493e-02,-5.951989814639091492e-02,1.511864513158798218e-01,-5.891605839133262634e-02,9.107274003326892853e-03,-1.711386628448963165e-02,4.400657117366790771e-02,-2.793304622173309326e-02,-6.777510792016983032e-02,2.024679258465766907e-02,-1.015038043260574341e-01,-2.108300104737281799e-02,3.800192847847938538e-02,8.001402020454406738e-02,8.855711668729782104e-02,1.676756655797362328e-03,-1.130068674683570862e-01,-3.143450943753123283e-03,6.890350580215454102e-02,-1.184680312871932983e-01,1.097512841224670410e-01,1.655949801206588745e-01,1.010853573679924011e-01,8.209770917892456055e-02,-1.151685118675231934e-01,-2.634503245353698730e-01,-1.571868658065795898e-01,-6.904927641153335571e-02,-1.386015564203262329e-01,1.125988923013210297e-02,1.189021673053503036e-02,5.449664965271949768e-02,5.159946158528327942e-02,5.667176842689514160e-02,7.814971357583999634e-02,-9.999909996986389160e-02,-1.465245801955461502e-02,-7.073854655027389526e-02,1.618303731083869934e-02,-8.765814453363418579e-02,-1.055136546492576599e-01,8.112678304314613342e-03,-3.651029616594314575e-02,-3.461195901036262512e-02,-8.537627011537551880e-02,-3.965440392494201660e-02,1.131911948323249817e-01,2.563624642789363861e-03,5.748226866126060486e-02,9.276363253593444824e-02,8.533746004104614258e-02,-1.270594447851181030e-02,1.101669818162918091e-01,2.126211067661643028e-03,1.089341491460800171e-01,1.074390783905982971e-01,1.199419796466827393e-01,1.380798034369945526e-02,-3.664879361167550087e-03,3.498334810137748718e-02,3.376180306077003479e-02,7.942712306976318359e-02,-1.004990041255950928e-01,-3.165056928992271423e-02,-3.054766543209552765e-02,-1.139794141054153442e-01,-7.780903019011020660e-03,6.602200679481029510e-03,2.114754356443881989e-02,5.378979444503784180e-02,-6.859288364648818970e-02,4.943535849452018738e-02,-2.411569096148014069e-02,1.862920634448528290e-02,-1.979718171060085297e-02,-1.041209101676940918e-01,-6.843633949756622314e-02,-6.428575515747070312e-02,-3.238074854016304016e-02,6.709855794906616211e-02,3.748666029423475266e-03,6.854458898305892944e-02,1.066778153181076050e-01,-9.140693396329879761e-02,1.670874357223510742e-01,6.036721169948577881e-03,-5.206828564405441284e-02,-2.123067528009414673e-02,2.427086532115936279e-01,-4.235295206308364868e-02,1.242068558931350708e-01,-7.081624865531921387e-02,3.821780160069465637e-02,1.229276359081268311e-01,1.872850656509399414e-01,-9.918729774653911591e-03,8.418834954500198364e-02,1.213924363255500793e-01,-6.557051092386245728e-02,-9.329418838024139404e-02,8.782272040843963623e-02,-4.055241867899894714e-02,-6.804025918245315552e-02,-1.100935265421867371e-01,1.425782889127731323e-01,8.053337782621383667e-02,-1.601542681455612183e-01,2.948758425191044807e-03,3.277920931577682495e-02,-4.096101224422454834e-02
-7.170149683952331543e-02,3.759599477052688599e-02,1.387546658515930176e-01,-3.797898814082145691e-02,-8.995062112808227539e-02,1.144871413707733154e-01,3.083263523876667023e-02,-5.005836486816406250e-02,1.659836471080780029e-01,4.339230060577392578e-02,-3.496715053915977478e-02,1.067457497119903564e-01,1.302820891141891479e-01,4.810115322470664978e-02,8.152440190315246582e-02,-1.057791784405708313e-01,3.104980289936065674e-02,3.898926544934511185e-03,-1.595587283372879028e-01,4.657906666398048401e-02,3.497271612286567688e-02,-1.711122244596481323e-01,1.880547218024730682e-02,-2.134052664041519165e-02,-8.137990534305572510e-02,5.109667778015136719e-02,-9.712913632392883301e-02,-2.749924547970294952e-02,2.878488041460514069e-02,-8.036458864808082581e-03,5.482462234795093536e-03,-5.036881566047668457e-02,-2.609350346028804779e-02,4.002272337675094604e-02,7.915247231721878052e-02,-4.423130303621292114e-02,-1.373280584812164307e-01,9.151247330009937286e-03,5.742305517196655273e-02,-1.111158877611160278e-01,1.657104492187500000e-01,-1.051807682961225510e-02,1.002988815307617188e-01,-6.783618032932281494e-02,-4.335037618875503540e-02,8.691647648811340332e-02,-9.070138633251190186e-02,1.307174414396286011e-01,1.083650961518287659e-01,-9.426988661289215088e-02,4.056637734174728394e-02,6.977216154336929321e-02,3.517177421599626541e-03,1.179807335138320923e-01,-1.106430813670158386e-01,1.415811032056808472e-01,-1.157282441854476929e-01,-3.529254347085952759e-02,1.406424790620803833e-01,5.929417908191680908e-02,-1.377896219491958618e-01,1.424875110387802124e-01,2.780109457671642303e-02,-1.385939568281173706e-01,-1.548503935337066650e-01,7.936730049550533295e-03,-5.783658847212791443e-02,1.194364503026008606e-01,1.657583005726337433e-02,-2.101651579141616821e-02,2.671890333294868469e-02,4.703346267342567444e-02,-1.368952393531799316e-01,-3.086783364415168762e-02,7.448257505893707275e-02,8.303838223218917847e-02,-1.384961009025573730e-01,6.476062536239624023e-02,1.533520668745040894e-01,2.136122733354568481e-01,-9.733479470014572144e-02,7.942441105842590332e-02,1.453344821929931641e-01,7.152839750051498413e-02,-7.224818319082260132e-02,2.213866859674453735e-01,9.507064521312713623e-02,-1.402455270290374756e-01,2.088893903419375420e-03,4.295718297362327576e-02,6.192106381058692932e-02,-1.106850355863571167e-01,7.183749228715896606e-02,1.033570989966392517e-01,5.151104927062988281e-02,7.074388861656188965e-02,-9.225574135780334473e-02,-6.936049461364746094e-02,1.354658752679824829e-01,1.927900873124599457e-02,-3.374798968434333801e-02,-5.674019083380699158e-02,5.343896523118019104e-02,3.887606784701347351e-02,1.078675612807273865e-01,-1.313445903360843658e-02,2.858683839440345764e-02,2.081422358751296997e-01,-8.678887784481048584e-02,5.758416373282670975e-03,-3.439745865762233734e-03,1.124848350882530212e-01,-2.705132216215133667e-02,-2.283831126987934113e-02,-5.905340611934661865e-02,-1.488710753619670868e-02,-1.097036153078079224e-01,5.984285846352577209e-02,-1.058459561318159103e-02,-2.240561321377754211e-02,1.555851697921752930e-01,1.239936724305152893e-01,-1.227358281612396240e-01,1.463803797960281372e-01,1.126618385314941406e-01,8.634914457798004150e-02,6.437325500883162022e-04,-1.652782708406448364e-01
-2.019213512539863586e-02,4.819385940209031105e-04,6.324304558802396059e-05,1.405195871484465897e-05,2.810725010931491852e-03,-6.518461159430444241e-04,1.820006291382014751e-03,-7.973671745276078582e-05,6.002067821100354195e-04,-8.425823762081563473e-05,-7.249584450619295239e-05,4.157481307629495859e-04,-4.072804935276508331e-03,-1.177728045149706304e-04,-2.521734568290412426e-04,9.496257640421390533e-03,4.562944639474153519e-03,8.460925164399668574e-05,-2.970398054458200932e-04,3.577710958779789507e-05,-8.561956346966326237e-04,8.499594696331769228e-05,2.257622691104188561e-04,-4.427814274094998837e-04,-7.952854968607425690e-03,3.195377576048485935e-05,1.982117071747779846e-03,3.319474899399210699e-06,-3.154942241962999105e-04,-4.128499494981952012e-05,-1.821885598474182189e-05,2.374020218849182129e-02,4.371160641312599182e-02,-1.024312805384397507e-03,-7.852715253829956055e-02,-2.281514025526121259e-04,-1.014283392578363419e-03,3.232094924896955490e-03,4.108686465770006180e-03,-1.641174964606761932e-02,9.991303086280822754e-02,-1.536390918772667646e-04,-1.563267782330513000e-03,-1.155163943767547607e-01,5.866401828825473785e-03,-1.703268662095069885e-02,5.273469164967536926e-02,-1.381893735378980637e-02,-3.869606007356196642e-04,7.760722190141677856e-02,8.748623076826334000e-04,-1.719426130875945091e-03,-2.900791168212890625e-02,-7.697282731533050537e-02,-1.320082228630781174e-04,8.670730888843536377e-02,3.867464605718851089e-03,-1.083718845620751381e-03,9.600304998457431793e-03,1.003147190203890204e-05,3.958148136734962463e-02,3.357388451695442200e-02,-9.696147753857076168e-05,1.428323594154790044e-04,-2.582581900060176849e-02,1.012736815027892590e-03,2.120546923833899200e-05,1.536089985165745020e-04,2.750007435679435730e-03,1.156784710474312305e-03,6.254893960431218147e-04,-1.400910878146532923e-05,1.242483034729957581e-03,-1.196590965264476836e-04,-1.221070851897820830e-04,5.202985368669033051e-03,7.766656344756484032e-04,-1.732455333694815636e-03,-3.424563910812139511e-04,1.583607227075845003e-04,5.882327910512685776e-03,-2.521886199247092009e-04,-3.123940259683877230e-04,1.488526322646066546e-04,-2.033531898632645607e-03,-2.553322701714932919e-05,3.741003747563809156e-04,-3.729079850018024445e-03,1.023152726702392101e-03,1.902033254737034440e-04,4.383565392345190048e-03,1.096545383916236460e-05,-8.779652416706085205e-04,-7.104815915226936340e-03,-7.883180660428479314e-05,2.755414508283138275e-02,-2.252752892673015594e-02,4.989813268184661865e-02,-1.955274783540517092e-04,-1.193140167742967606e-03,4.286761861294507980e-03,2.221577335149049759e-03,1.281947246752679348e-03,-2.653366886079311371e-02,-3.200049468432553113e-05,-4.281126428395509720e-03,3.695131838321685791e-02,3.282432910054922104e-03,1.132622733712196350e-02,-5.184352397918701172e-02,6.672395393252372742e-03,-1.768808439373970032e-02,1.009392458945512772e-02,-1.195643708342686296e-04,-5.393691244535148144e-04,2.311542630195617676e-03,-2.757173497229814529e-03,-3.609190229326486588e-03,9.670052677392959595e-03,-3.080384433269500732e-02,-3.723315021488815546e-04,2.522922353819012642e-03,8.809122256934642792e-03,1.279398053884506226e-02,-3.962475340813398361e-03,2.001753076910972595e-02,2.187499776482582092e-03,-1.069396152161061764e-03
-5.176028702408075333e-03,-2.472631866112351418e-03,-1.553728282451629639e-01,4.321258887648582458e-02,4.728754982352256775e-02,-1.458488553762435913e-01,3.148070536553859711e-03,1.419300734996795654e-01,6.070306152105331421e-02,1.038784757256507874e-01,-1.369816362857818604e-01,-9.718329459428787231e-02,3.360180929303169250e-02,2.980755642056465149e-02,3.388484194874763489e-02,-6.209404394030570984e-02,-1.044898554682731628e-01,2.958116494119167328e-02,-4.839565977454185486e-02,4.624876007437705994e-02,-3.605518490076065063e-02,-1.547422707080841064e-01,7.301981747150421143e-02,-4.917844198644161224e-03,-3.885402530431747437e-02,9.680228680372238159e-02,-8.507663756608963013e-02,9.248443692922592163e-02,9.345930069684982300e-02,1.888261437416076660e-01,-2.526582404971122742e-02,-7.758326828479766846e-02,-1.102660745382308960e-01,-8.447735011577606201e-02,-1.810767455026507378e-03,-1.167310103774070740e-01,-1.310569643974304199e-01,-8.783685974776744843e-03,3.325096890330314636e-02,3.303592652082443237e-02,-1.512303501367568970e-01,1.532453447580337524e-01,-1.595851331949234009e-01,-7.936646044254302979e-02,3.354525193572044373e-02,-6.279700901359319687e-04,-6.072920188307762146e-02,7.778072357177734375e-02,-1.625962108373641968e-01,-1.940695755183696747e-02,-9.081227332353591919e-02,-9.745482355356216431e-03,-2.118533942848443985e-03,-6.157786399126052856e-02,-9.415216743946075439e-02,-8.376665413379669189e-03,3.437903150916099548e-02,2.060703560709953308e-02,5.813156720250844955e-03,-4.152426030486822128e-03,6.186070665717124939e-02,2.541626803576946259e-02,6.955857574939727783e-02,1.626482158899307251e-01,-1.373250037431716919e-01,-1.509987656027078629e-02,5.917396768927574158e-02,6.104854121804237366e-02,-3.319757431745529175e-02,-1.150197610259056091e-01,1.648037880659103394e-02,6.907816976308822632e-02,6.115951389074325562e-02,-4.069522395730018616e-02,-6.306663900613784790e-02,9.204676747322082520e-02,-1.115972697734832764e-01,1.004458069801330566e-01,9.458667039871215820e-02,5.920909717679023743e-02,-3.552761161699891090e-03,1.269755978137254715e-02,7.698610424995422363e-02,-1.277370154857635498e-01,-7.424593716859817505e-02,2.960932441055774689e-02,5.409041792154312134e-02,1.485097706317901611e-01,8.867596089839935303e-02,1.988769918680191040e-01,-1.417189985513687134e-01,-1.896700076758861542e-02,-7.450144272297620773e-03,9.318941086530685425e-02,8.201903104782104492e-02,4.687063395977020264e-02,1.174860000610351562e-01,2.890152297914028168e-02,-1.093630567193031311e-01,-8.708470850251615047e-04,-1.108778491616249084e-01,-9.644126147031784058e-02,8.848861604928970337e-02,-4.603968560695648193e-02,-1.237242519855499268e-01,1.464425921440124512e-01,1.194036216475069523e-03,1.856001466512680054e-01,-2.706076204776763916e-02,-9.408482350409030914e-03,-1.238734945654869080e-01,9.509871900081634521e-02,5.668909475207328796e-02,3.615369647741317749e-02,7.642970979213714600e-02,9.386035799980163574e-02,-7.763560116291046143e-02,4.896734654903411865e-02,2.838802337646484375e-02,-9.706226736307144165e-02,-8.592125028371810913e-02,2.279413305222988129e-02,3.247022628784179688e-02,9.345072507858276367e-02,-7.099657505750656128e-02,-2.459701150655746460e-03,9.105861932039260864e-02,1.347470283508300781e-01
8.842782117426395416e-03,-4.177799914032220840e-03,-1.372249424457550049e-02,-1.055699307471513748e-02,6.396090239286422729e-02,-1.162451133131980896e-02,1.596235483884811401e-01,-1.575233489274978638e-01,-4.525652527809143066e-02,-5.948348343372344971e-02,-7.326034456491470337e-02,-2.316450774669647217e-01,2.145607471466064453e-01,-2.439750358462333679e-03,4.886326380074024200e-03,-5.702582374215126038e-02,-1.148201748728752136e-01,3.892157226800918579e-03,2.085465490818023682e-01,3.121885471045970917e-02,1.251687202602624893e-02,1.293218880891799927e-01,-1.942866016179323196e-03,3.332783700898289680e-03,3.046051785349845886e-02,-1.164512261748313904e-01,8.013038337230682373e-02,-2.753706090152263641e-02,-1.218255087733268738e-01,-1.840501129627227783e-01,2.938544005155563354e-02,5.055568367242813110e-02,2.424506992101669312e-01,7.978801615536212921e-03,-5.621099099516868591e-02,-3.893896564841270447e-02,5.984831973910331726e-02,5.877880752086639404e-02,1.114588826894760132e-01,1.940055787563323975e-01,2.105762064456939697e-01,-7.429421693086624146e-02,-4.195817932486534119e-02,-1.793543691746890545e-03,2.388180941343307495e-01,-4.959055408835411072e-02,-1.447133272886276245e-01,-1.317622512578964233e-01,-5.432509258389472961e-02,2.418259717524051666e-02,-9.281983226537704468e-02,-1.334949284791946411e-01,-1.364055275917053223e-01,-8.556798845529556274e-02,2.155731490347534418e-04,5.394464358687400818e-02,3.506174683570861816e-02,-2.449680119752883911e-01,-2.353639900684356689e-02,-3.859723359346389771e-02,8.402452617883682251e-02,-1.860699057579040527e-01,-6.739564985036849976e-02,6.445407867431640625e-02,-1.014187559485435486e-01,-4.220634233206510544e-03,2.736856462433934212e-03,1.382261328399181366e-02,8.304110728204250336e-03,-2.530108438804745674e-03,6.824962049722671509e-02,-6.999248266220092773e-02,-7.939680665731430054e-02,-1.420034933835268021e-02,-4.987032618373632431e-03,8.408392965793609619e-02,1.586079150438308716e-01,1.116363890469074249e-02,3.315079724416136742e-03,1.248320192098617554e-01,1.102572456002235413e-01,-9.783330373466014862e-03,7.116764783859252930e-02,1.090767309069633484e-01,-3.250670433044433594e-02,1.450946927070617676e-01,-2.911849180236458778e-03,6.399087607860565186e-02,3.613100573420524597e-02,5.204941704869270325e-02,-4.054231196641921997e-02,-2.009495161473751068e-02,-9.473549574613571167e-02,5.411365255713462830e-02,-4.931016638875007629e-02,1.371497637592256069e-03,2.548249904066324234e-03,4.005040973424911499e-02,5.294279009103775024e-02,1.302360743284225464e-01,1.130818054080009460e-01,2.490133233368396759e-02,1.114845424890518188e-01,2.956309914588928223e-02,-2.213468588888645172e-02,-1.067293286323547363e-01,9.135657548904418945e-02,1.161440834403038025e-02,1.815913617610931396e-01,-9.756535291671752930e-02,9.258343279361724854e-02,1.620054095983505249e-01,1.621872484683990479e-01,-9.749707579612731934e-02,6.291190534830093384e-02,-7.192181050777435303e-02,1.999020576477050781e-02,9.896244853734970093e-03,5.190430954098701477e-02,2.039251625537872314e-01,-3.220320865511894226e-02,7.457391917705535889e-02,-2.293025143444538116e-02,1.977698877453804016e-02,-2.130615413188934326e-01,-9.220596402883529663e-02,8.461906760931015015e-02,1.641918160021305084e-02
9.573884308338165283e-02,5.289221182465553284e-03,8.916310966014862061e-02,2.168150432407855988e-02,-2.055810019373893738e-02,-5.096634477376937866e-02,-1.748531013727188110e-01,-3.923380374908447266e-02,1.019227802753448486e-01,2.784947631880640984e-03,-7.131933420896530151e-02,8.572469651699066162e-02,-9.351457655429840088e-02,7.229930162429809570e-02,7.237232755869626999e-03,6.402567028999328613e-02,-1.899898648262023926e-01,3.938345983624458313e-02,-1.790165156126022339e-01,1.163510158658027649e-01,9.713509678840637207e-02,-7.940553873777389526e-02,-4.715918004512786865e-02,-1.554646436125040054e-02,-9.444598108530044556e-02,2.300360053777694702e-01,-8.067408204078674316e-02,1.082060337066650391e-01,4.813284799456596375e-02,1.686767488718032837e-01,8.053946495056152344e-02,-3.509535267949104309e-02,6.798683851957321167e-02,-2.307837083935737610e-02,1.834890991449356079e-01,1.236405968666076660e-01,-4.745112732052803040e-03,6.277675181627273560e-02,-1.332382708787918091e-01,-8.953213691711425781e-02,7.319946587085723877e-02,1.130819469690322876e-01,-7.304371893405914307e-02,-9.298468381166458130e-02,6.974435411393642426e-03,-1.118753850460052490e-01,9.751979261636734009e-02,-1.751798242330551147e-01,-1.324034035205841064e-01,-1.015052869915962219e-01,-4.619821161031723022e-02,-1.204946637153625488e-01,-1.273676156997680664e-01,-6.176554597914218903e-03,-8.607138693332672119e-02,5.703472532331943512e-03,6.288580596446990967e-02,-1.317884922027587891e-01,1.360247135162353516e-01,3.218587115406990051e-02,3.875209251418709755e-03,1.252644807100296021e-01,6.812684983015060425e-02,-1.474897414445877075e-01,-1.183878257870674133e-01,3.827377408742904663e-02,1.690321974456310272e-02,-6.374026089906692505e-02,-9.324774891138076782e-02,-1.074675619602203369e-01,-7.631605956703424454e-03,9.022835642099380493e-02,3.985296934843063354e-02,8.534643054008483887e-02,9.563722647726535797e-03,-4.935091733932495117e-02,1.054002344608306885e-01,-1.195031702518463135e-01,-1.024498194456100464e-01,-8.784321695566177368e-02,-1.044633984565734863e-02,9.012038260698318481e-02,1.222828999161720276e-01,1.560206413269042969e-01,1.279507726430892944e-01,1.653859205543994904e-02,-2.325298031792044640e-03,4.580503329634666443e-02,-2.607899345457553864e-02,-7.140225172042846680e-02,-7.397535373456776142e-04,6.661617755889892578e-02,-3.572982549667358398e-02,3.615311160683631897e-02,3.556026145815849304e-02,2.533390000462532043e-02,6.175542995333671570e-02,5.537636205554008484e-02,2.055009901523590088e-01,-3.961522132158279419e-02,1.811378821730613708e-02,-1.069280430674552917e-01,1.504669189453125000e-01,2.954759448766708374e-02,-1.018563359975814819e-01,-1.116339191794395447e-01,4.523472487926483154e-02,1.200114712119102478e-01,4.675392061471939087e-02,-3.422651812434196472e-02,1.051197573542594910e-02,-8.215745538473129272e-02,8.817835152149200439e-02,1.263344287872314453e-01,2.963530132547020912e-03,7.421386893838644028e-03,8.203317970037460327e-02,-2.786531485617160797e-02,7.581569254398345947e-02,-9.591205418109893799e-02,1.991886049509048462e-01,1.538433879613876343e-01,6.243885960429906845e-03,-7.395336776971817017e-02,-1.005001440644264221e-01,-1.200842484831809998e-01,9.683576226234436035e-02,-3.435929864645004272e-02
-1.072522252798080444e-02,6.679749116301536560e-03,-1.848166137933731079e-01,6.918314844369888306e-02,1.055576577782630920e-01,-3.109517320990562439e-02,1.753783226013183594e-01,1.247017085552215576e-01,-4.869407415390014648e-02,-4.844010248780250549e-02,8.843874186277389526e-02,1.507238596677780151e-01,-1.890708878636360168e-02,-2.660512691363692284e-03,-4.753246437758207321e-03,1.260751783847808838e-01,-6.276714615523815155e-03,1.212800038047134876e-03,3.183192759752273560e-02,3.333179512992501259e-03,-9.509251266717910767e-02,-4.071320220828056335e-02,3.618064103648066521e-03,8.327145129442214966e-03,1.046466156840324402e-01,1.015950366854667664e-01,-5.472499877214431763e-02,-1.718426006846129894e-03,7.748992741107940674e-02,1.464842706918716431e-01,-3.707857429981231689e-02,-1.569290310144424438e-01,6.593905389308929443e-02,-1.887756027281284332e-02,4.413327574729919434e-02,-8.783596009016036987e-02,4.216768592596054077e-02,2.960312180221080780e-02,-1.508740782737731934e-01,-1.871682703495025635e-01,1.545400321483612061e-01,-4.381737112998962402e-02,-2.490156590938568115e-01,1.061154976487159729e-01,-8.621657639741897583e-02,5.523405224084854126e-02,1.236532554030418396e-01,-9.473925828933715820e-02,-4.533190652728080750e-02,1.378572732210159302e-01,1.117358077317476273e-02,3.745336085557937622e-02,1.401260197162628174e-01,-8.058292418718338013e-02,1.762799546122550964e-02,4.912531748414039612e-02,-9.696915745735168457e-03,3.845568001270294189e-02,1.621517986059188843e-01,7.797525078058242798e-02,-1.262211501598358154e-01,9.767473489046096802e-02,1.187741011381149292e-01,2.399363927543163300e-02,-4.098431020975112915e-02,2.944899460999295115e-05,7.629255950450897217e-02,-4.816316813230514526e-02,-3.275480493903160095e-02,1.188787538558244705e-02,8.640241809189319611e-03,1.400794237852096558e-01,1.125003695487976074e-01,1.232885643839836121e-01,-1.617957055568695068e-01,8.586558513343334198e-03,1.509968787431716919e-01,9.750510565936565399e-03,-5.424069240689277649e-02,3.330896794795989990e-02,3.243669867515563965e-02,-3.721200674772262573e-02,6.601634621620178223e-02,4.073165729641914368e-02,-8.861686289310455322e-02,-2.161051332950592041e-02,5.026659741997718811e-02,1.025762502104043961e-02,-6.872706115245819092e-02,1.788715571165084839e-01,-5.778179690241813660e-02,7.619942724704742432e-02,7.106892019510269165e-02,-5.380353704094886780e-02,-1.239274721592664719e-02,-1.409668475389480591e-01,3.864290192723274231e-02,1.208535209298133850e-01,9.128035977482795715e-03,7.691116537898778915e-03,1.018568780273199081e-02,2.309060469269752502e-02,2.052657306194305420e-02,1.318030953407287598e-01,1.130877062678337097e-01,-1.326000243425369263e-01,-4.473631735891103745e-03,-5.149449035525321960e-02,9.317956119775772095e-02,-1.363388542085886002e-02,1.070201545953750610e-01,2.771826088428497314e-02,1.178340390324592590e-01,-1.020832061767578125e-01,-1.435672044754028320e-01,4.466655477881431580e-02,7.458761334419250488e-02,1.127808764576911926e-01,3.873755410313606262e-02,-5.784217733889818192e-03,4.946416988968849182e-02,4.337818548083305359e-02,1.147740557789802551e-01,-1.205174699425697327e-01,-1.855737119913101196e-01,5.594671238213777542e-03,2.638778649270534515e-02,-2.786216326057910919e-02
1.418832391500473022e-01,1.256159786134958267e-02,-7.621910423040390015e-02,8.027111738920211792e-02,-1.433918476104736328e-01,-4.657652601599693298e-02,-1.947202086448669434e-01,1.135431975126266479e-01,-3.237137943506240845e-02,1.964609324932098389e-01,6.320530921220779419e-02,3.788104653358459473e-02,-1.796420216560363770e-01,-7.628474268130958080e-04,8.559297770261764526e-03,-1.110692769289016724e-01,1.249951869249343872e-01,-5.492995306849479675e-02,8.796082437038421631e-02,1.394177377223968506e-01,-1.069274470210075378e-01,8.364311605691909790e-02,2.346423827111721039e-02,3.843637555837631226e-02,-3.224691003561019897e-02,3.975760936737060547e-02,1.021057218313217163e-01,1.350962072610855103e-01,-1.282737702131271362e-01,-4.025675356388092041e-02,7.659322023391723633e-02,1.231520399451255798e-01,1.744176149368286133e-01,-3.881679475307464600e-02,5.570413917303085327e-02,6.283148378133773804e-02,-1.066919565200805664e-01,-3.821225091814994812e-02,-1.536444872617721558e-01,-1.062379963696002960e-02,-2.375683374702930450e-02,-5.807100981473922729e-02,-1.357887238264083862e-01,-6.428873538970947266e-02,-1.394312083721160889e-01,3.105215961113572121e-03,-7.686276733875274658e-02,-4.823474213480949402e-02,-8.659986406564712524e-02,3.599293902516365051e-02,1.104378551244735718e-01,-2.761109359562397003e-02,-1.633374840021133423e-01,1.521529257297515869e-01,8.060481399297714233e-03,-1.188933923840522766e-01,9.102120250463485718e-02,-8.074143528938293457e-02,4.065114259719848633e-02,5.015918519347906113e-03,-1.615387499332427979e-01,-1.338706612586975098e-01,-7.676418125629425049e-02,-4.748779535293579102e-02,5.498569086194038391e-02,5.397102981805801392e-02,1.417638361454010010e-01,-1.056796386837959290e-01,-7.572413235902786255e-02,4.183842614293098450e-02,-7.745345681905746460e-02,4.524444695562124252e-03,-6.644797325134277344e-02,3.847289830446243286e-02,-4.129759967327117920e-02,-8.729713410139083862e-02,-1.346548497676849365e-01,1.172104105353355408e-02,-6.950247287750244141e-02,3.676972538232803345e-02,-6.224150955677032471e-02,8.024395257234573364e-02,1.398809105157852173e-01,7.508685439825057983e-02,1.985904723405838013e-01,-5.921100266277790070e-03,6.357518583536148071e-02,8.169452846050262451e-02,5.308863893151283264e-02,1.212596893310546875e-01,5.157615989446640015e-02,-9.103061258792877197e-02,9.351349622011184692e-02,-1.220186650753021240e-01,-1.076165437698364258e-01,-1.226669177412986755e-01,1.484322994947433472e-01,-2.129362430423498154e-03,7.989580929279327393e-02,-1.384877711534500122e-01,-3.473382443189620972e-02,6.136836484074592590e-02,-1.353990137577056885e-01,-9.998647123575210571e-02,1.055016294121742249e-01,1.557269319891929626e-02,1.659505963325500488e-01,-3.043638542294502258e-02,-6.891872733831405640e-02,1.153756678104400635e-01,-4.566865414381027222e-02,-3.154712542891502380e-02,9.249100089073181152e-02,-6.541721522808074951e-02,9.116088598966598511e-02,-1.227796915918588638e-02,1.542109549045562744e-01,4.044356942176818848e-02,1.968736499547958374e-01,1.227988302707672119e-01,-1.533036082983016968e-01,-1.592236459255218506e-01,8.608762919902801514e-02,8.758331835269927979e-02,8.995545655488967896e-02,3.435634076595306396e-02,-1.431831121444702148e-01,-1.581318080425262451e-01
7.482564542442560196e-03,2.470854111015796661e-02,-8.928978443145751953e-02,2.860295958817005157e-02,-1.502658724784851074e-01,4.718636628240346909e-03,1.047328114509582520e-01,5.189232528209686279e-02,-8.266769349575042725e-02,-2.068073488771915436e-02,5.640241131186485291e-02,-1.604872494935989380e-01,1.600319743156433105e-01,3.495167195796966553e-02,1.167725492268800735e-02,-1.324450820684432983e-01,-9.718065708875656128e-02,-1.808389276266098022e-02,-1.190651506185531616e-01,4.016936197876930237e-02,1.846140921115875244e-01,1.292438656091690063e-01,7.664839923381805420e-02,5.779282376170158386e-02,1.038530021905899048e-01,5.147363524883985519e-03,1.467793732881546021e-01,-8.227936178445816040e-02,-6.458753254264593124e-03,-1.091664135456085205e-01,-3.772921860218048096e-02,1.392235606908798218e-01,-1.058823540806770325e-01,-1.131566520780324936e-02,-6.498498469591140747e-02,-1.097276620566844940e-02,-9.210807085037231445e-02,-7.759651541709899902e-02,1.464394330978393555e-01,-8.262605220079421997e-02,-2.797571197152137756e-02,8.426769636571407318e-03,1.792953014373779297e-01,-1.495294123888015747e-01,-3.062072396278381348e-02,1.393492817878723145e-01,1.057542935013771057e-01,-9.590481966733932495e-02,-2.949134632945060730e-02,1.374748200178146362e-01,1.328846365213394165e-01,-1.233749315142631531e-01,-5.425917357206344604e-02,-1.792988777160644531e-01,-8.735883980989456177e-03,-1.101742312312126160e-01,6.432070583105087280e-02,-8.601970225572586060e-02,-4.781662300229072571e-02,8.536003530025482178e-02,-6.889234483242034912e-02,-9.982912242412567139e-02,-4.300212115049362183e-02,-1.066648364067077637e-01,-8.681172132492065430e-02,4.009963944554328918e-02,6.208028644323348999e-02,8.773837983608245850e-02,6.000087037682533264e-02,-1.305211931467056274e-01,-7.216893881559371948e-02,2.315064705908298492e-02,9.053679555654525757e-02,3.369814530014991760e-02,9.276172518730163574e-02,-1.188664063811302185e-01,1.329563111066818237e-01,1.567891985177993774e-01,6.601766683161258698e-03,-2.931089513003826141e-02,-5.734556540846824646e-02,9.041430056095123291e-02,8.016373962163925171e-02,-9.177678078413009644e-02,9.509802609682083130e-02,-1.928634010255336761e-02,5.928919091820716858e-02,1.223425380885601044e-02,-7.418517488986253738e-03,6.394376605749130249e-02,1.308787167072296143e-01,-1.572995260357856750e-02,8.086860179901123047e-02,7.466593384742736816e-02,-1.221883818507194519e-01,-8.404230326414108276e-02,-1.214265301823616028e-01,4.917222261428833008e-02,1.966865956783294678e-01,-9.542448818683624268e-02,-1.540438979864120483e-01,-6.697231903672218323e-03,1.707725971937179565e-01,-6.011544540524482727e-02,1.596080213785171509e-01,1.437861621379852295e-01,-7.114379107952117920e-02,1.040092185139656067e-01,-9.721520543098449707e-02,1.592821180820465088e-01,8.856762200593948364e-02,1.599679142236709595e-01,-3.605209290981292725e-02,5.763908475637435913e-02,1.265537738800048828e-01,1.049809306859970093e-01,-9.670424461364746094e-02,9.970747679471969604e-02,-1.713666766881942749e-01,1.668815463781356812e-01,-8.486910909414291382e-02,-8.904691040515899658e-02,-1.357679367065429688e-01,-1.586996167898178101e-01,1.420444995164871216e-01,-7.939413934946060181e-02,-8.542402833700180054e-02,4.419479146599769592e-02
5.241103470325469971e-02,5.564364837482571602e-04,3.160284459590911865e-02,4.687218368053436279e-02,7.954429835081100464e-02,-3.154589235782623291e-02,4.478458687663078308e-02,1.002829223871231079e-01,1.956727588549256325e-03,1.663853297941386700e-03,1.290967315435409546e-01,1.475055366754531860e-01,1.167852580547332764e-01,-1.438077259808778763e-02,-9.044010192155838013e-03,3.067898377776145935e-02,1.107006594538688660e-01,6.221985095180571079e-04,4.704006388783454895e-02,-2.946354507002979517e-04,-1.778127253055572510e-02,1.754724187776446342e-03,-2.825085073709487915e-03,-1.331985555589199066e-02,6.255891919136047363e-02,-5.578251183032989502e-02,-6.143524870276451111e-02,4.074925091117620468e-03,7.547175046056509018e-03,-1.655176095664501190e-02,2.236605621874332428e-02,-6.141927838325500488e-02,3.551100194454193115e-02,6.374452728778123856e-03,-1.198286116123199463e-01,-4.026231542229652405e-02,-1.540134754031896591e-02,-9.757283329963684082e-02,-1.276833936572074890e-02,2.657693624496459961e-01,8.531870692968368530e-02,2.498213499784469604e-01,-2.440498471260070801e-01,-1.694153845310211182e-01,4.809516668319702148e-02,-9.578891098499298096e-02,5.662950873374938965e-02,-1.740559488534927368e-01,-2.262803725898265839e-02,1.011958867311477661e-01,1.055766642093658447e-01,1.244986876845359802e-01,-4.182672873139381409e-02,-1.738610677421092987e-02,-2.435093186795711517e-02,-1.194008365273475647e-01,2.059469372034072876e-02,-4.147564992308616638e-02,4.977218806743621826e-02,3.472000733017921448e-02,6.004675477743148804e-02,1.086979508399963379e-01,-3.298435732722282410e-02,7.869302481412887573e-02,-4.433705657720565796e-02,3.714135615155100822e-03,5.236581340432167053e-02,6.412194669246673584e-02,7.502763718366622925e-02,-1.214265450835227966e-02,3.561238199472427368e-02,8.769875019788742065e-02,-2.783592045307159424e-02,-2.480744943022727966e-02,-6.872279942035675049e-02,1.592245697975158691e-01,2.106630615890026093e-02,-5.923492833971977234e-02,-1.669664122164249420e-02,-3.629143163561820984e-02,1.011136546730995178e-02,3.901401907205581665e-02,-8.815373294055461884e-04,-4.886624217033386230e-02,-5.147153139114379883e-02,4.263800103217363358e-03,3.568211197853088379e-02,-9.853958338499069214e-02,-6.949895620346069336e-02,-1.504743397235870361e-01,-5.995818972587585449e-02,-1.071109157055616379e-02,6.709158420562744141e-02,1.442873757332563400e-02,1.344893220812082291e-02,-9.193056821823120117e-02,3.945903480052947998e-02,1.645619571208953857e-01,9.314317256212234497e-02,-3.409066423773765564e-02,6.890264153480529785e-02,1.084781624376773834e-02,-2.203422598540782928e-02,3.164246212691068649e-03,4.701780155301094055e-03,-1.797785758972167969e-01,4.855215549468994141e-02,5.566948279738426208e-02,-1.817098446190357208e-02,-3.334574028849601746e-02,1.199786290526390076e-01,-4.553114995360374451e-02,1.614726185798645020e-01,-1.812553382478654385e-03,-1.651496887207031250e-01,-2.553833462297916412e-02,1.067728102207183838e-01,1.408366262912750244e-01,5.459633842110633850e-02,-4.286339879035949707e-02,7.546482980251312256e-02,-6.089188531041145325e-02,3.476375341415405273e-02,5.286935344338417053e-02,-1.055156141519546509e-01,1.576364338397979736e-01,8.190199732780456543e-02,-1.090203691273927689e-02
-1.222825422883033752e-02,2.410473534837365150e-03,-1.738972030580043793e-02,-1.495706848800182343e-02,2.880372852087020874e-02,4.270363599061965942e-03,6.045109406113624573e-02,4.685343801975250244e-02,4.263878241181373596e-02,3.704705089330673218e-02,-1.129454597830772400e-01,1.131011694669723511e-01,-8.528938144445419312e-02,4.123053047806024551e-03,-5.765985697507858276e-04,1.961314119398593903e-02,-3.863084316253662109e-02,9.646811522543430328e-04,-4.119703546166419983e-02,1.521404553204774857e-02,2.879440225660800934e-02,-7.078087329864501953e-02,2.917043457273393869e-05,-4.189772997051477432e-03,-1.793080591596662998e-03,4.500833153724670410e-02,8.272550255060195923e-02,7.716047693975269794e-04,-6.101484596729278564e-02,6.802029162645339966e-02,2.421775134280323982e-03,4.046642407774925232e-02,4.760722443461418152e-02,-2.652521478012204170e-03,-1.471658200025558472e-01,-9.977573156356811523e-02,-4.041260108351707458e-03,3.773764939978718758e-03,9.826871752738952637e-02,-1.727024763822555542e-01,3.451995551586151123e-02,2.435646392405033112e-02,2.200349408667534590e-04,2.680464684963226318e-01,-8.404895663261413574e-02,-2.911495103035122156e-04,1.167655736207962036e-02,1.278029531240463257e-01,6.572828441858291626e-02,1.372972154058516026e-03,4.222564771771430969e-02,4.416280426084995270e-04,-3.445875644683837891e-02,-7.089348882436752319e-02,-2.964507089927792549e-03,-3.633271902799606323e-02,3.029403835535049438e-02,-1.157796382904052734e-01,9.321933984756469727e-02,1.467368938028812408e-02,4.244820028543472290e-02,7.070767879486083984e-02,3.581459168344736099e-03,8.248043805360794067e-02,-1.190366689115762711e-02,3.698570420965552330e-03,-5.411792919039726257e-02,-2.990410290658473969e-02,2.577501349151134491e-02,6.993410061113536358e-04,6.992242485284805298e-02,4.258228093385696411e-02,5.870749801397323608e-02,1.595263555645942688e-02,-1.473215073347091675e-01,4.116606339812278748e-02,-6.601157598197460175e-03,1.434836187399923801e-03,9.199366904795169830e-03,1.362683176994323730e-01,1.399757564067840576e-01,1.070691389031708241e-03,9.578815847635269165e-02,7.463664561510086060e-02,-7.812015246599912643e-05,1.744898222386837006e-02,1.785652129910886288e-03,3.035865351557731628e-02,-3.511063009500503540e-02,8.994946256279945374e-03,-4.497660323977470398e-02,1.185180991888046265e-02,3.617542237043380737e-02,-1.261223405599594116e-01,2.568105049431324005e-02,1.459890604019165039e-02,-3.318067640066146851e-02,-7.762715220451354980e-02,-4.074833355844020844e-03,7.184658944606781006e-02,-2.817428437992930412e-03,2.265367424115538597e-03,1.092182248830795288e-01,-4.250222072005271912e-02,7.082279771566390991e-02,-4.807458072900772095e-02,-1.224612966179847717e-01,9.348921477794647217e-02,-6.038338690996170044e-02,-2.154100313782691956e-02,6.965469568967819214e-03,2.425943873822689056e-02,5.468414165079593658e-03,-3.063545376062393188e-02,2.252931892871856689e-02,2.648276649415493011e-02,9.678235650062561035e-02,6.989245116710662842e-02,9.982073307037353516e-02,1.220524832606315613e-01,7.904773578047752380e-03,1.560802459716796875e-01,3.558645769953727722e-02,9.991737455129623413e-02,-1.455985903739929199e-01,-1.562841003760695457e-03,-7.583118230104446411e-02,3.512049838900566101e-02
-5.390343442559242249e-02,4.171787761151790619e-03,9.112101793289184570e-02,5.364673212170600891e-02,-3.110027872025966644e-02,4.584361985325813293e-02,-1.037131622433662415e-01,-4.321782384067773819e-03,6.699919700622558594e-02,-7.957246154546737671e-03,-4.393195733428001404e-02,1.088287383317947388e-01,-1.226613298058509827e-01,1.297405082732439041e-02,-8.407584391534328461e-03,-7.609589491039514542e-03,-7.786417752504348755e-02,-6.381147075444459915e-03,-1.346055567264556885e-01,3.765737637877464294e-02,1.425240039825439453e-01,-1.471204012632369995e-01,3.845964744687080383e-02,8.223160170018672943e-03,6.713978946208953857e-02,-6.055104732513427734e-02,3.107460401952266693e-02,1.631020009517669678e-02,-7.237631827592849731e-02,1.921994090080261230e-01,3.443064913153648376e-02,-1.776381433010101318e-01,-4.644828662276268005e-02,-1.008542161434888840e-02,2.394720353186130524e-02,-1.042222678661346436e-01,-3.881710581481456757e-04,-1.059743538498878479e-01,2.250696532428264618e-02,6.671826541423797607e-02,-1.756356358528137207e-01,1.080948784947395325e-01,-9.844287484884262085e-02,-6.751294713467359543e-03,-1.099706962704658508e-01,7.745522260665893555e-02,-1.461077332496643066e-01,-1.078888494521379471e-02,6.698727607727050781e-03,-3.824218735098838806e-02,-6.117253378033638000e-02,-1.546779125928878784e-01,1.583332121372222900e-01,4.397847130894660950e-02,9.476835839450359344e-03,-9.673252701759338379e-02,3.478784486651420593e-02,1.485925465822219849e-01,-1.585687696933746338e-01,3.111923672258853912e-02,1.842549070715904236e-02,1.113584544509649277e-02,4.023282229900360107e-02,-1.172068119049072266e-01,1.516084969043731689e-01,2.789929509162902832e-02,-2.603582479059696198e-02,1.265837550163269043e-01,3.614518418908119202e-02,2.149626798927783966e-02,-5.209956690669059753e-02,-3.665908798575401306e-02,3.785621002316474915e-02,-6.697494536638259888e-02,1.370848901569843292e-02,4.412585869431495667e-02,2.240192890167236328e-02,-4.890906065702438354e-02,-4.687523096799850464e-02,1.326111108064651489e-01,-8.816953748464584351e-02,-4.570314660668373108e-02,-8.056626468896865845e-02,1.385878622531890869e-01,2.332917181774973869e-03,5.675996094942092896e-02,-4.249191284179687500e-02,-1.188255287706851959e-02,1.632626727223396301e-02,4.519004374742507935e-02,-1.074322909116744995e-01,6.354804337024688721e-02,2.314720302820205688e-02,2.447307854890823364e-02,6.560368090867996216e-02,-1.299288421869277954e-01,6.154338642954826355e-02,1.206292863935232162e-02,6.582928448915481567e-02,-6.083611026406288147e-02,1.385955810546875000e-01,4.539120197296142578e-02,3.740553557872772217e-02,-5.519712343811988831e-02,-3.606967255473136902e-02,-9.527983516454696655e-02,7.050952315330505371e-02,7.616414129734039307e-02,1.309545934200286865e-01,8.954957872629165649e-02,1.326197832822799683e-01,2.662993595004081726e-02,3.512435406446456909e-02,-9.206030517816543579e-02,-1.301730126142501831e-01,1.012940332293510437e-01,-1.205351427197456360e-01,1.767444610595703125e-01,-4.347491264343261719e-02,1.204131394624710083e-01,4.662448167800903320e-02,-3.410562500357627869e-02,1.481643319129943848e-01,-1.502792388200759888e-01,-2.446837909519672394e-02,2.420920692384243011e-02,4.745871759951114655e-03,-2.128913253545761108e-02
-8.725264668464660645e-02,5.478996317833662033e-03,-2.059122733771800995e-02,-7.899743504822254181e-04,-8.465845137834548950e-02,5.486102402210235596e-02,9.101014584302902222e-03,1.265861093997955322e-01,1.328970491886138916e-01,-1.352757215499877930e-01,6.064876914024353027e-02,1.330546885728836060e-01,9.253617376089096069e-02,3.437332808971405029e-02,-6.885970942676067352e-03,5.753209441900253296e-02,6.549333035945892334e-02,3.965138643980026245e-02,-1.479876488447189331e-01,7.766193896532058716e-02,-5.963341519236564636e-02,-7.586626708507537842e-02,-3.200100734829902649e-02,1.146685425192117691e-02,-3.421533480286598206e-02,-1.650802791118621826e-02,-2.131712995469570160e-02,5.646385625004768372e-02,4.968121275305747986e-02,-4.214043915271759033e-02,2.488733083009719849e-02,-9.868655353784561157e-02,9.733917564153671265e-02,-4.417628422379493713e-02,8.784075081348419189e-02,-1.026523262262344360e-01,2.179905027151107788e-02,1.043192148208618164e-01,-1.090550646185874939e-01,1.879529058933258057e-01,-6.660439074039459229e-02,2.433997839689254761e-01,-7.445636391639709473e-02,-1.102610528469085693e-01,9.150924533605575562e-02,7.927154749631881714e-02,1.845217496156692505e-01,-1.716592311859130859e-01,-8.516007661819458008e-02,-1.113082468509674072e-01,1.252885162830352783e-01,1.429441422224044800e-01,5.712868645787239075e-02,-1.458221822977066040e-01,-1.846431382000446320e-02,1.610577851533889771e-01,1.023319959640502930e-01,2.113911509513854980e-02,1.983505440875887871e-03,5.386003106832504272e-02,7.776079326868057251e-02,2.029138430953025818e-02,1.647821217775344849e-01,-1.383022814989089966e-01,-2.870734035968780518e-02,1.376103330403566360e-02,-1.663845591247081757e-02,9.534381330013275146e-02,-1.869041658937931061e-02,-2.830417267978191376e-02,6.425395607948303223e-02,4.313157498836517334e-02,-5.245515704154968262e-02,2.290826477110385895e-02,1.788650453090667725e-01,1.049131155014038086e-01,1.247211173176765442e-01,-1.402660608291625977e-01,7.023677974939346313e-02,1.198433935642242432e-01,3.511420637369155884e-02,-5.034256353974342346e-02,8.285504579544067383e-02,3.966253250837326050e-02,-4.355655238032341003e-02,1.473743319511413574e-01,-4.867977462708950043e-03,-1.100130453705787659e-01,-6.141525134444236755e-02,-7.686821371316909790e-02,1.967222839593887329e-01,8.025324344635009766e-02,2.654491923749446869e-02,1.547954231500625610e-01,1.548124998807907104e-01,-9.559532999992370605e-02,2.681949874386191368e-03,-1.332079023122787476e-01,9.455833584070205688e-02,-4.932445473968982697e-03,-2.122336439788341522e-02,8.757103979587554932e-02,-7.594975829124450684e-02,-7.834001630544662476e-02,8.727016299962997437e-02,-1.192131564021110535e-01,-4.318111017346382141e-02,1.069211363792419434e-01,-1.752073317766189575e-02,3.071535006165504456e-02,-1.305414736270904541e-01,1.005536243319511414e-01,-1.158554479479789734e-02,4.250918328762054443e-02,-4.692241176962852478e-02,-1.222032681107521057e-01,1.041564121842384338e-01,-1.344463676214218140e-01,1.550252586603164673e-01,-1.551978886127471924e-01,6.216829642653465271e-03,-1.321902275085449219e-01,1.047593951225280762e-01,7.707895338535308838e-02,3.574202954769134521e-02,6.985761970281600952e-02,-5.138325691223144531e-02,3.262645378708839417e-02
-1.075810119509696960e-01,1.146203256212174892e-03,-2.861174056306481361e-03,1.194216385483741760e-01,6.920970231294631958e-02,4.044868424534797668e-02,6.058444082736968994e-02,-1.162419468164443970e-02,-5.472704768180847168e-02,4.240088164806365967e-02,-7.494133710861206055e-02,-1.241127699613571167e-01,-4.776199907064437866e-02,-3.500246908515691757e-03,-9.870150825008749962e-04,1.093938201665878296e-01,1.055424660444259644e-01,8.195898844860494137e-04,-1.590167172253131866e-02,2.375089749693870544e-02,-5.752527341246604919e-02,-5.184129998087882996e-02,-9.217633865773677826e-03,-3.779798978939652443e-03,-7.592482864856719971e-02,1.503356825560331345e-02,-2.156591042876243591e-03,-1.759385503828525543e-02,1.390098500996828079e-02,1.575569063425064087e-01,7.389590144157409668e-02,-8.766158670186996460e-02,-1.072318032383918762e-01,-2.160606207326054573e-03,1.668745130300521851e-01,9.791176021099090576e-02,7.598710060119628906e-02,-1.323124319314956665e-01,-5.697164684534072876e-02,-7.423409819602966309e-02,-1.252559125423431396e-01,-8.073029667139053345e-02,-5.153484269976615906e-02,-5.192350223660469055e-02,-5.946697201579809189e-03,1.096674799919128418e-01,1.159964352846145630e-01,-8.145803958177566528e-02,-1.580550521612167358e-02,5.033305287361145020e-02,-6.151298433542251587e-02,1.158569678664207458e-01,1.183832734823226929e-01,1.285111606121063232e-01,-1.605321280658245087e-02,1.004741415381431580e-01,3.124650381505489349e-02,-4.137987643480300903e-02,1.065443456172943115e-02,3.502976149320602417e-02,-8.535037934780120850e-02,3.576396964490413666e-03,8.697316050529479980e-02,-7.818947732448577881e-02,-5.888859182596206665e-02,5.929830484092235565e-03,5.905704945325851440e-02,8.862248063087463379e-02,5.923478677868843079e-02,2.510239556431770325e-02,-3.065819852054119110e-02,1.491369158029556274e-01,6.955291610211133957e-03,2.004632540047168732e-02,3.855518996715545654e-02,3.568770736455917358e-02,-1.326847705058753490e-03,8.032303303480148315e-03,7.339122891426086426e-02,1.588786542415618896e-01,7.448816299438476562e-02,-4.333356395363807678e-03,-1.305308490991592407e-01,-9.664557874202728271e-03,-1.405729949474334717e-01,-6.823281198740005493e-02,-1.235004514455795288e-02,2.494783839210867882e-03,-6.786747276782989502e-02,-6.459164619445800781e-02,-1.546135451644659042e-02,5.035820975899696350e-02,5.140217766165733337e-02,-6.051858142018318176e-02,2.062289789319038391e-02,2.245247177779674530e-02,-5.351833067834377289e-03,-1.810225099325180054e-01,-3.850840777158737183e-02,1.195493936538696289e-01,8.106464892625808716e-02,4.419454187154769897e-02,-1.268272101879119873e-01,-5.945689603686332703e-02,9.006820619106292725e-02,-9.232227504253387451e-02,1.667993217706680298e-01,6.648977845907211304e-02,7.198829203844070435e-02,1.168435215950012207e-01,-5.734771490097045898e-02,-3.935213759541511536e-02,-5.835369601845741272e-02,-8.824623376131057739e-02,-7.574638724327087402e-02,1.082648038864135742e-01,-1.495579630136489868e-02,-8.883676677942276001e-02,6.168258376419544220e-03,-1.204274892807006836e-01,1.019569933414459229e-01,5.989813245832920074e-03,8.332039415836334229e-02,1.375182121992111206e-01,5.185414105653762817e-02,4.543312266469001770e-02,1.414699405431747437e-01,5.539627745747566223e-02
1.948342286050319672e-02,-2.356381301069632173e-04,1.732367277145385742e-01,-5.619238689541816711e-02,-2.628785185515880585e-02,1.322089508175849915e-02,1.478984355926513672e-01,4.395856708288192749e-02,-2.993482351303100586e-02,1.035778075456619263e-01,1.067521199584007263e-01,-9.268463589251041412e-03,1.135033592581748962e-01,8.744527585804462433e-04,7.309921784326434135e-04,-7.545511471107602119e-04,1.370355039834976196e-01,3.137015271931886673e-03,9.928406029939651489e-02,-1.575788669288158417e-02,6.912328302860260010e-02,1.166065037250518799e-01,4.365217755548655987e-04,-4.687257856130599976e-02,2.069836668670177460e-02,-1.147357970476150513e-01,5.615217983722686768e-02,5.076856166124343872e-02,-1.513059139251708984e-01,-4.179253429174423218e-02,4.838801175355911255e-02,-5.631681904196739197e-02,-7.947398722171783447e-02,-4.266550298780202866e-03,7.895331084728240967e-02,8.563637733459472656e-02,-1.933600008487701416e-02,1.048205643892288208e-01,1.119481120258569717e-02,3.530753031373023987e-02,1.041670888662338257e-02,-1.321345865726470947e-01,-1.340093612670898438e-01,4.248635843396186829e-02,1.930002272129058838e-01,7.147334981709718704e-04,-7.734002172946929932e-02,1.288101673126220703e-01,-1.241638660430908203e-01,1.936280541121959686e-02,2.209762111306190491e-02,2.053076773881912231e-02,-5.904034152626991272e-02,1.821924299001693726e-01,-8.128167130053043365e-03,1.351943761110305786e-01,5.792963877320289612e-02,-7.387296855449676514e-02,3.082080371677875519e-02,-2.463383413851261139e-02,1.032471731305122375e-01,-2.172480672597885132e-01,5.025264248251914978e-02,-5.559706687927246094e-02,-1.349275112152099609e-01,5.618706811219453812e-03,-2.821948379278182983e-02,1.242008656263351440e-01,2.865202166140079498e-02,-6.534553598612546921e-03,1.550889015197753906e-01,-6.874141842126846313e-02,-7.343052327632904053e-02,-7.691788487136363983e-03,-1.219635829329490662e-01,1.855018436908721924e-01,7.863350212574005127e-02,-1.342965848743915558e-02,2.101728459820151329e-03,1.467666123062372208e-02,3.797603771090507507e-02,-2.015030477195978165e-03,5.269547924399375916e-02,1.615940034389495850e-01,2.243189513683319092e-02,1.241861507296562195e-01,-1.042481604963541031e-02,-3.951456025242805481e-02,-1.696725003421306610e-02,6.754116620868444443e-03,8.439101278781890869e-02,-4.280546307563781738e-02,-1.609142720699310303e-01,1.485669463872909546e-01,-4.306006245315074921e-03,3.758415207266807556e-02,3.516352176666259766e-02,-8.306390605866909027e-03,8.567178249359130859e-02,6.353525817394256592e-02,8.047764748334884644e-02,-5.260866880416870117e-02,4.918790236115455627e-02,-4.022365808486938477e-02,3.445721790194511414e-02,-7.046651840209960938e-02,4.239497706294059753e-02,2.202466428279876709e-01,1.134498566389083862e-01,-1.032059192657470703e-01,1.576997339725494385e-01,7.477520406246185303e-02,-2.869908232241868973e-03,-1.029493585228919983e-01,-1.305952817201614380e-01,1.849969290196895599e-02,-1.811685739085078239e-03,-8.656971901655197144e-02,-4.906087368726730347e-02,2.668599970638751984e-02,-1.203916594386100769e-01,-2.058641985058784485e-03,6.732890009880065918e-02,6.019783765077590942e-02,7.345386315137147903e-03,-6.251643411815166473e-03,2.230798825621604919e-03,6.540508568286895752e-02
6.265190988779067993e-02,4.952939227223396301e-03,-7.501211017370223999e-02,1.884809881448745728e-02,6.331685930490493774e-02,5.773717910051345825e-02,-1.539108604192733765e-01,-1.040888428688049316e-01,-9.992249310016632080e-02,-4.843811318278312683e-02,-5.640101060271263123e-02,-9.371261112391948700e-03,-3.142959251999855042e-02,-3.616676258388906717e-05,-9.107697755098342896e-03,8.645085990428924561e-02,1.398642063140869141e-01,3.254131006542593241e-04,-2.120124641805887222e-03,8.445530198514461517e-03,4.446844384074211121e-02,-5.460144951939582825e-02,2.496141241863369942e-03,9.583878330886363983e-03,9.370607882738113403e-02,7.926043868064880371e-02,5.037924274802207947e-02,2.124174498021602631e-02,5.091953650116920471e-02,-5.272816866636276245e-02,-5.465184152126312256e-02,-6.150673702359199524e-02,3.489229083061218262e-02,-8.823089301586151123e-03,-1.583900749683380127e-01,-9.389054030179977417e-02,-1.962853968143463135e-02,-7.477305829524993896e-02,-2.487987838685512543e-02,-1.812317967414855957e-02,5.139543488621711731e-02,5.398334935307502747e-02,3.400151804089546204e-02,9.506858140230178833e-02,-4.252453893423080444e-02,-2.139303460717201233e-02,-9.546830318868160248e-03,-8.076518774032592773e-02,2.538355533033609390e-03,-9.696383774280548096e-02,2.126313000917434692e-02,1.111535876989364624e-01,-1.837994754314422607e-01,1.084307879209518433e-01,2.292226068675518036e-02,1.149388402700424194e-02,9.558446705341339111e-02,-2.392957806587219238e-01,9.615696966648101807e-02,2.934419736266136169e-02,1.690859347581863403e-01,3.633039444684982300e-02,7.607635110616683960e-02,5.535112321376800537e-02,2.705782465636730194e-02,7.938787341117858887e-03,1.722405850887298584e-01,4.204442724585533142e-02,2.224485762417316437e-02,-6.405985914170742035e-03,-1.375418454408645630e-01,-5.362561345100402832e-02,7.044145464897155762e-02,2.532456517219543457e-01,1.307969242334365845e-01,-2.453488409519195557e-01,8.640231564640998840e-03,6.507959682494401932e-03,4.369783028960227966e-02,2.694650180637836456e-02,2.105988562107086182e-01,-2.370602078735828400e-02,2.140117064118385315e-02,1.860347203910350800e-02,6.637411564588546753e-02,-5.541316047310829163e-02,-2.821431867778301239e-02,2.789137884974479675e-02,7.145813107490539551e-02,6.451849639415740967e-02,-7.740786671638488770e-02,4.634321108460426331e-02,1.036339849233627319e-01,1.268720924854278564e-01,5.902588367462158203e-02,1.095656603574752808e-01,1.707910001277923584e-02,7.237935066223144531e-02,-2.405193448066711426e-02,1.227433793246746063e-03,6.581588834524154663e-02,-5.466616898775100708e-02,2.259116992354393005e-02,-1.262941118329763412e-02,8.141618221998214722e-02,-5.720828776247799397e-04,1.883758045732975006e-02,-9.229706972837448120e-02,-2.455707639455795288e-02,3.897275403141975403e-02,8.068253844976425171e-02,6.141654029488563538e-02,1.861945390701293945e-01,-1.652032583951950073e-01,-7.220137119293212891e-02,-1.817098073661327362e-02,-9.208426624536514282e-02,3.294351696968078613e-02,1.731442101299762726e-02,1.301783174276351929e-01,-3.968361765146255493e-02,3.374610096216201782e-02,1.118555068969726562e-01,-1.041835993528366089e-01,-1.044011786580085754e-01,1.447540223598480225e-01,-9.681518375873565674e-02,-2.046866342425346375e-02
-2.263363823294639587e-02,5.447013245429843664e-05,-3.226065263152122498e-02,3.160557895898818970e-02,2.645129524171352386e-02,7.996448129415512085e-02,-1.618318706750869751e-01,-8.291091024875640869e-02,5.237371847033500671e-02,-2.292168699204921722e-02,-2.375949360430240631e-02,-1.604012101888656616e-01,-5.248033627867698669e-02,1.745693199336528778e-02,9.541800245642662048e-03,-2.429293096065521240e-01,-1.401871740818023682e-01,-9.316386654973030090e-03,-4.547682404518127441e-02,8.470790460705757141e-03,-2.014217525720596313e-02,1.397551596164703369e-01,-5.380260758101940155e-03,3.402859345078468323e-02,6.444562226533889771e-02,6.375582516193389893e-02,-1.299101114273071289e-01,4.410945996642112732e-02,-1.064848229289054871e-01,4.456224292516708374e-02,-4.530514404177665710e-02,4.204756021499633789e-02,-7.905368506908416748e-02,-2.168960403650999069e-03,-2.343220403417944908e-04,-1.874851807951927185e-02,1.165758147835731506e-01,2.737147361040115356e-02,3.977825492620468140e-02,1.529671717435121536e-02,1.105078533291816711e-01,-1.617925167083740234e-01,1.096757873892784119e-02,1.723490469157695770e-02,6.103735789656639099e-02,2.089245617389678955e-02,7.574786990880966187e-02,1.760447621345520020e-01,-5.449869483709335327e-02,3.529625246301293373e-03,-1.263827532529830933e-01,-7.250860333442687988e-02,1.142916828393936157e-01,-1.953257024288177490e-01,-2.911036461591720581e-02,-1.743465811014175415e-01,5.207965523004531860e-02,1.258267611265182495e-01,-7.561313919723033905e-03,-8.044577203691005707e-03,-1.510700136423110962e-01,1.690489351749420166e-01,3.858052939176559448e-02,8.739540725946426392e-02,9.361693263053894043e-02,8.178653195500373840e-03,5.514280125498771667e-02,4.826579242944717407e-02,-3.463367000222206116e-02,5.055424943566322327e-02,9.510707855224609375e-02,-1.154231727123260498e-01,-2.986363321542739868e-02,-1.491291671991348267e-01,-9.773775190114974976e-02,-1.404756605625152588e-01,-8.622912317514419556e-02,2.836831146851181984e-03,2.195551991462707520e-02,-5.910649523138999939e-02,1.367995142936706543e-01,-5.814080685377120972e-02,1.503128558397293091e-02,-8.610903471708297729e-02,-2.792211808264255524e-02,1.148858740925788879e-01,5.572135560214519501e-04,-5.431580170989036560e-02,1.145695373415946960e-01,7.534956187009811401e-02,-1.744424700736999512e-01,3.288909047842025757e-02,8.833963423967361450e-02,1.267206370830535889e-01,-2.888509444892406464e-02,4.761296138167381287e-02,-1.012651249766349792e-03,4.462968185544013977e-02,2.099178582429885864e-01,1.775189936161041260e-01,-1.711979508399963379e-01,-6.866253912448883057e-02,-1.272144019603729248e-01,6.846231222152709961e-02,-6.430103629827499390e-02,3.839107230305671692e-02,8.763553947210311890e-02,-1.186569407582283020e-01,1.377246975898742676e-01,9.638182073831558228e-02,3.531512990593910217e-02,-4.883452132344245911e-02,-1.775669120252132416e-02,-3.687721863389015198e-02,-1.235164608806371689e-02,1.320744603872299194e-01,-1.133116632699966431e-01,-2.992155216634273529e-02,-7.798845320940017700e-02,-1.111456658691167831e-02,1.274916976690292358e-01,-9.417161345481872559e-02,3.912475332617759705e-02,-1.297577172517776489e-01,-1.017574965953826904e-01,8.288262039422988892e-02,-1.660180687904357910e-01,1.394190788269042969e-01
