4.273439291864633560e-03
-1.409295387566089630e-02
-7.349542807787656784e-03
-7.340239826589822769e-03
-2.724030986428260803e-02
-1.111334539018571377e-03
-2.036186493933200836e-02
-4.632606171071529388e-03
-2.484137006103992462e-02
9.343057870864868164e-03
-1.818311214447021484e-02
4.883226007223129272e-03
-6.654661148786544800e-03
1.525951549410820007e-02
-1.686863601207733154e-02
-2.544244378805160522e-02
-1.526606176048517227e-02
-2.390892989933490753e-02
-3.238032385706901550e-02
-3.641630755737423897e-04
-1.017713174223899841e-02
-1.174936722964048386e-02
-1.812997460365295410e-02
-1.091133430600166321e-02
-2.436567656695842743e-02
-5.331120453774929047e-03
-2.189810574054718018e-02
1.102193491533398628e-03
-5.433385726064443588e-03
-1.254451833665370941e-02
-2.572630532085895538e-02
-8.330347947776317596e-03
-2.234727889299392700e-02
-5.181890912353992462e-03
-2.206131257116794586e-02
6.148410495370626450e-03
1.935960352420806885e-02
-1.788244396448135376e-02
-2.776113338768482208e-02
-9.287731721997261047e-03
-2.002195455133914948e-03
-2.660618163645267487e-02
2.017279341816902161e-02
-3.468204289674758911e-02
-4.478826653212308884e-03
-1.635538041591644287e-02
1.125781680457293987e-03
-1.870162226259708405e-02
-2.259878069162368774e-02
-1.923083513975143433e-02
-2.187432348728179932e-02
-1.751836761832237244e-02
2.515849843621253967e-02
-5.191871896386146545e-03
-7.150498218834400177e-03
-3.020069934427738190e-02
5.330534186214208603e-03
-2.625689841806888580e-02
3.595080343075096607e-04
-8.769336156547069550e-03
-9.113160893321037292e-03
-2.096131443977355957e-02
-2.772989310324192047e-02
2.073019131785258651e-04
-2.140074037015438080e-02
1.219616085290908813e-02
-2.024684660136699677e-02
3.450188552960753441e-03
-1.351667381823062897e-02
6.528296973556280136e-03
-1.909417845308780670e-02
-2.737737819552421570e-02
-1.997053436934947968e-02
-2.612815983593463898e-02
1.754862628877162933e-02
-3.112879954278469086e-02
1.991597376763820648e-02
-2.416849834844470024e-03
1.028743223287165165e-03
1.795373111963272095e-02
-1.666102558374404907e-02
-2.858362719416618347e-02
-2.946122922003269196e-02
-1.874656975269317627e-02
-3.294089809060096741e-02
-1.996337249875068665e-02
-2.823631465435028076e-02
-1.170858368277549744e-02
-1.729267463088035583e-02
1.406006980687379837e-02
-3.360043838620185852e-02
-4.437920171767473221e-03
-2.038658224046230316e-02
1.348331291228532791e-02
-2.260833606123924255e-02
-7.685393560677766800e-03
-1.731568388640880585e-02
-1.532540190964937210e-02
-7.827104069292545319e-03
-2.452051825821399689e-02
-2.213752269744873047e-02
-2.431130595505237579e-02
7.111731916666030884e-03
-2.889718115329742432e-02
-1.399485021829605103e-02
-1.921547017991542816e-02
-2.304287999868392944e-02
-1.679468154907226562e-02
-1.952114887535572052e-02
1.657795347273349762e-02
-5.345598794519901276e-03
-1.424604933708906174e-02
-1.979354210197925568e-02
-1.050140615552663803e-02
7.460395339876413345e-03
-1.060402020812034607e-02
-4.262406378984451294e-03
-1.230199635028839111e-02
-3.181857243180274963e-02
5.810189526528120041e-03
-8.142529986798763275e-03
-2.099060453474521637e-02
1.596193015575408936e-02
-1.451555290259420872e-03
-1.068019308149814606e-02
-1.720031164586544037e-02
-7.206325884908437729e-03
-2.260955795645713806e-02
-2.173562906682491302e-02
-2.870057895779609680e-02
-1.318245567381381989e-02
-2.889272011816501617e-02
-2.050287462770938873e-02
-2.042172476649284363e-02
-5.397111643105745316e-03
-1.039432268589735031e-02
-1.819676719605922699e-02
-1.535580027848482132e-02
-1.903364807367324829e-02
-4.303679801523685455e-03
-2.410640195012092590e-02
-6.794729270040988922e-04
-2.645503915846347809e-02
1.373069453984498978e-02
-4.095403943210840225e-03
-2.375503629446029663e-02
-1.167840976268053055e-02
-1.590303890407085419e-02
-1.696783117949962616e-02
-3.168800473213195801e-02
-2.128705149516463280e-03
-4.858811385929584503e-03
-1.980930753052234650e-02
1.268122158944606781e-02
-1.601178757846355438e-02
1.479903329163789749e-02
-3.227422386407852173e-02
-1.241095084697008133e-02
-1.991449482738971710e-02
-1.862519979476928711e-02
-2.478735893964767456e-02
-1.676763594150543213e-02
2.193048968911170959e-02
4.403583705425262451e-03
-1.179650519043207169e-02
-2.443424053490161896e-02
-2.613780833780765533e-02
1.691666431725025177e-03
4.247567150741815567e-03
-8.158322423696517944e-03
1.999782957136631012e-02
-1.575203053653240204e-02
-1.745408633723855019e-03
-2.580633014440536499e-02
-6.853896658867597580e-03
-2.820635773241519928e-02
1.142749283462762833e-02
-1.951335743069648743e-02
5.943496245890855789e-03
-1.447984389960765839e-02
4.521974362432956696e-03
1.569459587335586548e-02
2.030547335743904114e-02
-1.179142482578754425e-02
-1.469457149505615234e-02
6.183829624205827713e-03
-4.626387089956551790e-04
-5.065970588475465775e-03
-2.723706141114234924e-02
-1.718252710998058319e-02
-2.249232120811939240e-02
-1.133348140865564346e-02
-2.933804318308830261e-02
-5.938115529716014862e-03
3.430517856031656265e-03
4.819703754037618637e-03
-4.575020633637905121e-03
2.104461658746004105e-03
-2.434227615594863892e-02
-4.461848177015781403e-03
-2.512015961110591888e-02
1.734561473131179810e-02
-1.989226974546909332e-02
1.132508506998419762e-03
3.267750842496752739e-03
-3.865911159664392471e-03
-2.619516849517822266e-02
7.257106713950634003e-03
-3.367063403129577637e-02
-2.816193923354148865e-02
-1.947437413036823273e-02
-8.267450146377086639e-03
-3.967512864619493484e-03
-2.909639291465282440e-02
3.092959988862276077e-03
-4.178646486252546310e-03
-2.147485688328742981e-02
-2.807927317917346954e-02
-1.678104884922504425e-02
-2.709483914077281952e-02
1.921722292900085449e-02
-1.768061891198158264e-03
-2.826907485723495483e-02
-1.406597252935171127e-02
7.243393920361995697e-03
-2.028218656778335571e-02
-1.915273442864418030e-02
1.585132256150245667e-02
-1.716210041195154190e-03
1.465519191697239876e-03
-3.434923663735389709e-02
-1.161338295787572861e-02
-2.390018478035926819e-02
-1.251544337719678879e-02
-1.500346884131431580e-02
-1.353947725147008896e-02
1.452347147278487682e-03
6.009418051689863205e-03
-2.836895920336246490e-02
-2.646246179938316345e-02
-2.619997411966323853e-02
-8.559833280742168427e-03
-8.458069525659084320e-03
-1.821308862417936325e-03
-5.148050258867442608e-04
-3.161784261465072632e-02
-1.800592616200447083e-02
-2.380435541272163391e-02
-9.999009780585765839e-03
-2.007970586419105530e-02
-5.719723179936408997e-03
-1.830818690359592438e-02
-2.050238288938999176e-02
-2.511628903448581696e-02
-1.646082662045955658e-02
-9.562339633703231812e-03
1.429886184632778168e-02
5.533913616091012955e-03
1.647044718265533447e-02
1.150432042777538300e-02
8.638682775199413300e-04
1.747682504355907440e-02
7.724622730165719986e-03
8.438847959041595459e-03
2.094848314300179482e-03
9.251674637198448181e-03
-5.505391396582126617e-03
-2.408898808062076569e-02
1.372115220874547958e-03
1.220176368951797485e-02
3.969156648963689804e-03
9.718089364469051361e-03
4.228762816637754440e-03
-1.542350742965936661e-02
-8.747782558202743530e-03
-1.013361942023038864e-02
-1.615563966333866119e-02
1.535671111196279526e-02
-1.370725780725479126e-02
5.618304945528507233e-03
7.452314253896474838e-03
-2.132601477205753326e-02
5.847596097737550735e-03
-1.814195513725280762e-02
-1.486933603882789612e-02
3.864371450617909431e-03
-1.142030395567417145e-02
-8.890057215467095375e-04
9.114762768149375916e-03
-3.735252888873219490e-03
-2.595158992335200310e-03
-1.112278178334236145e-02
1.586534455418586731e-02
4.852805752307176590e-03
-5.591013934463262558e-03
-7.735049584880471230e-04
-1.499023381620645523e-02
9.847448207437992096e-03
-2.307394705712795258e-02
-6.218769587576389313e-03
-1.421643886715173721e-02
5.876613795408047736e-05
1.290635298937559128e-02
-5.156845785677433014e-03
9.486683644354343414e-03
6.813240703195333481e-03
7.335902657359838486e-03
-9.200657717883586884e-03
2.517765946686267853e-02
5.073855631053447723e-03
1.095479261130094528e-02
-3.808220382779836655e-03
-2.113617025315761566e-03
1.022135559469461441e-02
3.312761546112596989e-04
-2.884520916268229485e-03
1.945294439792633057e-02
-3.395508043467998505e-03
3.601388307288289070e-03
-2.041571214795112610e-02
-2.635568380355834961e-03
1.598762720823287964e-02
1.285434328019618988e-02
-6.406269501894712448e-03
-1.268475409597158432e-02
2.358579821884632111e-02
2.815248677507042885e-03
-8.317969739437103271e-03
4.201861738692969084e-04
-8.860415779054164886e-03
-9.476187638938426971e-03
1.666823169216513634e-03
1.272916048765182495e-02
-4.922224208712577820e-03
-9.311224333941936493e-03
1.749505475163459778e-02
7.454867940396070480e-03
5.046229343861341476e-03
-2.306859707459807396e-03
-5.599529948085546494e-03
-6.911669392138719559e-03
8.696651086211204529e-03
1.152001414448022842e-02
-1.243670750409364700e-02
-1.070835161954164505e-02
-1.692291721701622009e-02
-6.155717186629772186e-03
-4.311175085604190826e-03
-6.320333573967218399e-03
-5.845944397151470184e-03
9.914339520037174225e-03
2.060650876956060529e-04
1.141225825995206833e-02
-3.011293476447463036e-03
9.943507611751556396e-04
7.434729021042585373e-03
6.988315843045711517e-03
-2.595093683339655399e-04
-5.887174047529697418e-03
5.604651756584644318e-03
2.287474926561117172e-03
1.386300660669803619e-02
-7.593540940433740616e-03
8.433395996689796448e-03
-3.545557148754596710e-03
1.897535659372806549e-02
1.514841802418231964e-02
6.032188888639211655e-03
2.963998354971408844e-03
-6.510469596832990646e-03
-1.574244536459445953e-02
5.146032199263572693e-03
9.406203404068946838e-03
-4.406803753226995468e-03
-1.450302638113498688e-02
1.570922881364822388e-02
-1.342749502509832382e-02
-6.728449836373329163e-03
1.650485210120677948e-02
-9.891526773571968079e-03
-8.503044955432415009e-03
-7.495685480535030365e-03
-2.106762258335947990e-03
2.109218388795852661e-03
-1.437731739133596420e-02
6.961985491216182709e-03
1.033424306660890579e-02
-1.184335816651582718e-02
1.126243267208337784e-02
1.295477245002985001e-02
-1.381882466375827789e-02
-3.127024043351411819e-03
-8.480378426611423492e-03
-1.952489139512181282e-03
1.102851331233978271e-02
9.788225404918193817e-03
5.701119080185890198e-03
-1.401370484381914139e-02
-5.291495472192764282e-03
-1.335708051919937134e-02
-8.595086634159088135e-03
-6.515565328299999237e-03
1.786505919881165028e-03
-1.075316104106605053e-03
2.769859507679939270e-03
-9.014839306473731995e-03
3.146142233163118362e-03
-3.610812593251466751e-03
6.120344623923301697e-03
2.121693221852183342e-03
8.421192178502678871e-04
-3.409851808100938797e-03
-5.003869533538818359e-03
-3.064371878281235695e-03
1.123288460075855255e-02
3.940500901080667973e-04
1.183358486741781235e-02
1.277193799614906311e-02
-2.147501520812511444e-02
1.971460133790969849e-02
-1.888228580355644226e-03
-1.570696011185646057e-02
-8.049045689404010773e-03
1.697307266294956207e-02
1.408455800265073776e-02
1.847014948725700378e-02
1.542624831199645996e-02
-1.244853902608156204e-02
1.947989128530025482e-02
-5.820840131491422653e-03
3.521624486893415451e-03
-5.219741724431514740e-03
-1.492531877011060715e-02
5.881911143660545349e-03
-1.673093996942043304e-02
-1.442384533584117889e-02
-1.596198789775371552e-02
-2.435873821377754211e-02
-1.515933778136968613e-02
2.782991854473948479e-03
3.329904982820153236e-03
1.302296575158834457e-02
-6.217260379344224930e-03
-1.390328910201787949e-02
1.176090724766254425e-02
5.321275675669312477e-04
6.255066953599452972e-03
-5.309015046805143356e-03
8.663344196975231171e-03
1.189526915550231934e-02
-1.175337354652583599e-03
-6.799965165555477142e-03
-1.330596487969160080e-02
-1.650987938046455383e-02
3.798552323132753372e-03
-9.870620444416999817e-03
-6.727180909365415573e-03
1.787167042493820190e-02
-6.599977146834135056e-03
-7.877616211771965027e-03
1.626047678291797638e-02
-7.292285445146262646e-04
-4.873935598880052567e-03
9.350695647299289703e-03
-2.174441888928413391e-02
-1.318196393549442291e-02
1.542848302051424980e-03
-6.209663115441799164e-03
-1.025179214775562286e-02
-6.420550867915153503e-03
1.207558321766555309e-03
-1.646724180318415165e-03
-8.108621463179588318e-03
-6.096800789237022400e-03
7.562023587524890900e-03
1.519921119324862957e-03
-2.073463052511215210e-02
-9.841362945735454559e-03
-9.827057830989360809e-03
1.153420750051736832e-02
1.351820211857557297e-02
-8.503197692334651947e-03
-2.096354030072689056e-03
-1.410686690360307693e-02
1.692816615104675293e-02
1.234690076671540737e-03
-1.601154915988445282e-03
1.383006665855646133e-02
1.523935352452099323e-03
3.540440928190946579e-03
-2.497617388144135475e-03
5.940136965364217758e-03
8.987747132778167725e-03
1.764220185577869415e-02
2.764757489785552025e-03
8.498746901750564575e-03
-1.076683308929204941e-02
1.190756913274526596e-03
7.155647967010736465e-03
-9.012921713292598724e-03
6.508797872811555862e-03
9.802881628274917603e-03
-7.914200425148010254e-03
8.259461261332035065e-03
-1.801699982024729252e-04
1.295174704864621162e-03
1.378253567963838577e-02
-2.328068250790238380e-03
2.551564248278737068e-03
4.727891180664300919e-03
3.981665708124637604e-03
4.219661001116037369e-03
2.094621537253260612e-03
-1.376507896929979324e-02
-1.113712042570114136e-02
-9.280628524720668793e-03
-2.421555481851100922e-02
-3.195958212018013000e-03
-1.778570003807544708e-02
-8.956291712820529938e-03
-2.627413719892501831e-02
5.697971675544977188e-03
-2.022539451718330383e-02
-5.922934506088495255e-04
-9.374645538628101349e-03
1.242678984999656677e-02
-1.949118077754974365e-02
-2.517797611653804779e-02
-1.500109583139419556e-02
-2.308953367173671722e-02
-3.040672279894351959e-02
-1.750509254634380341e-03
-1.333860214799642563e-02
-1.422810368239879608e-02
-1.981179974973201752e-02
-1.556231733411550522e-02
-2.532451786100864410e-02
-1.252187136560678482e-02
-2.237404137849807739e-02
-4.196795634925365448e-03
-8.990030735731124878e-03
-1.218745578080415726e-02
-2.540397644042968750e-02
-7.828371599316596985e-03
-2.185832709074020386e-02
-1.848967280238866806e-03
-2.307869121432304382e-02
2.244011498987674713e-03
1.938847266137599945e-02
-2.120732516050338745e-02
-2.620718814432621002e-02
-9.725985117256641388e-03
-3.116923850029706955e-03
-2.714402973651885986e-02
1.900688372552394867e-02
-3.295390680432319641e-02
-6.312167271971702576e-03
-1.839385740458965302e-02
-1.932502025738358498e-03
-2.157683670520782471e-02
-2.297680824995040894e-02
-1.887211389839649200e-02
-2.137827500700950623e-02
-1.873119734227657318e-02
1.965271681547164917e-02
-7.659947499632835388e-03
-9.492763318121433258e-03
-2.735960856080055237e-02
4.923133179545402527e-03
-2.538326941430568695e-02
-1.647647004574537277e-03
-1.168967504054307938e-02
-1.176844257861375809e-02
-2.120185457170009613e-02
-2.514327131211757660e-02
-2.136255847290158272e-03
-2.325101755559444427e-02
8.201611228287220001e-03
-2.167659439146518707e-02
-2.827514836098998785e-04
-1.729241758584976196e-02
6.302323658019304276e-03
-2.474603988230228424e-02
-2.605897560715675354e-02
-2.035319060087203979e-02
-2.539265714585781097e-02
1.765940897166728973e-02
-2.947405911982059479e-02
1.829803548753261566e-02
-3.496342571452260017e-03
-8.295952575281262398e-04
1.875800453126430511e-02
-1.984447985887527466e-02
-2.609803341329097748e-02
-3.056365810334682465e-02
-1.970560662448406219e-02
-2.874311432242393494e-02
-1.834044605493545532e-02
-2.490376308560371399e-02
-1.489703729748725891e-02
-1.771227829158306122e-02
1.190632395446300507e-02
-3.374380245804786682e-02
-5.348929669708013535e-03
-2.026790380477905273e-02
5.523062776774168015e-03
-2.423903346061706543e-02
-1.005489286035299301e-02
-2.001496590673923492e-02
-1.584705151617527008e-02
-9.292049333453178406e-03
-2.490750513970851898e-02
-2.305359207093715668e-02
-2.338416688144207001e-02
4.905290901660919189e-03
-2.845095098018646240e-02
-1.356624346226453781e-02
-1.839769259095191956e-02
-2.264454588294029236e-02
-1.918108202517032623e-02
-2.112356573343276978e-02
1.721958629786968231e-02
-8.351847529411315918e-03
-1.601810939610004425e-02
-2.015874721109867096e-02
-1.003053784370422363e-02
7.391199003905057907e-03
-1.194789912551641464e-02
-5.320257507264614105e-03
-1.334156375378370285e-02
-3.236747905611991882e-02
4.416616633534431458e-03
-1.345091685652732849e-02
-2.168742381036281586e-02
1.217320002615451813e-02
-5.613734014332294464e-03
-1.305603049695491791e-02
-1.706384681165218353e-02
-8.930166251957416534e-03
-2.270252257585525513e-02
-2.232691273093223572e-02
-2.563745155930519104e-02
-1.755592785775661469e-02
-2.732589282095432281e-02
-1.872497797012329102e-02
-1.982899568974971771e-02
-7.025858387351036072e-03
-1.278750691562891006e-02
-1.888162083923816681e-02
-1.877024583518505096e-02
-2.177405916154384613e-02
-5.072296131402254105e-03
-2.326992154121398926e-02
-3.657661844044923782e-03
-2.652209810912609100e-02
1.286952663213014603e-02
-6.042694672942161560e-03
-2.521042153239250183e-02
-1.219004020094871521e-02
-1.849872991442680359e-02
-1.438149157911539078e-02
-2.964086458086967468e-02
-5.742146633565425873e-03
-8.326463401317596436e-03
-2.024426870048046112e-02
1.144737005233764648e-02
-1.639647968113422394e-02
1.642079651355743408e-02
-3.105352260172367096e-02
-1.290274970233440399e-02
-2.264038100838661194e-02
-1.981392502784729004e-02
-2.477770298719406128e-02
-2.166300453245639801e-02
1.999562792479991913e-02
1.823761616833508015e-03
-1.261371467262506485e-02
-2.345708943903446198e-02
-2.529420703649520874e-02
-4.059142433106899261e-03
4.287006740923970938e-04
-1.019198913127183914e-02
1.969350129365921021e-02
-1.896901987493038177e-02
-4.584319423884153366e-03
-2.525751851499080658e-02
-8.384345099329948425e-03
-2.631320245563983917e-02
7.109253201633691788e-03
-2.391157858073711395e-02
3.984310198575258255e-03
-1.801737956702709198e-02
-1.493580639362335205e-04
1.326622813940048218e-02
1.968224719166755676e-02
-1.118236500769853592e-02
-1.335547678172588348e-02
4.206687211990356445e-03
-3.240730613470077515e-03
-1.057692710310220718e-02
-2.617133781313896179e-02
-1.775455474853515625e-02
-2.515716291964054108e-02
-1.350949704647064209e-02
-2.616647258400917053e-02
-6.265722215175628662e-03
-2.160894917324185371e-03
4.475136753171682358e-03
-8.807803504168987274e-03
2.498124027624726295e-03
-2.331598475575447083e-02
-9.733372367918491364e-03
-2.445328608155250549e-02
1.711175218224525452e-02
-2.236781269311904907e-02
-1.308434642851352692e-03
-1.492951298132538795e-03
-7.333782501518726349e-03
-2.565415576100349426e-02
5.859269760549068451e-03
-3.219839185476303101e-02
-2.861444279551506042e-02
-2.165407873690128326e-02
-6.872249767184257507e-03
-4.488452803343534470e-03
-2.980218268930912018e-02
5.359813221730291843e-04
-6.852814927697181702e-03
-2.161709219217300415e-02
-2.453312277793884277e-02
-1.423181500285863876e-02
-2.636994421482086182e-02
1.902328245341777802e-02
-5.474474746733903885e-03
-2.639720216393470764e-02
-1.286561787128448486e-02
2.562029520049691200e-03
-1.894227601587772369e-02
-1.725566573441028595e-02
1.155313570052385330e-02
1.041531359078362584e-04
3.100842470303177834e-03
-3.209187090396881104e-02
-1.609365455806255341e-02
-2.321828529238700867e-02
-1.235398091375827789e-02
-1.329736597836017609e-02
-1.224728208035230637e-02
-2.653394127264618874e-03
3.396665677428245544e-03
-2.855701558291912079e-02
-2.583383768796920776e-02
-2.604109607636928558e-02
-9.215039201080799103e-03
-9.401114657521247864e-03
-4.514068830758333206e-03
6.524665514007210732e-05
-2.903331816196441650e-02
-1.884770952165126801e-02
-2.567242830991744995e-02
-9.501865133643150330e-03
-2.125362493097782135e-02
-9.420736692845821381e-03
-1.584156602621078491e-02
-2.177159860730171204e-02
-2.548248693346977234e-02
-1.916038244962692261e-02
-8.802289143204689026e-03
-3.798945806920528412e-03
-1.651749946177005768e-02
-1.699522882699966431e-02
-1.239572651684284210e-02
-2.821458876132965088e-02
-1.540559250861406326e-02
-1.863026432693004608e-02
-5.536888260394334793e-03
-2.432188391685485840e-02
2.753552980720996857e-03
-2.105617895722389221e-02
-7.653717882931232452e-03
-7.438838947564363480e-03
-3.730306401848793030e-03
-1.608955301344394684e-02
-2.590083330869674683e-02
-1.432475540786981583e-02
-2.387104742228984833e-02
-3.017381764948368073e-02
-7.059702184051275253e-03
-1.487443502992391586e-02
-1.317224465310573578e-02
-2.151590585708618164e-02
-1.355630531907081604e-02
-2.430997788906097412e-02
-1.707457005977630615e-02
-2.213986404240131378e-02
-1.249911263585090637e-02
-1.055635884404182434e-02
-2.288974449038505554e-02
-2.566657029092311859e-02
-8.372314274311065674e-03
-2.166809514164924622e-02
-5.008290987461805344e-03
-2.282995916903018951e-02
-4.087161738425493240e-03
-8.688857196830213070e-04
-1.810366660356521606e-02
-2.806463465094566345e-02
-1.310679223388433456e-02
-5.985470023006200790e-03
-2.636570669710636139e-02
1.879454939626157284e-03
-3.274372220039367676e-02
-1.091294363141059875e-02
-2.073143050074577332e-02
-1.051910873502492905e-02
-2.156809344887733459e-02
-2.372865751385688782e-02
-1.958202943205833435e-02
-2.167541347444057465e-02
-1.862446591258049011e-02
2.053737407550215721e-04
-8.980982005596160889e-03
-8.796271868050098419e-03
-2.754145115613937378e-02
1.183639513328671455e-03
-2.489846758544445038e-02
-5.650897044688463211e-03
-1.050612330436706543e-02
-1.448467746376991272e-02
-2.153499983251094818e-02
-2.431062422692775726e-02
-1.109513174742460251e-02
-2.153607457876205444e-02
8.265687152743339539e-03
-2.013732120394706726e-02
-9.918021038174629211e-03
-1.802031323313713074e-02
-6.039941683411598206e-03
-2.125292643904685974e-02
-2.806731685996055603e-02
-2.145478688180446625e-02
-2.296141162514686584e-02
-6.566357333213090897e-03
-3.041226789355278015e-02
9.118057787418365479e-03
-8.412022143602371216e-03
-4.485305864363908768e-03
1.058201654814183712e-03
-1.665171980857849121e-02
-2.733453549444675446e-02
-3.033798187971115112e-02
-1.993511244654655457e-02
-3.253943100571632385e-02
-1.791355758905410767e-02
-2.710213512182235718e-02
-1.598599180579185486e-02
-1.816021278500556946e-02
-1.040247268974781036e-02
-3.382953628897666931e-02
-6.716445554047822952e-03
-1.881437189877033234e-02
-2.652407623827457428e-03
-2.413698658347129822e-02
-1.172513980418443680e-02
-2.227252535521984100e-02
-1.804920099675655365e-02
-1.059393119066953659e-02
-2.436694502830505371e-02
-2.296385355293750763e-02
-2.337881736457347870e-02
-1.341518131084740162e-03
-2.861770614981651306e-02
-1.574768126010894775e-02
-1.590722054243087769e-02
-2.304659970104694366e-02
-1.806184276938438416e-02
-2.205605246126651764e-02
5.408696364611387253e-03
-9.428188204765319824e-03
-1.649487949907779694e-02
-2.058767899870872498e-02
-1.145002059638500214e-02
-1.308830920606851578e-03
-1.086068805307149887e-02
-1.351447217166423798e-02
-1.215282827615737915e-02
-3.346988186240196228e-02
-5.761435721069574356e-03
-1.254713069647550583e-02
-2.146790921688079834e-02
-5.570685956627130508e-03
-9.036519564688205719e-03
-1.217010430991649628e-02
-1.458588521927595139e-02
-8.952009491622447968e-03
-2.154169231653213501e-02
-2.147516794502735138e-02
-2.744568884372711182e-02
-1.906083710491657257e-02
-2.874458581209182739e-02
-2.024287544190883636e-02
-1.794662512838840485e-02
-1.250393316149711609e-02
-1.502834912389516830e-02
-1.792434416711330414e-02
-1.574702747166156769e-02
-2.018116414546966553e-02
-1.254237350076436996e-02
-2.374884672462940216e-02
-7.427599281072616577e-03
-2.615006081759929657e-02
5.693313200026750565e-03
-8.700064383447170258e-03
-2.741842530667781830e-02
-4.721374250948429108e-03
-1.728421822190284729e-02
-1.471505314111709595e-02
-3.259659558534622192e-02
-9.416878223419189453e-03
-9.744741022586822510e-03
-2.062472142279148102e-02
3.180997446179389954e-03
-1.640417799353599548e-02
7.618863601237535477e-03
-3.282528370618820190e-02
-1.409890595823526382e-02
-2.300775609910488129e-02
-1.785018108785152435e-02
-2.439010515809059143e-02
-2.260868437588214874e-02
8.594827726483345032e-03
-6.341342814266681671e-03
-1.092926785349845886e-02
-1.598436385393142700e-02
-2.480071224272251129e-02
-1.063602417707443237e-02
-1.020945888012647629e-02
-1.623706333339214325e-02
2.298117382451891899e-03
-1.665204763412475586e-02
-1.355271134525537491e-02
-2.627105079591274261e-02
-1.156595628708600998e-02
-2.838728763163089752e-02
-5.172661505639553070e-03
-2.058360539376735687e-02
-6.542735267430543900e-03
-1.743007078766822815e-02
-6.686410401016473770e-03
-6.073784315958619118e-04
-5.910706706345081329e-03
-1.222144160419702530e-02
5.296746167005039752e-05
-2.197163878008723259e-03
-1.163116749376058578e-02
-7.051859516650438309e-03
-2.829257585108280182e-02
-1.880259066820144653e-02
-2.415590174496173859e-02
-1.041746046394109726e-02
-2.841648831963539124e-02
-1.086997427046298981e-02
-5.008659325540065765e-03
2.301446162164211273e-03
-1.673070341348648071e-02
-5.554831586778163910e-03
-2.504820004105567932e-02
-1.559961866587400436e-02
-2.492486685514450073e-02
-1.338928850600495934e-04
-2.080809883773326874e-02
-6.775169167667627335e-03
-1.330962125211954117e-02
-5.967424251139163971e-03
-2.637569047510623932e-02
-3.397128893993794918e-04
-2.977988496422767639e-02
-2.751689031720161438e-02
-1.951456815004348755e-02
-8.454740047454833984e-03
-2.269616117700934410e-03
-2.909593842923641205e-02
-7.330678403377532959e-03
-1.393545698374509811e-02
-2.131875604391098022e-02
-2.498108893632888794e-02
-1.748088188469409943e-02
-2.722801826894283295e-02
4.079306498169898987e-03
-8.822767063975334167e-03
-2.648179978132247925e-02
-1.954853534698486328e-02
-6.539862602949142456e-03
-1.843727752566337585e-02
-2.332654967904090881e-02
-1.622646930627524853e-03
-1.310489489696919918e-03
2.271995181217789650e-03
-3.437395766377449036e-02
-1.563542895019054413e-02
-2.291945926845073700e-02
-1.387107744812965393e-02
-1.279104221612215042e-02
-1.230085734277963638e-02
-5.287209991365671158e-03
-1.025086850859224796e-03
-2.829317376017570496e-02
-2.574387751519680023e-02
-2.326878160238265991e-02
-1.146366447210311890e-02
-1.106770243495702744e-02
-8.487819693982601166e-03
-6.313594523817300797e-03
-3.454448282718658447e-02
-1.852646656334400177e-02
-2.582084015011787415e-02
-8.728756569325923920e-03
-2.000351250171661377e-02
-1.341523509472608566e-02
-1.686178892850875854e-02
-2.138763852417469025e-02
-2.493566088378429413e-02
-1.569623686373233795e-02
-1.143519673496484756e-02
