-8.981777355074882507e-03
-1.718600466847419739e-02
-2.861218526959419250e-02
-1.788721419870853424e-02
-1.188696920871734619e-02
1.791325211524963379e-02
-9.436023421585559845e-03
-1.610646955668926239e-02
-1.952969655394554138e-02
-7.165182032622396946e-04
5.904352292418479919e-03
-1.196441613137722015e-02
-1.461222395300865173e-02
-8.365821093320846558e-03
-1.238187775015830994e-03
-1.066813245415687561e-02
-1.165959425270557404e-02
-1.613788492977619171e-02
-1.741532608866691589e-02
-9.660853073000907898e-03
-2.651210874319076538e-03
-6.670048926025629044e-03
-1.922077126801013947e-02
-1.024695672094821930e-02
-7.377876318059861660e-04
-2.493892982602119446e-02
-1.193893887102603912e-02
-2.929259650409221649e-02
-2.652919664978981018e-02
-1.416137628257274628e-02
6.361707113683223724e-03
-6.664354354143142700e-03
-1.591606624424457550e-02
-8.634838275611400604e-03
-1.125071756541728973e-02
9.599125944077968597e-03
-1.790248975157737732e-02
-2.879185229539871216e-02
-2.437320537865161896e-02
-4.536554915830492973e-04
-2.031931467354297638e-02
-2.393572777509689331e-02
-2.461211569607257843e-02
-1.666354946792125702e-02
-1.775967516005039215e-02
-1.459391135722398758e-02
-4.929117858409881592e-03
-6.033410318195819855e-03
-1.583073474466800690e-02
-1.008462160825729370e-02
2.021381515078246593e-04
-2.197646349668502808e-02
-1.627238281071186066e-02
-2.150465920567512512e-02
-1.898046769201755524e-02
-1.079974602907896042e-02
-6.371404509991407394e-03
-1.094625238329172134e-02
-3.109721280634403229e-02
-6.527454592287540436e-03
-1.263807294890284538e-03
-1.397313643246889114e-02
-1.271231565624475479e-02
-1.852012798190116882e-02
-2.947143837809562683e-02
9.477353654801845551e-03
-5.665454547852277756e-03
-8.226524107158184052e-03
-2.328182943165302277e-02
1.245154254138469696e-02
-1.603662036359310150e-02
-1.159138977527618408e-02
-1.932473108172416687e-02
1.010303758084774017e-02
3.924270160496234894e-03
-3.568689804524183273e-03
-1.715864241123199463e-02
-7.177607156336307526e-03
-8.586232550442218781e-03
-4.679565317928791046e-04
-7.880747434683144093e-04
-1.892102882266044617e-02
-1.416686642915010452e-02
3.006895072758197784e-03
-1.538809482008218765e-02
-4.560072440654039383e-03
-9.343975689262151718e-04
-1.901151239871978760e-02
4.702084697782993317e-03
-7.969317026436328888e-03
3.998761996626853943e-03
-2.467552945017814636e-02
-1.464657019823789597e-02
2.954609924927353859e-03
-1.157806441187858582e-02
-1.009039860218763351e-02
-1.801931299269199371e-02
-2.967550233006477356e-02
-2.509144507348537445e-02
-1.998917432501912117e-03
-2.222067862749099731e-02
-6.709096487611532211e-03
6.683074403554201126e-03
-1.927934587001800537e-02
8.330859243869781494e-03
1.900705322623252869e-02
2.454741392284631729e-03
-1.646308973431587219e-02
-1.494241692125797272e-02
-6.405529566109180450e-03
5.394052714109420776e-04
-1.332091353833675385e-02
-5.156705621629953384e-03
-4.813326988369226456e-03
-1.598541811108589172e-02
-2.537254244089126587e-02
-8.269990794360637665e-04
2.739102346822619438e-03
-2.019502280745655298e-04
-2.865558117628097534e-02
-3.459600359201431274e-02
-1.554221566766500473e-02
-1.323554944247007370e-02
2.092783711850643158e-02
-1.030097622424364090e-02
-1.540372148156166077e-03
-1.614470966160297394e-02
-1.143658999353647232e-02
-6.642998196184635162e-03
-1.464242953807115555e-02
8.021349087357521057e-03
4.502658266574144363e-03
-8.994502946734428406e-03
-2.501617651432752609e-03
3.664930583909153938e-03
9.397917427122592926e-03
-4.693355876952409744e-03
-8.648602291941642761e-03
-6.429058033972978592e-03
-3.744135610759258270e-03
1.133845467120409012e-02
4.992012865841388702e-03
4.952484741806983948e-03
3.023212077096104622e-03
-5.066080950200557709e-03
1.632187399081885815e-03
-3.442470682784914970e-03
-5.951513536274433136e-03
-7.589650340378284454e-03
-3.423655405640602112e-03
8.479387499392032623e-03
-1.314227748662233353e-02
1.556736417114734650e-03
9.236861020326614380e-03
7.172418758273124695e-03
-1.654529827646911144e-03
-2.094730967655777931e-03
1.596540794707834721e-03
1.209861220559105277e-04
7.263327483087778091e-03
-7.859186735004186630e-04
3.848681226372718811e-03
1.173962838947772980e-02
9.551976691000163555e-04
-2.789247548207640648e-03
-1.353480014950037003e-02
3.006651299074292183e-03
-6.415794137865304947e-03
1.341900322586297989e-02
1.314589101821184158e-02
1.447706716135144234e-03
9.155217558145523071e-03
-4.991305526345968246e-03
-5.909273866564035416e-03
-2.294717123731970787e-03
-4.728534258902072906e-04
-1.246574614197015762e-02
4.176033660769462585e-03
-8.052497170865535736e-03
3.376818494871258736e-04
-4.713130183517932892e-03
-5.305831786245107651e-03
-5.943039897829294205e-03
-3.415426239371299744e-03
-4.417241434566676617e-04
-8.282530121505260468e-03
7.598686497658491135e-03
6.735658273100852966e-03
1.615228876471519470e-02
-1.108196680434048176e-03
-7.365476340055465698e-03
-5.354760680347681046e-03
9.561404585838317871e-03
7.847906672395765781e-04
3.906101686879992485e-03
-7.171063683927059174e-03
-3.073424799367785454e-03
-2.221075817942619324e-03
-5.193099845200777054e-03
9.363156859762966633e-04
5.140630528330802917e-03
6.575144361704587936e-03
9.648363105952739716e-03
-9.846700355410575867e-03
1.023521996103227139e-03
1.345333084464073181e-02
4.342054948210716248e-03
1.819984172470867634e-03
-7.524969987571239471e-03
-8.244648925028741360e-04
-6.262899842113256454e-03
-5.340834148228168488e-03
1.764399372041225433e-02
-4.969805013388395309e-03
1.576188602484762669e-03
9.950186358764767647e-04
4.410815425217151642e-03
-6.077105645090341568e-04
-2.289630705490708351e-03
-1.111293304711580276e-02
1.551216933876276016e-03
-1.601979136466979980e-03
-1.654682331718504429e-03
1.254694256931543350e-02
1.167613896541297436e-03
-1.141847390681505203e-02
1.676035346463322639e-03
1.862150966189801693e-03
-3.733054734766483307e-03
1.231716014444828033e-04
-4.657961893826723099e-03
-7.120241876691579819e-03
-6.890560965985059738e-03
5.591563880443572998e-03
-3.203019150532782078e-04
1.135322963818907738e-03
1.625648513436317444e-02
4.289039876312017441e-03
1.874491572380065918e-03
3.712592006195336580e-04
1.231714733876287937e-03
3.770576557144522667e-03
-2.670885995030403137e-03
-1.025757635943591595e-03
-8.538384921848773956e-03
4.618472419679164886e-03
-1.825167983770370483e-02
-1.694304286502301693e-03
5.117342341691255569e-03
2.487270976416766644e-04
-4.171791020780801773e-03
-1.511543244123458862e-02
4.422661848366260529e-03
-4.428696818649768829e-03
-2.777124755084514618e-03
6.066807080060243607e-03
-9.230588562786579132e-03
-1.728041097521781921e-02
-3.177209571003913879e-02
-1.927008852362632751e-02
-1.157114095985889435e-02
1.967501081526279449e-02
-9.309604763984680176e-03
-1.784966140985488892e-02
-2.096450887620449066e-02
-1.668897166382521391e-04
-5.202824249863624573e-04
-1.333801075816154480e-02
-1.515525858849287033e-02
-9.394578635692596436e-03
-3.269152250140905380e-03
-1.069962140172719955e-02
-1.221587695181369781e-02
-1.691124029457569122e-02
-1.648287475109100342e-02
-1.041304226964712143e-02
-2.464048331603407860e-03
-6.158242002129554749e-03
-1.940933428704738617e-02
-1.113661564886569977e-02
-2.748955041170120239e-03
-2.359859645366668701e-02
-1.218523550778627396e-02
-2.919980511069297791e-02
-2.438373118638992310e-02
-1.462552417069673538e-02
4.304542206227779388e-03
-8.082042448222637177e-03
-1.545141823589801788e-02
-4.944524727761745453e-03
-1.246150676161050797e-02
1.135805714875459671e-02
-1.649074442684650421e-02
-3.065071813762187958e-02
-2.547384239733219147e-02
-1.983424648642539978e-03
-2.054175920784473419e-02
-2.373625338077545166e-02
-2.334901504218578339e-02
-1.595333591103553772e-02
-1.980704627931118011e-02
-1.554643642157316208e-02
-3.318973351269960403e-03
-4.569773562252521515e-03
-1.649920269846916199e-02
-7.564164232462644577e-03
-6.788329337723553181e-04
-2.126166224479675293e-02
-1.531427819281816483e-02
-2.204710990190505981e-02
-1.961390115320682526e-02
-1.343525107949972153e-02
-5.908478982746601105e-03
-1.233758404850959778e-02
-3.065464459359645844e-02
-7.722328882664442062e-03
-3.351704217493534088e-03
-1.392543967813253403e-02
-1.351170521229505539e-02
-1.912556588649749756e-02
-3.029825165867805481e-02
7.241095416247844696e-03
-6.777543574571609497e-03
-9.130081161856651306e-03
-2.354040555655956268e-02
1.712284050881862640e-02
-1.606832258403301239e-02
-1.153784245252609253e-02
-2.099400386214256287e-02
1.056142523884773254e-02
2.316119382157921791e-03
-1.306941267102956772e-03
-1.734622009098529816e-02
-8.063884451985359192e-03
-1.037911232560873032e-02
-3.783277003094553947e-03
-1.321762218140065670e-03
-1.779714785516262054e-02
-1.539479568600654602e-02
6.926359492354094982e-04
-1.503180153667926788e-02
-5.019098985940217972e-03
-3.548599779605865479e-04
-1.953173987567424774e-02
8.045528084039688110e-03
-1.041825208812952042e-02
4.135986790060997009e-03
-2.418415620923042297e-02
-1.282782666385173798e-02
1.112407422624528408e-03
-1.293950900435447693e-02
-1.178224943578243256e-02
-2.065311372280120850e-02
-2.929734438657760620e-02
-2.414070814847946167e-02
-2.535368781536817551e-03
-2.191523462533950806e-02
-8.281609043478965759e-03
4.698698874562978745e-03
-1.994717307388782501e-02
9.498000144958496094e-03
2.218316495418548584e-02
4.708958658738993108e-05
-1.679520308971405029e-02
-1.563574746251106262e-02
-4.961242433637380600e-03
-1.687318668700754642e-03
-1.272238604724407196e-02
-7.104078773409128189e-03
-5.306296516209840775e-03
-1.478196680545806885e-02
-2.558999694883823395e-02
-3.598036128096282482e-04
5.791723262518644333e-03
-2.844001399353146553e-03
-2.751863747835159302e-02
-3.228379413485527039e-02
-1.552129536867141724e-02
-1.434564031660556793e-02
2.201207913458347321e-02
-1.041480805724859238e-02
-3.016722854226827621e-03
-1.692748628556728363e-02
-1.172447949647903442e-02
-1.070794835686683655e-02
-1.729410327970981598e-02
-3.000697121024131775e-02
-1.925737038254737854e-02
-1.161803398281335831e-02
1.487508043646812439e-02
-1.059070229530334473e-02
-1.703070849180221558e-02
-2.078932709991931915e-02
-1.626414014026522636e-03
-3.825595369562506676e-03
-1.291386783123016357e-02
-1.486058067530393600e-02
-9.961323812603950500e-03
-5.578939802944660187e-03
-8.429942652583122253e-03
-9.625975042581558228e-03
-1.675395853817462921e-02
-1.675388962030410767e-02
-2.044134214520454407e-02
-4.135300870984792709e-03
-7.379109039902687073e-03
-1.930551603436470032e-02
-1.465575397014617920e-02
-8.846866898238658905e-03
-2.382071688771247864e-02
-1.248736958950757980e-02
-3.265178948640823364e-02
-2.602376788854598999e-02
-1.427750661969184875e-02
2.400964964181184769e-03
-8.136970922350883484e-03
-1.583730056881904602e-02
-1.199318841099739075e-02
-1.627784036099910736e-02
8.651507087051868439e-03
-1.700371503829956055e-02
-2.881902642548084259e-02
-2.505454793572425842e-02
-5.840686499141156673e-04
-2.050993219017982483e-02
-2.550551295280456543e-02
-2.457150444388389587e-02
-1.591467298567295074e-02
-1.848731748759746552e-02
-1.393096894025802612e-02
-5.266827531158924103e-03
-7.220462430268526077e-03
-1.771226339042186737e-02
-2.416186966001987457e-03
-2.816857071593403816e-03
-2.106026560068130493e-02
-1.574290916323661804e-02
-2.100737579166889191e-02
-2.043122798204421997e-02
-1.209282875061035156e-02
-6.039150990545749664e-03
-1.111576613038778305e-02
-3.210169449448585510e-02
-4.032849334180355072e-03
-1.246368233114480972e-02
-1.554589066654443741e-02
-1.431242935359477997e-02
-1.918189413845539093e-02
-3.142466396093368530e-02
-7.554693729616701603e-04
-7.043803110718727112e-03
-1.071831397712230682e-02
-2.295257523655891418e-02
1.144710555672645569e-02
-1.899078860878944397e-02
-9.761916473507881165e-03
-1.973425783216953278e-02
-6.318329833447933197e-03
5.249957088381052017e-03
-3.377238055691123009e-03
-1.647622324526309967e-02
-2.001219987869262695e-02
-1.296635065227746964e-02
-3.671270329505205154e-03
-1.718914834782481194e-03
-1.815905794501304626e-02
-1.651173830032348633e-02
2.173970278818160295e-05
-1.697398722171783447e-02
-3.486737376078963280e-03
-8.042469620704650879e-03
-1.957870274782180786e-02
7.186781615018844604e-03
-9.073439985513687134e-03
3.185131121426820755e-03
-2.633616328239440918e-02
-1.346896309405565262e-02
3.295451635494828224e-03
-1.481328159570693970e-02
-1.296177227050065994e-02
-1.969704963266849518e-02
-2.965181507170200348e-02
-2.476683445274829865e-02
-2.366693923249840736e-03
-2.124944701790809631e-02
-8.115366101264953613e-03
1.477480866014957428e-03
-2.028419263660907745e-02
5.833677016198635101e-03
8.347241207957267761e-03
-1.688447548076510429e-03
-1.700287312269210815e-02
-1.576467789709568024e-02
-4.884150810539722443e-03
-1.196593395434319973e-03
-1.430526841431856155e-02
-5.924804601818323135e-03
-5.017437972128391266e-03
-1.346117723733186722e-02
-2.461808174848556519e-02
-5.407213699072599411e-03
5.805653985589742661e-03
-2.843207446858286858e-03
-2.994649857282638550e-02
-3.492685407400131226e-02
-1.604610867798328400e-02
-1.827261038124561310e-02
1.689388975501060486e-02
-9.861372411251068115e-03
-9.491908363997936249e-03
-1.754980906844139099e-02
-1.431322935968637466e-02
