-3.942449390888214111e-02
-4.130858927965164185e-02
-1.803958043456077576e-02
6.585376709699630737e-02
-5.651579052209854126e-02
-4.003083705902099609e-02
-5.305513367056846619e-02
8.789447695016860962e-02
1.041088812053203583e-02
2.177060395479202271e-02
2.784333657473325729e-03
2.372746542096138000e-02
2.432531677186489105e-02
-2.436096407473087311e-02
2.636600099503993988e-02
-2.576071023941040039e-02
6.043889746069908142e-02
2.974893152713775635e-02
9.879105724394321442e-03
2.489790320396423340e-02
-4.443947970867156982e-02
-4.062098916620016098e-03
-3.632507100701332092e-02
-1.212005596607923508e-02
-2.856470271944999695e-02
-3.722994402050971985e-02
6.930880993604660034e-02
-3.509876877069473267e-02
-5.106471106410026550e-02
-3.764589503407478333e-02
3.476138412952423096e-02
-3.926140256226062775e-03
-4.446395859122276306e-02
3.543394058942794800e-02
-1.388474926352500916e-02
-1.627398841083049774e-02
-2.626984380185604095e-02
-4.676147829741239548e-03
5.637185182422399521e-03
3.090286627411842346e-03
-1.582410931587219238e-02
3.561600670218467712e-02
6.131959613412618637e-03
-7.918687537312507629e-03
9.754995815455913544e-03
4.372396506369113922e-03
-7.458145264536142349e-03
-4.317221231758594513e-03
1.455531455576419830e-02
4.067567735910415649e-02
1.769022084772586823e-02
1.637881621718406677e-02
-4.695444367825984955e-03
-2.886108821257948875e-03
-4.327964037656784058e-03
8.469214662909507751e-03
7.976317778229713440e-03
-2.170796506106853485e-02
-9.327377378940582275e-02
-4.668129608035087585e-03
-1.096792425960302353e-02
-3.437185660004615784e-02
1.649916754104197025e-03
-8.428596891462802887e-03
1.068261638283729553e-02
1.600800640881061554e-02
3.034478612244129181e-02
5.246943980455398560e-02
-5.678988248109817505e-02
-2.770448289811611176e-02
-4.960253834724426270e-02
5.143471807241439819e-02
1.787578570656478405e-03
2.013372071087360382e-02
1.844916306436061859e-02
8.218287676572799683e-02
1.191252842545509338e-02
-2.767566591501235962e-02
3.907923400402069092e-02
-1.888633146882057190e-02
5.177312716841697693e-02
3.323364630341529846e-02
6.926637142896652222e-02
2.048639953136444092e-02
-6.268362980335950851e-03
-2.400635555386543274e-02
-3.370604664087295532e-02
-1.385244540870189667e-02
3.915286436676979065e-02
7.473032176494598389e-02
4.988899081945419312e-02
-4.241152852773666382e-02
9.620907157659530640e-02
7.429531216621398926e-02
6.225995719432830811e-03
6.555325537919998169e-02
-2.373171597719192505e-02
-4.417847469449043274e-02
1.116664707660675049e-01
8.443535119295120239e-02
-5.922795459628105164e-02
-2.207348309457302094e-02
-5.006089434027671814e-02
8.660547435283660889e-02
4.408198874443769455e-03
-3.050958923995494843e-02
3.115597181022167206e-02
3.674503043293952942e-02
6.172194145619869232e-03
-4.092352837324142456e-02
2.337115816771984100e-02
-2.538678608834743500e-02
1.514599379152059555e-02
9.039025008678436279e-02
3.340537473559379578e-02
2.003730274736881256e-03
-1.996307261288166046e-02
-3.650160878896713257e-02
-3.285704180598258972e-02
-1.167992409318685532e-02
1.277539134025573730e-01
6.132176518440246582e-02
-1.013090461492538452e-02
-6.643851101398468018e-02
4.445352405309677124e-02
4.159453138709068298e-02
3.449493274092674255e-02
1.461463514715433121e-02
