2.631114982068538666e-02
7.480813656002283096e-03
9.455233812332153320e-03
-1.619908027350902557e-02
2.679270983207970858e-04
-3.306517610326409340e-03
-7.342360913753509521e-03
2.263343660160899162e-03
9.581506019458174706e-04
-2.831721911206841469e-03
-1.771204732358455658e-02
-1.223033759742975235e-02
1.120576448738574982e-02
-2.737788483500480652e-02
3.415229497477412224e-03
5.577586591243743896e-03
1.830734254326671362e-05
1.130213867872953415e-02
-4.009336233139038086e-02
3.958891611546278000e-03
1.139584556221961975e-02
-1.297829579561948776e-02
4.480099305510520935e-03
-1.309264171868562698e-02
-7.202888838946819305e-03
-2.277689054608345032e-03
1.559167169034481049e-03
2.614365657791495323e-03
5.563227459788322449e-03
1.322424318641424179e-02
-7.240029517561197281e-04
8.119213161990046501e-04
-1.797885820269584656e-02
2.766316290944814682e-03
1.448686141520738602e-02
-5.534308031201362610e-03
-3.747889713849872351e-04
-1.464950153604149818e-03
5.004820413887500763e-03
-7.328815292567014694e-03
7.122693932615220547e-04
3.034870838746428490e-03
1.199112273752689362e-02
9.398713707923889160e-03
-1.048315223306417465e-02
-3.827172098681330681e-03
1.169184502214193344e-02
-9.491510689258575439e-03
8.970511145889759064e-03
1.080240006558597088e-03
-4.308223724365234375e-03
-3.326740115880966187e-02
-2.322243526577949524e-03
7.411093916743993759e-03
-3.835282754153013229e-03
5.016417242586612701e-03
5.507115274667739868e-04
-4.852596670389175415e-03
1.258607488125562668e-03
-1.242432463914155960e-02
9.832192212343215942e-03
-7.430589199066162109e-02
-8.593547157943248749e-03
-1.051201979862526059e-04
1.131667755544185638e-02
1.339449826627969742e-02
-1.244885846972465515e-02
-5.158329848200082779e-03
1.183809991925954819e-02
4.373849835246801376e-03
1.562354620546102524e-03
-2.092777006328105927e-02
-2.649186179041862488e-03
6.926189176738262177e-03
1.111892284825444221e-03
2.185211284086108208e-03
5.216799676418304443e-03
-2.640445483848452568e-03
-5.324979312717914581e-03
-1.942991162650287151e-03
-2.163923578336834908e-03
-1.053350162692368031e-03
-4.191243089735507965e-03
4.061448853462934494e-03
-6.480217445641756058e-03
7.270058151334524155e-03
-6.707937456667423248e-03
8.237130008637905121e-03
-1.501242513768374920e-03
4.526741802692413330e-03
-1.796815340640023351e-04
5.293094553053379059e-03
8.248388767242431641e-03
3.840903285890817642e-03
3.790720365941524506e-04
1.457835664041340351e-03
-2.543196780607104301e-03
7.252420182339847088e-04
-1.446439791470766068e-02
-1.156209968030452728e-02
1.823922246694564819e-02
-7.048846688121557236e-03
-6.889769807457923889e-03
-1.632799208164215088e-02
-1.434550434350967407e-02
-4.101227503269910812e-03
-2.507809782400727272e-03
-6.939382292330265045e-03
-2.451131679117679596e-02
-2.387158107012510300e-03
9.782196721062064171e-04
-9.405979886651039124e-03
1.382994651794433594e-02
1.480321679264307022e-02
1.558054704219102859e-02
-3.408839693292975426e-03
-4.538837820291519165e-03
6.570340599864721298e-03
6.536432541906833649e-03
-1.200885325670242310e-02
-1.031882502138614655e-02
3.362443530932068825e-03
6.960293278098106384e-03
7.475113030523061752e-03
-8.764202706515789032e-03
-1.989458687603473663e-03
3.250062931329011917e-03
-1.384145673364400864e-02
3.569838404655456543e-02
1.053535193204879761e-02
1.035507023334503174e-02
-4.430796019732952118e-03
4.851928446441888809e-03
-1.901262789033353329e-03
-2.372947987169027328e-03
-2.952642505988478661e-03
3.394098021090030670e-03
-9.605854749679565430e-03
1.332332845777273178e-02
-4.480245057493448257e-03
4.318293184041976929e-03
-2.691597305238246918e-02
3.423052607104182243e-03
4.872127436101436615e-03
7.209173054434359074e-04
3.648797050118446350e-02
1.361454743891954422e-02
5.611795000731945038e-03
1.147042308002710342e-02
-1.760506629943847656e-02
7.578190416097640991e-03
-1.390827447175979614e-02
-5.760281812399625778e-03
9.255472104996442795e-04
-1.825177576392889023e-03
3.720190841704607010e-03
1.699821441434323788e-03
1.211850065737962723e-02
1.331599545665085316e-03
-6.583933718502521515e-04
-1.144657656550407410e-02
3.930939827114343643e-03
3.238680306822061539e-03
1.241389196366071701e-03
7.710901089012622833e-03
8.475391077809035778e-04
2.947298344224691391e-03
-6.062888074666261673e-03
5.637817550450563431e-03
9.003163315355777740e-03
5.529822316020727158e-03
3.134128637611865997e-03
-1.300479099154472351e-02
-2.711429493501782417e-03
9.363963268697261810e-03
8.462187834084033966e-03
1.050507277250289917e-02
1.056343503296375275e-02
-3.310471074655652046e-03
-1.755399629473686218e-02
-4.996021743863821030e-03
6.716676522046327591e-03
-4.292757716029882431e-03
-5.683812312781810760e-03
1.987650990486145020e-03
1.461360603570938110e-02
-5.576897878199815750e-03
-1.358538866043090820e-02
-2.398389333393424749e-04
2.741292491555213928e-02
-9.253595024347305298e-03
7.198655046522617340e-03
2.178756706416606903e-02
1.858120085671544075e-03
-1.499019330367445946e-03
4.337102640420198441e-03
-1.682403311133384705e-02
4.075919743627309799e-03
-6.600602064281702042e-03
7.846193388104438782e-03
1.452702912501990795e-03
-1.599968969821929932e-02
2.723986096680164337e-02
-1.766620017588138580e-02
2.413479983806610107e-02
-1.432781806215643883e-03
-1.475761644542217255e-02
-1.829925738275051117e-02
-1.538681611418724060e-02
1.068011671304702759e-02
1.169428974390029907e-02
-1.169948466122150421e-02
-1.601661741733551025e-02
-1.457965280860662460e-02
-4.648235626518726349e-04
-7.890452630817890167e-03
-3.515261458232998848e-03
-1.366856694221496582e-02
3.170029725879430771e-03
-1.657829433679580688e-02
-1.690621953457593918e-03
-8.937618695199489594e-03
4.689902532845735550e-03
-5.310450680553913116e-03
-2.156657539308071136e-02
-6.878448184579610825e-03
1.331495400518178940e-02
1.191975455731153488e-02
-2.230855077505111694e-02
-1.522267609834671021e-02
7.863341597840189934e-04
-3.577983239665627480e-03
-1.464018691331148148e-02
1.584180863574147224e-03
6.842746865004301071e-03
9.118797257542610168e-03
-2.005880884826183319e-02
-3.641399787738919258e-03
-5.808623041957616806e-03
1.276083849370479584e-02
-8.388053625822067261e-03
1.559433992952108383e-02
-5.785303656011819839e-03
2.629902679473161697e-03
3.043267643079161644e-03
-8.024410344660282135e-03
-3.372246865183115005e-03
-1.763225905597209930e-02
-1.749690063297748566e-02
4.768811166286468506e-03
-1.599136367440223694e-02
-5.521639715880155563e-03
-2.733307657763361931e-03
3.704346343874931335e-02
-1.588016003370285034e-02
1.152261067181825638e-02
