-1.532672997564077377e-02
2.200705744326114655e-02
1.555876620113849640e-02
-1.412920933216810226e-02
-1.547953393310308456e-02
-4.773463879246264696e-04
9.237667545676231384e-03
-2.379511110484600067e-02
-6.326210219413042068e-03
-1.214776537381112576e-03
2.192677697166800499e-03
-2.749131992459297180e-03
1.503283344209194183e-02
5.109758931212127209e-04
-2.716911025345325470e-02
4.277667496353387833e-03
2.946044551208615303e-04
-9.823995642364025116e-03
-3.597716800868511200e-03
-2.818132005631923676e-02
-2.929003350436687469e-02
9.066875092685222626e-03
-3.156023100018501282e-02
-1.301538292318582535e-02
-1.678534038364887238e-02
-1.285345666110515594e-02
-1.005058176815509796e-02
-2.510968223214149475e-02
-2.837672084569931030e-02
-1.980360224843025208e-02
-1.942373067140579224e-02
-9.700102731585502625e-03
-1.472641015425324440e-03
-1.488505047746002674e-03
-2.865253714844584465e-03
-1.880890317261219025e-02
1.088681514374911785e-03
1.262338459491729736e-02
-1.270277239382266998e-02
-2.973516285419464111e-02
-2.001221058890223503e-03
1.155120786279439926e-02
-6.103919818997383118e-03
-1.059949118643999100e-02
-1.627951487898826599e-02
-2.333566546440124512e-03
-1.659470051527023315e-02
-2.855625469237565994e-03
-1.803336292505264282e-02
-5.152077414095401764e-03
-8.879022672772407532e-03
2.165000420063734055e-03
-1.539659686386585236e-02
-2.390383742749691010e-02
-8.506486192345619202e-03
-8.030378259718418121e-03
1.156635116785764694e-02
6.431290879845619202e-03
-1.663225702941417694e-02
-3.912346903234720230e-03
-2.596461126813665032e-05
-2.264161221683025360e-02
-2.774690464138984680e-02
-2.574890153482556343e-03
-1.517950091511011124e-02
-1.826364360749721527e-02
-7.974612526595592499e-03
-1.435780804604291916e-02
-2.550275810062885284e-02
5.341516342014074326e-03
-1.077642384916543961e-02
-1.803934201598167419e-02
-1.316921506077051163e-02
-4.727720282971858978e-03
-8.146469481289386749e-03
-6.533517502248287201e-03
-1.096393913030624390e-02
-1.368737663142383099e-03
-1.881687715649604797e-02
2.496251370757818222e-03
-1.729381270706653595e-02
-1.925886422395706177e-02
-4.797985777258872986e-03
-2.531267330050468445e-02
-1.226297765970230103e-02
3.005207749083638191e-03
-1.278382726013660431e-02
-3.067091340199112892e-03
-2.139446884393692017e-02
1.226502587087452412e-03
-3.002947010099887848e-02
-2.387283369898796082e-02
4.206530749797821045e-03
-7.287010084837675095e-03
-1.945021189749240875e-02
-1.365660410374403000e-02
1.582957617938518524e-02
-1.396473497152328491e-02
8.233962580561637878e-03
-2.030643820762634277e-02
-2.691459469497203827e-02
-1.644730940461158752e-02
-1.710360497236251831e-02
-6.617271719733253121e-05
-1.584245823323726654e-02
-1.940206065773963928e-02
-2.562535810284316540e-04
-1.165127754211425781e-02
-1.580560579895973206e-02
-1.541143469512462616e-02
-8.458695374429225922e-03
-1.762390136718750000e-02
-7.858945988118648529e-03
2.412578556686639786e-03
-1.657404936850070953e-02
-2.437561051920056343e-03
-1.059657335281372070e-02
3.797694225795567036e-04
-1.871008425951004028e-02
-1.513109821826219559e-02
-2.133620157837867737e-02
-2.921044453978538513e-02
-1.265053520910441875e-03
4.434294532984495163e-03
-2.474165149033069611e-02
-8.605441078543663025e-03
-2.000421099364757538e-02
-5.656859371811151505e-03
4.380225669592618942e-03
2.283822186291217804e-02
-4.860482178628444672e-03
-9.334728121757507324e-03
4.896060097962617874e-03
5.582772661000490189e-03
1.303469669073820114e-02
-5.518218968063592911e-03
5.975163541734218597e-03
9.034967049956321716e-03
-1.232328638434410095e-02
-7.089521270245313644e-03
-2.148836851119995117e-03
-1.051584910601377487e-02
-6.261575501412153244e-03
6.598202511668205261e-03
9.627641178667545319e-03
-2.988687949255108833e-03
-1.438567228615283966e-02
-6.215774454176425934e-03
-4.874131176620721817e-03
-3.001098986715078354e-03
8.257004432380199432e-03
1.228450611233711243e-02
-1.475068926811218262e-02
-6.730572786182165146e-03
2.024111105129122734e-03
3.550820751115679741e-03
8.096309378743171692e-03
2.524642739444971085e-03
-4.145554732531309128e-03
-3.619903232902288437e-03
1.771577261388301849e-02
6.607903051190078259e-04
-4.034241195768117905e-03
7.900262251496315002e-03
-9.187894873321056366e-03
-9.508970193564891815e-03
9.250080212950706482e-03
-1.021069125272333622e-03
3.192356787621974945e-03
-2.549428259953856468e-03
-1.610729959793388844e-03
1.371797756291925907e-03
-1.042206212878227234e-02
2.813365077599883080e-03
-1.798649551346898079e-03
-5.018133088015019894e-04
6.909086834639310837e-03
-1.168478652834892273e-02
-1.027662027627229691e-02
3.867631079629063606e-03
7.740789093077182770e-03
-4.606644622981548309e-03
-2.138388343155384064e-03
9.943060576915740967e-04
1.512979809194803238e-02
-7.390116341412067413e-03
1.215013395994901657e-02
-2.807046053931117058e-03
-9.035267867147922516e-03
1.506904845882672817e-05
9.774379432201385498e-03
-1.341325929388403893e-03
-6.313674151897430420e-03
1.397527637891471386e-03
9.066650643944740295e-03
-6.438405718654394150e-03
3.425367758609354496e-04
4.523405339568853378e-03
-7.174564962042495608e-05
3.054830012843012810e-03
-1.123071461915969849e-02
-2.935572993010282516e-03
1.434686034917831421e-02
-7.778579834848642349e-03
-5.413945298641920090e-03
-8.219286799430847168e-03
-3.586353035643696785e-03
-1.232563285157084465e-03
-4.633384756743907928e-03
-6.257173605263233185e-03
1.120959874242544174e-02
-1.791177899576723576e-03
-7.873855531215667725e-03
-1.387180667370557785e-02
-1.519638672471046448e-02
3.047462552785873413e-03
-3.480336861684918404e-03
-5.094213876873254776e-03
3.284195903688669205e-03
1.925168745219707489e-02
2.686931984499096870e-03
-1.282626180909574032e-03
3.185834037140011787e-03
-4.333608783781528473e-03
2.869997639209032059e-03
3.193136770278215408e-03
2.424778789281845093e-02
-5.046086735092103481e-04
4.726507700979709625e-03
2.941065002232789993e-03
-1.106303650885820389e-02
5.458400584757328033e-03
1.730261719785630703e-03
-7.638550596311688423e-04
2.934318035840988159e-03
-5.677226930856704712e-03
2.347323112189769745e-03
-5.286988802254199982e-03
7.473166566342115402e-03
8.559814654290676117e-03
-4.022082779556512833e-03
-1.301079615950584412e-02
2.657287404872477055e-04
1.328185666352510452e-03
1.736039528623223305e-03
8.758570183999836445e-04
-1.022932352498173714e-03
4.146956373006105423e-03
-4.046550951898097992e-03
8.067396469414234161e-03
1.293569686822593212e-03
4.742355085909366608e-03
6.283422117121517658e-04
8.791402797214686871e-04
4.111487418413162231e-03
-2.147921826690435410e-03
-1.273934543132781982e-02
2.328429929912090302e-02
1.563403941690921783e-02
-1.573502272367477417e-02
-1.485418155789375305e-02
-3.423033282160758972e-03
8.354855701327323914e-03
-2.310588397085666656e-02
-9.171611629426479340e-03
-3.030895953997969627e-03
5.663057672791182995e-04
6.356590893119573593e-04
3.040275722742080688e-02
-1.020605210214853287e-03
-2.461764030158519745e-02
3.622758202254772186e-03
-1.032024272717535496e-03
-6.844225339591503143e-03
-5.807442124933004379e-03
-2.793272025883197784e-02
-2.760048024356365204e-02
7.562615908682346344e-03
-3.303786367177963257e-02
-1.339511107653379440e-02
-1.952524296939373016e-02
-1.366003043949604034e-02
-1.051206793636083603e-02
-2.654338441789150238e-02
-2.712907083332538605e-02
-2.085582725703716278e-02
-2.020978555083274841e-02
-6.322406698018312454e-03
-2.059566555544734001e-03
-9.247994748875498772e-04
-1.763972220942378044e-03
-1.847860030829906464e-02
-1.098607550375163555e-03
9.535674005746841431e-03
-1.448820065706968307e-02
-3.032084926962852478e-02
-2.489848062396049500e-03
1.440161839127540588e-02
-4.860446322709321976e-03
-9.922500699758529663e-03
-1.859078742563724518e-02
-2.409570384770631790e-03
-1.676206476986408234e-02
-4.661277402192354202e-03
-1.843970827758312225e-02
-4.201814532279968262e-03
-8.912147954106330872e-03
2.871241653338074684e-03
-1.673742756247520447e-02
-2.255765162408351898e-02
-8.849851787090301514e-03
-9.335651993751525879e-03
1.139451470226049423e-02
6.514075212180614471e-03
-1.756691001355648041e-02
-4.881919361650943756e-03
6.353032076731324196e-04
-2.242315188050270081e-02
-2.778827212750911713e-02
-2.089729299768805504e-03
-1.396499574184417725e-02
-1.616140641272068024e-02
-1.056030485779047012e-02
-1.576367765665054321e-02
-2.251097932457923889e-02
4.503987729549407959e-03
-1.264511793851852417e-02
-2.057413384318351746e-02
-1.462544035166501999e-02
-6.088798865675926208e-03
-8.629691787064075470e-03
-8.307799696922302246e-03
-1.196224708110094070e-02
-1.884564058855175972e-03
-1.950508542358875275e-02
3.615275258198380470e-03
-1.898029632866382599e-02
-2.031895145773887634e-02
-5.495454184710979462e-03
-2.556368708610534668e-02
-1.115583907812833786e-02
4.481375217437744141e-03
-1.355155464261770248e-02
-2.824921393766999245e-03
-2.290503866970539093e-02
-2.067229710519313812e-03
-3.157103806734085083e-02
-2.565814740955829620e-02
1.278835843550041318e-04
-7.683563511818647385e-03
-1.923411153256893158e-02
-1.472177729010581970e-02
1.610450074076652527e-02
-1.453081425279378891e-02
6.314621306955814362e-03
-2.001762017607688904e-02
-2.468541078269481659e-02
-1.701586879789829254e-02
-1.823671534657478333e-02
-1.567822531796991825e-03
-1.755443029105663300e-02
-2.039228379726409912e-02
1.676166662946343422e-03
-1.316803973168134689e-02
-1.495772320777177811e-02
-1.632802188396453857e-02
-9.785232134163379669e-03
-1.848089322447776794e-02
-5.396430380642414093e-03
1.378494431264698505e-03
-1.219410169869661331e-02
-3.937366884201765060e-03
-9.470690973103046417e-03
1.996483188122510910e-03
-1.788990944623947144e-02
-1.573847234249114990e-02
-2.209282480180263519e-02
-2.988206781446933746e-02
-9.588183020241558552e-04
3.146679140627384186e-03
-2.420306205749511719e-02
-9.813202545046806335e-03
-1.941281743347644806e-02
-8.066403679549694061e-03
-1.610940322279930115e-02
4.323131870478391647e-03
2.836523018777370453e-02
-1.384459435939788818e-02
-1.645679399371147156e-02
-2.943973522633314133e-03
-5.482467822730541229e-03
-2.401588112115859985e-02
-1.037171762436628342e-02
-3.041340736672282219e-03
-2.758403075858950615e-03
-5.961627233773469925e-03
4.666008986532688141e-03
-1.156739331781864166e-02
-2.502966299653053284e-02
-5.166331306099891663e-03
1.027486723614856601e-04
-7.480546832084655762e-03
-8.808270096778869629e-03
-2.861094847321510315e-02
-2.903182432055473328e-02
4.244245588779449463e-03
-3.207706660032272339e-02
-1.380664948374032974e-02
-1.850158907473087311e-02
-1.235752087086439133e-02
-1.110750995576381683e-02
-2.466298453509807587e-02
-2.750463038682937622e-02
-2.036513015627861023e-02
-1.981004513800144196e-02
-1.078231073915958405e-02
-5.821399856358766556e-03
-4.822304472327232361e-03
-4.045348148792982101e-03
-2.034078910946846008e-02
-4.718886222690343857e-03
-4.178273025900125504e-03
-1.882293261587619781e-02
-3.013265132904052734e-02
-7.241521496325731277e-03
1.240325160324573517e-02
-6.120152771472930908e-03
-1.062735915184020996e-02
-1.722607202827930450e-02
-7.287306711077690125e-03
-1.930919662117958069e-02
-4.593948367983102798e-03
-1.753234118223190308e-02
-1.075655128806829453e-02
-1.104133389890193939e-02
2.054133452475070953e-03
-1.450827065855264664e-02
-2.352157421410083771e-02
-9.525650180876255035e-03
-9.505210444331169128e-03
-5.399983376264572144e-03
1.306845922954380512e-03
-1.750435121357440948e-02
-7.574744056910276413e-03
-4.410413559526205063e-03
-2.381900325417518616e-02
-2.889166213572025299e-02
-1.607312238775193691e-03
-1.533348113298416138e-02
-1.792107522487640381e-02
-1.120551861822605133e-02
-1.719803363084793091e-02
-1.953766867518424988e-02
4.587118048220872879e-03
-1.470734458416700363e-02
-2.570310793817043304e-02
-1.388012990355491638e-02
-1.087127067148685455e-02
-1.044391933828592300e-02
-9.024547412991523743e-03
-1.203467976301908493e-02
-7.756937760859727859e-03
-1.881577819585800171e-02
2.755382796749472618e-03
-1.912818849086761475e-02
-2.007555961608886719e-02
-1.078113727271556854e-02
-2.562242560088634491e-02
-1.092209946364164352e-02
1.573655026732012630e-04
-1.864793151617050171e-02
-5.207092966884374619e-03
-2.219511196017265320e-02
-5.428006406873464584e-04
-3.077555820345878601e-02
-2.443030290305614471e-02
-2.398252836428582668e-04
-1.061653997749090195e-02
-1.817770116031169891e-02
-1.715379022061824799e-02
1.568725705146789551e-02
-1.170711778104305267e-02
-2.977673662826418877e-03
-2.041891403496265411e-02
-2.551935799419879913e-02
-1.605518534779548645e-02
-1.712434738874435425e-02
-3.835717681795358658e-03
-1.672399230301380157e-02
-1.962728798389434814e-02
-1.136457081884145737e-03
-1.260508038103580475e-02
-1.205831952393054962e-02
-1.687992922961711884e-02
-8.958496153354644775e-03
-1.902221329510211945e-02
-7.433307357132434845e-03
-1.754419761709868908e-03
-1.209157612174749374e-02
-5.186327267438173294e-03
-9.322232566773891449e-03
4.221300187055021524e-04
-1.391755789518356323e-02
-1.560926157981157303e-02
-2.261570841073989868e-02
-2.920232340693473816e-02
-2.333278302103281021e-03
2.336814999580383301e-03
-2.473898231983184814e-02
-8.086743764579296112e-03
-1.889887079596519470e-02
-1.038520690053701401e-02
