-8.498191088438034058e-02,7.352863997220993042e-02,-2.241973066702485085e-03,-4.350045323371887207e-02,-2.389563996985089034e-05,-3.349719196557998657e-02,5.226203706115484238e-03,-2.200982533395290375e-03,7.700587809085845947e-02,-2.624484896659851074e-02,-1.877343282103538513e-03,-8.601296693086624146e-02,7.307349587790668011e-04,-6.328174378722906113e-03,5.670241639018058777e-02,5.648639425635337830e-02,5.342867970466613770e-02,4.897734895348548889e-02,9.305313974618911743e-02,5.487492308020591736e-03,-3.936098143458366394e-02,-4.546190798282623291e-02,5.167708173394203186e-02,8.179383352398872375e-03,4.348570853471755981e-02,6.746213138103485107e-02,-8.187163621187210083e-02,1.892069471068680286e-03,5.832063779234886169e-02,2.233342453837394714e-02,5.765529349446296692e-03,3.989610075950622559e-02,-3.587118908762931824e-02,4.782418161630630493e-02,5.754147097468376160e-02,-4.099695757031440735e-02,1.038228441029787064e-02,-6.769703328609466553e-02,1.487012766301631927e-02,-5.981412529945373535e-02,9.518815577030181885e-02,-2.232028171420097351e-02,-7.506646215915679932e-02,-4.709058254957199097e-02,-5.362310633063316345e-02,4.146185144782066345e-02,9.326159954071044922e-02,4.530223831534385681e-02,-7.959920912981033325e-02,3.133830800652503967e-02,-8.530782163143157959e-02,3.323216736316680908e-02,-1.325004082173109055e-02,1.248397119343280792e-02,-4.510561376810073853e-02,6.644525378942489624e-02,-9.837076812982559204e-02,-1.559765171259641647e-02,4.145223647356033325e-02,1.331675885012373328e-04,3.631625697016716003e-02,3.360003232955932617e-03,5.096295848488807678e-02,2.817105688154697418e-02,-1.706524379551410675e-02,3.128268942236900330e-02,2.113152481615543365e-02,-1.122545078396797180e-02,-1.499504200182855129e-03,-1.045460850000381470e-01,-5.659865587949752808e-02,-5.813604220747947693e-03,-5.943155661225318909e-02,6.835580617189407349e-02,3.794753924012184143e-02,-1.569877937436103821e-02,-7.997020334005355835e-02,1.638161763548851013e-02,-2.434331551194190979e-02,-1.071135792881250381e-02,-2.418987080454826355e-02,-6.100800260901451111e-02,-9.519135951995849609e-02,6.807049363851547241e-02,6.490192562341690063e-02,-6.255556643009185791e-02,9.974512271583080292e-03,-4.332467541098594666e-02,2.503224462270736694e-02,2.327815443277359009e-02,9.672527760267257690e-02,-6.078535318374633789e-02,-1.722067780792713165e-02,1.848094351589679718e-02,1.989730820059776306e-02,5.418238043785095215e-02,-6.475698947906494141e-02,2.892426960170269012e-02,-7.976493984460830688e-02,-2.547320909798145294e-02,-7.639554142951965332e-02,-6.239779293537139893e-03,2.830096334218978882e-02,3.512468561530113220e-02,-1.380554679781198502e-02,8.012495189905166626e-02,-2.142104506492614746e-02,2.089446783065795898e-02,-3.759036958217620850e-02,2.784874476492404938e-02,5.889679491519927979e-02,4.421592690050601959e-03,8.186059445142745972e-02,3.112076409161090851e-02,-5.321831628680229187e-02,3.230617940425872803e-02,8.641524612903594971e-02,1.632751151919364929e-02,-5.809901282191276550e-02,3.193091135472059250e-03,5.681199952960014343e-02,5.007495731115341187e-02,-1.329017430543899536e-02,-7.715542335063219070e-03,-1.313090603798627853e-02,-1.833323761820793152e-02,7.289469242095947266e-03,-1.555199921131134033e-02,-1.809985004365444183e-02,1.343256980180740356e-02,-4.115150496363639832e-02,7.211372256278991699e-02,2.053824253380298615e-02,-8.605570532381534576e-03,7.599411159753799438e-02,-2.643449231982231140e-02,-8.215843886137008667e-02,3.829057142138481140e-02,7.825403660535812378e-02,8.432243764400482178e-02,-5.147961527109146118e-02,6.978853046894073486e-02,4.681396856904029846e-02,1.393454242497682571e-02,-4.235376417636871338e-02,4.594135563820600510e-03,6.475685536861419678e-02,-7.617647945880889893e-02,7.467592507600784302e-02,2.264474518597126007e-02,4.199746996164321899e-02,-5.678003281354904175e-02,2.105447091162204742e-02,-2.707966789603233337e-02,-1.347600761801004410e-02,-1.626470312476158142e-02,6.962446123361587524e-02,-1.437548827379941940e-02,-1.129096001386642456e-02,-3.087876178324222565e-02,-2.021023631095886230e-02,3.215132281184196472e-02,6.486715376377105713e-02,1.579998247325420380e-02,-4.196249693632125854e-02,4.437794443219900131e-03,-8.821345865726470947e-03,-3.086213953793048859e-02,-2.168935909867286682e-02,-6.543308496475219727e-02,7.274632155895233154e-02,1.298598479479551315e-02,4.305117577314376831e-02,1.980668120086193085e-02,-6.986410170793533325e-02,4.893258213996887207e-03,2.481254935264587402e-02,-4.628938157111406326e-03,2.943155542016029358e-02,5.588113516569137573e-02,7.495655119419097900e-02,2.924968861043453217e-02,6.643442064523696899e-02,5.256316810846328735e-02,6.985026597976684570e-02,5.186086148023605347e-02,7.684137672185897827e-02,-6.698866933584213257e-02,2.416541427373886108e-02,7.359385490417480469e-02,-3.475676849484443665e-02,8.110066503286361694e-02,1.405558921396732330e-02,4.343746975064277649e-02,8.855715394020080566e-02,7.009010016918182373e-02,6.592174619436264038e-02,-6.927777081727981567e-02,-6.212884932756423950e-02,-6.577330082654953003e-02,7.383883744478225708e-02,-4.285589791834354401e-03,-4.625363275408744812e-02,-6.064260378479957581e-03,-7.093106955289840698e-02,-7.631682604551315308e-02,-7.685150951147079468e-02,4.646459966897964478e-02,5.935569643042981625e-04,-6.798636913299560547e-02,-1.957530900835990906e-02,3.741686791181564331e-02,5.681604146957397461e-02,-6.418268382549285889e-02,3.193854913115501404e-02,5.472378432750701904e-02,6.887349486351013184e-02,-6.461045145988464355e-02,2.715682983398437500e-02,2.158675342798233032e-03,-4.914470016956329346e-03,6.280377041548490524e-03,6.174443662166595459e-02,4.290817305445671082e-02,-2.123432466760277748e-03,-6.514385342597961426e-02,1.021181233227252960e-02,-2.679415605962276459e-02,4.763972386717796326e-02,-9.967834502458572388e-02,-4.902684688568115234e-02,6.127711012959480286e-02,2.449252642691135406e-02,-2.489746734499931335e-02,5.091392621397972107e-02,-4.304331168532371521e-02,7.728742808103561401e-02,-9.254467673599720001e-03,6.903531402349472046e-02,-1.553178112953901291e-02,7.693452388048171997e-02,-9.403510391712188721e-02,-2.783850952982902527e-02,2.190476842224597931e-02,-6.204394996166229248e-02,-1.562282163649797440e-02,1.000889297574758530e-02,6.309240311384201050e-02,2.233677357435226440e-02,-6.567353755235671997e-02,9.378433972597122192e-02,-8.664350956678390503e-03,-9.443223476409912109e-02,3.164790198206901550e-02,-1.356940437108278275e-02,2.994852140545845032e-02,-3.275207057595252991e-02,6.160607188940048218e-02,-9.619213640689849854e-02,-9.747745096683502197e-02,1.802673563361167908e-02,1.392403431236743927e-02,-7.239369302988052368e-02,-2.776140905916690826e-02,1.209545414894819260e-02,3.064444754272699356e-03,-3.475834056735038757e-02,-4.846771061420440674e-02,4.784330725669860840e-03,-2.143868803977966309e-02,6.442535668611526489e-02,-4.406807199120521545e-02,-9.250218421220779419e-02,6.477264221757650375e-03,-4.802699759602546692e-02,-3.652912750840187073e-02,5.512392520904541016e-02,-3.220080584287643433e-02,-4.119175300002098083e-02,4.584323614835739136e-02,-3.254716098308563232e-02,-7.684025913476943970e-02,-8.259973675012588501e-02,-2.197082713246345520e-02,-5.880925059318542480e-02,6.094292551279067993e-02,1.280981674790382385e-02,4.601151123642921448e-02,-6.172899901866912842e-02,8.734303712844848633e-02,9.476518630981445312e-02,4.776290059089660645e-02,4.355560615658760071e-02,-4.796886444091796875e-02,-4.885622113943099976e-02,-7.650263607501983643e-02,-5.140399560332298279e-02,9.448853135108947754e-02,-7.653322815895080566e-02,-1.195093616843223572e-02,6.457130610942840576e-02,2.649510279297828674e-02,-8.337813429534435272e-03,5.442147701978683472e-02,-3.710279474034905434e-03,2.814633212983608246e-02,1.005919557064771652e-02,6.525789946317672729e-02,-9.266107343137264252e-03,6.296322494745254517e-02,-1.327817980200052261e-02,-7.795899361371994019e-02,-4.153389856219291687e-02,7.102992851287126541e-03,5.698654800653457642e-02,-8.662851154804229736e-02,2.460087882354855537e-03,9.298127889633178711e-02,5.909612029790878296e-02,-3.839954361319541931e-02,1.279094163328409195e-02,3.176530008204281330e-04,-3.292415291070938110e-02,8.877681195735931396e-02,-1.294461637735366821e-02,-5.518646538257598877e-02,6.255810707807540894e-02,-6.836941838264465332e-02,3.592729195952415466e-02,9.902838617563247681e-03,-5.073974654078483582e-02,3.838931210339069366e-03,8.303104341030120850e-02,-1.123425550758838654e-02,-5.425418540835380554e-02,-2.095459774136543274e-02,-1.298499479889869690e-02,7.564977277070283890e-03,-2.815052121877670288e-02,8.605653047561645508e-02,-4.631203413009643555e-02,-8.408130705356597900e-02,1.497748959809541702e-02,2.227571420371532440e-02,8.309877663850784302e-02,9.814994409680366516e-03,-3.864232078194618225e-02,-5.020638182759284973e-02,-5.954970419406890869e-02,5.051662400364875793e-02,-5.434452742338180542e-02,5.207787454128265381e-02,-5.525910481810569763e-02,7.849616557359695435e-02,8.212275803089141846e-03,8.061240613460540771e-02,2.770198881626129150e-02,4.408994689583778381e-02,-3.551252419129014015e-03,2.000278607010841370e-02,-3.101391158998012543e-02,-2.766445092856884003e-02,-3.336635977029800415e-02,-5.722187459468841553e-02,7.479668408632278442e-02,8.284240029752254486e-03,-7.947815954685211182e-02,-5.013607069849967957e-02,-5.512301810085773468e-03,6.900874525308609009e-02,5.040919035673141479e-02,-1.407071668654680252e-02,5.941842868924140930e-02,-2.538908971473574638e-03,-1.592803187668323517e-02,5.553448945283889771e-02,3.582767769694328308e-02,-8.828757703304290771e-02,8.293796330690383911e-02,-2.327003888785839081e-02,9.918754920363426208e-03,-2.615890232846140862e-03,-5.026833713054656982e-02,7.236730307340621948e-02,-7.259492576122283936e-02,6.346011161804199219e-02,-7.121199369430541992e-02,-2.635583095252513885e-02,6.953161209821701050e-02,7.339029759168624878e-02,4.520274698734283447e-02,-1.774999126791954041e-02,-6.977809593081474304e-03,1.078966166824102402e-02,2.524545043706893921e-02,-5.576372146606445312e-02,-3.270773962140083313e-02,-3.206733241677284241e-02,-4.153857752680778503e-02,-5.481783673167228699e-02,-8.154257386922836304e-02,-4.025670886039733887e-02,8.621680736541748047e-02,1.965417340397834778e-02,-7.959378510713577271e-02,-3.866944462060928345e-03,7.800149917602539062e-02,-1.151208207011222839e-02,4.810450971126556396e-02,4.434427246451377869e-02,-1.884294673800468445e-02,-1.027877256274223328e-01,-5.485891178250312805e-02,-9.448733180761337280e-02,-3.567842021584510803e-02,7.956932485103607178e-02,2.149864099919795990e-02,-7.262127846479415894e-02,2.052163518965244293e-02,4.828584939241409302e-02,6.178651377558708191e-02,1.014266535639762878e-02,-8.716287463903427124e-02,-6.883952766656875610e-02,3.900640085339546204e-02,-8.518157154321670532e-02,-1.104938238859176636e-02,5.469302833080291748e-02,-2.653235569596290588e-02,9.958190843462944031e-03,-1.839176635257899761e-03,-9.801939129829406738e-02,-2.474227733910083771e-02,-8.525902777910232544e-02,-3.429603576660156250e-02,5.839430540800094604e-02,6.480917334556579590e-02,9.891064837574958801e-03,1.025484036654233932e-02,8.194115944206714630e-03,-6.832183897495269775e-02,5.167007818818092346e-02,7.041894644498825073e-02,-6.296822428703308105e-02,-7.575130462646484375e-02,-6.292941980063915253e-03,3.378937020897865295e-02,-5.937903746962547302e-02,-5.872363969683647156e-02,-6.147766858339309692e-02,-1.936303568072617054e-03,-7.917833328247070312e-02,-1.023990754038095474e-02,2.620368963107466698e-03,-5.698707327246665955e-02,-6.382381170988082886e-02,6.066054105758666992e-02,1.917008310556411743e-02,3.977074846625328064e-02,2.614658325910568237e-02,1.056209579110145569e-02,6.261515617370605469e-02,5.565508082509040833e-02,-3.275295719504356384e-03,-6.111323460936546326e-02,-5.685031414031982422e-02,3.049183450639247894e-02,4.734442383050918579e-02,9.503884613513946533e-02,-6.442187726497650146e-02,-7.453002780675888062e-02,-2.681684307754039764e-02,-8.637938648462295532e-02,-4.944436252117156982e-02,8.699176460504531860e-02,8.100104331970214844e-02,-2.523442730307579041e-02,-1.183498557657003403e-02,-4.672858491539955139e-02,3.826839383691549301e-04,8.117059618234634399e-02,6.924976408481597900e-02,-5.834676325321197510e-02,-9.466771036386489868e-02,-1.375038549304008484e-02,-7.401855289936065674e-02,-8.509629219770431519e-02,3.987164795398712158e-02,-5.588350072503089905e-02,-1.446854695677757263e-02,7.365321367979049683e-02,-1.505904947407543659e-05,-3.977598249912261963e-02,1.226434297859668732e-02,-2.870790474116802216e-02,-6.071451678872108459e-02,-5.884400755167007446e-02,-4.682277794927358627e-03,-2.273185737431049347e-02,3.193194046616554260e-02,-1.511062029749155045e-02,-4.698090627789497375e-02,-9.062712639570236206e-02,5.099206417798995972e-02,-6.893864274024963379e-02,-2.932262234389781952e-02,-5.391120165586471558e-02,-3.831263631582260132e-02,-4.663049802184104919e-02,-5.425572767853736877e-02,-2.077229321002960205e-02,-4.965684190392494202e-02
-2.987498417496681213e-02,-5.751311033964157104e-02,-1.771388202905654907e-02,4.247893765568733215e-02,6.103290244936943054e-02,-2.275203913450241089e-02,2.383833937346935272e-02,1.200127508491277695e-02,-1.217803638428449631e-02,-5.665484815835952759e-02,9.903813712298870087e-03,-5.472002178430557251e-02,-2.273737639188766479e-02,5.249487981200218201e-02,-9.000864624977111816e-02,-2.842353656888008118e-02,-5.212505906820297241e-02,-4.244008660316467285e-02,-2.357998676598072052e-02,5.568765848875045776e-02,-5.003494396805763245e-02,-8.546271361410617828e-03,7.286339253187179565e-02,-6.189973652362823486e-02,3.223475068807601929e-02,-7.016552146524190903e-03,-5.480238422751426697e-02,5.641302466392517090e-02,1.632562279701232910e-02,5.172396544367074966e-03,3.797294571995735168e-03,-7.329784333705902100e-03,5.143830180168151855e-02,5.373730510473251343e-02,5.765336006879806519e-02,-1.923414506018161774e-02,5.871704779565334320e-03,6.993197649717330933e-02,3.659905400127172470e-03,-3.018978168256580830e-04,-1.789387082681059837e-03,2.388206543400883675e-03,-1.409906428307294846e-02,1.497010234743356705e-02,-4.346172139048576355e-02,4.374046623706817627e-02,-7.436634041368961334e-03,-1.954078860580921173e-02,-2.390177547931671143e-02,-4.181404039263725281e-02,6.790370494127273560e-02,-1.733518764376640320e-02,-6.143153458833694458e-02,-5.254061892628669739e-02,3.960881382226943970e-02,-1.794706843793392181e-02,-7.482863217592239380e-02,-5.976655054837465286e-03,6.584818661212921143e-02,2.832869440317153931e-02,3.096282109618186951e-02,8.514063805341720581e-02,-3.460178524255752563e-02,3.517460543662309647e-03,-3.785518696531653404e-03,2.929414808750152588e-02,-4.402900859713554382e-02,3.070929832756519318e-02,-5.692694336175918579e-02,3.449928387999534607e-02,-1.378720160573720932e-02,7.574795931577682495e-02,-8.017092198133468628e-02,4.032783955335617065e-02,5.351309198886156082e-03,-8.561503887176513672e-02,4.300228133797645569e-02,-4.283633455634117126e-02,3.535165218636393547e-03,-9.810614399611949921e-03,-3.223999589681625366e-02,1.770566799677908421e-03,-6.374674290418624878e-02,4.263698682188987732e-02,-4.493321105837821960e-02,-3.128013014793395996e-02,7.734207436442375183e-03,4.416877776384353638e-02,8.793117851018905640e-02,1.830363273620605469e-02,7.687537465244531631e-03,-5.134576559066772461e-02,-9.546554833650588989e-02,9.608945250511169434e-02,-4.331799596548080444e-02,-1.233717519789934158e-02,-5.478863045573234558e-02,3.601334989070892334e-03,4.904351197183132172e-03,2.679457515478134155e-02,-8.582042157649993896e-02,7.071000337600708008e-02,-5.821439623832702637e-02,2.662529610097408295e-02,2.244268730282783508e-02,4.403632879257202148e-02,-4.902148991823196411e-02,-1.037988811731338501e-02,-5.619482323527336121e-02,3.255451843142509460e-02,1.907438412308692932e-02,-1.567875407636165619e-02,-1.484502851963043213e-02,-3.647138178348541260e-02,4.421732202172279358e-02,6.447148323059082031e-02,-5.601239204406738281e-02,4.743677377700805664e-02,7.184632867574691772e-02,3.063424304127693176e-02,8.818472735583782196e-03,-6.858403980731964111e-02,5.087965726852416992e-02,-4.057463258504867554e-02,1.445580832660198212e-02,9.596799314022064209e-02,-1.597171649336814880e-02,-1.796031137928366661e-03,5.046577751636505127e-02,5.768955126404762268e-02,4.546635970473289490e-02,1.867966377176344395e-03,8.344814926385879517e-02,2.405680529773235321e-02,2.605149894952774048e-02,7.075144350528717041e-02,-8.123447000980377197e-02,-3.364243730902671814e-02,-2.683246321976184845e-02,5.857414752244949341e-02,-2.033453062176704407e-02,-4.733280465006828308e-02,4.561027884483337402e-02,1.844559982419013977e-02,6.119918078184127808e-02,7.620307058095932007e-02,-6.731719523668289185e-02,4.982496798038482666e-02,-2.496397867798805237e-02,-3.185877203941345215e-02,5.048359930515289307e-02,3.844214230775833130e-02,-7.477606087923049927e-02,2.063308842480182648e-02,-1.948725804686546326e-02,3.964912891387939453e-02,-5.925559997558593750e-02,7.228096574544906616e-02,-8.394601754844188690e-03,6.264909356832504272e-02,5.636642500758171082e-02,4.312206059694290161e-02,1.002104058861732483e-01,-4.147876054048538208e-03,-6.336755305528640747e-02,5.777077004313468933e-02,-3.489308431744575500e-02,3.519823949318379164e-04,1.344255823642015457e-02,2.649988792836666107e-02,-7.461790740489959717e-02,-2.489520423114299774e-02,-4.474733769893646240e-02,2.790828701108694077e-03,-1.957002468407154083e-02,-2.712645195424556732e-02,-5.857608839869499207e-02,4.582782741636037827e-03,5.192847177386283875e-02,6.668268889188766479e-02,-1.666795834898948669e-02,5.492913722991943359e-02,5.225492641329765320e-03,7.632882148027420044e-02,-4.127851501107215881e-02,-6.399436295032501221e-02,-5.053212493658065796e-02,4.301118850708007812e-02,-7.872246205806732178e-02,-7.404279429465532303e-03,-7.261298596858978271e-02,-2.843671292066574097e-02,-8.592751622200012207e-02,1.264536753296852112e-02,-6.005219742655754089e-02,3.696615248918533325e-02,-3.338180109858512878e-02,-6.947797536849975586e-02,-3.988497704267501831e-02,-3.546489775180816650e-02,6.397746969014406204e-03,6.041510030627250671e-02,4.418597090989351273e-03,6.186184659600257874e-02,-2.825105935335159302e-02,3.440776467323303223e-02,-8.399537205696105957e-02,3.670777007937431335e-02,8.231470733880996704e-02,-8.215953409671783447e-02,-1.733465120196342468e-02,5.000848323106765747e-04,6.705276668071746826e-02,1.992719061672687531e-02,1.626308308914303780e-03,7.706756889820098877e-02,-3.353501483798027039e-02,2.688873745501041412e-02,-9.839940071105957031e-02,-9.667251259088516235e-03,-7.302711158990859985e-02,-3.620425611734390259e-02,-2.737571857869625092e-02,5.596626549959182739e-02,-5.334667116403579712e-02,1.810627244412899017e-02,-3.032623603940010071e-02,8.547695726156234741e-02,-4.255031421780586243e-02,3.777345642447471619e-02,-1.326082088053226471e-02,-2.727887034416198730e-02,1.246211957186460495e-02,7.213488966226577759e-02,-3.596999216824769974e-03,-6.804063450545072556e-03,-7.569841295480728149e-02,2.672602050006389618e-02,4.969651624560356140e-02,6.189569085836410522e-02,7.895199954509735107e-02,1.858753710985183716e-02,-1.746213436126708984e-02,-5.855554342269897461e-02,5.187172442674636841e-02,-7.034113630652427673e-03,4.906145110726356506e-02,-8.980458229780197144e-02,3.848712891340255737e-02,4.765712097287178040e-02,5.928146839141845703e-02,-6.656900048255920410e-02,-7.186017930507659912e-02,5.736035481095314026e-02,1.605921611189842224e-02,8.412269502878189087e-02,-2.550993487238883972e-02,8.142646402120590210e-02,-6.048387289047241211e-02,5.669026076793670654e-02,-2.431809715926647186e-02,7.810764946043491364e-03,-1.276560965925455093e-02,6.861194968223571777e-02,-1.983809843659400940e-02,-2.215004712343215942e-02,-7.435209304094314575e-02,1.066367700695991516e-01,-6.677673012018203735e-02,-6.900519877672195435e-02,-9.174384176731109619e-02,3.878696635365486145e-02,3.566562384366989136e-02,1.246581785380840302e-03,7.641379535198211670e-02,3.974768146872520447e-02,-5.784586537629365921e-03,-6.472357362508773804e-02,2.529907412827014923e-02,2.336469851434230804e-02,-5.257737357169389725e-03,4.297671094536781311e-02,-8.608246594667434692e-02,-6.385973840951919556e-02,-4.598375875502824783e-03,-6.829715520143508911e-02,1.081841252744197845e-02,6.653784215450286865e-02,5.805396009236574173e-03,9.102031588554382324e-02,7.696128636598587036e-02,5.605347082018852234e-02,-1.945025287568569183e-02,-3.916394710540771484e-02,1.948356442153453827e-02,-2.044163458049297333e-02,-4.345333948731422424e-02,5.701062455773353577e-02,-7.573406398296356201e-02,3.748017922043800354e-02,3.329388052225112915e-02,-4.615518823266029358e-02,-3.793384507298469543e-02,-8.650244213640689850e-03,-7.015936076641082764e-02,5.330213904380798340e-02,4.537114500999450684e-02,8.846462704241275787e-03,2.574583142995834351e-02,-3.285350278019905090e-02,4.146485030651092529e-02,8.310537785291671753e-02,2.199373766779899597e-02,-6.906739622354507446e-02,7.036504149436950684e-02,-1.235017646104097366e-02,4.410643130540847778e-02,3.408026322722434998e-02,6.162619218230247498e-02,-5.788149312138557434e-02,5.804011598229408264e-02,-5.911177396774291992e-02,-6.014022231101989746e-02,1.873116381466388702e-02,-3.936877846717834473e-02,-8.604426681995391846e-02,-4.641984030604362488e-02,4.482665285468101501e-02,3.965611755847930908e-02,7.831221818923950195e-02,-1.019408479332923889e-01,-5.636621639132499695e-02,-5.189714953303337097e-02,-5.872872192412614822e-03,4.351571574807167053e-02,-2.111792191863059998e-02,8.010049909353256226e-02,6.145728752017021179e-02,1.831978186964988708e-02,-6.907766312360763550e-02,1.688747853040695190e-02,-7.779990881681442261e-02,7.449355325661599636e-05,-6.141265109181404114e-02,-3.353513777256011963e-02,-2.518358454108238220e-02,-5.628800019621849060e-02,-1.633016578853130341e-02,-8.897740393877029419e-02,-3.980196639895439148e-02,2.225084044039249420e-02,-4.642297700047492981e-02,-8.372457325458526611e-02,8.493362367153167725e-02,1.313276030123233795e-02,-1.510474085807800293e-02,-6.401383876800537109e-02,-6.903433799743652344e-02,1.455602422356605530e-02,-1.456210762262344360e-02,-8.905085921287536621e-02,-2.266335301101207733e-02,-3.534424304962158203e-02,-2.525468356907367706e-02,-2.907783910632133484e-02,1.601984165608882904e-02,4.053944349288940430e-02,4.767442867159843445e-02,8.780065178871154785e-02,2.463366836309432983e-02,1.201648078858852386e-02,-6.544166803359985352e-02,-2.057698369026184082e-02,-3.664650954306125641e-03,3.780660405755043030e-02,9.953129291534423828e-02,-8.415265381336212158e-02,-5.038977414369583130e-02,6.280479580163955688e-02,-1.044516563415527344e-01,6.188257038593292236e-02,9.218700230121612549e-02,5.677181109786033630e-02,6.866733729839324951e-02,-7.528724521398544312e-02,-3.970397263765335083e-02,-3.533432260155677795e-02,4.312257096171379089e-02,4.792558401823043823e-02,-1.374955847859382629e-02,6.524643301963806152e-02,3.906597942113876343e-02,-2.864005044102668762e-03,-7.691890746355056763e-02,2.536016516387462616e-02,1.241798046976327896e-02,7.187698036432266235e-02,-4.819162562489509583e-02,6.264468282461166382e-02,-8.311916142702102661e-02,3.054332360625267029e-02,6.364338099956512451e-02,-1.602749398443847895e-04,6.208340078592300415e-02,-3.543333709239959717e-02,7.112027704715728760e-02,-1.472333539277315140e-02,1.114280521869659424e-02,3.042657859623432159e-03,7.164663821458816528e-02,1.036305166780948639e-02,-6.807336211204528809e-02,-6.131309643387794495e-02,-4.622228816151618958e-02,-8.599784225225448608e-02,3.311464190483093262e-02,4.732862487435340881e-02,5.450146272778511047e-02,-5.349183455109596252e-02,1.747227273881435394e-02,6.315352022647857666e-02,5.793444812297821045e-02,-9.682364016771316528e-02,1.962840743362903595e-02,-1.036212034523487091e-02,6.550674885511398315e-02,-6.291782949119806290e-03,-1.254432834684848785e-02,-6.683074682950973511e-02,3.521167114377021790e-02,5.630208551883697510e-02,-5.857383832335472107e-02,3.582587093114852905e-02,8.405270986258983612e-03,4.333551973104476929e-02,-8.127032965421676636e-02,8.165370672941207886e-02,-7.318305969238281250e-02,-6.880221515893936157e-02,-3.629444865509867668e-03,6.830020248889923096e-02,5.420314893126487732e-02,5.283707380294799805e-02,6.217605993151664734e-02,2.390224486589431763e-02,-1.703271642327308655e-02,-6.693933624774217606e-03,-2.763177454471588135e-02,4.477408155798912048e-02,5.964730307459831238e-02,-1.525807939469814301e-02,6.222634017467498779e-02,3.686450794339179993e-02,-6.126310303807258606e-02,-6.150377169251441956e-02,8.220085874199867249e-03,-4.967705905437469482e-02,2.545598521828651428e-02,5.354633182287216187e-02,2.540841000154614449e-03,4.554564878344535828e-02,-7.967980951070785522e-02,-8.698909729719161987e-02,-5.341901630163192749e-02,-1.695559732615947723e-02,-6.574796885251998901e-02,-3.298708796501159668e-02,7.977254688739776611e-02,3.630444779992103577e-02,-8.550500869750976562e-02,-5.028338357806205750e-02,8.946156501770019531e-02,-6.067544594407081604e-02,-1.042244583368301392e-01,-3.298257291316986084e-02,-2.041745185852050781e-02,-5.584320425987243652e-02,-9.094046428799629211e-03,-1.044982345774769783e-03,-2.937013097107410431e-02,7.965820282697677612e-02,-2.348991297185420990e-02,-3.112829476594924927e-02,1.706028915941715240e-02,-4.124505911022424698e-03,-9.724099934101104736e-02,5.497467890381813049e-02,6.202162057161331177e-02,6.731875985860824585e-02,2.919917181134223938e-02,2.877727150917053223e-03,-1.946567185223102570e-02,7.110029458999633789e-02,6.257522851228713989e-03,-5.340503528714179993e-02,-7.446025311946868896e-02,-6.024840101599693298e-02,-7.992924191057682037e-03,-8.730236440896987915e-03,-5.176701396703720093e-02,9.077127277851104736e-02,3.815267235040664673e-02,1.997120119631290436e-02,5.777547881007194519e-02,2.917807362973690033e-02,4.147587344050407410e-02,3.963808342814445496e-02,4.867057129740715027e-02,-5.949603021144866943e-02,-8.110116422176361084e-02,-6.061913073062896729e-02,-7.994738221168518066e-02
1.072305440902709961e-02,-1.930301822721958160e-02,3.108591772615909576e-02,7.558545097708702087e-03,1.692358404397964478e-02,6.423322856426239014e-02,-8.295073360204696655e-02,7.302051782608032227e-02,6.844478100538253784e-02,-9.692919254302978516e-02,-7.463593780994415283e-02,-3.587662056088447571e-02,-1.896574720740318298e-02,-9.587825089693069458e-02,-6.850391626358032227e-03,-4.021106660366058350e-02,-7.089638384059071541e-04,-7.490918040275573730e-03,3.022521967068314552e-03,-5.807138606905937195e-02,-4.740475490689277649e-02,3.291221708059310913e-02,4.677990800701081753e-04,3.988274931907653809e-02,-5.076695233583450317e-02,1.550930365920066833e-02,1.033853390254080296e-03,2.841968089342117310e-02,-5.386469885706901550e-02,5.298023298382759094e-02,7.888842374086380005e-03,6.537237018346786499e-02,8.390183001756668091e-02,7.204684615135192871e-02,2.910688705742359161e-02,8.619655855000019073e-03,4.498814698308706284e-03,-5.547786131501197815e-02,-1.318213716149330139e-02,2.271141670644283295e-02,-8.165092021226882935e-02,4.847438260912895203e-02,1.562292035669088364e-02,1.658921502530574799e-02,4.010289907455444336e-02,-1.153690926730632782e-02,-6.280119717121124268e-02,-3.353933617472648621e-02,2.013904228806495667e-02,2.230578660964965820e-02,-7.694313675165176392e-02,5.760343745350837708e-02,4.893580451607704163e-02,4.145896062254905701e-02,6.336680799722671509e-02,5.289015918970108032e-02,3.228925541043281555e-02,-6.841099262237548828e-02,-2.126557379961013794e-02,6.198280677199363708e-02,5.183579772710800171e-02,-6.040224060416221619e-02,-6.022565066814422607e-02,-4.048333317041397095e-02,-8.900152519345283508e-03,5.940017849206924438e-02,-1.565136946737766266e-02,2.805774286389350891e-02,7.201128453016281128e-02,-5.693195387721061707e-02,2.000459004193544388e-03,1.010117004625499249e-03,-5.005449429154396057e-02,-3.482753038406372070e-02,4.091237112879753113e-02,4.433022812008857727e-02,8.197383023798465729e-03,-7.309276610612869263e-03,-1.204762607812881470e-03,1.144880312494933605e-03,3.970178216695785522e-02,-9.051464498043060303e-03,-5.015415698289871216e-02,-7.197003811597824097e-02,-4.740907996892929077e-02,-9.142944961786270142e-02,1.219169050455093384e-02,2.346226386725902557e-02,3.522003442049026489e-02,-6.277458369731903076e-02,-6.312643736600875854e-02,9.982655942440032959e-02,-9.652521461248397827e-02,-2.518296614289283752e-02,-5.630832165479660034e-02,-3.028389625251293182e-02,4.703451693058013916e-02,7.469000667333602905e-02,-8.642691373825073242e-02,-3.990477416664361954e-03,-9.712651371955871582e-02,1.084593031555414200e-02,-5.397523194551467896e-02,1.429933682084083557e-02,-8.560881763696670532e-02,-5.019044131040573120e-02,-8.101842552423477173e-02,1.343620102852582932e-02,4.575568810105323792e-02,-2.478999830782413483e-02,1.474521029740571976e-02,-7.766371127218008041e-03,-5.179055407643318176e-02,-8.706525899469852448e-03,-6.144364364445209503e-03,-4.017255827784538269e-02,-6.255148327909410000e-04,7.324839383363723755e-02,-2.292510122060775757e-02,3.193205595016479492e-02,-6.177539937198162079e-03,6.175007298588752747e-02,5.587224662303924561e-02,-1.995958853513002396e-03,6.836199760437011719e-02,-2.615259774029254913e-02,-7.898037135601043701e-02,5.511112883687019348e-02,7.237298041582107544e-02,-7.366476953029632568e-02,8.371252566576004028e-03,-2.028164267539978027e-02,-2.481656614691019058e-03,-2.449790760874748230e-02,5.868202075362205505e-02,6.715603917837142944e-02,2.700585871934890747e-02,-4.269102215766906738e-02,-4.756162688136100769e-02,-4.383810609579086304e-02,-5.507145076990127563e-02,7.123278826475143433e-02,5.043764039874076843e-02,-7.215667515993118286e-02,-2.408420108258724213e-02,7.197113335132598877e-02,-7.268889807164669037e-03,2.774318493902683258e-02,-3.575250506401062012e-02,-3.879787027835845947e-02,-2.295693010091781616e-02,2.392019890248775482e-02,-5.705880466848611832e-03,-8.152136951684951782e-02,-7.797949016094207764e-03,-3.511361777782440186e-02,1.068858709186315536e-02,8.417832665145397186e-03,-1.428898237645626068e-02,3.317215666174888611e-02,-3.452295437455177307e-03,-4.122193902730941772e-02,-7.034601271152496338e-02,3.321779519319534302e-02,-5.102111771702766418e-02,-6.919329613447189331e-02,1.007631234824657440e-02,6.497319787740707397e-02,-3.730094432830810547e-02,6.252638529986143112e-03,7.790193706750869751e-02,4.608169570565223694e-02,1.701455004513263702e-02,-8.280795812606811523e-02,-2.308023907244205475e-02,1.536456216126680374e-02,7.121953368186950684e-02,4.874951392412185669e-02,-1.682965084910392761e-02,-4.939565435051918030e-02,1.012851297855377197e-02,5.878666415810585022e-03,-8.511678129434585571e-02,-2.714045159518718719e-02,6.966472417116165161e-02,-5.700154602527618408e-02,1.122629642486572266e-02,1.232151407748460770e-02,2.262558788061141968e-02,8.289153873920440674e-02,-2.194071374833583832e-02,6.685909628868103027e-02,6.847882177680730820e-03,7.599580287933349609e-02,8.393055200576782227e-02,7.479970157146453857e-02,-5.555177107453346252e-02,-3.681865334510803223e-02,-3.068860806524753571e-02,7.150321733206510544e-03,-1.528301741927862167e-02,-3.845798596739768982e-02,4.011464118957519531e-02,1.650612987577915192e-02,-1.957544684410095215e-02,-8.886145800352096558e-02,1.620422117412090302e-02,-1.884599216282367706e-02,2.792751044034957886e-02,-3.028402291238307953e-02,-4.032431170344352722e-02,-8.607232570648193359e-02,1.580788940191268921e-02,-2.372371591627597809e-02,1.401845645159482956e-02,-8.482750505208969116e-02,4.523937590420246124e-03,3.465956449508666992e-02,-8.999854326248168945e-02,-2.262704633176326752e-02,-3.259684517979621887e-02,-3.938571363687515259e-02,9.280834347009658813e-02,-3.761169314384460449e-02,-6.343143433332443237e-02,-2.764403447508811951e-02,4.217230528593063354e-02,5.803926661610603333e-02,8.612620644271373749e-03,3.462283313274383545e-02,-5.949446558952331543e-02,-5.153432022780179977e-03,4.532529413700103760e-02,4.383867979049682617e-02,-1.587509922683238983e-02,2.883988432586193085e-02,-3.534341230988502502e-02,7.237101346254348755e-02,-7.750085741281509399e-02,7.320517301559448242e-02,1.084826141595840454e-02,2.925800904631614685e-02,3.280332311987876892e-02,-4.851683601737022400e-02,-3.315445780754089355e-02,-8.608738891780376434e-03,2.538594044744968414e-02,6.770684570074081421e-02,-4.339764267206192017e-02,-5.743803083896636963e-02,-1.146582234650850296e-02,4.611815884709358215e-02,-7.576583325862884521e-02,3.319634497165679932e-02,-5.890834704041481018e-02,1.997079001739621162e-03,6.063567474484443665e-02,3.672308474779129028e-02,-1.030307933688163757e-01,2.040355093777179718e-02,4.561156406998634338e-02,4.801161587238311768e-02,5.521651357412338257e-02,-1.167565770447254181e-02,6.387859117239713669e-03,-3.872239589691162109e-02,6.495214998722076416e-02,-8.555768057703971863e-03,-6.967815756797790527e-02,-1.041547432541847229e-01,-5.428060516715049744e-02,-3.186600655317306519e-02,-6.544617563486099243e-02,5.632783845067024231e-02,-7.181955873966217041e-02,-5.653936043381690979e-02,-6.326960772275924683e-02,-4.105704650282859802e-02,5.323911458253860474e-02,6.727956235408782959e-02,8.817758643999695778e-04,-3.715996816754341125e-02,-9.941419959068298340e-02,2.090597525238990784e-02,6.072517484426498413e-02,1.599110290408134460e-02,9.076917544007301331e-03,-4.540191218256950378e-02,-9.752617916092276573e-04,3.376092389225959778e-02,2.492720820009708405e-02,-5.903109908103942871e-03,9.027416817843914032e-03,-9.406145662069320679e-02,1.716919802129268646e-02,-7.055007666349411011e-02,-1.046405807137489319e-01,7.170835044234991074e-03,3.203114261850714684e-03,-6.676764786243438721e-02,8.078747987747192383e-02,-4.281955584883689880e-02,-1.453389320522546768e-02,-1.428432762622833252e-02,3.615668416023254395e-02,-5.415748059749603271e-02,2.015271969139575958e-02,4.919170960783958435e-02,-2.639121934771537781e-02,1.946571841835975647e-02,4.593804478645324707e-02,1.573818968608975410e-03,2.049194648861885071e-02,-8.049073629081249237e-03,-8.224242180585861206e-02,2.947315573692321777e-03,-3.477032482624053955e-02,-5.256323888897895813e-02,-9.690784662961959839e-02,-1.620597019791603088e-02,-3.382299095392227173e-02,-3.481183201074600220e-02,5.678746849298477173e-02,-3.496819362044334412e-02,4.493932798504829407e-02,-8.928252756595611572e-02,-6.377118825912475586e-02,4.770138114690780640e-02,-1.748340204358100891e-02,-1.728509366512298584e-02,-7.583042979240417480e-02,-8.735575526952743530e-02,8.435975760221481323e-02,-6.761214137077331543e-02,-4.832523316144943237e-02,-5.767848808318376541e-03,6.026542931795120239e-02,7.214672863483428955e-02,-3.753128647804260254e-02,5.107493698596954346e-02,-8.120197802782058716e-02,4.002624005079269409e-02,1.908172480762004852e-02,-8.074557781219482422e-02,1.160552911460399628e-02,-3.709126636385917664e-02,5.979124456644058228e-02,-3.631646558642387390e-02,-4.129425808787345886e-02,2.642529830336570740e-02,4.398653283715248108e-02,6.141236796975135803e-02,-4.776712507009506226e-03,9.861585497856140137e-02,-5.787843465805053711e-02,-6.147908791899681091e-02,1.768365502357482910e-02,2.057357318699359894e-02,-7.452601939439773560e-02,5.112044513225555420e-02,3.531353920698165894e-02,-1.704888045787811279e-02,3.733862191438674927e-03,1.636851957300677896e-04,-6.833964586257934570e-02,-5.538633558899164200e-03,4.131711646914482117e-02,-5.314270779490470886e-02,-5.126450583338737488e-02,-1.269896142184734344e-02,-1.178224943578243256e-02,-6.504984200000762939e-02,2.940234541893005371e-02,2.977109886705875397e-02,-4.196478798985481262e-02,5.519321188330650330e-02,6.186626479029655457e-02,5.584792420268058777e-02,-4.369142651557922363e-02,-6.053789705038070679e-02,5.756743624806404114e-02,2.150835841894149780e-02,4.123839549720287323e-03,-3.906407207250595093e-02,-2.881296910345554352e-02,1.715128123760223389e-02,-1.311396993696689606e-02,-1.035427078604698181e-01,6.492240820080041885e-03,2.287385798990726471e-02,-4.463588446378707886e-02,6.268917024135589600e-02,-2.374475076794624329e-02,2.964228857308626175e-03,-1.125338394194841385e-02,5.945104733109474182e-02,8.245136588811874390e-02,5.071838386356830597e-03,1.687723211944103241e-02,5.166485160589218140e-02,-2.490856871008872986e-02,-6.595230102539062500e-02,-2.764044515788555145e-02,-2.686247462406754494e-03,-6.746432185173034668e-02,4.767960682511329651e-02,1.529260538518428802e-02,-2.587596699595451355e-02,-8.751312643289566040e-02,5.961987748742103577e-02,2.265001833438873291e-02,2.297331579029560089e-02,-2.919413521885871887e-02,6.801249831914901733e-02,-3.842982649803161621e-02,5.897703766822814941e-02,-6.194964051246643066e-02,4.162551462650299072e-02,-1.399253308773040771e-02,-6.807491183280944824e-02,-9.240227192640304565e-02,2.412764541804790497e-02,-2.718681097030639648e-02,-4.683118313550949097e-02,1.053628791123628616e-02,-1.921262592077255249e-02,-3.440016880631446838e-02,5.126687884330749512e-02,2.690551616251468658e-02,-4.361254349350929260e-02,2.351247332990169525e-02,-7.877989858388900757e-02,-8.486615866422653198e-02,2.791422978043556213e-02,-9.908832609653472900e-03,-3.682158514857292175e-02,-7.467307150363922119e-03,-6.719405204057693481e-02,-1.486741658300161362e-02,2.729073725640773773e-02,4.993346706032752991e-02,-4.853941127657890320e-02,-2.841030806303024292e-02,4.883687198162078857e-02,-8.330335468053817749e-02,8.092408627271652222e-02,-9.639901667833328247e-02,5.535691604018211365e-02,-2.899506315588951111e-02,-6.853421218693256378e-04,-2.618260867893695831e-02,5.753142386674880981e-02,7.858286052942276001e-02,-9.658657945692539215e-03,-9.311643987894058228e-02,6.401241570711135864e-02,1.479587517678737640e-02,-3.025306388735771179e-02,-1.660628616809844971e-02,-6.187433004379272461e-02,-2.320424467325210571e-02,-1.434331852942705154e-02,-3.774572163820266724e-02,3.106508404016494751e-02,-6.977780163288116455e-02,-7.438770681619644165e-02,-7.297466695308685303e-02,3.796384844463318586e-04,1.232831925153732300e-02,-8.425655774772167206e-03,-5.906962230801582336e-02,2.047125622630119324e-02,-5.213184654712677002e-02,-8.071587979793548584e-02,-4.505225643515586853e-02,1.363039575517177582e-02,-1.049269512295722961e-01,9.888790547847747803e-03,-4.527216777205467224e-02,-1.128256507217884064e-02,7.529845833778381348e-02,1.211773697286844254e-02,4.466821998357772827e-02,-3.108114562928676605e-02,-1.041557639837265015e-01,-1.381299179047346115e-02,3.596831485629081726e-02,-1.983484812080860138e-02,-5.332940444350242615e-02,4.597333073616027832e-02,1.707825064659118652e-02,-8.415350690484046936e-03,-5.418804287910461426e-02,4.590629041194915771e-02,-4.274492617696523666e-03,-3.824873268604278564e-02,-5.992935225367546082e-02,2.228338271379470825e-02,-3.310839459300041199e-02,1.786783896386623383e-02,2.277827635407447815e-02,-2.913279458880424500e-02,6.288259476423263550e-02,6.750648375600576401e-03,-7.310494780540466309e-02,-5.924031510949134827e-02,-7.159141451120376587e-02,-2.805981226265430450e-02,2.660986781120300293e-02,-4.426097497344017029e-03,3.472446650266647339e-02,3.615313768386840820e-02
-1.149462349712848663e-02,5.304422602057456970e-02,-3.192440047860145569e-02,-8.447174727916717529e-02,-5.665671080350875854e-03,2.632880932651460171e-04,-5.449831858277320862e-02,-3.388239128980785608e-04,-4.450653120875358582e-02,6.010565534234046936e-02,8.380591869354248047e-03,3.918555751442909241e-02,-2.017010934650897980e-02,4.779576510190963745e-02,5.868693441152572632e-02,-4.537646844983100891e-02,-3.257694840431213379e-02,3.326207771897315979e-02,-8.796362206339836121e-03,-1.264302991330623627e-04,-7.104404270648956299e-02,4.351318255066871643e-02,-1.389936776831746101e-03,-2.895199693739414215e-03,-1.119776934501715004e-04,2.298461832106113434e-02,9.206183254718780518e-03,-3.703845292329788208e-02,-1.108719315379858017e-02,-2.990091964602470398e-02,-1.120158238336443901e-03,7.044466212391853333e-03,-5.362078920006752014e-02,1.255534868687391281e-02,-1.150720054283738136e-03,2.312732860445976257e-02,8.536657696822658181e-05,-3.324324265122413635e-02,-2.732159337028861046e-04,1.060994621366262436e-02,8.861903846263885498e-02,6.258469540625810623e-03,-6.958992779254913330e-02,3.752361610531806946e-02,1.306111644953489304e-02,1.102339662611484528e-02,-6.030200980603694916e-03,1.727830059826374054e-02,-6.972446572035551071e-04,-1.592219050507992506e-04,2.399056963622570038e-02,3.862334042787551880e-02,-7.854522205889225006e-03,-3.009719029068946838e-02,1.046433390001766384e-04,-3.087525069713592529e-02,-5.195537954568862915e-02,2.823757007718086243e-03,3.685873001813888550e-02,3.591454029083251953e-02,-3.466417640447616577e-02,-6.860923022031784058e-02,-2.266348106786608696e-03,4.401530697941780090e-02,4.635236784815788269e-02,-1.542994379997253418e-02,-4.172574728727340698e-03,-6.686235964298248291e-02,-2.959059551358222961e-02,-1.256837230175733566e-02,1.076713553629815578e-03,7.212747633457183838e-02,5.595832318067550659e-02,3.735974803566932678e-02,4.848600365221500397e-04,-4.634035378694534302e-02,-7.689516246318817139e-02,-5.285113677382469177e-02,-5.957877263426780701e-02,-4.891616106033325195e-02,-4.703659506049007177e-04,5.891147628426551819e-02,7.213100045919418335e-02,1.423350628465414047e-02,-3.703269362449645996e-02,-4.428880661725997925e-02,5.834535695612430573e-04,-3.045507706701755524e-02,-6.378220277838408947e-04,7.886031270027160645e-02,-1.481185015290975571e-02,4.532022867351770401e-03,-1.384519133716821671e-02,-3.291773796081542969e-02,1.069558262825012207e-01,2.696128748357295990e-02,-7.953986525535583496e-02,-4.858254268765449524e-02,-9.594553709030151367e-02,3.288896405138075352e-04,3.496087715029716492e-02,3.306609392166137695e-02,7.291619665920734406e-03,7.543626427650451660e-02,-5.398209323175251484e-04,-3.351266682147979736e-02,-1.847887039184570312e-02,7.919858908280730247e-04,2.119846642017364502e-02,3.057004883885383606e-02,-5.915880948305130005e-02,-2.108614332973957062e-02,-2.000139839947223663e-02,-5.333947017788887024e-02,-7.983249425888061523e-02,-4.114771634340286255e-02,7.687564473599195480e-03,1.105161942541599274e-02,-1.562623679637908936e-02,5.163989216089248657e-02,3.097924590110778809e-02,7.822170108556747437e-02,2.921367250382900238e-02,2.983611449599266052e-02,1.870732195675373077e-02,3.344269469380378723e-02,3.446369990706443787e-02,7.571062451461330056e-05,5.596496164798736572e-02,5.097796022891998291e-02,3.490667790174484253e-02,4.845887050032615662e-02,-3.563142614439129829e-03,-7.812339067459106445e-02,7.195919007062911987e-02,1.142829132732003927e-04,-1.337567158043384552e-02,5.952747538685798645e-02,3.143220394849777222e-02,2.749503590166568756e-03,6.494464725255966187e-02,4.025576263666152954e-02,-6.464941054582595825e-02,-1.699338853359222412e-02,9.450897574424743652e-03,-1.115959137678146362e-01,1.969092153012752533e-02,7.203422486782073975e-02,2.750213816761970520e-02,-1.166003197431564331e-02,-7.159250974655151367e-02,-5.268871784210205078e-02,4.675613343715667725e-02,-6.795314699411392212e-02,-1.078563742339611053e-02,-5.307173728942871094e-02,-7.300076633691787720e-02,-6.288825720548629761e-02,-3.801353450398892164e-04,-1.148257926106452942e-01,-7.794909924268722534e-02,-2.772542834281921387e-02,1.533619780093431473e-02,-4.403349594213068485e-04,4.424367798492312431e-04,-4.241982940584421158e-03,-5.567098269239068031e-04,3.615272790193557739e-02,-6.804508715867996216e-02,-6.905923131853342056e-03,1.290534995496273041e-02,2.654730714857578278e-02,-8.298924658447504044e-04,-6.566025316715240479e-02,1.125378534197807312e-02,4.660916328430175781e-02,8.893128484487533569e-03,2.101831341860815883e-04,-1.568109355866909027e-02,-2.236906252801418304e-02,3.689300268888473511e-02,2.527516335248947144e-02,2.272838540375232697e-02,-5.588337779045104980e-02,-1.822314597666263580e-02,-1.140978559851646423e-02,-7.393410801887512207e-02,8.344620466232299805e-02,-8.413019776344299316e-02,1.513489708304405212e-02,9.918416850268840790e-03,-7.125847041606903076e-02,6.010770425200462341e-02,-4.079520702362060547e-03,-1.748803257942199707e-02,-6.877463310956954956e-02,-3.961141337640583515e-04,-1.774360425770282745e-02,2.534775622189044952e-02,2.467695251107215881e-02,-4.322027321904897690e-03,6.613226234912872314e-02,1.211857423186302185e-02,-2.020791405811905861e-03,-2.127737738192081451e-02,2.367044240236282349e-02,2.829083055257797241e-02,-9.127303492277860641e-04,2.243886329233646393e-02,-2.825034037232398987e-02,-9.829133050516247749e-04,2.502926217857748270e-04,-4.716616496443748474e-02,5.487361922860145569e-02,-4.882969369646161795e-05,5.323181673884391785e-02,9.550163894891738892e-02,-5.148309469223022461e-02,-2.878027223050594330e-02,9.319712966680526733e-02,7.806278765201568604e-02,-4.061677679419517517e-02,-7.557997852563858032e-02,-6.604068726301193237e-02,-1.013103779405355453e-02,4.545386880636215210e-02,1.410018000751733780e-02,-6.914757192134857178e-02,-5.968290194869041443e-02,-3.960282541811466217e-03,-3.315728530287742615e-02,3.183348802849650383e-03,3.934779390692710876e-02,-4.173917695879936218e-02,3.550736233592033386e-02,3.380874171853065491e-02,-6.646549701690673828e-02,4.009162634611129761e-02,-2.781810984015464783e-02,5.453549697995185852e-02,-8.019221015274524689e-03,-1.011807918548583984e-01,-2.484356984496116638e-02,-3.932108730077743530e-02,6.297663785517215729e-03,-6.143072992563247681e-02,-4.409324750304222107e-02,2.729391306638717651e-02,-1.935189357027411461e-03,-1.920391991734504700e-02,-2.147516608238220215e-02,-5.575839057564735413e-02,4.705527052283287048e-02,3.555474177119322121e-05,-5.573712289333343506e-02,2.436950453557074070e-04,7.897860370576381683e-03,5.331544205546379089e-02,-3.438118100166320801e-02,-4.445042833685874939e-02,2.847007475793361664e-02,1.176352575421333313e-01,-5.433620885014533997e-02,-1.325046032434329391e-04,2.932089939713478088e-02,-5.688898637890815735e-02,-8.637911523692309856e-04,-2.314860559999942780e-02,-1.028991267085075378e-01,-3.859258070588111877e-02,-5.052802711725234985e-02,-3.308974578976631165e-02,-4.685556143522262573e-02,7.038455456495285034e-02,-4.614870995283126831e-02,4.225984215736389160e-03,5.235903710126876831e-02,5.022163037210702896e-03,3.964733704924583435e-02,-2.508858777582645416e-02,2.088907174766063690e-02,5.226270761340856552e-03,-2.181824311264790595e-05,1.951479353010654449e-02,-5.282963626086711884e-03,-4.153866693377494812e-02,6.895584519952535629e-04,4.899426177144050598e-02,2.390227280557155609e-02,2.505073137581348419e-02,-5.003869161009788513e-02,8.541650325059890747e-02,4.781704410561360419e-05,-4.518030211329460144e-02,5.134907551109790802e-04,2.511944435536861420e-02,1.528304070234298706e-02,1.372007653117179871e-02,-6.613171845674514771e-02,-2.555131912231445312e-02,-9.530528448522090912e-03,4.748295620083808899e-02,-3.199247643351554871e-02,-2.069127559661865234e-02,4.262978583574295044e-02,1.254604721907526255e-04,-1.651696627959609032e-03,5.380587279796600342e-02,3.601580113172531128e-02,-8.252770639955997467e-03,-7.200283929705619812e-03,-4.591378569602966309e-02,7.036916166543960571e-02,-3.588478639721870422e-02,-6.697655469179153442e-02,-2.227988839149475098e-02,5.427831038832664490e-02,-5.051695276051759720e-03,4.136694129556417465e-03,-3.973703831434249878e-02,-1.739276014268398285e-02,-4.761511087417602539e-02,-4.264966025948524475e-02,-1.150019699707627296e-03,-6.065690517425537109e-02,5.271740257740020752e-02,-1.361079484922811389e-04,9.734552353620529175e-02,5.545927211642265320e-02,5.375911481678485870e-03,-6.456072628498077393e-02,-2.593729645013809204e-02,-5.045293644070625305e-02,-3.831398207694292068e-03,-1.910391962155699730e-03,-5.073279514908790588e-02,-4.997469950467348099e-04,6.325135380029678345e-02,-1.855380833148956299e-02,-7.231552153825759888e-02,-3.455918282270431519e-02,3.491563722491264343e-02,2.262652124045416713e-04,2.279155142605304718e-02,-4.610829055309295654e-02,-6.068910658359527588e-02,-1.847355812788009644e-02,2.615987323224544525e-02,-4.507023096084594727e-02,-8.229778707027435303e-02,9.843636304140090942e-02,4.283171147108078003e-02,-1.399305742233991623e-02,-6.681638956069946289e-02,7.435873150825500488e-03,2.017411775887012482e-02,7.300254702568054199e-02,1.775146462023258209e-02,2.960332483053207397e-02,3.784564509987831116e-02,-2.203347533941268921e-02,3.665585443377494812e-02,2.633119747042655945e-02,-6.802975386381149292e-02,6.469471752643585205e-02,-1.162486337125301361e-02,5.171684920787811279e-02,-7.707000244408845901e-03,-2.301539666950702667e-02,-5.671486631035804749e-02,-5.282434821128845215e-02,-8.342612534761428833e-02,-1.288091577589511871e-02,2.624432183802127838e-02,3.948484081774950027e-03,2.576523274183273315e-02,-1.499661616981029510e-02,-5.530730634927749634e-02,8.807101286947727203e-03,-5.768210068345069885e-02,-3.732202947139739990e-02,2.176210982725024223e-03,3.951816819608211517e-03,6.965552165638655424e-05,-1.524889026768505573e-03,4.723805561661720276e-02,-5.153271555900573730e-02,-6.827235966920852661e-02,-1.053264643996953964e-02,8.993273228406906128e-02,7.681819051504135132e-02,-2.853645011782646179e-02,5.484070256352424622e-02,4.835510253906250000e-02,-3.318867087364196777e-02,3.171676024794578552e-02,3.571070358157157898e-02,4.889965429902076721e-02,7.104843109846115112e-02,-9.980241209268569946e-02,-3.009059280157089233e-02,9.236013889312744141e-02,5.440643872134387493e-04,-1.064692139625549316e-01,1.974832266569137573e-02,3.927285969257354736e-02,4.340664669871330261e-02,-1.709747686982154846e-02,-7.885740697383880615e-02,-4.069383442401885986e-02,1.406857278198003769e-03,-3.696586564183235168e-02,-6.182534620165824890e-02,-2.344891056418418884e-02,-3.446175530552864075e-02,3.076244704425334930e-02,1.476624398492276669e-03,7.100819796323776245e-02,4.304139316082000732e-02,5.712783709168434143e-02,1.983102224767208099e-02,7.076762616634368896e-03,-1.108620241284370422e-01,2.935506962239742279e-02,-1.926973275840282440e-02,-4.840024933218955994e-02,1.234022807329893112e-02,1.367504801601171494e-02,-6.050389260053634644e-02,9.450910240411758423e-02,4.529970139265060425e-02,4.843744263052940369e-02,2.082383632659912109e-02,-6.609944999217987061e-02,3.146931156516075134e-02,3.310013934969902039e-02,-2.846356853842735291e-02,4.144309088587760925e-02,1.134934369474649429e-02,-8.108593523502349854e-02,-1.779631897807121277e-02,1.165985781699419022e-02,-1.636066101491451263e-02,4.046445339918136597e-02,-5.204080138355493546e-03,-4.044055193662643433e-02,-4.600713402032852173e-02,1.681870594620704651e-02,-6.197308376431465149e-02,-5.747031792998313904e-02,-2.525473572313785553e-02,-6.473365426063537598e-02,-7.243680208921432495e-02,-5.982609945931471884e-05,1.375420205295085907e-02,4.127157852053642273e-02,1.424878649413585663e-02,1.137037295848131180e-02,-5.326202139258384705e-02,2.685336582362651825e-02,-7.840065658092498779e-02,-2.233301848173141479e-02,-8.296047151088714600e-02,6.825343240052461624e-03,-2.495333179831504822e-02,1.057901084423065186e-01,2.403696440160274506e-02,2.964788302779197693e-02,4.867605492472648621e-02,-2.594041079282760620e-02,9.392639994621276855e-02,-3.753968328237533569e-02,-9.740418195724487305e-02,3.949346765875816345e-02,-6.219329312443733215e-02,-1.720884814858436584e-02,-6.549701839685440063e-02,-1.008215397596359253e-01,-3.127323836088180542e-02,-1.820272952318191528e-02,2.130792662501335144e-02,-5.165848135948181152e-02,-5.306429043412208557e-02,-6.807658821344375610e-02,-1.242780406028032303e-02,-5.054157972335815430e-02,-4.675334319472312927e-02,9.205199033021926880e-02,-3.803125023841857910e-02,2.043070457875728607e-02,4.625174775719642639e-02,-8.835190534591674805e-02,-3.268704935908317566e-02,8.293814957141876221e-03,-7.678326964378356934e-02,-1.756815426051616669e-02,3.648490086197853088e-02,-5.622196476906538010e-04,-9.506627172231674194e-02,-1.011029630899429321e-01,2.991391578689217567e-03,-7.379896938800811768e-02,8.556073531508445740e-03,8.196859061717987061e-02,4.745228961110115051e-02,7.337076961994171143e-02,2.762569673359394073e-02,-1.003750227391719818e-02,2.634186670184135437e-02,3.972658514976501465e-02,6.771044433116912842e-02,1.123803388327360153e-02
1.723212422803044319e-03,-3.895246237516403198e-02,5.053557083010673523e-02,-9.902214631438255310e-03,6.514142453670501709e-02,-4.533107578754425049e-02,-9.356258809566497803e-02,-5.190748721361160278e-02,7.499790191650390625e-02,-8.489053696393966675e-02,-8.355548977851867676e-02,-7.520141452550888062e-02,5.537075921893119812e-02,6.277267355471849442e-03,-3.100153058767318726e-02,9.798084199428558350e-02,-7.321469485759735107e-02,8.992287516593933105e-02,3.956867381930351257e-02,-1.784343086183071136e-02,-4.653770104050636292e-02,-6.810153275728225708e-02,-3.097447007894515991e-02,-6.750922650098800659e-02,-3.370267525315284729e-02,-2.311360463500022888e-02,-1.037416905164718628e-01,-1.253303885459899902e-02,5.785163864493370056e-02,4.089398309588432312e-02,1.010955311357975006e-02,-3.837494179606437683e-02,6.292695552110671997e-02,3.952227532863616943e-02,-3.298398107290267944e-02,2.854127809405326843e-02,1.105867326259613037e-02,2.245095558464527130e-02,1.401369110681116581e-03,1.860271953046321869e-02,3.676368156448006630e-03,-1.184710767120122910e-03,-1.335945166647434235e-02,-8.513568341732025146e-02,-4.311406239867210388e-02,-7.742170244455337524e-02,-6.175248324871063232e-02,-4.535722732543945312e-02,7.235999219119548798e-03,5.321542918682098389e-02,-5.919483304023742676e-02,-4.424981400370597839e-02,1.736078970134258270e-02,2.140009589493274689e-02,-5.232013016939163208e-02,2.844859287142753601e-02,-7.541270554065704346e-02,1.734412088990211487e-02,6.967436522245407104e-02,3.092074394226074219e-02,-5.457766819745302200e-03,3.787215426564216614e-02,5.860337987542152405e-02,6.957751233130693436e-03,-5.437890999019145966e-03,6.598901003599166870e-02,-7.184206694364547729e-02,5.023045092821121216e-02,-6.764597445726394653e-02,-9.557621181011199951e-02,-7.400059700012207031e-02,-4.254443570971488953e-02,6.462555378675460815e-02,4.814936220645904541e-02,-9.247305244207382202e-02,-3.377414494752883911e-02,3.283276455476880074e-03,-8.374267816543579102e-02,7.041112333536148071e-02,-1.685684174299240112e-02,3.764839097857475281e-02,-4.136543348431587219e-02,3.474452346563339233e-02,-2.048637904226779938e-02,-5.993519350886344910e-02,-4.942690953612327576e-03,4.815356340259313583e-03,-5.144315958023071289e-02,4.120840132236480713e-02,-3.845030441880226135e-02,-4.653131589293479919e-02,5.189941823482513428e-02,3.652920247986912727e-03,-7.395178079605102539e-02,-4.732788726687431335e-02,4.324429109692573547e-02,-5.895428732037544250e-02,1.006652973592281342e-02,2.201259881258010864e-02,1.709330943413078785e-03,4.327461868524551392e-02,3.269523009657859802e-02,5.170829899725504220e-05,7.523085805587470531e-04,-8.070205897092819214e-02,5.507973954081535339e-02,-2.440995350480079651e-02,5.239970516413450241e-03,4.682073369622230530e-02,-7.334950566291809082e-02,-2.143301628530025482e-02,-3.043293766677379608e-02,-4.617862286977469921e-04,-1.794513687491416931e-02,1.423180662095546722e-02,-5.386024340987205505e-02,-1.495905406773090363e-02,5.644952878355979919e-02,6.659107655286788940e-02,7.238308340311050415e-02,-4.085585102438926697e-02,-7.536119967699050903e-02,4.611806478351354599e-03,-4.506920278072357178e-02,6.420229910872876644e-04,-3.161402791738510132e-02,7.780528813600540161e-02,-2.343031577765941620e-02,-3.574038855731487274e-03,2.094091847538948059e-02,3.921437077224254608e-03,-1.534847659058868885e-03,-2.451821044087409973e-02,-8.145104348659515381e-02,8.793376386165618896e-02,-1.232605194672942162e-03,3.252471238374710083e-02,5.336381867527961731e-02,9.855343960225582123e-03,8.589480072259902954e-02,-5.724224075675010681e-02,-8.614312112331390381e-02,-6.111369654536247253e-02,-2.262648940086364746e-02,1.060638297349214554e-02,2.770786918699741364e-02,7.285977154970169067e-02,-3.450063243508338928e-02,7.079499308019876480e-03,2.689078263938426971e-02,3.673740476369857788e-02,-1.256460510194301605e-02,-7.851128280162811279e-02,3.051083534955978394e-02,4.174132645130157471e-02,5.067297443747520447e-02,-1.173778343945741653e-02,4.453660175204277039e-02,-4.193696659058332443e-03,1.761303283274173737e-02,5.619639158248901367e-02,8.562419563531875610e-02,2.955715171992778778e-02,3.883693739771842957e-02,-9.150525555014610291e-03,-5.508187040686607361e-02,9.113332256674766541e-03,1.313112559728324413e-03,-5.379530787467956543e-02,1.020281948149204254e-02,-5.142912268638610840e-02,6.129425019025802612e-02,3.466199338436126709e-02,-8.886481821537017822e-02,7.378529291599988937e-03,5.991501361131668091e-02,-5.948055535554885864e-02,-2.386594278505071998e-04,-5.997728183865547180e-02,6.354141235351562500e-02,-2.045305818319320679e-02,-4.622861742973327637e-03,-6.996705662459135056e-03,3.641013801097869873e-02,6.540913134813308716e-02,-5.761671066284179688e-02,4.784223064780235291e-02,-4.083476494997739792e-03,-7.235413789749145508e-02,8.825682103633880615e-03,-8.202367462217807770e-03,-2.278516814112663269e-02,-2.248615585267543793e-02,2.612844295799732208e-02,4.056332632899284363e-03,-1.296738255769014359e-02,3.782306239008903503e-02,-8.539095520973205566e-03,-7.745555788278579712e-02,-4.372072592377662659e-02,1.216932106763124466e-02,2.457806468009948730e-02,2.852578647434711456e-03,5.041917040944099426e-02,3.141720220446586609e-02,-4.347534850239753723e-02,5.129220709204673767e-02,7.779072620905935764e-04,8.421172201633453369e-02,-7.080608606338500977e-02,-2.175277844071388245e-02,1.765055581927299500e-02,-5.422487109899520874e-02,4.479805752635002136e-02,4.351245705038309097e-03,7.874049246311187744e-02,4.733038321137428284e-02,1.090167462825775146e-02,-2.677947096526622772e-02,5.889932066202163696e-02,-6.284490972757339478e-02,-1.076293513178825378e-01,8.254543878138065338e-03,-7.435025274753570557e-02,-9.316049516201019287e-02,2.836428023874759674e-02,-7.630588859319686890e-02,3.034118749201297760e-02,-8.327396959066390991e-02,6.722897291183471680e-02,8.163547143340110779e-03,-3.385972976684570312e-02,-2.620426937937736511e-02,2.695002593100070953e-02,8.529620617628097534e-02,9.924830868840217590e-03,5.106933167553506792e-05,1.153688505291938782e-02,-1.734163053333759308e-02,-1.811016350984573364e-02,-3.837844729423522949e-02,-8.664927631616592407e-02,-8.345040678977966309e-02,-6.306685507297515869e-02,-1.779770292341709137e-02,-5.426940321922302246e-02,-3.673812747001647949e-02,-5.303770303726196289e-02,-5.046311020851135254e-02,5.071065574884414673e-02,1.590371131896972656e-02,-1.183726917952299118e-02,3.347418271005153656e-03,6.011569499969482422e-02,-4.802966117858886719e-02,-9.023247403092682362e-04,-9.231203794479370117e-02,-4.695393145084381104e-02,3.702419623732566833e-02,-6.696835905313491821e-02,6.374523043632507324e-02,-2.652705274522304535e-02,-3.229724243283271790e-02,5.810261890292167664e-02,4.504996351897716522e-03,-5.845381692051887512e-02,-7.042804360389709473e-02,1.076024547219276428e-01,-1.636640727519989014e-02,-1.031977031379938126e-02,3.293310850858688354e-02,-5.451531335711479187e-02,-2.512094751000404358e-02,1.517377514392137527e-02,-3.889519348740577698e-02,-3.673965111374855042e-02,9.850540757179260254e-02,-7.055877149105072021e-02,1.001478731632232666e-01,-5.356336012482643127e-02,3.954023867845535278e-02,6.085084751248359680e-02,-7.816486805677413940e-02,1.940801180899143219e-02,-5.622996762394905090e-02,2.854399010539054871e-02,-9.420146234333515167e-03,3.592473454773426056e-03,-7.083638757467269897e-02,7.404917478561401367e-02,5.192874744534492493e-02,-4.911525547504425049e-02,-1.931244134902954102e-02,3.500455617904663086e-02,2.815134264528751373e-02,-3.694399818778038025e-02,-3.251012787222862244e-02,7.388381659984588623e-02,-4.095846787095069885e-02,3.489313274621963501e-02,-1.136675104498863220e-02,-3.700566291809082031e-02,7.724819332361221313e-02,3.674677014350891113e-02,3.147098049521446228e-02,-6.532080937176942825e-03,-3.364991396665573120e-02,4.370866343379020691e-03,8.595768362283706665e-02,1.763965934514999390e-02,4.631366953253746033e-02,-5.291253700852394104e-02,3.645159304141998291e-02,-7.023978233337402344e-02,4.453761503100395203e-02,7.620964199304580688e-02,2.001783065497875214e-02,-2.334158867597579956e-02,-9.479853510856628418e-02,2.721866220235824585e-02,-8.395458012819290161e-02,-7.381125539541244507e-02,-2.684642560780048370e-02,-2.129913680255413055e-02,2.664835192263126373e-02,2.985796704888343811e-02,-6.696258485317230225e-02,-5.369282141327857971e-02,7.165471464395523071e-02,4.760148376226425171e-02,-1.110507473349571228e-01,-8.433730155229568481e-02,-2.466575801372528076e-02,2.092331647872924805e-02,2.512585185468196869e-02,-1.410470576956868172e-03,7.623105309903621674e-03,3.739459440112113953e-02,-1.751293987035751343e-02,2.783410996198654175e-02,2.554973773658275604e-02,-5.626095458865165710e-02,9.463012218475341797e-03,1.630262657999992371e-02,-3.910733386874198914e-02,-5.105775967240333557e-02,7.384007424116134644e-02,-3.174846246838569641e-02,-5.067437142133712769e-02,-6.493303924798965454e-02,5.030767247080802917e-02,4.881219007074832916e-03,7.785191386938095093e-02,3.950369730591773987e-02,1.816997863352298737e-02,2.360836416482925415e-02,6.767377257347106934e-02,-7.398004084825515747e-02,-4.842992126941680908e-02,2.575253881514072418e-02,-4.581229761242866516e-02,-5.450531095266342163e-02,-6.643112003803253174e-02,6.989569962024688721e-02,1.979068480432033539e-02,-2.994306012988090515e-02,-6.342095881700515747e-02,-4.797122254967689514e-02,-5.093473941087722778e-02,-5.519392341375350952e-02,-3.522114455699920654e-02,-9.386571496725082397e-02,7.115051150321960449e-02,2.352364733815193176e-02,-7.054200768470764160e-02,2.972950786352157593e-02,-1.998900622129440308e-02,3.286720812320709229e-02,9.008724987506866455e-02,-2.988419495522975922e-03,7.190240547060966492e-03,3.365318104624748230e-02,-5.264368653297424316e-02,5.990345031023025513e-02,3.169515728950500488e-02,-4.564980790019035339e-02,-9.475394338369369507e-02,-8.610333502292633057e-02,-2.065845020115375519e-02,1.030774340033531189e-01,-3.934354335069656372e-02,-5.979833193123340607e-03,-2.437758259475231171e-02,9.236698970198631287e-03,-8.096741884946823120e-02,5.540190637111663818e-02,4.935333877801895142e-02,-2.365917712450027466e-02,3.168518841266632080e-02,5.102446302771568298e-02,-9.120360761880874634e-02,-4.933609440922737122e-02,-1.545681245625019073e-02,-9.739924967288970947e-02,-6.884267181158065796e-02,6.613597273826599121e-02,9.181207418441772461e-02,-6.364692747592926025e-02,-3.012249246239662170e-02,-9.102138876914978027e-02,6.537096202373504639e-02,-5.195293948054313660e-02,-7.876462489366531372e-02,5.476847290992736816e-02,-9.014590084552764893e-02,1.030656844377517700e-01,4.561822861433029175e-02,3.375282511115074158e-02,3.442192822694778442e-02,3.260887041687965393e-02,-1.041827723383903503e-02,-2.972786501049995422e-02,-1.073362827301025391e-01,-2.492577210068702698e-02,7.018212974071502686e-02,-2.869803085923194885e-02,1.850277371704578400e-02,4.798120260238647461e-02,7.610644400119781494e-02,-6.257297843694686890e-02,2.875375188887119293e-02,4.422332346439361572e-02,-9.208956360816955566e-02,1.450272463262081146e-02,3.765581175684928894e-02,-8.831954002380371094e-02,7.769219577312469482e-02,-1.121587585657835007e-02,-4.578085988759994507e-02,-4.908540844917297363e-02,-9.520380198955535889e-02,-4.923169687390327454e-02,-5.683504045009613037e-02,-6.599144637584686279e-02,3.722880408167839050e-02,-9.983973950147628784e-02,2.113851159811019897e-02,-8.157940953969955444e-02,5.986442044377326965e-02,1.638200879096984863e-02,-1.610497571527957916e-02,7.554657012224197388e-02,5.043397471308708191e-02,-3.093008324503898621e-02,-9.270878136157989502e-02,8.563373982906341553e-02,-7.441154122352600098e-02,-6.398848444223403931e-02,-7.975069433450698853e-02,1.145350188016891479e-02,-6.182118877768516541e-02,2.324107568711042404e-03,-4.408160224556922913e-03,7.933510094881057739e-02,-1.522472873330116272e-02,-7.014756649732589722e-02,-8.019827306270599365e-03,-4.060063511133193970e-02,3.066899254918098450e-03,3.967468440532684326e-02,-5.832315236330032349e-02,-1.879393123090267181e-02,-1.068318495526909828e-03,3.973062336444854736e-02,6.208121404051780701e-02,-1.266400236636400223e-02,-7.134524732828140259e-02,-3.000633791089057922e-02,-5.379490554332733154e-02,4.810343310236930847e-02,-7.031508535146713257e-02,7.186160422861576080e-03,-1.432486250996589661e-02,-3.622294217348098755e-02,7.275329530239105225e-02,7.053617388010025024e-02,6.280244886875152588e-02,-2.494463697075843811e-02,7.159011065959930420e-02,1.714417152106761932e-02,-4.266552627086639404e-02,2.302793972194194794e-02,8.016996830701828003e-02,6.328993290662765503e-02,4.903506860136985779e-02,-8.542075753211975098e-02,-8.142703771591186523e-02,-4.661174118518829346e-02,3.706054016947746277e-02,-2.134540863335132599e-02,1.476848497986793518e-02,3.419547900557518005e-02,-8.769933134317398071e-02,-3.858825936913490295e-02,-6.417263764888048172e-03,-3.330706432461738586e-02,-9.028441458940505981e-02,2.547720260918140411e-02,1.797619159333407879e-03,3.284391760826110840e-02,-7.631347514688968658e-03,-4.467191919684410095e-02
2.670811675488948822e-02,7.711702585220336914e-02,7.306165527552366257e-03,-4.803622514009475708e-02,7.779684662818908691e-02,-2.794734016060829163e-02,4.085655882954597473e-02,-6.171452812850475311e-03,-9.948650375008583069e-03,6.845817714929580688e-02,-1.152386516332626343e-02,3.070296533405780792e-02,-6.784353405237197876e-02,-7.096541672945022583e-02,-4.611381515860557556e-02,-4.735355079174041748e-02,-2.732669003307819366e-02,1.121180355548858643e-01,5.238956585526466370e-02,6.307984585873782635e-05,6.194137036800384521e-02,-2.191282436251640320e-02,-2.997682988643646240e-02,1.964208111166954041e-02,2.499796682968735695e-03,-4.256036877632141113e-02,-7.299742847681045532e-02,2.968071959912776947e-02,-4.170107468962669373e-02,-7.155777886509895325e-03,-8.187246567104011774e-05,8.020492643117904663e-02,3.912758827209472656e-02,-2.151256427168846130e-02,1.446732040494680405e-02,-3.830032423138618469e-02,-2.334601158509030938e-04,6.583682727068662643e-03,1.376362517476081848e-03,8.670320734381675720e-03,-5.449851509183645248e-03,3.281712159514427185e-02,3.356000036001205444e-02,1.102613634429872036e-03,3.540979325771331787e-02,6.617183983325958252e-02,5.910502746701240540e-03,5.879404488950967789e-03,1.933967135846614838e-02,-3.696695202961564064e-04,-5.555492267012596130e-02,3.609264642000198364e-02,6.157343462109565735e-02,5.937030166387557983e-02,-3.129256889224052429e-02,4.869079217314720154e-02,-6.367739289999008179e-02,-2.409038366749882698e-03,-7.067729532718658447e-02,8.441779762506484985e-02,3.797815740108489990e-02,-6.623266637325286865e-02,7.427688688039779663e-02,-1.552578806877136230e-02,-1.868406776338815689e-03,1.230125897563993931e-03,7.079143077135086060e-02,-4.011410847306251526e-02,-8.355404436588287354e-02,-7.520215213298797607e-02,-1.411224831826984882e-03,5.158719141036272049e-03,-7.832163572311401367e-02,-2.420199103653430939e-02,-5.878646671772003174e-02,9.785917587578296661e-03,3.793245181441307068e-02,-3.506827726960182190e-02,-6.493218243122100830e-02,-4.211667552590370178e-02,-1.119091408327221870e-03,7.600513100624084473e-02,3.574064001441001892e-02,-7.885291241109371185e-03,-6.218217778950929642e-03,3.605548664927482605e-02,-3.342777563375420868e-05,-1.445855759084224701e-02,-3.827004134654998779e-02,-5.640289932489395142e-02,-2.469794824719429016e-02,2.133602276444435120e-02,-7.951550185680389404e-02,-1.341838669031858444e-02,4.057702422142028809e-02,-1.226678863167762756e-02,-7.549553643912076950e-03,1.120692770928144455e-02,-2.712294086813926697e-02,6.666357815265655518e-02,9.735607355833053589e-02,-4.276799038052558899e-02,4.362293332815170288e-02,1.525430567562580109e-02,2.216529473662376404e-02,3.018522076308727264e-02,-3.559474647045135498e-02,5.169551447033882141e-02,6.550548970699310303e-02,-7.441014051437377930e-02,-4.149467125535011292e-02,1.974801905453205109e-02,-2.421141229569911957e-02,-4.698829725384712219e-02,-1.206958480179309845e-02,-3.994780033826828003e-02,5.801099911332130432e-02,7.622131146490573883e-03,-5.834941565990447998e-02,-2.939829975366592407e-02,-1.300774700939655304e-02,-7.586546242237091064e-03,5.707810446619987488e-02,-5.306746065616607666e-02,-2.565622702240943909e-02,-5.807895213365554810e-02,-8.787194266915321350e-03,3.842837759293615818e-05,-1.660083793103694916e-02,-3.532297909259796143e-02,-5.276564508676528931e-02,-4.527720063924789429e-02,-3.477307036519050598e-02,-1.097734551876783371e-02,9.144874289631843567e-03,-2.648801542818546295e-03,-2.620247751474380493e-02,3.194621531292796135e-03,5.275439471006393433e-03,2.875004895031452179e-02,5.703990161418914795e-02,1.044008042663335800e-02,-3.694082051515579224e-02,2.266300097107887268e-02,-4.269980639219284058e-02,-8.768012374639511108e-02,3.879782557487487793e-02,-8.194094896316528320e-02,-7.885005325078964233e-02,1.232738234102725983e-02,-1.081812679767608643e-01,5.707211093977093697e-04,1.144094951450824738e-02,7.883441448211669922e-02,2.606797590851783752e-02,1.695392653346061707e-02,-2.129837125539779663e-02,8.121639490127563477e-02,-1.516534830443561077e-04,9.661543881520628929e-04,1.881852187216281891e-02,7.944820821285247803e-02,-9.817040711641311646e-02,1.205454487353563309e-02,2.605322224553674459e-04,6.590836495161056519e-02,1.984746195375919342e-04,-3.665245696902275085e-02,-4.158210754394531250e-02,-3.657215461134910583e-02,-4.795195534825325012e-02,-4.172944650053977966e-02,-1.713757961988449097e-02,5.371461808681488037e-02,-6.950458139181137085e-02,5.208561941981315613e-02,-5.984582006931304932e-02,1.676169689744710922e-03,2.666349150240421295e-02,-6.596388667821884155e-02,5.897430330514907837e-02,-4.897993057966232300e-02,5.372243002057075500e-02,-4.569670930504798889e-02,-6.903596222400665283e-02,-7.802093029022216797e-02,-5.787611380219459534e-02,1.491863839328289032e-02,-5.757106095552444458e-02,-5.643511191010475159e-02,4.161209333688020706e-03,-1.740235951729118824e-03,3.487028554081916809e-02,-4.386128485202789307e-02,2.863857522606849670e-02,7.497841864824295044e-02,2.559573017060756683e-02,-1.068577021360397339e-01,-5.479764193296432495e-02,4.337019473314285278e-02,1.685716025531291962e-02,9.643905796110630035e-03,-1.003579702228307724e-02,-2.699734084308147430e-02,-1.976574072614312172e-03,8.591646701097488403e-02,-8.102509379386901855e-02,-3.268721047788858414e-04,-6.037189438939094543e-02,-6.826716661453247070e-02,-3.926474973559379578e-02,-5.948399379849433899e-02,-3.509032353758811951e-02,-6.789728254079818726e-02,-5.999834393151104450e-04,1.136114075779914856e-01,2.403077669441699982e-02,-4.271704331040382385e-02,2.860103547573089600e-02,9.334747493267059326e-02,2.753455191850662231e-02,1.069553010165691376e-02,-4.980295524001121521e-02,5.618099868297576904e-02,-2.087818644940853119e-02,-4.546358063817024231e-02,3.166516125202178955e-02,-6.611748039722442627e-02,-3.842933475971221924e-02,-7.384542375802993774e-02,1.031853910535573959e-02,4.804318398237228394e-02,-1.078557968139648438e-02,4.879920557141304016e-02,2.436019480228424072e-03,1.241529826074838638e-02,2.102187648415565491e-02,2.661300124600529671e-03,-8.331755548715591431e-02,2.076538652181625366e-02,-5.665626749396324158e-02,-2.475486882030963898e-02,-4.974737763404846191e-02,7.987799495458602905e-02,8.928000926971435547e-02,3.778343321755528450e-03,-6.256901193410158157e-03,1.290648058056831360e-02,2.305778488516807556e-02,-2.240454591810703278e-02,-4.397505149245262146e-02,-5.361746624112129211e-02,-5.535299703478813171e-02,-5.143489397596567869e-05,2.559306286275386810e-02,1.525971310911700130e-05,-3.811612352728843689e-02,-2.825047262012958527e-02,5.818450823426246643e-02,4.643645510077476501e-02,-1.672313082963228226e-04,8.674477785825729370e-02,-4.909282550215721130e-02,-2.708469331264495850e-02,3.759573772549629211e-02,5.369909107685089111e-02,-3.616098687052726746e-02,7.189093530178070068e-02,9.809644892811775208e-03,4.271548986434936523e-02,-4.165753349661827087e-02,-5.827505886554718018e-02,3.538218140602111816e-02,1.020474284887313843e-01,-2.031275304034352303e-03,-7.812654599547386169e-03,-6.238078698515892029e-02,-3.867081180214881897e-02,-1.490048598498106003e-02,-2.890050411224365234e-02,3.478237614035606384e-02,-4.334841296076774597e-02,9.023074992001056671e-03,-1.731893979012966156e-02,-7.138560991734266281e-03,5.805925931781530380e-03,5.514696706086397171e-03,-1.298587769269943237e-03,-9.655869752168655396e-02,-4.159521311521530151e-03,2.224901877343654633e-02,3.802933788392692804e-04,-8.672053809277713299e-04,2.524231746792793274e-02,-2.047323156148195267e-03,-6.172801926732063293e-02,8.603280037641525269e-02,7.700332254171371460e-02,-7.748465240001678467e-02,-8.835446089506149292e-02,5.243479087948799133e-02,3.986451402306556702e-02,7.734489440917968750e-02,4.418018460273742676e-02,2.713987836614251137e-03,-2.475213841535151005e-04,5.111974850296974182e-02,3.323522955179214478e-02,-4.629610106348991394e-02,2.492088638246059418e-02,5.588137358427047729e-02,5.226428061723709106e-02,5.773979052901268005e-02,-4.670339077711105347e-02,-1.005145385861396790e-01,-3.186094388365745544e-02,9.872717410326004028e-02,-2.385970577597618103e-02,-5.156264826655387878e-02,4.353536292910575867e-02,-4.159536678344011307e-03,6.994942575693130493e-02,2.195973694324493408e-02,7.831062190234661102e-03,-8.826689422130584717e-02,-2.336994558572769165e-02,-9.804104047361761332e-05,1.836143434047698975e-02,-1.555418595671653748e-02,-7.557992637157440186e-02,-3.129408136010169983e-02,6.909472495317459106e-02,-9.819212555885314941e-02,-2.230269648134708405e-02,-4.140061512589454651e-02,-2.895132265985012054e-02,-2.183841168880462646e-02,-1.221475098282098770e-02,1.420905999839305878e-02,-8.145992644131183624e-03,-1.661245338618755341e-02,-1.263312157243490219e-02,-1.962058246135711670e-03,-2.005216106772422791e-02,2.767784334719181061e-02,-3.685150668025016785e-02,-9.299720637500286102e-03,5.131021887063980103e-02,-3.475131466984748840e-02,4.534875601530075073e-02,-2.959373593330383301e-02,-4.057212546467781067e-02,1.234419737011194229e-02,2.466113492846488953e-02,-2.559474296867847443e-02,-2.027655020356178284e-02,4.941006749868392944e-02,-4.727652296423912048e-02,1.264602318406105042e-02,6.301112473011016846e-02,-1.561109791509807110e-03,1.924630627036094666e-02,-7.855822332203388214e-03,-2.526697330176830292e-02,7.321243733167648315e-02,2.383728884160518646e-02,2.247051149606704712e-02,1.601855270564556122e-02,-2.607171481940895319e-04,-1.129188016057014465e-02,-9.428629279136657715e-02,-5.088946968317031860e-02,6.309475749731063843e-02,3.504039347171783447e-02,-2.383389510214328766e-02,-1.534347236156463623e-02,-4.276862367987632751e-02,-3.037878684699535370e-02,2.118179015815258026e-02,4.186522588133811951e-02,-3.242954239249229431e-02,5.719302222132682800e-02,-8.741197176277637482e-03,-1.808202068787068129e-04,-1.472455076873302460e-02,4.267035424709320068e-02,-4.480038210749626160e-02,-5.524934828281402588e-02,1.613114960491657257e-02,-2.972872555255889893e-02,-3.778383368626236916e-03,-9.111993759870529175e-02,1.054643616080284119e-01,-2.655803784728050232e-02,5.034005641937255859e-02,1.492049428634345531e-03,-8.089100569486618042e-02,-4.537490010261535645e-02,8.035156130790710449e-02,-3.229261934757232666e-02,4.895981773734092712e-02,8.893006294965744019e-02,-6.192913278937339783e-02,-7.909974455833435059e-02,1.592228002846240997e-02,5.806684494018554688e-03,-1.487147249281406403e-02,-7.119613885879516602e-02,3.383340686559677124e-02,1.918270252645015717e-02,3.406403213739395142e-02,-5.007905885577201843e-02,2.131808921694755554e-02,-5.463402718305587769e-02,-8.803721517324447632e-02,-5.665869638323783875e-02,-1.147300098091363907e-02,5.626232549548149109e-02,8.204285055398941040e-02,8.297017216682434082e-02,-4.113274067640304565e-02,1.425340026617050171e-02,-2.663974091410636902e-02,-4.835116118192672729e-02,-6.340370327234268188e-02,-5.129446461796760559e-02,9.463965892791748047e-03,8.406689390540122986e-03,-7.543897372670471668e-04,8.874647319316864014e-02,-4.684485495090484619e-02,-3.420024365186691284e-02,5.301610007882118225e-02,4.277071729302406311e-02,1.121930312365293503e-02,2.192698046565055847e-02,-6.711141395498998463e-06,-5.838105827569961548e-02,-5.233506672084331512e-03,-5.603677034378051758e-02,-1.508559845387935638e-02,-9.891915321350097656e-02,2.400083467364311218e-02,3.191554173827171326e-02,-3.740368410944938660e-02,2.353581786155700684e-02,-8.121260255575180054e-02,1.998492330312728882e-02,-4.220260307192802429e-02,4.658167809247970581e-02,-5.980162322521209717e-02,-3.438993543386459351e-02,-3.390504047274589539e-02,6.441975478082895279e-03,2.961557544767856598e-02,8.598203770816326141e-03,6.500945240259170532e-02,-7.180477678775787354e-02,-1.017863228917121887e-01,-6.304156780242919922e-02,1.501388009637594223e-02,-5.666549503803253174e-02,-1.083096303045749664e-02,-7.814140059053897858e-03,4.948984831571578979e-02,8.052899688482284546e-02,-2.128387428820133209e-02,-1.734221167862415314e-02,-1.167927868664264679e-02,4.615291580557823181e-02,-6.292361766099929810e-02,9.853114932775497437e-02,5.427185446023941040e-02,7.210778445005416870e-02,-7.389204949140548706e-02,3.870132938027381897e-02,-8.634290099143981934e-02,4.716515913605690002e-02,4.731696099042892456e-02,-8.525373786687850952e-02,-2.496493048965930939e-02,1.633168943226337433e-02,-6.733218580484390259e-02,-8.494339883327484131e-02,6.975723803043365479e-02,9.736845269799232483e-03,-9.841744601726531982e-02,3.284462913870811462e-02,2.500364184379577637e-02,-7.205306738615036011e-02,-6.729488819837570190e-02,4.865054786205291748e-02,-4.314479231834411621e-02,-2.522745355963706970e-02,-6.298243999481201172e-02,9.417963027954101562e-02,5.053313821554183960e-02,5.533579271286725998e-03,-3.798825293779373169e-02,3.458607569336891174e-02,-1.104351226240396500e-02,4.902435466647148132e-02,-9.834867902100086212e-03,-6.030851975083351135e-03,-9.182352572679519653e-02,3.427945822477340698e-02,-5.665968358516693115e-02,7.121250033378601074e-02,3.208568319678306580e-02,-3.286891430616378784e-02,4.595629870891571045e-02,-6.523362547159194946e-02
1.618312858045101166e-02,3.024881519377231598e-02,2.156542427837848663e-02,-1.272056251764297485e-02,7.562468294054269791e-03,3.240399062633514404e-02,-7.208785414695739746e-02,-3.434972022660076618e-04,1.427404768764972687e-02,-2.480996213853359222e-02,1.700435765087604523e-02,3.951431065797805786e-02,1.815186999738216400e-02,-9.302717633545398712e-03,-4.926445707678794861e-02,8.777394890785217285e-02,3.106460790149867535e-04,-1.498320847749710083e-01,4.070061445236206055e-02,-4.729085601866245270e-03,7.631528377532958984e-02,-2.545218728482723236e-02,3.691704571247100830e-02,-1.323300134390592575e-02,6.514174747280776501e-04,-1.845056004822254181e-02,-6.648990511894226074e-02,3.076634136959910393e-03,-6.049170717597007751e-02,-8.795163594186306000e-03,3.840223071165382862e-04,-2.838612766936421394e-03,1.115887146443128586e-02,-6.646813824772834778e-03,1.015762016177177429e-01,-1.395773794502019882e-02,1.752249227138236165e-04,1.192312873899936676e-02,-1.827087951824069023e-03,-1.698503270745277405e-02,5.817964673042297363e-02,7.695082575082778931e-02,-3.408750984817743301e-03,-8.444887399673461914e-02,3.347448538988828659e-03,3.990791365504264832e-02,5.084093287587165833e-02,-1.401506736874580383e-02,3.289916366338729858e-02,2.066222019493579865e-02,2.196680754423141479e-02,-1.184757146984338760e-02,-5.541197955608367920e-03,-6.251692026853561401e-02,2.006009593605995178e-02,-1.699144579470157623e-02,-3.779561072587966919e-02,-6.240370869636535645e-02,-9.908067435026168823e-02,-1.233657449483871460e-02,1.640485785901546478e-02,2.737042680382728577e-02,5.024199560284614563e-02,4.214199632406234741e-02,1.489925477653741837e-02,4.049668088555335999e-02,-1.978263631463050842e-02,5.757917533628642559e-04,6.800917536020278931e-02,-6.341158412396907806e-03,-1.019382150843739510e-03,4.923116043210029602e-02,4.301186650991439819e-03,3.741305321455001831e-02,1.027385424822568893e-02,-1.836216449737548828e-02,4.107011854648590088e-02,-6.616118550300598145e-02,-1.280029490590095520e-02,2.943442761898040771e-02,-3.520453814417123795e-03,-6.763523072004318237e-02,4.282201454043388367e-02,-1.353324204683303833e-02,-6.812099367380142212e-02,-2.153160423040390015e-02,9.468165226280689240e-04,-3.612734377384185791e-02,4.603988677263259888e-02,-2.807113900780677795e-02,5.317831411957740784e-02,-8.132237009704113007e-03,-2.246861532330513000e-02,6.904693692922592163e-02,-1.480336301028728485e-03,-5.634525325149297714e-03,-1.175696477293968201e-01,-3.491662209853529930e-03,-6.017458811402320862e-02,-2.982554398477077484e-02,-1.352628972381353378e-02,-5.719396471977233887e-02,1.452116295695304871e-02,-1.694828504696488380e-03,4.365920647978782654e-02,-8.499523624777793884e-03,-5.941426381468772888e-02,-5.891598761081695557e-02,-6.151672825217247009e-02,-7.985477894544601440e-02,4.680619761347770691e-02,2.713708952069282532e-02,-5.772066069766879082e-04,-6.488688290119171143e-03,-3.483012691140174866e-02,-6.912472844123840332e-02,1.419170480221509933e-02,-2.233077306300401688e-03,1.234982191817834973e-04,-8.634803444147109985e-02,-9.412323124706745148e-03,5.791733972728252411e-03,3.498373180627822876e-02,7.225263863801956177e-03,-3.087555430829524994e-02,7.082623988389968872e-02,-3.046679496765136719e-02,-1.599945608177222311e-05,-5.905033648014068604e-02,2.488906681537628174e-02,6.885732710361480713e-02,7.222945988178253174e-02,1.108840107917785645e-02,-1.418051496148109436e-02,9.587848186492919922e-02,7.992614700924605131e-05,-4.764515161514282227e-02,2.768401987850666046e-02,2.195016853511333466e-02,-2.477585896849632263e-02,-6.628576666116714478e-03,-5.583716556429862976e-02,-1.111349090933799744e-02,-1.750145456753671169e-03,-5.760456994175910950e-02,-5.830703303217887878e-02,1.247525028884410858e-02,-5.304811894893646240e-02,3.664761409163475037e-02,-7.222813367843627930e-02,7.116202265024185181e-02,5.335029959678649902e-02,-7.357537397183477879e-04,-4.238571226596832275e-02,1.878109015524387360e-02,6.583330035209655762e-02,3.658205270767211914e-02,-3.233683761209249496e-03,-3.733742778422310948e-05,-4.113673791289329529e-02,8.418144285678863525e-02,5.900407582521438599e-02,-1.156908273696899414e-01,-4.012825898826122284e-03,1.862345379777252674e-04,-3.002922609448432922e-02,5.452127661556005478e-04,3.963179420679807663e-03,2.588063478469848633e-02,6.616698205471038818e-02,2.041364461183547974e-02,3.349818289279937744e-02,-2.768379345070570707e-04,-6.464742124080657959e-02,5.995959416031837463e-02,-4.478516802191734314e-02,-2.815920300781726837e-02,-1.248499902430921793e-04,-2.378201484680175781e-02,-9.204571135342121124e-03,2.945513091981410980e-02,1.577908173203468323e-02,5.738804489374160767e-02,-6.548636127263307571e-03,1.608765334822237492e-03,-1.739695109426975250e-02,1.692647580057382584e-03,5.185576900839805603e-02,-3.624858707189559937e-02,5.640368908643722534e-02,-7.780195772647857666e-02,-4.727375879883766174e-02,-7.978144288063049316e-02,9.011195041239261627e-03,4.252039268612861633e-02,-4.849360138177871704e-02,6.610998511314392090e-02,-2.642421238124370575e-02,2.262457087635993958e-02,4.571074992418289185e-02,3.345910459756851196e-02,-6.065378338098526001e-02,-6.187503039836883545e-02,6.712127476930618286e-02,-2.697806805372238159e-03,-4.805714264512062073e-02,-6.480466574430465698e-03,2.303949184715747833e-02,9.519573301076889038e-02,-4.615040961652994156e-03,2.080957591533660889e-02,-7.005277276039123535e-02,2.339212782680988312e-02,-3.743205219507217407e-02,1.782093895599246025e-03,-4.366020485758781433e-02,-7.299795001745223999e-02,8.162739872932434082e-02,-9.617440402507781982e-02,-3.781194332987070084e-03,-7.942455820739269257e-03,-7.659134268760681152e-02,5.275860056281089783e-02,-5.638369917869567871e-02,3.662905469536781311e-02,-3.153665363788604736e-02,-1.023961789906024933e-02,5.494336411356925964e-02,6.592868268489837646e-02,1.472379546612501144e-03,1.275821216404438019e-02,3.292999463155865669e-03,-1.967988163232803345e-02,-6.532584875822067261e-02,4.682199284434318542e-02,-4.198464751243591309e-02,-6.200485676527023315e-02,-1.722948066890239716e-02,-6.341484189033508301e-02,-6.962872575968503952e-03,3.828373446594923735e-04,1.038141548633575439e-02,2.004276588559150696e-02,-4.249718412756919861e-02,-7.876305282115936279e-02,-6.028429046273231506e-02,-7.811710238456726074e-02,-1.742534572258591652e-03,6.584334373474121094e-02,-6.234953179955482483e-02,3.690882772207260132e-02,4.659970849752426147e-02,-6.691392511129379272e-02,6.838550325483083725e-04,7.995761185884475708e-02,-4.745106026530265808e-02,-2.539807558059692383e-02,-7.388138025999069214e-02,1.666948758065700531e-02,-2.042105421423912048e-03,-6.917342077940702438e-03,-9.047296829521656036e-03,-3.269189735874533653e-03,-3.499115409795194864e-04,2.162679738830775023e-04,1.854217262007296085e-03,-1.063916273415088654e-02,-2.722801268100738525e-02,-5.099036172032356262e-02,-2.342937700450420380e-02,-5.917687714099884033e-02,-5.842188000679016113e-02,-1.648753881454467773e-03,-1.388592869043350220e-01,5.180128663778305054e-02,-6.678132805973291397e-03,8.043570443987846375e-03,2.098106313496828079e-03,-4.347551241517066956e-02,-2.184540964663028717e-02,-4.643408581614494324e-03,1.034631044603884220e-03,-3.911648411303758621e-03,-1.040473114699125290e-02,-5.731092393398284912e-02,4.036498814821243286e-02,8.042928529903292656e-04,-5.431202426552772522e-02,3.435944765806198120e-02,-1.261786837130784988e-02,-1.113639622926712036e-01,7.366444449871778488e-03,-4.141280369367450476e-04,5.216606706380844116e-02,-8.178100688382983208e-04,-4.789796099066734314e-02,5.147789046168327332e-02,-4.324662685394287109e-02,-4.648846015334129333e-02,-2.044079639017581940e-02,-1.239731936948373914e-04,-2.401301264762878418e-02,6.931228935718536377e-02,1.005464792251586914e-02,-5.125631764531135559e-02,8.650864474475383759e-03,-8.244101703166961670e-02,3.604850545525550842e-02,1.008650637231767178e-03,3.081047348678112030e-02,1.271896879188716412e-03,-2.169617637991905212e-02,4.323939234018325806e-02,-7.098075002431869507e-02,6.004171445965766907e-02,-2.875212952494621277e-02,1.998260850086808205e-04,8.534882217645645142e-02,4.220836982131004333e-02,-3.321798518300056458e-02,-5.981958284974098206e-02,6.254387646913528442e-02,8.560767769813537598e-02,6.375131756067276001e-02,5.416071042418479919e-02,-4.274195432662963867e-02,8.744656224735081196e-04,3.134968131780624390e-02,4.296854138374328613e-02,6.987019628286361694e-02,3.542090579867362976e-02,-4.150975495576858521e-02,-1.180042233318090439e-02,2.686656638979911804e-02,3.559965640306472778e-03,3.024217300117015839e-02,2.205091342329978943e-02,-1.025919336825609207e-02,3.051755391061306000e-02,-1.436719950288534164e-02,-8.576825261116027832e-02,4.684710502624511719e-02,1.949969329871237278e-03,-1.450329720973968506e-01,-5.748101323843002319e-02,5.062418431043624878e-02,7.657900452613830566e-02,6.497332453727722168e-02,2.444623410701751709e-02,5.769741162657737732e-02,-4.940703511238098145e-02,-4.620718583464622498e-02,1.109898276627063751e-02,-2.956961980089545250e-03,3.824100270867347717e-02,-3.541830554604530334e-02,6.084856390953063965e-02,-8.115671575069427490e-02,-5.737368017435073853e-02,4.907073825597763062e-02,3.070526756346225739e-02,-7.022716104984283447e-02,-4.991929978132247925e-02,-5.493630468845367432e-02,-5.586791038513183594e-02,-3.726087138056755066e-02,-1.147072575986385345e-02,1.434343867003917694e-02,-3.375029563903808594e-02,3.522167354822158813e-02,4.752256348729133606e-02,-4.882731288671493530e-02,1.664794422686100006e-02,-5.171536933630704880e-03,-4.613446444272994995e-02,3.288252651691436768e-02,-7.869028486311435699e-03,-1.250291708856821060e-03,2.772409655153751373e-02,1.444558519870042801e-02,4.989052104065194726e-05,1.008148537948727608e-03,-1.907403580844402313e-02,-2.056842111051082611e-02,-5.031558126211166382e-02,2.558509260416030884e-02,1.275642961263656616e-02,1.145500876009464264e-02,2.303794585168361664e-02,9.171865880489349365e-02,-8.450158056803047657e-04,-3.954546060413122177e-03,4.122746735811233521e-02,-7.052901387214660645e-02,5.127999000251293182e-03,7.803900539875030518e-02,-1.023332253098487854e-01,-2.380953915417194366e-02,6.076286360621452332e-02,6.812987476587295532e-02,2.624646946787834167e-02,4.836393892765045166e-02,-2.042156085371971130e-02,-2.026012353599071503e-02,2.197522670030593872e-02,-3.345609456300735474e-02,-7.138815522193908691e-02,4.024686932098120451e-04,4.676297679543495178e-02,-3.523234277963638306e-02,-2.108878642320632935e-02,-4.832395911216735840e-02,1.277396641671657562e-02,3.246181458234786987e-02,-4.724619165062904358e-02,9.616130962967872620e-03,3.861158713698387146e-02,-3.843506425619125366e-02,4.107872024178504944e-02,3.978788480162620544e-02,-4.968562349677085876e-02,-2.571146562695503235e-02,-5.563494190573692322e-02,-8.044641464948654175e-02,-7.820639759302139282e-02,3.968272730708122253e-02,6.481274962425231934e-03,4.730367287993431091e-02,-8.979355543851852417e-02,-5.932984128594398499e-02,-2.146667987108230591e-02,-4.270218312740325928e-02,-3.269634023308753967e-02,-8.848708868026733398e-02,-7.150102406740188599e-02,-5.869629606604576111e-02,-5.082385987043380737e-02,-4.331576824188232422e-02,-6.129652261734008789e-02,-7.202403992414474487e-02,-5.906371772289276123e-02,-1.164057664573192596e-02,-3.846127539873123169e-02,5.397623404860496521e-02,4.573577642440795898e-02,6.105089560151100159e-02,-9.658300317823886871e-03,2.487639896571636200e-02,-4.813758283853530884e-02,-2.367787063121795654e-02,1.000177394598722458e-02,8.782051503658294678e-03,-4.616560414433479309e-02,-7.736142724752426147e-02,-3.201657673344016075e-04,5.127767566591501236e-03,-2.316425740718841553e-02,-3.748784959316253662e-02,-5.158719047904014587e-02,1.103662187233567238e-03,3.736086189746856689e-02,-4.013845231384038925e-03,4.320029914379119873e-02,-1.875116489827632904e-03,-4.938463866710662842e-02,-7.910443097352981567e-02,-4.231424070894718170e-03,-4.599321261048316956e-02,1.659606024622917175e-02,-4.373592138290405273e-02,-4.374994337558746338e-02,-2.640962414443492889e-02,-1.159996986389160156e-01,-1.856663636863231659e-02,-9.421579539775848389e-03,-6.668283604085445404e-03,3.790085390210151672e-02,4.012681543827056885e-02,2.185836434364318848e-02,7.083902019076049328e-04,3.863846510648727417e-02,1.782141812145709991e-02,-7.413058727979660034e-02,-6.216239929199218750e-02,-2.165556326508522034e-02,-4.565798863768577576e-02,-1.099281106144189835e-02,-5.470626056194305420e-02,3.077080659568309784e-02,-8.360780030488967896e-02,-4.647369310259819031e-02,7.036666572093963623e-02,5.421486869454383850e-02,4.182825982570648193e-02,7.537335157394409180e-02,-4.946365207433700562e-02,-5.372570827603340149e-02,4.550815373659133911e-02,-6.959977746009826660e-02,1.240320317447185516e-02,2.752164006233215332e-02,3.274439647793769836e-02,-1.261373516172170639e-02,-3.885702788829803467e-02,4.156704246997833252e-02,1.180144492536783218e-02,-2.281408198177814484e-02,-6.345430016517639160e-02,1.536694238893687725e-03,-3.049703314900398254e-02,2.032074332237243652e-02,-6.417470425367355347e-02
