-4.367834888398647308e-03, -2.229010453447699547e-03, -1.980640692636370659e-03, -1.889793667942285538e-03, 9.536737576127052307e-03, -2.074387622997164726e-03, -1.009420119225978851e-02, -2.840110333636403084e-03, -3.688660450279712677e-03, 1.798847690224647522e-03, 7.133732549846172333e-03, -1.417890074662864208e-03, 3.430764656513929367e-03, -1.493314560502767563e-02, 4.295236896723508835e-03, -8.763566613197326660e-03, -4.536556545644998550e-03, -5.011010216549038887e-06, -1.098912116140127182e-02, -1.987990457564592361e-03, -2.170518971979618073e-03, 9.235676378011703491e-03, -4.640945233404636383e-03, -9.330258471891283989e-04, -2.855063648894429207e-03, -7.306201150640845299e-04, -9.584100916981697083e-03, -1.116574858315289021e-03, -2.008609240874648094e-03, -8.815200417302548885e-04, 1.924319565296173096e-02, -1.956391381099820137e-03, 1.280323602259159088e-02, -8.841529488563537598e-04, -1.432137563824653625e-02, 1.921529322862625122e-02, 9.350634180009365082e-03, -4.564563743770122528e-03, 6.247133947908878326e-03, 8.131392532959580421e-04, -8.244884666055440903e-04, 3.389930119737982750e-03, -2.305205166339874268e-02, 2.777692316158208996e-05, 1.631641178391873837e-03, -8.313535712659358978e-03, 6.256835535168647766e-03, -6.568878889083862305e-04, -9.474685066379606724e-04, -5.322210025042295456e-03, 5.389295518398284912e-03, -3.334510838612914085e-03, 8.312046527862548828e-03, -8.652909658849239349e-03, -2.525620628148317337e-03, -2.284250594675540924e-02, -3.491938987281173468e-04, -1.447344198822975159e-03, 1.452068099752068520e-03, 6.773059256374835968e-03, 9.166933596134185791e-03, -2.713412744924426079e-03, -1.802276261150836945e-02, -1.077448390424251556e-02, -3.435570979490876198e-03, -3.563772886991500854e-03, -7.455375045537948608e-03, -1.028517726808786392e-03, 1.225910615175962448e-02, -3.470246912911534309e-03, -2.234242111444473267e-02, -3.965635318309068680e-03, -3.983463160693645477e-03, -4.843246133532375097e-04, 5.317014176398515701e-03, -2.907018642872571945e-03, -3.159561892971396446e-03, -1.912013813853263855e-02, 3.237899160012602806e-03, -2.577916486188769341e-03, -7.517291232943534851e-03, -1.952142920345067978e-03, -1.653696410357952118e-02, -4.099433310329914093e-03, -8.287176489830017090e-03, 1.126889232546091080e-02, -9.046825580298900604e-03, -3.797624725848436356e-03, -6.043543107807636261e-03, -2.277679974213242531e-03, -1.659640483558177948e-02, -2.720956690609455109e-03, -2.686370862647891045e-03, -2.871864708140492439e-03, 2.206670679152011871e-02, -4.538894630968570709e-03, -1.570210047066211700e-02, -1.335155777633190155e-02, -1.713364385068416595e-02, -1.089132856577634811e-02, -4.062800668179988861e-03, -9.121344424784183502e-03, -2.908900566399097443e-02, -4.258786328136920929e-03, -1.050596870481967926e-02, -1.139697898179292679e-02, -2.162084681913256645e-03, -5.699197761714458466e-03, -6.484545767307281494e-03, -2.236146293580532074e-02, -1.024095341563224792e-02, -7.665796671062707901e-03, -1.385110709816217422e-02, -1.456284523010253906e-02, -2.087990194559097290e-02, -1.141493581235408783e-02, -1.367330364882946014e-02, 1.331671257503330708e-03, -1.367522310465574265e-02, -7.238825783133506775e-03, -9.860440157353878021e-03, -1.177896652370691299e-02, -2.407405525445938110e-02, -1.190220471471548080e-02, -2.982150530442595482e-03, -6.239554379135370255e-03, 1.232317835092544556e-02, -1.265081670135259628e-02
4.276143759489059448e-02, 5.957893654704093933e-02, 1.202955283224582672e-02, 2.473549172282218933e-02, 7.351811043918132782e-03, 7.303519640117883682e-03, 4.810833930969238281e-02, 2.920941915363073349e-03, 1.001678500324487686e-02, 1.402078196406364441e-04, 1.446345821022987366e-03, 2.843751013278961182e-02, 1.740240259096026421e-03, 5.475766211748123169e-02, 1.986519247293472290e-02, 1.941555738449096680e-02, 1.247800141572952271e-02, -9.571217931807041168e-03, 1.763029210269451141e-02, 1.531402952969074249e-02, 5.348401144146919250e-03, -6.711767055094242096e-03, 2.903655730187892914e-02, 2.819596603512763977e-02, 6.865669041872024536e-03, 2.595300413668155670e-02, 2.670498006045818329e-02, 3.017800487577915192e-02, -1.128452457487583160e-02, 1.432768255472183228e-02, 5.662140902131795883e-03, 3.255247697234153748e-02, 3.349666893482208252e-01, -6.123865395784378052e-02, 1.403037011623382568e-01, 1.973045915365219116e-01, 1.891555488109588623e-01, 6.499288976192474365e-02, 1.339223682880401611e-01, -1.070876419544219971e-02, -1.042216122150421143e-01, -1.880595237016677856e-01, -1.204586997628211975e-01, -3.950701653957366943e-02, -1.128815673291683197e-02, -7.498960196971893311e-02, 1.552473753690719604e-01, 2.294608801603317261e-01, -4.180927947163581848e-02, 6.337584555149078369e-02, -5.457345396280288696e-02, -1.984267868101596832e-02, -3.339891508221626282e-02, -3.579831421375274658e-01, 7.845453172922134399e-02, -2.785198688507080078e-01, 7.200702279806137085e-02, 6.624626368284225464e-02, -1.150170341134071350e-01, -1.269691064953804016e-02, 8.879158645868301392e-02, 3.297993540763854980e-02, -2.274363338947296143e-01, -1.343237906694412231e-01, 5.625518038868904114e-02, 1.030294895172119141e-01, 2.901238203048706055e-02, 3.298882022500038147e-02, 5.922506097704172134e-03, 5.285087972879409790e-03, 8.247555047273635864e-02, 2.506696619093418121e-03, 2.170575037598609924e-02, -1.802697218954563141e-02, 1.214236579835414886e-02, 4.904223605990409851e-02, 8.561374619603157043e-03, 9.585556387901306152e-02, 2.510855160653591156e-02, 1.977375335991382599e-02, 2.604940906167030334e-02, -3.203762695193290710e-02, 3.781864047050476074e-02, 2.404895983636379242e-02, -3.975675906985998154e-03, -2.151862531900405884e-02, 4.818497970700263977e-02, 3.354760259389877319e-02, 8.059394545853137970e-03, 4.058325663208961487e-02, 4.540678858757019043e-02, 3.122302889823913574e-02, -1.856524683535099030e-02, 3.423747047781944275e-02, -5.584843922406435013e-03, 4.607453197240829468e-02, 2.824323065578937531e-02, 2.257573008537292480e-01, 1.020491402596235275e-02, 4.877378791570663452e-02, -2.761504985392093658e-02, 7.892651110887527466e-02, -3.565563634037971497e-02, 2.416868461295962334e-03, 5.699657276272773743e-02, -1.874135690741240978e-03, -7.149871671572327614e-04, 7.034523040056228638e-02, 2.807340398430824280e-02, 1.584975123405456543e-01, 3.574003279209136963e-02, -1.132135093212127686e-02, 7.115996628999710083e-02, -6.411679834127426147e-02, 5.826399847865104675e-02, 5.199530348181724548e-02, 7.310941582545638084e-04, -9.735629707574844360e-02, 9.460414201021194458e-02, -2.787698060274124146e-02, 2.659709006547927856e-02, 3.911887854337692261e-02, 3.540894389152526855e-02, 1.314686238765716553e-01, -5.171078443527221680e-02, 7.576356828212738037e-02, -4.613483324646949768e-02, 1.484014242887496948e-01
2.005244046449661255e-02, 9.122167713940143585e-03, 2.189340814948081970e-02, 8.907932788133621216e-03, 1.293351221829652786e-02, 1.278866920620203018e-02, 2.840489707887172699e-02, 9.648975916206836700e-03, 1.233299542218446732e-02, 4.903601482510566711e-03, 1.677715219557285309e-02, 1.213626936078071594e-02, 8.499106392264366150e-03, 2.886121347546577454e-02, 1.273632422089576721e-02, 2.089701034128665924e-02, 1.698136702179908752e-02, 6.374039221554994583e-03, 2.371204644441604614e-02, 1.332473382353782654e-02, 2.017195522785186768e-02, 1.769756712019443512e-02, 2.185477502644062042e-02, 2.110023796558380127e-02, 1.208402495831251144e-02, 1.481322012841701508e-02, 2.509838901460170746e-02, 9.411890059709548950e-03, 7.927309721708297729e-03, 8.204487152397632599e-03, 1.350923255085945129e-02, 9.350381791591644287e-03, -1.007455401122570038e-02, 5.196408554911613464e-02, 2.111950330436229706e-02, -2.977300621569156647e-02, -7.299681310541927814e-04, -5.159547552466392517e-02, 4.336420446634292603e-02, 1.408753544092178345e-02, 2.090432681143283844e-02, 9.834492951631546021e-02, -5.029457062482833862e-02, -2.811682224273681641e-02, -3.157170955091714859e-03, -3.757518529891967773e-02, -2.340839989483356476e-02, 6.990841776132583618e-02, 1.784414984285831451e-02, 6.280953437089920044e-02, -3.445383906364440918e-02, -5.546716228127479553e-02, -1.299792341887950897e-02, 4.873244091868400574e-02, -5.408379714936017990e-03, -3.397087752819061279e-02, -1.503417617641389370e-03, 9.469428099691867828e-03, 4.699967801570892334e-02, 1.244111061096191406e-01, -5.806091055274009705e-02, -4.308286681771278381e-02, 7.178367674350738525e-02, -2.257820405066013336e-02, 3.323151543736457825e-02, 2.009565010666847229e-02, 4.652749747037887573e-02, 1.788990013301372528e-02, 2.268559858202934265e-02, 1.932817511260509491e-02, 5.729404836893081665e-02, 1.676209643483161926e-02, 1.905254088342189789e-02, 3.138775005936622620e-02, 3.333902731537818909e-02, 2.170313708484172821e-02, 2.524253167212009430e-02, 4.666188731789588928e-02, 2.478714659810066223e-02, 2.171817235648632050e-02, 2.957933023571968079e-02, 2.298030070960521698e-02, 3.799189627170562744e-02, 2.449466660618782043e-02, 3.634633868932723999e-02, 3.062685579061508179e-02, 3.302334621548652649e-02, 4.298873618245124817e-02, 2.326036244630813599e-02, 2.468723058700561523e-02, 6.178771704435348511e-02, 1.086189504712820053e-02, 1.392835564911365509e-02, 1.898371987044811249e-02, 2.470103092491626740e-02, 9.099530056118965149e-03, 5.219091102480888367e-02, 7.501767575740814209e-02, 7.407209277153015137e-02, 4.331993311643600464e-02, 5.703890323638916016e-02, 4.805532097816467285e-02, 8.117683976888656616e-02, 2.472924254834651947e-02, 3.204640746116638184e-02, 5.223660543560981750e-02, 5.812099575996398926e-02, 3.313256055116653442e-02, 4.952788725495338440e-02, 7.547248154878616333e-02, 5.287930741906166077e-02, 4.279565438628196716e-02, 6.205353885889053345e-02, 5.162599682807922363e-02, 6.714235991239547729e-02, 4.344367235898971558e-02, 5.377810075879096985e-02, 4.988742247223854065e-02, 5.111941695213317871e-02, 7.312846928834915161e-02, 3.840339556336402893e-02, 4.060109332203865051e-02, 8.135812729597091675e-02, 5.293227359652519226e-02, 2.515423670411109924e-02, 3.838653862476348877e-02, 4.273341968655586243e-02, 4.821444302797317505e-02
3.491263836622238159e-02, 1.732142269611358643e-02, 4.918240383267402649e-02, 1.321100350469350815e-02, 1.415449194610118866e-02, 2.486476674675941467e-02, 3.896063193678855896e-02, 3.406183561310172081e-03, 3.260337980464100838e-04, -6.924959365278482437e-03, 9.618339128792285919e-03, 8.505184203386306763e-03, 4.774697124958038330e-03, 5.123194679617881775e-02, 2.186721749603748322e-02, 5.161915719509124756e-02, 2.681288868188858032e-02, 4.073997493833303452e-03, 2.393156290054321289e-02, 1.007683575153350830e-02, 2.103391475975513458e-02, 3.113711439073085785e-02, 2.385656908154487610e-02, 3.675487637519836426e-02, 1.429016049951314926e-02, 1.244686078280210495e-02, 5.215918272733688354e-02, 1.426981110125780106e-02, 2.245810255408287048e-02, -2.375852782279253006e-04, 3.900609165430068970e-02, 5.973222665488719940e-03, -1.131448224186897278e-01, 1.062660478055477142e-02, 6.004471704363822937e-02, -1.194395944476127625e-01, -7.502611726522445679e-03, -3.663352131843566895e-02, 2.230066247284412384e-02, 6.365426629781723022e-02, 1.140297502279281616e-01, 1.873653382062911987e-01, -1.808839142322540283e-01, -5.097721517086029053e-02, 3.927111625671386719e-02, 1.352772265672683716e-01, -8.511188626289367676e-02, -6.960515677928924561e-02, -2.289989031851291656e-02, -1.305384933948516846e-01, 1.681436598300933838e-01, -5.933424457907676697e-03, 1.647908985614776611e-02, -8.961562812328338623e-02, 1.198609396815299988e-01, -1.869239062070846558e-01, -3.716058284044265747e-02, -2.214287966489791870e-01, -1.149390786886215210e-01, -2.255340106785297394e-03, -1.054429411888122559e-01, -1.703293323516845703e-01, -8.602299541234970093e-02, 8.578905463218688965e-02, 3.953302651643753052e-02, 5.997788161039352417e-02, 8.877238631248474121e-02, 1.755119487643241882e-02, 1.873656548559665680e-02, 5.334955453872680664e-02, 7.471207529306411743e-02, 7.051766850054264069e-03, -3.361646551638841629e-03, 6.484189629554748535e-02, 3.301571309566497803e-02, 7.822601124644279480e-03, 1.883218064904212952e-02, 8.401371538639068604e-02, 3.772130236029624939e-02, 6.500881165266036987e-02, 4.750216007232666016e-02, 2.744863927364349365e-02, 2.990614064037799835e-02, 2.349215932190418243e-02, 3.788233920931816101e-02, 5.125141143798828125e-02, 3.198841959238052368e-02, 8.091213554143905640e-02, 2.565164305269718170e-02, 9.094281122088432312e-03, 1.245457157492637634e-01, 4.511166363954544067e-02, 3.749651834368705750e-02, 3.312787273898720741e-03, 6.695066392421722412e-02, 2.364744246006011963e-02, 7.099644094705581665e-02, 1.592181324958801270e-01, 1.813895702362060547e-01, 5.423210188746452332e-02, 7.359781116247177124e-02, 1.306436061859130859e-01, 1.032227128744125366e-01, 1.869632489979267120e-02, -5.900396965444087982e-03, 7.142890989780426025e-02, 7.418315112590789795e-02, -6.110786460340023041e-03, 4.635371640324592590e-02, 9.000610560178756714e-02, 6.138588488101959229e-02, 1.643221080303192139e-01, 9.837970882654190063e-02, 2.489410713315010071e-02, 6.656412035226821899e-02, 3.378148749470710754e-02, 7.719797641038894653e-02, 7.794602960348129272e-02, 6.723403185606002808e-02, 1.320088505744934082e-01, 4.279091581702232361e-02, 3.440568689256906509e-03, 1.475365608930587769e-01, 1.039818897843360901e-01, 7.253333926200866699e-02, -6.576675921678543091e-03, 1.266554296016693115e-01, 4.789600148797035217e-02
2.329075941815972328e-03, -3.313919296488165855e-04, -1.558595977257937193e-04, -6.300157983787357807e-04, -1.028063008561730385e-03, 2.431183675071224570e-04, 2.281995490193367004e-03, 6.832345388829708099e-04, 2.544566523283720016e-03, 8.723123464733362198e-04, 6.020281580276787281e-04, 3.802114515565335751e-04, -9.390823834110051394e-05, 1.361161004751920700e-03, 9.773761848919093609e-05, 1.403378555551171303e-03, -8.683370833750814199e-05, -1.799523131921887398e-03, 2.626183908432722092e-03, 9.064704645425081253e-04, 1.298784976825118065e-03, -1.019024988636374474e-03, 2.099434612318873405e-03, 3.719943924807012081e-05, 5.981539143249392509e-04, 1.709623029455542564e-03, 2.965578576549887657e-03, -1.175192068330943584e-03, -4.101970262126997113e-05, 1.245769090019166470e-04, -4.004970833193510771e-04, 7.813547272235155106e-04, -5.754627659916877747e-02, 6.532266270369291306e-04, 5.273295938968658447e-02, -4.645143076777458191e-02, -2.226434275507926941e-02, 2.374471537768840790e-02, -7.588238269090652466e-02, -2.493650279939174652e-02, -2.440711483359336853e-02, 7.169567793607711792e-02, -5.280449613928794861e-02, -9.994329884648323059e-03, 6.573234219104051590e-03, -5.046319961547851562e-02, -2.763453871011734009e-03, 1.368856616318225861e-02, -9.848928079009056091e-03, 1.142909526824951172e-01, -3.883606195449829102e-02, -3.521839156746864319e-02, -2.667593583464622498e-02, 1.094098389148712158e-01, -2.083797939121723175e-02, 8.815856277942657471e-02, -2.275460772216320038e-02, -5.785229057073593140e-02, 7.321059703826904297e-02, -2.841606177389621735e-02, 6.096855551004409790e-02, 9.724385105073451996e-03, 1.163098681718111038e-02, 3.924050554633140564e-02, 1.594271394424140453e-03, -5.606960039585828781e-03, -4.711078479886054993e-03, -6.147256586700677872e-03, -1.323875738307833672e-03, -2.716283546760678291e-03, 3.949294332414865494e-03, 1.066476921550929546e-03, 4.837663378566503525e-03, 5.379993934184312820e-03, 7.636434747837483883e-04, 6.857940461486577988e-04, 1.540690194815397263e-03, -5.095439497381448746e-03, 9.284734260290861130e-04, -2.193115185946226120e-03, -4.525682423263788223e-03, -5.816439166665077209e-03, 7.012178539298474789e-04, 4.690652247518301010e-03, 2.625187160447239876e-03, -5.596301052719354630e-03, 6.324133835732936859e-03, -7.134789484553039074e-04, 1.797356293536722660e-03, 2.691333414986729622e-03, 7.298122160136699677e-03, 2.323327353224158287e-03, -8.947990863816812634e-06, -5.673831328749656677e-04, 3.831890411674976349e-03, 6.987174972891807556e-03, 3.678755136206746101e-03, -2.033479698002338409e-02, -1.549573382362723351e-03, -1.755286823026835918e-03, 7.354357512667775154e-04, -8.159488439559936523e-03, -5.405168980360031128e-03, 1.295431866310536861e-03, 3.625633195042610168e-03, 2.246833639219403267e-03, 3.344146898598410189e-05, 1.419542357325553894e-03, 1.776917371898889542e-03, -9.329354390501976013e-03, 4.007086157798767090e-03, -3.149527683854103088e-02, -7.166620343923568726e-03, -6.646021734923124313e-03, -4.295604303479194641e-03, 2.601068932563066483e-03, 3.584814956411719322e-03, -4.580985754728317261e-03, 4.472909495234489441e-03, -1.446208823472261429e-02, 2.129935426637530327e-03, 5.718992091715335846e-03, 8.463630452752113342e-03, -7.706204429268836975e-03, -2.128673018887639046e-03, -5.139434360899031162e-04, 9.276450145989656448e-04, 6.310401950031518936e-03
-8.423968218266963959e-03, -5.157151259481906891e-03, -8.582632057368755341e-03, -5.170181393623352051e-03, -2.720384625717997551e-03, -6.036982871592044830e-03, -1.413194835186004639e-02, -4.354694392532110214e-03, -4.845220595598220825e-03, -1.144155859947204590e-03, -6.888893432915210724e-03, -4.902878776192665100e-03, -1.173804863356053829e-03, -1.612598821520805359e-02, -3.582712961360812187e-03, -1.203806512057781219e-02, -8.068480528891086578e-03, 5.584793689195066690e-05, -1.283377222716808319e-02, -4.994023591279983521e-03, -8.405597880482673645e-03, -5.793990101665258408e-03, -1.067552901804447174e-02, -9.653077460825443268e-03, -5.335267633199691772e-03, -6.191584747284650803e-03, -1.240097451955080032e-02, -4.811449907720088959e-03, -3.520386759191751480e-03, -3.092535771429538727e-03, 1.747752685332670808e-05, -5.460686516016721725e-03, 2.226991206407546997e-02, 2.780108526349067688e-02, -6.442631781101226807e-02, 1.364205218851566315e-02, 1.079472433775663376e-02, -1.411087717860937119e-02, -4.271323792636394501e-03, -9.713718667626380920e-03, 1.222333591431379318e-02, 4.553596675395965576e-02, -3.829887881875038147e-02, 7.401932030916213989e-03, -1.830268884077668190e-04, -1.229227706789970398e-02, 1.538263354450464249e-02, 5.153568461537361145e-02, -1.985486960620619357e-05, -7.233546115458011627e-03, -1.266996026970446110e-03, -3.825173899531364441e-02, -4.140003584325313568e-04, 1.803738251328468323e-02, 7.835741154849529266e-03, 1.669041253626346588e-02, 3.057206980884075165e-03, 1.321877166628837585e-02, -2.523763850331306458e-02, -4.777385294437408447e-02, -1.602584309875965118e-02, 6.819811649620532990e-03, 5.048419348895549774e-03, 5.938448943197727203e-03, -1.212412212044000626e-02, -1.008580718189477921e-02, -1.868885383009910583e-02, -6.763046141713857651e-03, -6.312700454145669937e-03, -9.672176092863082886e-03, -2.714809775352478027e-02, -7.779694627970457077e-03, -8.351788856089115143e-03, -1.415304187685251236e-02, -1.330019813030958176e-02, -9.171199984848499298e-03, -9.815374389290809631e-03, -2.240191772580146790e-02, -9.043958969414234161e-03, -8.806115947663784027e-03, -1.402132026851177216e-02, -4.102955106645822525e-03, -1.895905844867229462e-02, -1.316132489591836929e-02, -1.734736748039722443e-02, -9.337441064417362213e-03, -1.845313236117362976e-02, -2.278999052941799164e-02, -1.095285173505544662e-02, -1.130553428083658218e-02, -2.898767404258251190e-02, -7.966816425323486328e-03, -7.140276953577995300e-03, -8.002525195479393005e-03, -7.381767034530639648e-03, -8.363059721887111664e-03, -2.194117382168769836e-02, -3.312244266271591187e-02, -3.305668011307716370e-02, -2.161832340061664581e-02, -2.445439249277114868e-02, -2.314443513751029968e-02, -3.575396165251731873e-02, -1.032867562025785446e-02, -1.548157352954149246e-02, -2.461272478103637695e-02, -2.625496499240398407e-02, -1.491362228989601135e-02, -2.110908739268779755e-02, -3.275979310274124146e-02, -2.417485602200031281e-02, -2.820118330419063568e-02, -2.837196737527847290e-02, -1.755983754992485046e-02, -3.053320571780204773e-02, -2.192094177007675171e-02, -2.662969008088111877e-02, -2.079046517610549927e-02, -2.901496179401874542e-02, -4.449514299631118774e-02, -1.907192356884479523e-02, -2.057149074971675873e-02, -3.744712099432945251e-02, -2.715248987078666687e-02, -1.082807313650846481e-02, -1.746059209108352661e-02, -1.547120604664087296e-02, -2.579933404922485352e-02
-1.814103568904101849e-03, -3.351947525516152382e-04, -4.660472040995955467e-04, -9.595834126230329275e-05, 9.661808726377785206e-04, -8.847563876770436764e-04, -1.715110382065176964e-03, -3.073681727983057499e-05, -1.218645847984589636e-04, 1.026079524308443069e-03, -2.609913935884833336e-04, 4.494909080676734447e-04, 3.944094642065465450e-04, -1.995796104893088341e-03, 2.088154433295130730e-04, -1.145554473623633385e-03, -4.696989199146628380e-04, 2.313634031452238560e-04, -1.554746413603425026e-03, 3.876191476592794061e-05, -5.043388227932155132e-04, 8.624654728919267654e-04, -1.186701236292719841e-03, -2.595471160020679235e-04, -3.906378115061670542e-04, -4.333990218583494425e-04, -3.290111664682626724e-03, -6.017650011926889420e-04, 3.995672741439193487e-04, 9.517396392766386271e-05, 1.667769160121679306e-03, -2.026342699537053704e-04, -1.598762162029743195e-02, 2.135767973959445953e-02, -2.701274119317531586e-02, -2.896572649478912354e-02, -7.563194725662469864e-03, -9.684000164270401001e-03, -1.185892056673765182e-02, -4.115033516427502036e-05, -6.311553996056318283e-03, 2.336750552058219910e-02, 1.629713550209999084e-02, 7.227272260934114456e-03, -3.178464481607079506e-03, -1.217803824692964554e-02, 1.408247370272874832e-02, -2.967754751443862915e-02, 1.722238585352897644e-02, -5.083865299820899963e-02, -4.855304490774869919e-03, -3.122622519731521606e-02, 5.288454703986644745e-03, -1.666047610342502594e-02, -2.096373029053211212e-02, 7.281440310180187225e-03, 1.380555983632802963e-02, -8.972767740488052368e-03, -1.574328541755676270e-02, 4.942240566015243530e-02, -4.130146931856870651e-03, 9.991493076086044312e-03, 1.773862726986408234e-02, -3.664658218622207642e-02, -2.099432284012436867e-03, -1.705885981209576130e-03, -2.030223840847611427e-03, 4.926710971631109715e-06, 6.628422997891902924e-04, -1.947013894096016884e-03, -3.524010768160223961e-03, 2.255414437968283892e-05, -5.946170858805999160e-05, -3.581214696168899536e-03, -1.116902101784944534e-03, 5.884109996259212494e-04, -1.668345765210688114e-03, -3.190553048625588417e-03, -6.472708773799240589e-04, 2.048194874078035355e-03, -1.159055856987833977e-03, 4.866279778070747852e-04, -2.337188925594091415e-03, -1.605258905328810215e-03, -1.816436997614800930e-03, 5.448466254165396094e-05, -2.251335652545094490e-03, -3.164547961205244064e-03, -1.570433378219604492e-03, -8.971460047177970409e-04, -8.589831180870532990e-03, -1.721594715490937233e-03, 1.681549620116129518e-04, -1.543641556054353714e-04, -1.673826831392943859e-03, -1.274808542802929878e-03, -3.361958079040050507e-03, -7.398442365229129791e-03, -7.743644528090953827e-03, -2.576804254204034805e-03, -2.793362364172935486e-03, -4.340487997978925705e-03, -5.198782775551080704e-03, 5.317314062267541885e-04, -7.613244233652949333e-04, -4.612571559846401215e-03, -3.207710804417729378e-03, 4.900617059320211411e-04, -3.397303633391857147e-03, -2.819798653945326805e-03, -3.830378409475088120e-03, -6.395692937076091766e-03, -4.764153622090816498e-03, -1.087536686100065708e-03, -3.435453167185187340e-03, -3.715424798429012299e-03, -4.038724116981029510e-03, -2.469619037583470345e-03, -3.135599195957183838e-03, -8.755250833928585052e-03, -3.195997560396790504e-03, -1.907287864014506340e-03, -8.464721031486988068e-03, -3.524939063936471939e-03, -1.299228984862565994e-03, -7.878681644797325134e-04, -3.339373040944337845e-03, -2.655066316947340965e-03
-1.966769108548760414e-03, -8.826408535242080688e-03, -9.209504351019859314e-03, 8.495968766510486603e-03, -8.507093414664268494e-03, 2.925623208284378052e-03, -1.485428959131240845e-02, 3.591818502172827721e-03, 1.174870878458023071e-02, -1.193346269428730011e-02, 1.191209815442562103e-02, 9.317887946963310242e-03, -1.866880920715630054e-03, 1.373926270753145218e-02, -5.161263979971408844e-03, -6.946164648979902267e-04, 7.882480509579181671e-03, 2.009735256433486938e-02, -7.489493582397699356e-03, -3.098525106906890869e-03, 7.111717015504837036e-03, 4.589230520650744438e-04, 7.110278587788343430e-03, 1.546636875718832016e-02, 7.493729935958981514e-05, 1.338350120931863785e-02, -2.215664274990558624e-02, 1.070012804120779037e-02, -8.468947373330593109e-03, 7.792331278324127197e-03, 7.635658141225576401e-03, 2.726623322814702988e-03, 1.328121721744537354e-01, 3.733510896563529968e-02, 1.569677842780947685e-03, 3.500595316290855408e-02, -6.803000718355178833e-02, -6.046329159289598465e-03, -8.722533285617828369e-02, -3.924075886607170105e-02, -7.671865634620189667e-03, -7.903727889060974121e-02, 4.541107267141342163e-02, -5.859285593032836914e-03, 1.279996801167726517e-02, 2.797910198569297791e-02, 2.271231822669506073e-02, -7.553870230913162231e-02, -5.532110854983329773e-02, 7.799623906612396240e-02, -6.839585304260253906e-02, -3.468690672889351845e-03, 2.323308214545249939e-02, 3.788012638688087463e-02, 6.196375936269760132e-02, 1.492711454629898071e-01, 3.091899305582046509e-02, 4.109772294759750366e-02, 8.232372812926769257e-03, -3.440936654806137085e-02, -3.095709346234798431e-02, 3.956517204642295837e-02, 1.437823567539453506e-02, -4.633564129471778870e-02, 6.016910076141357422e-03, -3.835356235504150391e-02, 7.969843223690986633e-03, 1.995059289038181305e-02, -1.264093071222305298e-02, 7.173524238169193268e-03, -4.070808738470077515e-02, 8.060004562139511108e-03, 2.204897627234458923e-02, -1.991815306246280670e-02, 1.868249662220478058e-02, 1.414439640939235687e-02, 2.593637444078922272e-03, 4.548370838165283203e-02, -9.342794306576251984e-03, -2.993082394823431969e-03, 1.202382240444421768e-02, 4.173446074128150940e-02, 4.144631791859865189e-03, -2.493695123121142387e-03, 1.545545738190412521e-02, 2.898305654525756836e-03, 1.278847362846136093e-02, 2.471179701387882233e-02, -4.340659361332654953e-03, 2.937661111354827881e-02, -8.718007802963256836e-02, -1.821046322584152222e-02, -1.295160409063100815e-02, 1.743854582309722900e-02, -1.767637208104133606e-02, -1.739029772579669952e-02, 1.344969309866428375e-02, -4.138157516717910767e-02, -5.398502573370933533e-02, 1.838489621877670288e-02, -2.342755533754825592e-02, -1.665829494595527649e-02, 1.989351771771907806e-02, 6.805693265050649643e-03, 4.444327950477600098e-02, -2.021585591137409210e-02, 6.264358293265104294e-03, 2.670868113636970520e-02, -6.120942998677492142e-03, 3.878032788634300232e-02, -1.151361688971519470e-02, -1.910501532256603241e-02, -1.218871492892503738e-02, 4.981827363371849060e-02, 2.953641489148139954e-02, -7.966426201164722443e-03, -3.889545565471053123e-03, 9.614208713173866272e-03, 2.593564242124557495e-02, 5.508957430720329285e-02, -9.091825224459171295e-03, 4.679646342992782593e-02, -1.396975759416818619e-02, -2.685766480863094330e-02, -2.097759209573268890e-02, 3.309955075383186340e-02, -4.501122608780860901e-02, -2.594722900539636612e-03
-2.108507789671421051e-02, -4.024766851216554642e-03, -4.259160161018371582e-02, 1.303273718804121017e-02, -2.631068695336580276e-03, -1.850944198668003082e-02, -1.689305342733860016e-02, 2.104001678526401520e-02, 3.183737397193908691e-02, 1.205604802817106247e-02, 1.739045791327953339e-02, 4.412742331624031067e-03, 1.356513611972332001e-02, -1.546693127602338791e-02, -1.206506416201591492e-02, -5.862658843398094177e-02, -3.182405233383178711e-02, -2.172099612653255463e-02, -1.199089805595576763e-03, 8.947941474616527557e-03, -3.057479392737150192e-03, -3.888086229562759399e-02, -1.618779636919498444e-02, -3.939786180853843689e-02, 1.156572438776493073e-02, 1.265288330614566803e-02, -3.309421241283416748e-02, -3.840284794569015503e-02, -1.711622229777276516e-03, 2.094252221286296844e-02, -3.923735057469457388e-04, -2.166333049535751343e-02, 6.819757819175720215e-02, 2.455129772424697876e-01, -1.332052052021026611e-01, 4.738191887736320496e-02, 1.163710374385118484e-02, -2.481983751058578491e-01, 3.676059842109680176e-02, 4.058595746755599976e-03, -3.958823159337043762e-02, -1.567592471837997437e-01, -1.013575270771980286e-01, 8.049923181533813477e-02, -4.940186068415641785e-02, 4.347817506641149521e-03, 1.702405959367752075e-01, 5.810058116912841797e-02, 2.252887338399887085e-01, -1.917708516120910645e-01, 3.855432569980621338e-02, -5.332716926932334900e-02, 1.261171996593475342e-01, -1.213017031550407410e-01, -1.459460556507110596e-01, 1.825490035116672516e-02, 7.416557520627975464e-02, 1.050615459680557251e-01, -7.309533655643463135e-02, 1.632194370031356812e-01, -4.367342218756675720e-02, 7.009278237819671631e-02, -1.667769439518451691e-02, -2.039320170879364014e-01, -3.776377066969871521e-02, -1.738601922988891602e-02, -5.808722600340843201e-02, 2.881724387407302856e-02, 1.024403609335422516e-02, -2.405041269958019257e-02, -2.715939097106456757e-02, 2.970684505999088287e-02, 5.987314507365226746e-02, 7.483981549739837646e-02, 3.941370919346809387e-02, 1.324536092579364777e-02, 3.252458944916725159e-02, -2.649504505097866058e-02, -8.146110922098159790e-03, -1.059436947107315063e-01, -4.754507541656494141e-02, -4.693244397640228271e-02, 1.329808775335550308e-02, 4.809133335947990417e-02, 3.565643914043903351e-03, -5.853524804115295410e-02, -3.045671433210372925e-02, -8.099807798862457275e-02, 3.069133870303630829e-02, 2.476413175463676453e-02, -6.750626116991043091e-02, -5.977462604641914368e-02, -1.383343152701854706e-02, 4.508585855364799500e-02, 3.860445693135261536e-02, -9.239795617759227753e-03, -6.171254790388047695e-04, -8.919510990381240845e-02, -6.643138080835342407e-02, 5.556894093751907349e-02, 2.915318123996257782e-02, -6.246237084269523621e-02, -2.132744342088699341e-02, 3.529464080929756165e-02, 1.029443368315696716e-01, 9.434793889522552490e-02, 5.662221089005470276e-02, 3.201713785529136658e-02, 7.816512137651443481e-02, 1.815769076347351074e-02, -1.326384954154491425e-02, -1.514836698770523071e-01, -7.571104168891906738e-02, -3.620463982224464417e-02, 6.119338423013687134e-02, 9.179782867431640625e-02, 1.612596027553081512e-02, -5.611116439104080200e-02, -7.798295468091964722e-02, -1.276157051324844360e-01, 5.015289783477783203e-02, 5.736182630062103271e-02, -8.884907513856887817e-02, -6.427723169326782227e-02, -3.166465833783149719e-02, 8.772712200880050659e-02, 1.440384145826101303e-02, -4.496934264898300171e-02
-1.463715173304080963e-02, -7.847037166357040405e-03, -1.455668546259403229e-02, -9.421443566679954529e-03, -8.026150055229663849e-03, -9.192787110805511475e-03, -2.298394590616226196e-02, -9.719224646687507629e-03, -1.245264895260334015e-02, -3.565419698134064674e-03, -1.596947386860847473e-02, -1.168653834611177444e-02, -7.282018661499023438e-03, -2.532796375453472137e-02, -1.050750631839036942e-02, -1.593887247145175934e-02, -1.518634054809808731e-02, -5.293879657983779907e-03, -2.213629335165023804e-02, -1.160703878849744797e-02, -1.809106953442096710e-02, -1.328583806753158569e-02, -1.950379088521003723e-02, -1.756525598466396332e-02, -1.045157480984926224e-02, -1.409811154007911682e-02, -1.719995588064193726e-02, -7.366178557276725769e-03, -4.708005115389823914e-03, -8.668172173202037811e-03, -5.999042652547359467e-03, -9.663735516369342804e-03, 9.206791408360004425e-03, -3.870848938822746277e-02, -5.851526558399200439e-02, -2.130123786628246307e-02, 3.493151627480983734e-03, -2.389190951362252235e-03, 6.808025389909744263e-02, -1.007763110101222992e-02, 4.362649098038673401e-02, 3.711314126849174500e-02, -4.571761563420295715e-02, -3.728621173650026321e-03, 1.415811851620674133e-02, 1.017425209283828735e-02, 1.347927004098892212e-02, 2.525425143539905548e-02, -5.181249696761369705e-03, 2.057137899100780487e-03, 4.877466335892677307e-02, 4.723158851265907288e-02, -1.654909923672676086e-02, 2.136949449777603149e-03, 3.649038076400756836e-02, -6.125361472368240356e-02, -1.026526559144258499e-02, -9.101155400276184082e-02, -8.032638579607009888e-02, -8.175778388977050781e-02, 1.941354759037494659e-02, -3.967832773923873901e-02, -5.632039904594421387e-02, 1.172778196632862091e-02, -2.517012320458889008e-02, -1.516006980091333389e-02, -3.425534814596176147e-02, -1.679801754653453827e-02, -1.823308877646923065e-02, -1.384792663156986237e-02, -4.398519545793533325e-02, -1.728129759430885315e-02, -2.098863385617733002e-02, -2.990048192441463470e-02, -3.118705376982688904e-02, -2.167929150164127350e-02, -2.459909021854400635e-02, -4.119849577546119690e-02, -2.113077044486999512e-02, -1.311886310577392578e-02, -2.673993632197380066e-02, -1.943483203649520874e-02, -3.579830750823020935e-02, -2.423665672540664673e-02, -3.518780320882797241e-02, -2.485055476427078247e-02, -3.257263824343681335e-02, -3.736919164657592773e-02, -2.070897072553634644e-02, -2.603613212704658508e-02, -4.079806804656982422e-02, -9.124595671892166138e-03, -8.960070088505744934e-03, -1.975828036665916443e-02, -1.515943091362714767e-02, -1.008432824164628983e-02, -4.294865205883979797e-02, -5.104668065905570984e-02, -4.979209229350090027e-02, -4.221114516258239746e-02, -4.840642958879470825e-02, -3.545370325446128845e-02, -6.520353257656097412e-02, -2.379125915467739105e-02, -3.760452941060066223e-02, -4.560264572501182556e-02, -5.331279337406158447e-02, -3.556938841938972473e-02, -4.501558095216751099e-02, -6.398598104715347290e-02, -4.575325921177864075e-02, -3.986243158578872681e-02, -4.828713089227676392e-02, -4.732188954949378967e-02, -6.380166113376617432e-02, -4.201259091496467590e-02, -4.799382388591766357e-02, -4.159210994839668274e-02, -4.964980110526084900e-02, -7.474382221698760986e-02, -3.475404158234596252e-02, -4.511287435889244080e-02, -5.641246959567070007e-02, -4.499298334121704102e-02, -1.388332899659872055e-02, -4.272757098078727722e-02, -2.561878785490989685e-02, -4.581140354275703430e-02
-1.687865471467375755e-03, 4.515724722295999527e-04, -4.748491919599473476e-04, -9.670857107266783714e-04, 8.782630902715027332e-04, 2.752019790932536125e-04, -3.084865747950971127e-04, 3.131974372081458569e-04, -9.462009766139090061e-04, -4.540334048215299845e-04, 1.592592161614447832e-04, 3.406773612368851900e-04, 2.473575295880436897e-04, -1.369453500956296921e-03, 2.796117332763969898e-04, 1.254588714800775051e-04, -1.471165742259472609e-04, -3.841084544546902180e-04, -2.693020214792340994e-04, -3.380876441951841116e-04, -2.599065483082085848e-04, 1.803102553822100163e-03, 4.226854653097689152e-04, 1.152502023614943027e-03, 1.286730985157191753e-04, -4.389929817989468575e-04, -1.426242408342659473e-03, 4.397274460643529892e-04, -5.196933052502572536e-04, 1.750714000081643462e-04, 1.099738059565424919e-03, 1.034578657709062099e-03, -7.470448035746812820e-04, -8.333208970725536346e-03, 5.502437241375446320e-03, -2.387985354289412498e-03, 1.222776016220450401e-03, 2.267708070576190948e-02, -1.348424609750509262e-02, 8.176045375876128674e-04, -2.900938736274838448e-03, -7.333763875067234039e-03, -6.382453255355358124e-03, 1.449682982638478279e-03, -4.620490653906017542e-05, 1.364888041280210018e-03, 1.409285701811313629e-03, -9.293705224990844727e-03, -2.478813403286039829e-04, -2.587106544524431229e-03, 1.242970488965511322e-02, -6.540035363286733627e-03, 2.281402703374624252e-05, -1.235753530636429787e-03, -2.207221463322639465e-03, -8.795420289970934391e-04, 4.522763192653656006e-03, -2.630616305395960808e-03, -1.022717915475368500e-02, 1.418477483093738556e-02, 6.779348012059926987e-03, 3.528573783114552498e-03, -1.939189154654741287e-03, 4.905737587250769138e-04, -1.689925673417747021e-03, 4.008774121757596731e-04, -6.991271511651575565e-04, -5.894065252505242825e-04, 1.270006527192890644e-03, 1.616695226402953267e-04, -9.329034946858882904e-04, 4.547651042230427265e-04, -6.434309761971235275e-04, -1.771818497218191624e-04, 1.819098106352612376e-04, 6.400348502211272717e-04, 1.106755924411118031e-03, -1.742336782626807690e-03, 1.647401659283787012e-04, 1.061413931893184781e-04, 1.435846061212942004e-04, -2.638368750922381878e-04, -1.632619387237355113e-05, 1.316369744017720222e-04, -4.707218613475561142e-05, 1.869245432317256927e-03, 5.085031152702867985e-04, 1.941774040460586548e-03, 1.673122751526534557e-04, -3.688513825181871653e-04, -2.227311022579669952e-03, 3.298205556347966194e-04, -7.194996578618884087e-04, 3.470324736554175615e-04, -4.499200149439275265e-04, 1.005608006380498409e-03, -2.625564113259315491e-03, 6.714435294270515442e-04, -1.659357105381786823e-03, -6.580828921869397163e-04, 9.467358468100428581e-04, 6.915339617989957333e-04, -3.040413605049252510e-03, 4.412986745592206717e-04, 2.190239902120083570e-04, -5.384747637435793877e-04, 2.160621661460027099e-04, 1.053881715051829815e-03, 7.221237174235284328e-04, -2.016348997130990028e-03, -2.001255343202501535e-04, 1.384870149195194244e-03, -2.182839089073240757e-04, -7.538516656495630741e-04, -1.713038800517097116e-04, -2.499641559552401304e-04, -2.462427946738898754e-04, 2.731236862018704414e-03, 1.146955648437142372e-03, 3.473961493000388145e-03, 2.302828506799414754e-04, -5.804421962238848209e-04, -3.286066465079784393e-03, 4.884745576418936253e-04, -9.828993352130055428e-04, 1.203309744596481323e-03, -1.209032372571527958e-03, 1.545393955893814564e-03
-9.985450888052582741e-04, -1.541102421469986439e-03, -1.565254060551524162e-03, -1.239071949385106564e-03, -8.909084717743098736e-04, -7.401354960165917873e-04, -3.711913479492068291e-03, -1.801526639610528946e-03, -1.531298970803618431e-03, -3.736761573236435652e-04, -1.641943352296948433e-03, -1.907306141220033169e-03, -7.580966921523213387e-04, -3.809835063293576241e-03, -1.093160826712846756e-03, -2.346323803067207336e-03, -1.901210634969174862e-03, 2.236394357169046998e-04, -3.430555574595928192e-03, -1.328249811194837093e-03, -2.280992455780506134e-03, -1.402719411998987198e-03, -3.007981460541486740e-03, -3.330089384689927101e-03, -1.681528869085013866e-03, -1.937010209076106548e-03, -2.338297665119171143e-03, -1.284263329580426216e-03, -3.287935687694698572e-04, -1.350088394246995449e-03, -3.865676408167928457e-04, -1.630206126719713211e-03, 3.472864255309104919e-02, -2.376906387507915497e-02, -1.181650161743164062e-02, -3.285677358508110046e-02, 4.647061228752136230e-02, 1.348512247204780579e-02, 1.315911207348108292e-02, 4.231489263474941254e-03, 9.428633376955986023e-03, 5.036720260977745056e-02, 5.349080543965101242e-03, 1.092174369841814041e-02, 8.506432641297578812e-04, -1.831657811999320984e-02, 1.696951314806938171e-02, 8.103199303150177002e-02, 7.154313381761312485e-03, 5.417119711637496948e-02, 2.866612188518047333e-02, 2.883700653910636902e-02, -8.078177459537982941e-03, 1.162746697664260864e-01, -1.360733900219202042e-02, 3.361144289374351501e-02, 5.433523096144199371e-03, -8.544304221868515015e-02, -4.860987141728401184e-02, 3.120297566056251526e-02, -3.513780608773231506e-02, 1.564688282087445259e-03, -2.696835622191429138e-02, -1.647730357944965363e-02, -2.564180875197052956e-03, -4.699530079960823059e-03, -3.952296916395425797e-03, -4.006087779998779297e-03, -2.069941256195306778e-03, -9.165225201286375523e-04, -6.124108098447322845e-03, -3.017648356035351753e-03, -2.696616109460592270e-03, -5.435174331068992615e-03, -5.249219480901956558e-03, -3.376958658918738365e-03, -4.188685212284326553e-03, -5.919325631111860275e-03, -2.216407330706715584e-03, -1.833301968872547150e-03, -4.085114225745201111e-03, -1.931942184455692768e-03, -5.694383289664983749e-03, -3.869845997542142868e-03, -4.323041066527366638e-03, -2.040748950093984604e-03, -4.792616702616214752e-03, -5.795008502900600433e-03, -3.157507861033082008e-03, -4.612200427800416946e-03, -5.873248446732759476e-03, -4.056623205542564392e-03, -1.776412536855787039e-04, -2.740037161856889725e-03, -1.734892488457262516e-03, -3.123003756627440453e-03, -5.364038515836000443e-03, -1.183993462473154068e-02, -6.355365272611379623e-03, -6.554197054356336594e-03, -6.183293182402849197e-03, -6.127340719103813171e-03, -9.912029840052127838e-03, -3.969229757785797119e-03, -5.552665796130895615e-03, -7.244038861244916916e-03, -6.599699147045612335e-03, -5.566659849137067795e-03, -6.701549980789422989e-03, -9.317206218838691711e-03, -5.562160164117813110e-03, -8.307724259793758392e-03, -8.311613462865352631e-03, -5.986218806356191635e-03, -1.111828815191984177e-02, -5.739411339163780212e-03, -6.520892959088087082e-03, -4.363881889730691910e-03, -7.066333200782537460e-03, -1.195512153208255768e-02, -4.985321778804063797e-03, -6.422186270356178284e-03, -7.351804990321397781e-03, -8.679116144776344299e-03, -7.044249214231967926e-04, -6.184183992445468903e-03, -3.466137684881687164e-03, -6.444292142987251282e-03
5.018040072172880173e-03, 2.227378077805042267e-03, -5.257415585219860077e-03, -1.952177146449685097e-03, 2.176966518163681030e-02, -1.158317364752292633e-02, 3.785038366913795471e-02, 4.007697571069002151e-03, 1.672598067671060562e-03, -3.513827547430992126e-02, 1.962115638889372349e-04, 1.078463997691869736e-02, -1.480979565531015396e-02, 3.028866136446595192e-03, 9.348323568701744080e-03, 2.270488813519477844e-02, 1.159624289721250534e-02, 1.022541895508766174e-02, 1.989852264523506165e-02, -1.966211386024951935e-02, 9.076239541172981262e-03, 8.163996972143650055e-03, 1.209445018321275711e-02, 1.025138329714536667e-02, -1.271465327590703964e-03, 3.961219917982816696e-04, 1.850358583033084869e-02, 1.150816213339567184e-02, 1.027550734579563141e-02, 8.969451882876455784e-04, -2.859303914010524750e-02, 1.227059774100780487e-02, -7.697737310081720352e-04, -1.764480397105216980e-02, -1.715515367686748505e-02, 8.779098093509674072e-02, 5.613662675023078918e-02, 8.088757097721099854e-02, 8.942879736423492432e-02, 1.893663778901100159e-02, -7.396816462278366089e-02, -2.956942096352577209e-02, 3.618643060326576233e-02, -2.961774356663227081e-02, -2.379846759140491486e-02, -8.965805917978286743e-02, -4.429832100868225098e-02, 1.125291809439659119e-01, -5.619996413588523865e-02, -4.165539145469665527e-02, -6.613780558109283447e-02, -2.690815739333629608e-02, 2.444317005574703217e-02, -1.180320512503385544e-02, 4.867338389158248901e-02, -9.104720503091812134e-02, -6.225992925465106964e-03, 8.648962527513504028e-02, 2.846594341099262238e-02, 6.588024646043777466e-02, 3.423137590289115906e-02, 6.900093704462051392e-02, 1.901296153664588928e-02, -4.632054828107357025e-03, 4.233328253030776978e-02, 4.365181550383567810e-03, 3.235619515180587769e-02, 3.243655711412429810e-02, 2.077091857790946960e-02, -7.543807383626699448e-03, 8.662665635347366333e-02, 4.933383781462907791e-03, 1.058459375053644180e-02, -4.889950901269912720e-02, 4.271848592907190323e-03, 1.941951178014278412e-02, -2.427428727969527245e-03, 3.926865011453628540e-02, 1.854619197547435760e-02, 5.449857935309410095e-02, 2.152198180556297302e-02, 3.493940085172653198e-02, 3.492787107825279236e-02, -1.433557085692882538e-02, 1.889570057392120361e-02, 9.364340454339981079e-03, 1.997996494174003601e-02, 1.082184631377458572e-02, -7.067753933370113373e-03, 2.076800726354122162e-02, 9.176532179117202759e-02, 3.727488964796066284e-02, 3.264092840254306793e-03, 7.861776277422904968e-03, -7.752823177725076675e-03, 2.124369330704212189e-02, -4.113216884434223175e-03, 6.553940474987030029e-02, -1.502486877143383026e-02, 1.798866316676139832e-03, -1.064666546881198883e-03, 9.228805080056190491e-03, 4.469837993383407593e-02, 9.768084855750203133e-04, 1.610145904123783112e-02, -2.494687028229236603e-02, -1.982968300580978394e-02, 4.034665599465370178e-02, -1.815682649612426758e-02, 2.898253314197063446e-02, 2.389205805957317352e-02, 1.000126972794532776e-01, 3.587463870644569397e-02, 5.026946775615215302e-03, 2.740351669490337372e-02, -1.937014423310756683e-02, -1.035128254443407059e-02, 1.107391901314258575e-02, 4.474630579352378845e-02, 8.405604213476181030e-02, -1.261159125715494156e-02, 1.126749068498611450e-02, 2.006868086755275726e-02, 5.642018467187881470e-02, -6.905141286551952362e-03, 2.505485713481903076e-02, -6.227187812328338623e-02, 7.423219084739685059e-02
-1.447286829352378845e-02, -7.389085832983255386e-03, -1.545888278633356094e-02, -6.811384577304124832e-03, -9.277447126805782318e-03, -1.008698064833879471e-02, -2.174534276127815247e-02, -7.285102736204862595e-03, -8.549770340323448181e-03, -1.025473116897046566e-03, -1.325167808681726456e-02, -9.355532005429267883e-03, -5.400582682341337204e-03, -2.331472188234329224e-02, -9.651263244450092316e-03, -1.754860579967498779e-02, -1.373822800815105438e-02, -4.439190495759248734e-03, -1.753695867955684662e-02, -9.554604068398475647e-03, -1.533486787229776382e-02, -1.382040418684482574e-02, -1.697828434407711029e-02, -1.728446781635284424e-02, -9.007228538393974304e-03, -1.082894019782543182e-02, -1.893853209912776947e-02, -7.578604388982057571e-03, -6.772096268832683563e-03, -5.541415885090827942e-03, -7.727023214101791382e-03, -7.917013950645923615e-03, 4.422299563884735107e-02, 3.037245944142341614e-02, 7.335855811834335327e-02, 2.271262556314468384e-02, 3.174506500363349915e-02, -5.823174491524696350e-02, 5.123030394315719604e-02, -1.962435804307460785e-02, 1.809553941711783409e-03, -1.130069866776466370e-01, -7.136972993612289429e-02, -1.344930613413453102e-03, 9.287041611969470978e-03, 9.841390699148178101e-02, 1.485152449458837509e-02, -5.379035696387290955e-02, -2.776878140866756439e-02, -8.306028693914413452e-02, -1.749962382018566132e-02, -5.115908756852149963e-02, -3.425032272934913635e-02, 1.074453219771385193e-01, -1.396299339830875397e-02, -6.485869642347097397e-03, 1.142665836960077286e-02, -4.556403029710054398e-03, 4.873352125287055969e-02, 1.067752018570899963e-02, -7.875122246332466602e-04, 1.863962039351463318e-02, 2.242932654917240143e-02, 1.417328254319727421e-03, -2.352609112858772278e-02, -1.589956693351268768e-02, -3.518554195761680603e-02, -1.355572137981653214e-02, -1.650926843285560608e-02, -1.660389453172683716e-02, -4.302135482430458069e-02, -1.275786012411117554e-02, -1.284659374505281448e-02, -2.418820932507514954e-02, -2.550555206835269928e-02, -1.672719791531562805e-02, -1.938486099243164062e-02, -3.623485937714576721e-02, -1.864118687808513641e-02, -1.837105490267276764e-02, -2.368715405464172363e-02, -1.606586575508117676e-02, -2.785401418805122375e-02, -1.956673152744770050e-02, -2.833728678524494171e-02, -2.463608421385288239e-02, -2.568545937538146973e-02, -3.521595522761344910e-02, -1.815508492290973663e-02, -1.864903606474399567e-02, -4.660609364509582520e-02, -1.036571711301803589e-02, -1.128169056028127670e-02, -1.308019086718559265e-02, -1.889846287667751312e-02, -9.062718600034713745e-03, -3.664529323577880859e-02, -5.248744413256645203e-02, -5.328615382313728333e-02, -3.281575441360473633e-02, -4.194818809628486633e-02, -3.897488862276077271e-02, -5.785869061946868896e-02, -1.856627874076366425e-02, -1.793502084910869598e-02, -3.742183744907379150e-02, -4.325242340564727783e-02, -2.584099955856800079e-02, -3.652146458625793457e-02, -5.523711070418357849e-02, -3.981733322143554688e-02, -4.271708428859710693e-02, -4.673298820853233337e-02, -3.756305575370788574e-02, -4.878447577357292175e-02, -3.303002193570137024e-02, -4.062142223119735718e-02, -3.797658532857894897e-02, -4.046036675572395325e-02, -6.896118819713592529e-02, -2.951911464333534241e-02, -3.066210262477397919e-02, -6.096338108181953430e-02, -4.213070124387741089e-02, -1.919012516736984253e-02, -2.790311723947525024e-02, -2.935540489852428436e-02, -3.856491670012474060e-02
-3.641113266348838806e-02, 2.543061971664428711e-02, -4.947662819176912308e-03, -3.158002719283103943e-02, -1.938917906954884529e-03, -4.479820840060710907e-03, 5.880740471184253693e-03, 6.553895771503448486e-03, -1.865556463599205017e-02, 2.923290245234966278e-03, 1.534000877290964127e-02, 2.034496888518333435e-02, 1.399175263941287994e-02, -1.986002549529075623e-02, 3.965259063988924026e-03, 1.922265626490116119e-03, 8.110827766358852386e-03, 4.620974417775869370e-03, 1.396676618605852127e-02, 1.348929386585950851e-02, 1.316720899194478989e-02, 4.503927193582057953e-03, 1.465417630970478058e-02, 2.935110591351985931e-02, 7.659461814910173416e-03, 2.983669983223080635e-03, 1.543862465769052505e-02, -1.796276122331619263e-02, -4.057634249329566956e-02, 2.580396644771099091e-02, -2.286377595737576485e-03, 5.099941976368427277e-03, 6.422365456819534302e-02, 5.351686105132102966e-02, 1.375122666358947754e-01, 1.704324036836624146e-02, 1.918374001979827881e-01, -9.065328538417816162e-02, -3.079988993704319000e-02, -3.872927650809288025e-02, 4.580537974834442139e-02, -1.487883925437927246e-01, -2.410563379526138306e-01, -1.119741052389144897e-02, 7.341808080673217773e-02, -5.021901428699493408e-02, 6.965331733226776123e-02, -1.458683907985687256e-01, 7.389454171061515808e-03, 2.571863122284412384e-03, -3.995776176452636719e-02, 2.614078298211097717e-02, -9.863257408142089844e-03, -1.992646455764770508e-01, -3.620680421590805054e-02, -3.239374235272407532e-02, 6.832479685544967651e-02, 5.471941456198692322e-02, 6.555636972188949585e-02, 1.943890750408172607e-02, 1.133009344339370728e-01, -3.356177359819412231e-02, -3.097280263900756836e-01, -1.294372081756591797e-01, -5.477152764797210693e-02, 4.441708326339721680e-02, 1.665074005722999573e-02, -2.609557844698429108e-02, 1.601589284837245941e-02, -2.875980222597718239e-03, 1.897320151329040527e-02, 8.375275880098342896e-03, -1.279084291309118271e-02, 5.536576360464096069e-02, 4.129211977124214172e-02, 3.788415715098381042e-02, 4.311196133494377136e-02, -7.924110628664493561e-03, 1.893990300595760345e-02, -4.935014527291059494e-03, 2.058452181518077850e-02, -1.149077899754047394e-02, 4.457553848624229431e-02, 5.180814489722251892e-02, 2.509556710720062256e-02, 4.370460659265518188e-02, 2.446517348289489746e-02, 6.330528110265731812e-02, 2.038698270916938782e-02, 1.772195659577846527e-02, 2.229344099760055542e-02, -1.435793191194534302e-02, -6.711556017398834229e-02, 4.505065456032752991e-02, 2.941854111850261688e-02, 2.518384717404842377e-02, -9.340152144432067871e-02, 1.107571646571159363e-01, 2.094643190503120422e-03, -2.374520152807235718e-02, 9.568708948791027069e-03, 3.271614387631416321e-02, 9.029994718730449677e-03, 5.340909585356712341e-03, 1.893167383968830109e-02, 1.797905378043651581e-02, 4.102953150868415833e-02, 5.718379840254783630e-02, 5.904382839798927307e-02, -2.496771141886711121e-02, 2.985377795994281769e-02, 3.155029565095901489e-02, 4.220316186547279358e-02, -6.011777743697166443e-02, 8.808950334787368774e-02, 8.472444117069244385e-02, 2.593746781349182129e-02, 1.544043701142072678e-02, 3.620153665542602539e-02, 8.302699029445648193e-02, 3.271528333425521851e-02, 2.399111166596412659e-02, -2.463933639228343964e-02, -2.092728577554225922e-02, -1.056260839104652405e-01, 1.142159923911094666e-01, -1.639654859900474548e-02, 4.779351875185966492e-02
-7.047520484775304794e-03, -5.760565865784883499e-03, -7.756603881716728210e-03, 2.336069196462631226e-02, 1.388140022754669189e-02, -6.045164074748754501e-03, -1.464996393769979477e-02, 1.522125862538814545e-02, 1.492020115256309509e-02, 2.486132644116878510e-02, 1.750456728041172028e-02, 7.747271563857793808e-03, 1.124128699302673340e-02, 2.495153574272990227e-03, 3.726073482539504766e-04, -3.697878122329711914e-02, -2.683353610336780548e-03, 8.559259586036205292e-03, -8.035210892558097839e-03, 1.139406487345695496e-02, 8.597419597208499908e-03, -3.012435045093297958e-03, 5.148329772055149078e-03, -9.382627904415130615e-03, 8.375627920031547546e-03, 7.642558775842189789e-03, -2.933909185230731964e-02, 1.755892299115657806e-02, 1.272002700716257095e-03, 2.042002789676189423e-02, 1.371332257986068726e-02, -4.135363735258579254e-03, 1.239841952919960022e-01, 1.073147803544998169e-01, -1.200407221913337708e-01, 4.769443348050117493e-02, -9.114918857812881470e-02, -2.322275191545486450e-01, 6.638201326131820679e-02, -2.230643667280673981e-02, -1.547520011663436890e-01, 5.521927773952484131e-02, 7.823478430509567261e-02, 1.835636235773563385e-02, -1.235067751258611679e-02, -1.720781177282333374e-01, 9.993976354598999023e-02, 8.834309130907058716e-02, 4.137418791651725769e-02, -1.584834903478622437e-01, 8.160949498414993286e-02, -1.401950269937515259e-01, 1.070466488599777222e-01, -5.194490030407905579e-02, 3.388190641999244690e-02, 6.298951059579849243e-02, 4.312879964709281921e-02, 7.160963118076324463e-02, -1.420931518077850342e-01, 2.128682583570480347e-01, 5.062346905469894409e-02, 4.308238252997398376e-02, 4.799288138747215271e-02, -1.666640341281890869e-01, -1.230643596500158310e-03, -4.703198000788688660e-02, -2.204265445470809937e-03, 4.107012227177619934e-02, 2.627329528331756592e-02, -2.524493820965290070e-02, -3.044160827994346619e-02, 2.624703571200370789e-02, 3.025045990943908691e-02, 5.652177333831787109e-02, 1.951697841286659241e-02, 1.777516305446624756e-02, 3.310838341712951660e-02, 1.954772509634494781e-02, -6.956652738153934479e-03, -5.124345421791076660e-02, -1.548310182988643646e-02, 7.744148373603820801e-03, 7.201062049716711044e-03, 2.076796814799308777e-02, 1.806196756660938263e-02, -1.822741329669952393e-02, 4.458917304873466492e-03, -2.811165153980255127e-02, 1.741138659417629242e-02, 5.892904009670019150e-03, -9.341203421354293823e-02, -4.159455001354217529e-02, 5.203914362937211990e-03, 4.053203761577606201e-02, 2.107855863869190216e-03, -5.020000785589218140e-02, 4.932202026247978210e-02, -7.600937038660049438e-02, -3.497256338596343994e-02, 6.901395320892333984e-02, 5.471651256084442139e-02, -5.794083699584007263e-02, 1.127605093643069267e-03, 3.445428982377052307e-02, 6.109380349516868591e-02, 7.592546194791793823e-02, 4.830101132392883301e-02, 3.514472395181655884e-02, 5.099885910749435425e-02, 6.701236963272094727e-02, -3.847407177090644836e-03, -8.500282466411590576e-02, -5.386811494827270508e-02, -1.081315986812114716e-02, 3.260498866438865662e-02, 3.354758396744728088e-02, 1.937192492187023163e-02, 4.187247529625892639e-02, -1.521935593336820602e-02, -1.052247453480958939e-02, 3.173449635505676270e-02, 4.510377719998359680e-02, -7.557302713394165039e-02, -3.199331462383270264e-02, 8.902098983526229858e-03, 5.895173549652099609e-02, -2.984940540045499802e-03, -3.365077450871467590e-02
2.754664979875087738e-03, 6.675698095932602882e-04, -5.531854461878538132e-03, -9.432169608771800995e-03, -1.012366637587547302e-02, 1.151458593085408211e-03, -5.407672375440597534e-03, -5.226137582212686539e-03, -7.719793356955051422e-03, -1.410952676087617874e-02, -6.666566710919141769e-03, -3.760882886126637459e-03, -1.327980309724807739e-03, -1.055617257952690125e-02, -1.672263606451451778e-03, -8.456027717329561710e-04, -1.692419988103210926e-03, 1.652230857871472836e-03, -5.356102716177701950e-03, -2.225941047072410583e-03, -4.453176632523536682e-03, -2.565268659964203835e-03, -4.997828509658575058e-03, -1.120782690122723579e-05, -3.475024364888668060e-03, -6.693760398775339127e-03, 6.288126111030578613e-03, -9.435563115403056145e-04, -9.433370083570480347e-03, -2.615587320178747177e-03, -7.777175400406122208e-03, -1.675036735832691193e-03, 4.061818495392799377e-02, 2.172661758959293365e-02, 1.204459462314844131e-02, -4.468689672648906708e-03, 4.294705390930175781e-02, 2.257654257118701935e-02, 1.630830764770507812e-02, 3.122312249615788460e-03, 7.261267863214015961e-03, -4.224886652082204819e-03, -7.377079874277114868e-02, -1.741157844662666321e-02, 1.443005725741386414e-02, 2.070767991244792938e-02, 9.753030724823474884e-03, 3.437021002173423767e-02, -1.118920743465423584e-02, 5.169456824660301208e-02, 1.249241642653942108e-02, 1.441874261945486069e-02, -2.540498785674571991e-02, -3.024270199239253998e-02, 2.199594117701053619e-02, -1.218036748468875885e-02, -1.109720300883054733e-02, -1.838899776339530945e-02, 4.347111657261848450e-02, -2.314885146915912628e-02, 3.178255865350365639e-03, -1.794360950589179993e-02, -7.826749980449676514e-02, 4.706582054495811462e-03, 4.864617716521024704e-03, 1.218576333485543728e-03, -3.175392281264066696e-03, -5.118883680552244186e-03, -1.315777748823165894e-02, 2.693249378353357315e-03, -1.168453041464090347e-02, -8.853573352098464966e-03, -1.390886865556240082e-02, 4.206709563732147217e-03, -8.267370983958244324e-03, -7.405544631183147430e-03, -9.513848926872014999e-04, -9.395183995366096497e-03, -2.524057403206825256e-03, -1.130778528749942780e-02, -2.778302878141403198e-03, -1.776952412910759449e-03, -1.170873455703258514e-02, -4.208760801702737808e-04, -5.935480818152427673e-03, 2.921836450695991516e-03, -7.384425494819879532e-03, 5.218202248215675354e-03, -2.806081669405102730e-03, -1.012024655938148499e-02, 1.322078611701726913e-02, 1.691645127721130848e-03, -1.440324354916810989e-02, -6.732446607202291489e-03, -3.890850930474698544e-04, 1.994171645492315292e-03, -2.009090222418308258e-02, 6.467737257480621338e-03, -1.567299943417310715e-03, -2.106052450835704803e-02, -2.134534530341625214e-02, 2.259574830532073975e-03, -3.014320693910121918e-02, -1.173197664320468903e-02, -2.113834768533706665e-02, -1.633309572935104370e-02, -1.819855347275733948e-02, -1.393178198486566544e-02, -9.182514622807502747e-03, -3.888181596994400024e-02, -5.580852273851633072e-03, 2.196036465466022491e-02, 1.021265401504933834e-03, -1.282119937241077423e-02, -1.860476471483707428e-02, -2.605222165584564209e-03, -9.731354191899299622e-03, -4.605647642165422440e-03, -1.211450900882482529e-02, 1.860102452337741852e-02, -7.955529727041721344e-03, -2.007455006241798401e-02, 3.653020365163683891e-03, -1.071841362863779068e-02, -1.466206461191177368e-02, -1.045110635459423065e-02, -8.285961113870143890e-03, -6.984957959502935410e-03
-5.390487238764762878e-02, 1.008757017552852631e-02, 4.713872447609901428e-03, -1.408952753990888596e-02, 1.560872886329889297e-02, 9.963359683752059937e-03, -1.954669877886772156e-02, 9.409294463694095612e-03, -3.140734881162643433e-02, -2.212781272828578949e-02, 2.354681491851806641e-02, 1.872831024229526520e-02, 2.907721139490604401e-02, -1.966613717377185822e-02, 1.973250880837440491e-02, -9.904800914227962494e-03, 1.824871636927127838e-02, 2.084368094801902771e-02, 2.049251832067966461e-02, 3.663094341754913330e-02, 2.547069452702999115e-02, 2.863027900457382202e-02, 1.071204151958227158e-02, 2.739993669092655182e-02, 1.600056141614913940e-02, -2.346464898437261581e-03, 1.358271576464176178e-02, 1.400410942733287811e-02, -1.018258463591337204e-02, 3.018515743315219879e-02, -1.472521200776100159e-02, 3.240582766011357307e-03, 1.934420689940452576e-02, 1.338242739439010620e-01, -4.272780381143093109e-03, 2.256224863231182098e-02, -2.328033791854977608e-03, -9.448479861021041870e-02, -1.969298720359802246e-02, -8.921007625758647919e-03, -5.472982674837112427e-02, -3.010475076735019684e-02, 2.397000044584274292e-02, -2.780584804713726044e-02, 3.709482029080390930e-02, 2.082493528723716736e-02, -3.003043588250875473e-03, -2.006151974201202393e-01, 8.198673278093338013e-02, -1.358131319284439087e-01, 5.637427791953086853e-03, 5.630239844322204590e-02, 7.370953261852264404e-02, -8.630201965570449829e-02, -7.731090486049652100e-02, 5.720010399818420410e-02, -1.782340742647647858e-02, 4.620925709605216980e-02, 2.134064733982086182e-01, 8.402080833911895752e-02, -9.000050276517868042e-02, -4.251057654619216919e-02, -7.217468321323394775e-02, -2.428384311497211456e-02, -7.312720268964767456e-02, 1.825576648116111755e-02, 5.289273709058761597e-02, 3.715757653117179871e-02, 4.020513594150543213e-02, 9.233430959284305573e-03, -4.853834956884384155e-02, 1.906136609613895416e-02, -3.402594849467277527e-02, 7.932130992412567139e-02, 5.075315386056900024e-02, 3.706077486276626587e-02, 7.005853950977325439e-02, 2.347131632268428802e-02, 4.579542577266693115e-02, -3.612545132637023926e-02, 4.525874182581901550e-02, 2.480890974402427673e-02, 5.120740085840225220e-02, 6.437697261571884155e-02, 5.699412897229194641e-02, 7.314547896385192871e-02, 9.632274508476257324e-03, 7.791927456855773926e-02, 3.264551237225532532e-02, 1.054062391631305218e-03, -2.449422888457775116e-02, 3.560129180550575256e-02, -1.633815467357635498e-02, 4.768549650907516479e-02, -3.406926244497299194e-02, 1.580971106886863708e-02, -2.703158557415008545e-02, 4.707815498113632202e-02, 8.033492416143417358e-02, 4.977904632687568665e-02, 1.266735792160034180e-01, 1.375711336731910706e-02, -4.838109016418457031e-02, 3.046735934913158417e-02, -3.400707989931106567e-02, 8.463195711374282837e-02, 8.530960977077484131e-02, 5.434305593371391296e-02, 1.108446568250656128e-01, -4.301957413554191589e-02, 9.071668982505798340e-02, 1.550779789686203003e-01, 5.614713206887245178e-02, 3.953135572373867035e-03, 7.437149435281753540e-02, 1.167054176330566406e-01, 7.136377692222595215e-02, 2.282503247261047363e-01, -5.651158280670642853e-04, 2.077982723712921143e-01, 6.063966825604438782e-02, 3.615407506003975868e-03, -7.188720256090164185e-02, 4.696891084313392639e-02, -5.911874584853649139e-03, 8.998201042413711548e-02, 1.925711985677480698e-03, 2.956033498048782349e-02
5.818413570523262024e-03, 1.479009166359901428e-02, -1.003077812492847443e-02, -2.113682683557271957e-03, 2.841145265847444534e-03, 5.179817322641611099e-03, -8.324354887008666992e-03, -1.145890634506940842e-02, -2.907832711935043335e-02, -2.257850207388401031e-02, -9.456995874643325806e-03, 2.732726570684462786e-04, -1.148643065243959427e-02, -5.417027510702610016e-03, 7.144886767491698265e-04, 1.436455827206373215e-02, 2.434242283925414085e-03, -2.056379429996013641e-02, -3.476322814822196960e-02, -1.529834885150194168e-02, -1.691390760242938995e-02, 1.854544132947921753e-02, 1.331760897301137447e-03, 1.787323132157325745e-02, -1.478511281311511993e-02, -1.392092648893594742e-02, -1.821460202336311340e-02, 4.494563210755586624e-03, 3.163617104291915894e-03, -1.020210795104503632e-02, -1.239776331931352615e-02, 5.055266432464122772e-03, 3.195498287677764893e-01, -1.568719558417797089e-02, 7.367763668298721313e-02, 2.527164816856384277e-01, 1.064667180180549622e-01, 1.206038668751716614e-01, 5.429131165146827698e-02, -3.882161900401115417e-02, -1.166412383317947388e-01, 1.644845935516059399e-03, -1.380246877670288086e-01, -1.691165938973426819e-02, 4.721714556217193604e-02, -1.744668334722518921e-01, -1.316992565989494324e-04, 2.867887727916240692e-03, -5.837784707546234131e-02, -7.142872363328933716e-02, 6.539673358201980591e-02, 8.026955276727676392e-02, 2.215125598013401031e-03, -1.258927583694458008e-01, 1.681924052536487579e-02, 2.520619332790374756e-02, -1.733411289751529694e-02, 1.006786599755287170e-01, -2.428615838289260864e-01, -2.409615516662597656e-01, 1.277776658535003662e-01, -1.860919967293739319e-02, -3.418292701244354248e-01, 9.046584367752075195e-02, -1.749283634126186371e-03, 3.731355071067810059e-02, -3.425515070557594299e-02, -1.242859289050102234e-02, 9.473045356571674347e-04, 1.246412843465805054e-02, -1.723472774028778076e-02, -1.975200325250625610e-02, -5.363363027572631836e-02, -6.331247836351394653e-02, -1.415363792330026627e-02, -1.734568737447261810e-03, -3.588085249066352844e-02, -2.726372145116329193e-02, -3.280412638559937477e-03, 1.810641400516033173e-02, 1.939675305038690567e-03, -3.351622074842453003e-02, -6.118010729551315308e-02, -2.676084078848361969e-02, -3.845595568418502808e-02, 2.641669660806655884e-02, 1.032299641519784927e-02, 2.620958164334297180e-02, -2.860792726278305054e-02, -1.679905503988265991e-02, -4.566816613078117371e-02, 1.290922798216342926e-02, 1.034365594387054443e-02, -2.566225081682205200e-02, -3.003209456801414490e-02, 1.980402134358882904e-02, -4.343345761299133301e-02, 9.130835533142089844e-02, -7.562033087015151978e-02, -3.277733176946640015e-02, -4.593186080455780029e-02, 1.117475237697362900e-02, -5.060116201639175415e-02, -2.624649927020072937e-02, -8.729068189859390259e-02, -6.861213594675064087e-02, -4.249392077326774597e-02, -5.482028704136610031e-03, -5.206315219402313232e-02, -6.647765636444091797e-02, -1.978968642652034760e-02, 1.397872865200042725e-01, 2.917550737038254738e-03, -1.283535808324813843e-01, -1.002077013254165649e-01, -3.761601075530052185e-02, -5.865596979856491089e-02, -2.030155993998050690e-02, 4.369762167334556580e-02, 1.450521349906921387e-01, -4.661214724183082581e-02, -5.516022443771362305e-02, -4.515134915709495544e-02, 8.448511362075805664e-04, 9.007797343656420708e-04, -3.844569623470306396e-02, -4.228349402546882629e-02, 1.597237400710582733e-02
-1.104796398431062698e-02, 1.835960079915821552e-03, -5.070436280220746994e-03, -2.517296001315116882e-03, -3.681823844090104103e-03, 2.414870104985311627e-04, 4.005416703876107931e-04, 2.182502299547195435e-03, -4.506030585616827011e-03, -3.069783793762326241e-03, -7.317455601878464222e-04, 2.418687567114830017e-03, -2.569047966971993446e-03, -2.184996381402015686e-03, -3.807798260822892189e-03, 5.003616679459810257e-03, -1.253047259524464607e-03, -4.008935764431953430e-03, 1.849810359999537468e-05, -2.566676819697022438e-03, -4.254333209246397018e-03, 1.910688355565071106e-03, 1.840975484810769558e-03, 1.093158777803182602e-02, 1.498114899732172489e-03, -2.343617845326662064e-03, -8.544102311134338379e-04, 1.726255868561565876e-03, -1.831097411923110485e-03, 1.942577771842479706e-03, -1.509356428869068623e-03, 3.312191460281610489e-03, 1.351930666714906693e-02, 9.112746454775333405e-03, 3.018619026988744736e-03, 4.251169972121715546e-03, 8.025586605072021484e-03, -6.573155988007783890e-03, 7.528192829340696335e-03, -1.704737078398466110e-04, -1.729189418256282806e-03, -2.206337451934814453e-02, -1.397489942610263824e-02, 7.344761979766190052e-04, 1.180255599319934845e-02, -5.862992256879806519e-03, 5.427241791039705276e-03, -6.256718654185533524e-03, 3.194381715729832649e-03, -5.625355988740921021e-03, 8.509277831763029099e-04, 6.050337688066065311e-04, -9.379255934618413448e-04, -1.736330799758434296e-03, -2.810925943776965141e-03, -2.805949188768863678e-03, 3.021768294274806976e-03, 9.344954974949359894e-03, 9.721615351736545563e-03, 5.355685483664274216e-03, -4.559190012514591217e-03, 1.520956284366548061e-04, -3.616560949012637138e-03, -5.725384689867496490e-03, -1.278671715408563614e-02, 1.879442017525434494e-03, -4.493635147809982300e-03, -4.112262278795242310e-03, -3.051641862839460373e-03, 2.308275725226849318e-04, -1.373648410663008690e-05, 1.905440352857112885e-03, -3.789991373196244240e-03, -1.962595153599977493e-03, 6.251041777431964874e-04, 2.924781059846282005e-03, 3.902469761669635773e-03, -2.523215254768729210e-03, -4.420722834765911102e-03, 3.898933297023177147e-03, -1.107063144445419312e-03, -3.767381655052304268e-03, 9.484320180490612984e-04, 1.465940149500966072e-04, -3.627727506682276726e-03, 3.103611525148153305e-04, 1.793340547010302544e-03, 1.264228112995624542e-02, 2.612744690850377083e-03, -2.545533468946814537e-03, 1.296554226428270340e-03, 1.652989885769784451e-03, -2.608587499707937241e-03, 2.280774060636758804e-03, 1.218722667545080185e-03, 3.392609767615795135e-03, -1.226750854402780533e-02, 1.424815272912383080e-03, -4.404014907777309418e-03, -3.311800537630915642e-03, -2.730825915932655334e-03, 6.097916630096733570e-04, -1.322970492765307426e-03, 1.591106993146240711e-03, -1.397269079461693764e-03, -2.403648570179939270e-03, -8.774787420406937599e-04, 4.124920815229415894e-03, -1.034098095260560513e-03, -4.150872118771076202e-03, -5.517106968909502029e-03, -2.028921851888298988e-03, -1.421325490809977055e-03, -5.230700131505727768e-03, 1.543803839012980461e-03, -2.585951238870620728e-03, -3.827925072982907295e-03, 6.057288497686386108e-03, 3.056410932913422585e-03, 6.368493195623159409e-03, 2.246925374493002892e-03, -4.270791076123714447e-03, -3.477642079815268517e-03, 1.416056649759411812e-03, -4.287871066480875015e-03, 6.333126686513423920e-03, -5.857641808688640594e-04, 3.243573941290378571e-03
-9.303317405283451080e-03, -1.076393411494791508e-03, -7.550284266471862793e-03, 2.612466923892498016e-02, 6.818140391260385513e-03, -1.120442431420087814e-02, -2.589163370430469513e-02, -9.535144781693816185e-04, -1.187754212878644466e-03, 3.642165660858154297e-02, -4.299547988921403885e-03, -9.790390729904174805e-03, -6.867960095405578613e-03, 1.007228158414363861e-02, -1.726856338791549206e-03, -2.405450865626335144e-02, -2.139192260801792145e-02, -1.585611887276172638e-02, -2.777490764856338501e-02, -7.375386543571949005e-03, -2.446344681084156036e-02, -1.994026824831962585e-02, -9.555506519973278046e-03, -4.365083761513233185e-03, -9.370557032525539398e-03, 4.353397060185670853e-03, -1.713194511830806732e-02, 7.373094558715820312e-03, 8.609313517808914185e-03, -4.203140269964933395e-03, 3.983973339200019836e-02, 1.038859598338603973e-03, 1.568651348352432251e-01, -8.422122150659561157e-02, 8.053521811962127686e-02, 3.578399121761322021e-02, -2.721457276493310928e-03, 3.087417036294937134e-02, 1.657875031232833862e-01, -7.084879092872142792e-03, -9.937283582985401154e-03, 1.916402205824851990e-02, -4.509148374199867249e-02, -2.339739724993705750e-02, -5.053137242794036865e-02, -2.920513600111007690e-02, 2.012897096574306488e-02, 1.537831276655197144e-01, -5.252196639776229858e-02, -1.930802315473556519e-01, 2.955481410026550293e-02, -3.438048064708709717e-02, -7.738395128399133682e-03, -1.168868541717529297e-01, 6.716966629028320312e-02, -1.532040685415267944e-01, 3.696648776531219482e-02, 5.104546993970870972e-02, -3.885538876056671143e-01, -4.134842753410339355e-02, 7.565976679325103760e-02, 2.056524716317653656e-02, -1.145759969949722290e-02, 4.011918604373931885e-02, -2.088717930018901825e-02, 7.394436281174421310e-03, -6.205623596906661987e-02, -8.207315579056739807e-03, 5.781245417892932892e-04, -2.400948479771614075e-02, -5.422247946262359619e-02, -5.475039593875408173e-03, -8.506109006702899933e-03, -4.994607716798782349e-02, -3.039733693003654480e-02, -1.475320011377334595e-02, -3.396251052618026733e-02, -1.143041066825389862e-02, -1.713607646524906158e-02, 2.953762887045741081e-03, -3.486288338899612427e-02, -8.317622542381286621e-02, -4.077554494142532349e-02, -2.917558699846267700e-02, -5.734148994088172913e-02, -5.800367519259452820e-02, -1.823125220835208893e-02, -1.637268252670764923e-02, -2.037003636360168457e-02, -4.915710072964429855e-03, -9.447818249464035034e-02, -2.201436087489128113e-02, 1.958227902650833130e-02, -6.441563833504915237e-03, 1.999221369624137878e-02, -8.497912436723709106e-03, 1.739118993282318115e-02, -1.331574842333793640e-02, -3.439151868224143982e-02, 2.405625768005847931e-02, -1.890610344707965851e-02, -3.615106269717216492e-02, -6.004030629992485046e-02, -6.931202020496129990e-03, -2.311008423566818237e-02, -4.502023104578256607e-03, -2.470589615404605865e-02, -2.862422354519367218e-02, -2.699993550777435303e-02, 1.289976201951503754e-02, -2.850797772407531738e-02, 1.781892031431198120e-02, -6.847161054611206055e-02, -1.196181699633598328e-01, -6.955111771821975708e-02, -2.245868556201457977e-02, -4.300194978713989258e-02, -3.360259905457496643e-02, -1.535641960799694061e-02, -1.991469785571098328e-02, -1.508878543972969055e-02, -1.400111895054578781e-02, -3.492210432887077332e-02, 1.224287226796150208e-02, 3.001941367983818054e-02, -3.225377202033996582e-02, 3.617564961314201355e-02, -3.103717789053916931e-02
-2.126577496528625488e-02, -8.443194441497325897e-03, -1.787137053906917572e-02, -1.380473095923662186e-02, -8.585766889154911041e-03, -1.345259603112936020e-02, -1.665898039937019348e-02, -2.796505112200975418e-03, -2.809782978147268295e-03, 4.274777136743068695e-03, -9.018546901643276215e-03, -2.852539299055933952e-03, -3.764118300750851631e-04, -2.858688682317733765e-02, -1.000134553760290146e-02, -1.682142540812492371e-02, -7.355561014264822006e-03, -2.512168372049927711e-03, -9.835817851126194000e-03, -4.547751508653163910e-03, -8.652791380882263184e-03, -1.120529882609844208e-02, -1.048943027853965759e-02, -1.299178786575794220e-02, -6.364455912262201309e-03, -9.189354255795478821e-03, -2.101177163422107697e-02, -6.368817761540412903e-03, -1.204233802855014801e-02, -6.077313446439802647e-04, -1.684776693582534790e-02, -3.489849623292684555e-03, 3.625550121068954468e-02, -5.866815149784088135e-02, -3.505378495901823044e-03, -6.482619792222976685e-02, -6.348547339439392090e-02, 7.085443288087844849e-02, -1.175779402256011963e-01, -4.168036580085754395e-02, -3.244271129369735718e-02, -5.247742310166358948e-02, -3.236258774995803833e-02, 1.651415415108203888e-02, 1.592298783361911774e-02, 4.257624596357345581e-02, 2.776238508522510529e-02, 1.193074434995651245e-01, -6.400845199823379517e-02, -1.725955680012702942e-02, -7.858425378799438477e-02, 6.318555679172277451e-03, 5.963718518614768982e-02, -1.248477306216955185e-02, 2.242223545908927917e-02, 1.045671626925468445e-01, 4.021220281720161438e-02, 1.475043296813964844e-01, 1.450743675231933594e-01, -1.112545356154441833e-01, 5.585186555981636047e-02, 7.683959603309631348e-02, -1.328551024198532104e-01, 4.276135191321372986e-02, -3.877219185233116150e-02, -1.510052196681499481e-02, -4.340014979243278503e-02, -1.144588366150856018e-02, -8.206207305192947388e-03, -1.868808455765247345e-02, -3.997970372438430786e-02, -5.159533582627773285e-03, -1.264400081709027290e-03, -2.091028168797492981e-02, -7.531829178333282471e-03, -4.704235121607780457e-03, -6.001159548759460449e-03, -4.652283713221549988e-02, -1.659815199673175812e-02, -5.359766539186239243e-03, -8.395157754421234131e-03, -2.508742362260818481e-02, -1.349713094532489777e-02, -4.729738924652338028e-03, -1.685311831533908844e-02, -1.463965047150850296e-02, -8.787892758846282959e-03, -2.734299190342426300e-02, -1.150724757462739944e-02, 3.870257176458835602e-03, -6.180174276232719421e-02, -4.195647314190864563e-03, -2.613536827266216278e-02, -4.633195232599973679e-03, -2.593419514596462250e-02, 8.297564461827278137e-03, -4.901571199297904968e-02, -5.603574588894844055e-02, -8.440570533275604248e-02, -3.535689413547515869e-02, -3.345265984535217285e-02, -4.489171504974365234e-02, -5.834798887372016907e-02, -1.064014155417680740e-02, 2.732225693762302399e-03, -4.241318255662918091e-02, -3.609050437808036804e-02, -2.173021202906966209e-03, -2.673011831939220428e-02, -8.474519848823547363e-02, -2.313916012644767761e-02, -1.065274421125650406e-02, -3.482549637556076050e-02, -1.705792360007762909e-02, -2.723720110952854156e-02, -1.981417275965213776e-02, -3.732398897409439087e-02, -2.041218988597393036e-02, -2.292396686971187592e-02, -4.898476414382457733e-03, -2.404025010764598846e-02, -4.534367937594652176e-03, -6.725063174962997437e-02, -2.917645871639251709e-02, -4.462711513042449951e-02, 1.394202001392841339e-03, -5.189846083521842957e-02, -1.173476502299308777e-02
1.729343086481094360e-02, -2.264100126922130585e-03, -6.657052319496870041e-03, 3.748460114002227783e-02, 2.128489315509796143e-02, -4.610181320458650589e-03, -6.541802082210779190e-03, 6.195012247189879417e-05, -2.807397209107875824e-02, 2.335249073803424835e-02, -3.959780558943748474e-03, -9.632668457925319672e-03, -1.051232591271400452e-02, -4.064379725605249405e-03, -2.480083145201206207e-03, 2.127290144562721252e-02, -1.963671296834945679e-02, -3.691627457737922668e-02, -4.365387558937072754e-02, -1.824406348168849945e-02, -2.402458526194095612e-02, 1.132976356893777847e-02, -6.014139857143163681e-03, -9.872617200016975403e-03, -8.458517491817474365e-03, -2.532804571092128754e-02, -3.411208745092153549e-03, -1.057189702987670898e-02, 6.592880934476852417e-02, -1.594713889062404633e-02, -1.360054314136505127e-02, -1.986135914921760559e-02, 1.632896065711975098e-02, 9.155649691820144653e-02, -2.366627454757690430e-01, 1.809222996234893799e-01, 1.875658705830574036e-02, -1.292221397161483765e-01, 1.143449619412422180e-01, 7.705210894346237183e-02, -1.652313917875289917e-01, 2.194484025239944458e-01, -9.004509449005126953e-02, -2.124070934951305389e-02, 6.092792004346847534e-02, -3.510443866252899170e-01, 4.646397661417722702e-03, 8.337801555171608925e-04, 6.557495146989822388e-02, -3.901405259966850281e-02, 2.109289169311523438e-01, 1.540018618106842041e-01, 2.015795409679412842e-01, 2.124246023595333099e-02, -3.850169107317924500e-02, -7.802283763885498047e-02, -1.236654445528984070e-01, 2.380556017160415649e-01, -8.439766615629196167e-02, -1.031986102461814880e-01, 1.537613272666931152e-01, -5.336103588342666626e-02, -5.109673738479614258e-02, 4.945715144276618958e-02, 3.103351593017578125e-02, -1.295292377471923828e-02, -3.562578232958912849e-03, 4.294727370142936707e-02, 1.921631023287773132e-02, -1.385153643786907196e-02, 6.135975709185004234e-04, -1.315689878538250923e-03, -5.236268416047096252e-02, -1.543024554848670959e-02, -2.244826592504978180e-02, -1.881216838955879211e-02, -4.193821176886558533e-02, -2.791609801352024078e-02, -1.859667152166366577e-02, 8.553823456168174744e-03, -3.483483940362930298e-02, -2.878511883318424225e-02, -7.702250033617019653e-02, -3.921526297926902771e-02, -4.664454981684684753e-02, -1.563160493969917297e-02, -1.472570467740297318e-02, -4.947191104292869568e-02, -2.066563814878463745e-02, -6.511206179857254028e-02, 9.427126497030258179e-03, -4.128808528184890747e-02, 9.491892158985137939e-02, -2.853388711810112000e-02, 1.815991848707199097e-02, -4.910018667578697205e-02, 3.660474717617034912e-02, 7.494831457734107971e-03, -3.676808252930641174e-02, 3.882340714335441589e-02, 1.787948049604892731e-02, -3.679437935352325439e-02, -8.971829898655414581e-03, 4.631217569112777710e-03, -1.179183498024940491e-01, 6.874160841107368469e-03, -6.875356193631887436e-04, -3.496114537119865417e-02, -4.096420481801033020e-02, -9.722787886857986450e-03, -5.801086127758026123e-02, 1.194078028202056885e-01, -4.233427718281745911e-02, -1.473200768232345581e-01, -1.147385686635971069e-01, -7.791802287101745605e-02, -4.075489565730094910e-02, -1.817695796489715576e-02, -1.438850257545709610e-02, 3.200035914778709412e-02, -3.751201927661895752e-02, -9.001105278730392456e-02, -8.143501728773117065e-02, -6.717897206544876099e-02, 1.290850192308425903e-01, -8.850520849227905273e-02, 3.377661854028701782e-02, -8.703425526618957520e-02
2.111223153769969940e-02, 1.549523044377565384e-02, 3.851022943854331970e-02, 1.624847017228603363e-02, 1.093531120568513870e-02, 1.906716637313365936e-02, 4.243916645646095276e-02, 1.246791053563356400e-02, 1.051353849470615387e-02, -1.119728572666645050e-02, 2.776068449020385742e-02, 2.249960601329803467e-02, 8.780146948993206024e-03, 5.414317175745964050e-02, 2.300832793116569519e-02, 3.951966762542724609e-02, 3.005973435938358307e-02, 1.121881324797868729e-02, 2.616705745458602905e-02, 2.163075655698776245e-02, 3.071488998830318451e-02, 2.999811805784702301e-02, 4.310432448983192444e-02, 5.136884376406669617e-02, 1.581337489187717438e-02, 2.236451767385005951e-02, 3.391557559370994568e-02, 2.795413509011268616e-02, 2.231641300022602081e-02, 9.966965764760971069e-03, 1.288367994129657745e-02, 2.056165225803852081e-02, 4.749208688735961914e-02, -1.341294944286346436e-01, 9.861297160387039185e-02, 1.192249059677124023e-01, 1.267062220722436905e-02, 1.288527548313140869e-01, -8.554211258888244629e-02, 2.287220023572444916e-02, -7.416832447052001953e-02, 1.521947532892227173e-01, 8.440546691417694092e-03, -5.586016550660133362e-02, 1.196287572383880615e-02, -5.505800619721412659e-02, -5.870093032717704773e-02, -1.165174171328544617e-01, -6.889665871858596802e-02, -2.032157033681869507e-02, -3.389692306518554688e-02, 2.958853542804718018e-02, 2.635301649570465088e-02, -2.419600635766983032e-02, 6.233333796262741089e-02, 6.024274975061416626e-02, -1.719359308481216431e-02, 8.009742945432662964e-02, -2.720263786613941193e-02, 6.934621930122375488e-02, 1.013433933258056641e-01, -1.461173035204410553e-02, -1.115088444203138351e-02, 6.214864552021026611e-02, 5.502982437610626221e-02, 2.914036810398101807e-02, 8.174452185630798340e-02, 4.971057549118995667e-02, 2.506122924387454987e-02, 2.726325392723083496e-02, 8.003712445497512817e-02, 2.308439277112483978e-02, 1.726133190095424652e-02, 8.534084074199199677e-03, 4.757506772875785828e-02, 3.974265605211257935e-02, 4.061620309948921204e-02, 1.004332005977630615e-01, 3.989099711179733276e-02, 5.196207761764526367e-02, 5.385687574744224548e-02, 4.792688786983489990e-02, 4.836093261837959290e-02, 3.065377846360206604e-02, 5.173709616065025330e-02, 5.782225355505943298e-02, 6.849542260169982910e-02, 9.813183546066284180e-02, 2.564572356641292572e-02, 4.227458313107490540e-02, 7.389036566019058228e-02, 2.570328116416931152e-02, 3.615613281726837158e-02, 2.544463239610195160e-02, 3.643538430333137512e-02, 1.473879348486661911e-02, 7.467116415500640869e-02, 1.206075847148895264e-01, 8.737456798553466797e-02, 7.390451431274414062e-02, 5.881465971469879150e-02, 7.250069081783294678e-02, 1.029092073440551758e-01, 3.429083898663520813e-02, 4.078503698110580444e-02, 3.961974754929542542e-02, 6.995122879743576050e-02, 6.048156693577766418e-02, 5.300114676356315613e-02, 1.313078105449676514e-01, 8.188739418983459473e-02, 1.329192817211151123e-01, 9.647285193204879761e-02, 7.099355757236480713e-02, 8.402699977159500122e-02, 3.722097724676132202e-02, 6.029380112886428833e-02, 7.600744813680648804e-02, 1.093435138463973999e-01, 1.726811528205871582e-01, 4.397255927324295044e-02, 5.733080953359603882e-02, 1.338512301445007324e-01, 9.790271520614624023e-02, 5.034934729337692261e-02, 5.105477198958396912e-02, 2.831892110407352448e-02, 8.600800484418869019e-02
-1.175176072865724564e-02, -6.389719434082508087e-03, -1.296127587556838989e-02, -4.218272864818572998e-03, -4.463802557438611984e-03, -7.690156344324350357e-03, -1.991081051528453827e-02, -7.161290850490331650e-03, -7.991611957550048828e-03, -3.108149394392967224e-04, -8.816508576273918152e-03, -9.724397212266921997e-03, -4.028239287436008453e-03, -1.881127431988716125e-02, -7.348530925810337067e-03, -1.579662971198558807e-02, -1.317920722067356110e-02, -2.247671363875269890e-03, -1.924461498856544495e-02, -8.947866968810558319e-03, -1.386868860572576523e-02, -8.529538288712501526e-03, -1.563118584454059601e-02, -1.654330268502235413e-02, -8.421067148447036743e-03, -9.945984929800033569e-03, -1.622241735458374023e-02, -6.969748064875602722e-03, -3.197734942659735680e-03, -5.284277256578207016e-03, -5.495281075127422810e-04, -8.837196044623851776e-03, 2.364961802959442139e-02, 6.288882344961166382e-02, -6.160582997836172581e-04, -6.429348886013031006e-02, 1.895333826541900635e-02, -3.307517617940902710e-02, 1.078033223748207092e-01, -1.041743997484445572e-02, -2.277887985110282898e-02, -6.746948510408401489e-02, -6.807256955653429031e-03, 3.385673463344573975e-02, 6.248894613236188889e-03, -7.325427141040563583e-03, 1.791518181562423706e-02, 4.296093434095382690e-02, 2.026350796222686768e-02, -2.225234918296337128e-02, 3.379609435796737671e-02, 1.047332864254713058e-02, 3.172421082854270935e-02, 2.939629927277565002e-02, -2.287082746624946594e-02, -3.087477944791316986e-02, -1.309419609606266022e-02, -7.995858788490295410e-02, -7.486537098884582520e-02, -1.657199673354625702e-02, 2.569390088319778442e-02, 1.051987987011671066e-02, -1.215790491551160812e-02, -2.345964079722762108e-03, -1.704236492514610291e-02, -8.000454865396022797e-03, -2.751296944916248322e-02, -1.175695378333330154e-02, -9.420370683073997498e-03, -1.094901002943515778e-02, -3.673327714204788208e-02, -1.206124015152454376e-02, -1.269656047224998474e-02, -1.055783312767744064e-02, -1.528299134224653244e-02, -1.644612289965152740e-02, -1.829003728926181793e-02, -3.106040880084037781e-02, -1.462797354906797409e-02, -1.268635876476764679e-02, -2.218688651919364929e-02, -1.313401851803064346e-02, -2.854181639850139618e-02, -1.611669361591339111e-02, -2.348538860678672791e-02, -1.351858954876661301e-02, -2.258342877030372620e-02, -3.056905046105384827e-02, -1.561734452843666077e-02, -1.876041851937770844e-02, -3.642364963889122009e-02, -1.317682862281799316e-02, -5.138299893587827682e-03, -1.353463903069496155e-02, -6.260321475565433502e-03, -1.132829766720533371e-02, -2.718701027333736420e-02, -3.870694339275360107e-02, -3.919064998626708984e-02, -2.514125220477581024e-02, -3.080122359097003937e-02, -3.107334859669208527e-02, -5.022579431533813477e-02, -1.736587285995483398e-02, -1.990194618701934814e-02, -2.567452937364578247e-02, -2.946859598159790039e-02, -2.507332898676395416e-02, -3.132804483175277710e-02, -4.143588617444038391e-02, -3.310225903987884521e-02, -3.673416003584861755e-02, -3.976950421929359436e-02, -3.686299175024032593e-02, -4.536957293748855591e-02, -2.616031654179096222e-02, -3.065914288163185120e-02, -2.390742115676403046e-02, -3.592015057802200317e-02, -5.573485046625137329e-02, -2.471433952450752258e-02, -2.848530560731887817e-02, -4.851820692420005798e-02, -3.808590024709701538e-02, -7.436318788677453995e-03, -2.753118611872196198e-02, -1.500582601875066757e-02, -3.639892861247062683e-02
9.627162478864192963e-03, 5.421713460236787796e-03, 1.063408516347408295e-02, 6.180409342050552368e-03, 5.547293461859226227e-03, 6.425295025110244751e-03, 1.206117868423461914e-02, 3.318652976304292679e-03, 3.873720532283186913e-03, -1.371538965031504631e-04, 2.865858376026153564e-03, 3.862759098410606384e-03, 2.367196138948202133e-03, 1.498900819569826126e-02, 5.474742036312818527e-03, 1.024809479713439941e-02, 6.556080188602209091e-03, 1.658064662478864193e-03, 9.185900911688804626e-03, 3.939163405448198318e-03, 6.774650886654853821e-03, 7.076261099427938461e-03, 6.671132054179906845e-03, 8.852882310748100281e-03, 4.592554178088903427e-03, 5.512158386409282684e-03, 1.117282267659902573e-02, 4.471085965633392334e-03, 5.099714267998933792e-03, 1.911103492602705956e-03, 7.335247471928596497e-03, 2.308949129655957222e-03, -1.184468064457178116e-02, -1.674993336200714111e-02, -5.650257691740989685e-02, -8.480861037969589233e-02, 2.965962747111916542e-03, 3.134111315011978149e-02, 6.319464743137359619e-02, 2.039179205894470215e-02, -2.463065646588802338e-02, -1.187899615615606308e-02, -9.262097626924514771e-02, 1.008206512778997421e-02, -1.964325085282325745e-02, -6.640320271253585815e-02, 5.485607107402756810e-05, -2.752293273806571960e-02, 6.142139807343482971e-02, -1.621892303228378296e-01, 8.137875795364379883e-02, -9.410124272108078003e-02, -1.817807182669639587e-02, 4.617880284786224365e-02, -5.944088846445083618e-02, -8.090893179178237915e-02, -3.006849205121397972e-03, 2.579815872013568878e-02, -4.108439385890960693e-02, -1.011811313219368458e-03, -3.769750008359551430e-03, -1.945572346448898315e-02, -2.960303984582424164e-02, -1.112405117601156235e-02, 1.513923611491918564e-02, 1.721183769404888153e-02, 2.504617534577846527e-02, 7.277326658368110657e-03, 8.218285627663135529e-03, 1.021107379347085953e-02, 2.521718479692935944e-02, 5.593053996562957764e-03, 3.290371503680944443e-03, 1.014946680516004562e-02, 1.434636022895574570e-02, 6.544401869177818298e-03, 7.356663234531879425e-03, 2.218551002442836761e-02, 9.951030835509300232e-03, 1.321135833859443665e-02, 1.392457634210586548e-02, 7.623044773936271667e-03, 1.450217980891466141e-02, 3.636671463027596474e-03, 1.168088242411613464e-02, 1.366014592349529266e-02, 6.296695675700902939e-03, 1.826978661119937897e-02, 8.100796490907669067e-03, 7.942910306155681610e-03, 2.976678870618343353e-02, 2.111030742526054382e-03, 9.540728293359279633e-03, 5.013803485780954361e-03, 9.426375851035118103e-03, -2.438215306028723717e-03, 2.407757192850112915e-02, 3.854118660092353821e-02, 4.188963770866394043e-02, 2.057825773954391479e-02, 2.264025807380676270e-02, 3.376490250229835510e-02, 3.471800684928894043e-02, 9.215185418725013733e-03, 1.170628587715327740e-03, 2.190537378191947937e-02, 2.128737606108188629e-02, 7.924508303403854370e-03, 1.944606564939022064e-02, 4.021928831934928894e-02, 2.076472900807857513e-02, 4.967001453042030334e-02, 2.735809609293937683e-02, 1.654525846242904663e-02, 2.668685838580131531e-02, 1.488846074789762497e-02, 2.227569185197353363e-02, 1.893671229481697083e-02, 1.770058833062648773e-02, 3.620937094092369080e-02, 1.590303331613540649e-02, 1.142305973917245865e-02, 3.825104609131813049e-02, 2.938685752451419830e-02, 1.906416751444339752e-02, 9.768608026206493378e-03, 2.478034421801567078e-02, 1.140370406210422516e-02
3.242457285523414612e-02, 3.229795955121517181e-03, 2.169550396502017975e-02, -2.078236266970634460e-02, -1.110229268670082092e-02, 1.209172327071428299e-02, 4.738556966185569763e-02, -1.532193855382502079e-03, 2.021317370235919952e-02, -6.627059075981378555e-03, 5.942103452980518341e-03, 9.543566964566707611e-03, -5.944277159869670868e-03, 1.437455695122480392e-02, 4.257743246853351593e-03, 2.521589398384094238e-02, 2.021213434636592865e-02, 2.831495599821209908e-03, 2.235812693834304810e-02, -4.318596038501709700e-04, 1.452309545129537582e-02, 3.332301508635282516e-03, 2.406617812812328339e-02, 1.594468578696250916e-02, 1.358339330181479454e-03, 9.779586456716060638e-03, 2.146763540804386139e-02, -9.557894081808626652e-04, 6.675225682556629181e-03, -5.604196805506944656e-03, -8.285875432193279266e-03, 7.743807043880224228e-03, -6.691692769527435303e-02, -1.173415500670671463e-02, -1.583495549857616425e-02, 9.388056397438049316e-02, 1.852305489592254162e-03, -2.278570458292961121e-02, -1.138685122132301331e-01, -2.106929011642932892e-02, 2.384020015597343445e-02, -1.115375198423862457e-02, -7.103864848613739014e-02, -2.136770449578762054e-02, 1.055040806531906128e-01, -5.156362801790237427e-02, -1.754244230687618256e-02, -8.315936475992202759e-02, -1.949010789394378662e-02, 3.004052042961120605e-01, -5.813383311033248901e-02, 1.453403085470199585e-01, -4.203011095523834229e-02, -6.035677716135978699e-02, 1.168697029352188110e-01, 6.803515553474426270e-02, -4.029787704348564148e-02, -4.043528065085411072e-02, 1.342944800853729248e-01, -2.253744751214981079e-02, -6.725272536277770996e-02, 1.943410746753215790e-02, 8.887100964784622192e-02, 9.194009751081466675e-02, 5.479484423995018005e-02, -1.641897484660148621e-02, 4.405839368700981140e-02, -1.842661015689373016e-02, -1.566423289477825165e-02, 2.370952069759368896e-02, 9.530144184827804565e-02, -5.404695984907448292e-04, 3.789274021983146667e-02, -1.756662689149379730e-02, 1.343683246523141861e-02, 1.565559767186641693e-02, 4.299858585000038147e-03, 4.428443312644958496e-02, 5.124616436660289764e-03, 1.457623392343521118e-02, 1.547559071332216263e-02, 4.461936280131340027e-02, 2.360506355762481689e-02, 1.094991312129423022e-04, 2.722621150314807892e-02, 1.678764820098876953e-02, 3.725284710526466370e-02, 2.725776471197605133e-02, 1.570488791912794113e-03, 3.471908718347549438e-02, 8.885996043682098389e-02, -6.384786684066057205e-03, -4.501982126384973526e-03, -6.454612128436565399e-03, 2.365404739975929260e-03, 2.612186130136251450e-03, 1.035632286220788956e-02, 3.581427410244941711e-02, -3.171259304508566856e-03, -4.436073824763298035e-02, -3.748313710093498230e-02, 3.445513173937797546e-02, 8.710805326700210571e-02, -6.208987440913915634e-03, 8.108585327863693237e-02, -5.659104883670806885e-02, -6.977992132306098938e-03, 2.879810333251953125e-02, -3.037851490080356598e-02, 5.402459576725959778e-02, 1.205025706440210342e-02, -1.374587565660476685e-01, 4.962329566478729248e-02, 6.268226355314254761e-02, 3.657897561788558960e-02, -2.839925885200500488e-02, -1.774590113200247288e-03, -5.963997542858123779e-02, 4.621734470129013062e-02, -7.992246747016906738e-02, -1.669513434171676636e-02, 3.621302545070648193e-02, 8.795718103647232056e-02, -2.341472357511520386e-02, -1.693867146968841553e-02, 7.207189919427037239e-04, -3.717483207583427429e-02, 5.396148934960365295e-02
6.394568830728530884e-02, 2.739847265183925629e-02, 6.516093015670776367e-02, 2.756548672914505005e-02, 4.465992748737335205e-02, 4.057576879858970642e-02, 7.818614691495895386e-02, 2.143353968858718872e-02, 2.301790378987789154e-02, -2.143198857083916664e-03, 3.502586111426353455e-02, 3.202828392386436462e-02, 2.632895857095718384e-02, 8.013596385717391968e-02, 4.781999811530113220e-02, 5.818712711334228516e-02, 4.934953153133392334e-02, 3.864277526736259460e-02, 5.755073204636573792e-02, 2.388386987149715424e-02, 5.206298083066940308e-02, 6.631565093994140625e-02, 5.127192288637161255e-02, 6.622670590877532959e-02, 3.089018724858760834e-02, 4.327685013413429260e-02, 7.717303931713104248e-02, 3.485766425728797913e-02, 1.727456226944923401e-02, 1.892685145139694214e-02, 5.502789095044136047e-02, 2.206657826900482178e-02, -8.895495533943176270e-02, 6.953184027224779129e-03, -4.907248541712760925e-02, 3.288972005248069763e-02, -1.034001726657152176e-02, -7.454064488410949707e-02, 1.071326881647109985e-01, 5.328532680869102478e-02, 7.448637485504150391e-02, 6.600964069366455078e-02, 4.024053737521171570e-02, -3.930655866861343384e-02, -1.766055636107921600e-02, -1.078743636608123779e-01, -9.386935085058212280e-02, -1.084881052374839783e-01, 6.055989116430282593e-02, -8.745741099119186401e-02, 5.833159759640693665e-02, 8.193834871053695679e-02, 6.489704549312591553e-02, -9.407300502061843872e-03, 2.059986814856529236e-02, -7.719028741121292114e-02, -2.038065716624259949e-02, -4.612803086638450623e-02, -7.165246456861495972e-02, 6.625201553106307983e-02, -6.503200531005859375e-02, -2.380673959851264954e-02, 1.038765013217926025e-01, 8.272590488195419312e-02, 9.667420387268066406e-02, 7.092963159084320068e-02, 1.314332336187362671e-01, 4.644705727696418762e-02, 7.267350703477859497e-02, 6.210196390748023987e-02, 1.450936049222946167e-01, 3.442240506410598755e-02, 4.013242945075035095e-02, 1.014303341507911682e-01, 9.645499289035797119e-02, 4.968401417136192322e-02, 6.807952374219894409e-02, 1.291965842247009277e-01, 8.466187119483947754e-02, 7.818164676427841187e-02, 8.206078410148620605e-02, 9.986189752817153931e-02, 1.021354570984840393e-01, 5.434137582778930664e-02, 8.710715919733047485e-02, 1.282666921615600586e-01, 7.254402339458465576e-02, 1.359760463237762451e-01, 5.354442819952964783e-02, 7.231841236352920532e-02, 1.705808639526367188e-01, 7.195229083299636841e-02, 4.644300043582916260e-02, 4.401646926999092102e-02, 8.753650635480880737e-02, 4.485585540533065796e-02, 1.388378590345382690e-01, 1.856951266527175903e-01, 2.214135229587554932e-01, 1.121913492679595947e-01, 1.578392833471298218e-01, 1.458081901073455811e-01, 1.653532236814498901e-01, 5.867003276944160461e-02, 5.687484890222549438e-02, 1.419163048267364502e-01, 1.548617035150527954e-01, 6.396576762199401855e-02, 1.331617534160614014e-01, 2.031766474246978760e-01, 1.475003808736801147e-01, 1.487332135438919067e-01, 1.594102829694747925e-01, 1.328803896903991699e-01, 1.796853393316268921e-01, 1.040282025933265686e-01, 1.356623917818069458e-01, 1.686075776815414429e-01, 1.258262395858764648e-01, 1.412926614284515381e-01, 9.796203672885894775e-02, 9.802055358886718750e-02, 2.352983504533767700e-01, 1.681146323680877686e-01, 6.997279077768325806e-02, 9.064730256795883179e-02, 1.510149687528610229e-01, 1.309483051300048828e-01
-1.903124968521296978e-03, -6.019104330334812403e-05, -1.001115888357162476e-03, -1.332532963715493679e-03, 1.628818921744823456e-03, -3.475326229818165302e-04, -9.389172773808240891e-04, 1.725738402456045151e-04, -1.564263948239386082e-03, -6.470231455750763416e-04, -1.896731322631239891e-03, 1.247159525519236922e-04, -1.171705225715413690e-04, -2.980200806632637978e-03, 8.017239451874047518e-06, 8.409526781179010868e-04, 4.961711965734139085e-05, 1.820766628952696919e-04, -4.191513871774077415e-04, -1.313688466325402260e-03, -1.226434367708861828e-03, 2.283654874190688133e-03, -4.059232014697045088e-04, 9.533300180919468403e-04, -3.967047960031777620e-04, -1.611678395420312881e-03, -3.209659596905112267e-03, -1.091160738724283874e-04, -7.424140349030494690e-04, -9.071563836187124252e-04, 6.964889471419155598e-04, 9.298253571614623070e-04, -9.843045845627784729e-03, -2.657504752278327942e-02, 4.063818603754043579e-03, -1.645738258957862854e-02, 1.482435385696589947e-03, 4.793902486562728882e-02, 1.729110721498727798e-03, -1.325613469816744328e-03, -9.181249886751174927e-03, -9.211810305714607239e-03, 8.065465837717056274e-03, 2.460684161633253098e-03, 2.055313903838396072e-03, -3.109516575932502747e-02, 1.491746399551630020e-03, 2.777644433081150055e-02, -5.149611271917819977e-03, -4.586355015635490417e-02, 6.668187212198972702e-03, -3.652540966868400574e-02, -1.820188714191317558e-03, 4.967169091105461121e-02, -1.961504342034459114e-03, 6.527264602482318878e-03, 3.479651175439357758e-03, 1.053306926041841507e-02, -7.836479693651199341e-03, -2.927286783233284950e-03, -1.325202267616987228e-02, 6.128657609224319458e-03, 1.854441314935684204e-02, -1.947119017131626606e-03, -1.357275526970624924e-03, -7.760378066450357437e-04, -1.314733759500086308e-03, -2.525692980270832777e-05, 1.972293946892023087e-03, -1.321126823313534260e-03, -2.417173702269792557e-03, -1.349537342321127653e-04, -2.451368141919374466e-03, -3.409073222428560257e-03, -2.603400498628616333e-03, 1.547143619973212481e-04, 1.080405432730913162e-03, -3.664825577288866043e-03, -4.754184337798506021e-04, 1.939637120813131332e-03, -2.782923547783866525e-05, 8.562321309000253677e-04, -1.143218018114566803e-03, -1.113533624447882175e-03, -1.685531926341354847e-03, 3.524186788126826286e-03, -1.206936547532677650e-03, 1.702703884802758694e-04, -8.294256986118853092e-04, -2.697651274502277374e-03, -8.336355909705162048e-03, -3.856108814943581820e-04, -1.453496748581528664e-03, -2.035194542258977890e-03, 4.874786245636641979e-04, 1.370917540043592453e-03, -5.900170188397169113e-03, -1.816194970160722733e-03, -5.110503640025854111e-03, -4.036502912640571594e-03, -1.969992183148860931e-03, -2.088640350848436356e-03, -5.900511983782052994e-03, -8.025405695661902428e-04, -3.792251925915479660e-03, -5.377452354878187180e-03, -5.534735973924398422e-03, 5.249178502708673477e-04, -3.146057017147541046e-03, -6.014250684529542923e-03, -2.474209060892462730e-03, 1.395892701111733913e-03, -1.265799393877387047e-03, -8.652859251014888287e-04, -3.561165882274508476e-03, -3.774787764996290207e-03, -4.074705764651298523e-03, 1.756678335368633270e-03, -1.839691074565052986e-03, -2.457762602716684341e-03, -2.849434269592165947e-03, -3.828109474852681160e-03, -9.255566634237766266e-03, -2.027789596468210220e-03, -2.736134454607963562e-03, -2.092188689857721329e-03, -3.712625475600361824e-03, 1.775963464751839638e-03
