-5.574673786759376526e-02,-1.345084048807621002e-02,2.510834857821464539e-02,9.373666835017502308e-04,3.580663353204727173e-03,9.587019449099898338e-04,3.493992611765861511e-02,5.429947376251220703e-02,2.037353441119194031e-02,-3.376161679625511169e-02,-4.855889361351728439e-03,-3.347964957356452942e-02,5.732286721467971802e-02,4.421148449182510376e-03,1.190470252186059952e-02,-4.012006893754005432e-02,7.089057564735412598e-02,4.050385951995849609e-02,-1.089364197105169296e-02,1.416324730962514877e-02,7.559486548416316509e-04,1.935094594955444336e-02,7.388029713183641434e-03,2.352929860353469849e-02,5.372503772377967834e-02,4.250378534197807312e-02,-5.405767355114221573e-03,-2.041600644588470459e-02,6.410730071365833282e-03,2.044816501438617706e-02,-3.005181252956390381e-02,-4.069450497627258301e-02,-5.841049924492835999e-02,-2.379500493407249451e-02,1.546643394976854324e-02,-3.211840242147445679e-02,-1.686987094581127167e-02,-5.119726434350013733e-02,9.550780057907104492e-03,-6.209359318017959595e-02,-2.290099859237670898e-03,-2.891756594181060791e-02,-5.769833922386169434e-02,2.017416246235370636e-02,-7.349580526351928711e-02,-3.192153945565223694e-02,1.418044697493314743e-02,6.683417409658432007e-02,-3.356103971600532532e-02,9.874981828033924103e-03,-7.328855246305465698e-02,-2.092045266181230545e-03,1.481015793979167938e-02,-8.594929240643978119e-03,4.180442076176404953e-03,-3.382051736116409302e-02,1.453680742997676134e-04,-2.403801679611206055e-02,2.325901202857494354e-02,-1.151022501289844513e-03,2.124984189867973328e-02,1.941415108740329742e-02,4.049260914325714111e-02,-6.944923102855682373e-02,-1.955835334956645966e-02,-4.993735626339912415e-02,-8.812200278043746948e-02,-4.713369905948638916e-02,-1.082343012094497681e-01,-9.034150093793869019e-02,8.188502490520477295e-02,5.103288218379020691e-02,1.693820394575595856e-02,-9.033421427011489868e-02,7.443009316921234131e-02,6.322976201772689819e-02,1.022771522402763367e-01,3.061245381832122803e-02,-9.426870197057723999e-02,-5.707029998302459717e-02,-4.645900428295135498e-02,6.074956059455871582e-02,8.264893293380737305e-02,1.097570136189460754e-01,-1.315913256257772446e-02,-7.255794852972030640e-02,9.278082102537155151e-02,-9.213067591190338135e-02,1.282446086406707764e-01,-8.285072445869445801e-02,-4.451518878340721130e-02,8.121779561042785645e-02,-7.937348634004592896e-02,1.781562715768814087e-02,-9.855419397354125977e-02,1.261168159544467926e-02,-8.056795597076416016e-02,-2.709180302917957306e-02,1.175390034914016724e-01,-2.812022529542446136e-02,-7.764630764722824097e-02,8.061079680919647217e-02,-9.849269688129425049e-02,-6.392740458250045776e-02,7.024507969617843628e-02,1.072513759136199951e-01,5.781456455588340759e-02,-9.742631763219833374e-02,8.168891817331314087e-02,3.063670918345451355e-02,5.339612253010272980e-04,1.000338345766067505e-01,6.449574977159500122e-02,-3.082112781703472137e-02,5.635415762662887573e-02,-5.152574926614761353e-02,1.068041846156120300e-01,1.213334351778030396e-01,2.695229835808277130e-02,-1.035614088177680969e-01,-1.380305178463459015e-02,3.013336658477783203e-02,-1.008805409073829651e-01,2.593856491148471832e-02,-5.462537333369255066e-02,-7.897911965847015381e-02,-3.819281235337257385e-02,-4.831806942820549011e-02,-5.962113291025161743e-02,-8.465343713760375977e-02,8.591151796281337738e-03,1.001046877354383469e-02,6.050458550453186035e-02,5.307969823479652405e-02,5.851396173238754272e-02,-2.150987647473812103e-02,-2.330561541020870209e-02,-1.001052856445312500e-01,-4.181969165802001953e-02,-2.015990670770406723e-03,-1.752250455319881439e-02,2.756612747907638550e-02,5.691499263048171997e-02,1.043200120329856873e-01,-9.264980256557464600e-02,-1.146421767771244049e-02,-1.127252578735351562e-01,5.508808419108390808e-02,1.685297861695289612e-02,4.010671377182006836e-02,-1.684962399303913116e-02,1.363445911556482315e-02,5.957181379199028015e-02,5.777871236205101013e-02,-5.691847577691078186e-02,-5.145283043384552002e-02,-5.655400827527046204e-02,5.059411004185676575e-02,-1.541857980191707611e-02,2.601720020174980164e-02,2.393390797078609467e-02,5.461491644382476807e-02,3.883574903011322021e-02,-6.625561416149139404e-02,-2.355095930397510529e-02,-5.155859142541885376e-02,1.587986014783382416e-02,-2.197271957993507385e-02,-1.396144926548004150e-02,-2.496910281479358673e-02,2.652339451014995575e-02,6.384662352502346039e-03,-4.624660592526197433e-03,-2.662080898880958557e-02,-8.498010039329528809e-02,5.202329903841018677e-02,-4.548595845699310303e-02,-4.127771407365798950e-02,1.206680387258529663e-02,7.521805353462696075e-03,-9.591258713044226170e-04,5.323922261595726013e-02,-4.370558261871337891e-02,-1.757066510617733002e-02,6.144140847027301788e-03,-5.824926123023033142e-02,6.966328620910644531e-02,3.010116517543792725e-02,8.579291403293609619e-02,2.230409346520900726e-02,4.791485890746116638e-02,-6.483106315135955811e-02,-1.466420479118824005e-02,-5.218473449349403381e-02,2.490387298166751862e-02,-4.877715557813644409e-02,4.337886348366737366e-02,5.474188178777694702e-02,-6.405009329319000244e-02,1.308741047978401184e-02,-4.095039516687393188e-02,7.427597045898437500e-02,1.215444644913077354e-04,5.259309709072113037e-02,-2.197611611336469650e-03,-1.233533211052417755e-02,9.368313103914260864e-02,-4.817044828087091446e-03,-7.236255705356597900e-02,6.258987635374069214e-02,1.028447225689888000e-02,-5.488836765289306641e-02,2.225464209914207458e-02,-3.984911739826202393e-02,-8.026503957808017731e-03,2.947672037407755852e-03,6.914200633764266968e-02,4.671305045485496521e-02,-1.046048710122704506e-03,2.178337238729000092e-02,7.271769642829895020e-02,-5.330967716872692108e-03,-9.259319864213466644e-03,-1.716640964150428772e-02,6.230479571968317032e-03,7.185984402894973755e-02,9.211945533752441406e-02,2.572447992861270905e-02,-2.875855006277561188e-02,8.751800656318664551e-02,-1.039693597704172134e-02,-4.452613741159439087e-02,-8.607019670307636261e-03,5.380163714289665222e-02,7.023563235998153687e-02,3.264972940087318420e-02,1.056200787425041199e-01,-6.076152995228767395e-02,3.412094432860612869e-03,-1.346923317760229111e-02,-3.629653528332710266e-02,-3.643760830163955688e-02,-6.831097602844238281e-02,-2.289513126015663147e-03,5.169143527746200562e-02,-2.102294377982616425e-02,-2.790735801681876183e-03,1.925033703446388245e-02,-9.318482875823974609e-02,6.200267001986503601e-02,9.783577173948287964e-03,-3.594535216689109802e-02,3.737324476242065430e-02,5.129041895270347595e-02,2.778693102300167084e-02,-8.146595954895019531e-02
2.085092011839151382e-03,3.968180716037750244e-02,-6.756936013698577881e-02,-2.093172818422317505e-02,5.447419360280036926e-03,-4.363468289375305176e-02,-2.048339881002902985e-02,2.365426905453205109e-02,8.104699105024337769e-02,1.227114629000425339e-02,6.682424806058406830e-03,6.371995806694030762e-02,5.537748336791992188e-02,3.009292669594287872e-02,8.497387170791625977e-02,6.529058516025543213e-02,-7.269933819770812988e-02,-1.118790637701749802e-02,-2.713082917034626007e-02,1.004914641380310059e-01,5.018976703286170959e-02,-8.376710861921310425e-02,-4.515156894922256470e-02,1.494040060788393021e-02,1.619364693760871887e-02,3.840011358261108398e-02,7.207014411687850952e-02,5.794296041131019592e-02,3.318201005458831787e-02,5.676030367612838745e-02,-7.840896397829055786e-02,5.561680719256401062e-02,-5.821089074015617371e-02,-4.895886406302452087e-02,-7.865867763757705688e-02,-7.584853470325469971e-02,6.818789243698120117e-02,-1.292526535689830780e-02,1.828612526878714561e-03,-2.197075262665748596e-02,-3.491755202412605286e-02,8.722127974033355713e-02,-9.510035067796707153e-02,-2.985984319821000099e-03,-7.698398083448410034e-02,3.062690235674381256e-02,-7.795135024935007095e-03,6.201201677322387695e-02,6.715307384729385376e-02,-3.049439936876296997e-02,-6.978802382946014404e-02,-2.780569344758987427e-02,7.409800589084625244e-02,-3.232238814234733582e-02,-3.179230727255344391e-03,3.707935288548469543e-02,-2.772303298115730286e-02,4.858787357807159424e-02,-8.020225167274475098e-02,-6.184342876076698303e-02,8.470413088798522949e-02,-5.178736895322799683e-02,-5.160393565893173218e-02,-1.800592755898833275e-03,-9.829372167587280273e-02,8.754945546388626099e-02,-8.413628488779067993e-02,-3.211614384781569242e-04,6.703033298254013062e-02,-2.528292499482631683e-02,-1.167182400822639465e-01,-9.671336412429809570e-02,-4.944427311420440674e-02,-1.040725037455558777e-01,5.769452080130577087e-02,4.763463512063026428e-02,6.302819401025772095e-02,-1.139968857169151306e-01,-1.031893938779830933e-01,3.890164662152528763e-03,-6.984302401542663574e-02,-5.875232815742492676e-02,-6.866962462663650513e-02,-1.235015969723463058e-02,1.959129469469189644e-03,-7.535038888454437256e-02,-7.729789614677429199e-02,5.931940302252769470e-02,6.665596365928649902e-02,1.048443466424942017e-02,3.736617043614387512e-02,-9.484452009201049805e-02,7.763715926557779312e-03,1.804374717175960541e-02,7.358025014400482178e-02,7.818816602230072021e-02,9.700023382902145386e-02,-2.573754871264100075e-03,-4.884197935461997986e-02,4.297487065196037292e-02,-9.981330484151840210e-02,-8.136650547385215759e-03,-6.598481442779302597e-03,9.809229522943496704e-03,3.426671726629137993e-03,-6.489448249340057373e-02,-3.551251441240310669e-02,-2.804608084261417389e-02,6.776511669158935547e-02,2.957275509834289551e-02,-5.863384902477264404e-02,7.382854819297790527e-02,1.010585203766822815e-01,1.093007102608680725e-01,7.748787850141525269e-02,-1.162361428141593933e-01,4.244454205036163330e-02,-6.348879542201757431e-04,4.506939649581909180e-02,-1.027628257870674133e-01,-8.290668576955795288e-02,8.030208759009838104e-03,-1.057201251387596130e-01,-6.481084227561950684e-02,6.048098206520080566e-03,-8.157393336296081543e-02,-6.375738233327865601e-02,-9.468305110931396484e-02,-3.200139105319976807e-02,-6.755723059177398682e-02,-9.898884594440460205e-02,-9.125132858753204346e-02,-4.538116231560707092e-02,-9.790223836898803711e-02,-9.502949565649032593e-02,3.373312577605247498e-02,6.956101208925247192e-02,-2.397158555686473846e-02,-8.856136351823806763e-02,-4.518840089440345764e-02,-2.835566364228725433e-02,9.799839928746223450e-03,-8.139935880899429321e-02,-5.737597495317459106e-02,5.281968787312507629e-02,8.802694082260131836e-02,6.417673081159591675e-02,-8.995380252599716187e-03,4.098319634795188904e-02,-9.506136178970336914e-02,2.780574932694435120e-02,2.944463863968849182e-02,3.758487105369567871e-02,-1.490365900099277496e-02,-9.054800122976303101e-02,9.283858537673950195e-02,1.000226009637117386e-02,8.178368210792541504e-02,9.219752997159957886e-02,6.820024549961090088e-02,9.520049393177032471e-02,9.492200613021850586e-02,-9.398108720779418945e-02,-3.402310982346534729e-02,-9.424392133951187134e-02,6.064607203006744385e-02,1.792166568338871002e-02,1.448596641421318054e-02,-4.679226875305175781e-02,1.044964864850044250e-01,5.728737916797399521e-03,2.510532736778259277e-02,-6.756932288408279419e-02,5.903748795390129089e-02,-2.080587297677993774e-02,-6.732108443975448608e-02,-3.564424067735671997e-02,-5.465189740061759949e-02,-4.333582893013954163e-02,5.600913986563682556e-02,5.149276182055473328e-02,2.940036915242671967e-02,-7.103557884693145752e-02,-7.791577279567718506e-02,-8.049022406339645386e-02,5.426689237356185913e-02,-3.283308818936347961e-02,4.985753912478685379e-03,1.086382120847702026e-01,5.859199166297912598e-02,-4.119307547807693481e-02,9.461503475904464722e-02,-8.983851969242095947e-02,-3.770275413990020752e-02,4.164898768067359924e-02,-1.922225393354892731e-02,-6.178839877247810364e-02,-3.204605355858802795e-02,-1.008296851068735123e-03,5.165430158376693726e-02,4.866223782300949097e-02,2.690390683710575104e-02,-6.522794812917709351e-02,-5.267278477549552917e-02,9.958577156066894531e-02,4.258201643824577332e-02,-8.885058015584945679e-02,-8.070319145917892456e-02,-4.456680268049240112e-02,-4.399919509887695312e-02,-4.676559567451477051e-02,8.530767261981964111e-02,5.467066168785095215e-02,-7.422330230474472046e-02,-2.538976445794105530e-02,2.219025790691375732e-02,-1.124934386461973190e-02,7.340209186077117920e-02,6.804741919040679932e-02,-5.787194520235061646e-02,-2.773850411176681519e-02,1.082377415150403976e-02,8.928788453340530396e-02,6.498847156763076782e-02,-5.030330270528793335e-02,5.793341994285583496e-02,7.059929519891738892e-02,6.238308921456336975e-02,-3.301677480340003967e-02,8.040031045675277710e-02,5.234362930059432983e-02,-7.368343323469161987e-02,2.309071831405162811e-02,-1.782975718379020691e-02,8.667113259434700012e-03,8.586041629314422607e-02,-5.138068646192550659e-02,-6.677345931529998779e-02,-8.014854043722152710e-02,-1.538683660328388214e-02,7.368326187133789062e-02,7.164007425308227539e-02,8.756147325038909912e-02,-3.297447925433516502e-03,-5.432983115315437317e-02,-4.988831654191017151e-02,4.547411948442459106e-02,-3.751829639077186584e-02,4.997880384325981140e-02,-5.023016780614852905e-02,-2.785111777484416962e-03,2.126060985028743744e-02,-4.918258637189865112e-02,3.555994108319282532e-02,5.669834837317466736e-02,-4.628354683518409729e-02
-4.958342015743255615e-02,-5.186087638139724731e-02,-3.674254193902015686e-02,2.384822256863117218e-02,4.861118271946907043e-03,-3.216135874390602112e-02,-2.310124784708023071e-02,-2.443007752299308777e-02,-8.249865844845771790e-03,-7.972630113363265991e-02,-1.763330772519111633e-02,1.502472162246704102e-02,1.519303303211927414e-02,-2.835323568433523178e-03,-6.088544428348541260e-02,-6.756019312888383865e-03,4.798762034624814987e-03,-6.461095809936523438e-02,-3.524127230048179626e-02,2.726802974939346313e-02,-2.664712257683277130e-03,4.529361054301261902e-02,-3.114650025963783264e-03,2.515612356364727020e-02,6.203510984778404236e-02,3.261522948741912842e-02,6.179300695657730103e-02,3.126991540193557739e-02,1.678951457142829895e-02,2.300509251654148102e-03,-7.583999633789062500e-02,5.205126479268074036e-02,3.791679814457893372e-02,-2.858949359506368637e-03,-6.339553743600845337e-02,8.924961090087890625e-02,-7.683967705816030502e-03,-8.167505264282226562e-02,-7.409076206386089325e-03,-4.587279632687568665e-02,-4.628768935799598694e-02,-5.533713847398757935e-02,-1.465362845920026302e-03,-4.053523391485214233e-02,2.249955432489514351e-03,-2.580184675753116608e-02,3.774274140596389771e-02,1.688186824321746826e-02,-1.211035437881946564e-02,-1.537101529538631439e-02,-3.822512924671173096e-02,-3.575327340513467789e-03,4.747878015041351318e-02,1.656236709095537663e-03,-3.805851191282272339e-02,5.776728689670562744e-02,5.617182701826095581e-02,3.410742431879043579e-02,-2.031208388507366180e-02,1.008452847599983215e-02,-1.041409652680158615e-02,-2.450740337371826172e-02,1.699773245491087437e-03,-6.882933527231216431e-02,9.513775259256362915e-02,1.312684714794158936e-01,3.628989681601524353e-02,2.447837963700294495e-02,5.892689898610115051e-02,-5.710313841700553894e-02,-1.042020767927169800e-01,-6.832383573055267334e-02,-3.512429818511009216e-02,1.510914117097854614e-01,-7.448859512805938721e-02,-8.325688540935516357e-02,-8.036599308252334595e-02,-2.177105052396655083e-04,-7.213266193866729736e-02,3.263192623853683472e-02,-1.116240471601486206e-01,-2.710497472435235977e-03,4.111918061971664429e-02,-2.871345356106758118e-02,6.345255672931671143e-02,5.842975899577140808e-02,2.427966147661209106e-02,-9.871097654104232788e-02,3.613189328461885452e-03,1.072278618812561035e-01,1.075031533837318420e-01,-2.289232239127159119e-02,-1.588247157633304596e-02,1.010062620043754578e-01,-9.189939498901367188e-02,-6.690295040607452393e-02,1.389046311378479004e-01,-3.894896432757377625e-02,6.755931675434112549e-02,6.549917161464691162e-02,1.996477879583835602e-02,6.477099657058715820e-02,7.966766506433486938e-02,-1.510709873400628567e-03,1.167502552270889282e-01,-6.834224611520767212e-02,-1.281901895999908447e-01,9.688773006200790405e-02,-8.933939039707183838e-02,5.025219544768333435e-02,2.873004786670207977e-02,-4.588897153735160828e-02,3.486960008740425110e-02,5.473874509334564209e-02,6.289630662649869919e-03,-1.334572583436965942e-01,-9.777656197547912598e-02,-5.898355320096015930e-02,9.690821170806884766e-02,-6.826020777225494385e-02,9.842367470264434814e-02,1.074623912572860718e-01,2.441396377980709076e-02,1.043766662478446960e-01,9.300187230110168457e-02,8.157127350568771362e-02,-2.555493824183940887e-02,-9.297268092632293701e-02,-6.821846216917037964e-02,-1.258280780166387558e-02,1.290579978376626968e-02,1.015084981918334961e-02,-1.913744211196899414e-02,-9.990164637565612793e-02,-8.899823576211929321e-02,2.795434370636940002e-02,6.344786286354064941e-02,9.427730739116668701e-02,6.601130962371826172e-02,5.283216387033462524e-02,1.630918821319937706e-03,-5.997604131698608398e-02,4.401866719126701355e-02,-3.599133715033531189e-02,4.563628695905208588e-03,-5.534060299396514893e-02,2.746113762259483337e-02,-1.041217893362045288e-01,-3.164525260217487812e-04,-2.418059110641479492e-02,-5.309575423598289490e-02,3.429879248142242432e-02,1.867520622909069061e-02,-3.038433194160461426e-02,-5.292687565088272095e-02,-4.634069651365280151e-02,-1.440604869276285172e-02,-2.432505227625370026e-02,-2.291816519573330879e-03,7.947724312543869019e-02,6.561253219842910767e-02,2.071819268167018890e-02,-6.612389534711837769e-02,1.784522645175457001e-02,4.627743735909461975e-02,3.066364675760269165e-02,-1.538580108899623156e-04,6.931769847869873047e-02,7.029714994132518768e-03,-1.172124175354838371e-03,-7.916650921106338501e-02,5.518142879009246826e-02,-1.906866021454334259e-02,-2.065473236143589020e-02,-9.652391076087951660e-02,-8.799190819263458252e-02,2.711706794798374176e-02,-3.159815073013305664e-02,5.115159321576356888e-03,-8.471996523439884186e-03,-1.249098684638738632e-02,4.734278842806816101e-02,-7.361807674169540405e-02,6.622666865587234497e-02,7.356151193380355835e-02,-4.686472564935684204e-02,1.680653169751167297e-02,7.814306765794754028e-03,-2.949282713234424591e-02,8.663174696266651154e-03,-4.407269507646560669e-02,5.941585637629032135e-03,-6.283762305974960327e-02,1.038645673543214798e-02,3.890118375420570374e-02,-3.361246362328529358e-02,-4.148079827427864075e-02,-2.074502781033515930e-02,-1.062039583921432495e-01,-4.683751985430717468e-02,3.431157395243644714e-02,8.820439130067825317e-02,2.945786155760288239e-02,-8.999969065189361572e-02,-1.491874177008867264e-02,1.371101755648851395e-02,-9.162572771310806274e-02,-5.359250307083129883e-02,-8.903016569092869759e-04,-5.334253981709480286e-02,-2.721702866256237030e-02,-2.708694897592067719e-02,2.867735736072063446e-02,5.814703553915023804e-02,1.227034255862236023e-03,-1.544823311269283295e-02,-2.542974613606929779e-02,-6.495241820812225342e-02,5.549671128392219543e-02,5.935112480074167252e-03,-1.367185637354850769e-02,2.418916672468185425e-03,-6.687067449092864990e-02,-1.015587337315082550e-02,9.698601812124252319e-02,-2.238610573112964630e-02,2.831852249801158905e-02,1.939564754138700664e-05,-4.114584252238273621e-02,-6.206233054399490356e-02,-5.008008703589439392e-02,9.033983200788497925e-02,-4.716330673545598984e-03,5.721242725849151611e-02,-3.382304310798645020e-02,-7.472833245992660522e-02,1.104790903627872467e-02,1.177674345672130585e-02,-4.270154610276222229e-02,1.132453698664903641e-02,3.554652258753776550e-02,7.953495718538761139e-03,-3.370362147688865662e-02,-1.602030545473098755e-02,7.464364171028137207e-02,-3.405242413282394409e-02,2.390528470277786255e-02,3.218500316143035889e-02,-5.153388530015945435e-02,1.097353734076023102e-02,3.467456251382827759e-02,1.559987012296915054e-02,-4.137670993804931641e-02,1.514956168830394745e-02,-1.720283925533294678e-02,9.162682294845581055e-02
8.053783327341079712e-02,-5.575257167220115662e-02,2.534583024680614471e-02,9.665035642683506012e-03,8.368321694433689117e-03,-1.058333925902843475e-02,6.398214399814605713e-02,-8.916546590626239777e-03,9.452367573976516724e-02,-7.636337727308273315e-02,-5.536885932087898254e-02,-4.503536596894264221e-02,-2.825241303071379662e-03,-1.630247756838798523e-02,-2.052183449268341064e-02,3.348505590111017227e-03,-6.201137602329254150e-02,-2.206133492290973663e-02,-5.917088314890861511e-02,3.896199539303779602e-02,4.033728316426277161e-02,-5.569010972976684570e-02,-2.892430126667022705e-02,-5.846445448696613312e-03,6.405556201934814453e-02,7.224955409765243530e-02,-2.385734021663665771e-02,-5.454667657613754272e-02,-1.696131750941276550e-02,3.107386454939842224e-02,3.512708470225334167e-02,1.748841069638729095e-02,6.010931730270385742e-02,4.589014500379562378e-02,3.303163871169090271e-02,-2.470409683883190155e-02,1.495282724499702454e-02,-5.687725543975830078e-02,3.770212084054946899e-02,-1.672664098441600800e-02,5.044067651033401489e-02,7.603862136602401733e-02,-1.812366954982280731e-02,7.264747470617294312e-02,-3.137026354670524597e-02,-6.259034574031829834e-02,-6.002698093652725220e-03,9.569601155817508698e-03,1.351635623723268509e-02,2.253228798508644104e-02,3.293428197503089905e-02,-1.183427171781659126e-03,-6.552760023623704910e-03,-1.187669392675161362e-02,-1.018883427605032921e-03,-4.092340171337127686e-02,-6.895215064287185669e-02,-1.964296400547027588e-02,4.290698841214179993e-02,-3.426270559430122375e-02,5.073091760277748108e-02,4.108211770653724670e-02,-5.076054111123085022e-02,6.151146069169044495e-02,5.486163124442100525e-02,2.499676868319511414e-02,9.568010270595550537e-02,-1.016258168965578079e-02,-8.909169584512710571e-02,6.690039485692977905e-02,-3.660012781620025635e-02,-8.284566551446914673e-02,-4.885468631982803345e-02,1.417998876422643661e-02,5.801758170127868652e-02,6.192745640873908997e-02,-4.456276819109916687e-02,-8.847061544656753540e-03,9.320098161697387695e-02,-8.387747406959533691e-02,-9.953808784484863281e-02,8.716084063053131104e-02,3.981959074735641479e-02,-5.940751731395721436e-02,1.115467995405197144e-01,2.050001174211502075e-02,9.789239615201950073e-02,1.181146129965782166e-01,-1.276380009949207306e-02,-1.082522794604301453e-01,-9.067478775978088379e-02,1.248816028237342834e-01,-5.858726054430007935e-02,4.946903139352798462e-02,-1.061164811253547668e-01,5.764633044600486755e-02,6.724072247743606567e-02,-6.162414327263832092e-02,1.040804311633110046e-01,-1.320397108793258667e-01,-4.578399285674095154e-02,1.202388256788253784e-01,1.074630320072174072e-01,-8.113566040992736816e-02,-2.174867130815982819e-02,-1.307692527770996094e-01,-1.296780705451965332e-01,3.642603009939193726e-02,-9.763234108686447144e-02,2.626884542405605316e-02,8.380501717329025269e-02,8.405716717243194580e-02,9.903303533792495728e-02,-8.599112182855606079e-02,-9.856682270765304565e-02,-1.150323599576950073e-01,7.706712931394577026e-02,5.914960056543350220e-02,-2.920669689774513245e-02,-5.433478206396102905e-02,-4.309508949518203735e-02,1.139189675450325012e-01,-4.990929365158081055e-02,-7.816903293132781982e-02,8.445145934820175171e-02,1.407094299793243408e-02,-3.829090669751167297e-02,-1.073304414749145508e-01,3.526967763900756836e-02,3.115626797080039978e-02,2.627586573362350464e-02,-1.164137502200901508e-03,1.801446639001369476e-02,9.913318604230880737e-02,-5.613736808300018311e-03,3.290379419922828674e-02,6.616321206092834473e-02,-5.014601722359657288e-02,1.174625530838966370e-01,-4.434509575366973877e-02,2.584254741668701172e-02,-2.610335499048233032e-02,6.895820796489715576e-02,-5.316506698727607727e-02,-7.131432741880416870e-02,-4.935336485505104065e-02,1.386450231075286865e-02,-4.204257205128669739e-02,-8.004429191350936890e-02,4.890431091189384460e-02,-4.638925567269325256e-02,4.174926131963729858e-02,6.281177699565887451e-02,-6.481411308050155640e-02,1.214368492364883423e-01,4.829210788011550903e-02,-6.394753698259592056e-03,-3.297083824872970581e-02,-2.657338231801986694e-02,-6.587895005941390991e-02,1.501694042235612869e-02,2.536165062338113785e-03,3.163392469286918640e-02,5.358247831463813782e-02,4.017240926623344421e-02,9.826752543449401855e-02,6.058807298541069031e-02,-5.442951619625091553e-02,6.933947652578353882e-02,-1.887777633965015411e-02,-6.976420432329177856e-02,-2.372023090720176697e-02,9.464733302593231201e-02,2.057649567723274231e-02,-4.676708206534385681e-02,-8.679673820734024048e-02,-2.951215254142880440e-03,-7.457418739795684814e-02,-8.048050850629806519e-02,3.582516917958855629e-03,-2.829346060752868652e-02,-3.542725369334220886e-02,1.230952702462673187e-02,3.649131208658218384e-02,-2.718956209719181061e-02,-4.326680302619934082e-02,4.288188740611076355e-02,6.889662891626358032e-02,-2.380177611485123634e-03,-5.191460624337196350e-02,4.670499637722969055e-02,4.794157296419143677e-02,1.248222887516021729e-01,3.637852892279624939e-02,-2.792595513164997101e-02,7.745566964149475098e-02,-6.508838385343551636e-03,-6.191520765423774719e-02,-2.181848324835300446e-02,7.723608613014221191e-02,8.145496994256973267e-02,-9.727803617715835571e-02,-2.381874434649944305e-02,5.960267409682273865e-02,-4.887647181749343872e-02,-1.045821048319339752e-02,-9.400535374879837036e-02,6.988358497619628906e-02,3.722449392080307007e-02,-6.778894364833831787e-02,1.839047297835350037e-03,-9.034486487507820129e-03,-1.580873504281044006e-02,5.069772154092788696e-02,-1.585793308913707733e-02,3.015100397169589996e-02,7.035248726606369019e-02,-5.492145568132400513e-02,1.014144942164421082e-01,5.499579757452011108e-02,-5.384306237101554871e-02,1.248357631266117096e-02,2.947674319148063660e-02,3.251991048455238342e-02,-3.069820255041122437e-02,-6.898107938468456268e-03,-1.900060661137104034e-02,1.056368276476860046e-01,-1.632763445377349854e-02,2.249738201498985291e-03,3.009616956114768982e-02,9.118796885013580322e-02,4.227889329195022583e-02,1.038418039679527283e-01,1.065962165594100952e-01,-5.893981084227561951e-02,1.927190274000167847e-02,9.123978205025196075e-03,-1.033022906631231308e-02,1.238152384757995605e-02,2.739882282912731171e-02,-5.952556803822517395e-02,4.304359480738639832e-02,2.152127027511596680e-02,-1.809264346957206726e-02,3.495382890105247498e-02,-1.879410818219184875e-02,-7.773593813180923462e-02,-9.094832837581634521e-02,2.240667678415775299e-02,-1.872367225587368011e-02,6.085914000868797302e-02,-8.496513962745666504e-02,-2.888322435319423676e-02,-2.122992649674415588e-02,-5.114386603236198425e-02
4.191824991721659899e-04,7.584893703460693359e-02,-7.857254147529602051e-02,-1.204855646938085556e-02,2.080229343846440315e-03,-7.732643932104110718e-02,5.272031575441360474e-02,-2.101249527186155319e-03,3.116864524781703949e-02,2.448488399386405945e-02,8.069761097431182861e-02,-5.144728813320398331e-03,-1.140183862298727036e-02,-1.463633682578802109e-02,3.200618177652359009e-02,3.899656236171722412e-02,4.541724547743797302e-02,4.304262623190879822e-02,-9.532590955495834351e-02,-3.373989462852478027e-02,-6.048915442079305649e-03,2.922347746789455414e-02,-2.141199633479118347e-02,-9.709829464554786682e-03,-6.532277166843414307e-02,8.561384864151477814e-03,4.851196426898241043e-03,-4.144828766584396362e-02,-5.363304167985916138e-02,5.382478120736777782e-04,-8.426576107740402222e-02,6.961430609226226807e-02,1.567155681550502777e-02,3.053082898259162903e-02,-5.119453649967908859e-03,-2.365793474018573761e-02,-1.440929155796766281e-02,-5.744409281760454178e-04,3.454974666237831116e-02,-4.725557286292314529e-03,-2.032420039176940918e-02,-1.677356846630573273e-02,6.336671113967895508e-02,-1.239003613591194153e-02,6.950215436518192291e-03,2.540657110512256622e-02,-5.879928544163703918e-02,3.741788864135742188e-02,-7.104512304067611694e-03,-1.078625023365020752e-02,-4.477002844214439392e-02,1.596381887793540955e-02,4.670630767941474915e-02,3.321341052651405334e-02,6.220339797437191010e-03,-2.776199765503406525e-02,5.396705865859985352e-02,2.333455532789230347e-02,7.367136888206005096e-03,3.950862213969230652e-02,2.716170065104961395e-02,3.141935914754867554e-02,5.203671380877494812e-02,-6.878662109375000000e-02,1.377402693033218384e-01,1.370618790388107300e-01,3.077708929777145386e-02,-6.654252111911773682e-02,8.308941870927810669e-02,5.226100608706474304e-02,1.814774982631206512e-02,-4.329504817724227905e-02,-9.074503183364868164e-02,6.509447842836380005e-02,1.453046053647994995e-01,-6.181763950735330582e-03,5.367904901504516602e-02,-2.810011804103851318e-02,-6.016793474555015564e-02,5.401774868369102478e-02,-7.704086601734161377e-02,-7.117585837841033936e-02,-5.777537077665328979e-02,8.354824036359786987e-02,-6.019432842731475830e-02,-9.496238082647323608e-02,-8.298297226428985596e-02,-5.849405750632286072e-02,-6.986679974943399429e-03,-9.845671057701110840e-02,-3.035533800721168518e-02,-1.024286448955535889e-01,-9.376900643110275269e-02,1.110962033271789551e-01,1.088972836732864380e-01,8.225879818201065063e-02,-9.811781346797943115e-02,-1.242600753903388977e-02,-1.320822834968566895e-01,6.969251483678817749e-02,5.089207738637924194e-02,-1.353324502706527710e-01,-6.105310167185962200e-04,8.060314506292343140e-02,-9.807431697845458984e-02,9.229581803083419800e-03,-7.527370937168598175e-03,7.957170717418193817e-03,-1.032145619392395020e-01,-2.286006882786750793e-02,-6.385990977287292480e-02,-3.008857928216457367e-02,-4.479433875530958176e-03,8.377119898796081543e-02,-5.642430111765861511e-02,7.533106207847595215e-02,8.155565708875656128e-02,-7.316184695810079575e-03,-2.896335348486900330e-02,-1.328917145729064941e-01,-1.012153401970863342e-01,1.849898882210254669e-02,1.343208849430084229e-01,-3.333731740713119507e-02,1.017961800098419189e-01,-6.418826431035995483e-02,8.458463102579116821e-02,1.280020326375961304e-01,4.612178599927574396e-04,7.902190089225769043e-03,-9.037518501281738281e-02,-3.241952508687973022e-02,-5.718661844730377197e-02,-6.879334151744842529e-02,7.476428896188735962e-02,-4.431597515940666199e-02,6.476925313472747803e-02,-3.684932366013526917e-02,3.724710270762443542e-02,9.713839739561080933e-02,2.253710478544235229e-02,-1.188488490879535675e-02,-4.418693110346794128e-02,-1.367401052266359329e-02,4.575368762016296387e-02,-6.041359622031450272e-03,-7.844582200050354004e-02,6.936416029930114746e-02,1.556325517594814301e-02,1.293575856834650040e-02,-6.634412333369255066e-03,6.895261816680431366e-03,6.617390364408493042e-02,-8.340506255626678467e-02,-1.644241064786911011e-02,9.591585397720336914e-02,7.073766738176345825e-02,-3.043303638696670532e-02,5.171328783035278320e-03,2.265768125653266907e-02,-5.743716657161712646e-02,-1.765489927493035793e-03,4.330237954854965210e-02,-1.249183155596256256e-02,-2.488865330815315247e-02,2.600776031613349915e-02,-9.419942647218704224e-02,-1.196556091308593750e-01,3.538274019956588745e-02,-7.347530871629714966e-02,-5.011405050754547119e-02,-4.592896997928619385e-02,-1.792341284453868866e-02,-1.253906078636646271e-02,-3.880026191473007202e-02,-5.250994861125946045e-02,-2.256364002823829651e-02,3.859609132632613182e-03,-2.803044766187667847e-02,2.616775222122669220e-02,-7.924146950244903564e-02,3.103407844901084900e-02,5.461945757269859314e-02,3.211917728185653687e-02,6.348159164190292358e-02,-2.258143946528434753e-02,-3.799913451075553894e-02,4.621290415525436401e-02,-5.173113197088241577e-02,-9.946838021278381348e-03,4.644311219453811646e-02,-1.034549549221992493e-01,1.089083589613437653e-02,8.202117681503295898e-02,4.569818265736103058e-03,-5.308309942483901978e-02,-2.102532051503658295e-02,-1.951145008206367493e-03,-1.863946393132209778e-02,-1.355153275653719902e-03,1.367496233433485031e-02,-3.966828808188438416e-02,9.856209903955459595e-02,-3.561744466423988342e-02,-1.661906205117702484e-02,-8.320032618939876556e-03,-2.144098468124866486e-02,-4.259457066655158997e-02,1.623807474970817566e-02,4.481129348278045654e-02,-9.558425843715667725e-02,1.241523493081331253e-02,8.039548993110656738e-03,-1.916842721402645111e-02,-2.979482524096965790e-03,-2.146326750516891479e-02,-2.082453668117523193e-02,-1.489211618900299072e-02,-7.588300108909606934e-02,3.711155429482460022e-02,7.012222707271575928e-02,-1.907086744904518127e-02,-1.351932645775377750e-03,5.191195756196975708e-02,-1.191397197544574738e-03,3.996052220463752747e-02,-5.490121617913246155e-02,-7.809197157621383667e-02,-5.551603808999061584e-02,-6.315952539443969727e-02,-9.252908080816268921e-02,1.672514341771602631e-02,-9.659867733716964722e-03,-2.305461652576923370e-02,-3.016598895192146301e-02,4.455143120139837265e-03,3.773910866584628820e-04,-5.599406361579895020e-02,-3.683063760399818420e-02,3.456269204616546631e-02,-5.325144156813621521e-02,-2.891663834452629089e-02,3.450972214341163635e-02,8.858449757099151611e-03,3.579473495483398438e-02,1.524192187935113907e-02,2.605400420725345612e-02,7.714539766311645508e-02,6.959105283021926880e-02,-1.670712605118751526e-02,-3.049084916710853577e-02,2.876999787986278534e-02,2.835484407842159271e-02,2.192287705838680267e-02,1.768047921359539032e-02,2.266528643667697906e-02
-8.086424320936203003e-02,5.784136429429054260e-02,-3.064737841486930847e-02,-2.308944053947925568e-02,-1.986705511808395386e-02,-8.642975240945816040e-02,-2.978619188070297241e-02,2.935994043946266174e-02,-3.023216128349304199e-02,-6.796572357416152954e-02,-3.695422410964965820e-02,-3.408288583159446716e-02,-1.000256929546594620e-02,4.515845794230699539e-03,-2.430119737982749939e-02,-6.554692238569259644e-02,1.866676285862922668e-02,1.624460099264979362e-03,8.848316967487335205e-03,-3.834139555692672729e-02,-1.599611341953277588e-02,2.689145132899284363e-02,2.556654624640941620e-02,5.288450513035058975e-03,2.541025914251804352e-02,2.844005264341831207e-02,7.553434371948242188e-02,4.388665407896041870e-02,-7.739746477454900742e-03,-1.923867687582969666e-02,-4.087479785084724426e-02,-1.823383197188377380e-02,-8.260679990053176880e-02,2.116198837757110596e-02,1.742272078990936279e-02,7.674797624349594116e-02,-4.188863188028335571e-02,5.503961443901062012e-02,5.454977974295616150e-03,-7.025151047855615616e-03,8.333270438015460968e-03,4.973643645644187927e-02,7.564301788806915283e-02,-7.612092420458793640e-03,-2.143261581659317017e-02,-1.906386227346956730e-03,4.038514941930770874e-02,-7.889498025178909302e-03,-1.907781697809696198e-02,-4.083064943552017212e-02,-4.810737818479537964e-02,7.790614385157823563e-03,9.906910359859466553e-03,-7.062847726047039032e-03,1.811731047928333282e-02,-4.121181741356849670e-02,2.764986455440521240e-02,-4.556254949420690536e-03,2.050968445837497711e-02,2.253339812159538269e-02,4.137781262397766113e-02,-6.036630365997552872e-03,-1.449416857212781906e-02,-2.815028466284275055e-02,-3.082929179072380066e-02,-3.486546874046325684e-02,-7.520730048418045044e-02,-1.256009191274642944e-01,-1.127023771405220032e-01,3.706007078289985657e-02,3.804514557123184204e-02,4.014864563941955566e-02,1.375202089548110962e-01,-8.085425943136215210e-02,-7.401669770479202271e-02,1.188633665442466736e-01,-6.572140008211135864e-02,1.056483089923858643e-01,1.329177897423505783e-02,-1.025052741169929504e-01,-6.028407812118530273e-02,-8.068455755710601807e-02,4.480049759149551392e-02,1.210909336805343628e-01,-4.545258358120918274e-02,-6.604314595460891724e-02,-1.726794429123401642e-02,5.081968009471893311e-02,-4.446465522050857544e-02,-1.125828400254249573e-01,-9.070069342851638794e-02,-3.343158960342407227e-02,2.438235096633434296e-02,8.370461873710155487e-03,-2.555009908974170685e-02,3.611047193408012390e-02,-4.209464043378829956e-02,-7.199043780565261841e-02,1.397507786750793457e-01,8.904220908880233765e-02,-8.553840965032577515e-02,6.957119796425104141e-03,-6.220763921737670898e-02,1.391185373067855835e-01,-6.868276000022888184e-02,7.581593096256256104e-02,2.305603120476007462e-03,5.955972522497177124e-02,2.101965807378292084e-02,-6.687706708908081055e-02,5.228960886597633362e-02,1.172648295760154724e-01,1.354419291019439697e-01,3.977518901228904724e-02,6.809904426336288452e-02,-9.596641361713409424e-02,7.801667600870132446e-02,-2.154652960598468781e-02,1.341477129608392715e-02,-9.610763937234878540e-02,-7.222820818424224854e-02,2.636267244815826416e-02,1.037057116627693176e-01,-7.716797292232513428e-02,-2.404684200882911682e-02,1.789532043039798737e-02,6.537314970046281815e-03,9.613493829965591431e-02,-8.466100692749023438e-02,5.219958722591400146e-02,-3.632792085409164429e-02,-4.478987772017717361e-03,6.823616567999124527e-03,-3.701080381870269775e-02,3.900823369622230530e-02,-1.096128299832344055e-02,5.717328563332557678e-02,-1.775875315070152283e-02,-5.715204402804374695e-02,-4.967975243926048279e-02,7.993500912562012672e-04,2.829104848206043243e-02,-1.061268746852874756e-01,-1.029239073395729065e-01,-9.227022528648376465e-02,-2.315943874418735504e-02,3.027873300015926361e-02,-3.137715160846710205e-02,-4.281064122915267944e-02,7.435764372348785400e-02,4.680100828409194946e-02,-4.930774215608835220e-03,-1.387117896229028702e-02,-2.835078351199626923e-02,2.337516471743583679e-02,-3.237221762537956238e-02,-7.928494364023208618e-02,-4.906813427805900574e-02,-7.266081124544143677e-02,4.630529880523681641e-02,3.728583455085754395e-02,1.226022280752658844e-02,-8.801039308309555054e-02,-2.683624066412448883e-02,-7.957480847835540771e-02,-5.491607636213302612e-02,3.128541260957717896e-02,-3.038690797984600067e-02,-4.283939301967620850e-02,1.467403676360845566e-02,-8.692523837089538574e-02,-4.513780027627944946e-02,4.383784905076026917e-02,3.053295426070690155e-03,5.310590937733650208e-02,-1.039064526557922363e-01,-2.249714173376560211e-02,-9.680123999714851379e-03,-6.697306782007217407e-02,1.128031639382243156e-03,-5.312017351388931274e-02,1.367981918156147003e-02,-2.627225185278803110e-04,-8.892110735177993774e-02,-4.246169701218605042e-02,-5.996861308813095093e-02,6.409949809312820435e-02,2.844484709203243256e-02,-8.968479232862591743e-04,-6.139253452420234680e-02,5.343696475028991699e-02,2.892680652439594269e-02,9.797458350658416748e-02,3.125856816768646240e-02,-7.769757416099309921e-03,2.416650950908660889e-02,-1.705351658165454865e-02,-8.427739888429641724e-02,-5.729562416672706604e-02,3.067158535122871399e-02,-6.368027627468109131e-02,5.576945096254348755e-02,4.937272891402244568e-02,8.144181966781616211e-02,3.311534970998764038e-02,6.035479251295328140e-03,4.370035603642463684e-02,-7.502085715532302856e-02,-6.562677770853042603e-02,-1.470127049833536148e-02,-2.817815402522683144e-03,-5.628513544797897339e-02,-5.769462790340185165e-03,8.915902115404605865e-03,1.207563793286681175e-03,1.781151257455348969e-02,-8.424860984086990356e-02,-4.078773036599159241e-02,3.077966347336769104e-02,1.507371105253696442e-02,-1.671541854739189148e-02,-1.281436998397111893e-02,9.430703707039356232e-03,-8.163883537054061890e-02,1.456497702747583389e-02,-3.031059354543685913e-02,4.920763894915580750e-02,-1.141510158777236938e-02,2.602513320744037628e-02,-6.856665015220642090e-02,-4.820581525564193726e-02,-4.697504267096519470e-02,-6.980911362916231155e-03,7.758589088916778564e-02,-2.235780656337738037e-02,1.411295682191848755e-02,8.090458810329437256e-03,-5.324359610676765442e-02,7.756544742733240128e-03,2.649188227951526642e-02,-3.767659515142440796e-02,-2.639188617467880249e-02,-1.934406580403447151e-03,3.103557974100112915e-02,-6.964716315269470215e-02,-1.807572506368160248e-02,-2.247565658763051033e-03,-4.326471686363220215e-02,9.861264377832412720e-03,2.404107339680194855e-02,-7.402611523866653442e-02,2.790430095046758652e-03,2.462230250239372253e-02,-2.330370619893074036e-02,-1.115941267926245928e-05,-3.020110540091991425e-02
-4.718084633350372314e-02,-9.954188019037246704e-03,7.627872284501791000e-03,1.310083083808422089e-02,-4.415341839194297791e-02,-1.338942628353834152e-02,1.062304340302944183e-02,7.134036719799041748e-02,-5.621779244393110275e-03,2.153382077813148499e-02,-4.951127339154481888e-03,-5.116332322359085083e-03,3.793582320213317871e-02,-2.326698601245880127e-02,7.116919755935668945e-02,4.722936078906059265e-02,-1.135296653956174850e-02,-5.847889184951782227e-02,-4.106782004237174988e-02,-9.937166236340999603e-03,3.544070199131965637e-02,9.141383925452828407e-04,1.845616474747657776e-02,-1.663443865254521370e-03,2.958454936742782593e-02,5.593008920550346375e-02,-5.733070522546768188e-02,5.255024880170822144e-02,1.241894625127315521e-02,-2.655521733686327934e-03,-5.866917967796325684e-02,3.096697293221950531e-02,8.181037008762359619e-02,-1.636487781070172787e-03,-6.539877504110336304e-02,-9.262206405401229858e-02,3.362100943922996521e-02,-1.815837249159812927e-02,5.180289968848228455e-02,3.054754622280597687e-02,-1.715890690684318542e-02,2.154272794723510742e-02,-8.375287801027297974e-02,-6.262841820716857910e-02,6.227933242917060852e-02,6.967450678348541260e-02,-1.661873050034046173e-02,-3.440783172845840454e-02,2.287968993186950684e-03,-2.124369330704212189e-02,-4.396005999296903610e-03,-1.472307834774255753e-02,3.196786716580390930e-02,5.798134487122297287e-03,-1.269818469882011414e-02,3.708795085549354553e-02,2.000749856233596802e-02,1.629141625016927719e-03,-4.222414270043373108e-02,2.738466672599315643e-02,3.243971243500709534e-02,3.999043256044387817e-02,4.016442969441413879e-02,6.616068631410598755e-02,-7.916830480098724365e-02,9.516036510467529297e-02,1.144445985555648804e-01,7.572705298662185669e-02,-1.328639034181833267e-02,6.620873510837554932e-02,-8.367804810404777527e-03,-8.986357599496841431e-03,-8.823262155055999756e-02,1.609325758181512356e-03,4.574580863118171692e-02,7.527127116918563843e-02,-8.811685442924499512e-02,-2.970658428966999054e-02,-3.007511422038078308e-02,-5.879804491996765137e-02,6.779216974973678589e-02,-6.174800172448158264e-02,7.620033621788024902e-02,7.625063881278038025e-03,-9.340942651033401489e-02,1.525108218193054199e-01,7.549512386322021484e-02,6.995213031768798828e-02,-8.101288974285125732e-02,3.300324082374572754e-02,1.085707768797874451e-01,-1.229411363601684570e-01,7.195151876658201218e-03,5.968031007796525955e-03,5.521455034613609314e-02,-5.584476888179779053e-02,-9.756171144545078278e-03,1.115307807922363281e-01,-1.316632032394409180e-01,7.652151543879881501e-05,6.088098511099815369e-02,-6.440109759569168091e-02,4.480263963341712952e-02,-2.780585736036300659e-02,-1.470316015183925629e-02,8.274759352207183838e-02,4.433838650584220886e-02,7.388009224086999893e-03,-7.163994759321212769e-02,-7.275122404098510742e-02,7.890634238719940186e-02,-1.199533790349960327e-01,-8.100644499063491821e-02,-8.208043873310089111e-02,-1.166015788912773132e-01,-1.677980646491050720e-02,-1.309467554092407227e-01,1.195585951209068298e-01,-1.221617236733436584e-01,-1.041687130928039551e-01,-1.008767709136009216e-01,5.255644768476486206e-02,9.798473119735717773e-02,-5.690420046448707581e-02,-5.441261455416679382e-02,8.060427755117416382e-02,-4.675243049860000610e-02,-7.264526933431625366e-02,-9.376285225152969360e-02,1.234721541404724121e-01,4.641320183873176575e-02,2.875860780477523804e-02,1.564695127308368683e-02,8.323289453983306885e-02,-6.274883449077606201e-02,-2.438644692301750183e-02,-1.631468720734119415e-02,-4.166173934936523438e-02,5.287945643067359924e-02,1.198392547667026520e-02,2.448519458994269371e-03,-2.811804413795471191e-02,5.484159290790557861e-02,-5.437940731644630432e-02,-6.188095360994338989e-02,2.872586250305175781e-02,-9.121727943420410156e-02,-2.516174875199794769e-02,2.218582108616828918e-02,1.022451929748058319e-02,-2.666067332029342651e-03,1.085442025214433670e-02,2.657141350209712982e-02,6.151947379112243652e-02,-7.849078625440597534e-02,3.405502066016197205e-02,-2.397921308875083923e-02,-9.582429192960262299e-03,5.188339576125144958e-02,7.265663146972656250e-02,9.682209044694900513e-02,-1.411072094924747944e-03,-9.696079790592193604e-02,3.201160579919815063e-02,6.796764582395553589e-02,1.148949414491653442e-01,-4.344810545444488525e-02,-4.770877584815025330e-02,1.579493284225463867e-02,2.049785666167736053e-02,-6.667502224445343018e-02,-9.938922710716724396e-03,-4.310566186904907227e-02,5.878306552767753601e-02,6.614781171083450317e-02,5.397378280758857727e-02,-1.277655549347400665e-02,1.845657010562717915e-03,2.169942669570446014e-02,2.334772609174251556e-02,-1.842664927244186401e-02,-6.883669644594192505e-03,-5.811964161694049835e-03,-1.528210751712322235e-02,1.038940548896789551e-01,-2.681171335279941559e-02,-2.584315277636051178e-02,-7.032811176031827927e-03,4.412620887160301208e-02,-3.383040428161621094e-03,-5.770580098032951355e-02,7.540559768676757812e-02,3.488309681415557861e-02,3.564676502719521523e-03,1.386294048279523849e-02,2.109922096133232117e-02,2.778532728552818298e-02,7.745888084173202515e-02,7.126475870609283447e-02,5.979705974459648132e-02,-1.997590763494372368e-03,1.092868521809577942e-01,4.096684604883193970e-02,1.536341477185487747e-02,2.522093802690505981e-02,-2.151284366846084595e-02,9.541449695825576782e-02,9.127650409936904907e-02,-1.377063337713479996e-02,5.174863338470458984e-02,5.002667754888534546e-02,-4.935463890433311462e-03,3.146188706159591675e-02,-2.466319873929023743e-02,-1.905530877411365509e-02,3.541088663041591644e-03,1.279541477560997009e-02,-4.120669141411781311e-02,-4.335662722587585449e-02,3.278899192810058594e-02,-4.671214520931243896e-02,-5.297992844134569168e-03,-2.911710413172841072e-03,-1.628010999411344528e-03,-6.981815397739410400e-02,-3.683239966630935669e-02,-3.734471648931503296e-02,9.962148033082485199e-03,-7.172459270805120468e-03,7.623029872775077820e-03,-1.314552035182714462e-02,2.184821292757987976e-02,2.174198813736438751e-02,3.933496028184890747e-02,4.494524747133255005e-02,-3.516718745231628418e-02,7.787005603313446045e-02,6.104461848735809326e-02,-1.864357851445674896e-02,-2.299489080905914307e-02,2.382146939635276794e-02,-1.138424593955278397e-02,6.732247024774551392e-02,-1.939224638044834137e-02,6.482548266649246216e-02,1.528853550553321838e-02,4.937068559229373932e-03,4.855204373598098755e-02,8.215169608592987061e-02,-6.881105899810791016e-02,4.811129765585064888e-04,-2.613431215286254883e-02,3.272725269198417664e-02,4.935222491621971130e-02,-2.331891469657421112e-02,-6.083043757826089859e-03
6.595323979854583740e-02,-4.713556170463562012e-02,-3.466597571969032288e-02,3.255804628133773804e-02,5.755082145333290100e-02,1.748899742960929871e-02,1.293090637773275375e-02,3.749920288100838661e-03,1.226882729679346085e-02,3.048549219965934753e-02,3.928706422448158264e-02,-2.586932852864265442e-02,1.446724496781826019e-02,2.336096577346324921e-02,1.860342174768447876e-02,2.331647835671901703e-02,-2.682171761989593506e-02,-1.023711450397968292e-02,-5.714936181902885437e-02,4.535189364105463028e-03,-1.632032357156276703e-02,3.557359427213668823e-02,-1.863065361976623535e-02,-2.373643778264522552e-02,8.797486312687397003e-03,5.839117243885993958e-02,-1.405778434127569199e-02,-1.611596532166004181e-02,-6.150284025352448225e-05,7.904714904725551605e-03,9.544274210929870605e-02,-7.598656695336103439e-03,-2.858407236635684967e-02,1.899712719023227692e-02,4.185533896088600159e-02,-2.186774462461471558e-02,-1.193679124116897583e-02,2.115174010396003723e-02,-1.517613232135772705e-02,1.240023784339427948e-02,-2.181866765022277832e-02,6.019257009029388428e-02,-1.177464518696069717e-02,2.712321095168590546e-02,-1.150414929725229740e-03,-1.683888025581836700e-02,1.176233123987913132e-02,4.442005231976509094e-02,1.060653384774923325e-02,2.915181592106819153e-02,-7.244308944791555405e-03,1.523499097675085068e-02,-7.795783691108226776e-03,-1.603681966662406921e-02,-1.191209349781274796e-02,4.977179691195487976e-02,-4.709038510918617249e-02,-4.779958724975585938e-02,-6.060852110385894775e-02,-2.037426456809043884e-03,-4.049539566040039062e-03,1.236583571881055832e-02,8.282656222581863403e-02,3.097408637404441833e-02,-8.635514974594116211e-02,-1.216625422239303589e-02,1.337281316518783569e-01,-1.450024079531431198e-02,4.420312494039535522e-02,-2.936299145221710205e-02,4.304338991641998291e-02,2.361335791647434235e-02,9.243375062942504883e-02,4.534274712204933167e-02,9.463088214397430420e-02,-1.069578677415847778e-01,-2.979254536330699921e-02,-4.885416105389595032e-02,-3.831760957837104797e-02,6.065402179956436157e-02,-6.452807039022445679e-02,5.313928797841072083e-02,-1.392362415790557861e-01,-1.039639860391616821e-01,8.402886986732482910e-02,5.543269962072372437e-02,-5.597286298871040344e-02,-9.338209033012390137e-02,9.114091843366622925e-02,7.125452905893325806e-02,-8.956079185009002686e-02,6.343041360378265381e-02,-4.141527228057384491e-03,-5.459645390510559082e-02,-6.124454736709594727e-02,-1.284316182136535645e-01,-9.050413966178894043e-02,-1.363020390272140503e-02,9.780213236808776855e-02,-3.477780893445014954e-02,-1.094574183225631714e-01,2.945262379944324493e-02,8.479201048612594604e-02,1.018140465021133423e-01,9.672986716032028198e-02,-4.182428866624832153e-02,-2.306527644395828247e-02,-2.596047706902027130e-02,-1.107638031244277954e-01,2.147391205653548241e-03,5.364622175693511963e-02,4.121837764978408813e-02,-3.934048488736152649e-02,8.654371835291385651e-03,7.964194566011428833e-02,2.831875346601009369e-02,-4.980107769370079041e-02,1.063141226768493652e-01,-2.214053459465503693e-02,-2.796619199216365814e-02,1.436200439929962158e-01,3.837628988549113274e-03,-1.198444962501525879e-01,1.912347413599491119e-02,6.672065705060958862e-02,1.779517531394958496e-02,4.139219876378774643e-03,-4.425767064094543457e-02,5.983379855751991272e-02,-5.107322707772254944e-02,-5.333570018410682678e-02,4.867296665906906128e-02,3.275262191891670227e-02,-6.492765992879867554e-02,-4.105332866311073303e-02,-3.120422363281250000e-02,8.620783686637878418e-02,1.308999657630920410e-01,4.632786661386489868e-02,5.396756902337074280e-02,8.267659693956375122e-03,3.239784389734268188e-02,-3.124994598329067230e-02,1.040311306715011597e-01,6.199636310338973999e-02,1.180505496449768543e-03,-2.748957462608814240e-02,5.214510113000869751e-02,2.330909669399261475e-02,9.654401987791061401e-02,1.991795748472213745e-02,1.453477703034877777e-02,-5.577928200364112854e-02,9.172376245260238647e-02,3.884816914796829224e-02,-2.724864147603511810e-02,7.551448047161102295e-02,3.290519863367080688e-02,1.286613047122955322e-01,-1.575775258243083954e-02,-2.788146026432514191e-02,2.851326763629913330e-02,-3.514479473233222961e-02,-1.865021698176860809e-02,1.956563629209995270e-02,-4.326139017939567566e-02,-1.008016020059585571e-01,6.357692927122116089e-02,3.703004121780395508e-02,8.438818156719207764e-02,-2.193686366081237793e-02,5.177927762269973755e-02,4.283087328076362610e-02,-7.265945523977279663e-02,1.647869357839226723e-03,4.664139449596405029e-02,1.204038970172405243e-02,2.640017680823802948e-02,-1.746598631143569946e-02,6.497660186141729355e-03,-2.517551556229591370e-02,-1.967979408800601959e-02,-1.875562965869903564e-02,8.959291875362396240e-02,-5.666260048747062683e-02,-1.806307211518287659e-02,5.669134110212326050e-02,-2.627347595989704132e-03,4.436621069908142090e-02,1.198577973991632462e-02,1.159221827983856201e-01,-3.578995587304234505e-03,-5.653652176260948181e-02,-7.247361540794372559e-02,-7.756404113024473190e-03,1.940335705876350403e-02,2.968449331820011139e-02,1.037516724318265915e-02,1.050262525677680969e-02,-2.942933700978755951e-02,4.250938817858695984e-02,-5.127606913447380066e-02,3.796313703060150146e-02,-6.553387641906738281e-02,1.298094075173139572e-02,2.919599227607250214e-02,-4.641657695174217224e-02,-1.741463504731655121e-02,4.003613069653511047e-02,-2.824662812054157257e-02,4.880258440971374512e-02,5.040555726736783981e-03,-1.320133730769157410e-02,8.459812402725219727e-02,1.020421553403139114e-02,-1.292076520621776581e-02,-4.041058942675590515e-02,6.894713640213012695e-02,5.172462761402130127e-02,5.968793760985136032e-03,3.909050673246383667e-02,1.119336206465959549e-02,7.645262777805328369e-02,5.758203566074371338e-03,-5.538962781429290771e-02,1.670142821967601776e-02,1.421419903635978699e-03,-4.977157711982727051e-02,-8.880766108632087708e-03,4.089202731847763062e-02,-4.533239081501960754e-02,8.747819066047668457e-02,-2.461651712656021118e-02,1.539664249867200851e-02,1.106266230344772339e-01,-2.429220621706917882e-04,4.079614300280809402e-03,-5.371986329555511475e-02,-4.454555362462997437e-02,-3.543867263942956924e-03,8.767771534621715546e-03,2.887642942368984222e-02,1.956796273589134216e-02,9.891400113701820374e-04,-6.842157454229891300e-04,-1.115875691175460815e-02,-2.088145166635513306e-02,6.416222453117370605e-02,-2.874154970049858093e-02,8.677775040268898010e-03,-4.237211868166923523e-02,-3.566777013475075364e-05,2.277990430593490601e-02,1.573130674660205841e-02,2.059580385684967041e-02,2.404285781085491180e-02
-1.085679009556770325e-01,-5.626486986875534058e-02,1.965910941362380981e-02,-2.734590321779251099e-03,-4.393181204795837402e-02,1.906223408877849579e-02,-1.750159077346324921e-02,-2.710659056901931763e-02,5.493432655930519104e-02,5.084059387445449829e-02,-9.036937355995178223e-02,-1.482000108808279037e-02,4.190431907773017883e-02,2.691635675728321075e-02,4.030732810497283936e-02,-2.416931837797164917e-02,7.794032990932464600e-02,-2.895492129027843475e-02,7.722570002079010010e-02,7.213193923234939575e-02,3.243492916226387024e-02,-5.945036187767982483e-02,2.789809182286262512e-02,2.107310295104980469e-02,-2.207498997449874878e-02,-5.933348089456558228e-02,-7.347577810287475586e-02,7.763972878456115723e-02,1.979127340018749237e-02,-3.357989713549613953e-02,-3.711473196744918823e-02,5.477495864033699036e-02,1.612167432904243469e-02,-1.041763182729482651e-02,-2.906481921672821045e-02,-5.956335365772247314e-02,4.142830893397331238e-02,7.486435025930404663e-02,-7.829126715660095215e-02,3.442574292421340942e-02,-9.585720486938953400e-03,5.277659371495246887e-02,6.687680631875991821e-02,-4.158481210470199585e-02,-5.352689325809478760e-02,8.490867912769317627e-02,-7.035141438245773315e-02,9.735108353197574615e-03,5.611976981163024902e-02,6.772980093955993652e-02,-5.102541297674179077e-02,-8.356518112123012543e-03,3.943391516804695129e-02,3.048906475305557251e-02,-2.280548401176929474e-02,-7.904937863349914551e-02,-4.072384163737297058e-02,-6.515338271856307983e-02,-6.799465417861938477e-02,-2.145153237506747246e-03,-9.388199448585510254e-02,1.851249113678932190e-02,1.899849437177181244e-02,-1.593730412423610687e-02,-1.254875659942626953e-01,-4.075785726308822632e-02,2.125229313969612122e-02,5.637724883854389191e-03,1.084666475653648376e-01,9.414740651845932007e-02,2.572381868958473206e-02,-6.473090499639511108e-02,-1.000878512859344482e-01,-4.302678257226943970e-02,-1.224008426070213318e-01,-4.751793667674064636e-02,5.612581223249435425e-02,6.640499830245971680e-02,-9.170581400394439697e-02,-6.997119635343551636e-02,-7.683480530977249146e-02,-1.425901148468255997e-02,-7.723707705736160278e-02,-2.222400717437267303e-02,1.101014167070388794e-01,8.535208553075790405e-02,-5.120550747960805893e-03,-1.038437485694885254e-01,8.065346628427505493e-02,2.558981068432331085e-03,1.523240935057401657e-02,1.000159010291099548e-01,7.506056129932403564e-02,-4.835446551442146301e-02,-3.136257082223892212e-02,-9.263180941343307495e-02,6.822488456964492798e-02,-8.542351424694061279e-02,-6.231609149836003780e-04,-3.343183919787406921e-02,-9.166076034307479858e-02,7.274896651506423950e-02,-1.097273081541061401e-01,-5.031364038586616516e-02,4.096613079309463501e-02,-6.513407081365585327e-02,8.150858432054519653e-02,9.243451058864593506e-02,7.938049733638763428e-02,-5.053671449422836304e-02,1.021678838878870010e-02,-1.123282611370086670e-01,-1.120569482445716858e-01,-4.655328392982482910e-02,-7.042475789785385132e-02,1.204742118716239929e-02,7.059967517852783203e-02,-1.112764775753021240e-01,8.848272264003753662e-02,9.919824451208114624e-02,-3.794661164283752441e-02,-2.904571592807769775e-02,-7.651187479496002197e-02,-1.010719984769821167e-01,-1.141806319355964661e-01,9.224661439657211304e-02,4.523804783821105957e-02,-4.243537038564682007e-02,5.540782213211059570e-02,2.364102192223072052e-02,-1.075472868978977203e-02,2.098190970718860626e-02,-4.352558776736259460e-02,-1.026531122624874115e-02,5.638435482978820801e-02,8.235063403844833374e-02,-2.029042504727840424e-02,-8.499636501073837280e-02,4.968423396348953247e-02,1.046792194247245789e-01,4.317368846386671066e-03,5.520171672105789185e-02,5.947973951697349548e-02,-7.567468285560607910e-02,9.633566252887248993e-03,-5.088800564408302307e-02,-7.112485915422439575e-02,7.104940712451934814e-02,-7.476126402616500854e-02,-8.581824600696563721e-03,3.542631119489669800e-02,2.213482186198234558e-02,4.329638555645942688e-02,7.677181065082550049e-02,-4.471197724342346191e-02,3.240521997213363647e-02,-2.412626892328262329e-02,-1.609062589704990387e-02,-5.963984131813049316e-02,-7.001456688158214092e-04,1.940263994038105011e-02,-4.497943446040153503e-02,-8.596429228782653809e-02,5.558525398373603821e-02,-4.009840264916419983e-02,2.110244333744049072e-02,-2.280723862349987030e-02,-5.717179155908524990e-04,-1.059185620397329330e-02,1.040381491184234619e-01,-2.624304732307791710e-03,5.693598836660385132e-02,4.301460832357406616e-02,-1.978570781648159027e-02,2.169625088572502136e-02,-6.753578782081604004e-02,8.327663876116275787e-03,2.892322838306427002e-03,-7.776412367820739746e-02,-2.804881706833839417e-02,6.392128020524978638e-02,1.499885600060224533e-02,1.245928369462490082e-02,6.182637065649032593e-02,9.140971302986145020e-02,6.157998368144035339e-02,-5.535239353775978088e-02,-7.275763899087905884e-02,-6.373165547847747803e-02,5.282164737582206726e-02,7.483898103237152100e-02,5.783067271113395691e-02,9.061041474342346191e-02,2.417995594441890717e-02,1.991712301969528198e-02,-2.458827383816242218e-02,2.259979955852031708e-02,1.769120059907436371e-02,2.618453465402126312e-02,2.507954090833663940e-02,2.069989778101444244e-02,-2.366886474192142487e-02,3.160085156559944153e-02,-5.520293023437261581e-03,8.036792278289794922e-02,-2.500522136688232422e-02,3.886033594608306885e-02,1.046668067574501038e-01,-7.499054819345474243e-02,-7.088693976402282715e-02,9.697503596544265747e-02,-5.516443029046058655e-02,-6.373080424964427948e-03,1.477154623717069626e-02,-1.535570900887250900e-02,2.169265225529670715e-02,2.540589682757854462e-02,4.042669665068387985e-03,2.946330606937408447e-02,-8.315744251012802124e-02,-4.897283390164375305e-02,-3.387948125600814819e-02,9.614522568881511688e-03,-1.603253930807113647e-02,-8.912249654531478882e-02,-5.288465693593025208e-02,4.215028882026672363e-02,-5.161553248763084412e-02,-3.105608560144901276e-02,-7.305451482534408569e-02,7.880295813083648682e-02,2.128397487103939056e-02,-3.662710264325141907e-02,5.377924814820289612e-02,9.870972484350204468e-02,6.422271486371755600e-03,8.411008119583129883e-02,2.126123942434787750e-02,5.387700721621513367e-02,-2.257246710360050201e-02,4.472369328141212463e-02,-4.568723961710929871e-02,-6.416165828704833984e-02,-2.609552815556526184e-02,3.149786964058876038e-02,3.029570542275905609e-02,1.889422722160816193e-02,8.282022923231124878e-02,-3.322577476501464844e-02,-1.536643318831920624e-02,5.562052875757217407e-02,3.198397159576416016e-02,-1.255380269140005112e-02,8.086144179105758667e-02,-4.058319702744483948e-02,9.699045680463314056e-03
-5.545639619231224060e-02,-6.014022976160049438e-03,1.596552319824695587e-02,8.423561230301856995e-03,1.090219710022211075e-02,-3.113791160285472870e-02,5.435611307621002197e-02,1.129807159304618835e-02,9.526383131742477417e-02,-2.465424686670303345e-02,-1.296835672110319138e-02,8.339127525687217712e-03,4.280167445540428162e-02,3.064411925151944160e-03,1.093831099569797516e-02,3.340528532862663269e-02,5.989371240139007568e-02,4.440585896372795105e-02,-8.425949513912200928e-02,-2.824244089424610138e-02,-2.775557525455951691e-02,-1.729392074048519135e-02,2.898109843954443932e-03,3.457702463492751122e-03,4.249349236488342285e-02,-3.392889862880110741e-03,-1.118134427815675735e-02,6.190264225006103516e-02,-1.325838267803192139e-02,-1.504133804701268673e-03,3.077086247503757477e-02,3.080555237829685211e-02,6.757143884897232056e-02,1.523079071193933487e-02,4.557646065950393677e-02,-3.117181546986103058e-02,5.127960816025733948e-03,1.082440540194511414e-01,-4.543883726000785828e-02,-5.525109916925430298e-02,-9.317217045463621616e-04,3.889715299010276794e-03,7.209174335002899170e-02,2.619750797748565674e-03,6.816092878580093384e-02,-3.731309901922941208e-03,-6.473013781942427158e-04,5.765408277511596680e-02,-1.648685708642005920e-02,-2.039109729230403900e-02,8.636247366666793823e-03,-3.567544743418693542e-03,1.128075458109378815e-02,6.129512563347816467e-03,-5.721302703022956848e-03,2.997601171955466270e-03,3.427710011601448059e-02,2.731556631624698639e-02,4.946571309119462967e-03,-2.566177165135741234e-03,-5.506162717938423157e-02,4.846336785703897476e-03,-1.814705174183472991e-04,9.410848841071128845e-03,-8.224798738956451416e-02,1.050215773284435272e-02,4.475994408130645752e-02,-9.096102416515350342e-02,8.721981942653656006e-02,1.318202465772628784e-01,5.907154083251953125e-02,-1.395058352500200272e-03,7.602827250957489014e-02,2.566501684486865997e-02,4.724115878343582153e-02,-4.552233591675758362e-02,-9.764406085014343262e-02,4.377390816807746887e-02,6.495913863182067871e-02,-1.082866340875625610e-01,3.716474026441574097e-02,-1.150931343436241150e-01,-1.136237382888793945e-01,-3.892624005675315857e-02,-9.534442424774169922e-02,-9.003549814224243164e-02,1.789306849241256714e-02,5.451224278658628464e-03,-3.175314888358116150e-02,4.147190600633621216e-02,-1.066995412111282349e-01,-5.484576150774955750e-02,7.849874906241893768e-03,-3.934525698423385620e-02,-2.624708786606788635e-02,8.658142387866973877e-02,2.701960317790508270e-02,-8.312840014696121216e-02,9.456815198063850403e-03,2.622873149812221527e-02,9.874731302261352539e-03,-2.353967912495136261e-02,6.427177786827087402e-02,2.434473484754562378e-02,5.028925463557243347e-02,-7.814977318048477173e-02,3.238861635327339172e-02,-4.188358783721923828e-03,8.169575780630111694e-02,-1.643925532698631287e-02,-4.739780724048614502e-02,1.102772653102874756e-01,8.709107059985399246e-04,-2.709987945854663849e-02,1.131880655884742737e-01,4.241128265857696533e-02,9.666913747787475586e-02,8.073547482490539551e-02,8.458907157182693481e-02,6.732556223869323730e-02,-1.179798990488052368e-01,4.125925898551940918e-02,5.400647595524787903e-02,3.745876252651214600e-02,-1.029339954257011414e-01,7.145101577043533325e-02,4.115880466997623444e-03,-6.767713278532028198e-02,7.089520338922739029e-03,-2.740081958472728729e-02,-3.205636749044060707e-04,1.500564441084861755e-02,2.601457573473453522e-02,-9.589663147926330566e-02,1.860538870096206665e-02,7.542762905359268188e-02,1.045176461338996887e-01,1.313318312168121338e-01,1.338050980120897293e-02,-1.870840974152088165e-02,-2.215100824832916260e-02,1.193892303854227066e-02,-8.030361682176589966e-02,1.055837329477071762e-02,-5.725561454892158508e-02,-3.478441014885902405e-02,2.945743314921855927e-02,2.390641346573829651e-02,-1.507391314953565598e-02,3.358000516891479492e-02,-2.578808180987834930e-02,-2.887354465201497078e-03,3.386083245277404785e-02,3.086189366877079010e-02,-1.623113453388214111e-02,-5.990627780556678772e-02,1.160590109066106379e-04,1.698145084083080292e-02,-6.175015866756439209e-02,1.973029598593711853e-02,2.074352093040943146e-02,2.937226789072155952e-03,5.221528187394142151e-02,3.838059678673744202e-02,-1.819992996752262115e-02,1.092396900057792664e-01,9.737865626811981201e-02,4.882643744349479675e-02,8.836615830659866333e-03,8.342318981885910034e-02,-4.802501946687698364e-02,2.226826362311840057e-02,1.651610434055328369e-02,-5.437253508716821671e-03,-4.412066191434860229e-02,1.487571932375431061e-02,3.067827410995960236e-02,2.580233104526996613e-02,-4.968754947185516357e-02,3.019720781594514847e-03,-2.935451269149780273e-02,-1.469130627810955048e-02,2.786502055823802948e-02,-2.421392127871513367e-02,-8.947540074586868286e-02,2.235948108136653900e-02,4.274196922779083252e-02,2.978996746242046356e-02,6.932580471038818359e-02,-1.847824826836585999e-02,-3.985182940959930420e-02,4.172356799244880676e-02,-4.103025421500205994e-02,7.514458894729614258e-02,2.239799126982688904e-02,9.954647161066532135e-03,2.133889123797416687e-03,-1.491891220211982727e-02,7.157247979193925858e-03,5.443050712347030640e-02,1.373485755175352097e-02,7.169392704963684082e-02,-1.990669965744018555e-02,3.184942528605461121e-02,-1.609957218170166016e-02,3.362254006788134575e-03,-7.619356364011764526e-02,5.802273377776145935e-02,2.910847589373588562e-02,-2.163170278072357178e-02,5.490134656429290771e-02,-1.453024893999099731e-02,-2.751212380826473236e-02,-3.058351576328277588e-02,5.585609003901481628e-03,2.776717999950051308e-03,-2.837329916656017303e-02,4.034589044749736786e-03,-1.713721454143524170e-02,2.672872133553028107e-02,-5.665756389498710632e-02,1.008102577179670334e-02,-3.296693786978721619e-02,-2.660473808646202087e-02,8.580726385116577148e-02,-2.565880492329597473e-02,3.599280864000320435e-02,-5.044797807931900024e-02,1.565908663906157017e-03,-4.663227498531341553e-02,-2.037581056356430054e-02,-1.812321878969669342e-02,1.185016147792339325e-02,7.153167575597763062e-02,9.112957119941711426e-02,-1.820195652544498444e-02,-7.232334464788436890e-02,5.625181272625923157e-02,-3.006587503477931023e-03,-2.011361345648765564e-02,4.787996038794517517e-02,3.822188358753919601e-03,4.649334773421287537e-02,-2.422380726784467697e-03,-1.201070193201303482e-02,8.255109423771500587e-04,1.857070811092853546e-02,-4.177707806229591370e-02,9.019081294536590576e-02,2.731139026582241058e-02,7.761970907449722290e-02,-7.684791460633277893e-03,-2.085183374583721161e-02,1.952590607106685638e-02,-2.332855015993118286e-02,7.676010020077228546e-03
7.363545149564743042e-02,1.280965283513069153e-03,-3.058078000321984291e-03,-9.130953811109066010e-03,1.496876217424869537e-02,-5.856825411319732666e-02,-6.049617379903793335e-02,5.327470973134040833e-02,-5.196554702706634998e-04,7.110955566167831421e-02,-1.016979571431875229e-02,3.000996075570583344e-02,1.119207404553890228e-02,8.221348252845928073e-05,-3.326050564646720886e-02,4.518793523311614990e-02,5.533781275153160095e-02,-2.642128989100456238e-02,6.775207817554473877e-02,-3.161982633173465729e-03,1.246367860585451126e-02,3.093011118471622467e-02,1.751110516488552094e-02,6.742625962942838669e-03,2.471309562679380178e-04,-3.134293109178543091e-02,-8.851834572851657867e-03,-4.507924616336822510e-02,-7.617574185132980347e-03,-7.362380856648087502e-04,6.802670657634735107e-02,2.986769564449787140e-02,3.644221927970647812e-03,-6.298335269093513489e-03,4.765992239117622375e-02,2.697924152016639709e-02,-1.931427791714668274e-02,8.292071521282196045e-02,-6.734358519315719604e-02,7.265231013298034668e-02,-5.862636491656303406e-03,3.701629489660263062e-02,3.550023585557937622e-02,1.760264672338962555e-02,3.077314607799053192e-02,1.307578012347221375e-02,-4.766904935240745544e-02,1.491987332701683044e-02,-3.158133709803223610e-03,-2.206961065530776978e-02,-7.276765536516904831e-03,2.483590319752693176e-02,-4.437312018126249313e-03,1.038190815597772598e-02,-6.879322696477174759e-03,1.969152502715587616e-02,-4.372864216566085815e-02,-2.718367986381053925e-02,2.765708044171333313e-02,1.655765436589717865e-02,3.904385864734649658e-02,1.662925072014331818e-02,2.020989544689655304e-02,5.949512124061584473e-03,7.399993389844894409e-02,1.201174557209014893e-01,-8.666594326496124268e-02,-1.709719561040401459e-02,-1.179925650358200073e-01,-3.703561425209045410e-02,5.981863476336002350e-03,8.918682485818862915e-02,-8.525308221578598022e-02,2.550973370671272278e-02,6.748172640800476074e-02,-6.418847292661666870e-02,4.796030744910240173e-02,-2.540862560272216797e-02,-7.206308096647262573e-02,-5.678539350628852844e-02,-8.834510296583175659e-02,8.393611758947372437e-02,8.747626841068267822e-02,3.131769597530364990e-02,7.477107644081115723e-02,-8.949822187423706055e-02,-9.388224780559539795e-02,-2.240314707159996033e-02,1.270094420760869980e-02,-8.657537400722503662e-02,-3.625709936022758484e-02,3.904466331005096436e-02,-6.441373843699693680e-03,-8.416903764009475708e-02,-2.326343953609466553e-02,7.504900568164885044e-04,-5.514195654541254044e-03,8.591870777308940887e-03,2.413655864074826241e-03,-2.031871676445007324e-02,-3.485488891601562500e-02,-7.795010227710008621e-03,-9.405304491519927979e-02,8.960303850471973419e-03,9.176032990217208862e-02,-1.012572795152664185e-01,-1.886235177516937256e-02,3.901386260986328125e-02,-8.352074027061462402e-02,4.847888275980949402e-02,-4.868331924080848694e-02,4.366400837898254395e-02,1.298420783132314682e-02,6.989811360836029053e-02,7.673905789852142334e-02,-7.487240433692932129e-02,-1.348499674350023270e-02,7.947783172130584717e-02,1.125473752617835999e-01,-3.724279999732971191e-02,6.309095304459333420e-03,1.173351928591728210e-01,-9.836675599217414856e-03,-2.118427306413650513e-02,-1.224449872970581055e-01,-1.058471649885177612e-01,-1.223055869340896606e-01,1.373585760593414307e-01,6.125034019351005554e-02,-6.952171027660369873e-02,7.945025339722633362e-03,-3.824090526904910803e-06,6.750931590795516968e-02,4.223403707146644592e-02,5.942515656352043152e-02,6.965522468090057373e-02,-6.368398666381835938e-02,5.111122503876686096e-02,4.215334355831146240e-02,5.008796975016593933e-02,-2.801237255334854126e-02,-1.094354037195444107e-02,3.763916343450546265e-02,-3.804944455623626709e-02,6.684925407171249390e-02,-1.053882017731666565e-02,-4.992709029465913773e-03,-2.315256930887699127e-02,5.016981624066829681e-03,4.499172046780586243e-02,4.862368106842041016e-02,6.004017312079668045e-03,4.585111886262893677e-02,9.728220850229263306e-02,3.171533718705177307e-02,8.206691592931747437e-03,-8.505561389029026031e-03,2.793166786432266235e-03,1.115209683775901794e-01,-7.226365059614181519e-02,7.540581375360488892e-02,2.684448100626468658e-02,8.003610372543334961e-02,-2.436909079551696777e-02,-3.466023877263069153e-02,-7.928875088691711426e-02,-3.097967989742755890e-02,8.049347996711730957e-02,2.269528806209564209e-02,-1.022642664611339569e-02,-4.435253515839576721e-02,9.445389360189437866e-02,-4.284526035189628601e-02,4.037442430853843689e-02,5.592028051614761353e-02,3.845610097050666809e-02,-4.543531686067581177e-02,1.991206966340541840e-02,-3.718274086713790894e-02,-2.354346588253974915e-02,9.317808784544467926e-03,8.026158437132835388e-03,-1.605197787284851074e-02,3.448485955595970154e-02,6.730927526950836182e-02,6.647631525993347168e-02,-2.559274621307849884e-02,6.907414179295301437e-03,-9.750596247613430023e-03,-1.355884224176406860e-02,1.878036744892597198e-02,6.092673912644386292e-02,-8.097017556428909302e-02,-4.000129178166389465e-02,-1.023196335881948471e-02,-4.807169083505868912e-03,-3.491900488734245300e-02,4.606430232524871826e-02,2.439013682305812836e-02,-4.244935512542724609e-02,-7.395973056554794312e-02,-3.098898380994796753e-02,3.328166902065277100e-02,3.328963369131088257e-02,-3.590488433837890625e-02,8.763782680034637451e-03,-3.675836697220802307e-02,-3.968959301710128784e-02,-3.408977761864662170e-02,-2.521436894312500954e-03,-8.052679896354675293e-02,3.437021747231483459e-02,1.698651723563671112e-02,7.069757580757141113e-02,2.091055549681186676e-02,1.407594792544841766e-02,-6.755190342664718628e-02,3.101697005331516266e-02,-6.293676048517227173e-02,1.622087694704532623e-02,-4.430821910500526428e-02,1.108749769628047943e-02,1.888403482735157013e-02,6.962774321436882019e-03,-5.825347825884819031e-02,1.328998804092407227e-02,-1.274279225617647171e-02,6.064195558428764343e-02,1.333186309784650803e-02,7.941960543394088745e-02,-2.646373468451201916e-04,2.630761452019214630e-02,5.958854686468839645e-03,-8.893269300460815430e-02,-2.987528406083583832e-02,7.136881351470947266e-02,1.060252077877521515e-02,-1.883251406252384186e-02,-4.654124379158020020e-02,-1.965815434232354164e-03,-2.684951201081275940e-02,-9.268157184123992920e-03,-5.399937508627772331e-04,1.475168578326702118e-02,-3.672400489449501038e-02,8.679061196744441986e-03,-4.688792861998081207e-03,-3.038707934319972992e-02,-4.465107247233390808e-02,-4.764887318015098572e-02,1.996377296745777130e-02,-2.989719435572624207e-02,4.621116444468498230e-02,-2.911461703479290009e-02,6.680430471897125244e-02,-1.059934869408607483e-02
-1.015962734818458557e-01,3.556904569268226624e-02,-1.794213987886905670e-02,-1.242085918784141541e-02,-3.416966879740357399e-03,-9.277646243572235107e-02,7.797791808843612671e-02,-4.075635969638824463e-02,-5.013639479875564575e-02,-3.356232866644859314e-02,2.392305806279182434e-02,-3.988283860962837934e-04,-2.128915116190910339e-02,-1.375902723520994186e-02,2.823305875062942505e-02,3.244993463158607483e-02,8.786571770906448364e-02,-3.328870609402656555e-02,6.139577180147171021e-02,-2.732345648109912872e-02,7.274003326892852783e-02,5.815451219677925110e-02,-9.925055317580699921e-03,2.568371407687664032e-02,5.643226671963930130e-03,3.330033272504806519e-02,2.383229322731494904e-02,-5.259327217936515808e-02,7.186495512723922729e-02,6.328694522380828857e-02,3.188092634081840515e-02,4.599941149353981018e-02,1.017939001321792603e-01,-4.760979115962982178e-02,4.112792015075683594e-02,3.672114014625549316e-02,-1.730014197528362274e-02,1.202681958675384521e-01,-6.832380592823028564e-02,8.373427391052246094e-02,-3.029086440801620483e-02,-7.035752385854721069e-02,4.994437843561172485e-02,-3.176475316286087036e-02,8.905848860740661621e-02,5.433235689997673035e-02,3.502470627427101135e-02,1.897930540144443512e-02,3.300559148192405701e-02,2.159207873046398163e-02,3.522057831287384033e-02,-9.038308635354042053e-03,-5.342246964573860168e-02,-1.732412539422512054e-02,2.210004255175590515e-02,-6.516442447900772095e-02,-1.030706800520420074e-02,3.896949440240859985e-02,-2.961322432383894920e-03,2.078206511214375496e-03,-5.223057791590690613e-02,-1.582524739205837250e-02,-2.352365478873252869e-02,7.102601230144500732e-03,-2.506499923765659332e-02,-5.899833142757415771e-02,-7.860139757394790649e-02,2.232377417385578156e-02,-1.182299479842185974e-01,9.789124131202697754e-02,-8.545657247304916382e-02,-3.559964522719383240e-02,5.596683919429779053e-02,-3.086321242153644562e-02,7.398749887943267822e-02,-7.256630808115005493e-02,-4.600306972861289978e-02,7.479825615882873535e-02,-3.431538864970207214e-02,-4.940983653068542480e-02,-6.315360218286514282e-02,-5.683892965316772461e-02,-3.728404641151428223e-02,-2.199638448655605316e-02,9.355700574815273285e-03,-1.278730183839797974e-01,-2.249981090426445007e-02,-7.326042652130126953e-02,5.566603317856788635e-02,7.004015147686004639e-02,-1.247067898511886597e-01,-1.017565876245498657e-01,-1.061686649918556213e-01,-2.284615859389305115e-02,-1.158804446458816528e-01,6.342326849699020386e-02,-7.817766815423965454e-02,2.294873446226119995e-02,1.076480969786643982e-01,5.830391123890876770e-02,1.786966621875762939e-02,-7.372315973043441772e-02,-2.352357096970081329e-02,1.013044938445091248e-01,-6.154936924576759338e-02,2.823327854275703430e-02,-8.844912052154541016e-02,4.505992308259010315e-02,1.025841310620307922e-01,1.347964163869619370e-02,-9.695105254650115967e-02,-1.149273067712783813e-01,2.593064866960048676e-02,-3.701087459921836853e-02,1.994440518319606781e-02,-3.641534596681594849e-02,6.818197667598724365e-02,-8.566739410161972046e-02,5.913083255290985107e-02,8.574838936328887939e-02,1.554007828235626221e-02,1.049612164497375488e-01,1.110286563634872437e-01,-6.250292062759399414e-02,1.138936378993093967e-03,-5.109172686934471130e-02,8.828834444284439087e-02,-7.116674631834030151e-02,-2.121300622820854187e-02,-5.464730784296989441e-03,-3.921068087220191956e-02,2.128500863909721375e-02,6.064710766077041626e-02,1.031349599361419678e-01,-3.627837076783180237e-02,3.537809476256370544e-02,2.216478623449802399e-02,8.519776910543441772e-02,-6.607063114643096924e-02,-2.386034931987524033e-03,-6.255982816219329834e-02,-3.485017921775579453e-03,9.587907046079635620e-02,-1.049765124917030334e-01,-5.856994912028312683e-02,-8.994685858488082886e-02,9.307499974966049194e-02,-2.328639850020408630e-03,5.796426534652709961e-02,7.637847214937210083e-02,4.683173261582851410e-03,-4.259421024471521378e-03,3.516896814107894897e-02,-5.775247886776924133e-02,-9.294470772147178650e-03,9.864017367362976074e-02,3.928386047482490540e-02,-6.957165151834487915e-02,-6.377889215946197510e-02,-3.763380274176597595e-02,-1.486729364842176437e-02,3.943017125129699707e-02,-6.533997505903244019e-02,6.337150186300277710e-02,-3.772266209125518799e-02,1.392008829861879349e-02,1.658855006098747253e-02,-2.448123507201671600e-02,6.565729621797800064e-03,1.472799386829137802e-02,-3.037372604012489319e-02,7.026635855436325073e-02,-9.600499272346496582e-02,-6.853526923805475235e-03,-7.973440736532211304e-02,2.502558194100856781e-02,-1.881606504321098328e-02,6.180958449840545654e-02,-7.531300187110900879e-02,3.670848533511161804e-02,1.144488807767629623e-02,-3.414503484964370728e-02,-4.071706905961036682e-02,-8.280958980321884155e-02,4.287704359740018845e-03,-9.486524760723114014e-02,8.605784922838211060e-02,4.345086589455604553e-02,1.132899895310401917e-01,1.804472506046295166e-02,9.180931746959686279e-02,-3.502910211682319641e-02,2.288566157221794128e-02,1.387249398976564407e-02,1.011173147708177567e-02,1.675005070865154266e-02,3.777652606368064880e-02,-5.549231916666030884e-02,-7.184627931565046310e-03,7.151180505752563477e-02,-4.582444578409194946e-02,1.002514809370040894e-01,-7.372824475169181824e-03,-5.167533084750175476e-02,7.381395995616912842e-02,-1.846290007233619690e-02,9.640163183212280273e-02,1.168871894478797913e-01,1.088811550289392471e-02,-4.982315003871917725e-02,6.699633598327636719e-02,-1.649655029177665710e-02,-1.316781621426343918e-02,5.708667263388633728e-02,1.063107233494520187e-02,-1.938505284488201141e-02,2.807119861245155334e-02,5.895638465881347656e-02,-3.331886604428291321e-02,7.011681795120239258e-03,3.905825316905975342e-02,-4.387266933917999268e-02,-3.641576692461967468e-02,-8.515700697898864746e-03,-7.073156535625457764e-02,-1.774116791784763336e-02,2.451865747570991516e-02,2.077714540064334869e-03,1.838166266679763794e-02,9.656910598278045654e-02,-6.555575877428054810e-02,8.202752470970153809e-02,-3.538485988974571228e-02,1.589463092386722565e-02,-9.780195541679859161e-03,6.920867413282394409e-02,1.650604978203773499e-02,-4.654109850525856018e-02,8.684132993221282959e-02,3.342613205313682556e-02,-3.483425453305244446e-02,-3.259154781699180603e-02,3.855278715491294861e-02,-2.328839339315891266e-02,5.467259883880615234e-02,-1.532130874693393707e-02,-4.894922487437725067e-03,-6.021024659276008606e-02,3.331007435917854309e-02,5.493514239788055420e-02,-5.819047242403030396e-02,-7.343033701181411743e-02,4.156654700636863708e-03,-6.078371405601501465e-02,9.321323037147521973e-02,2.071063220500946045e-02
4.033412039279937744e-02,-5.324886739253997803e-02,-4.623388126492500305e-02,-3.018788807094097137e-02,-1.537346001714468002e-02,6.233120709657669067e-02,7.074102759361267090e-02,4.375698789954185486e-02,-5.446002818644046783e-03,-1.273563355207443237e-01,-6.252075545489788055e-03,-5.394745618104934692e-02,-1.770848594605922699e-02,8.817212656140327454e-03,-1.850101724267005920e-02,2.421767078340053558e-02,-8.466532826423645020e-02,-6.809384562075138092e-03,-9.091069549322128296e-02,-5.621784552931785583e-02,-7.403740659356117249e-03,-5.975618958473205566e-02,3.267909865826368332e-03,-1.293158251792192459e-02,6.093050539493560791e-02,-1.396783720701932907e-02,1.438779104501008987e-02,-3.943846002221107483e-02,-5.911742337048053741e-04,-9.846548549830913544e-03,-6.004682928323745728e-02,5.346775427460670471e-02,3.774877265095710754e-02,-1.323117036372423172e-02,6.927650421857833862e-02,8.535557426512241364e-03,-2.829266712069511414e-03,1.950596226379275322e-03,-9.629840962588787079e-03,-3.267588093876838684e-02,-2.623328194022178650e-02,-2.254533208906650543e-02,-6.390126794576644897e-02,-8.719940669834613800e-03,4.155598580837249756e-02,4.187273234128952026e-02,-4.844082146883010864e-02,-2.311690151691436768e-02,1.288425060920417309e-03,1.553194317966699600e-02,1.526448759250342846e-03,1.789129455573856831e-03,-2.332411520183086395e-02,2.258772496134042740e-03,-8.905644528567790985e-03,2.379115857183933258e-02,4.490974918007850647e-02,9.560468606650829315e-03,-2.724139951169490814e-02,1.383407693356275558e-02,-5.185600370168685913e-02,-2.416532859206199646e-02,4.112574830651283264e-02,7.626188453286886215e-03,1.338643133640289307e-01,-9.784989804029464722e-02,-6.623747944831848145e-02,-5.422101542353630066e-02,-6.755283474922180176e-02,-3.578521683812141418e-02,9.049926698207855225e-02,-1.369599997997283936e-02,1.106910929083824158e-01,9.365146607160568237e-02,7.459923624992370605e-02,6.524398922920227051e-02,-5.602240189909934998e-02,-2.393649145960807800e-02,-1.369383186101913452e-02,1.291670501232147217e-01,3.862014412879943848e-02,-3.379603847861289978e-02,1.950874924659729004e-02,6.041417643427848816e-02,-2.593528479337692261e-02,-1.674452237784862518e-02,-8.967839926481246948e-02,1.876991055905818939e-02,-7.639250159263610840e-02,3.037540055811405182e-02,-7.044848799705505371e-02,6.192005425691604614e-02,5.426106601953506470e-02,-5.082519724965095520e-02,5.514920130372047424e-02,-9.830069029703736305e-04,-3.915837965905666351e-03,-6.302821636199951172e-02,1.373547166585922241e-01,7.789086550474166870e-02,7.759116590023040771e-03,-9.926366060972213745e-02,8.851245790719985962e-02,2.204889804124832153e-02,-4.690172616392374039e-03,-1.064431369304656982e-01,-2.310893870890140533e-02,1.399225182831287384e-02,-4.340270906686782837e-02,-9.124360978603363037e-02,8.937266469001770020e-02,3.125579655170440674e-02,3.750252351164817810e-02,-9.988015890121459961e-02,-1.214307844638824463e-01,-4.290458187460899353e-02,4.713574796915054321e-02,-1.607761345803737640e-02,-5.819725245237350464e-02,7.202174514532089233e-02,-2.917761355638504028e-02,2.430308982729911804e-02,5.810210853815078735e-02,9.391614235937595367e-03,-1.083955261856317520e-02,7.376585155725479126e-02,-7.806773483753204346e-02,1.049713715910911560e-01,-2.458563633263111115e-02,-9.549091011285781860e-02,-1.019798517227172852e-01,-2.298190817236900330e-02,-4.346370231360197067e-03,7.187040150165557861e-02,-5.054648965597152710e-02,5.501086637377738953e-02,-3.054068051278591156e-02,-3.027811646461486816e-02,3.296666964888572693e-02,-7.271460443735122681e-02,-2.949471399188041687e-02,9.965030476450920105e-03,2.458185702562332153e-02,-8.212795853614807129e-02,1.206379942595958710e-02,5.488377436995506287e-02,-4.326146095991134644e-02,4.365087673068046570e-02,-1.353534031659364700e-02,4.979444667696952820e-02,2.238682657480239868e-02,2.838299050927162170e-02,-3.452535718679428101e-02,-4.968533758074045181e-04,5.134242773056030273e-02,1.257969159632921219e-02,-1.863213069736957550e-02,-2.798956260085105896e-02,-1.532239094376564026e-02,1.968086138367652893e-02,-7.948758453130722046e-02,4.691623896360397339e-02,-1.063659787178039551e-01,4.410675913095474243e-02,-5.072627961635589600e-02,8.407316356897354126e-02,4.865585267543792725e-02,6.690512597560882568e-02,-4.306631628423929214e-03,4.392176121473312378e-02,6.995123624801635742e-02,4.208844155073165894e-02,1.000797143206000328e-03,-6.012950837612152100e-02,-5.583656951785087585e-02,-1.995412074029445648e-02,-5.028697848320007324e-02,1.002989336848258972e-02,5.581790208816528320e-02,1.660660281777381897e-02,-1.533156447112560272e-02,-2.192831225693225861e-02,-3.760764002799987793e-02,4.669551923871040344e-02,5.962029844522476196e-02,-5.623541399836540222e-02,-2.500170283019542694e-02,-3.712381049990653992e-02,-5.392380524426698685e-03,-2.323879161849617958e-03,-7.257810235023498535e-02,-8.416154235601425171e-02,3.300961107015609741e-02,-7.279688119888305664e-02,-5.588480853475630283e-04,-3.743001446127891541e-02,-1.884519122540950775e-02,-2.265319461002945900e-03,-5.146164819598197937e-02,3.496244549751281738e-02,1.534104696474969387e-03,-1.246102037839591503e-03,1.390932314097881317e-02,-5.400772765278816223e-02,3.534251078963279724e-02,5.148427095264196396e-03,4.441962763667106628e-02,-9.176073968410491943e-02,-5.852420255541801453e-02,-1.332129258662462234e-02,3.806613385677337646e-02,9.957661852240562439e-03,6.817848887294530869e-03,-3.462641313672065735e-02,4.524413496255874634e-03,1.039087213575839996e-02,2.329459041357040405e-02,6.286998093128204346e-02,-4.694421309977769852e-03,2.197667211294174194e-02,8.893998456187546253e-04,-9.513409808278083801e-03,7.257057726383209229e-02,-8.588490076363086700e-03,-8.750007301568984985e-02,1.111048087477684021e-02,-5.211741849780082703e-02,3.919341415166854858e-02,-3.255401924252510071e-02,2.635515294969081879e-02,-6.795848254114389420e-03,3.842995688319206238e-02,4.363983403891324997e-03,-1.024601086974143982e-01,-1.902660168707370758e-02,4.947927221655845642e-02,-2.793450653553009033e-02,-2.746836980804800987e-03,-7.666969299316406250e-02,-1.264526392333209515e-03,-2.421620301902294159e-03,-2.634662762284278870e-02,2.969789318740367889e-02,7.131586782634258270e-03,-3.133849799633026123e-02,-2.265230007469654083e-02,-4.207514971494674683e-02,-9.822811931371688843e-03,-4.428213462233543396e-02,-1.431588176637887955e-02,-6.265977770090103149e-02,-3.534175083041191101e-02,-6.021824479103088379e-02,-3.967216238379478455e-03,-7.097559422254562378e-02,1.912018842995166779e-02
-2.605520375072956085e-02,-2.281705662608146667e-02,2.842235751450061798e-02,2.912738546729087830e-02,3.875368461012840271e-02,1.016559638082981110e-02,-5.287044867873191833e-02,2.156615257263183594e-02,-3.611199185252189636e-02,9.799771942198276520e-03,-5.009106919169425964e-02,-4.900472238659858704e-02,-1.621511206030845642e-02,1.732156425714492798e-02,-3.081371262669563293e-02,3.139135241508483887e-02,3.748748078942298889e-02,1.616338640451431274e-02,-5.969339050352573395e-03,5.706779286265373230e-02,1.437279023230075836e-02,2.875115536153316498e-02,-4.324303939938545227e-03,2.314984565600752831e-03,-1.518423482775688171e-02,4.145648330450057983e-02,-6.299849599599838257e-02,-7.652875036001205444e-02,-1.730041019618511200e-02,4.154595360159873962e-02,-4.643504042178392410e-03,2.556038089096546173e-02,9.335098415613174438e-02,-3.082473203539848328e-02,1.870984584093093872e-02,4.270767048001289368e-02,-1.533344667404890060e-02,-1.032052114605903625e-01,-6.741791218519210815e-02,-2.704482525587081909e-02,2.372201904654502869e-02,-6.836150586605072021e-02,-1.685190200805664062e-02,4.215164482593536377e-02,-4.777497798204421997e-02,7.269859313964843750e-02,5.440891534090042114e-02,1.168656498193740845e-01,-3.264506161212921143e-02,-4.849258437752723694e-02,3.347949311137199402e-02,-1.236570999026298523e-03,-1.035954058170318604e-02,-9.041020646691322327e-03,-1.523430831730365753e-02,5.584271252155303955e-02,3.487560898065567017e-02,-3.423913568258285522e-02,-8.075731992721557617e-02,2.394728735089302063e-02,5.935250967741012573e-02,-2.422506362199783325e-02,7.832910865545272827e-02,-2.137975022196769714e-02,-7.378654181957244873e-02,9.297752380371093750e-02,8.016829192638397217e-02,-9.556462615728378296e-02,-2.628679014742374420e-02,-9.488840401172637939e-02,1.058863699436187744e-01,3.807002305984497070e-02,-4.811152815818786621e-02,-8.926868438720703125e-02,-7.146048545837402344e-02,-3.245957568287849426e-02,4.754978790879249573e-02,3.193035721778869629e-02,-8.972796052694320679e-02,1.223719865083694458e-01,-2.557382918894290924e-02,-1.485096104443073273e-02,-8.972979336977005005e-02,-9.710583835840225220e-02,-7.621151208877563477e-02,-3.352490952238440514e-03,1.271452456712722778e-01,7.138136029243469238e-02,2.639006264507770538e-02,-5.883379653096199036e-02,-6.534615904092788696e-02,3.606303781270980835e-02,1.064144968986511230e-01,2.787388302385807037e-02,2.638247795403003693e-02,1.029231995344161987e-01,-2.659681253135204315e-02,-2.304029278457164764e-02,-2.546792291104793549e-02,1.654389430768787861e-03,-5.141922459006309509e-02,-6.137938797473907471e-02,2.616470307111740112e-02,1.099214050918817520e-02,8.818837255239486694e-02,-2.998807094991207123e-02,1.223419755697250366e-01,-8.963616937398910522e-02,9.148558229207992554e-02,-1.221755445003509521e-01,-1.047093123197555542e-01,4.377247393131256104e-02,8.390838652849197388e-02,1.304488331079483032e-01,-2.751373499631881714e-02,-1.137623861432075500e-01,-6.473716348409652710e-02,-6.542408466339111328e-02,-1.328105628490447998e-01,7.244461029767990112e-02,-1.002679988741874695e-01,3.046608902513980865e-02,-5.692010745406150818e-02,5.481624230742454529e-02,-3.176504746079444885e-03,-4.594567790627479553e-02,-4.057406634092330933e-02,4.742174595594406128e-02,2.228722348809242249e-02,2.752870135009288788e-02,3.933067899197340012e-03,4.727812856435775757e-02,2.398771047592163086e-02,-3.391738608479499817e-02,5.697266664355993271e-03,1.285764947533607483e-02,-2.307764813303947449e-02,3.436934202909469604e-02,-6.598405539989471436e-02,-2.662835828959941864e-02,1.566755399107933044e-02,2.050606533885002136e-02,7.546751294285058975e-03,-5.755282565951347351e-02,6.410028785467147827e-02,-3.686766698956489563e-02,-7.785314321517944336e-02,9.256566874682903290e-03,1.834530197083950043e-02,2.891955710947513580e-02,-4.824532568454742432e-02,-1.589330658316612244e-02,-5.746918544173240662e-02,-5.173629522323608398e-02,-9.321320056915283203e-02,-6.216406822204589844e-02,7.209712266921997070e-02,3.086733072996139526e-02,-5.376373603940010071e-02,3.030837886035442352e-02,2.989148907363414764e-02,-4.948375374078750610e-02,6.269394606351852417e-02,-6.723340135067701340e-03,-9.088212624192237854e-03,-2.028250368312001228e-03,-8.342874795198440552e-02,3.172230906784534454e-03,4.087854176759719849e-05,-5.560639128088951111e-02,-8.138732612133026123e-02,6.431294977664947510e-02,-9.940849244594573975e-02,1.389794982969760895e-02,2.784051187336444855e-02,-1.339932531118392944e-02,-3.162778541445732117e-02,-1.637443713843822479e-02,-7.966553419828414917e-02,3.326695039868354797e-02,7.732930034399032593e-02,2.518185041844844818e-02,4.432420432567596436e-02,6.616987287998199463e-02,-4.913840442895889282e-02,3.118222765624523163e-02,-4.206519201397895813e-02,-5.145077779889106750e-02,-1.173427421599626541e-02,-5.413057282567024231e-02,6.509059667587280273e-02,-8.711753785610198975e-02,4.604517668485641479e-02,4.502135887742042542e-02,3.583188634365797043e-03,3.121636062860488892e-02,-3.633902966976165771e-02,-6.997744739055633545e-02,8.186855912208557129e-02,6.404991447925567627e-02,9.049827605485916138e-02,1.692953868769109249e-03,2.832064963877201080e-02,5.549854133278131485e-03,1.659899950027465820e-02,1.790926419198513031e-02,-3.041320946067571640e-03,-4.303792119026184082e-02,-4.843369126319885254e-02,-3.727630153298377991e-02,1.740843616425991058e-02,3.779226541519165039e-02,8.050677180290222168e-02,6.565127521753311157e-02,1.929623819887638092e-02,4.856409970670938492e-03,-3.689071536064147949e-02,9.768954478204250336e-03,-3.459536284208297729e-02,-7.907990366220474243e-02,-8.705503307282924652e-03,-2.047466859221458435e-02,-3.587576374411582947e-02,-1.761391572654247284e-02,-3.695039451122283936e-02,-4.725245526060461998e-04,7.256445288658142090e-02,-3.790454473346471786e-03,-3.219195175915956497e-03,-7.889177650213241577e-02,-4.118882864713668823e-02,8.350653946399688721e-02,2.901594713330268860e-02,6.694473326206207275e-02,-4.846634343266487122e-02,-5.386071652173995972e-02,4.267477989196777344e-02,-1.208774000406265259e-02,-6.507130712270736694e-02,6.632740795612335205e-02,1.230515073984861374e-02,3.459382429718971252e-02,8.182329684495925903e-02,-4.280446562916040421e-03,1.447479799389839172e-02,-3.061665967106819153e-02,-1.054755505174398422e-02,-4.195320606231689453e-02,6.227588653564453125e-02,-7.077636569738388062e-02,-2.005569450557231903e-02,3.482643887400627136e-02,-3.728933632373809814e-02,5.590527132153511047e-02,-3.980865702033042908e-02,-3.042327426373958588e-02
-5.737273395061492920e-02,-1.281780190765857697e-03,-5.051533225923776627e-03,-1.894208020530641079e-03,1.715894613880664110e-04,-2.232516184449195862e-02,4.942120239138603210e-02,5.055906996130943298e-02,-3.339356556534767151e-02,-2.370854653418064117e-02,1.078154891729354858e-03,-2.337293140590190887e-02,2.798453206196427345e-03,-1.697070663794875145e-03,-5.390061531215906143e-03,-4.028330370783805847e-02,-5.196429789066314697e-03,1.032919529825448990e-02,5.681943520903587341e-02,-9.016475640237331390e-03,-1.567283086478710175e-02,7.883860729634761810e-03,3.218883066438138485e-04,-1.263839891180396080e-03,9.469821117818355560e-03,8.050416596233844757e-03,-7.676754612475633621e-03,-3.839643299579620361e-02,2.473988104611635208e-03,3.709837794303894043e-03,2.883652970194816589e-02,-1.078947214409708977e-03,-6.438142061233520508e-02,-3.782052779570221901e-03,4.038364067673683167e-02,-6.582214497029781342e-03,-9.637179027777165174e-05,9.632738679647445679e-02,-1.219438575208187103e-02,2.376412414014339447e-02,3.729450749233365059e-03,-1.112664211541414261e-02,-7.777575403451919556e-02,6.179233547300100327e-03,7.486205082386732101e-03,2.226215414702892303e-02,-1.931537874042987823e-02,1.394063793122768402e-02,4.748578066937625408e-04,1.267591491341590881e-03,5.173183046281337738e-03,1.719445805065333843e-03,8.117616176605224609e-03,8.552526123821735382e-03,1.332859741523861885e-03,1.016810536384582520e-02,1.226294692605733871e-02,1.964003778994083405e-02,-9.219132363796234131e-03,1.210225373506546021e-02,4.183854442089796066e-03,9.023488499224185944e-03,-1.243369095027446747e-02,3.866124525666236877e-02,-5.381457507610321045e-02,1.875320449471473694e-02,-3.331039473414421082e-02,-3.786471672356128693e-03,3.270106762647628784e-02,-1.710721175186336040e-03,-5.175484716892242432e-02,8.958276361227035522e-02,1.685017254203557968e-03,1.025351807475090027e-01,9.394937008619308472e-02,3.997141122817993164e-02,7.833050191402435303e-02,-5.632503330707550049e-02,-8.792514353990554810e-02,-8.532370626926422119e-02,3.645770624279975891e-02,-3.540198504924774170e-02,9.421673417091369629e-02,5.873530730605125427e-02,-3.418919630348682404e-03,-2.872199937701225281e-02,-9.506422281265258789e-02,-1.792629482224583626e-03,-4.916184395551681519e-02,2.587892301380634308e-02,-6.533523648977279663e-02,-5.510589852929115295e-02,-2.313534915447235107e-02,6.967119872570037842e-02,-3.057345934212207794e-02,1.037690043449401855e-01,-8.858256042003631592e-02,-5.653254315257072449e-02,6.664701551198959351e-02,3.938975557684898376e-02,3.553907945752143860e-02,8.439341187477111816e-02,-5.725819617509841919e-02,-4.981108754873275757e-02,-1.165693104267120361e-01,5.405818298459053040e-02,9.760238975286483765e-02,4.460657015442848206e-02,-8.956058323383331299e-02,7.034123688936233521e-02,-8.553750067949295044e-02,-5.831581074744462967e-03,-5.871034786105155945e-02,5.458410084247589111e-02,-4.087411239743232727e-02,-4.519916698336601257e-02,3.905053809285163879e-02,1.518096774816513062e-03,-4.528558626770973206e-02,4.050278663635253906e-02,-9.865821897983551025e-02,4.683743789792060852e-02,-1.146287694573402405e-01,-6.923494860529899597e-03,7.024007290601730347e-02,3.534588217735290527e-02,-5.068112909793853760e-02,5.899468436837196350e-02,-5.550331249833106995e-02,-3.530826419591903687e-02,-2.623650943860411644e-03,-4.552455502562224865e-04,-8.196851238608360291e-03,-2.666716650128364563e-02,4.816071689128875732e-02,1.376692438498139381e-03,-1.981865800917148590e-02,2.908118302002549171e-03,-3.603989630937576294e-02,-4.259062930941581726e-02,6.325405091047286987e-03,-2.939664758741855621e-03,2.265596576035022736e-02,-5.467755720019340515e-02,-3.391710296273231506e-02,-3.241990134119987488e-02,-2.309973537921905518e-02,-3.078860975801944733e-02,-5.182262393645942211e-04,-2.598216012120246887e-02,3.618061600718647242e-04,-4.046589136123657227e-03,-3.307326138019561768e-02,-2.041301876306533813e-02,-1.825607568025588989e-02,5.321315675973892212e-02,1.109152752906084061e-02,2.522457158192992210e-03,-7.791441399604082108e-03,5.278983619064092636e-03,-2.249508351087570190e-02,1.860541175119578838e-03,6.326553970575332642e-02,-3.052593767642974854e-02,2.796380547806620598e-03,8.334601670503616333e-02,2.672712318599224091e-02,-2.310918644070625305e-04,4.189691506326198578e-03,8.136777579784393311e-02,2.988249622285366058e-02,9.233234450221061707e-03,4.900002107024192810e-02,3.788380324840545654e-02,3.809443488717079163e-02,7.049048691987991333e-02,5.650111008435487747e-03,1.808931468985974789e-03,3.560794144868850708e-02,3.012860892340540886e-03,1.661725691519677639e-03,1.517041400074958801e-02,4.958104807883501053e-03,1.781743392348289490e-02,4.098964110016822815e-02,2.493507601320743561e-02,-1.331373676657676697e-02,-9.250824805349111557e-04,-8.026203431654721498e-05,3.103922121226787567e-02,4.288001731038093567e-02,-6.748820841312408447e-02,4.700153600424528122e-03,3.053685650229454041e-03,3.134715661872178316e-04,-1.503696897998452187e-03,-1.125772111117839813e-02,4.612549021840095520e-02,-1.505996100604534149e-03,-1.297351345419883728e-02,2.679414488375186920e-02,3.776388242840766907e-02,4.849000368267297745e-03,-7.979969377629458904e-04,-1.744849607348442078e-02,-2.745572244748473167e-03,4.330938309431076050e-02,-8.805963210761547089e-03,-3.316687420010566711e-02,-1.583756878972053528e-02,3.249586001038551331e-02,-1.787494495511054993e-02,1.736572128720581532e-03,7.915466092526912689e-03,3.909074584953486919e-04,-1.209910959005355835e-03,-1.480435766279697418e-02,-5.968254990875720978e-04,2.466931240633130074e-03,-4.984629340469837189e-03,-1.815671799704432487e-03,2.498707617633044720e-04,-4.531812295317649841e-02,3.084721229970455170e-02,5.909473448991775513e-02,8.147654123604297638e-03,1.039185561239719391e-02,-1.735106483101844788e-02,2.362632425501942635e-03,-2.539720200002193451e-02,-1.415081880986690521e-02,2.332422882318496704e-02,3.733216552063822746e-03,8.653226308524608612e-03,7.522913068532943726e-02,-4.637035541236400604e-03,1.093261037021875381e-02,-1.721228659152984619e-02,1.789481937885284424e-02,-1.608396880328655243e-02,1.485345186665654182e-03,-1.001831237226724625e-02,-1.805335865356028080e-03,2.471706829965114594e-03,7.933771237730979919e-03,-3.590680425986647606e-03,1.296411035582423210e-03,4.489345010370016098e-03,-2.552587166428565979e-02,4.121155291795730591e-02,5.102286487817764282e-02,1.019188389182090759e-02,2.070789970457553864e-02,1.148083154112100601e-02,-1.854345016181468964e-02,6.146145518869161606e-03
