1.467422489076852798e-02
-8.755694143474102020e-03
5.904436111450195312e-03
4.420438199304044247e-04
2.789707155898213387e-03
1.262337435036897659e-03
-2.196041680872440338e-02
-7.019711192697286606e-04
-1.182181574404239655e-02
-2.853585407137870789e-03
-1.050793007016181946e-02
-2.689875662326812744e-02
-2.888214774429798126e-03
-5.131200887262821198e-03
-7.802730891853570938e-03
2.498435322195291519e-03
-3.772313147783279419e-02
-8.780290372669696808e-03
-1.529210433363914490e-02
-1.328432001173496246e-02
5.601141019724309444e-04
-1.448111608624458313e-02
4.085064399987459183e-03
2.253476763144135475e-03
-7.255189702846109867e-04
8.633133838884532452e-04
-1.211073994636535645e-02
-1.909320801496505737e-02
-1.021196506917476654e-02
-1.569810882210731506e-02
1.974791847169399261e-02
-8.418085984885692596e-03
-1.825966686010360718e-02
-7.488364819437265396e-03
6.276900414377450943e-03
-1.424689125269651413e-02
-8.791495114564895630e-03
3.157886909320950508e-03
-9.000700898468494415e-03
-7.666395977139472961e-03
-1.448582857847213745e-02
7.952457293868064880e-03
-1.114350836724042892e-02
-6.311207835096865892e-05
-3.977033775299787521e-03
-7.111652288585901260e-03
1.627287128940224648e-03
1.369477063417434692e-02
-6.476928014308214188e-03
-2.110290713608264923e-02
4.427856183610856533e-04
-3.471452742815017700e-02
-1.138866692781448364e-02
-3.535287827253341675e-02
-9.658501483500003815e-03
-1.158777251839637756e-02
-2.134401293005794287e-04
1.551834680140018463e-02
-2.116856537759304047e-02
6.585103692486882210e-04
-5.220928415656089783e-02
1.479371683672070503e-03
3.441740293055772781e-03
-3.750951960682868958e-02
-8.861625683493912220e-04
1.515984907746315002e-02
-8.337507955729961395e-03
2.128429943695664406e-03
4.314519464969635010e-03
-5.982343573123216629e-03
-5.968669895082712173e-03
5.290947854518890381e-03
-5.589337553828954697e-03
3.974563733208924532e-04
6.983711384236812592e-03
1.727351360023021698e-02
-1.016154978424310684e-02
-5.279085016809403896e-04
-4.085969645529985428e-03
3.092858241870999336e-03
-8.297557942569255829e-03
2.781609771773219109e-03
-1.174204424023628235e-02
1.109747216105461121e-02
-1.292278873734176159e-03
1.514736283570528030e-02
7.423193892464041710e-04
-7.399654015898704529e-03
1.926546334289014339e-03
9.007014334201812744e-03
-4.136510193347930908e-03
9.351927787065505981e-03
-2.807028125971555710e-03
-9.163097478449344635e-03
4.248667042702436447e-03
-1.614650129340589046e-03
1.526511088013648987e-02
-6.608545780181884766e-03
6.963783875107765198e-03
8.084815344773232937e-04
-2.131057437509298325e-03
-1.371081173419952393e-02
-2.163837430998682976e-03
3.948961850255727768e-03
-8.118252269923686981e-03
7.233159150928258896e-03
3.562553785741329193e-03
-1.213486888445913792e-03
-7.987468503415584564e-03
4.098223987966775894e-03
2.783695422112941742e-02
-1.569594169268384576e-04
-2.038157545030117035e-03
-2.218468673527240753e-02
9.961927309632301331e-03
-4.863205831497907639e-03
-4.453272558748722076e-03
2.313631353899836540e-03
-2.335569076240062714e-02
-2.700001001358032227e-03
-3.445151029154658318e-03
4.335736855864524841e-03
7.599676027894020081e-03
-9.945183992385864258e-03
5.031356588006019592e-03
-3.481511725112795830e-03
-8.762300945818424225e-03
5.930776707828044891e-03
6.055201962590217590e-02
-1.032393425703048706e-02
2.915693074464797974e-02
1.275591086596250534e-03
4.254532512277364731e-03
-6.860294844955205917e-03
3.609769046306610107e-02
-1.717797829769551754e-03
-1.807810738682746887e-02
2.249184995889663696e-03
-5.564097664318978786e-04
-2.477640099823474884e-02
7.553359493613243103e-03
-8.327757008373737335e-03
-8.610051125288009644e-03
2.192489802837371826e-03
-2.289476804435253143e-02
-6.005398463457822800e-03
-1.428897958248853683e-02
-1.699008233845233917e-02
1.002895180135965347e-03
-2.032179944217205048e-02
-1.053226646035909653e-02
1.917817513458430767e-03
-9.725545533001422882e-03
5.805207416415214539e-03
-6.427802611142396927e-03
9.346792474389076233e-03
-1.027282699942588806e-02
-2.087685279548168182e-02
5.067829973995685577e-03
-7.744800765067338943e-03
1.324684545397758484e-02
-5.694305524230003357e-03
8.287642151117324829e-03
-7.023753132671117783e-03
1.453778240829706192e-02
3.429660573601722717e-03
-8.308649063110351562e-03
-2.743580611422657967e-03
1.463276427239179611e-02
6.510155275464057922e-03
-1.165508385747671127e-02
-2.254092833027243614e-03
-1.344681810587644577e-02
-5.218529608100652695e-03
4.766768775880336761e-03
3.985316958278417587e-03
-5.656510125845670700e-03
-1.510374527424573898e-02
-2.796247135847806931e-03
1.327682845294475555e-02
-9.706330485641956329e-03
-8.095610886812210083e-03
-1.170815899968147278e-02
-1.174121443182229996e-02
1.954182423651218414e-02
9.417811408638954163e-03
-1.616151258349418640e-02
3.460102016106247902e-03
-1.315861754119396210e-02
2.909335540607571602e-03
3.363945288583636284e-03
-1.188103482127189636e-02
3.812471777200698853e-02
-1.625508815050125122e-02
3.396736830472946167e-02
-7.461181376129388809e-03
1.047372235916554928e-03
-9.662810713052749634e-03
4.265372082591056824e-02
-9.984312579035758972e-03
-1.876220479607582092e-02
7.420466747134923935e-03
2.098987810313701630e-03
-1.169408112764358521e-02
5.807008594274520874e-03
-7.911478169262409210e-03
-2.371282130479812622e-02
-1.449473761022090912e-02
-8.257169276475906372e-03
-6.362832617014646530e-03
-6.612911820411682129e-03
-8.893645368516445160e-03
-1.500654593110084534e-02
-2.177150361239910126e-02
4.912463948130607605e-03
-1.716064987704157829e-03
-1.342363655567169189e-02
-7.897355593740940094e-03
-1.150638237595558167e-02
7.671142928302288055e-03
-1.205918937921524048e-02
-2.553769387304782867e-02
1.675767265260219574e-02
-9.692108258605003357e-03
4.219725355505943298e-02
-6.481620017439126968e-03
-3.564057406038045883e-03
-1.338534895330667496e-02
5.226684734225273132e-03
-1.018258091062307358e-02
-1.501870062202215195e-02
-4.376715514808893204e-03
1.275724824517965317e-02
8.783430792391300201e-03
-1.098806504160165787e-02
-7.874917238950729370e-03
-1.837671548128128052e-02
-1.151232980191707611e-02
-1.306081283837556839e-02
9.247228503227233887e-03
-7.909011095762252808e-03
-7.142975926399230957e-03
-1.409505866467952728e-02
2.243482321500778198e-02
-2.598887949716299772e-04
6.529927253723144531e-03
-2.826767042279243469e-03
-1.565557532012462616e-02
3.174206241965293884e-02
5.481338500976562500e-02
-8.170290850102901459e-03
-7.014329079538583755e-03
2.466860972344875336e-02
-1.039461977779865265e-02
-1.615706272423267365e-02
1.210271031595766544e-03
