-1.688997447490692139e-02, -9.745341725647449493e-03, -1.101935654878616333e-02, -2.254661545157432556e-02, -1.262307818979024887e-02, -1.332740951329469681e-02, -1.145042665302753448e-02, -1.142246834933757782e-02, -1.736454665660858154e-02, -2.443756908178329468e-02, -2.829291298985481262e-02, -1.887068711221218109e-02, -1.968651823699474335e-02, -3.121334686875343323e-02, -2.005770988762378693e-02, -1.574910245835781097e-02, 3.026079852133989334e-03, -8.137665688991546631e-03, -2.330558747053146362e-02, -1.877109706401824951e-02, -1.460932288318872452e-02, 4.952494800090789795e-02, -1.582023687660694122e-02, -1.278477907180786133e-02, -1.101094204932451248e-02, -3.106726519763469696e-02, -3.959478810429573059e-02, -7.220573723316192627e-03, -3.310062224045395851e-03, -1.161505561321973801e-02, -1.220468617975711823e-02, -8.614933490753173828e-02, -2.001524530351161957e-02, -1.004329510033130646e-02, -6.305221933871507645e-03, -2.328359521925449371e-02, -4.297461360692977905e-02, -1.793114840984344482e-02, 4.649976268410682678e-03, 6.605870276689529419e-02, 4.534558579325675964e-02, 7.277602795511484146e-03, 7.259782403707504272e-02, 4.085287451744079590e-02, -1.558852642774581909e-01, 2.866352163255214691e-02, 5.567639321088790894e-02, -7.167237997055053711e-02, 1.961362315341830254e-03, -2.964019961655139923e-02, 3.680937364697456360e-02, -3.158403560519218445e-02, -2.035652846097946167e-02, -3.421657532453536987e-02, -2.282476052641868591e-02, 9.128361009061336517e-03, -1.914239861071109772e-02, -3.188789589330554008e-03, -2.231758087873458862e-02, -3.397597745060920715e-02, -4.354213923215866089e-02, -3.311038762331008911e-02, -9.257557243108749390e-02, -1.356479972600936890e-01, -4.464537836611270905e-03, -8.922513807192444801e-04, -2.004717011004686356e-03, -8.537611924111843109e-03, -9.299458935856819153e-03, -1.556274946779012680e-02, 2.790382876992225647e-02, -4.902304336428642273e-02, -5.833654198795557022e-03, 9.990923106670379639e-03, -2.408259361982345581e-02, 2.223885850980877876e-03, 1.540094730444252491e-03, 1.750952750444412231e-02, -3.587959334254264832e-03, -2.831985056400299072e-02, 9.439679235219955444e-02, 4.740526899695396423e-03, -3.613548586145043373e-03, 8.845549309626221657e-04, 2.750765345990657806e-02, -5.359594896435737610e-02, -4.155630245804786682e-03, -1.815110328607261181e-03, 9.148809313774108887e-02, 2.406038343906402588e-03, -1.937087066471576691e-02, 1.471497118473052979e-02, 2.113749459385871887e-02, -7.521147839725017548e-03, -3.468174836598336697e-04, 9.142057597637176514e-02, -1.941179390996694565e-03, 4.628198221325874329e-02, -3.329477086663246155e-02, 2.429398708045482635e-03, -9.035298973321914673e-02, 2.416299656033515930e-03, 4.085500165820121765e-02, -1.410892698913812637e-03, 2.679129317402839661e-02, -5.181915685534477234e-02, -8.925165981054306030e-02, -8.300007134675979614e-02, 1.671372167766094208e-02, 4.803433641791343689e-02, 1.076336875557899475e-01, 2.785350382328033447e-02, 7.249461021274328232e-03, -1.008459459990262985e-02, -7.230169326066970825e-02, -1.644370891153812408e-02, -2.263625618070363998e-03, 5.364912562072277069e-03, 2.131080254912376404e-03, -2.168386802077293396e-02, -4.791499581187963486e-03, 1.197069585323333740e-01, -4.671575967222452164e-03, 4.393095895648002625e-02, -1.059958245605230331e-02, 1.678130961954593658e-02, -1.238522231578826904e-01, -1.351443529129028320e-01, -1.390654686838388443e-02, -1.125416066497564316e-02, -9.223865345120429993e-03, -1.733131892979145050e-02, -6.761942524462938309e-03, -2.047765254974365234e-02, -1.247164979577064514e-02, -4.499915614724159241e-02, -1.446015760302543640e-02, -1.926792599260807037e-02, -2.570207044482231140e-02, -1.400631945580244064e-02, -1.532773301005363464e-02, -2.367907203733921051e-02, -1.647830009460449219e-02, -1.172785554081201553e-02, 1.661278889514505863e-03, -1.080161985009908676e-02, -1.481439638882875443e-02, -1.402010861784219742e-02, -1.388819795101881027e-02, -2.778855897486209869e-02, -1.482024602591991425e-02, -1.335125882178544998e-02, -1.434633694589138031e-02, -1.302958838641643524e-02, -3.174195066094398499e-02, -8.346430025994777679e-03, 1.100626494735479355e-02, -9.774563834071159363e-03, -1.457619946449995041e-02, 8.111054450273513794e-02, -1.395340077579021454e-02, 5.698476452380418777e-03, -1.211141794919967651e-02, -2.257873862981796265e-02, 1.306829005479812622e-01, -1.310268230736255646e-02, 4.062534775584936142e-03, 3.410005476325750351e-03, -2.165007404983043671e-02, -2.684454247355461121e-02, 1.667738333344459534e-02, 1.122451573610305786e-01, 4.080120474100112915e-02, -1.800815202295780182e-02, 4.686777479946613312e-03, -3.166862204670906067e-02, -5.442916974425315857e-02, -2.219583094120025635e-02, 4.537623748183250427e-02, -2.414189092814922333e-02, -1.074907276779413223e-02, -1.639354042708873749e-02, -1.486779842525720596e-02, 1.474442239850759506e-02, -1.276612840592861176e-02, 7.308799773454666138e-02, -1.980894245207309723e-02, -2.020178735256195068e-02, 4.419646225869655609e-03, -2.795108407735824585e-02, 2.262062020599842072e-02, -1.412463560700416565e-02, 2.389657078310847282e-03, -6.518922746181488037e-02, -3.298456594347953796e-02, -2.325559221208095551e-02, -9.691696614027023315e-02, -3.194132447242736816e-02, -1.137051265686750412e-02, -2.792710438370704651e-02, -1.880488730967044830e-02, -2.753883413970470428e-02, -2.556790970265865326e-02, -2.374899387359619141e-02, -2.275202423334121704e-02, -3.206704184412956238e-02, -2.308979630470275879e-02, -1.626010611653327942e-02, -4.204151406884193420e-02, -1.410158351063728333e-02, -2.625254355370998383e-02, -1.960942707955837250e-02, -1.515901274979114532e-02, 7.880507409572601318e-02, -2.263036370277404785e-02, -2.059872634708881378e-02, -1.191280502825975418e-02, -8.619609288871288300e-03, -4.445255920290946960e-02, -5.023561790585517883e-02, 4.943715408444404602e-02, -1.227630581706762314e-02, -2.835664525628089905e-02, 7.969715446233749390e-02, -2.055755816400051117e-02, -1.877788081765174866e-02, -5.222991481423377991e-02, -1.358269248157739639e-02, 8.812384307384490967e-02, -1.895011216402053833e-02, -6.610585004091262817e-02, 8.489439636468887329e-02, 4.979040846228599548e-02, 2.174537861719727516e-03, 7.251628488302230835e-02, 9.967296570539474487e-02, 7.759366184473037720e-02, 5.913801956921815872e-03, 5.648108571767807007e-02, 3.330716118216514587e-02, 5.487592518329620361e-02, -3.289851546287536621e-02, 7.249631732702255249e-02, -3.130218759179115295e-02, -2.055254019796848297e-02, -1.600194536149501801e-02, -1.578125171363353729e-02, -4.040504246950149536e-02, -3.060508146882057190e-02, 1.971858181059360504e-02, -1.899029128253459930e-02, -4.079336673021316528e-02, -1.777229644358158112e-02, -3.747337684035301208e-02, 3.544592484831809998e-02, 4.985267296433448792e-02
1.969532235079896054e-07, 3.161237600579624996e-06, 2.660192421899409965e-07, 3.193496240783133544e-07, 2.757758750249195145e-07, -4.794422920895158313e-07, 1.502882923887227662e-06, -2.383336504863109440e-05, 5.408841730059066322e-07, -2.241357321963732829e-07, 6.412777224795718212e-07, -2.564003054317254282e-08, 7.396368459922086913e-07, -1.191225237562321126e-06, -2.430007270959322341e-07, 3.767614202843105886e-07, 4.329543571657268330e-06, -7.573578386654844508e-07, -1.125451717598480172e-06, 3.422156282795185689e-07, 3.733178743914322695e-07, -2.967250338770099916e-06, -7.331823894674016628e-07, -2.073778659905656241e-08, 3.753876853807014413e-07, -1.192870939803469810e-07, 5.559068085858598351e-06, 1.431998157386260573e-06, 1.041615450958488509e-05, 1.418543291720197885e-07, 2.191567887166456785e-07, -1.444404828362166882e-03, -3.112976116881327471e-07, 7.956091394589748234e-07, 6.627941502301837318e-07, 6.833564384578494355e-06, 3.333558197482489049e-05, -1.480509013163100462e-07, -2.228160155937075615e-06, -3.448357347224373370e-06, -8.047992992032959592e-07, 5.308966592565411702e-06, 1.259610485249140766e-06, -5.356913898140192032e-04, -1.422012224793434143e-03, -9.275121328755631112e-07, 4.881769655185053125e-06, -9.285920532420277596e-05, -4.900255589745938778e-04, 7.818923108970921021e-07, 2.566946022852789611e-06, 1.010222376862657256e-06, 1.007340415526414290e-07, -9.531071896162757184e-07, 3.787971536439727060e-07, 1.422915829607518390e-06, -5.668239850820100401e-07, 9.537797304801642895e-04, 1.383765152240812313e-06, 1.132617398980073631e-06, -5.892876231428090250e-08, -3.458030505498754792e-06, -4.414680370246060193e-05, 3.045269288122653961e-03, -8.451157555100508034e-06, -1.965198862308170646e-06, 7.211002071016991977e-07, -2.621065959829138592e-06, -4.371307149995118380e-04, 1.055500324582681060e-04, 2.617735881358385086e-04, 7.764327892800793052e-05, 4.093023562745656818e-06, 1.501063816249370575e-04, 8.894723890762179508e-08, 5.451922334032133222e-06, -4.980591620551422238e-05, 1.922744559124112129e-06, 2.442542063363362104e-05, 4.551493930193828419e-06, 4.300711225369013846e-05, 8.878797234501689672e-05, -4.488442755246069282e-06, 6.498530638054944575e-07, 2.798448122121044435e-06, 1.890961197204887867e-03, -1.269225231226300821e-05, -3.564768485375680029e-05, 3.198012564098462462e-05, 4.029828062357410090e-07, 6.296378160186577588e-06, 7.798284968885127455e-06, 5.452701589092612267e-04, 1.900461938930675387e-06, 3.251316229579970241e-06, -1.813382655382156372e-02, 2.773033202174701728e-06, 4.488713329919846728e-06, -3.175752226525219157e-06, 2.074539224850013852e-06, -3.539648023433983326e-04, 2.480364855728112161e-06, 5.792747106170281768e-05, 2.171967353206127882e-04, 7.898294134065508842e-04, 1.075037289410829544e-03, -2.082477323710918427e-03, 4.259780514985322952e-03, 9.653006680309772491e-03, 7.747353265585843474e-06, 6.535475258715450764e-04, 3.804567313636653125e-05, 5.159773398190736771e-03, -3.457422963037970476e-06, 1.711677577986847609e-05, -1.225307914864970371e-05, 6.102309725974919274e-06, -3.107377096966956742e-06, -2.260292603750713170e-06, -2.637339775901637040e-06, 3.989921424363274127e-07, -6.040810141712427139e-03, 3.856781040667556226e-05, -6.228027399629354477e-03, -3.293355257483199239e-05, 1.202334078698186204e-05, -7.931824256957042962e-06, 9.032711386680603027e-03, 6.139162564977596048e-07, -1.659295776335056871e-06, -9.566623759837966645e-08, 2.669809759936470073e-07, 1.261327270185574889e-06, 2.073803443636279553e-06, -3.743934655631164787e-07, -5.397228051151614636e-06, 3.503798495785304112e-07, -1.427876838988595409e-07, 4.419023014179401798e-07, 1.383804573151792283e-07, -7.225251010822830722e-07, 1.435598164789553266e-07, -5.244694420980522409e-07, 4.074968842360249255e-07, 4.049826657137600705e-06, 2.981938962420827011e-07, 2.540039929499471327e-07, 2.940834349374199519e-07, 4.851273729400418233e-07, 3.951227427023695782e-06, -7.316510846067103557e-07, 1.406605232290303320e-08, 4.570776184209535131e-07, -3.867300790716399206e-07, 4.816979981114855036e-06, 1.009632910609070677e-06, 8.564550626033451408e-06, 1.611020650216232752e-07, 3.536517283464490902e-07, -1.087809432647190988e-04, -1.887842842052123160e-07, 1.126386337091389578e-06, 4.067918553118943237e-07, 5.040062660555122420e-06, -2.113553364324616268e-06, -3.704283457750534581e-08, 4.325829650042578578e-06, 7.359805749729275703e-06, -2.218526606156956404e-05, -8.238722330133896321e-06, -8.426796412095427513e-04, 7.253499916259897873e-06, -9.428241755813360214e-04, -1.802252313609642442e-06, -2.435702481307089329e-05, -1.164275818155147135e-04, 1.175559591501951218e-04, 8.827388455756590702e-07, 4.250553683959878981e-05, 8.498884085383906495e-07, 2.993862153743975796e-07, -1.581133233230502810e-07, 3.095090335136774229e-07, 1.215511019836412743e-06, -1.599632923898752779e-07, 2.123293234035372734e-05, 1.408153934789879713e-06, 2.166545755244442262e-06, 8.579302175348857418e-07, 4.494078439165605232e-06, -5.307576066115871072e-05, 1.735085737891495228e-03, 4.946297167407465167e-07, -1.245951716555282474e-05, -1.147016703839653928e-07, 2.059427117728773737e-07, 1.285325765820743982e-06, 2.544958761063753627e-06, -1.987427140193176456e-06, 1.948965518749901094e-06, 7.611990326950035524e-07, 4.391917798329814104e-07, 4.163073299423558637e-07, 5.029249336985230912e-07, -4.704072125605307519e-06, -5.047465947427554056e-06, -1.530749045741686132e-06, 2.683080992937902920e-07, 9.643229532230179757e-06, -3.308997520434786566e-07, 5.675416758776918869e-08, 4.329290845817013178e-07, 4.367392421045224182e-07, 5.838688139192527160e-06, -1.420054672962578479e-06, -2.614543461731955176e-07, -3.075744530178781133e-07, 3.551123199940775521e-07, 8.285920785056077875e-07, 1.467909669372602366e-06, 2.679641397662635427e-07, 1.325995953038727748e-07, 4.848058665629650932e-07, -1.543063262943178415e-06, 3.031479423043492716e-07, -7.914066372904926538e-06, 1.372610086036729626e-06, 3.852878762700129300e-06, 3.479563929431606084e-06, -8.899029779740885715e-08, 3.115223444183357060e-05, -1.513805818831315264e-05, -1.975965460587758571e-06, 1.759371457410452422e-06, 5.094108018965926021e-06, 2.411030948223924497e-07, -6.957600271562114358e-05, 2.010949356190394610e-05, 7.635798101546242833e-05, -1.263432022824417800e-05, -1.499440998031786876e-07, 1.147367356679751538e-06, 4.974100647814339027e-06, 1.471889959248073865e-06, -1.774287916589400993e-08, -2.691016334210871719e-06, -1.294243588745302986e-06, -9.568838868290185928e-05, -4.318099513511697296e-07, 3.668458703032229096e-06, 1.079130015568807721e-06, 9.333737580163870007e-06, 4.115057095077645499e-07, -2.873582616302883253e-06, -7.190160886239027604e-06, -1.066648837877437472e-05
-1.195637974888086319e-03, -7.436937885358929634e-04, -3.115592407993972301e-04, -9.893749374896287918e-04, -2.400888595730066299e-03, -3.912655636668205261e-03, -1.292203320190310478e-03, -3.113774582743644714e-03, -1.608504680916666985e-03, -2.036823425441980362e-03, -3.853967180475592613e-03, -4.879413754679262638e-04, -6.276164785958826542e-04, -3.316877409815788269e-03, -3.998733009211719036e-04, -9.845405584201216698e-04, -7.453145808540284634e-04, -1.329931197687983513e-03, -2.187575300922617316e-04, -3.806546796113252640e-03, -1.056564273312687874e-03, 5.803937092423439026e-03, -3.310037136543542147e-04, -1.689918688498437405e-03, -1.693751662969589233e-03, -2.705172169953584671e-03, -1.331044943071901798e-03, -1.567238941788673401e-03, 2.468657307326793671e-02, -7.789685041643679142e-04, -2.680979669094085693e-03, 4.406894743442535400e-02, -1.227734901476651430e-04, -2.933536656200885773e-03, -1.911992556415498257e-03, -2.091730013489723206e-03, 9.322331286966800690e-03, -5.241773324087262154e-04, -3.349190810695290565e-04, 1.079966314136981964e-02, 9.338892064988613129e-03, 4.776213318109512329e-04, 8.005273528397083282e-03, 5.584552884101867676e-02, -1.579293459653854370e-01, -9.579025208950042725e-03, 1.436738669872283936e-02, -4.598665516823530197e-03, 6.106352806091308594e-02, -3.539508907124400139e-03, -6.985549698583781719e-04, -5.573716945946216583e-03, -8.473298512399196625e-04, -2.690199064090847969e-03, -1.716424128971993923e-03, 1.453615492209792137e-03, 3.177544567734003067e-05, -6.784869730472564697e-02, -2.351087518036365509e-03, -2.891190815716981888e-03, -2.754061482846736908e-03, -3.796373493969440460e-03, 4.900689702481031418e-03, -3.539076773449778557e-03, -1.477728248573839664e-03, 2.204803051427006721e-03, -1.160842250101268291e-03, 9.298534132540225983e-04, 3.107353579252958298e-03, -2.156198024749755859e-02, -1.946764416061341763e-03, 2.061129780486226082e-03, 1.852660439908504486e-03, 2.399520599283277988e-05, -3.388998098671436310e-03, 9.352508932352066040e-04, -4.499630536884069443e-03, -2.627305919304490089e-03, 8.832444436848163605e-04, -3.653214313089847565e-03, 8.668764494359493256e-03, 1.756895449943840504e-03, -2.830914454534649849e-03, 3.891506057698279619e-04, -1.224821666255593300e-03, 2.523232251405715942e-02, -1.145068090409040451e-03, -5.745388916693627834e-04, 5.263749044388532639e-03, 9.416988177690654993e-06, -1.334027270786464214e-03, -9.445580071769654751e-04, -2.553696930408477783e-02, -1.974818995222449303e-03, 5.053109489381313324e-04, -1.055372953414916992e-01, -1.372322672978043556e-03, -9.901804849505424500e-03, -2.245368959847837687e-04, -7.785685593262314796e-04, 9.328623116016387939e-02, -1.246042898856103420e-03, -7.279771380126476288e-04, -6.548903416842222214e-03, -1.310951542109251022e-02, -3.137949109077453613e-02, 1.468326002359390259e-01, 1.821419410407543182e-02, -2.331846505403518677e-01, -1.798793673515319824e-02, -1.325200498104095459e-01, 5.039637163281440735e-02, -9.508569724857807159e-03, 3.481352468952536583e-03, 1.193880452774465084e-03, 2.699984703212976456e-03, -1.542424084618687630e-03, 5.041001364588737488e-03, 3.001478035002946854e-03, -2.067073481157422066e-03, -5.469322204589843750e-04, 1.628224998712539673e-01, 1.884480123408138752e-03, 1.290584821254014969e-02, -1.115116290748119354e-03, 5.666497629135847092e-03, -4.563387855887413025e-02, -9.707464277744293213e-02, -1.402908703312277794e-03, -7.118054199963808060e-04, -3.135466540697962046e-04, -7.015373557806015015e-04, -3.680555615574121475e-03, -3.627429716289043427e-03, -8.630718220956623554e-04, 2.080694866890553385e-05, -1.201842562295496464e-03, -2.302479697391390800e-03, -2.241062233224511147e-03, -3.932836989406496286e-04, -5.265442305244505405e-04, -1.657269429415464401e-03, -3.258366195950657129e-04, -1.156613579951226711e-03, 6.460818694904446602e-04, -1.177687663584947586e-03, -1.299031137023121119e-04, -4.486229736357927322e-03, -1.092637539841234684e-03, 5.624101683497428894e-02, -4.648018511943519115e-04, -1.160231418907642365e-03, -1.539036864414811134e-03, -2.310168929398059845e-03, -1.401480403728783131e-04, -2.511732513085007668e-03, -8.191248052753508091e-04, -8.005197742022573948e-04, -2.696830546483397484e-03, 2.261437289416790009e-02, -4.411464396980591118e-05, -3.990912809967994690e-03, -8.906693547032773495e-04, -1.347448676824569702e-03, 1.004281546920537949e-02, -4.904560628347098827e-04, -6.543226772919297218e-04, 3.156583756208419800e-02, -5.698983091861009598e-03, -5.358275491744279861e-03, -8.871253579854965210e-03, 1.639455370604991913e-02, -2.272562589496374130e-03, 5.760679952800273895e-03, -7.459364365786314011e-03, -1.687113195657730103e-02, 2.230901271104812622e-02, -2.658530371263623238e-03, -9.114256128668785095e-03, -3.658997127786278725e-03, -5.352541920728981495e-04, -1.983430236577987671e-03, -1.175075885839760303e-03, 1.785442698746919632e-03, 1.416002342011779547e-04, -9.932537376880645752e-02, -1.357964240014553070e-03, -1.571891829371452332e-03, -2.046437701210379601e-03, -3.222032682970166206e-03, 3.759983810596168041e-04, 1.332249213010072708e-02, -2.521961228922009468e-03, -2.161086071282625198e-03, -2.144837984815239906e-03, -1.275150920264422894e-03, -8.720642887055873871e-03, -1.681952271610498428e-03, -7.817600271664559841e-04, -2.555253449827432632e-03, -1.510044559836387634e-03, -2.820236142724752426e-03, -3.276911564171314240e-03, -2.136328257620334625e-03, -6.545585347339510918e-04, -4.352223128080368042e-03, -4.521167429629713297e-04, -9.273656760342419147e-04, -1.358914421871304512e-03, -1.389174023643136024e-03, -3.609250125009566545e-04, -3.918213304132223129e-03, -1.184845692478120327e-03, 1.248165126889944077e-02, -2.220250433310866356e-03, -2.078912686556577682e-03, -1.390502206049859524e-03, -2.828538184985518456e-03, -1.358761102892458439e-03, -1.077385526150465012e-02, 1.109968591481447220e-02, -7.650610059499740601e-04, -7.055828347802162170e-03, 1.872456260025501251e-02, -1.191963092423975468e-04, -1.026515010744333267e-02, -6.736948154866695404e-03, -1.879033748991787434e-03, 7.990599609911441803e-03, -6.258129142224788666e-04, -1.848458684980869293e-02, 1.640142314136028290e-02, 7.548214867711067200e-03, -4.967598215444013476e-05, 1.493933238089084625e-02, 1.388052478432655334e-02, 2.857485599815845490e-02, 8.121332153677940369e-03, 1.179296802729368210e-02, -1.523353857919573784e-03, 1.757737249135971069e-02, -4.187768325209617615e-03, 6.691194139420986176e-03, -5.114184226840734482e-03, -6.265210686251521111e-04, -2.178036142140626907e-03, -2.020091516897082329e-03, -1.056188903748989105e-02, -1.414597849361598492e-03, 1.261019147932529449e-02, -2.490382641553878784e-03, -3.071869490668177605e-03, -2.548755146563053131e-03, -4.675850272178649902e-03, 4.437866155058145523e-04, -2.313670469447970390e-03
-3.863348858430981636e-03, -1.034930464811623096e-03, -1.149847521446645260e-03, -4.560936242341995239e-03, -6.553332321345806122e-03, -8.445055224001407623e-03, -2.812139689922332764e-03, -1.352575235068798065e-02, -4.365553613752126694e-03, -3.334853798151016235e-03, -9.616376832127571106e-03, -1.262876670807600021e-03, -3.464206121861934662e-03, -7.902531884610652924e-03, -3.812686074525117874e-03, -2.014966914430260658e-03, -1.299645169638097286e-03, -1.718424027785658836e-03, -1.807334949262440205e-03, -3.121851477771997452e-03, -2.365047577768564224e-03, 1.858017779886722565e-02, -3.247148357331752777e-03, -2.472721040248870850e-03, -4.185652825981378555e-03, -4.757712129503488541e-03, -4.164039157330989838e-03, -7.226649322547018528e-04, -9.631018037907779217e-04, -1.520768040791153908e-03, -3.799068741500377655e-03, 2.612083405256271362e-02, -1.768400776199996471e-03, -4.839462228119373322e-03, 1.375372812617570162e-04, -4.812462721019983292e-03, -1.125681865960359573e-02, -2.577678300440311432e-03, 1.893038512207567692e-03, 1.939675211906433105e-02, 1.109057292342185974e-02, 8.389177382923662663e-04, 1.803392171859741211e-02, -1.338447351008653641e-02, 1.247474774718284607e-01, -9.096976718865334988e-04, 1.168618630617856979e-02, 2.478710748255252838e-02, 1.753465738147497177e-03, -5.254567600786685944e-03, 2.055175974965095520e-02, -4.529744852334260941e-03, -2.077224664390087128e-03, -5.069517064839601517e-03, -3.252163063734769821e-03, 3.076700493693351746e-03, -2.158899325877428055e-03, 1.024719700217247009e-02, -6.370151415467262268e-03, -3.557094314601272345e-04, -4.194576293230056763e-03, -9.511263109743595123e-03, 7.370277307927608490e-03, -1.965192332863807678e-02, -4.456557333469390869e-03, 9.179458720609545708e-04, 5.856741918250918388e-04, -1.156431739218533039e-03, 2.240246720612049103e-02, 3.264891728758811951e-02, 2.662688866257667542e-02, 2.880832366645336151e-02, 2.338947495445609093e-03, 2.767045982182025909e-03, -4.285058006644248962e-03, 4.060196690261363983e-03, -1.520445803180336952e-03, 1.660177018493413925e-03, 4.792634397745132446e-03, 3.971588797867298126e-03, -1.502317097038030624e-02, 4.235611413605511189e-05, 1.765814726240932941e-03, 5.836199503391981125e-03, 5.830466281622648239e-03, -4.941232129931449890e-02, -1.391467754729092121e-03, 3.370264079421758652e-03, -1.416190341114997864e-02, 6.693861447274684906e-03, -8.384128101170063019e-03, 9.856336750090122223e-03, 5.187736824154853821e-02, 2.501397975720465183e-04, 4.260564688593149185e-03, 1.172504499554634094e-01, 2.855119295418262482e-03, 2.510402351617813110e-02, -1.298101386055350304e-03, 3.350597573444247246e-03, 2.842175960540771484e-02, -2.761759329587221146e-03, 6.995731033384799957e-03, 4.308979958295822144e-02, 5.877293273806571960e-02, 3.728860616683959961e-02, -4.806653037667274475e-02, 1.682183891534805298e-01, -2.808601222932338715e-02, 8.863370120525360107e-02, 4.554324224591255188e-02, 9.593977034091949463e-02, -5.152380093932151794e-02, -3.724280511960387230e-03, -1.305592358112335205e-01, -8.977726101875305176e-03, 6.152586545795202255e-03, -1.781903207302093506e-03, -1.005620695650577545e-03, -5.875275935977697372e-03, 3.767025424167513847e-03, -3.616892918944358826e-02, -2.908826863858848810e-04, 4.304785747081041336e-03, -6.319823674857616425e-03, 9.553459472954273224e-03, 6.056012958288192749e-02, 1.445778757333755493e-01, -4.293085541576147079e-03, -1.014798879623413086e-03, -1.123670372180640697e-03, -3.343607764691114426e-03, -8.282702416181564331e-03, -9.136003442108631134e-03, -3.128208452835679054e-03, -5.065554287284612656e-03, -3.363821422681212425e-03, -2.331619849428534508e-03, -6.948312744498252869e-03, -4.651193739846348763e-04, -2.757648238912224770e-03, -3.269297769293189049e-03, -3.053457010537385941e-03, -1.273276284337043762e-03, -3.890497842803597450e-03, -1.573455054312944412e-03, -4.620172258000820875e-04, -2.909624483436346054e-03, -1.929934951476752758e-03, 3.260603174567222595e-02, -3.246940439566969872e-03, -2.361948369070887566e-03, -4.227497614920139313e-03, -4.127733409404754639e-03, -1.508539658971130848e-03, -2.025028225034475327e-03, -3.697839274536818266e-04, -1.569828717038035393e-03, -3.267408115789294243e-03, 3.638143464922904968e-02, -8.854996412992477417e-04, -4.564506467431783676e-03, -9.358142851851880550e-04, -4.367179702967405319e-03, 2.252224273979663849e-02, -1.091223675757646561e-03, 2.278339350596070290e-03, 2.240678295493125916e-02, -1.448261085897684097e-02, -8.080389350652694702e-03, 1.149183139204978943e-02, -1.933042891323566437e-02, -4.228335339576005936e-03, -8.677448204252868891e-05, 2.324012108147144318e-02, 3.179664164781570435e-02, 3.687627986073493958e-02, -3.145565045997500420e-03, 5.941437929868698120e-02, -3.148894989863038063e-03, -1.115723745897412300e-03, -5.061893723905086517e-03, -2.310816198587417603e-03, 4.633012227714061737e-03, -1.833302550949156284e-03, 6.743852794170379639e-02, -4.767374601215124130e-03, -7.994165644049644470e-04, -3.463936736807227135e-03, -5.839278455823659897e-03, -1.355944480746984482e-02, 6.760189682245254517e-02, -5.659253336489200592e-03, -6.296077277511358261e-03, -6.067033391445875168e-03, -4.926867317408323288e-03, -2.389951609075069427e-02, -9.757703170180320740e-03, -2.560309134423732758e-03, -1.033785101026296616e-02, -4.158594645559787750e-03, -2.699581906199455261e-03, -1.021723821759223938e-02, -4.486783407628536224e-03, -4.206691402941942215e-03, -9.331199340522289276e-03, -5.242792423814535141e-03, -2.261030022054910660e-03, -3.217010572552680969e-02, -3.030902007594704628e-03, -3.317660652101039886e-03, -3.168711205944418907e-03, -2.034215955063700676e-03, 3.241927921772003174e-02, -4.441653843969106674e-03, -3.008030587807297707e-03, -3.620996372774243355e-03, -4.924385342746973038e-03, -6.282880902290344238e-03, -6.860387977212667465e-03, 1.811132580041885376e-02, -1.572798821143805981e-03, -8.977757766842842102e-03, 1.309252809733152390e-02, -1.093523227609694004e-03, -4.050316754728555679e-03, -1.287647057324647903e-02, -5.646412726491689682e-03, 2.543941512703895569e-02, -2.752728294581174850e-03, 1.813146373024210334e-04, 3.670896217226982117e-02, 8.837743662297725677e-03, -2.292902208864688873e-03, 2.856569923460483551e-02, 1.913814060389995575e-02, 1.931293122470378876e-02, 3.396946471184492111e-03, 2.226527407765388489e-02, 2.912494167685508728e-02, 3.777467459440231323e-02, -5.444250535219907761e-03, 2.617313526570796967e-02, -7.123700343072414398e-03, -1.986888935789465904e-03, -5.185710266232490540e-03, -3.529055044054985046e-03, -7.820900646038353443e-04, -6.016847211867570877e-03, 3.280823305249214172e-02, -6.607767660170793533e-03, 1.649058423936367035e-03, -5.178345367312431335e-03, -1.021290756762027740e-02, 3.192789480090141296e-02, 2.875295467674732208e-02
-6.627308204770088196e-03, -1.854148809798061848e-03, -1.298042479902505875e-03, -7.432059850543737411e-03, -6.617524195462465286e-03, -1.147233601659536362e-02, -3.872814821079373360e-03, -3.101095370948314667e-02, -6.414516363292932510e-03, -5.998944863677024841e-03, -1.245343871414661407e-02, -3.784286323934793472e-03, -4.718365613371133804e-03, -1.045237947255373001e-02, -5.780695471912622452e-03, -3.903441596776247025e-03, -1.712361699901521206e-03, -1.635099062696099281e-03, -6.289258133620023727e-03, -4.552302416414022446e-03, -4.626660142093896866e-03, 2.049625478684902191e-02, -5.419834516942501068e-03, -4.071009811013936996e-03, -4.350455012172460556e-03, -7.341618184000253677e-03, -1.016611140221357346e-02, -2.348745241761207581e-03, -1.676908880472183228e-02, -2.412641188129782677e-03, -3.638793481513857841e-03, -1.068747639656066895e-01, -5.256687290966510773e-03, -4.872337915003299713e-03, -1.039579627104103565e-03, -4.460561089217662811e-03, -5.329545587301254272e-02, -5.311835091561079025e-03, 2.993867034092545509e-03, 2.356594614684581757e-02, 1.377541013062000275e-02, -3.748034127056598663e-03, 2.643505111336708069e-02, 1.506674662232398987e-02, 7.243218272924423218e-02, 1.936749555170536041e-03, 1.883148774504661560e-02, 1.751658506691455841e-02, 4.114267975091934204e-02, -9.904388338327407837e-03, 2.517326362431049347e-02, -8.460930548608303070e-03, -4.392100498080253601e-03, -8.944681845605373383e-03, -6.402101833373308182e-03, 3.303061705082654953e-03, -3.048554994165897369e-03, 4.951406270265579224e-02, -8.024702779948711395e-03, -3.431680146604776382e-03, -1.286576595157384872e-02, -1.277448330074548721e-02, 2.046818658709526062e-02, 4.634444415569305420e-02, -7.794600445777177811e-03, 1.813963521271944046e-03, 1.190463779494166374e-03, -6.439092103391885757e-04, -1.128958910703659058e-02, 4.027322307229042053e-02, -6.466198712587356567e-02, -9.423272684216499329e-03, -1.126530929468572140e-03, 6.221955642104148865e-03, -5.382590461522340775e-03, 1.803233753889799118e-03, 2.070351969450712204e-03, 1.003511622548103333e-02, -1.988726435229182243e-03, 2.105842577293515205e-03, 5.056819692254066467e-02, 5.157353007234632969e-04, -2.322857966646552086e-03, 2.096063690260052681e-03, 1.086905971169471741e-02, -4.223342239856719971e-02, -1.681544003076851368e-03, 6.464967969805002213e-03, -5.296288523823022842e-03, 3.580984193831682205e-03, -1.446334738284349442e-02, 9.891715832054615021e-03, 3.875698521733283997e-02, -1.176277990452945232e-03, 4.040467552840709686e-03, 1.804556995630264282e-01, -1.147704897448420525e-03, 2.050596848130226135e-02, -6.974429823458194733e-03, 4.705184604972600937e-03, -7.420872896909713745e-02, 1.288859522901475430e-03, 1.535546220839023590e-02, 7.609342783689498901e-02, 1.968839019536972046e-02, 5.376055836677551270e-02, 8.937388338381424546e-05, 2.404987625777721405e-02, 7.358961552381515503e-02, 7.481766492128372192e-02, -6.301451474428176880e-02, 1.454394776374101639e-03, -1.296474486589431763e-01, -5.177739541977643967e-03, 9.771347790956497192e-02, -1.052731368690729141e-02, 2.628298941999673843e-03, -2.274306491017341614e-03, 2.461339347064495087e-03, -7.514059077948331833e-03, 2.099049743264913559e-03, -2.652905881404876709e-02, -4.626515321433544159e-03, -4.183984547853469849e-02, -7.192867808043956757e-03, 9.163844399154186249e-03, -8.252807892858982086e-03, 1.465377807617187500e-01, -5.929268896579742432e-03, -2.485275967046618462e-03, -1.153392367996275425e-03, -5.801928695291280746e-03, -7.652722764760255814e-03, -1.075428258627653122e-02, -4.388553090393543243e-03, -7.430037017911672592e-03, -5.557864438742399216e-03, -4.770918749272823334e-03, -1.071642059832811356e-02, -2.272756304591894150e-03, -4.172744695097208023e-03, -5.612259730696678162e-03, -4.585993010550737381e-03, -2.217360073700547218e-03, -2.827768446877598763e-03, -1.771319773979485035e-03, -3.145474009215831757e-03, -3.759243059903383255e-03, -3.734162775799632072e-03, -2.731621824204921722e-02, -5.190521012991666794e-03, -4.124552477151155472e-03, -4.407385829836130142e-03, -5.746009293943643570e-03, -6.343448068946599960e-03, -3.596564522013068199e-03, -2.140780724585056305e-02, -2.075755270197987556e-03, -4.034826997667551041e-03, 5.754157528281211853e-02, -3.184554399922490120e-03, -2.196080284193158150e-03, -2.208818448707461357e-03, -7.488343864679336548e-03, 6.439416110515594482e-02, -2.908352529630064964e-03, 3.381939372047781944e-03, -4.400279372930526733e-02, -1.132391951978206635e-02, -1.354715228080749512e-02, -3.480982733890414238e-03, -2.432918921113014221e-02, -5.310779903084039688e-03, 1.065357774496078491e-02, 4.121194034814834595e-02, 4.179602116346359253e-02, 1.402312982827425003e-02, -6.200602278113365173e-03, 6.620362866669893265e-03, -6.036084145307540894e-03, -2.051359275355935097e-03, -6.511393934488296509e-03, -5.057778209447860718e-03, 5.726575851440429688e-03, -2.500928239896893501e-03, 1.429610997438430786e-01, -7.097475230693817139e-03, -4.369633737951517105e-03, -3.015204565599560738e-03, -7.760743610560894012e-03, 2.091502211987972260e-02, 8.906336128711700439e-02, -7.414335850626230240e-03, -1.489254459738731384e-02, -1.022315025329589844e-02, -7.808610796928405762e-03, -9.501918248133733869e-05, -1.486045774072408676e-02, -3.850505687296390533e-03, -1.280309259891510010e-02, -6.229354068636894226e-03, -4.171639215201139450e-03, -1.188430283218622208e-02, -7.856816053390502930e-03, -6.090055685490369797e-03, -1.159354764968156815e-02, -7.248912472277879715e-03, -4.443325102329254150e-03, -1.243275403976440430e-02, -5.070237442851066589e-03, -8.021717891097068787e-03, -4.837907385081052780e-03, -3.561293240636587143e-03, 3.313926234841346741e-02, -5.163087043911218643e-03, -5.572030320763587952e-03, -6.384592503309249878e-03, -8.868053555488586426e-03, -1.316394750028848648e-02, -7.293510716408491135e-03, 1.881755702197551727e-02, -2.672489732503890991e-03, -1.771155558526515961e-02, 1.736444979906082153e-02, -4.652530886232852936e-03, 3.469938645139336586e-03, -1.526195276528596878e-02, -7.633390370756387711e-03, 3.444075956940650940e-02, -5.638495553284883499e-03, -6.364369764924049377e-03, 3.107709065079689026e-02, 1.356706768274307251e-02, -8.296970278024673462e-03, 3.688993677496910095e-02, 3.301678225398063660e-02, 1.226857025176286697e-02, 8.658610284328460693e-03, 2.868352830410003662e-02, 2.933025546371936798e-02, 3.688915073871612549e-02, -1.038279384374618530e-02, 3.008223697543144226e-02, -1.081145647913217545e-02, -4.102796316146850586e-03, -6.696640979498624802e-03, -6.550247780978679657e-03, 1.073122117668390274e-02, -1.021968387067317963e-02, 5.665142089128494263e-02, -8.393689058721065521e-03, 3.194896038621664047e-03, -6.741927471011877060e-03, -1.368839852511882782e-02, 2.903728559613227844e-02, 4.984984919428825378e-02
-1.917409151792526245e-02, -1.110501028597354889e-02, -1.285977475345134735e-02, -2.409186027944087982e-02, -1.570959761738777161e-02, -1.876213960349559784e-02, -1.186135318130254745e-02, -4.920204356312751770e-02, -1.739018410444259644e-02, -2.479786984622478485e-02, -3.196086362004280090e-02, -2.072200179100036621e-02, -2.080430462956428528e-02, -3.494963049888610840e-02, -2.237150631844997406e-02, -1.722217909991741180e-02, 3.894014284014701843e-03, -8.680032566189765930e-03, -2.580961771309375763e-02, -1.987034268677234650e-02, -1.605119928717613220e-02, 5.731312930583953857e-02, -1.703539304435253143e-02, -1.410584431141614914e-02, -1.491585094481706619e-02, -1.721792854368686676e-02, -4.537519067525863647e-02, -7.467546965926885605e-03, -1.031776070594787598e-01, -1.258159242570400238e-02, -1.321963500231504440e-02, -1.666060984134674072e-01, -2.098711207509040833e-02, -9.260999038815498352e-03, -6.961995270103216171e-03, -2.443732321262359619e-02, -8.108925819396972656e-02, -2.002484351396560669e-02, 5.896233953535556793e-03, 7.264311611652374268e-02, 4.589790850877761841e-02, 1.032690284773707390e-03, 7.792781293392181396e-02, -5.009964853525161743e-02, -1.492600142955780029e-01, -4.742677509784698486e-02, 5.395650863647460938e-02, -2.381108514964580536e-02, 5.192013457417488098e-02, -3.255377337336540222e-02, 4.491173475980758667e-02, -3.404205664992332458e-02, -2.264095097780227661e-02, -4.354277253150939941e-02, -2.197525836527347565e-02, 9.689422324299812317e-03, -2.195796556770801544e-02, -1.021062731742858887e-01, -2.502549625933170319e-02, -2.633474767208099365e-02, 1.077202521264553070e-02, -3.860102966427803040e-02, -1.186474487185478210e-01, -8.144549280405044556e-02, -8.133005350828170776e-03, 5.562445730902254581e-04, -3.352988278493285179e-03, -2.737837610766291618e-03, 2.637835033237934113e-02, -8.482750505208969116e-03, -1.292644441127777100e-02, 9.092368185520172119e-02, 1.473570987582206726e-02, 2.502079494297504425e-02, -1.741234096698462963e-03, 4.431069828569889069e-03, -3.393184451851993799e-04, 1.554065570235252380e-02, 9.881455916911363602e-04, -2.039882587268948555e-03, 3.544226661324501038e-02, -4.119773511774837971e-04, 1.411066390573978424e-03, 2.477816073223948479e-03, 2.135041542351245880e-02, 1.534463018178939819e-01, -5.806590430438518524e-03, -1.110760262235999107e-03, 1.638072353671304882e-05, 1.641212496906518936e-03, -1.767683029174804688e-02, 2.006233111023902893e-02, 8.259300887584686279e-02, 1.050534192472696304e-02, 2.736517228186130524e-03, 1.536441445350646973e-01, 1.379435649141669273e-03, 7.209245860576629639e-02, -3.727380186319351196e-02, -7.226054091006517410e-03, 4.224730655550956726e-02, -1.099920715205371380e-03, 1.254271995276212692e-02, -5.268907546997070312e-02, 2.248143404722213745e-02, 4.368236288428306580e-02, 4.705131798982620239e-02, -4.997719824314117432e-02, 8.224125951528549194e-02, -1.022969633340835571e-01, -9.222015738487243652e-02, -4.429624974727630615e-02, 1.026458218693733215e-01, -1.325403712689876556e-02, -1.068035215139389038e-01, -1.995538547635078430e-02, -6.874162354506552219e-04, -5.532914772629737854e-03, -2.331482479348778725e-03, -2.325501106679439545e-02, -5.424251314252614975e-03, -9.083808958530426025e-02, 2.982597798109054565e-03, -6.247835233807563782e-02, -1.002754084765911102e-02, 1.818998157978057861e-02, -2.132127434015274048e-02, -3.331670165061950684e-02, -1.685575582087039948e-02, -1.268207561224699020e-02, -1.004732120782136917e-02, -1.902416907250881195e-02, -9.502627886831760406e-03, -3.102699108421802521e-02, -1.372376363724470139e-02, -3.055343404412269592e-02, -1.452022511512041092e-02, -1.990148797631263733e-02, -2.856083028018474579e-02, -1.499428227543830872e-02, -1.435331627726554871e-02, -2.647690288722515106e-02, -1.787757687270641327e-02, -1.201881654560565948e-02, 7.100989576429128647e-03, -1.127030421048402786e-02, -1.643650420010089874e-02, -1.488798856735229492e-02, -1.533578895032405853e-02, 2.559145726263523102e-02, -1.698840409517288208e-02, -1.434061024338006973e-02, -9.650742635130882263e-03, -1.811588369309902191e-02, -3.664316236972808838e-02, -8.286238647997379303e-03, -1.399941146373748779e-01, -1.036899629980325699e-02, -1.510308124125003815e-02, 6.156288832426071167e-02, -1.385860983282327652e-02, -1.471654884517192841e-02, -1.327053364366292953e-02, -2.096827700734138489e-02, 1.615037024021148682e-01, -1.448400784283876419e-02, 6.002461537718772888e-03, -6.036480516195297241e-02, -4.463319480419158936e-02, -1.461094338446855545e-02, -2.692003920674324036e-02, 6.184821948409080505e-02, 6.365937180817127228e-03, -2.904234454035758972e-03, -3.495945036411285400e-02, -2.359980903565883636e-02, -6.032263860106468201e-02, -2.433244138956069946e-02, 6.675204727798700333e-03, -2.617471665143966675e-02, -1.184667460620403290e-02, -1.724202930927276611e-02, -1.584333553910255432e-02, 1.608356274664402008e-02, -1.439896505326032639e-02, -1.678298600018024445e-02, -2.233111299574375153e-02, -2.168898843228816986e-02, 5.532915238291025162e-03, -3.209397569298744202e-02, -5.403770506381988525e-02, 9.994858503341674805e-02, -1.784508675336837769e-02, -2.560488414019346237e-03, -3.437687829136848450e-02, -2.475458011031150818e-02, -9.671687334775924683e-02, -3.501857444643974304e-02, -1.264400221407413483e-02, -3.383618220686912537e-02, -1.515726000070571899e-02, -1.763390563428401947e-02, -2.865776792168617249e-02, -2.510235831141471863e-02, -2.360387332737445831e-02, -3.774689137935638428e-02, -2.584763988852500916e-02, -1.811432093381881714e-02, 1.366553176194429398e-02, -2.104847133159637451e-02, -2.888775616884231567e-02, -2.095576189458370209e-02, -1.660620421171188354e-02, 8.595497906208038330e-02, -5.353942979127168655e-03, -2.687484212219715118e-02, -2.894242480397224426e-02, -1.995898783206939697e-02, -5.052248761057853699e-02, -2.317200601100921631e-02, 3.165988251566886902e-02, -1.346174255013465881e-02, -4.295133054256439209e-02, 9.077458828687667847e-02, -2.170553244650363922e-02, -6.935115903615951538e-03, -1.998636499047279358e-02, -2.464340068399906158e-02, 9.826190769672393799e-02, -2.110354788601398468e-02, -4.886941984295845032e-02, 9.711315482854843140e-02, 4.631205648183822632e-02, -9.468020871281623840e-03, 7.008595764636993408e-02, 8.499725908041000366e-02, 4.178778454661369324e-02, 3.354040160775184631e-02, 5.039765313267707825e-02, 2.343599312007427216e-02, 7.169709354639053345e-02, -3.616242483258247375e-02, 7.137741148471832275e-02, -3.173681348562240601e-02, -2.319541387259960175e-02, -1.826157234609127045e-02, -2.263905480504035950e-02, -5.458600446581840515e-02, -3.355325758457183838e-02, 5.673206597566604614e-02, -2.627177722752094269e-02, 1.438445411622524261e-02, -1.366182137280702591e-02, -4.359630122780799866e-02, 3.164386749267578125e-02, 9.068489819765090942e-02
-1.882934011518955231e-02, -1.025057490915060043e-02, -1.149139460176229477e-02, -2.342556789517402649e-02, -1.033684518188238144e-02, -2.619779482483863831e-02, -1.145513355731964111e-02, -3.312347456812858582e-02, -1.785428449511528015e-02, -2.345855720341205597e-02, -3.199892118573188782e-02, -1.937396638095378876e-02, -2.264535799622535706e-02, -3.493427485227584839e-02, -2.171600982546806335e-02, -1.685208268463611603e-02, 3.081450937315821648e-03, -8.937548846006393433e-03, -2.353523857891559601e-02, -2.034491486847400665e-02, -1.523747202008962631e-02, 4.251566156744956970e-02, -1.662838645279407501e-02, -1.435843948274850845e-02, -1.388711016625165939e-02, -1.842298544943332672e-02, -4.274636507034301758e-02, -7.652379572391510010e-03, -5.431378260254859924e-02, -1.194930914789438248e-02, -1.274035312235355377e-02, -5.605779588222503662e-02, -2.069229446351528168e-02, -8.654167875647544861e-03, -6.246973760426044464e-03, -2.102859877049922943e-02, -1.508442759513854980e-01, -1.880770362913608551e-02, 5.688744131475687027e-03, 6.631975620985031128e-02, 4.644716903567314148e-02, -2.124799939338117838e-04, 7.274904102087020874e-02, -2.406702935695648193e-02, -6.199856102466583252e-02, -1.739598065614700317e-02, 6.556787341833114624e-02, 7.535378914326429367e-03, -9.301996976137161255e-02, -3.109535761177539825e-02, 7.395312190055847168e-02, -3.246349841356277466e-02, -2.060176245868206024e-02, -2.971909567713737488e-02, -2.070463448762893677e-02, 9.991003200411796570e-03, -2.069927006959915161e-02, -7.874508202075958252e-02, -2.338320761919021606e-02, -2.128234319388866425e-02, -5.497108027338981628e-02, -3.608808293938636780e-02, -1.010567769408226013e-01, -2.151565067470073700e-02, -6.752928253263235092e-03, -3.265882842242717743e-04, -1.160075305961072445e-03, 2.266011579195037484e-04, -4.135022684931755066e-02, 2.792315371334552765e-02, 5.667361244559288025e-02, -9.905515611171722412e-02, 7.669773418456315994e-03, 5.455270875245332718e-03, 5.832236725836992264e-03, 3.231225535273551941e-03, 1.497373916208744049e-03, 1.718706265091896057e-02, -3.498707665130496025e-03, -2.255227416753768921e-02, 4.960287734866142273e-02, -4.963538143783807755e-03, -2.510731806978583336e-03, 1.404248643666505814e-03, 1.173563953489065170e-02, 1.228330954909324646e-01, -5.430283024907112122e-03, -4.749503277707844973e-04, 6.008333992213010788e-03, 4.994905553758144379e-03, -1.984315924346446991e-02, 1.384133379906415939e-02, 3.132150694727897644e-02, 9.278122335672378540e-03, 6.434797775000333786e-03, 6.445538252592086792e-02, -1.864833757281303406e-03, -5.090672150254249573e-02, -3.391315788030624390e-02, 1.105679664760828018e-02, 1.054700985550880432e-01, 2.229709643870592117e-03, 2.223871648311614990e-02, -7.082067430019378662e-02, -1.268645003437995911e-02, 1.942502893507480621e-02, -9.357386827468872070e-02, -4.945257306098937988e-02, 7.999469339847564697e-02, -1.155333667993545532e-01, 5.525752902030944824e-03, -1.014756411314010620e-01, -6.025451421737670898e-02, -1.089207176119089127e-02, -1.016703769564628601e-01, -1.624277606606483459e-02, -2.108798362314701080e-04, 1.966190291568636894e-03, 1.281496020965278149e-03, -2.360621467232704163e-02, -4.881347995251417160e-03, -1.600464880466461182e-01, -1.741982181556522846e-03, -9.969031065702438354e-02, -1.227941177785396576e-02, 1.757634244859218597e-02, 1.005430296063423157e-01, -1.056757792830467224e-01, -1.639499329030513763e-02, -1.211490482091903687e-02, -8.695393800735473633e-03, -1.846810244023799896e-02, -1.060434337705373764e-02, -3.265251591801643372e-02, -1.365778129547834396e-02, -3.808610513806343079e-02, -1.651186309754848480e-02, -1.848997361958026886e-02, -2.840188145637512207e-02, -1.392084266990423203e-02, -1.800273917615413666e-02, -2.522210218012332916e-02, -1.797054149210453033e-02, -1.306267175823450089e-02, 2.284860704094171524e-03, -1.077516376972198486e-02, -1.442078035324811935e-02, -1.535396650433540344e-02, -1.406145934015512466e-02, -5.523717775940895081e-02, -1.619310118257999420e-02, -1.409936789423227310e-02, -1.325832493603229523e-02, -1.371006388217210770e-02, -3.336778655648231506e-02, -9.959953837096691132e-03, -2.656515128910541534e-02, -1.011068932712078094e-02, -1.479215919971466064e-02, 1.257961690425872803e-01, -1.466847211122512817e-02, -9.154696948826313019e-03, -1.231199409812688828e-02, -1.672459952533245087e-02, 1.001899987459182739e-01, -1.360788289457559586e-02, 4.987073130905628204e-03, -8.910960704088211060e-02, -3.068830259144306183e-02, -2.754317969083786011e-02, -3.138516098260879517e-02, 2.137870043516159058e-01, 9.120187908411026001e-02, 3.944404423236846924e-02, 2.636377513408660889e-02, -4.067621007561683655e-02, -1.251397877931594849e-01, -2.288782596588134766e-02, 3.096480667591094971e-02, -2.505873329937458038e-02, -1.172604039311408997e-02, -1.980641111731529236e-02, -1.632639579474925995e-02, 1.626355014741420746e-02, -1.402869354933500290e-02, -3.574962913990020752e-02, -2.163745276629924774e-02, -2.081535942852497101e-02, -6.700573954731225967e-03, -3.017383813858032227e-02, -3.551424946635961533e-03, -4.737724736332893372e-02, -2.764503285288810730e-02, -1.995231583714485168e-02, -2.657967433333396912e-02, -2.391400374472141266e-02, 7.581547368317842484e-03, -3.286429494619369507e-02, -1.223498489707708359e-02, -2.654023468494415283e-02, -1.614747755229473114e-02, -1.208957470953464508e-02, -2.799086458981037140e-02, -2.589601092040538788e-02, -2.489226311445236206e-02, -3.572475165128707886e-02, -2.489820308983325958e-02, -1.735643483698368073e-02, -2.299854159355163574e-02, -1.607952825725078583e-02, -2.666505984961986542e-02, -2.133002690970897675e-02, -1.516787428408861160e-02, 6.991789489984512329e-02, -3.247022256255149841e-02, -1.856045424938201904e-02, -9.766996838152408600e-03, -9.318857453763484955e-03, -4.843591153621673584e-02, -7.176969945430755615e-02, 3.679631650447845459e-02, -1.243417058140039444e-02, -7.497918605804443359e-02, 9.180346876382827759e-02, -2.081767655909061432e-02, -5.505731794983148575e-03, -4.606097936630249023e-02, -2.475125528872013092e-02, 9.509394317865371704e-02, -1.993670128285884857e-02, -3.933098167181015015e-02, 6.810707598924636841e-02, 4.728131741285324097e-02, -1.121301669627428055e-02, 7.783215492963790894e-02, 9.036722779273986816e-02, 1.081932783126831055e-01, -2.266676165163516998e-02, 7.729840278625488281e-02, 2.871621027588844299e-02, 4.660106822848320007e-02, -3.426098078489303589e-02, 6.923910975456237793e-02, -3.421020880341529846e-02, -2.182858623564243317e-02, -2.096374705433845520e-02, -2.075912244617938995e-02, -7.761893421411514282e-02, -3.151012212038040161e-02, 7.334385067224502563e-02, -2.348437346518039703e-02, 8.973398245871067047e-03, -2.519872412085533142e-02, -4.055266082286834717e-02, 3.590349853038787842e-02, 5.002636834979057312e-02
-4.923687782138586044e-03, -1.271093031391501427e-03, -1.238465192727744579e-03, -5.756088066846132278e-03, -6.440966855734586716e-03, -9.509701281785964966e-03, -3.163816640153527260e-03, -1.973250135779380798e-02, -5.008280742913484573e-03, -4.449029453098773956e-03, -1.031173393130302429e-02, -2.109758090227842331e-03, -4.028420895338058472e-03, -9.036875329911708832e-03, -4.518544301390647888e-03, -2.457074820995330811e-03, -7.196502992883324623e-04, -1.717073027975857258e-03, -3.721868153661489487e-03, -3.441941458731889725e-03, -2.504513366147875786e-03, 1.750018261373043060e-02, -4.069619812071323395e-03, -3.344310913234949112e-03, -3.919244743883609772e-03, -5.569993983954191208e-03, -7.097656372934579849e-03, -1.685859053395688534e-03, 2.049121074378490448e-02, -1.745302928611636162e-03, -3.421537810936570168e-03, -5.645313858985900879e-02, -2.934456570073962212e-03, -3.303144825622439384e-03, -9.195963502861559391e-04, -4.954022355377674103e-03, -3.693818580359220505e-03, -3.432240104302763939e-03, 2.796571934595704079e-03, 1.913080550730228424e-02, 1.210714597254991531e-02, 1.003558747470378876e-03, 2.337502501904964447e-02, -2.836098149418830872e-02, 1.295943111181259155e-01, 1.639058231376111507e-03, 2.136398293077945709e-02, 3.181643038988113403e-02, 1.979512628167867661e-03, -6.998494267463684082e-03, 1.779491268098354340e-02, -6.777649279683828354e-03, -2.664673142135143280e-03, -5.925057455897331238e-03, -4.506520926952362061e-03, 3.006729530170559883e-03, -2.195476321503520012e-03, -3.026621043682098389e-02, -6.746497005224227905e-03, -1.684055780060589314e-03, -8.420210331678390503e-03, -9.991383180022239685e-03, 3.248134627938270569e-02, -3.698322176933288574e-02, -5.644557531923055649e-03, 2.893962198868393898e-03, 9.005927713587880135e-04, -9.403222938999533653e-04, 8.934143930673599243e-03, 4.132694099098443985e-03, 4.706421494483947754e-02, 6.345210131257772446e-03, 1.648709876462817192e-03, -1.173099968582391739e-02, -9.427993558347225189e-03, 3.067786572501063347e-03, -2.483609714545309544e-04, 5.076610017567873001e-03, 1.298799412325024605e-03, 2.944869222119450569e-03, 2.792118117213249207e-02, 1.523762592114508152e-03, 4.686414904426783323e-04, 3.607620252296328545e-03, 3.072959370911121368e-03, -7.477320730686187744e-02, -1.908450736664235592e-03, 5.145582370460033417e-03, -9.229552932083606720e-03, 5.111634731292724609e-03, -1.054626610130071640e-02, 9.795752353966236115e-03, 2.968161180615425110e-02, 4.796874418389052153e-04, 4.227861762046813965e-03, -3.816834464669227600e-02, 1.647751196287572384e-03, 4.135770723223686218e-02, -2.560552209615707397e-03, 3.711228724569082260e-03, -7.185455411672592163e-02, -1.576260314323008060e-03, 1.700753904879093170e-02, 8.738510310649871826e-02, 2.038476988673210144e-02, 6.477540358901023865e-03, -3.921541944146156311e-02, 9.336823970079421997e-02, 1.749121770262718201e-02, 7.043147832155227661e-02, 8.109439909458160400e-02, 1.003344804048538208e-01, 1.254146099090576172e-01, -4.606193397194147110e-03, 1.183541342616081238e-01, -8.753379806876182556e-03, 3.749177558347582817e-03, -1.179321203380823135e-03, 7.451631827279925346e-04, -6.642046850174665451e-03, 3.122908994555473328e-03, 1.934237964451313019e-02, -2.279922831803560257e-03, -8.547286689281463623e-02, -5.716579034924507141e-03, 1.041249465197324753e-02, -2.477689273655414581e-02, 8.788119256496429443e-02, -4.911168478429317474e-03, -1.634787768125534058e-03, -1.012535649351775646e-03, -4.421392921358346939e-03, -7.469657342880964279e-03, -1.044103596359491348e-02, -3.537669545039534569e-03, -3.384113684296607971e-02, -4.087639506906270981e-03, -3.466848749667406082e-03, -8.337737992405891418e-03, -1.051260973326861858e-03, -3.232944291085004807e-03, -4.338746424764394760e-03, -3.574754577130079269e-03, -1.555500901304185390e-03, -2.059048274531960487e-03, -1.701730303466320038e-03, -1.486767432652413845e-03, -2.979204989969730377e-03, -2.202653791755437851e-03, 2.765423804521560669e-02, -3.992055077105760574e-03, -3.345317440107464790e-03, -3.768538124859333038e-03, -4.864368587732315063e-03, -3.422234673053026199e-03, -3.210796974599361420e-03, 2.055766992270946503e-03, -1.571917440742254257e-03, -3.144568298012018204e-03, 6.252283602952957153e-02, -1.533372094854712486e-03, -4.257570020854473114e-03, -1.761050196364521980e-03, -4.939605481922626495e-03, 3.776967152953147888e-02, -1.600891933776438236e-03, 3.546046791598200798e-03, 2.591088600456714630e-02, -1.392142288386821747e-02, -7.879342883825302124e-03, 1.348640862852334976e-02, -5.129478871822357178e-02, 8.766128867864608765e-02, 8.934633806347846985e-03, 2.414049580693244934e-02, 3.504163399338722229e-02, 6.211499869823455811e-02, -4.263041075319051743e-03, 2.838515862822532654e-02, -4.640133585780858994e-03, -1.282189856283366680e-03, -5.579092074185609818e-03, -3.483312670141458511e-03, 5.152221769094467163e-03, -1.769725582562386990e-03, 1.368680894374847412e-01, -5.362465046346187592e-03, -2.543229842558503151e-03, -3.804362844675779343e-03, -5.843765102326869965e-03, 1.918442174792289734e-02, 4.913071170449256897e-02, -9.913659654557704926e-03, -9.007697924971580505e-03, -7.409467361867427826e-03, -6.163975689560174942e-03, -2.434325963258743286e-02, -1.225768774747848511e-02, -2.890230389311909676e-03, -1.026819460093975067e-02, -4.786553792655467987e-03, -3.123116213828325272e-03, -1.042689569294452667e-02, -6.055996753275394440e-03, -5.484146997332572937e-03, -1.004603970795869827e-02, -6.006773561239242554e-03, -2.911537187173962593e-03, -3.300775215029716492e-02, -4.067434463649988174e-03, -5.224637687206268311e-03, -3.606560174375772476e-03, -2.235284540802240372e-03, 3.340799733996391296e-02, -5.124869290739297867e-03, -3.862859681248664856e-03, -3.250785637646913528e-03, -5.816748365759849548e-03, -9.563345462083816528e-03, -1.095148362219333649e-02, 2.324806712567806244e-02, -1.885149395093321800e-03, -1.214621402323246002e-02, 1.467823237180709839e-02, -2.472089603543281555e-03, -7.741700857877731323e-03, -1.698936335742473602e-02, -6.388254463672637939e-03, 2.850678376853466034e-02, -3.812516340985894203e-03, -2.243489027023315430e-03, 3.405323252081871033e-02, 1.024663168936967850e-02, -1.254435628652572632e-03, 3.366944193840026855e-02, 2.893462218344211578e-02, 2.653256803750991821e-02, 1.304791495203971863e-02, 2.933511883020401001e-02, 3.163941204547882080e-02, 4.112790524959564209e-02, -7.283505517989397049e-03, 2.418856881558895111e-02, -9.141184389591217041e-03, -2.346571767702698708e-03, -5.762230604887008667e-03, -4.828206263482570648e-03, 6.672722287476062775e-03, -7.560046389698982239e-03, 3.994394838809967041e-02, -6.919297855347394943e-03, -9.741798858158290386e-04, -5.779851227998733521e-03, -1.041811984032392502e-02, 3.560283407568931580e-02, 3.885973617434501648e-02
-4.709776490926742554e-03, -1.258670585229992867e-03, -1.340902759693562984e-03, -4.743969999253749847e-03, -7.400617469102144241e-03, -6.408027838915586472e-03, -3.084259107708930969e-03, -6.176633294671773911e-03, -4.890981130301952362e-03, -5.852257367223501205e-03, -9.000618010759353638e-03, -2.020100364461541176e-03, -1.267515937797725201e-03, -8.985043503344058990e-03, -2.143924124538898468e-03, -2.170776948332786560e-03, 1.283357778447680175e-05, -2.050636103376746178e-03, -2.282241359353065491e-03, -5.073978099972009659e-03, -3.143764566630125046e-03, 3.169421479105949402e-02, -3.216175362467765808e-03, -3.850867040455341339e-03, -3.486896632239222527e-03, -5.588094703853130341e-03, -6.712681613862514496e-03, -3.629997139796614647e-03, -1.500872150063514709e-02, -1.832097419537603855e-03, -5.394858773797750473e-03, -5.366705730557441711e-02, -1.837715506553649902e-03, -3.924082498997449875e-03, 3.236567135900259018e-04, -6.327060982584953308e-03, -7.101641595363616943e-02, -2.718310570344328880e-03, -9.326144354417920113e-04, 2.707981318235397339e-02, 1.871385425329208374e-02, 4.316158127039670944e-03, 1.768262870609760284e-02, 1.415102928876876831e-01, -3.394900262355804443e-02, 4.965773783624172211e-03, 1.612563058733940125e-02, -1.486840564757585526e-02, 1.627578586339950562e-02, -8.157432079315185547e-03, 1.302151940762996674e-02, -8.402998559176921844e-03, -2.625960391014814377e-03, -5.520182196050882339e-03, -4.691577516496181488e-03, 2.392862923443317413e-03, -2.327037742361426353e-03, -1.388648301362991333e-01, -6.683130282908678055e-03, -6.076541263610124588e-03, -7.683149538934230804e-03, -1.061153411865234375e-02, -3.691348014399409294e-03, -1.292171478271484375e-01, -2.632427029311656952e-03, 1.259800861589610577e-03, -5.659577436745166779e-04, 1.941633759997785091e-03, 1.527175307273864746e-02, -1.109756249934434891e-02, 1.340194232761859894e-02, 2.107616886496543884e-02, 2.204460790380835533e-03, 9.349247440695762634e-03, -4.552001599222421646e-03, 1.419226755388081074e-04, -3.154101548716425896e-03, 2.608746755868196487e-03, 3.399792592972517014e-03, -6.031006923876702785e-04, 1.793832704424858093e-02, 1.825468032620847225e-03, -2.074695657938718796e-03, 3.130664408672600985e-04, 3.152749966830015182e-03, 9.355854988098144531e-02, 2.921108680311590433e-04, -4.784841439686715603e-04, -2.498722868040204048e-03, -2.459422452375292778e-03, -7.010302040725946426e-03, 2.990290056914091110e-03, 4.456227272748947144e-02, -2.084965351969003677e-03, -5.758564220741391182e-04, 5.343284830451011658e-02, -3.156562452204525471e-04, 9.454973787069320679e-02, -3.576330607756972313e-03, 6.850424688309431076e-04, 4.032325744628906250e-02, -8.006917778402566910e-04, -6.219552014954388142e-04, -1.829138398170471191e-01, 6.626505404710769653e-02, -1.555833267048001289e-03, 7.646835595369338989e-02, 1.269915997982025146e-01, -1.007425487041473389e-01, 3.469738364219665527e-02, -8.769489824771881104e-02, -3.940226510167121887e-02, 1.935904473066329956e-01, -1.395275117829442024e-03, 2.253698185086250305e-02, -3.793219337239861488e-03, -1.057883127941749990e-04, 1.346064731478691101e-03, 2.805172465741634369e-03, -4.435681272298097610e-03, 2.021575113758444786e-03, 1.476567983627319336e-01, 8.228134247474372387e-04, 7.541150785982608795e-03, -4.184080753475427628e-03, 1.109624095261096954e-02, -8.979232609272003174e-02, 1.259173601865768433e-01, -4.547670017927885056e-03, -1.482416642829775810e-03, -1.275580492801964283e-03, -3.544076811522245407e-03, -9.308150038123130798e-03, -8.223071694374084473e-03, -3.188208909705281258e-03, -4.475457221269607544e-02, -4.247445613145828247e-03, -4.991177469491958618e-03, -7.244026754051446915e-03, -1.295366324484348297e-03, -9.571217233315110207e-04, -4.195054527372121811e-03, -1.453996403142809868e-03, -2.035191981121897697e-03, -1.233215909451246262e-03, -1.586871221661567688e-03, -8.353544981218874454e-04, -5.970390979200601578e-03, -2.415280323475599289e-03, 6.453461199998855591e-02, -3.262102603912353516e-03, -3.654176834970712662e-03, -3.453557845205068588e-03, -4.954226780682802200e-03, -3.017972223460674286e-03, -5.252107046544551849e-03, -4.197013750672340393e-02, -1.925281714648008347e-03, -4.678925499320030212e-03, 5.957112833857536316e-02, -7.030272390693426132e-04, -5.237251985818147659e-03, -1.066872384399175644e-03, -5.949145182967185974e-03, 3.833804279565811157e-02, -1.060430775396525860e-03, -2.681653015315532684e-03, 2.271500974893569946e-02, -1.297006662935018539e-02, -7.229089271277189255e-03, -1.525416318327188492e-02, -1.201076526194810867e-02, 6.679392419755458832e-03, 7.179658394306898117e-03, -6.897817552089691162e-02, -4.166297242045402527e-02, -3.613166138529777527e-02, -5.304635502398014069e-03, 2.761113457381725311e-02, -5.857697222381830215e-03, -1.426463364623486996e-03, -5.942024756222963333e-03, -3.716004313901066780e-03, 2.990008099004626274e-03, -1.756968558765947819e-03, -2.862091362476348877e-02, -5.251288414001464844e-03, -5.120753776282072067e-03, -5.234340671449899673e-03, -7.688275538384914398e-03, -1.712222397327423096e-02, 8.643236011266708374e-02, -6.585342809557914734e-03, -7.077294867485761642e-03, -7.014930248260498047e-03, -5.272468551993370056e-03, -1.637871004641056061e-02, -7.662873715162277222e-03, -2.499581780284643173e-03, -8.453036658465862274e-03, -4.661682527512311935e-03, -5.691362079232931137e-03, -9.148105978965759277e-03, -5.618713796138763428e-03, -1.553138834424316883e-03, -9.956727735698223114e-03, -2.724256133660674095e-03, -2.959422999992966652e-03, -1.420871121808886528e-03, -3.833147929981350899e-03, -3.494937904179096222e-03, -5.199532490223646164e-03, -2.563690301030874252e-03, 3.831346333026885986e-02, -5.291320849210023880e-03, -3.960220143198966980e-03, -2.172337379306554794e-03, -5.846837069839239120e-03, -8.148533292114734650e-03, -1.748932152986526489e-02, 7.254156749695539474e-03, -1.899894676171243191e-03, -1.620833575725555420e-02, 2.762750349938869476e-02, -1.754096592776477337e-03, -1.216711569577455521e-02, -1.804119721055030823e-02, -7.395032793283462524e-03, 2.324028499424457550e-02, -3.049358958378434181e-03, -3.022695332765579224e-02, 3.514531254768371582e-02, 1.623145490884780884e-02, 1.040525385178625584e-03, 2.863962575793266296e-02, 2.493471279740333557e-02, 1.237941905856132507e-02, 2.300964482128620148e-02, 1.139009557664394379e-02, -6.100736092776060104e-03, 3.061417676508426666e-02, -8.484224788844585419e-03, 2.064125239849090576e-02, -9.824059903621673584e-03, -2.259931527078151703e-03, -6.504147313535213470e-03, -4.872311372309923172e-03, -1.661579869687557220e-02, -6.666417699307203293e-03, 2.439732477068901062e-02, -6.757385563105344772e-03, -8.519362658262252808e-03, -5.482600070536136627e-03, -1.190282963216304779e-02, -6.436469266191124916e-04, 3.363799676299095154e-02
-1.845168136060237885e-02, -9.601068682968616486e-03, -1.029521599411964417e-02, -2.234603650867938995e-02, -1.169214211404323578e-02, -3.144226968288421631e-02, -1.137501187622547150e-02, -2.362235076725482941e-02, -1.777654141187667847e-02, -1.968524418771266937e-02, -3.155148401856422424e-02, -1.820546761155128479e-02, -2.098097093403339386e-02, -3.289995342493057251e-02, -2.060970105230808258e-02, -1.543114054948091507e-02, 1.860287855379283428e-03, -7.954076863825321198e-03, -2.258640341460704803e-02, -1.893508620560169220e-02, -1.410446502268314362e-02, 4.829065874218940735e-02, -1.621830090880393982e-02, -1.291612908244132996e-02, -1.208044681698083878e-02, -1.941035874187946320e-02, -4.146468639373779297e-02, -7.164944428950548172e-03, 4.379461519420146942e-03, -1.099699549376964569e-02, -1.132475957274436951e-02, -5.342698097229003906e-02, -1.945251040160655975e-02, -1.107188966125249863e-02, -5.774698220193386078e-03, -2.007478289306163788e-02, -9.498389810323715210e-02, -1.793177984654903412e-02, 6.615474354475736618e-03, 6.597758084535598755e-02, 4.213916137814521790e-02, -2.757963491603732109e-03, 7.403123378753662109e-02, -8.663242310285568237e-02, -1.270955353975296021e-01, 1.655411720275878906e-02, 4.621808975934982300e-02, 2.696958184242248535e-02, -3.411311283707618713e-02, -2.983789145946502686e-02, 3.971032798290252686e-02, -3.035031817853450775e-02, -1.937059685587882996e-02, -3.297142684459686279e-03, -2.046501077711582184e-02, 9.662113152444362640e-03, -1.934500224888324738e-02, 2.750746719539165497e-02, -2.301715686917304993e-02, -1.895849965512752533e-02, -5.576446279883384705e-02, -3.541842848062515259e-02, -3.232698142528533936e-02, -9.365612268447875977e-02, -1.080193743109703064e-02, 5.603390163742005825e-04, -1.228956039994955063e-03, -3.341010306030511856e-04, -5.910831689834594727e-02, 4.423834010958671570e-02, 5.516482144594192505e-02, -7.141285389661788940e-02, -1.186532061547040939e-02, 1.549713080748915672e-03, -1.700556464493274689e-02, 4.484067671000957489e-03, 2.149473875761032104e-03, 1.724329963326454163e-02, -2.224633470177650452e-03, -1.690151914954185486e-02, 6.018552556633949280e-02, 3.700642380863428116e-03, -1.333655207417905331e-03, 2.895105630159378052e-03, -3.823693143203854561e-03, -1.099346876144409180e-01, -5.806982517242431641e-03, 2.104244194924831390e-03, 3.493473341222852468e-04, 5.334431305527687073e-03, -1.969312317669391632e-02, 1.921643316745758057e-02, 1.788274035789072514e-03, -4.552348051220178604e-03, 7.544006686657667160e-03, -5.550543963909149170e-02, -3.290279710199683905e-04, 1.090866029262542725e-01, -3.468444570899009705e-02, 8.179888129234313965e-03, 9.959936887025833130e-02, 1.596039975993335247e-03, 3.662999719381332397e-02, 1.279626786708831787e-01, -2.837106026709079742e-02, 8.975192904472351074e-02, -1.073991358280181885e-01, -1.195307746529579163e-01, 6.756249070167541504e-02, -3.591296821832656860e-02, 7.743859291076660156e-02, -8.502079546451568604e-02, -1.710352674126625061e-02, -1.232414226979017258e-02, -8.744572289288043976e-03, -1.933065243065357208e-02, -3.098461602348834276e-04, -9.889118373394012451e-04, 1.180017134174704552e-03, -2.305896952748298645e-02, -3.240413498133420944e-03, -6.310636550188064575e-02, -8.371692150831222534e-03, 5.022201687097549438e-02, -9.728641249239444733e-03, 1.969650387763977051e-02, 5.685504153370857239e-02, 7.305462658405303955e-02, -1.612575352191925049e-02, -1.146559137850999832e-02, -7.890050299465656281e-03, -1.765136606991291046e-02, -2.395511232316493988e-02, -2.249289676547050476e-02, -1.305554714053869247e-02, -4.543992504477500916e-02, -1.556128542870283127e-02, -1.608313433825969696e-02, -2.809955365955829620e-02, -1.257284823805093765e-02, -1.669602654874324799e-02, -2.367884106934070587e-02, -1.697158813476562500e-02, -1.132173556834459305e-02, 1.955868210643529892e-03, -9.880087338387966156e-03, -1.374590117484331131e-02, -1.418798044323921204e-02, -1.308363489806652069e-02, -2.520634606480598450e-02, -1.538298930972814560e-02, -1.323886308819055557e-02, -1.275575067847967148e-02, -1.916044950485229492e-02, -3.242557123303413391e-02, -8.890352211892604828e-03, -3.567527746781706810e-03, -9.163668379187583923e-03, -1.282125338912010193e-02, 1.290912926197052002e-01, -1.344809308648109436e-02, -1.120771933346986771e-02, -1.216672081500291824e-02, -1.668962463736534119e-02, 8.078608661890029907e-02, -1.266614813357591629e-02, 6.825223099440336227e-03, -5.235474556684494019e-02, -3.523397818207740784e-02, -2.463229373097419739e-02, -4.728108271956443787e-02, 8.405800163745880127e-02, 4.433545842766761780e-02, -1.261224970221519470e-02, -3.736457787454128265e-03, -5.508069321513175964e-02, 4.728211089968681335e-02, -2.164738439023494720e-02, 1.474479772150516510e-02, -2.332228608429431915e-02, -1.067509315907955170e-02, -1.896585151553153992e-02, -1.577855460345745087e-02, 1.631290838122367859e-02, -1.281467825174331665e-02, 3.602377139031887054e-03, -2.074907533824443817e-02, -1.764620281755924225e-02, -2.681395597755908966e-02, -2.854266948997974396e-02, 6.532067060470581055e-02, 9.528884291648864746e-02, -3.001388721168041229e-02, -2.994902059435844421e-02, -2.436144836246967316e-02, -2.323985658586025238e-02, -5.981174856424331665e-02, -3.184802085161209106e-02, -1.169016864150762558e-02, -3.135826066136360168e-02, -1.820924691855907440e-02, -1.017414499074220657e-02, -2.791824564337730408e-02, -2.387305907905101776e-02, -2.346712909638881683e-02, -3.309408947825431824e-02, -2.389573119580745697e-02, -1.612644456326961517e-02, -6.550173461437225342e-02, -1.548772398382425308e-02, -2.564844489097595215e-02, -1.998819969594478607e-02, -1.407235953956842422e-02, 7.958356291055679321e-02, -2.032236754894256592e-02, -1.626209355890750885e-02, -8.195658214390277863e-03, -2.811444923281669617e-02, -4.693639650940895081e-02, -4.468313604593276978e-02, 4.341547563672065735e-02, -1.151440106332302094e-02, -4.515220969915390015e-02, 8.023678511381149292e-02, -1.965081878006458282e-02, -7.059591263532638550e-02, -7.251775264739990234e-02, -2.226834557950496674e-02, 9.314965456724166870e-02, -1.895812340080738068e-02, -3.878253698348999023e-02, 7.734321802854537964e-02, 4.302527010440826416e-02, -1.099748630076646805e-02, 9.585808217525482178e-02, 8.828891813755035400e-02, 7.207155972719192505e-02, 6.483994424343109131e-02, 9.150639176368713379e-02, 5.017838999629020691e-02, 1.000050380825996399e-01, -3.280615806579589844e-02, 7.190541177988052368e-02, -3.256931900978088379e-02, -2.020298875868320465e-02, -1.838944666087627411e-02, -1.962580718100070953e-02, -5.154717341065406799e-02, -3.034667856991291046e-02, 6.751591712236404419e-02, -2.300993725657463074e-02, -3.057732246816158295e-02, -1.955239847302436829e-02, -3.951793909072875977e-02, 4.945223405957221985e-02, 8.488588035106658936e-02
-1.687593385577201843e-02, -8.228654973208904266e-03, -7.287624757736921310e-03, -1.967804692685604095e-02, -1.090630330145359039e-02, -2.450191974639892578e-02, -1.016141101717948914e-02, -3.855804353952407837e-02, -1.609558984637260437e-02, -1.796677708625793457e-02, -2.821738831698894501e-02, -1.521895825862884521e-02, -1.562508195638656616e-02, -2.947876229882240295e-02, -1.743347756564617157e-02, -1.284709107130765915e-02, 3.360519651323556900e-03, -6.039657164365053177e-03, -1.997135579586029053e-02, -1.532804034650325775e-02, -1.256408635526895523e-02, 3.754251450300216675e-02, -1.454884745180606842e-02, -1.184538751840591431e-02, -1.091206911951303482e-02, -1.866820827126502991e-02, -3.801213204860687256e-02, -7.331488654017448425e-03, -1.549860462546348572e-02, -8.888042531907558441e-03, -1.010175980627536774e-02, -2.144588083028793335e-01, -1.609252952039241791e-02, -1.130163855850696564e-02, -4.168213810771703720e-03, -1.229839958250522614e-02, -2.185131050646305084e-02, -1.572068780660629272e-02, 6.208559498190879822e-03, 5.631134659051895142e-02, 3.595874831080436707e-02, -2.471577841788530350e-03, 6.574316322803497314e-02, -1.614504307508468628e-01, -8.693721890449523926e-02, 2.317712083458900452e-02, 5.603441223502159119e-02, -1.623064838349819183e-02, 6.274084746837615967e-02, -2.728820964694023132e-02, 4.502562806010246277e-02, -2.758369781076908112e-02, -1.565482839941978455e-02, -3.067031316459178925e-02, -1.678511686623096466e-02, 8.340642787516117096e-03, -1.512266695499420166e-02, 7.004218548536300659e-02, -2.041659317910671234e-02, -1.565698720514774323e-02, -3.309961035847663879e-02, -3.286410495638847351e-02, -4.274395480751991272e-02, 8.618946373462677002e-02, -7.388722617179155350e-03, 2.753340173512697220e-03, -1.627703662961721420e-03, -2.950453199446201324e-03, -3.879433125257492065e-02, -5.910651452722959220e-07, 1.314506772905588150e-02, 8.791162073612213135e-02, 4.670092370361089706e-03, -9.991503320634365082e-04, -2.604977972805500031e-02, 5.297249648720026016e-03, 4.691836074925959110e-04, 1.599849388003349304e-02, -4.661851562559604645e-06, 6.412947550415992737e-04, 1.086155325174331665e-02, 6.698033539578318596e-04, 3.173264267388731241e-04, 3.504727734252810478e-03, -1.816222257912158966e-02, -4.296664521098136902e-02, -3.784112399443984032e-03, 1.074414816685020924e-03, -1.798920892179012299e-02, 5.018590949475765228e-03, -1.716787181794643402e-02, 1.752199977636337280e-02, -8.964572101831436157e-02, -1.564772683195769787e-03, 5.111359059810638428e-03, -4.295218735933303833e-02, 8.763271616771817207e-04, 9.166068583726882935e-02, -3.313279524445533752e-02, 5.392248276621103287e-03, 1.989755779504776001e-02, -3.899292787536978722e-04, -3.409226424992084503e-03, -4.082748666405677795e-03, -4.754674620926380157e-03, 8.256755769252777100e-02, 4.126664996147155762e-02, -1.630579382181167603e-01, 1.600531511940062046e-03, -6.138750165700912476e-02, -1.180997043848037720e-01, 9.337539970874786377e-02, 2.940343692898750305e-03, -1.272317301481962204e-02, 1.097039282321929932e-01, -1.972331292927265167e-02, 6.281528039835393429e-04, 2.494583139196038246e-03, 4.483194788917899132e-04, -2.005860768258571625e-02, -2.930064219981431961e-03, -1.261760890483856201e-01, -3.792750649154186249e-03, 5.837643053382635117e-03, -7.637718226760625839e-03, 2.061049081385135651e-02, -8.615727722644805908e-02, 8.255407214164733887e-02, -1.485774759203195572e-02, -1.002927217632532120e-02, -5.728890653699636459e-03, -1.557611115276813507e-02, -1.930460520088672638e-02, -2.358910068869590759e-02, -1.177145633846521378e-02, 1.920415088534355164e-02, -1.353734731674194336e-02, -1.524287182837724686e-02, -2.536586299538612366e-02, -1.027008611708879471e-02, -1.150774676352739334e-02, -2.056594751775264740e-02, -1.369932945817708969e-02, -8.654790930449962616e-03, 3.215387230738997459e-03, -7.485689595341682434e-03, -1.187921501696109772e-02, -1.166099868714809418e-02, -1.117063034325838089e-02, -6.122682709246873856e-03, -1.383952703326940536e-02, -1.197077333927154541e-02, -9.599384851753711700e-03, -1.406511198729276657e-02, -2.900601550936698914e-02, -9.545535780489444733e-03, -8.437719941139221191e-02, -7.184245157986879349e-03, -1.156156137585639954e-02, 4.450716823339462280e-02, -1.024217251688241959e-02, -5.011565983295440674e-03, -1.069304253906011581e-02, -1.453161705285310745e-02, 8.885296434164047241e-02, -1.051916088908910751e-02, 6.462463177740573883e-03, -2.837088890373706818e-02, -3.441429883241653442e-02, -1.761837489902973175e-02, 8.046767674386501312e-03, 1.608499288558959961e-01, 5.451458692550659180e-02, 6.102003157138824463e-02, 5.934245511889457703e-02, -8.788265287876129150e-03, -3.793951496481895447e-02, -1.957818865776062012e-02, 1.733705401420593262e-02, -2.077706903219223022e-02, -8.304692804813385010e-03, -1.737064309418201447e-02, -1.295731309801340103e-02, 1.380744297057390213e-02, -9.816192090511322021e-03, 1.905030757188796997e-02, -1.898446492850780487e-02, -1.649808883666992188e-02, -1.691647688858211040e-03, -2.502309158444404602e-02, 4.563934635370969772e-03, -3.728114068508148193e-02, -2.614855766296386719e-02, -3.420094773173332214e-02, -2.742900699377059937e-02, -2.038975805044174194e-02, -7.756128162145614624e-02, -3.283642232418060303e-02, -1.050242036581039429e-02, -2.474274300038814545e-02, -1.534457970410585403e-02, -1.204290520399808884e-02, -2.518475428223609924e-02, -2.140920050442218781e-02, -1.857635006308555603e-02, -2.978259511291980743e-02, -2.051500231027603149e-02, -1.432699337601661682e-02, -2.129762433469295502e-03, -1.477718725800514221e-02, -2.297648042440414429e-02, -1.624030433595180511e-02, -1.151856314390897751e-02, 6.466307491064071655e-02, -2.200008556246757507e-02, -9.691265411674976349e-03, -5.658208392560482025e-03, -8.788195438683032990e-03, -4.342607408761978149e-02, -6.961389631032943726e-02, 3.812915459275245667e-02, -9.486627764999866486e-03, -5.933563783764839172e-02, 7.620428502559661865e-02, -1.619595848023891449e-02, -6.801588460803031921e-03, -2.762256003916263580e-02, -1.720915362238883972e-02, 8.279414474964141846e-02, -1.663073711097240448e-02, -3.027244843542575836e-02, 7.179119437932968140e-02, 3.429628536105155945e-02, -9.618561714887619019e-03, 7.894095033407211304e-02, 9.670827537775039673e-02, 6.894942373037338257e-02, 7.265435159206390381e-02, 7.300565391778945923e-02, 3.487401083111763000e-02, 5.868938937783241272e-02, -3.029474243521690369e-02, 5.851416662335395813e-02, -2.866508066654205322e-02, -1.618799380958080292e-02, -1.752862334251403809e-02, -1.614783890545368195e-02, 1.264681573957204819e-02, -2.663352340459823608e-02, 5.196859315037727356e-02, -2.072296291589736938e-02, 1.124179642647504807e-02, -1.797606796026229858e-02, -3.661863505840301514e-02, 3.685865178704261780e-02, 4.660859704017639160e-02
-1.830389373935759068e-05, -3.167219692841172218e-04, -1.404898357577621937e-04, -3.566757368389517069e-04, -5.400587688200175762e-04, -2.161297714337706566e-03, -4.898019251413643360e-04, 4.443841753527522087e-04, -7.935850881040096283e-04, -5.617865826934576035e-04, -1.484997337684035301e-03, 2.750066414591856301e-05, -2.889569441322237253e-05, -7.132814498618245125e-04, -3.586779639590531588e-04, -1.910892460728064179e-04, 7.729509961791336536e-04, -1.013037108350545168e-04, -1.117050924221985042e-04, -1.332525425823405385e-04, -2.332589938305318356e-04, 4.917251411825418472e-03, -1.474248274462297559e-04, -1.987451687455177307e-04, -5.711470148526132107e-04, -1.044929143972694874e-03, -3.453477984294295311e-04, -1.061099697835743427e-03, -4.445505328476428986e-03, -2.624515036586672068e-04, -3.017736889887601137e-04, -8.947595953941345215e-03, -4.042096770717762411e-05, -1.392542500980198383e-03, -3.329905914142727852e-03, -1.541749807074666023e-03, -1.586207188665866852e-02, -1.194941578432917595e-04, 4.103647952433675528e-04, 3.223908599466085434e-03, 3.380179638043045998e-03, 1.729180512484163046e-04, 1.391331083141267300e-03, -4.396810382604598999e-02, 6.554020196199417114e-02, 1.036612433381378651e-03, 7.244519074447453022e-04, -4.058974736835807562e-04, 2.023551240563392639e-02, -7.954540196806192398e-04, 7.190382108092308044e-03, -1.161893364042043686e-03, -1.389617827953770757e-04, -1.291853142902255058e-03, -3.871337976306676865e-04, -4.754217807203531265e-04, -7.408257079077884555e-05, 2.325241081416606903e-02, -6.374822114594280720e-04, 1.625965523999184370e-04, -1.505417749285697937e-03, -2.538570668548345566e-03, 2.313265763223171234e-02, 5.980727728456258774e-03, -9.682399686425924301e-04, 3.514350624755024910e-03, -2.464165911078453064e-03, 9.415877284482121468e-04, 6.314181722700595856e-03, -3.141348483040928841e-03, 1.502257306128740311e-02, 4.048960283398628235e-03, -5.076423258287832141e-05, 4.173974506556987762e-03, -2.881637308746576309e-03, 8.560590504202991724e-05, -9.866418549790978432e-04, -7.729612407274544239e-04, 2.247293712571263313e-03, 1.204462721943855286e-03, -5.834303447045385838e-04, -6.355328951030969620e-04, 9.306176070822402835e-05, 1.481257844716310501e-03, 5.894643836654722691e-04, -2.977923024445772171e-03, 2.310036688868422061e-05, 2.001043874770402908e-03, 3.132165642455220222e-03, -6.212557782419025898e-04, -1.274238456971943378e-03, -1.387992408126592636e-03, 4.686516523361206055e-02, -2.343534142710268497e-04, 5.157594569027423859e-03, -1.768462806940078735e-01, -3.480366140138357878e-04, 1.482521928846836090e-02, 1.127161202020943165e-03, 6.709285662509500980e-04, -1.380826681852340698e-01, -1.587884617038071156e-03, 2.049840521067380905e-03, 2.013118751347064972e-02, -2.713400684297084808e-02, 6.681851111352443695e-03, 1.198974400758743286e-01, -8.793817460536956787e-02, -7.947355508804321289e-02, 4.638408869504928589e-02, -1.696533709764480591e-01, 7.716213911771774292e-02, 5.761308595538139343e-02, 1.250818371772766113e-03, 1.474095229059457779e-02, 9.740528766997158527e-04, -7.549786823801696301e-04, -1.707617309875786304e-03, 1.108181197196245193e-03, 4.650310438591986895e-04, -1.802730374038219452e-03, 9.634206444025039673e-02, -9.741607937030494213e-05, 2.005537971854209900e-04, -7.744180038571357727e-05, -1.198992831632494926e-03, -6.753337383270263672e-02, 2.013665288686752319e-01, 9.364190191263332963e-05, -2.691469271667301655e-04, -1.715796533972024918e-04, -2.200332673965021968e-04, -2.127723768353462219e-03, -7.342583267018198967e-04, -4.409817629493772984e-04, -1.480469247326254845e-03, -4.684242594521492720e-04, -4.477776819840073586e-04, -1.020848285406827927e-03, 1.925187243614345789e-04, -5.861087629455141723e-05, -5.560679128393530846e-04, -4.639524559024721384e-04, -2.727508253883570433e-04, -4.222121497150510550e-04, -1.446746900910511613e-04, -1.389311219099909067e-04, -2.355562464799731970e-04, -1.953164319274947047e-04, -1.763713546097278595e-02, -1.450083509553223848e-04, -2.205864002462476492e-04, -4.488294362090528011e-04, -6.354273646138608456e-04, -3.224489919375628233e-04, -1.016934402287006378e-03, -7.585362531244754791e-03, -3.088494704570621252e-04, -4.222584830131381750e-04, 1.833561458624899387e-03, -5.574616807280108333e-05, -1.108342781662940979e-03, -3.800509730353951454e-03, -1.459021004848182201e-03, 1.520626153796911240e-02, -2.105716848745942116e-04, 5.745805683545768261e-04, 4.344091285020112991e-03, 1.370342331938445568e-03, -1.788642024621367455e-03, -5.527948495000600815e-03, -6.420437991619110107e-02, -5.538527667522430420e-02, 3.895269474014639854e-03, -1.533819455653429031e-02, -8.886727737262845039e-04, 1.716989465057849884e-02, -5.757369799539446831e-04, 1.535146031528711319e-02, -8.862831746228039265e-04, 5.677019544236827642e-06, -9.025069302879273891e-04, -3.149866533931344748e-04, -1.706417097011581063e-04, -5.973243605694733560e-05, 5.023311823606491089e-02, -3.006267070304602385e-04, -5.610833177343010902e-04, -1.195380464196205139e-03, -1.814610441215336323e-03, 1.813109405338764191e-02, 7.334778457880020142e-02, -8.406830602325499058e-04, -5.905961152166128159e-04, -7.438579923473298550e-04, -3.639794886112213135e-04, -4.180863033980131149e-03, -1.702729496173560619e-04, -2.710509870667010546e-04, -9.770725155249238014e-04, -8.025857387110590935e-04, -9.290389716625213623e-04, -1.494839321821928024e-03, -2.406380226602777839e-04, -9.011097426991909742e-05, -9.209700510837137699e-04, -3.757061786018311977e-04, -2.043162530753761530e-04, -1.290303934365510941e-02, -1.598742092028260231e-04, -3.705872804857790470e-04, -1.372665283270180225e-04, -2.530963683966547251e-04, 4.614197649061679840e-03, -6.735026836395263672e-04, -3.068332443945109844e-04, -6.475703557953238487e-04, -1.229566638357937336e-03, -1.825173676479607821e-04, -3.794599324464797974e-03, 3.352075582370162010e-04, -2.557266852818429470e-04, -1.809840789064764977e-03, 1.596104004420340061e-03, -4.165980135439895093e-05, -4.300469532608985901e-03, -3.130618948489427567e-03, -1.880643307231366634e-03, 2.670348621904850006e-03, -1.432309363735839725e-04, -1.614048029296100140e-03, 1.036855764687061310e-02, 2.641385886818170547e-03, 1.457282050978392363e-04, 3.830177476629614830e-03, 4.479569382965564728e-03, -7.285631727427244186e-03, 2.073307055979967117e-03, -1.574927126057446003e-03, 1.832309761084616184e-03, 1.897004619240760803e-02, -8.974581141956150532e-04, 4.385065753012895584e-03, -1.338693313300609589e-03, -1.264227757928892970e-04, -4.779533774126321077e-04, -3.949762030970305204e-04, -5.674331914633512497e-03, -1.570306776557117701e-04, 1.141062099486589432e-02, -7.689478225074708462e-04, 2.106755709974095225e-04, -1.425495953299105167e-03, -3.000631229951977730e-03, 6.897761486470699310e-03, 2.000319957733154297e-02
-3.783300053328275681e-05, -5.395399057306349277e-05, -3.876244591083377600e-05, 2.749041595961898565e-05, -1.687142002992914058e-06, 4.856001760344952345e-05, 6.407017281162552536e-06, -1.827512605814263225e-04, 4.824414645554497838e-07, -6.995522198849357665e-06, -4.593748017214238644e-04, 7.964852557051926851e-05, 2.182383104809559882e-05, -3.419864806346595287e-04, 3.676579126477008685e-06, -1.584112942509818822e-05, 3.957290609832853079e-04, 2.203526310040615499e-05, 5.290806802804581821e-05, 5.964862793916836381e-05, 7.587401796627091244e-06, 1.926444238051772118e-04, 4.608144536177860573e-06, 7.568282399006420746e-06, -1.000860211206600070e-04, 1.093198152375407517e-04, -2.381463418714702129e-04, -3.058180445805191994e-04, -5.234818090684711933e-04, -2.873397897928953171e-05, 1.846339728217571974e-05, -4.233811050653457642e-03, 2.499397851352114230e-05, -7.993418694240972400e-05, 5.707982345484197140e-04, 1.762811189109925181e-05, -3.888980718329548836e-04, -3.074593405472114682e-05, 7.986876880750060081e-05, 7.796986756147816777e-05, 5.245764623396098614e-04, 6.508537626359611750e-05, -6.265122647164389491e-05, -7.274670992046594620e-03, 1.112010329961776733e-02, 2.445253194309771061e-04, 3.100680478382855654e-04, -9.212940349243581295e-04, 4.283597809262573719e-05, 1.094306862796656787e-04, 7.992746541276574135e-04, 8.844541298458352685e-06, 3.013478635693900287e-05, -6.323138222796842456e-06, -2.123894228134304285e-05, 2.422937723167706281e-05, 4.461926073417998850e-05, 1.198250241577625275e-02, 3.964645657106302679e-05, 1.244996674358844757e-04, 7.113699393812566996e-05, -3.747823648154735565e-04, -1.912066363729536533e-03, 1.366319693624973297e-02, 1.925325195770710707e-04, -1.349331345409154892e-03, -1.221340149641036987e-03, -1.414867147104814649e-04, 8.349954150617122650e-04, -7.577215001219883561e-05, 1.189113245345652103e-03, 4.007649113191291690e-05, 4.150201275479048491e-04, -1.178077945951372385e-04, 3.168315161019563675e-04, 4.923143424093723297e-04, 2.700154618651140481e-05, -3.646862169262021780e-04, 3.292082692496478558e-04, -4.976413038093596697e-05, 2.199093432864174247e-04, -4.844190552830696106e-04, 9.230609866790473461e-04, 3.846313920803368092e-04, 1.258175689144991338e-05, -9.797238744795322418e-03, -1.115601553465239704e-04, -3.611739157349802554e-05, 1.175483805127441883e-03, 8.384475368075072765e-04, 1.266880426555871964e-04, -2.654802519828081131e-04, 8.354896679520606995e-03, 5.106889148009940982e-05, 1.956546475412324071e-04, -9.518890641629695892e-03, 6.865931791253387928e-04, 8.164114842656999826e-05, 2.805721014738082886e-04, 7.730974175501614809e-05, -6.893006619065999985e-03, -4.356000572443008423e-04, 1.258680858882144094e-04, 8.416598662734031677e-03, 1.615720451809465885e-03, 2.432578941807150841e-03, 7.161824498325586319e-03, 4.435483366250991821e-02, -1.423035562038421631e-02, 8.766048704273998737e-04, 3.554187947884202003e-03, 9.552364237606525421e-03, 4.622073378413915634e-03, -1.118446816690266132e-04, 8.438359363935887814e-04, -3.839480632450431585e-05, 1.291622465942054987e-04, -5.900461110286414623e-04, -3.366795426700264215e-04, -6.883994501549750566e-05, 5.253233757684938610e-05, -1.932201348245143890e-02, 1.965385672519914806e-05, -2.164092613384127617e-03, -3.270719025749713182e-04, -2.421176614006981254e-04, -5.505158565938472748e-03, 3.579997271299362183e-02, -1.851578781497664750e-05, -1.693195736152119935e-05, -3.314854257041588426e-05, 2.413014044577721506e-05, -6.831882728874916211e-06, 1.787510882422793657e-05, -1.617079942661803216e-05, 1.583154335094150156e-05, 2.399767254246398807e-05, -1.404760405421257019e-05, -2.210265956819057465e-04, 7.364433986367657781e-05, 1.633525425859261304e-05, -1.279572461498901248e-04, 3.154759951939922757e-06, -2.069599577225744724e-05, 2.359315840294584632e-04, 5.537236575037240982e-05, 8.568809789721854031e-06, 5.670137397828511894e-05, 3.042112257389817387e-05, 3.312426153570413589e-03, 3.384076308066141792e-06, 6.372008101607207209e-06, -6.731155735906213522e-05, 1.038185000652447343e-04, -1.100390800274908543e-04, -1.787954679457470775e-04, -1.862265489762648940e-04, -4.048390837851911783e-05, -5.826161941513419151e-05, 8.036487270146608353e-04, 3.170123090967535973e-05, -7.969026773935183883e-05, -5.365922115743160248e-04, 9.858451812760904431e-05, -2.912338532041758299e-04, -3.464561450527980924e-05, 1.172529664472676814e-04, 5.682571209035813808e-04, 3.427109622862190008e-04, 1.367663644487038255e-04, -1.260167337022721767e-03, -5.824515130370855331e-03, -1.483702566474676132e-03, 8.617886342108249664e-04, 3.169132396578788757e-03, 9.472230885876342654e-06, 3.431442193686962128e-03, 3.300894168205559254e-04, 1.843118923716247082e-03, 1.696443723631091416e-05, 1.245774819835787639e-05, -1.253437585546635091e-05, -1.773105032043531537e-05, 1.004770238068886101e-04, 9.366333870275411755e-06, 1.989652635529637337e-03, 3.428877244004979730e-05, 1.023372678901068866e-04, 1.058208508766256273e-04, -3.228899149689823389e-04, -1.140677719376981258e-03, 2.818908076733350754e-03, 3.540267061907798052e-05, -2.561218570917844772e-05, -1.935273394337855279e-05, 3.201645449735224247e-05, -1.052758962032385170e-04, 4.634130891645327210e-05, -3.568648708096588962e-06, 1.121701643569394946e-05, 4.246136086294427514e-05, -1.337290905212284997e-05, -4.167169972788542509e-04, 5.233056072029285133e-05, 1.316640373261179775e-05, -1.368038938380777836e-04, -6.343208497128216550e-06, -1.984495975193567574e-05, 7.220651605166494846e-05, -2.634202246554195881e-05, 4.484735200094291940e-06, 5.315407543093897402e-05, 3.444028334342874587e-05, 4.062523075845092535e-04, 6.606134775211103261e-06, -4.882735083810985088e-05, -1.062067749444395304e-04, 9.374045475851744413e-05, -2.884136629290878773e-04, 6.647427653660997748e-05, -1.714924874249845743e-04, -3.239740544813685119e-05, -1.029551931424066424e-04, 3.868179337587207556e-04, 6.839616253273561597e-05, -1.589696184964850545e-04, -1.358680747216567397e-04, 1.321605959674343467e-04, 5.449948948808014393e-04, -3.521252074278891087e-05, 2.364934480283409357e-04, 2.412950852885842323e-04, 3.242184466216713190e-04, 1.466133981011807919e-04, 1.415444567101076245e-04, 8.067025337368249893e-04, 3.150524280499666929e-04, 1.260097138583660126e-03, 7.135128253139555454e-04, -1.580264652147889137e-04, -1.099030196201056242e-04, 3.002840676344931126e-04, 7.134560146369040012e-04, 5.935623994446359575e-05, 3.055244087590835989e-05, -1.225841242558090016e-05, -2.403783128102077171e-06, 5.945894517935812473e-04, -2.329309791093692183e-05, 4.695693205576390028e-04, -4.434776656125904992e-06, 1.784177584340795875e-04, 1.401312765665352345e-04, -4.607228911481797695e-04, -6.016867118887603283e-04, 1.633440260775387287e-03
-1.100331428460776806e-03, 1.316046982537955046e-04, -8.549157064408063889e-05, -4.944324609823524952e-04, -1.244765473529696465e-03, -7.126143900677561760e-04, 1.764956832630559802e-04, -1.184478969662450254e-04, -1.796291209757328033e-03, -1.074855215847492218e-03, -3.078353591263294220e-03, -1.917336485348641872e-04, -6.560246110893785954e-04, -2.316407160833477974e-03, -3.098448214586824179e-04, -4.720231227111071348e-04, 3.162148641422390938e-04, 3.196916077286005020e-04, 2.149656647816300392e-04, -6.995467701926827431e-04, -3.338718379382044077e-04, 1.802419079467654228e-03, 1.623197567823808640e-05, 3.276476491009816527e-05, -5.560057470574975014e-04, -3.287357394583523273e-04, -1.113693462684750557e-03, -2.573161618784070015e-03, 2.274653688073158264e-02, -8.035749488044530153e-05, 6.004952010698616505e-04, -2.600919082760810852e-02, 9.850028436630964279e-05, -3.001752309501171112e-03, -2.902912674471735954e-03, -8.949046023190021515e-04, 4.080180078744888306e-02, -2.542992297094315290e-04, 8.497676753904670477e-05, -2.732021966949105263e-04, 3.883349942043423653e-03, -9.082980104722082615e-04, 6.533245556056499481e-03, -6.926492601633071899e-02, -1.238795965909957886e-01, -4.683670704253017902e-04, 2.761707641184329987e-03, 1.307416893541812897e-02, 4.506418947130441666e-03, -2.401781268417835236e-03, 1.855258597061038017e-03, -1.223759492859244347e-03, -1.500241778558120131e-04, 1.025056262733414769e-04, -3.827744512818753719e-04, 3.623088414315134287e-04, 3.273521724622696638e-05, 6.896838080137968063e-03, -1.504162210039794445e-03, 1.554210757603868842e-04, -1.164300134405493736e-03, -1.854396075941622257e-03, -7.160155568271875381e-03, 4.507435485720634460e-02, 2.612973912619054317e-05, 4.604522138833999634e-03, -3.806546796113252640e-03, 2.314586658030748367e-03, 2.458058996126055717e-03, -6.015066523104906082e-03, 1.154575380496680737e-03, 7.730029756203293800e-04, -1.096824184060096741e-02, -4.802698735147714615e-03, 9.089790983125567436e-04, -1.637669047340750694e-03, -5.197938997298479080e-03, -2.657787641510367393e-03, 1.098711742088198662e-03, -3.482805099338293076e-03, 3.864871978294104338e-04, 5.926545243710279465e-03, 1.569364569149911404e-03, -4.931502044200897217e-04, -3.103276016190648079e-03, 2.923429757356643677e-02, -6.027467316016554832e-04, 2.472924767062067986e-03, 3.588617779314517975e-03, -2.959988312795758247e-03, 7.488469127565622330e-04, -2.974220318719744682e-03, -7.204571366310119629e-02, -4.276848630979657173e-05, 9.795171208679676056e-04, -1.168560832738876343e-01, 4.500554641708731651e-04, -1.837256597355008125e-03, 7.423191564157605171e-04, -5.740947090089321136e-03, -8.983954787254333496e-02, -4.637369886040687561e-03, 1.274616108275949955e-03, 2.192473597824573517e-02, -1.677487418055534363e-02, 7.424609269946813583e-03, 1.547639369964599609e-01, -1.494374275207519531e-01, -1.224627047777175903e-01, 6.871863733977079391e-03, -1.511725969612598419e-02, 6.866398453712463379e-02, 4.709924384951591492e-02, 3.417253494262695312e-03, 3.039379417896270752e-02, 2.008990384638309479e-03, -6.942022591829299927e-04, 2.155525609850883484e-03, 5.253632552921772003e-03, -3.323578566778451204e-04, -4.245662596076726913e-03, 4.095011204481124878e-02, 4.720589611679315567e-03, 7.165648275986313820e-04, 2.505552722141146660e-03, 7.844169158488512039e-05, -5.196622014045715332e-02, -1.133908703923225403e-01, -7.941165240481495857e-04, -2.606836787890642881e-04, -5.032483022660017014e-05, -3.864354221150279045e-04, -1.294913585297763348e-03, -5.409844452515244484e-04, 3.315998183097690344e-04, -2.876683138310909271e-04, -1.489828224293887615e-03, -6.848747143521904945e-04, -1.938399160280823708e-03, -1.704843889456242323e-04, -4.724779573734849691e-04, -1.609639148227870464e-03, -1.861974888015538454e-04, -4.711102519650012255e-04, 4.441933415364474058e-04, -4.053735756315290928e-04, 2.225296047981828451e-04, -6.869652424938976765e-04, -2.521942078601568937e-04, -1.001525763422250748e-02, 1.867845094238873571e-05, 1.298206552746705711e-05, -4.372631374280899763e-04, -1.827456435421481729e-04, -4.063536471221596003e-04, -2.565026516094803810e-03, 1.206731516867876053e-02, -5.510525079444050789e-05, -1.304209872614592314e-04, 2.001957409083843231e-02, 8.027338481042534113e-05, -4.097414668649435043e-03, -3.002377226948738098e-03, -1.115868333727121353e-03, 8.179308846592903137e-03, -2.371490118093788624e-04, 4.092623712494969368e-04, 7.646643556654453278e-03, 5.954222753643989563e-03, -6.407390465028584003e-04, 2.983570843935012817e-02, 2.850424684584140778e-02, 3.292556479573249817e-02, -2.810031175613403320e-03, 6.552452221512794495e-03, 1.137551385909318924e-02, 2.676575258374214172e-02, -1.146148773841559887e-03, -2.390639670193195343e-02, -5.087130120955407619e-04, -2.232710394309833646e-04, 2.537060645408928394e-04, -2.883236738853156567e-04, 6.957832374610006809e-04, 2.322639920748770237e-04, -7.877497933804988861e-03, -9.293365292251110077e-04, 1.652138234931044281e-05, -7.261822465807199478e-04, -2.253245795145630836e-03, -4.299070686101913452e-03, -4.424846917390823364e-02, 1.868084218585863709e-04, -2.933620125986635685e-04, -1.083246388589031994e-06, -5.148030468262732029e-04, -1.161815831437706947e-03, -6.079069571569561958e-04, 2.159120922442525625e-04, -1.763235195539891720e-05, -1.993583515286445618e-03, -7.771062664687633514e-04, -2.702886005863547325e-03, -8.397014607908204198e-05, -3.444982285145670176e-04, -9.473758982494473457e-04, -1.628916797926649451e-04, -4.869209951721131802e-04, 3.752017160877585411e-03, -3.237017954234033823e-04, 1.909047714434564114e-04, -7.597741205245256424e-04, -3.303266712464392185e-04, 2.163846045732498169e-03, 1.025570145429810509e-05, -5.317069735610857606e-05, -4.928819835186004639e-04, -3.198741178493946791e-04, -1.177449710667133331e-03, -1.979808323085308075e-03, 8.824058808386325836e-03, -6.685683183604851365e-05, 1.507128763478249311e-04, 1.336428103968501091e-03, 9.795450023375451565e-05, -3.959249239414930344e-03, -1.478140475228428841e-03, -2.652693074196577072e-03, 1.058459398336708546e-03, -2.666081709321588278e-04, 3.313175984658300877e-04, 6.698042270727455616e-04, 4.406325053423643112e-03, -1.234485534951090813e-03, 7.381607312709093094e-03, 1.486614113673567772e-03, 5.992150865495204926e-03, -1.482799125369638205e-04, 2.601112006232142448e-03, 7.718342822045087814e-03, 9.492169134318828583e-03, -2.238405868411064148e-03, 3.788715926930308342e-03, -2.305291825905442238e-03, -3.689886361826211214e-04, 2.808891294989734888e-04, -2.855627972166985273e-04, 3.478533821180462837e-03, 8.750137203605845571e-05, -3.484173066681250930e-05, -1.583478064276278019e-03, 4.497050540521740913e-04, -9.339146781712770462e-04, -2.557711210101842880e-03, 4.255881067365407944e-03, -7.205077446997165680e-03
