2.581338956952095032e-02,4.205359145998954773e-02,9.040633589029312134e-02,-6.987795978784561157e-02,5.326645821332931519e-02,-1.781970448791980743e-02,5.733497906476259232e-03,2.744081243872642517e-02,-5.705734714865684509e-02,5.606901366263628006e-03,-1.436144579201936722e-03,1.421686913818120956e-02,5.891764163970947266e-02,-1.021375413984060287e-03,1.494461391121149063e-02,1.073984950780868530e-01,2.992724813520908356e-02,-4.303719103336334229e-02,3.127083182334899902e-02,-5.693703144788742065e-02,3.650804609060287476e-02,-1.783817633986473083e-02,-4.456913843750953674e-02,8.868290483951568604e-02,-7.552719861268997192e-02,1.133316382765769958e-02,5.439763888716697693e-02,-2.723565697669982910e-02,2.917349524796009064e-02,5.052891001105308533e-02,3.027690760791301727e-02,2.015785500407218933e-02,-2.563650161027908325e-02,1.174926571547985077e-02,1.634740643203258514e-02,1.954196579754352570e-02,3.074919991195201874e-02,-5.388813465833663940e-02,-3.340622782707214355e-02,2.654666081070899963e-03,1.563743920996785164e-03,-3.014018759131431580e-02,6.522101908922195435e-02,5.417678132653236389e-02,-1.457937248051166534e-02,8.687207847833633423e-02,8.297004736959934235e-03,-7.489042356610298157e-03,3.360799280926585197e-03,2.231913805007934570e-02,-2.225387282669544220e-02,4.595435410737991333e-02,5.405087396502494812e-02,3.109248355031013489e-03,1.476630102843046188e-02,2.119711786508560181e-02,4.204601794481277466e-02,1.467689406126737595e-02,2.095351368188858032e-02,-2.907384745776653290e-02,6.850964576005935669e-02,1.888321712613105774e-02,-2.832598239183425903e-02,2.846378646790981293e-02,-2.605736441910266876e-02,-1.106918528676033020e-01,9.337239712476730347e-02,3.868778236210346222e-03,4.199041798710823059e-02,1.192684844136238098e-02,-9.567017853260040283e-02,-1.214412674307823181e-01,5.191744491457939148e-02,2.702034451067447662e-02,-8.848834782838821411e-02,6.654449552297592163e-02,1.027694251388311386e-02,-6.620346009731292725e-02,4.807540029287338257e-02,7.910521700978279114e-03,-2.800979278981685638e-02,3.579492121934890747e-02,-3.401370346546173096e-02,2.276387438178062439e-02,2.165918983519077301e-02,9.389917552471160889e-02,9.148206561803817749e-02,1.285578906536102295e-01,-4.259372875094413757e-02,3.099165670573711395e-02,1.943330839276313782e-02,-9.129088371992111206e-02,-1.274585276842117310e-01,-1.257330030202865601e-01,1.194698289036750793e-01,2.020496875047683716e-02,7.428224384784698486e-02,-1.009257882833480835e-01,2.384426631033420563e-02,-1.514776237308979034e-02,-2.734278887510299683e-02,-6.888646632432937622e-02,5.392940342426300049e-02,-1.012836396694183350e-02,-7.247884571552276611e-02,1.161727458238601685e-01,-1.764607295626774430e-04,-6.997079402208328247e-02,-7.159329950809478760e-02,6.589041650295257568e-02,1.283881366252899170e-01,4.752465337514877319e-02,1.144372895359992981e-01,-9.348447620868682861e-02,-1.209832653403282166e-01,-1.067342609167098999e-01,4.981036856770515442e-02,2.127130143344402313e-02,-1.278863660991191864e-02,-5.871006846427917480e-02,-8.732073754072189331e-02,-7.172221690416336060e-02,8.253038860857486725e-03,-5.310445651412010193e-02,1.211763098835945129e-01,7.081683725118637085e-02,4.017929360270500183e-02,1.035767197608947754e-01,7.435724884271621704e-02,-2.353984117507934570e-02,9.449815005064010620e-02,-3.513696789741516113e-02,5.489172786474227905e-02,-5.559049174189567566e-02,2.848574658855795860e-03,5.289808660745620728e-02,3.722743690013885498e-02,2.585888467729091644e-02,5.600937083363533020e-02,-1.053594052791595459e-02,-1.733232662081718445e-02,5.919059365987777710e-02,9.758519008755683899e-03,8.587409555912017822e-02,-5.366824567317962646e-02,-2.018452249467372894e-02,1.547626312822103500e-02,6.055646017193794250e-02,-3.906566277146339417e-02,-1.542745251208543777e-02,-6.799373775720596313e-02,1.499593555927276611e-01,-6.443941593170166016e-02,-3.889527171850204468e-02,-1.552182156592607498e-02,-2.416796609759330750e-02,4.632414504885673523e-02,4.566735029220581055e-02,-3.462215885519981384e-02,7.327401079237461090e-03,2.630820311605930328e-02,-2.931160852313041687e-02,2.626846730709075928e-02,-7.147564738988876343e-02,-3.612384200096130371e-03,3.249346837401390076e-02,-4.584822058677673340e-02,1.699960092082619667e-03,2.482082322239875793e-02,7.437861058861017227e-04,1.086328029632568359e-01,2.430273778736591339e-02,-2.065729349851608276e-03,-2.442842908203601837e-02,1.163274198770523071e-01,7.569937407970428467e-02,-5.046068876981735229e-02,4.415705427527427673e-02,8.359518647193908691e-02,1.929450593888759613e-02,4.251356422901153564e-02,6.291442550718784332e-03,4.976802971214056015e-03,-1.406599581241607666e-02,4.566303268074989319e-02,2.902068383991718292e-02,-4.902643710374832153e-02,9.362079203128814697e-02,2.452664449810981750e-02,-1.524281315505504608e-02,4.957637190818786621e-02,-5.137088708579540253e-03,2.651357464492321014e-02,-2.847292460501194000e-02,1.459662616252899170e-01,-1.781802251935005188e-02,-7.120571285486221313e-02,-8.049005270004272461e-02,6.933453027158975601e-03,5.422707647085189819e-03,2.066134288907051086e-02,-4.883183166384696960e-03,4.761761054396629333e-03,-3.443010523915290833e-02,5.130874738097190857e-02,-1.694788597524166107e-02,1.106861018342897296e-04,3.590290248394012451e-02,5.592441931366920471e-02,2.556993812322616577e-02,-5.224075168371200562e-02,1.839360222220420837e-02,1.130914613604545593e-01,-8.687357418239116669e-03,-3.646071627736091614e-02,4.850891977548599243e-02,-6.925206631422042847e-02,1.004800386726856232e-02,-1.185066346079111099e-02,3.556435182690620422e-02,6.139906123280525208e-02,1.039306819438934326e-01,1.604958437383174896e-02,9.003649465739727020e-03,-7.700341194868087769e-02,1.725826784968376160e-02,2.021087519824504852e-02,-1.759877614676952362e-02,5.005348101258277893e-02,2.481279894709587097e-02,-7.948420196771621704e-02,1.125751994550228119e-03,-5.766804143786430359e-02,2.332601882517337799e-02,5.117726325988769531e-02,4.777774214744567871e-02,-4.247470758855342865e-03,-3.506284207105636597e-02,-1.957217231392860413e-02,4.206977039575576782e-02,8.527366444468498230e-03,5.302786827087402344e-03,7.079325616359710693e-02,6.197233498096466064e-02,-1.024249047040939331e-01,-4.124320670962333679e-02,9.228639304637908936e-03,-8.600223809480667114e-02,7.630991935729980469e-02,4.375562071800231934e-02,-9.357983618974685669e-02,4.682281985878944397e-02,9.049474261701107025e-03,1.751888357102870941e-02,-6.630124151706695557e-02,1.876564882695674896e-02
7.963256537914276123e-02,5.307558551430702209e-02,9.428552538156509399e-02,-7.355542480945587158e-02,-4.047663509845733643e-02,2.928761299699544907e-03,-9.187491238117218018e-02,2.070533297955989838e-02,-7.684296369552612305e-02,-5.065884813666343689e-02,4.408134613186120987e-03,7.079288363456726074e-02,8.539034426212310791e-02,3.657171502709388733e-02,-7.002245634794235229e-02,3.325322642922401428e-02,-4.485639184713363647e-02,-6.213627010583877563e-02,1.078115850687026978e-01,-7.136276364326477051e-02,-2.888553775846958160e-02,-6.933304015547037125e-03,9.858900308609008789e-02,-2.773449197411537170e-02,8.322723209857940674e-02,-9.807417541742324829e-02,-1.041326150298118591e-01,5.626694113016128540e-02,-6.357429921627044678e-02,6.727213412523269653e-02,2.672830969095230103e-02,-2.872205711901187897e-02,1.026137471199035645e-01,7.160422974266111851e-04,-5.958512052893638611e-02,5.709921196103096008e-02,6.977694481611251831e-02,1.314825657755136490e-02,-4.481821879744529724e-02,-2.918795309960842133e-02,-7.265364378690719604e-02,-6.962925940752029419e-02,5.244247242808341980e-02,8.157014101743698120e-02,-6.879385560750961304e-02,-6.609130650758743286e-02,-2.129157818853855133e-02,7.926674187183380127e-02,-2.770173549652099609e-02,-2.654536813497543335e-02,-7.830031961202621460e-02,6.562442984431982040e-03,-3.228617087006568909e-02,-4.201657697558403015e-02,-3.974247723817825317e-02,1.483847107738256454e-02,-1.083527877926826477e-01,-7.025692611932754517e-02,-5.229882150888442993e-02,-5.193856358528137207e-02,-1.654224935919046402e-03,-7.168567925691604614e-02,7.481408119201660156e-02,-4.365020245313644409e-02,-4.395480453968048096e-02,-2.648034133017063141e-02,9.390478581190109253e-02,8.943767845630645752e-02,-1.246551647782325745e-01,-4.231308028101921082e-02,-7.822125405073165894e-02,-8.836004883050918579e-03,8.676678687334060669e-02,-2.624326618388295174e-03,-1.290638279169797897e-02,-5.786666646599769592e-02,-1.076532900333404541e-02,-3.766375780105590820e-02,1.026563048362731934e-01,-1.471084263175725937e-02,1.129757612943649292e-01,1.078197434544563293e-01,-1.104132384061813354e-01,3.983177244663238525e-02,-1.369161754846572876e-01,4.628684744238853455e-02,-5.734641477465629578e-02,-6.103770062327384949e-02,-7.242368161678314209e-02,4.656600207090377808e-02,6.084883958101272583e-02,3.336582332849502563e-02,-6.752575188875198364e-02,1.133360154926776886e-02,2.612247690558433533e-02,-3.694499284029006958e-02,-8.187884837388992310e-02,-8.789756894111633301e-02,5.296069383621215820e-02,-5.541637167334556580e-02,8.717221207916736603e-03,-9.514474123716354370e-02,4.937648028135299683e-02,4.716827720403671265e-02,-7.279267162084579468e-02,1.051431894302368164e-02,4.769959673285484314e-02,1.146828904747962952e-01,-7.078659534454345703e-02,1.601591892540454865e-02,6.799962371587753296e-02,1.947767101228237152e-02,-8.211284130811691284e-02,3.470916301012039185e-02,-9.062276035547256470e-02,-1.155463978648185730e-01,-1.310628950595855713e-01,1.474945573136210442e-03,4.413218796253204346e-02,6.740062683820724487e-02,-5.179571732878684998e-02,-2.482480369508266449e-02,1.207848489284515381e-01,-1.593318767845630646e-02,5.696294456720352173e-02,-8.331624418497085571e-02,-1.293451990932226181e-03,-1.481949165463447571e-02,-5.599988624453544617e-02,-1.016513258218765259e-01,1.204497292637825012e-01,2.514574863016605377e-02,1.691526151262223721e-03,-1.505830883979797363e-02,1.952816732227802277e-02,1.130829602479934692e-01,8.606912195682525635e-02,3.805054351687431335e-02,5.372710060328245163e-03,3.017600625753402710e-02,1.106655132025480270e-02,-6.630858778953552246e-02,-5.010524764657020569e-02,-9.478747844696044922e-02,1.004534400999546051e-02,-2.776668220758438110e-02,8.105374872684478760e-02,1.284562889486551285e-02,-6.976954638957977295e-02,-3.198426589369773865e-02,1.052759066224098206e-01,9.637185186147689819e-02,9.538767486810684204e-02,2.937730588018894196e-02,-2.322803437709808350e-02,8.920264244079589844e-02,5.680078640580177307e-02,7.412122189998626709e-02,4.113566502928733826e-02,-2.073103561997413635e-02,-9.760647267103195190e-02,-4.623597487807273865e-02,2.040683059021830559e-03,-1.352151017636060715e-02,6.297001987695693970e-02,8.633661270141601562e-02,6.457228213548660278e-02,-5.737229436635971069e-02,-2.894615940749645233e-02,2.478910982608795166e-02,-7.040028274059295654e-02,-1.672539487481117249e-02,1.366483420133590698e-02,5.249219760298728943e-02,1.521898806095123291e-02,1.062017232179641724e-01,2.431495580822229385e-03,-6.817112863063812256e-02,-6.852397322654724121e-02,1.127376109361648560e-01,-6.830567866563796997e-02,6.258518993854522705e-02,-1.338823640253394842e-04,1.411885861307382584e-02,6.181284785270690918e-02,1.117706000804901123e-01,5.263220518827438354e-02,9.252245724201202393e-02,4.401984438300132751e-02,-2.867305092513561249e-02,-7.325306534767150879e-02,-5.007983371615409851e-02,-6.978178024291992188e-02,-4.856193810701370239e-02,-5.713375657796859741e-02,-3.382436186075210571e-02,-4.960910230875015259e-02,-7.397134602069854736e-02,5.858898907899856567e-02,9.233734011650085449e-02,9.618439525365829468e-02,-3.144023939967155457e-02,8.114903233945369720e-03,9.332065284252166748e-02,-4.260553047060966492e-02,-2.986645512282848358e-02,-3.761037066578865051e-02,-9.237964451313018799e-02,4.892589990049600601e-03,-6.723834574222564697e-02,-8.659070357680320740e-03,1.498080324381589890e-02,-1.040531247854232788e-01,-2.056814543902873993e-02,2.470828220248222351e-02,3.948355093598365784e-02,7.369145005941390991e-02,8.388936519622802734e-02,-5.375192686915397644e-02,1.313168257474899292e-01,-8.388677984476089478e-02,-8.721363544464111328e-02,-6.643971893936395645e-03,-8.221194893121719360e-02,4.327439703047275543e-03,-6.984205543994903564e-02,-2.812410704791545868e-02,-7.313071191310882568e-02,-5.245841667056083679e-02,6.981784850358963013e-02,5.297281220555305481e-02,-6.727328151464462280e-02,1.119947619736194611e-02,-4.695116076618432999e-03,7.033434510231018066e-02,-4.770960658788681030e-02,5.367022007703781128e-02,2.257777564227581024e-02,7.720695436000823975e-02,3.546580299735069275e-02,4.767431691288948059e-02,6.324909627437591553e-02,-4.614709690213203430e-02,7.886957377195358276e-02,-9.553351253271102905e-02,-3.166499361395835876e-02,3.977454826235771179e-02,6.225835997611284256e-03,5.049296468496322632e-02,-3.634771332144737244e-02,-4.562350362539291382e-02,-3.458075458183884621e-03,-4.368002712726593018e-02,-1.838224194943904877e-02,5.025251954793930054e-02,-1.026773080229759216e-02
-7.079820334911346436e-02,-4.825129359960556030e-02,8.684786409139633179e-02,6.129832193255424500e-02,-8.110491931438446045e-02,3.606271371245384216e-02,3.267014026641845703e-02,-8.724997192621231079e-02,-7.745702564716339111e-02,5.876018106937408447e-02,6.176143512129783630e-02,-1.353712566196918488e-02,-5.547003820538520813e-02,1.814459566958248615e-03,2.930007316172122955e-02,2.031775377690792084e-02,2.510757744312286377e-02,1.505830604583024979e-02,4.832909256219863892e-02,3.015150874853134155e-02,-1.261499524116516113e-02,7.318112254142761230e-02,-8.738868683576583862e-02,2.142678573727607727e-02,-1.817284524440765381e-02,2.988916821777820587e-03,1.555468700826168060e-02,-4.948578029870986938e-02,-4.301942419260740280e-03,-3.508388996124267578e-02,-7.904082536697387695e-03,6.429605931043624878e-02,3.934285044670104980e-02,-5.833101272583007812e-02,4.336825013160705566e-02,4.577585309743881226e-02,9.350827336311340332e-02,1.411390211433172226e-02,5.191620811820030212e-02,-2.839185297489166260e-02,-6.658740341663360596e-02,4.907777532935142517e-02,6.719525158405303955e-02,8.587893843650817871e-02,-5.898999422788619995e-02,-3.893380612134933472e-02,3.407629206776618958e-02,5.969990789890289307e-02,4.707904160022735596e-02,-4.425347596406936646e-02,-9.384011477231979370e-02,6.562048941850662231e-02,9.742913395166397095e-02,-1.559343282133340836e-02,-5.397381260991096497e-02,-2.303832024335861206e-02,5.096243321895599365e-02,-8.394031226634979248e-02,-6.392685323953628540e-02,3.067748248577117920e-02,-6.931257247924804688e-02,-6.351565010845661163e-03,1.631602831184864044e-02,-9.347448125481605530e-03,1.535461004823446274e-02,2.669904497452080250e-04,9.309078752994537354e-02,-2.541014738380908966e-02,4.108268022537231445e-02,-6.002999097108840942e-02,3.142696619033813477e-02,9.667439013719558716e-02,9.715841710567474365e-02,8.751127868890762329e-02,-4.691810533404350281e-02,8.357451111078262329e-02,4.014142602682113647e-02,-9.546385705471038818e-02,-6.045723706483840942e-02,-1.401504315435886383e-02,1.147578582167625427e-01,-3.197116032242774963e-02,7.154822349548339844e-02,1.076757982373237610e-01,-3.019051626324653625e-03,1.093204692006111145e-01,-1.208731457591056824e-01,3.092130087316036224e-02,-3.582317382097244263e-02,3.609299287199974060e-02,-3.357802703976631165e-02,1.027202829718589783e-01,3.703282028436660767e-02,5.246111005544662476e-02,-8.512412756681442261e-02,8.041645586490631104e-02,-2.024555206298828125e-02,1.109884008765220642e-01,4.949700832366943359e-02,9.253639727830886841e-02,-1.060262843966484070e-01,-8.604648709297180176e-02,9.768936783075332642e-02,-5.487592145800590515e-02,-9.282964468002319336e-02,6.461708247661590576e-02,-5.789054185152053833e-02,1.062881425023078918e-01,6.871922314167022705e-02,8.114321529865264893e-02,-7.262771576642990112e-02,4.166347905993461609e-02,1.201026886701583862e-01,2.835394442081451416e-02,5.780474841594696045e-02,1.342314295470714569e-02,4.191178083419799805e-02,2.564277127385139465e-02,6.830079853534698486e-02,6.402655970305204391e-03,-9.759212285280227661e-02,-9.015641361474990845e-02,-1.221403703093528748e-01,5.508552864193916321e-02,2.366799488663673401e-02,-3.680270537734031677e-02,9.737561643123626709e-02,1.339424983598291874e-03,7.726964354515075684e-02,-4.966079443693161011e-02,-1.070277183316648006e-03,-1.186758354306221008e-01,6.406742334365844727e-02,2.764911018311977386e-02,6.964328140020370483e-02,-9.239390492439270020e-02,9.302225708961486816e-02,4.463263973593711853e-02,-3.879390656948089600e-02,-9.394181519746780396e-02,8.603778481483459473e-02,-1.156000513583421707e-02,7.664685603231191635e-03,2.640122780576348305e-03,-3.024907782673835754e-02,5.288733169436454773e-02,-5.601943936198949814e-03,-5.854503065347671509e-02,-1.175936125218868256e-02,7.152917236089706421e-02,7.351793348789215088e-02,-6.815730780363082886e-02,4.703578352928161621e-02,1.017738357186317444e-01,5.871660076081752777e-03,-7.707692682743072510e-02,-7.957815378904342651e-02,-2.561095915734767914e-02,6.577865779399871826e-02,5.836848542094230652e-02,1.024142652750015259e-02,-6.751587986946105957e-02,4.877858236432075500e-02,-6.959514319896697998e-02,-7.965609431266784668e-02,8.167548105120658875e-03,-7.742669433355331421e-02,-3.408683091402053833e-02,-9.251435846090316772e-02,6.730940192937850952e-02,7.457689195871353149e-02,3.238378465175628662e-02,5.650427564978599548e-02,5.105244927108287811e-04,5.400563031435012817e-02,-8.687634021043777466e-02,-5.156356468796730042e-02,-5.153035372495651245e-02,1.739726212690584362e-05,2.994874119758605957e-02,-6.053924188017845154e-02,-4.260258376598358154e-02,2.822320722043514252e-02,5.419225618243217468e-02,-5.539841949939727783e-02,-4.790640994906425476e-02,-1.252714730799198151e-02,3.360755741596221924e-02,-1.053110063076019287e-01,2.546509169042110443e-02,3.787837177515029907e-02,5.424256622791290283e-02,5.670630186796188354e-02,4.461822286248207092e-02,7.340972125530242920e-02,-1.011242419481277466e-01,8.132848888635635376e-03,-1.260221283882856369e-02,8.649513125419616699e-03,2.313313074409961700e-02,-5.447998177260160446e-03,2.707170136272907257e-02,4.782496392726898193e-02,-5.061935633420944214e-02,-8.957698009908199310e-03,4.804132506251335144e-02,3.337275236845016479e-02,-4.010936990380287170e-02,3.284048289060592651e-02,-6.888692826032638550e-02,3.258623182773590088e-02,8.110632747411727905e-02,9.816387295722961426e-02,3.601635619997978210e-02,-7.891356199979782104e-02,4.810910671949386597e-02,-5.769751593470573425e-02,2.652559429407119751e-02,3.780685365200042725e-02,-3.002061741426587105e-03,6.791839748620986938e-02,-2.159378677606582642e-02,-8.414215594530105591e-02,4.560876637697219849e-02,7.328021526336669922e-02,2.890874631702899933e-02,5.025662109255790710e-02,6.381645798683166504e-02,1.052652969956398010e-01,-5.274840444326400757e-02,4.656960815191268921e-02,3.906760737299919128e-02,-2.212001569569110870e-02,3.726329654455184937e-03,3.556962311267852783e-02,3.626905847340822220e-03,-6.841251254081726074e-02,5.281610786914825439e-02,8.541785180568695068e-03,8.913530409336090088e-02,-5.193062126636505127e-02,6.687742471694946289e-02,1.255525369197130203e-02,4.224586486816406250e-02,3.792042657732963562e-02,-6.864071637392044067e-02,-3.434473276138305664e-02,5.923750624060630798e-02,1.003752872347831726e-01,-1.032083854079246521e-01,6.387026607990264893e-02,-4.633637890219688416e-02,6.778304278850555420e-02,-2.911146916449069977e-02,-7.611138373613357544e-02,4.161952808499336243e-02
9.079612046480178833e-02,-6.176713854074478149e-02,-1.021486823447048664e-03,-3.818423673510551453e-02,7.965560257434844971e-02,-5.433767288923263550e-02,-5.377714987844228745e-03,-1.368655730038881302e-02,-2.088817954063415527e-02,1.897872798144817352e-02,-4.857822495978325605e-04,2.581889554858207703e-02,2.158080786466598511e-02,2.443984383717179298e-03,-6.137517094612121582e-02,2.908726409077644348e-02,1.069556549191474915e-02,2.595351077616214752e-02,-8.568811416625976562e-02,-3.066157922148704529e-02,-7.432845979928970337e-02,7.100284844636917114e-02,1.973558962345123291e-02,4.709798097610473633e-02,-3.390587866306304932e-02,-5.395275354385375977e-02,-1.643814332783222198e-02,9.602116793394088745e-02,-4.531386494636535645e-02,5.325471609830856323e-02,5.816495046019554138e-02,4.755590111017227173e-02,1.354931388050317764e-02,-4.578015580773353577e-02,2.582171233370900154e-03,-2.640823274850845337e-02,-8.515902608633041382e-02,6.552277598530054092e-03,6.830438226461410522e-02,-6.672427803277969360e-02,1.980660110712051392e-02,2.091515064239501953e-02,4.184484854340553284e-02,6.282971799373626709e-02,3.762863203883171082e-02,5.012859404087066650e-02,-5.155167728662490845e-02,4.864316806197166443e-02,-7.523197215050458908e-03,1.987508125603199005e-02,-1.909652492031455040e-03,-6.794849783182144165e-02,4.762811120599508286e-03,2.707444690167903900e-02,-3.702456131577491760e-02,3.875678032636642456e-02,6.476256996393203735e-02,-9.491511434316635132e-02,2.688399516046047211e-03,-2.904425840824842453e-03,3.341181576251983643e-02,-1.115558948367834091e-02,-1.698165759444236755e-02,4.840334504842758179e-02,-3.663558140397071838e-02,-1.247946321964263916e-01,9.494651854038238525e-02,3.177016973495483398e-02,4.491322860121726990e-02,-3.007473610341548920e-02,2.871226891875267029e-02,-6.307475268840789795e-02,-7.084453105926513672e-02,7.715220749378204346e-02,-1.136930286884307861e-01,-5.048991297371685505e-04,-5.812765285372734070e-02,9.696645289659500122e-02,2.023077337071299553e-03,-1.698666624724864960e-02,2.883866056799888611e-02,-9.634483605623245239e-02,5.500133708119392395e-02,-4.649362713098526001e-02,-8.534990996122360229e-02,-5.060302792116999626e-04,2.671374380588531494e-02,-2.885101549327373505e-02,8.418803662061691284e-02,4.766120389103889465e-02,8.361609280109405518e-02,7.170274108648300171e-02,-4.268545284867286682e-02,3.179582953453063965e-02,3.064464963972568512e-02,1.030390039086341858e-01,-1.240697801113128662e-01,8.204788714647293091e-02,4.787038266658782959e-02,7.804653048515319824e-02,2.159737423062324524e-02,-7.989370077848434448e-02,7.805721461772918701e-02,-2.145625837147235870e-02,2.614696882665157318e-02,-7.943955133669078350e-04,-4.663718864321708679e-02,-1.230301219038665295e-03,1.710041309706866741e-03,8.224491775035858154e-02,-8.635406941175460815e-02,-6.028596684336662292e-02,4.525232687592506409e-02,5.418506637215614319e-02,2.647436596453189850e-02,1.241689547896385193e-01,1.225162018090486526e-02,-3.460377082228660583e-02,7.843397557735443115e-02,7.505442947149276733e-02,1.180124804377555847e-01,1.207514852285385132e-01,1.308938413858413696e-01,9.998643398284912109e-02,-7.046929746866226196e-02,-3.547525778412818909e-02,-1.231731474399566650e-01,9.968005120754241943e-02,7.414025813341140747e-02,-1.956213824450969696e-02,6.571553647518157959e-02,7.172711938619613647e-02,6.090160086750984192e-02,-4.588189721107482910e-02,-5.496906861662864685e-02,-3.743759542703628540e-02,5.999369174242019653e-02,2.856188267469406128e-02,3.944117575883865356e-02,1.836917549371719360e-02,6.346660107374191284e-02,-6.029463373124599457e-03,1.159273367375135422e-02,-8.021985739469528198e-02,-2.599387988448143005e-02,-7.426884770393371582e-02,-8.401592075824737549e-02,-5.493803415447473526e-03,-9.625630080699920654e-02,7.342670857906341553e-02,8.377059362828731537e-03,3.407065197825431824e-02,4.971437901258468628e-02,1.624814234673976898e-02,-5.003971233963966370e-02,7.253848016262054443e-02,-5.471832677721977234e-02,-6.081830337643623352e-02,-9.288837015628814697e-02,-3.722178936004638672e-02,-8.034073561429977417e-02,6.612971425056457520e-02,-1.755444146692752838e-02,-5.709255114197731018e-02,-9.021680057048797607e-02,-6.709910929203033447e-02,4.899197071790695190e-02,2.702737227082252502e-02,-4.313291981816291809e-02,2.673193067312240601e-02,3.772252425551414490e-02,6.313903629779815674e-02,2.091442607343196869e-02,-8.175130933523178101e-02,8.801276236772537231e-02,2.877222001552581787e-02,-5.894587840884923935e-03,2.343180775642395020e-02,9.831414557993412018e-03,8.272227644920349121e-02,7.208384573459625244e-02,-2.766705816611647606e-03,6.341893225908279419e-02,-3.885827027261257172e-04,-2.689995244145393372e-02,-1.109274774789810181e-01,-1.829771883785724640e-02,2.230298332870006561e-02,-1.681550033390522003e-02,2.710075117647647858e-02,3.772237338125705719e-03,-3.966031968593597412e-02,-1.079213395714759827e-01,9.901683777570724487e-02,2.082551270723342896e-02,5.111096054315567017e-02,8.354293555021286011e-02,-5.374762043356895447e-02,-5.015972629189491272e-02,2.347282133996486664e-02,-5.373163521289825439e-02,3.045867383480072021e-02,-4.324429854750633240e-02,6.669082492589950562e-02,-1.687697693705558777e-02,2.518971823155879974e-02,4.274564795196056366e-03,-7.796827703714370728e-02,-5.084975063800811768e-02,-4.562276974320411682e-02,-4.948923736810684204e-02,-6.849421560764312744e-02,5.645611789077520370e-03,7.645113859325647354e-03,4.932883009314537048e-02,-4.141243547201156616e-02,-1.440428569912910461e-02,-1.169310417026281357e-02,2.240525558590888977e-02,8.544910699129104614e-02,-7.455067336559295654e-02,-6.258303672075271606e-02,2.521361783146858215e-02,2.783715538680553436e-02,5.269156396389007568e-02,-1.825398299843072891e-03,6.745665334165096283e-03,-3.844503313302993774e-02,4.982697963714599609e-02,-8.914021775126457214e-03,-4.174325242638587952e-02,-2.690146863460540771e-02,4.681813716888427734e-02,2.507552504539489746e-02,-5.135301128029823303e-02,5.706701055169105530e-02,5.038186162710189819e-02,8.398729376494884491e-03,-5.020646378397941589e-02,-9.785263799130916595e-03,7.851994037628173828e-02,5.634544789791107178e-02,-9.495875984430313110e-02,-2.080935612320899963e-02,-1.149792820215225220e-01,7.583093643188476562e-02,-1.742004044353961945e-02,9.457307308912277222e-02,-9.594555012881755829e-03,7.803332060575485229e-02,-6.574617326259613037e-02,-8.057879284024238586e-03,7.264934480190277100e-03,-9.533768519759178162e-03,4.385797679424285889e-02,-6.318080425262451172e-02
8.504632860422134399e-02,9.786806255578994751e-02,8.633927255868911743e-02,9.251200407743453979e-02,2.449838258326053619e-02,-7.156267762184143066e-02,4.741561040282249451e-02,-1.549878995865583420e-02,-1.047204807400703430e-01,1.549012493342161179e-02,5.208132788538932800e-02,7.772246003150939941e-02,1.011934597045183182e-02,-4.141478240489959717e-02,-5.470541864633560181e-02,-3.770830482244491577e-02,-1.402529422193765640e-02,4.739670082926750183e-02,-8.261730894446372986e-03,-1.470471266657114029e-02,6.143447011709213257e-02,-5.513987690210342407e-02,8.058611303567886353e-02,-1.898264512419700623e-02,3.195500746369361877e-02,8.844767510890960693e-02,-1.093694344162940979e-01,9.024212509393692017e-02,-2.430230192840099335e-02,-3.336170222610235214e-03,3.732994943857192993e-02,1.609497144818305969e-02,1.283554080873727798e-02,5.751780793070793152e-02,-1.975995115935802460e-02,-2.783308550715446472e-02,-5.794421210885047913e-02,4.402863979339599609e-02,1.295768376439809799e-02,3.712257742881774902e-02,-4.677980020642280579e-02,-8.734617382287979126e-02,-7.249102462083101273e-03,-1.087153181433677673e-01,-4.063570126891136169e-02,6.307575106620788574e-02,1.023047044873237610e-01,1.313471142202615738e-02,8.298386633396148682e-02,-1.010739430785179138e-02,6.259090453386306763e-02,-9.095595218241214752e-03,-9.236577153205871582e-02,-9.104087203741073608e-02,-7.964558154344558716e-02,-3.754222020506858826e-02,-7.468110322952270508e-02,9.037861973047256470e-02,1.195246949791908264e-01,8.326084911823272705e-02,-2.544515067711472511e-03,-8.525292575359344482e-02,2.236654423177242279e-02,-2.045837789773941040e-02,7.305315136909484863e-02,-7.267375942319631577e-03,-4.636512696743011475e-02,-2.102788724005222321e-02,1.665577292442321777e-02,7.465351372957229614e-02,8.365203440189361572e-02,-1.124442368745803833e-01,-3.238813579082489014e-02,-6.975466012954711914e-02,8.749164640903472900e-02,-1.170806512236595154e-01,-3.839042782783508301e-02,6.047977507114410400e-02,-5.987603217363357544e-02,-3.145691007375717163e-03,9.103344380855560303e-02,-4.966633394360542297e-02,7.646489143371582031e-02,6.727355998009443283e-03,6.791117042303085327e-02,9.927873313426971436e-02,-1.074209511280059814e-01,6.892714649438858032e-02,-1.054771617054939270e-01,-3.550962777808308601e-03,-9.114673733711242676e-02,-7.488065958023071289e-02,3.206796944141387939e-02,3.144329041242599487e-02,-9.487658739089965820e-02,8.399391174316406250e-02,-5.301507189869880676e-03,-9.103506058454513550e-02,6.896851956844329834e-02,-6.213812157511711121e-02,8.011323958635330200e-02,3.134452924132347107e-02,7.533606886863708496e-02,-5.514217540621757507e-02,-1.015938743948936462e-01,1.074971351772546768e-02,6.006878241896629333e-02,-7.105123996734619141e-02,-5.184889232623390853e-05,-6.076415255665779114e-02,1.014825049787759781e-02,-9.938403964042663574e-02,-9.475378692150115967e-02,8.096733689308166504e-02,4.270550608634948730e-02,3.760765120387077332e-02,2.032182877883315086e-03,-8.026005327701568604e-02,5.088571086525917053e-02,8.938013017177581787e-02,1.041664034128189087e-01,-2.039479836821556091e-02,8.638230711221694946e-02,1.206986159086227417e-01,1.085308641195297241e-01,-5.561250820755958557e-02,-9.001521021127700806e-02,-1.113556623458862305e-01,-1.149169355630874634e-01,2.712930552661418915e-02,9.591787308454513550e-02,1.850385591387748718e-02,8.359888195991516113e-02,6.625689566135406494e-02,-5.898184701800346375e-02,-7.205285876989364624e-02,4.403568431735038757e-02,-1.623350568115711212e-02,-1.179253906011581421e-01,-8.968322724103927612e-02,9.570614434778690338e-03,1.456314511597156525e-02,-6.251001358032226562e-02,2.789848111569881439e-02,-5.584304220974445343e-03,-2.183919539675116539e-03,1.250326354056596756e-02,-4.204544052481651306e-02,4.501229617744684219e-03,-1.142060458660125732e-01,-6.262999027967453003e-02,5.676772445440292358e-02,-1.023676991462707520e-01,-6.800354272127151489e-02,-1.239277347922325134e-01,1.038113422691822052e-02,-7.785267382860183716e-02,-7.831703126430511475e-02,-5.908857285976409912e-02,-4.462142661213874817e-02,-8.743011951446533203e-02,4.612599685788154602e-02,-8.921594172716140747e-02,-3.389402851462364197e-02,2.659885026514530182e-02,6.423170864582061768e-02,-8.424026519060134888e-02,-4.484864696860313416e-02,1.333956271409988403e-01,-8.753848820924758911e-02,1.316612586379051208e-03,-6.446674466133117676e-02,-2.858405001461505890e-02,3.993073478341102600e-02,-9.567029029130935669e-02,-1.652234606444835663e-02,8.130467683076858521e-02,4.980259761214256287e-02,-7.691416144371032715e-02,7.657233625650405884e-02,-6.198678631335496902e-03,4.209947213530540466e-02,-2.845056541264057159e-02,6.782356649637222290e-02,8.389344811439514160e-02,1.178943514823913574e-01,7.574363052845001221e-02,7.894701324403285980e-03,-5.084176361560821533e-02,-1.098011154681444168e-02,2.288069017231464386e-02,3.281845152378082275e-02,-6.971763819456100464e-02,5.386048182845115662e-02,-2.572789601981639862e-02,1.308045387268066406e-01,5.621095374226570129e-02,-3.506591543555259705e-02,-9.449805947951972485e-04,1.199002191424369812e-01,-8.089970797300338745e-02,5.398351699113845825e-02,-2.590625174343585968e-02,1.424345653504133224e-02,-5.638387519866228104e-03,-1.284035760909318924e-02,5.460564792156219482e-02,-6.639727950096130371e-02,6.473890691995620728e-02,-5.106709897518157959e-02,1.208741888403892517e-01,5.509451497346162796e-03,-1.086104661226272583e-03,7.074632495641708374e-02,3.987709060311317444e-02,-8.890952914953231812e-02,-1.737553626298904419e-02,-8.434509485960006714e-02,-1.005107760429382324e-01,1.016524508595466614e-01,-3.809612989425659180e-02,-9.908576309680938721e-02,5.860216543078422546e-02,-1.021007150411605835e-01,1.098006814718246460e-01,-2.561900019645690918e-02,2.459025382995605469e-02,-4.859395325183868408e-02,6.126267835497856140e-02,-3.050485160201787949e-03,9.778150171041488647e-02,5.126607045531272888e-02,-7.995439320802688599e-02,3.229405358433723450e-02,-8.386632800102233887e-02,-1.052835583686828613e-01,-8.807437121868133545e-02,8.516912162303924561e-02,2.463256940245628357e-02,-9.907909482717514038e-02,-2.578723616898059845e-02,-7.516127079725265503e-02,1.808887720108032227e-02,-1.164451707154512405e-03,-2.143837511539459229e-02,-3.963989671319723129e-03,3.370613558217883110e-03,-8.986081928014755249e-02,-7.292457669973373413e-02,-8.303050696849822998e-02,2.968729287385940552e-02,-8.635696023702621460e-02,3.218276426196098328e-02,3.875736147165298462e-02,4.151450470089912415e-02,3.473941236734390259e-02
-4.133739322423934937e-02,7.834099233150482178e-03,1.333294063806533813e-02,-8.404509164392948151e-03,-6.862502545118331909e-03,-1.500263251364231110e-02,-1.651942916214466095e-02,1.051300019025802612e-02,-1.635126210749149323e-02,-3.049843944609165192e-03,-2.661721315234899521e-03,1.187723409384489059e-02,1.161373592913150787e-02,-4.152090288698673248e-03,5.424017086625099182e-03,-3.443012945353984833e-03,4.403765313327312469e-03,-2.350424416363239288e-03,-1.699706539511680603e-02,-6.611072458326816559e-03,1.327016204595565796e-02,7.851130329072475433e-03,3.231473267078399658e-02,-3.767018904909491539e-03,5.641093477606773376e-03,1.279574725776910782e-02,2.024653833359479904e-03,-2.741200732998549938e-04,1.999956183135509491e-02,-1.158378273248672485e-02,-1.296545192599296570e-02,-3.177366917952895164e-03,-2.192730782553553581e-03,-6.113093812018632889e-03,-3.659764770418405533e-04,-5.754074081778526306e-04,1.423150859773159027e-02,-5.001400131732225418e-03,-4.257787484675645828e-03,-6.218550261110067368e-04,1.832799171097576618e-03,4.345399327576160431e-03,3.094906685873866081e-03,-1.438844762742519379e-02,-6.334739271551370621e-03,1.372574269771575928e-02,-4.117466509342193604e-02,3.114413470029830933e-03,1.390822511166334152e-02,6.347746588289737701e-03,-1.522045675665140152e-02,1.371687278151512146e-02,-2.778938598930835724e-02,6.982810329645872116e-03,1.741632260382175446e-02,7.721858099102973938e-03,2.110229805111885071e-02,4.848861694335937500e-02,-3.347002714872360229e-02,-1.463042385876178741e-02,1.091289706528186798e-02,3.820961283054202795e-04,-9.222513996064662933e-03,-1.039849477820098400e-03,6.575212627649307251e-02,-6.620322912931442261e-02,-8.693429827690124512e-02,-4.234191775321960449e-02,-3.510831622406840324e-03,1.087700948119163513e-02,5.882330238819122314e-03,1.395402103662490845e-02,-1.007937937974929810e-01,-8.509088307619094849e-02,2.162668667733669281e-02,3.103888034820556641e-02,-5.030119419097900391e-02,-4.191123321652412415e-02,-6.616302579641342163e-02,-9.174525737762451172e-02,-7.284798193722963333e-03,6.806074082851409912e-02,-2.350297570228576660e-02,-2.161060087382793427e-02,5.934241041541099548e-02,-2.005651593208312988e-02,-6.905172020196914673e-02,-1.189531311392784119e-01,-4.786120355129241943e-02,1.169174239039421082e-01,4.722617194056510925e-02,-1.079839318990707397e-01,3.581376513466238976e-03,2.415664307773113251e-02,-8.552215248346328735e-02,-2.180109731853008270e-02,-8.920736610889434814e-02,3.814030066132545471e-02,-3.199012577533721924e-02,6.653931736946105957e-02,-3.718899935483932495e-02,-3.623127192258834839e-02,-7.612645626068115234e-02,4.692333564162254333e-02,-1.178656145930290222e-01,-7.295072823762893677e-02,5.128944292664527893e-02,-2.957475371658802032e-02,2.156302146613597870e-02,-1.628058589994907379e-02,4.958941042423248291e-02,-2.643784508109092712e-02,1.188856270164251328e-02,3.761340305209159851e-02,8.074455708265304565e-02,2.416183799505233765e-02,5.560912936925888062e-02,2.740959264338016510e-02,-4.331754148006439209e-02,2.732484601438045502e-03,-4.953513294458389282e-02,2.141354605555534363e-02,-8.897695690393447876e-02,1.173472404479980469e-02,-7.193905860185623169e-02,-8.721388876438140869e-02,-1.427313312888145447e-02,-1.224533654749393463e-02,-8.091927506029605865e-03,-3.052794374525547028e-02,-1.568422652781009674e-02,1.480576954782009125e-02,1.803957857191562653e-02,-7.928257808089256287e-03,-2.691217511892318726e-02,8.274478465318679810e-02,4.006207361817359924e-02,4.433494526892900467e-03,-6.527278106659650803e-03,-3.157607465982437134e-02,5.706191807985305786e-02,1.194925047457218170e-02,1.704153255559504032e-03,-4.305657930672168732e-03,-1.044027414172887802e-02,9.344466379843652248e-04,-2.786415442824363708e-02,-3.335680812597274780e-02,5.523310601711273193e-02,-7.906497456133365631e-03,5.911146104335784912e-02,2.570940414443612099e-04,4.065711051225662231e-03,1.435549557209014893e-02,-9.690883569419384003e-03,-3.874000534415245056e-02,3.293402865529060364e-02,3.009962290525436401e-02,1.044249907135963440e-02,-1.860414072871208191e-02,6.870763376355171204e-03,-1.467540953308343887e-02,-6.059775478206574917e-04,-5.364274606108665466e-03,-2.562605962157249451e-02,2.751933597028255463e-02,8.894199132919311523e-02,-9.937649592757225037e-04,1.906008273363113403e-02,5.372551735490560532e-03,-4.416430834680795670e-03,2.077945321798324585e-02,2.256445586681365967e-03,1.943968981504440308e-02,-1.644660346210002899e-02,7.983198389410972595e-03,-1.619088463485240936e-02,1.034761592745780945e-02,-3.348239511251449585e-02,4.564450136967934668e-05,-6.285438686609268188e-02,-4.922234220430254936e-04,-6.041425745934247971e-03,-1.871033944189548492e-02,2.448410354554653168e-02,4.575745388865470886e-02,-4.818495735526084900e-02,-1.286143815377727151e-04,-1.282374188303947449e-02,3.527471330016851425e-03,5.440725944936275482e-03,-2.727445913478732109e-03,6.242559477686882019e-02,6.200489029288291931e-02,1.043414324522018433e-02,-2.067136950790882111e-02,2.328575775027275085e-02,1.027285493910312653e-02,-1.711940579116344452e-02,2.213659323751926422e-02,5.623205751180648804e-02,2.190249040722846985e-03,-1.021100301295518875e-02,4.902382567524909973e-02,7.056279480457305908e-02,-2.261745976284146309e-03,4.539498593658208847e-03,-7.775785401463508606e-03,7.459952030330896378e-04,6.862080190330743790e-04,3.043412230908870697e-03,-1.061534788459539413e-02,4.117175936698913574e-02,-7.640618714503943920e-04,2.597492933273315430e-02,2.479380741715431213e-02,8.725044608581811190e-05,4.122502356767654419e-02,-1.259866636246442795e-02,-1.626330614089965820e-02,2.650051144883036613e-03,4.812108725309371948e-02,7.703821174800395966e-03,-1.048118248581886292e-02,1.425722520798444748e-02,-8.375590667128562927e-03,-6.179798510856926441e-04,-1.677402528002858162e-03,4.536898061633110046e-02,7.536849007010459900e-03,-7.051809877157211304e-02,1.047861223923973739e-05,1.176061667501926422e-02,5.643445067107677460e-03,-4.701199475675821304e-03,1.471604965627193451e-02,-3.519665915518999100e-04,-9.348873049020767212e-03,6.671849638223648071e-02,4.964038729667663574e-02,-2.231935597956180573e-02,8.592989295721054077e-03,-3.461637347936630249e-02,-1.857388205826282501e-02,3.430935740470886230e-02,1.121472194790840149e-02,1.997486315667629242e-02,-2.490300126373767853e-02,3.161847591400146484e-02,5.484994128346443176e-02,5.473515018820762634e-03,-1.443524612113833427e-03,5.340916104614734650e-03,9.396990062668919563e-04,-1.928938366472721100e-02,-2.822128590196371078e-04
-5.099426209926605225e-02,-6.628105416893959045e-03,3.895981982350349426e-02,1.710461080074310303e-02,3.868675976991653442e-02,2.238703425973653793e-03,5.568548804149031639e-04,8.054372156038880348e-04,-8.311921730637550354e-03,1.035326276905834675e-04,3.059878945350646973e-03,2.924900269135832787e-03,-2.016157231992110610e-04,1.128134969621896744e-02,-3.981672125519253314e-05,5.585768260061740875e-03,-6.853531231172382832e-04,-4.364952445030212402e-02,-2.317845821380615234e-03,3.580463584512472153e-03,8.535725646652281284e-04,-8.561671711504459381e-03,1.993318460881710052e-02,1.353520667180418968e-03,-6.762688979506492615e-03,-2.742148749530315399e-02,-2.197997178882360458e-03,2.946513704955577850e-02,-4.043523594737052917e-02,8.925826405175030231e-04,-4.024069756269454956e-03,1.597474887967109680e-02,1.130041945725679398e-02,1.493715122342109680e-02,1.363579067401587963e-04,8.032781188376247883e-04,3.106185048818588257e-02,7.820100872777402401e-04,3.576454240828752518e-03,-1.024490120471455157e-04,6.737154908478260040e-03,1.182476626127026975e-04,9.272958151996135712e-03,2.809556433930993080e-03,-6.857127882540225983e-03,-2.042076084762811661e-03,1.020406652241945267e-02,-3.479988873004913330e-02,-1.747630164027214050e-02,6.339903484331443906e-05,-1.518212072551250458e-02,-1.187025569379329681e-03,-1.086363848298788071e-02,-3.159665269777178764e-03,6.710757035762071609e-03,2.398910745978355408e-02,-2.310014702379703522e-02,2.099050395190715790e-02,2.399318153038620949e-03,5.487551097758114338e-04,-2.449554577469825745e-02,-2.193644613726064563e-04,-4.502910887822508812e-04,1.118030399084091187e-03,-5.165603384375572205e-02,-9.017782285809516907e-03,2.279631979763507843e-02,-8.579277992248535156e-02,-9.336931258440017700e-02,-3.927478939294815063e-02,5.573760718107223511e-02,-9.219969063997268677e-02,-6.960668414831161499e-02,-6.925915926694869995e-02,4.127898067235946655e-02,-2.670878171920776367e-02,-6.765009462833404541e-02,1.080048084259033203e-01,3.849511593580245972e-02,-2.013462968170642853e-02,1.957448571920394897e-02,-4.792510345578193665e-02,3.709319978952407837e-02,-7.843080908060073853e-02,3.762149810791015625e-02,-4.744911938905715942e-02,-6.178177520632743835e-02,4.840683564543724060e-02,-2.884645946323871613e-02,-1.927592232823371887e-02,7.672973722219467163e-02,3.871453180909156799e-02,-6.529968976974487305e-02,7.103902287781238556e-03,-7.844001799821853638e-02,6.182946264743804932e-02,-6.235280260443687439e-02,9.787397086620330811e-02,7.530500739812850952e-02,-2.493896521627902985e-02,8.943528681993484497e-02,8.608212321996688843e-02,-6.234806776046752930e-02,8.553577214479446411e-02,7.005742937326431274e-02,-9.034506976604461670e-02,-4.472758248448371887e-02,3.756832331418991089e-02,7.839485257863998413e-02,-5.711187794804573059e-02,3.344524651765823364e-02,7.550346851348876953e-02,3.677980741485953331e-03,-4.595664888620376587e-02,8.562900125980377197e-02,-4.586728289723396301e-02,-7.192421704530715942e-02,6.514177471399307251e-02,-9.730155579745769501e-03,5.412144586443901062e-02,1.973369717597961426e-02,6.550242006778717041e-02,1.187580451369285583e-01,9.427205473184585571e-02,-2.255464345216751099e-02,-5.951189622282981873e-02,-3.602339699864387512e-02,3.164521977305412292e-02,1.951233670115470886e-02,1.083005499094724655e-02,2.837927266955375671e-02,4.388646036386489868e-02,-1.421359833329916000e-02,2.908790018409490585e-03,6.450643762946128845e-03,6.727259140461683273e-03,2.608897350728511810e-02,-1.651969978411216289e-05,-2.462907880544662476e-02,-1.431888714432716370e-02,-7.712260819971561432e-03,2.396775409579277039e-02,-2.515052037779241800e-04,-4.467745777219533920e-03,-3.410276724025607109e-03,-1.682381518185138702e-02,-7.892040908336639404e-02,-6.600434426218271255e-03,-1.585370674729347229e-02,1.233905181288719177e-02,-1.358426082879304886e-02,6.397244869731366634e-04,-3.954919520765542984e-03,5.679766833782196045e-02,-2.443680074065923691e-03,3.617350757122039795e-02,4.018073435872793198e-03,1.357513479888439178e-03,-1.295153982937335968e-02,-8.579965680837631226e-03,-3.992342948913574219e-02,-5.631714593619108200e-03,8.403619285672903061e-04,2.575189340859651566e-03,-4.289344325661659241e-02,2.411626093089580536e-02,-2.578824944794178009e-02,-4.312493183533661067e-05,6.464454811066389084e-03,-6.526056677103042603e-04,-2.426419872790575027e-03,-9.323192760348320007e-03,-6.470181047916412354e-03,-1.597392372786998749e-02,4.501822404563426971e-03,2.234267257153987885e-02,2.768126688897609711e-02,-8.945189620135352015e-05,4.120720922946929932e-02,-2.205202728509902954e-02,-8.932158816605806351e-04,1.290775183588266373e-02,-1.062702573835849762e-02,-1.907718600705265999e-03,5.365049466490745544e-02,6.734143942594528198e-02,-1.049985643476247787e-03,1.350950216874480247e-03,-3.605247661471366882e-02,-2.532609796617180109e-04,2.281962893903255463e-02,-3.224273386877030134e-04,6.967759877443313599e-02,-3.058622218668460846e-02,3.780786413699388504e-03,-1.364014949649572372e-02,-3.067705221474170685e-02,7.950197905302047729e-04,2.819949295371770859e-03,2.503108233213424683e-03,-2.847786620259284973e-02,3.014889080077409744e-04,1.723528467118740082e-02,-2.913665957748889923e-02,-6.309357006102800369e-03,5.530335940420627594e-03,-7.972020830493420362e-05,2.484330907464027405e-02,-4.273681261111050844e-04,-6.830827146768569946e-02,3.129182383418083191e-02,1.060550101101398468e-02,2.563506923615932465e-02,5.437416955828666687e-03,-2.212038077414035797e-02,-1.215857453644275665e-03,1.997482322622090578e-04,-5.133984610438346863e-02,2.146630868082866073e-04,-5.593794584274291992e-02,3.949112072587013245e-02,2.282129134982824326e-03,2.367991488426923752e-03,-1.013560313731431961e-02,1.745047606527805328e-02,4.009073018096387386e-04,1.143603003583848476e-04,-4.117008356843143702e-04,1.909256540238857269e-02,-3.922443091869354248e-02,-3.313905745744705200e-02,-8.032560435822233558e-05,-1.123958174139261246e-02,2.283430076204240322e-04,6.528401281684637070e-03,4.837973043322563171e-03,-4.737828858196735382e-03,-5.613948684185743332e-03,-3.240898996591567993e-02,-1.895735412836074829e-02,-1.863851957023143768e-02,1.735945697873830795e-04,7.876258343458175659e-03,-2.047424949705600739e-02,2.733702398836612701e-02,8.717386983335018158e-03,4.206195473670959473e-03,1.939030922949314117e-02,-6.658182293176651001e-02,-4.579075146466493607e-03,-2.830719808116555214e-03,1.240231562405824661e-03,3.640498500317335129e-03,-1.919711357913911343e-04,1.439256966114044189e-02,-1.192751107737421989e-03
1.969240419566631317e-02,7.908564060926437378e-02,-7.922150939702987671e-02,5.326618254184722900e-02,-7.215985655784606934e-02,7.497351150959730148e-03,-1.172924879938364029e-02,-2.007069438695907593e-02,-6.341633945703506470e-02,1.061567105352878571e-02,-3.462139144539833069e-02,-4.019982367753982544e-02,-6.417462229728698730e-02,-3.999534621834754944e-02,-1.682529412209987640e-02,1.359690167009830475e-02,-2.887628041207790375e-02,-5.460119619965553284e-02,3.592228144407272339e-02,1.176719437353312969e-03,6.412536650896072388e-02,-1.936601940542459488e-03,6.797276437282562256e-02,9.966521523892879486e-03,-2.279992215335369110e-02,-7.502388209104537964e-02,-5.320787429809570312e-02,-6.448787450790405273e-02,7.167682051658630371e-02,1.582824625074863434e-02,-5.545295425690710545e-04,5.685938522219657898e-02,-2.788200741633772850e-03,-5.113552324473857880e-04,1.649764925241470337e-02,1.910822838544845581e-02,4.266345500946044922e-02,-9.415651671588420868e-03,-5.709915608167648315e-02,-2.712565008550882339e-03,-5.866727232933044434e-02,1.914434134960174561e-02,4.251177981495857239e-02,4.812082275748252869e-02,4.408748075366020203e-02,-2.707941085100173950e-02,1.231891475617885590e-02,-4.087854549288749695e-02,-4.609314724802970886e-02,2.436190610751509666e-03,3.004781156778335571e-02,1.688839867711067200e-02,2.900631725788116455e-02,5.367876589298248291e-02,-7.590977940708398819e-03,5.409186705946922302e-02,5.401577055454254150e-02,-8.962400257587432861e-03,1.587495580315589905e-02,-3.734518587589263916e-02,-2.041844092309474945e-02,-4.039779771119356155e-03,2.384543791413307190e-02,2.482843119651079178e-03,-6.529638916254043579e-02,-2.756166970357298851e-03,-8.527741581201553345e-02,-1.198666393756866455e-01,-3.309819474816322327e-02,9.569619596004486084e-02,1.089120432734489441e-01,-6.203186884522438049e-02,-1.625318266451358795e-02,1.154843568801879883e-01,-1.075937151908874512e-01,9.664885699748992920e-03,-3.967621363699436188e-03,-3.155246749520301819e-02,-7.502149045467376709e-02,-1.118260324001312256e-01,6.195463985204696655e-02,-4.735566675662994385e-02,-1.116681024432182312e-01,1.440197788178920746e-02,-4.418325796723365784e-02,1.222427710890769958e-01,-5.325724184513092041e-02,1.161874607205390930e-01,3.565186262130737305e-02,9.853683412075042725e-02,-1.045644655823707581e-01,-1.413399130105972290e-01,9.966363757848739624e-02,-7.545113563537597656e-02,2.869505807757377625e-02,-1.579140126705169678e-02,-1.393629983067512512e-02,8.185879886150360107e-02,-3.289267048239707947e-02,1.049182265996932983e-01,-1.017110496759414673e-01,-4.574764170683920383e-04,-7.590483874082565308e-02,4.859679192304611206e-02,-6.378415226936340332e-02,-5.169475823640823364e-02,-8.923062682151794434e-02,-1.142313852906227112e-01,3.980572149157524109e-02,9.191227704286575317e-02,9.644359350204467773e-02,1.012522634118795395e-02,1.090078577399253845e-01,3.678480163216590881e-02,1.110534183681011200e-02,9.687533974647521973e-02,8.137565106153488159e-02,-5.306682735681533813e-02,4.219404608011245728e-02,4.922863095998764038e-03,-9.165618568658828735e-02,-1.010448634624481201e-01,-5.301747936755418777e-03,3.585109859704971313e-02,1.036825180053710938e-01,-2.456019073724746704e-02,-1.214543730020523071e-01,6.449493020772933960e-02,-1.061767041683197021e-01,5.337205529212951660e-02,-1.248503997921943665e-01,1.971733570098876953e-02,5.741158127784729004e-02,-1.583651825785636902e-02,1.698107458651065826e-02,-3.689233213663101196e-03,-6.381732225418090820e-02,2.944357320666313171e-02,5.367110017687082291e-03,4.862490296363830566e-02,-1.689684204757213593e-02,8.277829736471176147e-02,7.322266232222318649e-03,9.558817744255065918e-02,1.940020173788070679e-02,5.473560653626918793e-03,-8.532072603702545166e-02,-3.460885211825370789e-02,1.340009178966283798e-02,3.086037933826446533e-02,1.674681343138217926e-02,-8.574450761079788208e-02,-1.958061009645462036e-03,7.298353314399719238e-02,-3.978063911199569702e-02,-5.375529453158378601e-02,-1.803469657897949219e-02,-6.283651292324066162e-02,3.474318236112594604e-02,-3.066287003457546234e-02,-1.143776532262563705e-02,5.244326218962669373e-02,3.300842642784118652e-02,-2.410676516592502594e-02,-8.876387029886245728e-02,-1.543565746396780014e-02,5.274591222405433655e-02,1.064676139503717422e-02,4.583437740802764893e-02,-5.785530060529708862e-02,-2.815164439380168915e-02,-5.630464479327201843e-02,2.715297788381576538e-02,-1.119597330689430237e-01,-1.141113713383674622e-01,-1.012789532542228699e-01,-5.075279250741004944e-02,2.298516221344470978e-02,-6.747742742300033569e-02,-2.421291777864098549e-03,6.620139628648757935e-02,2.921829372644424438e-02,-1.210411824285984039e-02,-4.792014136910438538e-02,-4.981572553515434265e-02,1.796805486083030701e-02,-1.161136478185653687e-02,-6.399359554052352905e-02,-5.996092781424522400e-02,2.347403392195701599e-02,-7.870934903621673584e-02,3.086242824792861938e-02,-3.611873090267181396e-02,4.658202454447746277e-02,-5.104170367121696472e-02,-7.846221327781677246e-03,3.955488093197345734e-03,3.689566627144813538e-02,-2.879037521779537201e-02,3.567980229854583740e-02,6.207357347011566162e-02,-5.304564721882343292e-03,-1.390430890023708344e-02,2.057604258880019188e-03,1.503269560635089874e-02,7.051879167556762695e-02,-1.425751578062772751e-02,-4.810983315110206604e-02,-1.666775159537792206e-02,2.004610747098922729e-02,3.208238165825605392e-03,4.291287064552307129e-02,-7.979999482631683350e-02,1.868068799376487732e-02,-3.499058634042739868e-02,-4.679066315293312073e-02,3.512258827686309814e-02,-8.468893170356750488e-02,-5.070698261260986328e-02,-1.267990171909332275e-01,-3.950740769505500793e-02,-2.012208802625536919e-03,1.479113101959228516e-02,-1.580624841153621674e-02,2.183724567294120789e-02,4.023101553320884705e-02,1.363793946802616119e-02,-1.636609248816967010e-02,-6.683771964162588120e-03,-4.467445984482765198e-02,7.703339215368032455e-03,1.060155406594276428e-02,4.450511187314987183e-02,-3.343971446156501770e-02,2.313045598566532135e-02,2.628912404179573059e-02,1.352010481059551239e-02,3.465121984481811523e-02,-6.917615234851837158e-02,-2.249988168478012085e-02,-5.854080244898796082e-02,4.356548562645912170e-02,-2.854366786777973175e-02,2.879264578223228455e-02,2.317655645310878754e-02,-2.202244708314538002e-03,3.246649354696273804e-02,-4.674769192934036255e-02,4.303748160600662231e-02,-6.712678074836730957e-02,-5.516291037201881409e-02,4.029238224029541016e-02,-6.052702292799949646e-02,3.161878138780593872e-02,7.660524547100067139e-02,-2.173229120671749115e-02
9.230161595041863620e-06,2.698722295463085175e-03,2.657903125509619713e-03,7.733209058642387390e-03,2.273391874041408300e-04,-2.942622813861817122e-04,6.201159558258950710e-04,-1.112307421863079071e-02,-1.532349269837141037e-03,-4.853856808040291071e-04,3.238022036384791136e-04,-1.538722775876522064e-03,1.495825243182480335e-03,-1.591762062162160873e-03,3.921525203622877598e-04,7.163202972151339054e-04,-4.926890251226723194e-04,-1.788917288649827242e-04,1.933338586241006851e-03,5.138986743986606598e-04,8.843644172884523869e-04,-2.112527377903461456e-03,-2.448353043291717768e-04,-2.589728217571973801e-03,-1.597329683136194944e-04,-3.045464167371392250e-03,5.179549916647374630e-04,1.238427124917507172e-03,-1.294999965466558933e-04,1.493612537160515785e-03,-2.339473430765792727e-04,-3.250161535106599331e-04,-5.153046222403645515e-04,3.908857470378279686e-04,4.244211595505475998e-04,5.837626522406935692e-04,-7.099238573573529720e-04,-1.511194859631359577e-03,-4.168127663433551788e-03,-1.142096007242798805e-03,6.491137668490409851e-03,2.193407155573368073e-03,-2.838104730471968651e-03,3.428735537454485893e-03,2.362401573918759823e-04,1.091812038794159889e-03,-1.733583165332674980e-03,1.774921547621488571e-03,6.564864306710660458e-04,-5.874995840713381767e-04,-6.441080477088689804e-04,-2.468392020091414452e-03,-4.787949728779494762e-05,2.806055999826639891e-04,-2.545996176195330918e-05,2.423836151137948036e-03,4.307468188926577568e-04,2.004271605983376503e-03,-4.235081840306520462e-03,3.144134767353534698e-03,-3.718686057254672050e-04,4.217377863824367523e-05,-2.178063383325934410e-03,2.554985258029773831e-05,-2.574353711679577827e-03,4.094968317076563835e-04,-2.687173523008823395e-02,-1.850450783967971802e-02,-1.126432511955499649e-02,-1.421093940734863281e-03,-7.327732630074024200e-03,-2.384285070002079010e-02,-6.236344343051314354e-04,-1.490344991907477379e-03,-5.561003927141427994e-03,9.075234644114971161e-03,-2.498948480933904648e-03,-6.092166528105735779e-03,3.541278420016169548e-05,4.215754568576812744e-03,1.272330293431878090e-03,-4.099685233086347580e-03,1.930680498480796814e-02,-1.582735450938344002e-03,-9.289436973631381989e-03,8.248832076787948608e-03,-1.313649490475654602e-02,-6.729486398398876190e-03,-1.082522422075271606e-02,5.542160477489233017e-03,4.067245870828628540e-03,-2.301768772304058075e-02,-2.354592550545930862e-03,-1.827024156227707863e-03,-6.801366806030273438e-03,-1.369994599372148514e-03,1.586492173373699188e-02,-8.201175369322299957e-04,-4.588204436004161835e-03,2.820743480697274208e-03,1.668014330789446831e-03,-1.673594815656542778e-03,-5.033368244767189026e-03,-1.129717216826975346e-03,9.194508194923400879e-03,4.840779118239879608e-03,-1.055627479217946529e-03,1.401422079652547836e-02,-1.105359755456447601e-03,-2.417575009167194366e-02,-7.224953267723321915e-03,-7.354401983320713043e-03,-8.007938042283058167e-03,-1.715916441753506660e-03,-2.123550698161125183e-02,-4.803743958473205566e-02,2.126260893419384956e-03,-3.261932637542486191e-03,1.351591898128390312e-03,-6.865514907985925674e-03,3.775847144424915314e-04,1.800822280347347260e-02,1.018078159540891647e-02,-2.071905415505170822e-03,4.275268316268920898e-02,3.614560933783650398e-03,-8.575878106057643890e-03,4.382729995995759964e-03,-2.628956463013309985e-05,3.736343933269381523e-03,-2.951235976070165634e-03,1.104834955185651779e-02,5.190965021029114723e-04,-1.939706853590905666e-03,5.997210973873734474e-04,-8.021303452551364899e-03,-4.572450125124305487e-04,-2.574611455202102661e-03,8.768758852966129780e-04,-2.834398997947573662e-03,2.089069457724690437e-03,-1.539028715342283249e-03,3.837929107248783112e-04,1.109349657781422138e-03,-5.810831789858639240e-04,-3.885206242557615042e-04,2.307034097611904144e-03,-1.068711280822753906e-03,2.126030391082167625e-03,-1.616374589502811432e-03,-1.040400238707661629e-03,-2.828618511557579041e-03,-8.434171322733163834e-04,-1.530696754343807697e-04,1.607096928637474775e-04,1.774593489244580269e-03,3.561151970643550158e-05,1.943434821441769600e-03,-3.197290061507374048e-04,-3.965949581470340490e-04,-1.201755134388804436e-03,-1.845258520916104317e-04,6.879467982798814774e-04,1.184694934636354446e-03,-1.377693261019885540e-03,-2.755604451522231102e-03,-3.161297645419836044e-03,-1.607686681381892413e-05,1.062364503741264343e-02,3.767459653317928314e-03,-3.981781192123889923e-03,4.935890901833772659e-03,3.298546653240919113e-04,3.751566691789776087e-05,-1.429517986252903938e-03,4.524579562712460756e-04,-6.659292266704142094e-04,6.840418209321796894e-04,-2.123299986124038696e-03,-2.964071929454803467e-03,1.755964767653495073e-04,1.077920896932482719e-03,-1.728339702822268009e-04,2.648270456120371819e-03,4.229441401548683643e-04,3.039089962840080261e-03,-7.037916220724582672e-03,8.305674418807029724e-04,-2.408618573099374771e-03,-7.618992240168154240e-04,-3.305663820356130600e-03,-7.871047127991914749e-04,1.617993984837085009e-04,2.633041935041546822e-03,-1.867598504759371281e-03,5.856357514858245850e-03,4.147822037339210510e-04,-1.234793686307966709e-03,-9.387067402713000774e-04,-2.834467217326164246e-03,-3.106939839199185371e-04,-1.409514457918703556e-03,5.122099537402391434e-04,-1.543667865917086601e-03,1.789432484656572342e-03,-8.514479850418865681e-04,3.331438056193292141e-04,1.396712963469326496e-03,-4.704933089669793844e-04,-7.256910903379321098e-04,3.086317330598831177e-03,-5.931443301960825920e-04,3.767467103898525238e-03,-1.355948275886476040e-03,-1.061166054569184780e-03,-3.645751858130097389e-03,-2.545664552599191666e-03,-6.557159358635544777e-04,4.310896038077771664e-04,3.486905246973037720e-03,-8.817336492938920856e-05,1.671753474511206150e-03,1.288709754589945078e-04,-2.686370280571281910e-04,-2.263612812384963036e-03,6.265466799959540367e-04,-6.671070586889982224e-04,1.325150369666516781e-03,-1.283574267290532589e-03,-1.112538855522871017e-03,-1.175925834104418755e-03,-1.124693546444177628e-03,7.035118527710437775e-03,2.582197077572345734e-03,-2.120093209668993950e-03,2.979932818561792374e-03,5.793438176624476910e-04,-2.818951725203078240e-05,-2.539179986342787743e-03,1.341029419563710690e-04,-6.875118706375360489e-04,2.641652245074510574e-04,-2.854113467037677765e-03,-1.579089788720011711e-03,-7.423898205161094666e-05,1.057012006640434265e-03,-6.472243694588541985e-05,2.219365211203694344e-03,4.000847111456096172e-04,2.150397747755050659e-03,-2.436532871797680855e-03,2.069622976705431938e-03,2.328451257199048996e-03,-1.821682963054627180e-05,-7.877423195168375969e-04,-2.342171792406588793e-04
-2.008886449038982391e-02,-8.908046036958694458e-02,-6.185638904571533203e-02,9.694609791040420532e-02,4.611802101135253906e-02,5.367128178477287292e-02,1.524354331195354462e-02,-5.118624866008758545e-02,6.252111494541168213e-02,-3.481106599792838097e-03,-3.450301662087440491e-02,6.258231401443481445e-02,1.348418183624744415e-03,-7.881155610084533691e-02,-4.693622142076492310e-02,-2.236033417284488678e-02,-4.651393368840217590e-02,-3.990658745169639587e-02,2.250837348401546478e-02,2.691902220249176025e-02,1.800784282386302948e-02,4.261924326419830322e-02,8.908845484256744385e-02,-3.982114791870117188e-02,-1.441568415611982346e-02,-3.444689512252807617e-02,4.130591079592704773e-02,1.131805554032325745e-01,-4.733578860759735107e-02,2.608859352767467499e-02,-7.831501215696334839e-02,-7.639162242412567139e-02,-5.724189803004264832e-02,5.670832842588424683e-02,-1.070096436887979507e-02,5.107951909303665161e-02,-4.649322945624589920e-03,-7.816040515899658203e-02,7.792150974273681641e-02,-1.889988407492637634e-02,3.875483572483062744e-02,1.699514687061309814e-02,-4.025538265705108643e-02,1.261387486010789871e-02,-4.096180200576782227e-02,-3.940685465931892395e-02,9.025991708040237427e-02,1.638030819594860077e-02,-6.603617966175079346e-02,-2.834192849695682526e-02,4.036700353026390076e-02,-8.390919119119644165e-02,1.345640048384666443e-02,7.284615933895111084e-02,-3.182648867368698120e-02,7.699868083000183105e-02,-1.030906960368156433e-01,-1.083467081189155579e-01,5.082687363028526306e-02,2.091078320518136024e-03,-6.215681508183479309e-02,-9.831215254962444305e-03,-2.639469876885414124e-02,-2.774350158870220184e-02,7.735231891274452209e-03,-9.956119209527969360e-02,-8.880118839442729950e-03,-5.054848268628120422e-02,-4.967689514160156250e-02,-6.541547924280166626e-02,-8.534040302038192749e-02,4.990921542048454285e-02,-1.148154512047767639e-01,-8.274528384208679199e-02,9.360292553901672363e-02,7.335969805717468262e-02,1.169903427362442017e-01,1.238416731357574463e-01,-1.022785678505897522e-01,-9.371478110551834106e-03,-2.988004870712757111e-02,1.000665798783302307e-01,-8.102750033140182495e-02,1.059201285243034363e-01,-5.689432099461555481e-02,-1.267224252223968506e-01,-3.785589709877967834e-03,9.900441020727157593e-02,1.232196539640426636e-01,-8.475137501955032349e-02,-9.196978062391281128e-02,-3.504084888845682144e-03,-1.559854950755834579e-02,8.252175897359848022e-02,-5.912697315216064453e-02,3.341128677129745483e-02,-7.704267650842666626e-02,1.219100728631019592e-01,1.861301437020301819e-02,-1.455507706850767136e-03,4.173333942890167236e-02,1.223170086741447449e-01,2.960217650979757309e-03,2.527028787881135941e-03,5.186542496085166931e-02,5.626332759857177734e-02,4.516676440834999084e-02,-4.189785942435264587e-02,-4.393044486641883850e-02,-3.701361641287803650e-02,-2.440417557954788208e-02,-1.541258487850427628e-02,5.179934948682785034e-02,-1.062001362442970276e-01,-5.645805969834327698e-02,-1.490608509629964828e-02,1.092294901609420776e-01,4.688875377178192139e-02,1.294670253992080688e-02,4.876439645886421204e-02,3.492999821901321411e-02,-1.643498241901397705e-02,4.914347827434539795e-02,-9.840342402458190918e-02,1.742298365570604801e-03,6.885311566293239594e-03,-7.582222670316696167e-02,2.070416882634162903e-02,-8.388071507215499878e-02,9.791651368141174316e-02,-2.766199037432670593e-02,-3.520757704973220825e-02,-7.309325784444808960e-02,-3.104672394692897797e-02,8.925528265535831451e-03,-1.134295482188463211e-02,7.781946659088134766e-02,2.848211303353309631e-02,-1.017291378229856491e-02,2.417920343577861786e-02,-4.780915006995201111e-02,5.954731255769729614e-02,-6.395604461431503296e-02,3.752005845308303833e-02,6.791748851537704468e-02,-1.039262674748897552e-02,6.925013661384582520e-02,-5.874660238623619080e-02,-4.365161433815956116e-02,5.692140385508537292e-02,8.017742633819580078e-02,3.496997803449630737e-02,7.260364294052124023e-02,-6.250023096799850464e-02,-6.901173293590545654e-02,1.246945559978485107e-01,5.985784810036420822e-03,4.195472225546836853e-02,-7.663009688258171082e-03,-8.171328157186508179e-02,-4.817653913050889969e-03,5.561745539307594299e-02,3.551449999213218689e-02,6.902071088552474976e-02,-1.042497232556343079e-01,4.639971256256103516e-02,1.598659344017505646e-02,1.544152200222015381e-02,-4.747158288955688477e-02,-1.388717815279960632e-02,-3.228126838803291321e-02,5.018788948655128479e-02,4.408651590347290039e-02,2.504858560860157013e-02,4.162579309195280075e-03,-9.010815620422363281e-02,-1.441625505685806274e-02,-1.792307570576667786e-02,9.232421964406967163e-02,4.076575394719839096e-03,-4.376009106636047363e-02,4.104914516210556030e-02,-4.263092204928398132e-02,-2.764327917248010635e-03,-6.796999275684356689e-02,-2.362148649990558624e-02,2.738347649574279785e-02,2.976785041391849518e-02,-1.742969267070293427e-02,-3.503727959468960762e-03,5.816434696316719055e-02,-7.018192112445831299e-02,2.884774468839168549e-02,5.202939361333847046e-02,1.025492772459983826e-01,7.727880030870437622e-02,-8.903876878321170807e-03,2.681447938084602356e-02,2.199158631265163422e-02,-5.222374945878982544e-02,-4.030616488307714462e-03,-3.432589769363403320e-02,-6.253673881292343140e-02,-5.558167770504951477e-02,-5.543074756860733032e-02,-4.463094845414161682e-02,-6.322196871042251587e-02,2.070649899542331696e-02,-7.212532311677932739e-02,-7.801022380590438843e-02,-4.546077921986579895e-02,6.033483892679214478e-03,3.785549476742744446e-02,-7.271813601255416870e-02,-1.342723239213228226e-02,-3.187567740678787231e-02,4.620288684964179993e-02,-3.635279461741447449e-02,-6.937393918633460999e-04,3.387603536248207092e-02,2.944895997643470764e-02,5.873231962323188782e-02,-1.393445581197738647e-02,-6.098670139908790588e-02,7.606258243322372437e-02,5.053210631012916565e-02,-2.134127542376518250e-02,6.179510056972503662e-02,-5.609494168311357498e-03,-9.597629308700561523e-02,4.636803269386291504e-02,4.582768771797418594e-03,7.546774577349424362e-03,-3.198923543095588684e-02,4.541385173797607422e-02,5.358453094959259033e-02,5.373929813504219055e-02,6.169102713465690613e-02,-1.874076202511787415e-02,-6.653986126184463501e-02,-3.410082682967185974e-02,-4.375313594937324524e-02,-5.347716435790061951e-02,4.672424867749214172e-02,6.384375691413879395e-02,-2.810383029282093048e-02,-7.411508262157440186e-02,-8.742732554674148560e-02,-1.086151227355003357e-01,2.000651694834232330e-02,-6.565529853105545044e-02,-1.756894215941429138e-02,7.165723294019699097e-02,-3.218035399913787842e-02,5.334491282701492310e-02,-1.284656953066587448e-02
-4.881702363491058350e-02,-2.464713528752326965e-02,-1.066738814115524292e-01,9.040695428848266602e-02,2.537377364933490753e-02,-2.433337457478046417e-02,-1.768854446709156036e-02,3.249791916459798813e-03,5.425091832876205444e-02,-7.396152708679437637e-03,1.775375194847583771e-02,6.200735270977020264e-02,3.355680033564567566e-02,-1.859710924327373505e-02,-3.332432731986045837e-02,-2.276589348912239075e-02,6.254991516470909119e-03,-1.958200894296169281e-02,1.210671216249465942e-01,-7.111865282058715820e-02,-6.133454665541648865e-02,-5.584154278039932251e-02,-3.414120525121688843e-02,-7.658722251653671265e-02,-1.995140686631202698e-02,4.783679917454719543e-02,2.885265089571475983e-02,-9.186842478811740875e-03,-3.177343308925628662e-02,8.039005100727081299e-02,2.016945742070674896e-02,6.332243792712688446e-04,9.503462165594100952e-02,-3.559776768088340759e-02,-4.859690368175506592e-02,-1.307378523051738739e-02,6.805311143398284912e-02,-1.281843632459640503e-01,1.054004281759262085e-01,1.851687580347061157e-02,4.654086008667945862e-02,3.239081054925918579e-02,4.610048234462738037e-02,-2.232254855334758759e-02,4.312178492546081543e-02,3.756364807486534119e-02,-2.047392539680004120e-02,7.503017783164978027e-02,5.572199448943138123e-02,-8.802042901515960693e-02,-4.730097204446792603e-02,-1.020792275667190552e-01,-1.177325472235679626e-02,-4.804627969861030579e-03,-5.671732593327760696e-03,-6.390046328306198120e-02,-5.599053949117660522e-02,2.246471680700778961e-02,2.954910695552825928e-02,2.509402297437191010e-02,3.380353376269340515e-02,-1.109958812594413757e-02,-2.994184382259845734e-02,-3.120346553623676300e-02,-7.486028224229812622e-02,-8.260472118854522705e-02,-7.691851258277893066e-02,8.627542853355407715e-02,6.321832537651062012e-02,1.049004048109054565e-01,1.958741061389446259e-02,-5.358228087425231934e-02,5.629077181220054626e-02,1.177911311388015747e-01,-1.023170910775661469e-02,6.211692467331886292e-02,-1.438447833061218262e-01,8.366117626428604126e-02,6.772899627685546875e-02,-1.118680387735366821e-01,5.160191282629966736e-02,-6.917914748191833496e-02,-6.101978942751884460e-02,-2.504168637096881866e-02,4.129084572196006775e-02,4.099437221884727478e-02,-1.029837727546691895e-01,-1.566658318042755127e-01,-9.419341385364532471e-02,6.336834281682968140e-02,5.259540677070617676e-02,1.144363805651664734e-01,-7.185013592243194580e-02,4.780222475528717041e-02,-3.251496702432632446e-02,2.157604508101940155e-02,-1.184707134962081909e-02,5.507318675518035889e-02,-1.944536343216896057e-02,-8.139288425445556641e-02,-1.177675202488899231e-01,4.944949597120285034e-02,1.149460151791572571e-01,3.188537433743476868e-02,1.082429364323616028e-01,-7.857538014650344849e-02,1.113622114062309265e-01,1.104868650436401367e-01,1.031091436743736267e-01,7.245265413075685501e-03,-2.543819509446620941e-02,2.095489995554089546e-03,-7.347969710826873779e-02,-9.052716940641403198e-02,9.727575629949569702e-02,2.748034428805112839e-03,-3.857906162738800049e-02,6.389387696981430054e-02,7.338990457355976105e-03,-1.213134825229644775e-01,1.059653535485267639e-01,1.126358360052108765e-01,-2.956075593829154968e-02,-3.921760246157646179e-02,5.330393835902214050e-02,7.308945804834365845e-02,-3.136017173528671265e-02,-7.715743035078048706e-03,6.881070788949728012e-03,2.594482898712158203e-02,-3.339514508843421936e-02,7.995508611202239990e-02,-5.143627058714628220e-03,-4.672976955771446228e-02,9.616662561893463135e-02,-3.969756886363029480e-02,9.846807271242141724e-02,6.244321912527084351e-02,-1.046907082200050354e-01,3.181711584329605103e-02,6.959734857082366943e-02,-1.110567301511764526e-01,-2.370398864150047302e-02,-9.533423930406570435e-02,7.123933732509613037e-02,6.788618862628936768e-02,3.041088581085205078e-02,8.750662207603454590e-02,7.573426514863967896e-02,-9.119776636362075806e-02,-8.444956620223820210e-04,-1.260657757520675659e-01,1.330989301204681396e-01,-5.318509042263031006e-02,-6.673187017440795898e-02,5.729523673653602600e-02,-7.535617053508758545e-02,-9.082661010324954987e-03,5.421613156795501709e-02,5.273215100169181824e-02,1.415575738064944744e-03,3.350362554192543030e-02,-6.937649101018905640e-02,6.354739889502525330e-03,4.487315565347671509e-02,-2.279758267104625702e-02,5.349235236644744873e-02,2.275043167173862457e-03,7.548851519823074341e-02,5.022154748439788818e-02,-7.990911602973937988e-02,-4.989634454250335693e-02,1.790301757864654064e-03,7.217704318463802338e-03,-9.660924226045608521e-02,-1.136669516563415527e-01,-7.275732234120368958e-03,-1.433736761100590229e-03,-6.024181842803955078e-02,7.324541360139846802e-02,9.777752310037612915e-02,8.610399812459945679e-02,9.048404172062873840e-03,8.103240281343460083e-02,-2.563670836389064789e-02,1.549618244171142578e-01,4.853928461670875549e-02,-2.441411837935447693e-02,-1.548846364021301270e-01,-5.747436732053756714e-02,-2.220324240624904633e-03,4.327889066189527512e-03,8.916380256414413452e-02,6.532847136259078979e-02,1.957259885966777802e-02,1.003196239471435547e-01,1.099501252174377441e-01,8.306905627250671387e-02,5.230455845594406128e-02,2.719479799270629883e-02,2.048308029770851135e-02,-4.191166255623102188e-03,4.880094155669212341e-02,-8.945793658494949341e-02,-9.072613716125488281e-02,-1.033381298184394836e-01,-8.137977123260498047e-02,1.114053186029195786e-03,-7.434691488742828369e-02,-1.236455421894788742e-02,8.376064896583557129e-02,4.744115099310874939e-02,-7.973735779523849487e-02,-2.219161391258239746e-02,1.314875036478042603e-01,-1.159091591835021973e-01,6.181142479181289673e-02,5.745582655072212219e-02,-9.819721803069114685e-03,1.423851698637008667e-01,-4.561224952340126038e-03,-4.425557702779769897e-02,1.094559021294116974e-02,3.729641437530517578e-02,8.160767704248428345e-02,3.491505980491638184e-02,-4.393889009952545166e-02,2.688969299197196960e-02,-1.243432015180587769e-01,-7.502063363790512085e-02,-3.319548815488815308e-02,1.934442482888698578e-02,-5.432364344596862793e-02,5.689438804984092712e-02,4.788296669721603394e-02,-3.215423971414566040e-02,3.063106723129749298e-02,-5.811784416437149048e-03,1.110985130071640015e-01,5.157880857586860657e-02,7.763718068599700928e-02,3.791517019271850586e-02,3.638839349150657654e-02,4.646508395671844482e-02,6.115728989243507385e-02,-4.009589925408363342e-02,2.097593806684017181e-02,5.751292407512664795e-02,-2.108186855912208557e-02,5.031505227088928223e-02,1.115989834070205688e-01,-5.387752875685691833e-02,4.264295101165771484e-02,-2.237290702760219574e-02,2.662002295255661011e-02,-1.978234574198722839e-02
8.603930473327636719e-02,4.664643108844757080e-02,-1.604085043072700500e-02,-3.244435787200927734e-02,-7.923179306089878082e-03,-1.044015982188284397e-03,3.739514155313372612e-03,1.766994828358292580e-03,-4.566234536468982697e-03,-4.050599876791238785e-03,9.352667257189750671e-03,2.311579696834087372e-02,8.080777712166309357e-03,1.502251345664262772e-02,-8.474014699459075928e-03,-1.516540348529815674e-02,-1.327081769704818726e-02,-8.860920555889606476e-03,-2.178059658035635948e-03,-9.328435175120830536e-03,-9.268847294151782990e-03,1.774812862277030945e-02,-3.234262019395828247e-02,1.271355338394641876e-02,-2.691105473786592484e-03,-2.375054918229579926e-02,1.921681687235832214e-04,3.606294095516204834e-02,3.190687298774719238e-02,9.993703104555606842e-03,2.408893965184688568e-02,-4.500578623265028000e-03,-5.774610210210084915e-03,-1.226134411990642548e-02,-7.483815352316014469e-06,-2.769007347524166107e-03,-5.786662176251411438e-02,-4.672382492572069168e-03,4.113740101456642151e-02,5.854165647178888321e-03,2.086476190015673637e-03,5.676236003637313843e-03,-2.338801138103008270e-02,2.488015452399849892e-03,-2.121653780341148376e-02,-3.675396728795021772e-04,2.884579077363014221e-02,-7.902491837739944458e-03,5.264240875840187073e-02,1.027589850127696991e-02,-1.395018026232719421e-02,4.017644003033638000e-02,-9.673310443758964539e-03,-1.453309506177902222e-02,-4.292187839746475220e-02,-1.814059540629386902e-02,-6.831866502761840820e-02,2.850485034286975861e-02,2.163199940696358681e-03,9.919378207996487617e-04,-5.085431411862373352e-02,4.318640567362308502e-04,-6.519596092402935028e-03,8.264312520623207092e-03,5.506420508027076721e-02,-5.423028767108917236e-02,-1.134069561958312988e-01,8.276019245386123657e-03,-1.528529915958642960e-02,-2.378525584936141968e-02,5.137816071510314941e-02,-2.630797214806079865e-02,-5.805728211998939514e-02,-5.472104251384735107e-02,-2.656708098948001862e-02,-5.059251096099615097e-03,1.043982654809951782e-01,9.162661433219909668e-02,4.459765180945396423e-02,7.484677247703075409e-03,-5.222147703170776367e-02,-1.224961411207914352e-02,3.849518671631813049e-02,8.281172811985015869e-02,4.951853305101394653e-02,8.371591567993164062e-02,5.857108533382415771e-02,2.020302973687648773e-02,8.572674542665481567e-02,-1.795057021081447601e-02,-7.507894188165664673e-02,3.452659025788307190e-02,-8.151712268590927124e-02,-6.945449113845825195e-02,5.225555226206779480e-02,-2.143396850442513824e-04,-5.981634929776191711e-02,-1.017971411347389221e-01,3.741284087300300598e-02,1.188405603170394897e-02,5.115052312612533569e-02,-5.508499592542648315e-02,7.495438680052757263e-03,1.326502021402120590e-02,-2.636080235242843628e-02,-1.162921115756034851e-01,8.573421835899353027e-02,-1.008201669901609421e-02,2.954325266182422638e-02,9.490101784467697144e-02,4.656901583075523376e-02,6.953769177198410034e-02,9.270691126585006714e-02,-1.591772772371768951e-02,-7.992663234472274780e-02,-9.439365565776824951e-02,-3.094853647053241730e-02,4.587963595986366272e-02,3.435432538390159607e-02,-7.649260014295578003e-02,-7.310335338115692139e-02,7.941839098930358887e-02,-1.070627942681312561e-02,3.772023320198059082e-02,-4.866679012775421143e-02,8.917866647243499756e-02,-5.850910395383834839e-02,5.150241032242774963e-02,-7.893318682909011841e-02,3.658835217356681824e-02,3.166652470827102661e-02,8.473916351795196533e-02,-2.735614590346813202e-02,1.137769082561135292e-03,-5.141868256032466888e-03,4.384476318955421448e-02,-5.465951934456825256e-02,-2.080321311950683594e-02,-3.805596381425857544e-02,-2.627601847052574158e-02,9.827822446823120117e-03,1.677225157618522644e-02,-2.082342654466629028e-02,7.992178201675415039e-03,-3.191838786005973816e-02,9.105253411689773202e-05,-8.008889853954315186e-03,-2.254160121083259583e-02,-2.023372240364551544e-02,-3.606498241424560547e-02,5.914029479026794434e-02,-2.527016587555408478e-02,-3.121604677289724350e-03,7.585356384515762329e-02,-1.886903308331966400e-03,1.076762229204177856e-01,3.362866351380944252e-03,-1.817199774086475372e-02,5.879399180412292480e-02,-3.858283162117004395e-03,4.202934727072715759e-02,-1.334525272250175476e-02,3.968607343267649412e-04,2.117123268544673920e-02,5.890826135873794556e-02,-4.469063133001327515e-02,2.744116634130477905e-02,-5.627000238746404648e-03,7.778903935104608536e-03,-2.780390670523047447e-03,-2.901218459010124207e-02,-2.072373591363430023e-02,-8.579125627875328064e-03,-3.619486093521118164e-02,2.249508537352085114e-02,-1.633186358958482742e-03,-4.848534986376762390e-02,6.941438186913728714e-03,-4.460959136486053467e-02,4.311724752187728882e-02,-5.272070690989494324e-02,2.057112194597721100e-02,-3.190316725522279739e-03,-4.790917783975601196e-02,-6.402578949928283691e-02,7.154808193445205688e-02,7.066083140671253204e-03,2.678893273696303368e-03,-1.559915952384471893e-02,-9.578990284353494644e-04,-1.029106881469488144e-02,-2.305323258042335510e-02,1.566870021633803844e-03,6.768550723791122437e-02,-2.044114656746387482e-02,7.303025573492050171e-02,8.276170119643211365e-03,-2.996954135596752167e-04,1.757628284394741058e-03,1.820224337279796600e-02,-5.990594998002052307e-02,4.826026968657970428e-03,-6.918571144342422485e-02,-7.077848911285400391e-02,1.433659996837377548e-02,-2.517740358598530293e-04,1.793568767607212067e-02,-7.201030850410461426e-03,-2.166973054409027100e-02,-8.436995558440685272e-03,8.922730921767652035e-04,-3.353249654173851013e-02,-3.586996719241142273e-02,-3.851460060104727745e-03,3.491098992526531219e-03,2.033795230090618134e-02,1.106919371522963047e-03,6.531099975109100342e-02,6.056856364011764526e-04,-3.868815675377845764e-02,-6.137978285551071167e-02,-3.830082714557647705e-03,2.972014248371124268e-02,2.808993496000766754e-02,3.033021464943885803e-02,2.268769749207422137e-04,-2.340367063879966736e-04,1.784096471965312958e-02,5.297818034887313843e-02,3.279718011617660522e-02,-5.687849596142768860e-02,-2.301521832123398781e-03,-1.093295589089393616e-02,5.663725081831216812e-03,6.850977428257465363e-03,-2.280054613947868347e-02,5.799628794193267822e-03,-2.246203273534774780e-02,-5.725780501961708069e-03,6.299236323684453964e-03,5.347911734133958817e-03,-1.760933548212051392e-02,5.407074466347694397e-02,1.578134298324584961e-02,7.068639993667602539e-02,-2.969480585306882858e-03,4.277891665697097778e-02,4.115604236721992493e-02,-3.000239096581935883e-02,-9.690496325492858887e-02,3.060951596125960350e-03,2.690186491236090660e-03,1.425284333527088165e-02,-8.880820241756737232e-04,2.394353505223989487e-03,-1.633095182478427887e-02
1.021623089909553528e-01,-5.560743808746337891e-02,3.567263251170516014e-03,5.182637646794319153e-02,1.708845421671867371e-02,-3.848143666982650757e-02,2.767536602914333344e-02,5.474961549043655396e-02,4.113849997520446777e-02,-3.574119880795478821e-02,-3.559347614645957947e-02,-4.114612191915512085e-02,6.740331184118986130e-03,-2.653759904205799103e-02,8.399768173694610596e-02,8.351020514965057373e-02,-9.047929197549819946e-03,2.588251791894435883e-02,-4.649791866540908813e-02,9.322346746921539307e-02,5.392713099718093872e-02,8.905754424631595612e-03,4.536991938948631287e-02,4.945711791515350342e-02,9.409444779157638550e-02,-3.178311884403228760e-02,4.636325314640998840e-02,-7.393874228000640869e-02,3.411211445927619934e-02,2.641062438488006592e-02,-1.077499799430370331e-02,4.818913340568542480e-02,-5.710773542523384094e-02,8.398577570915222168e-02,4.612097889184951782e-02,2.534723281860351562e-02,4.068300500512123108e-02,9.598009288311004639e-02,1.310817748308181763e-01,-5.849799708812497556e-05,5.297506600618362427e-02,-4.678899049758911133e-02,-1.542687881737947464e-02,1.207077503204345703e-01,-1.299894321709871292e-02,5.877128615975379944e-02,-2.047199290245771408e-03,9.952406585216522217e-02,2.356461249291896820e-02,-8.246174082159996033e-03,-7.588692754507064819e-02,-3.382064402103424072e-02,5.249803140759468079e-02,1.210734173655509949e-01,3.754509240388870239e-02,9.314548224210739136e-02,-1.072833761572837830e-01,1.153605356812477112e-01,-8.874990046024322510e-02,-4.302934557199478149e-02,-5.642226710915565491e-02,-5.679401382803916931e-02,1.060250587761402130e-02,-2.448680438101291656e-02,5.068831145763397217e-02,8.506450802087783813e-02,2.453241683542728424e-02,7.201504707336425781e-02,9.007920324802398682e-02,-7.223232090473175049e-02,6.694469600915908813e-02,-2.588534168899059296e-02,-7.377576828002929688e-02,-3.376352041959762573e-02,-1.800422370433807373e-02,-2.341686747968196869e-02,5.470842868089675903e-02,-2.599545521661639214e-03,9.687119722366333008e-02,-9.804228693246841431e-02,-1.457047015428543091e-01,3.424523770809173584e-02,-9.594676084816455841e-03,-1.376407444477081299e-01,-9.791111946105957031e-02,1.789801567792892456e-02,1.347322613000869751e-01,4.730161651968955994e-02,1.503693405538797379e-02,1.032511517405509949e-01,7.267900556325912476e-02,6.288578268140554428e-03,-1.623623073101043701e-01,-7.683704048395156860e-02,1.212494540959596634e-02,-3.524978179484605789e-03,-1.573186516761779785e-01,2.058593672700226307e-04,-6.026034057140350342e-02,-1.213420461863279343e-02,1.371352672576904297e-01,9.321602433919906616e-02,5.436124652624130249e-02,-2.619053050875663757e-02,-1.387947425246238708e-02,-8.865676820278167725e-02,4.168277140706777573e-03,1.580999791622161865e-02,4.290791973471641541e-02,1.147791445255279541e-01,-3.156166151165962219e-02,1.109398379921913147e-01,-3.768428415060043335e-02,4.642902687191963196e-02,-1.497684568166732788e-01,1.152755543589591980e-01,7.185233384370803833e-02,1.091638673096895218e-02,2.882472239434719086e-02,1.917670965194702148e-01,6.517976522445678711e-02,1.127496287226676941e-01,1.211043372750282288e-01,8.271174877882003784e-02,-1.410804390907287598e-01,-9.728424996137619019e-02,1.298444569110870361e-01,5.043034628033638000e-02,-2.259849011898040771e-02,8.508595079183578491e-02,8.754079788923263550e-02,-9.594334661960601807e-02,1.302213668823242188e-01,-1.152752190828323364e-01,1.215729340910911560e-01,-1.144818067550659180e-01,-4.961447790265083313e-02,3.369268774986267090e-02,-7.321052718907594681e-03,-1.174961123615503311e-02,1.898514688946306705e-03,1.103792712092399597e-01,-1.938071800395846367e-03,-5.468783527612686157e-02,-4.021627083420753479e-02,-8.444613777101039886e-03,2.596579119563102722e-02,6.856171041727066040e-02,-4.601181298494338989e-02,3.455725684762001038e-02,9.968074038624763489e-03,-5.079201981425285339e-02,7.779588457196950912e-03,-7.923261821269989014e-02,8.034680038690567017e-02,-1.633294043131172657e-03,-5.402145534753799438e-02,3.038311749696731567e-02,5.355907231569290161e-02,-6.954187154769897461e-02,5.903175845742225647e-02,5.903005972504615784e-02,-1.930021308362483978e-02,4.676916822791099548e-02,2.333300001919269562e-02,-2.702913247048854828e-02,-5.019934847950935364e-02,1.531935203820466995e-02,1.376005588099360466e-03,-6.141432374715805054e-02,7.265321165323257446e-02,7.824617624282836914e-02,-1.541137974709272385e-02,1.454964745789766312e-02,-6.533209234476089478e-03,2.120070531964302063e-02,6.811514496803283691e-02,1.044497936964035034e-01,-5.579024925827980042e-02,-3.534168004989624023e-03,1.157347112894058228e-01,7.691989187151193619e-03,1.993557624518871307e-02,1.062374636530876160e-01,-5.416946858167648315e-02,9.190248697996139526e-02,-2.319263480603694916e-02,1.070989388972520828e-02,-9.810153394937515259e-02,-4.325161129236221313e-02,-1.725609600543975830e-02,5.084694176912307739e-02,5.062220618128776550e-02,3.533030301332473755e-02,-9.638395905494689941e-02,-1.168742626905441284e-01,-8.243916183710098267e-02,1.659058034420013428e-02,-4.908767715096473694e-02,4.149112850427627563e-02,9.647801518440246582e-02,-4.325210303068161011e-02,3.092141449451446533e-02,5.052290484309196472e-02,-9.491793811321258545e-02,1.249265447258949280e-01,1.972678489983081818e-02,4.025338217616081238e-02,3.454716131091117859e-02,9.302374720573425293e-02,7.783018797636032104e-02,1.513387635350227356e-02,-1.088139340281486511e-01,2.538015879690647125e-02,-9.339712560176849365e-02,-8.181767165660858154e-02,8.777619898319244385e-02,8.735722303390502930e-02,-1.228939462453126907e-02,1.541842520236968994e-01,2.621497027575969696e-02,-2.770187146961688995e-02,-4.198424518108367920e-02,8.611389435827732086e-03,6.283153593540191650e-02,8.282172493636608124e-03,-7.370354980230331421e-02,4.859199002385139465e-02,8.255319297313690186e-02,-4.972560331225395203e-02,1.250807791948318481e-01,-1.351722795516252518e-02,-1.094504669308662415e-01,-4.126974940299987793e-02,-3.285430744290351868e-02,8.571717888116836548e-02,1.640133373439311981e-02,1.462525874376296997e-01,8.826185017824172974e-02,1.126904115080833435e-01,-1.788171753287315369e-02,-2.379583939909934998e-02,-1.497052423655986786e-02,1.210948824882507324e-01,-1.220213156193494797e-02,1.007223129272460938e-01,8.358756080269813538e-03,2.511407621204853058e-02,-4.334000125527381897e-02,3.911849111318588257e-02,-9.676954150199890137e-02,-5.897535011172294617e-02,-5.863257497549057007e-02,3.358238935470581055e-02,-7.618124037981033325e-02,6.061242148280143738e-02
9.987217932939529419e-02,3.264192119240760803e-02,3.904025629162788391e-02,2.941268123686313629e-02,8.091909810900688171e-03,-9.086141362786293030e-03,5.087810102850198746e-03,4.016590863466262817e-02,4.727582260966300964e-02,3.895187750458717346e-03,3.415782377123832703e-02,1.480236463248729706e-02,-4.123002756386995316e-03,4.079216718673706055e-02,3.015184774994850159e-03,1.293540932238101959e-02,-1.760923489928245544e-02,-2.052857540547847748e-02,5.703910812735557556e-02,3.387574106454849243e-02,-3.619878739118576050e-02,5.472983047366142273e-02,1.121219899505376816e-02,-3.970833495259284973e-02,9.733590297400951385e-03,-7.543211430311203003e-02,-5.719947628676891327e-03,2.922482043504714966e-02,-4.095114022493362427e-02,-2.522401884198188782e-02,1.181762944906949997e-02,3.531223535537719727e-02,-8.839749544858932495e-02,-5.617437511682510376e-02,6.376567762345075607e-03,2.546611800789833069e-02,6.763718277215957642e-02,3.592533245682716370e-02,-2.662417665123939514e-02,-3.551722504198551178e-03,-1.900370977818965912e-02,-1.839260198175907135e-02,-5.847109132446348667e-04,1.943217962980270386e-02,-5.694131180644035339e-02,-2.378797531127929688e-02,-7.798103243112564087e-02,8.346834033727645874e-02,-1.055162493139505386e-02,7.369310595095157623e-03,-4.545299708843231201e-02,-5.900797247886657715e-02,4.550987109541893005e-02,1.395882386714220047e-02,-4.062195122241973877e-02,-4.693188145756721497e-02,-9.019423276185989380e-02,6.972721964120864868e-02,1.444210484623908997e-02,-4.964429535903036594e-04,1.023013424128293991e-02,-1.578258164227008820e-02,2.844343706965446472e-02,-5.430592969059944153e-02,7.808707654476165771e-02,-6.851705163717269897e-02,7.323109358549118042e-02,-9.190196543931961060e-02,-3.067431971430778503e-02,-8.988320827484130859e-02,6.263014860451221466e-03,5.340895429253578186e-02,9.601897001266479492e-02,4.194542765617370605e-02,-6.379486620426177979e-02,-1.099397912621498108e-01,3.349557891488075256e-02,-5.056944862008094788e-02,-7.658236473798751831e-02,-6.975582242012023926e-02,-6.951012462377548218e-02,1.043918635696172714e-02,1.069779172539710999e-01,-5.854727700352668762e-02,3.728772327303886414e-02,-4.820404946804046631e-02,-7.745722681283950806e-02,-1.070753037929534912e-01,-8.024322241544723511e-02,3.611794207245111465e-03,8.848722279071807861e-02,-7.686764746904373169e-02,4.752928391098976135e-02,-1.320396363735198975e-02,-5.382968112826347351e-02,5.631032586097717285e-02,8.695596456527709961e-02,3.225524723529815674e-02,-1.428054086863994598e-02,2.157158032059669495e-02,-5.690881237387657166e-02,7.257003337144851685e-02,-6.001240015029907227e-02,-1.078395321965217590e-01,1.124081164598464966e-01,4.815715923905372620e-02,3.325275331735610962e-02,-6.409707665443420410e-02,1.184567064046859741e-01,1.672349311411380768e-02,-7.307846099138259888e-02,4.180604219436645508e-02,-4.525976628065109253e-02,2.352748997509479523e-02,6.871943920850753784e-02,6.164397671818733215e-02,4.964068066328763962e-03,1.117674857378005981e-01,-9.969153255224227905e-02,-4.113783314824104309e-02,8.704884350299835205e-02,-8.608193136751651764e-03,-5.372846126556396484e-02,1.099086850881576538e-01,1.159447729587554932e-01,2.320447005331516266e-02,-6.478148698806762695e-02,8.202592283487319946e-02,8.071297407150268555e-02,-6.061901152133941650e-02,6.070002913475036621e-02,-5.086582899093627930e-02,-3.281835094094276428e-02,2.105049975216388702e-02,3.104428993538022041e-03,-5.979514122009277344e-02,-9.940138459205627441e-02,-1.220879983156919479e-02,-7.201985269784927368e-02,-8.774335496127605438e-03,1.604603417217731476e-02,4.118046164512634277e-02,-2.363267727196216583e-02,-1.708606630563735962e-02,-9.431398659944534302e-02,-9.049149602651596069e-02,-3.653633594512939453e-02,-2.655220776796340942e-02,-1.175124896690249443e-03,6.824890524148941040e-02,-7.857489399611949921e-04,-3.372157737612724304e-02,-3.411147510632872581e-03,3.730060160160064697e-02,-3.746334835886955261e-02,1.148681864142417908e-01,5.401296168565750122e-02,4.524105042219161987e-02,-7.730123400688171387e-02,-1.855015009641647339e-02,-6.652135401964187622e-03,-4.983166977763175964e-02,-9.788295254111289978e-03,5.706028640270233154e-02,-4.989815875887870789e-02,-9.651795029640197754e-03,-3.821764141321182251e-02,3.216363117098808289e-02,-3.407208248972892761e-02,-2.859410084784030914e-02,1.853170432150363922e-02,3.661352768540382385e-02,7.666712254285812378e-02,4.054164141416549683e-02,-8.899223059415817261e-02,-4.401355981826782227e-02,2.521430840715765953e-03,-2.087528444826602936e-02,-3.590610623359680176e-02,9.112742543220520020e-02,-7.632873952388763428e-02,8.051760494709014893e-03,7.459273934364318848e-02,1.246062759310007095e-02,-8.469972759485244751e-03,1.045432239770889282e-01,-3.039183653891086578e-02,-2.642711158841848373e-03,6.845866143703460693e-02,-1.095500588417053223e-02,4.012070130556821823e-03,-3.836235776543617249e-02,3.160590305924415588e-02,2.276089601218700409e-02,6.116040796041488647e-02,-4.632791131734848022e-02,-1.258424762636423111e-02,2.648637862876057625e-03,4.692122340202331543e-03,1.110966503620147705e-02,-8.806350082159042358e-02,2.298896573483943939e-02,-9.118291735649108887e-02,-1.512323226779699326e-02,-1.300006639212369919e-02,1.862360350787639618e-02,-1.841569691896438599e-02,-6.268066912889480591e-02,1.906754076480865479e-02,-1.955613121390342712e-02,-4.740528017282485962e-02,-1.177222467958927155e-02,3.071695193648338318e-02,-1.523041632026433945e-02,4.256712272763252258e-02,-1.506618876010179520e-02,1.277907006442546844e-02,-5.014364793896675110e-02,-1.915718801319599152e-02,7.860936969518661499e-02,-2.652310393750667572e-02,3.685598820447921753e-02,-6.771916151046752930e-02,2.829900570213794708e-02,-1.283548772335052490e-02,-1.629382185637950897e-02,5.509152542799711227e-03,-1.815032027661800385e-02,1.806991361081600189e-02,-6.545301526784896851e-02,-8.843396604061126709e-02,-2.506777644157409668e-03,-2.552223764359951019e-02,-5.808647256344556808e-04,-3.924080170691013336e-03,-1.700349710881710052e-02,1.235769968479871750e-02,1.021426077932119370e-02,-1.036697179079055786e-01,-7.816170156002044678e-02,2.916990779340267181e-02,-4.235424473881721497e-02,-7.350874692201614380e-02,2.178766019642353058e-02,-4.892679303884506226e-02,-7.346387207508087158e-02,-9.319484978914260864e-02,3.907602652907371521e-02,4.883407056331634521e-02,-1.061486378312110901e-01,-3.536548465490341187e-02,-8.199035655707120895e-04,5.096684023737907410e-02,-2.349798567593097687e-03,6.244842428714036942e-03,5.573519039899110794e-03
-1.737366244196891785e-02,-2.316701784729957581e-02,7.571138441562652588e-02,7.532043382525444031e-03,-3.243110375478863716e-03,-9.207151085138320923e-02,-2.761314972303807735e-04,-5.043350532650947571e-02,4.589247331023216248e-02,2.375810034573078156e-02,2.860707603394985199e-02,-2.130347490310668945e-02,3.193652257323265076e-02,7.044913619756698608e-02,-9.433152154088020325e-03,-4.888869449496269226e-02,-9.752490557730197906e-03,5.354620888829231262e-02,-3.848856431432068348e-04,6.658302247524261475e-02,-6.027797237038612366e-02,-6.090446934103965759e-02,-3.253514692187309265e-02,-8.094599097967147827e-02,-1.810503378510475159e-02,-8.170243352651596069e-02,5.087601765990257263e-02,-1.190469264984130859e-01,-6.796554476022720337e-02,-5.760101601481437683e-02,-4.414765909314155579e-02,-9.464032016694545746e-03,-2.099979296326637268e-02,6.112761422991752625e-02,4.334652423858642578e-02,-5.367663875222206116e-02,2.909388765692710876e-02,-2.009131014347076416e-02,-7.942146807909011841e-02,-1.406970527023077011e-02,-4.837650060653686523e-02,2.360721118748188019e-02,-2.013343945145606995e-02,-1.789401657879352570e-02,6.711099762469530106e-03,-7.070331275463104248e-02,8.806199580430984497e-02,4.357640817761421204e-02,-6.578972190618515015e-02,-3.075959905982017517e-02,-6.178991869091987610e-02,-2.905949577689170837e-02,-2.573771215975284576e-02,3.862005099654197693e-02,4.284892603754997253e-02,5.970855802297592163e-02,-2.897844649851322174e-03,-3.530166810378432274e-03,-5.359508097171783447e-02,-2.015426382422447205e-02,-3.911403939127922058e-02,-2.186827477999031544e-04,-7.370761781930923462e-02,-2.361710555851459503e-02,1.595048047602176666e-02,5.565346777439117432e-02,-5.333442240953445435e-02,6.988514214754104614e-02,1.076084077358245850e-01,9.392666816711425781e-02,1.439580973237752914e-02,3.062740527093410492e-02,1.292684227228164673e-01,-3.165401145815849304e-02,3.956610336899757385e-02,-7.926950603723526001e-02,-6.199643760919570923e-02,-1.188122332096099854e-01,3.819411247968673706e-02,6.563784927129745483e-02,-9.006681293249130249e-02,-4.204754158854484558e-02,-3.240722790360450745e-02,2.293726801872253418e-02,-1.355717051774263382e-02,1.206323429942131042e-01,-8.872038125991821289e-02,1.176732555031776428e-01,-1.031843498349189758e-01,4.221037402749061584e-02,-9.737343341112136841e-02,-5.571879446506500244e-02,1.065197810530662537e-01,3.836449235677719116e-02,2.392919175326824188e-02,-5.178879201412200928e-02,4.897187277674674988e-02,2.811167761683464050e-02,-7.685437449254095554e-04,-3.950434178113937378e-02,2.257409319281578064e-02,-4.447442665696144104e-02,-7.617333531379699707e-02,-1.091093290597200394e-02,-1.248574852943420410e-01,-4.999464750289916992e-02,-3.032532520592212677e-02,-4.185725376009941101e-02,-7.865292578935623169e-02,-1.569649390876293182e-02,8.615296334028244019e-02,-5.164185911417007446e-02,-5.360145121812820435e-02,3.017308749258518219e-02,-8.678112924098968506e-02,-6.693053245544433594e-02,2.619625627994537354e-02,-3.296752646565437317e-02,-5.478175356984138489e-02,5.571106076240539551e-02,7.485798746347427368e-02,9.529908001422882080e-02,-3.306838870048522949e-02,9.530328959226608276e-02,4.824477806687355042e-02,-5.578994005918502808e-02,-8.822039514780044556e-02,-5.135520175099372864e-02,-8.423368632793426514e-02,6.342092901468276978e-02,-8.162171393632888794e-02,3.643530607223510742e-02,5.793643742799758911e-02,3.404389321804046631e-02,-4.485145956277847290e-02,2.523156441748142242e-02,3.969105705618858337e-02,-1.566561870276927948e-02,3.210036456584930420e-02,-5.573087930679321289e-02,4.406599700450897217e-02,-4.213475435972213745e-02,-2.195300720632076263e-02,8.362121880054473877e-02,-3.090459853410720825e-02,-7.261722534894943237e-02,9.156604297459125519e-03,1.915197260677814484e-02,6.900170445442199707e-02,-5.354273691773414612e-02,-9.798009693622589111e-02,-1.132440939545631409e-02,3.202734887599945068e-02,9.781159460544586182e-02,1.862686499953269958e-02,-6.362015008926391602e-02,-7.046177051961421967e-03,-3.225248679518699646e-02,-3.947549685835838318e-02,2.722515165805816650e-02,-9.109538793563842773e-02,1.855675689876079559e-02,2.304412983357906342e-02,-5.850608274340629578e-02,-4.310820251703262329e-02,-6.825719028711318970e-02,-3.217249736189842224e-02,6.645531393587589264e-03,5.430670082569122314e-02,4.899157583713531494e-02,2.758709341287612915e-02,-7.959504611790180206e-03,-4.019786044955253601e-02,-7.418987154960632324e-02,1.705043576657772064e-02,8.567039668560028076e-02,1.993328705430030823e-02,-4.842737689614295959e-02,-6.108188629150390625e-02,-6.358442455530166626e-02,-2.435341477394104004e-02,-3.242696076631546021e-02,7.834087312221527100e-02,2.250475250184535980e-02,8.625713735818862915e-02,-1.087395846843719482e-01,-3.625015169382095337e-02,2.240496128797531128e-02,5.325947701930999756e-02,5.991298239678144455e-03,1.457665860652923584e-02,5.522228777408599854e-03,1.085596755146980286e-01,1.812921091914176941e-02,2.552845887839794159e-02,-7.173069566488265991e-02,-5.066106840968132019e-02,2.201760187745094299e-02,7.882016897201538086e-02,-9.336282499134540558e-03,1.807242818176746368e-02,2.331542223691940308e-02,1.000535860657691956e-01,8.864632993936538696e-02,1.715260930359363556e-02,1.195948943495750427e-02,4.956715926527976990e-02,2.447152743116021156e-03,-4.839359223842620850e-02,-6.116130948066711426e-02,-1.052339747548103333e-01,5.464214459061622620e-02,-7.209029793739318848e-02,-6.684325635433197021e-02,6.895371526479721069e-02,-7.339638471603393555e-02,-2.020458504557609558e-02,-5.780878290534019470e-02,-4.004893824458122253e-02,-8.015328645706176758e-02,-1.976122520864009857e-02,1.962238177657127380e-02,-2.507961168885231018e-02,8.371856063604354858e-02,1.743162423372268677e-02,3.551121801137924194e-02,4.748709499835968018e-03,5.343637242913246155e-02,-1.396200805902481079e-02,-4.643304646015167236e-02,9.997703880071640015e-02,-5.131270736455917358e-03,4.168422147631645203e-02,-1.557105593383312225e-02,-6.637738645076751709e-02,-1.355896331369876862e-02,2.959102019667625427e-02,-1.911506988108158112e-02,-3.556242212653160095e-02,9.370850771665573120e-02,-6.490162760019302368e-02,3.558425977826118469e-02,-7.750377804040908813e-02,9.733662940561771393e-03,6.418097019195556641e-02,5.236201733350753784e-02,6.336472183465957642e-02,2.059642784297466278e-02,-3.193141892552375793e-02,7.906650751829147339e-02,-8.450461179018020630e-02,-4.438452050089836121e-02,2.020715177059173584e-02,2.425047010183334351e-02,-5.693336948752403259e-02,7.466877344995737076e-03
