1.136776208877563477e-01,7.986892946064472198e-03,-1.300832070410251617e-02,1.799648813903331757e-02,4.480207711458206177e-02,-1.477602776139974594e-02,9.278988093137741089e-02,-2.191451005637645721e-02,-5.335416179150342941e-03,9.351905435323715210e-03,3.909703809767961502e-03,1.839229720644652843e-03,1.458668988198041916e-02,1.638447865843772888e-02,-2.310034446418285370e-02,-8.629311621189117432e-02,4.777595773339271545e-02,6.064286921173334122e-03,2.415741048753261566e-02,-1.222235709428787231e-02,-8.714992552995681763e-03,-1.838088035583496094e-02,-1.689440011978149414e-02,5.502616986632347107e-03,-2.268766611814498901e-02,-1.413055807352066040e-01,4.831683821976184845e-03,-1.904675178229808807e-02,2.080174162983894348e-02,-1.418125163763761520e-02,2.732849307358264923e-02,-9.442561306059360504e-03,-6.281118094921112061e-02,2.508776821196079254e-02,7.503317296504974365e-02,1.303673908114433289e-02,6.278102844953536987e-02,5.643903277814388275e-04,1.893774420022964478e-02,1.949336007237434387e-02,3.324715793132781982e-02,-3.611888736486434937e-03,7.403354346752166748e-02,2.537227049469947815e-02,-2.592779509723186493e-02,5.098486319184303284e-02,-1.033742632716894150e-02,-1.310785561800003052e-01,-3.263072296977043152e-02,1.880842074751853943e-02,-1.553099323064088821e-02,4.697145149111747742e-02,1.111218705773353577e-02,1.241949722170829773e-01,1.501942425966262817e-02,-8.768916875123977661e-02,-2.741048112511634827e-02,1.726985424757003784e-01,2.666576765477657318e-02,-1.510881911963224411e-02,3.991188947111368179e-03,-1.413280889391899109e-02,3.135482966899871826e-02,-4.977728705853223801e-03,3.885056823492050171e-02,1.119522145017981529e-03,-7.195651531219482422e-02,2.220654673874378204e-02,1.654359512031078339e-02,-5.765242967754602432e-03,-6.230002618394792080e-04,-1.813192479312419891e-02,-5.976737942546606064e-03,1.396287512034177780e-02,-3.016947070136666298e-03,5.139630753546953201e-03,1.944706216454505920e-02,-4.340110346674919128e-02,-3.078091330826282501e-02,2.217073924839496613e-02,-2.775017917156219482e-02,2.121140062808990479e-02,3.286037594079971313e-02,5.833154544234275818e-02,-8.444489911198616028e-03,5.200498923659324646e-02,-1.648453995585441589e-02,2.220193296670913696e-02,-3.354129940271377563e-02,1.273202151060104370e-01,-3.337417542934417725e-02,-2.366755902767181396e-02,3.132841363549232483e-02,-7.845323532819747925e-03,-8.563802577555179596e-03,-7.386268116533756256e-03,8.760163187980651855e-02,2.624880522489547729e-02,5.955154821276664734e-02,2.048938907682895660e-02,-3.697709739208221436e-02,-1.184980571269989014e-02,5.876484513282775879e-02,-1.000411808490753174e-02,-1.039593107998371124e-02,-7.405027747154235840e-02,2.267653122544288635e-02,4.574582725763320923e-02,-5.611464753746986389e-02,3.554506972432136536e-02,-2.540186978876590729e-02,5.123895779252052307e-02,6.285925954580307007e-02,-2.753652818500995636e-02,-1.956927962601184845e-02,-2.383087761700153351e-02,-6.900430656969547272e-03,4.107397049665451050e-02,-1.612438820302486420e-02,1.655913144350051880e-02,-2.539285272359848022e-02,5.711555853486061096e-02,6.483888626098632812e-02,-2.879576198756694794e-02,9.593144059181213379e-03,-1.274903770536184311e-02,2.931052260100841522e-02,-4.847212694585323334e-03
1.044676732271909714e-02,1.460952498018741608e-02,-1.210669428110122681e-01,4.882209002971649170e-03,-2.383160032331943512e-02,-1.850855536758899689e-03,6.106557697057723999e-02,3.077590954490005970e-04,-1.274014823138713837e-03,-3.012305311858654022e-02,2.835762500762939453e-02,3.067534789443016052e-02,-3.509913221932947636e-05,4.072992503643035889e-02,-6.716336589306592941e-03,2.197376266121864319e-02,-9.459297172725200653e-03,6.418741540983319283e-04,8.164328522980213165e-03,2.388767898082733154e-03,-7.593758404254913330e-03,-6.433996558189392090e-02,-4.723413381725549698e-03,1.527676638215780258e-02,-7.187478244304656982e-03,1.967391818761825562e-01,-1.309363730251789093e-02,-6.577509455382823944e-03,4.000020027160644531e-02,-1.486615277826786041e-03,-2.372329495847225189e-02,6.024597212672233582e-03,-2.866641879081726074e-01,-2.939103357493877411e-02,9.431520849466323853e-02,2.341136150062084198e-02,-1.544706970453262329e-01,1.539772655814886093e-02,1.418044567108154297e-01,-1.762946322560310364e-02,-1.984799280762672424e-02,-1.023856773972511292e-01,8.145171403884887695e-02,-5.213519930839538574e-02,-2.514806110411882401e-04,-2.471758723258972168e-01,-9.642366319894790649e-03,-6.918104737997055054e-02,-2.347048930823802948e-02,2.102276775985956192e-03,-7.243756204843521118e-02,-4.159101471304893494e-02,-1.098821405321359634e-02,-4.395971074700355530e-02,-1.140339672565460205e-02,-1.053172815591096878e-02,7.002400234341621399e-03,-3.370176553726196289e-01,-3.411511480808258057e-01,5.843040067702531815e-03,6.923153530806303024e-03,4.413314629346132278e-03,-1.023716107010841370e-01,-2.727129682898521423e-02,5.107162985950708389e-03,1.615354232490062714e-02,3.458940237760543823e-02,1.011441368609666824e-02,-9.155187010765075684e-02,-2.572258003056049347e-03,3.849801793694496155e-02,-6.085634813643991947e-04,-7.008605753071606159e-04,1.088249497115612030e-02,1.976508833467960358e-02,4.758819192647933960e-02,1.978444925043731928e-04,1.517201364040374756e-01,-4.970797803252935410e-03,7.830367237329483032e-02,-1.050348021090030670e-02,4.658739548176527023e-03,4.032220318913459778e-02,-1.823272742331027985e-02,-2.975378185510635376e-03,-2.960518561303615570e-02,-5.648207385092973709e-03,3.739015012979507446e-02,-4.864862188696861267e-03,-3.198641538619995117e-02,-3.669276833534240723e-02,-5.762156099081039429e-03,5.114483460783958435e-02,-7.480386411771178246e-04,-8.298814296722412109e-03,7.037028204649686813e-03,-8.095673285424709320e-03,9.815163910388946533e-03,5.321385711431503296e-02,4.183968994766473770e-03,-4.414321109652519226e-02,-2.362243132665753365e-03,3.611596301198005676e-02,4.073688251082785428e-05,-7.113204337656497955e-04,-1.002214848995208740e-02,1.244735904037952423e-02,2.426903881132602692e-02,-9.457552223466336727e-04,7.654750347137451172e-02,-7.686790078878402710e-03,4.197885096073150635e-02,-1.698170043528079987e-02,4.821601789444684982e-03,2.751174906734377146e-04,-3.256321325898170471e-02,-7.973693311214447021e-03,-2.860472537577152252e-03,-7.921521551907062531e-03,3.125282749533653259e-02,-8.129505440592765808e-03,1.941233756951987743e-03,1.545375492423772812e-02,-8.064307272434234619e-03,2.914713136851787567e-02,-1.392680220305919647e-03,3.369414806365966797e-02,5.705367773771286011e-03
2.459848821163177490e-01,5.210313200950622559e-02,-9.621910750865936279e-02,3.770585730671882629e-02,5.387324839830398560e-02,-1.930164545774459839e-02,6.178584415465593338e-03,1.965993829071521759e-02,-2.010871656239032745e-02,-1.683124713599681854e-02,6.806419230997562408e-03,1.958422176539897919e-02,3.139320388436317444e-02,8.556845039129257202e-02,-4.129071161150932312e-02,7.734907418489456177e-02,1.271056979894638062e-01,2.145065367221832275e-02,4.318957030773162842e-02,2.884147316217422485e-02,-2.622850798070430756e-02,-9.891255199909210205e-02,-8.956586010754108429e-03,-5.430759117007255554e-02,-4.390538483858108521e-02,-2.442274540662765503e-01,3.205092996358871460e-02,-3.863653168082237244e-02,3.174351900815963745e-02,-3.114795871078968048e-02,5.674879997968673706e-02,-2.801835723221302032e-02,-7.039875537157058716e-02,6.957010179758071899e-02,1.604980379343032837e-01,-4.166376218199729919e-02,2.130256593227386475e-02,2.955012582242488861e-02,-1.101264655590057373e-01,-6.178855895996093750e-02,6.067386642098426819e-02,1.850631386041641235e-01,1.064772382378578186e-01,3.556877374649047852e-02,-6.122682243585586548e-02,9.736310690641403198e-02,3.577138856053352356e-02,4.910325258970260620e-02,1.775760352611541748e-01,5.441431328654289246e-02,6.515468657016754150e-02,-3.755477443337440491e-02,2.619491331279277802e-02,8.828590065240859985e-02,2.303947880864143372e-02,1.356644332408905029e-01,-3.164555504918098450e-02,2.065150886774063110e-01,5.197256430983543396e-02,-5.691855214536190033e-03,1.251828819513320923e-01,-3.704093024134635925e-02,-7.316722720861434937e-02,-5.169720575213432312e-02,1.431967020034790039e-01,-2.715061884373426437e-03,-4.603739455342292786e-02,6.638886779546737671e-02,-1.187549009919166565e-01,-1.635577529668807983e-02,2.326660901308059692e-01,-1.697949692606925964e-02,-1.526242494583129883e-02,5.002527311444282532e-02,2.576530352234840393e-02,3.325773775577545166e-02,4.520424082875251770e-02,1.202511787414550781e-02,-5.080176144838333130e-02,-6.928826868534088135e-02,1.907585933804512024e-02,5.611288920044898987e-02,6.919290125370025635e-02,4.255565628409385681e-02,-2.876700274646282196e-02,6.804318726062774658e-02,-3.458257392048835754e-02,-9.965798817574977875e-03,-5.820110067725181580e-02,2.282151281833648682e-01,7.197482883930206299e-02,-4.562620073556900024e-02,7.119095325469970703e-02,-3.706271573901176453e-02,8.542073518037796021e-02,-2.327460236847400665e-02,1.404099762439727783e-01,3.021037951111793518e-02,1.366952210664749146e-01,-7.172432262450456619e-03,-7.004070281982421875e-02,-7.964984513819217682e-03,1.582781672477722168e-01,4.706178605556488037e-02,-3.014053590595722198e-02,-1.160882711410522461e-01,6.672137230634689331e-02,3.063625656068325043e-02,-4.346484318375587463e-02,3.987127169966697693e-02,-4.418447613716125488e-02,5.939154699444770813e-02,1.085301637649536133e-01,1.370600610971450806e-01,-1.827176660299301147e-02,3.888933360576629639e-02,-2.590724080801010132e-02,1.155782043933868408e-01,-2.997853606939315796e-02,-1.000015288591384888e-01,-4.758431389927864075e-02,1.176945641636848450e-01,-4.460937902331352234e-02,-5.303879082202911377e-02,9.805583208799362183e-02,-5.490902811288833618e-02,9.559403359889984131e-02,1.444634981453418732e-02
-1.137143094092607498e-02,1.352683827280998230e-02,-5.626034364104270935e-02,7.249033078551292419e-03,-2.551871351897716522e-03,-4.141577053815126419e-03,-5.026984587311744690e-02,-6.774652749300003052e-03,-1.790779177099466324e-03,1.725471019744873047e-02,-1.072565373033285141e-02,2.510521560907363892e-02,2.847369061782956123e-03,9.920111857354640961e-03,-6.064428016543388367e-03,-2.294352650642395020e-01,2.833252400159835815e-02,-1.062072347849607468e-03,1.421367935836315155e-02,-2.023128606379032135e-02,-1.355853304266929626e-02,6.807286292314529419e-02,-8.693453855812549591e-03,8.459930308163166046e-03,-6.578583735972642899e-03,-2.931552529335021973e-01,-9.851996786892414093e-03,-1.730801537632942200e-02,-4.234126769006252289e-03,-4.006261471658945084e-03,3.353061154484748840e-02,-2.015662379562854767e-03,-1.063356772065162659e-01,5.231567472219467163e-02,1.737495362758636475e-01,3.375866636633872986e-02,1.201852560043334961e-01,1.769720809534192085e-03,-3.331412747502326965e-02,6.675757933408021927e-03,-1.407690253108739853e-02,-4.995717480778694153e-02,2.456588856875896454e-02,-2.534864284098148346e-02,-5.410846788436174393e-03,-1.478875130414962769e-01,4.767895676195621490e-03,-3.569019958376884460e-02,-1.469814330339431763e-01,4.805152770131826401e-03,-3.808261454105377197e-02,-1.334938406944274902e-01,-1.318541704677045345e-03,-1.767150592058897018e-03,-1.205292716622352600e-02,-1.022771224379539490e-01,-1.554888556711375713e-03,-2.257113717496395111e-02,2.584692463278770447e-02,-3.608763450756669044e-03,2.988182473927736282e-03,-1.074608415365219116e-02,2.109783142805099487e-02,-4.383018240332603455e-03,5.386198870837688446e-03,1.405505184084177017e-02,-3.231572732329368591e-02,3.297286573797464371e-03,-6.599503010511398315e-02,-3.970527090132236481e-03,-9.082706645131111145e-03,-4.336598329246044159e-03,-2.011355245485901833e-03,1.439380738884210587e-02,-1.618792116641998291e-02,3.351564705371856689e-02,3.041495569050312042e-03,2.539633959531784058e-02,-5.989995785057544708e-03,-2.357182800769805908e-01,-1.663902960717678070e-02,6.090497132390737534e-03,2.096501365303993225e-02,2.491651102900505066e-02,-1.488776225596666336e-02,3.436435759067535400e-02,-1.442276965826749802e-02,2.029487397521734238e-03,-7.768496870994567871e-03,6.098180636763572693e-02,-4.209417477250099182e-02,-1.741576381027698517e-02,1.799307018518447876e-02,-4.679384175688028336e-03,-2.179390937089920044e-02,-2.160897711291909218e-03,3.287286683917045593e-02,2.040579728782176971e-02,1.610192656517028809e-02,-2.662143437191843987e-03,-3.016518242657184601e-02,-4.135583527386188507e-03,2.884339541196823120e-02,-5.454457364976406097e-03,-2.179736737161874771e-03,-5.157486535608768463e-03,-1.014073751866817474e-02,1.144549716264009476e-02,1.019606273621320724e-02,5.920077115297317505e-02,-6.177615839987993240e-03,-1.463565696030855179e-02,3.788813203573226929e-02,3.286455571651458740e-02,-4.658452421426773071e-02,-1.884868927299976349e-02,-1.433114521205425262e-02,2.523122355341911316e-02,-1.603005453944206238e-02,8.437737822532653809e-03,-7.234416436403989792e-03,1.679034531116485596e-02,7.338821142911911011e-02,-2.242419868707656860e-02,-7.111287210136651993e-03,-4.534882958978414536e-03,1.968623511493206024e-02,-2.078110352158546448e-03
-9.378574043512344360e-02,-2.226261794567108154e-02,-7.197184860706329346e-02,4.397514089941978455e-02,1.013223528861999512e-01,-3.547165542840957642e-02,2.324647270143032074e-02,-2.280331589281558990e-02,-1.938374154269695282e-02,5.084747076034545898e-02,-9.439667686820030212e-03,2.143021300435066223e-02,3.269338607788085938e-02,8.541727811098098755e-02,-4.523407667875289917e-02,1.062949188053607941e-02,1.352401524782180786e-01,2.603917382657527924e-02,4.726906865835189819e-02,-4.728788137435913086e-02,-2.356929332017898560e-02,5.510383844375610352e-02,-1.551507785916328430e-02,5.593324825167655945e-02,-4.994207993149757385e-02,-3.493798151612281799e-02,3.420356661081314087e-02,-4.927467927336692810e-02,-4.264866467565298080e-03,-2.462657168507575989e-02,9.367132931947708130e-02,-4.466449841856956482e-02,2.091092467308044434e-01,-7.478908449411392212e-02,3.794298507273197174e-03,-1.510638892650604248e-01,8.274841122329235077e-03,1.549655944108963013e-02,6.802126765251159668e-02,1.682368665933609009e-02,-6.182344164699316025e-03,-4.465696215629577637e-02,-7.473730295896530151e-02,-7.715129852294921875e-02,-6.460772454738616943e-02,1.873968839645385742e-01,-6.393402814865112305e-02,1.736021637916564941e-01,-1.071804463863372803e-01,6.129820644855499268e-02,5.488200485706329346e-02,1.432649046182632446e-01,-1.338323019444942474e-02,1.404546853154897690e-02,-2.773335203528404236e-02,-9.968424588441848755e-02,1.762820407748222351e-02,6.847126781940460205e-02,2.059467285871505737e-01,-2.190559171140193939e-02,3.482683002948760986e-02,2.871149592101573944e-02,-2.089410871267318726e-01,4.804899543523788452e-02,1.800784915685653687e-01,-7.700616121292114258e-02,-6.494314968585968018e-02,7.103738188743591309e-02,1.290494352579116821e-01,-4.542061686515808105e-02,1.645785570144653320e-01,-3.867315500974655151e-02,-1.504867896437644958e-02,9.971197694540023804e-02,-1.136326417326927185e-02,3.688528016209602356e-02,4.623526707291603088e-02,2.538105845451354980e-02,-5.601209774613380432e-02,1.302985697984695435e-01,2.911386825144290924e-02,5.820978060364723206e-02,7.434747368097305298e-02,1.875288039445877075e-01,-2.429129928350448608e-02,3.447515144944190979e-02,-3.928665444254875183e-02,1.309137791395187378e-01,-6.574603170156478882e-02,1.468462646007537842e-01,6.073397397994995117e-02,-5.326664820313453674e-02,4.188109561800956726e-02,-2.716656029224395752e-02,4.574912413954734802e-02,-3.061418794095516205e-02,1.046452969312667847e-01,4.015083983540534973e-02,5.023917183279991150e-02,7.363820821046829224e-02,4.090590402483940125e-02,-1.157343015074729919e-02,1.297580152750015259e-01,-8.895652741193771362e-02,-3.299992531538009644e-02,9.711361490190029144e-03,4.314785450696945190e-02,7.225237041711807251e-02,-1.570832282304763794e-01,-1.618517376482486725e-02,-4.799744114279747009e-02,1.505481600761413574e-01,1.815926730632781982e-01,1.196107268333435059e-01,2.557253837585449219e-02,-2.189566753804683685e-02,-2.074287831783294678e-02,1.064936295151710510e-01,-3.772201389074325562e-02,2.639275416731834412e-02,-5.458320304751396179e-02,4.790512844920158386e-02,-1.352195143699645996e-01,-5.942508205771446228e-02,3.811551257967948914e-02,-2.052251435816287994e-02,8.523929864168167114e-02,-1.297878846526145935e-02
2.019229158759117126e-02,-1.322914380580186844e-02,-7.213983684778213501e-02,2.470434643328189850e-02,3.926349058747291565e-02,-1.391091570258140564e-02,2.000766992568969727e-02,-1.792473904788494110e-02,-6.244734395295381546e-03,2.398427389562129974e-02,8.102470077574253082e-03,3.459311090409755707e-03,2.406475879251956940e-02,1.891748607158660889e-02,-3.737179562449455261e-02,-2.850447893142700195e-01,7.270988076925277710e-02,1.047834288328886032e-02,2.847535721957683563e-02,1.868418604135513306e-02,5.926682613790035248e-03,8.767841756343841553e-02,-1.549671497195959091e-02,3.639784082770347595e-02,-3.996260091662406921e-02,-2.758950889110565186e-01,7.384003605693578720e-03,-2.677359804511070251e-02,3.565309336408972740e-03,-1.290376577526330948e-02,4.864468798041343689e-02,-9.965352714061737061e-03,-1.745231747627258301e-01,3.165228292346000671e-03,1.390123367309570312e-01,5.265930667519569397e-03,1.578011661767959595e-01,-2.808106318116188049e-02,-2.255500853061676025e-02,3.716172277927398682e-02,-4.102483764290809631e-02,2.179491817951202393e-01,2.870782464742660522e-02,9.146627783775329590e-02,-4.009239375591278076e-02,-2.390845417976379395e-01,3.792882338166236877e-02,-2.090992219746112823e-02,-3.177984654903411865e-01,2.766146883368492126e-02,9.977470338344573975e-02,1.575867831707000732e-01,3.924952819943428040e-02,1.847009509801864624e-01,-4.447937384247779846e-02,-7.630374282598495483e-02,-3.677205741405487061e-02,1.340480595827102661e-01,-1.452000588178634644e-01,-2.045668661594390869e-02,1.101943254470825195e-01,-3.305450081825256348e-03,-1.801470667123794556e-01,-1.101843174546957016e-02,7.994824647903442383e-02,-6.215897575020790100e-02,-1.034289598464965820e-01,3.304754197597503662e-02,4.418421536684036255e-02,-1.331335306167602539e-02,1.247841306030750275e-02,-2.171973884105682373e-02,-7.015286013484001160e-03,-1.332137919962406158e-02,-9.123292751610279083e-03,8.577696979045867920e-03,3.422183543443679810e-02,-5.654229596257209778e-02,-4.916776344180107117e-02,-3.423304259777069092e-01,-3.761694952845573425e-02,2.800510451197624207e-02,3.382748365402221680e-02,1.071698516607284546e-01,1.239501964300870895e-02,3.231548517942428589e-02,-2.629111520946025848e-02,-3.686857596039772034e-02,-4.782819375395774841e-02,9.148076176643371582e-02,-8.101310580968856812e-02,-3.296160697937011719e-02,2.564994618296623230e-02,-1.246179360896348953e-02,-1.524571795016527176e-02,-6.131085101515054703e-03,8.369895070791244507e-02,1.090621575713157654e-02,2.717340365052223206e-02,-8.367090672254562378e-02,5.858436226844787598e-02,-1.227518264204263687e-02,6.508050113916397095e-02,-1.966642402112483978e-02,-6.756498944014310837e-03,-6.424611434340476990e-03,3.530457988381385803e-02,2.775217965245246887e-02,-2.368918433785438538e-02,1.345555633306503296e-01,-4.038648679852485657e-02,7.362572010606527328e-03,9.914527088403701782e-02,2.408781647682189941e-02,5.565064493566751480e-03,-5.777996778488159180e-02,1.685957796871662140e-02,3.093471378087997437e-02,-2.953591011464595795e-02,4.092537239193916321e-02,-4.121343418955802917e-02,1.669847220182418823e-02,-8.052781969308853149e-02,-3.656399250030517578e-02,3.842728957533836365e-02,-1.395796053111553192e-02,5.018977820873260498e-02,-7.274386938661336899e-03
-7.748956233263015747e-02,2.757168561220169067e-02,1.161003783345222473e-01,1.756013557314872742e-02,5.752092599868774414e-02,-9.362527169287204742e-03,1.103054955601692200e-01,-1.383281964808702469e-02,-5.490233656018972397e-03,3.274477273225784302e-02,-5.573126836679875851e-04,3.259457275271415710e-02,1.058625988662242889e-02,7.049845531582832336e-03,-1.806154474616050720e-02,1.390172392129898071e-01,4.229766502976417542e-02,5.568261723965406418e-03,2.665372006595134735e-02,-3.053317777812480927e-02,-3.000540658831596375e-02,-1.604097932577133179e-01,-1.626463606953620911e-02,1.985966973006725311e-02,-2.275709249079227448e-02,4.355060756206512451e-01,2.129288855940103531e-03,-3.612469509243965149e-02,3.515657782554626465e-02,-7.083903998136520386e-03,-6.573012215085327625e-04,-8.137028664350509644e-03,-2.834428800269961357e-03,-9.244510531425476074e-02,-2.498262971639633179e-01,6.155832856893539429e-02,-1.058567911386489868e-01,5.486447829753160477e-03,-2.252375036478042603e-01,-1.113400142639875412e-02,8.084432221949100494e-03,-1.149189695715904236e-01,5.670658126473426819e-02,-3.232205286622047424e-02,-1.989091560244560242e-02,1.083192005753517151e-01,-2.191240340471267700e-02,-1.703539937734603882e-01,2.635352909564971924e-01,1.882730051875114441e-02,-1.005257293581962585e-02,-1.662738621234893799e-01,-1.102430094033479691e-02,1.116881668567657471e-01,1.667436398565769196e-02,-1.590462587773799896e-02,2.853991463780403137e-02,1.506952196359634399e-01,-4.289513081312179565e-02,-2.886330476030707359e-03,1.677580550312995911e-02,5.303817987442016602e-02,-1.097064763307571411e-01,-3.885905258357524872e-03,2.633834257721900940e-02,7.159433327615261078e-03,1.139787733554840088e-01,1.957563497126102448e-02,4.867962747812271118e-02,-9.493592195212841034e-03,1.374640464782714844e-01,-1.027296204119920731e-02,-5.861418787389993668e-03,4.883480817079544067e-02,-1.255092024803161621e-02,4.145783558487892151e-02,1.216527912765741348e-02,6.564085930585861206e-02,-1.897992566227912903e-02,2.423913776874542236e-01,4.861966893076896667e-02,2.190636284649372101e-02,4.759486764669418335e-02,2.247502841055393219e-02,-4.071038961410522461e-02,1.141472440212965012e-02,-2.492284774780273438e-02,7.959559559822082520e-02,-2.827713079750537872e-02,-2.047335356473922729e-02,1.041207984089851379e-01,-3.784710913896560669e-02,5.097609385848045349e-02,-6.072564050555229187e-03,1.334729022346436977e-03,-7.685379125177860260e-03,5.832741037011146545e-02,2.372380532324314117e-02,1.389081329107284546e-01,8.107268810272216797e-02,1.495409663766622543e-02,-7.529203779995441437e-03,8.135510236024856567e-02,-4.942861385643482208e-03,-7.309227250516414642e-03,4.523054137825965881e-02,3.358996938914060593e-03,6.476738303899765015e-02,4.945022519677877426e-03,5.882453173398971558e-02,-1.908257789909839630e-02,1.053859069943428040e-01,4.585370793938636780e-02,-7.091181352734565735e-03,7.088484615087509155e-02,2.971587236970663071e-03,-3.730468824505805969e-02,5.314330384135246277e-02,-2.562694251537322998e-02,1.045411154627799988e-01,-2.451256103813648224e-02,4.316814243793487549e-02,-4.013121500611305237e-02,-4.589703306555747986e-02,1.260984223335981369e-03,-1.852605724707245827e-03,2.992537245154380798e-02,-7.270889822393655777e-03
-3.770019393414258957e-03,9.517454542219638824e-03,7.193544413894414902e-03,9.664332901593297720e-05,2.153211645781993866e-02,-2.501038034097291529e-05,-1.106799487024545670e-02,-9.812902426347136497e-04,-5.708001117454841733e-05,-3.590234788134694099e-03,-1.372929196804761887e-02,-3.852956462651491165e-03,-1.748259237501770258e-04,4.558449145406484604e-03,-6.585790542885661125e-04,5.294804926961660385e-03,7.967324927449226379e-04,1.551321620354428887e-04,-1.486735302023589611e-03,8.951836498454213142e-04,2.012132667005062103e-03,-1.104561891406774521e-02,-3.522879909723997116e-03,1.248361635953187943e-02,-9.371904307045042515e-04,-3.401139751076698303e-02,-1.883316144812852144e-04,-2.980870194733142853e-04,2.141931792721152306e-03,-1.036808476783335209e-03,4.005043301731348038e-03,-2.041983185335993767e-03,-2.377075143158435822e-03,1.410142704844474792e-02,-2.505436539649963379e-02,-2.127355110133066773e-04,1.588732190430164337e-02,3.664044197648763657e-03,1.844620890915393829e-02,-1.351994648575782776e-02,-8.692684583365917206e-03,-1.488721836358308792e-02,3.238065913319587708e-02,-2.087332541123032570e-03,-6.191222200868651271e-05,-1.188287977129220963e-02,-1.442418713122606277e-02,1.842844784259796143e-01,8.503312617540359497e-02,1.542692887596786022e-03,-7.883467711508274078e-03,8.179087191820144653e-03,-1.644714549183845520e-02,3.145170398056507111e-03,-1.606301777064800262e-02,-3.537178784608840942e-02,1.150113763287663460e-03,6.463713198900222778e-02,1.201934181153774261e-03,1.044607255607843399e-02,-1.486262585967779160e-02,1.651477301493287086e-03,3.235800657421350479e-03,5.822438746690750122e-03,5.806446424685418606e-04,8.980511687695980072e-03,2.056583203375339508e-02,3.955224237870424986e-04,2.275932952761650085e-02,-8.550682832719758153e-05,-2.118975098710507154e-04,-6.177720497362315655e-04,-8.386343688471242785e-05,3.009827807545661926e-02,-1.638334430754184723e-02,-3.338739043101668358e-03,1.040256000123918056e-03,-9.257085621356964111e-03,7.220187690109014511e-04,8.129881322383880615e-02,-3.175502270460128784e-02,-5.778193590231239796e-04,1.060925074853003025e-03,1.958919223397970200e-03,3.115829778835177422e-03,-2.354391664266586304e-02,-1.936512649990618229e-03,2.703099325299263000e-02,-8.956909878179430962e-04,-3.148473054170608521e-02,1.489318790845572948e-03,2.209249651059508324e-03,3.789939219132065773e-03,-7.458317559212446213e-04,-7.488769479095935822e-04,-1.905639888718724251e-03,-1.856178045272827148e-03,1.282679568976163864e-02,1.452140603214502335e-02,2.656544186174869537e-02,2.540148049592971802e-02,-3.553844726411625743e-05,4.140929086133837700e-04,-9.894263930618762970e-04,-1.090549267246387899e-04,1.815133728086948395e-02,-8.769012987613677979e-03,4.362687002867460251e-03,-1.717542298138141632e-02,7.688811048865318298e-03,-3.772115451283752918e-05,1.217012293636798859e-02,2.084629237651824951e-02,-2.843529917299747467e-03,-7.005930412560701370e-03,1.110477279871702194e-02,2.832322381436824799e-03,-1.157770678400993347e-02,-1.274919952265918255e-03,3.476808592677116394e-02,-1.161904074251651764e-03,-1.048840675503015518e-02,6.627940572798252106e-03,1.786731649190187454e-03,-5.522908642888069153e-03,-1.127472962252795696e-03,1.001708954572677612e-02,-2.632010029628872871e-03
-6.817564368247985840e-02,6.800391525030136108e-02,6.656680256128311157e-02,3.954522311687469482e-02,5.240576341748237610e-02,-4.541645944118499756e-02,1.157961338758468628e-01,-8.766720443964004517e-02,-1.772529631853103638e-02,7.171262055635452271e-02,-2.052203565835952759e-02,3.469993919134140015e-02,2.383994311094284058e-02,8.496589213609695435e-02,-3.201110288500785828e-02,2.813977748155593872e-02,1.333559155464172363e-01,1.611502841114997864e-02,3.884960338473320007e-02,-1.386233977973461151e-02,-3.226938471198081970e-02,1.109331008046865463e-02,-2.338873967528343201e-02,8.204065263271331787e-02,-3.707083687186241150e-02,-1.583260595798492432e-01,3.456276655197143555e-02,-4.770017042756080627e-02,3.092654980719089508e-03,-5.297137796878814697e-02,3.258239105343818665e-02,-2.557532489299774170e-02,-1.696465611457824707e-01,5.798116791993379593e-03,9.961958229541778564e-02,1.823220252990722656e-01,-1.007401198148727417e-02,-9.447556803934276104e-04,1.984880864620208740e-01,-2.836238965392112732e-02,-6.503750383853912354e-02,8.555042441003024578e-04,-3.432280197739601135e-02,-1.700443029403686523e-01,-5.025456845760345459e-02,-5.577901005744934082e-02,1.128190103918313980e-02,-9.721618890762329102e-02,7.142030447721481323e-02,4.207757860422134399e-02,-1.153913438320159912e-01,1.573514193296432495e-01,-2.934765256941318512e-02,-3.299589827656745911e-02,5.631332099437713623e-02,8.268690854310989380e-02,-3.232083097100257874e-02,5.938163772225379944e-02,-8.674118667840957642e-02,1.749528385698795319e-02,-5.971870198845863342e-02,1.461878139525651932e-02,1.392205953598022461e-01,1.585238054394721985e-02,1.947816088795661926e-02,4.426774382591247559e-02,-4.787112027406692505e-02,5.462065711617469788e-02,3.068952821195125580e-02,-2.327913418412208557e-02,8.580572903156280518e-02,-3.491131216287612915e-02,-1.419771183282136917e-02,-5.727388337254524231e-02,-4.337679594755172729e-02,5.783013254404067993e-02,3.259669616818428040e-02,1.363938152790069580e-01,-3.825808316469192505e-02,-1.403756439685821533e-01,-2.215367741882801056e-03,4.734311252832412720e-02,5.911883339285850525e-02,1.417222768068313599e-01,-3.666424751281738281e-02,4.925541579723358154e-02,-3.816413134336471558e-02,2.020657435059547424e-02,-4.940367862582206726e-02,2.204951345920562744e-01,-4.385809227824211121e-02,-5.250213295221328735e-02,5.417345836758613586e-02,-4.090340435504913330e-02,7.508049160242080688e-02,-2.167080715298652649e-02,1.628120839595794678e-01,8.581742644309997559e-02,6.264541298151016235e-02,1.207814924418926239e-02,5.449354276061058044e-02,-5.108810961246490479e-02,1.169429644942283630e-01,-3.251930465921759605e-03,-3.517146408557891846e-02,-2.872173301875591278e-02,1.061835698783397675e-02,5.504438653588294983e-02,-7.971721887588500977e-02,-3.053307533264160156e-02,-3.373365849256515503e-02,1.019776090979576111e-01,1.166037619113922119e-01,-1.783361472189426422e-02,3.543962165713310242e-02,-3.699484467506408691e-02,-3.328016772866249084e-02,7.470137625932693481e-02,-3.312674164772033691e-02,9.254909306764602661e-02,-4.042728617787361145e-02,5.426885560154914856e-02,-2.314204908907413483e-02,-6.076116487383842468e-02,2.742024697363376617e-02,-5.877036973834037781e-02,4.949772730469703674e-02,-2.743372321128845215e-02
-1.431583166122436523e-01,-2.300513442605733871e-03,1.110363006591796875e-01,2.451845631003379822e-02,1.860449649393558502e-02,-2.845059894025325775e-02,-1.020512357354164124e-01,-4.816492646932601929e-02,-9.585115127265453339e-03,3.953250497579574585e-02,-4.063173197209835052e-03,1.655898056924343109e-02,1.999033987522125244e-02,5.062729865312576294e-02,-2.830548956990242004e-02,-6.147743016481399536e-02,8.085673302412033081e-02,1.126208435744047165e-02,3.868024423718452454e-02,-3.570942208170890808e-02,-2.394250035285949707e-02,-4.786916542798280716e-03,-2.533568255603313446e-02,-1.913702674210071564e-02,-3.069005161523818970e-02,1.026616841554641724e-01,2.324097603559494019e-02,-3.737271204590797424e-02,2.089543268084526062e-02,-1.064796000719070435e-02,1.265244674868881702e-03,-1.336235203780233860e-03,-2.598046697676181793e-02,-1.499308086931705475e-02,-1.920247524976730347e-01,8.203423768281936646e-02,-8.438594639301300049e-02,-2.642498537898063660e-02,-1.598595082759857178e-01,-7.751792669296264648e-03,2.435347251594066620e-02,-1.373176425695419312e-01,1.130163669586181641e-01,-2.107219584286212921e-02,-3.767906874418258667e-02,-1.045082733035087585e-01,3.719494864344596863e-02,-4.012948647141456604e-02,-4.012090712785720825e-02,3.248167783021926880e-02,-6.232276558876037598e-02,-6.355447322130203247e-02,3.627227619290351868e-02,4.517737776041030884e-02,-2.176708914339542389e-02,-3.083074837923049927e-02,-2.030338533222675323e-02,-4.763927683234214783e-02,-1.923438459634780884e-01,-1.519608404487371445e-02,-9.696195274591445923e-02,3.348140791058540344e-02,-6.496711820363998413e-02,-4.567274823784828186e-02,-6.140574347227811813e-03,6.793621927499771118e-02,1.287036985158920288e-01,3.126100823283195496e-02,-3.495737165212631226e-02,-1.280450914055109024e-02,-3.502558544278144836e-02,-2.456573396921157837e-02,-1.085795927792787552e-02,3.969761356711387634e-02,-2.423279732465744019e-02,2.480079233646392822e-02,2.715891413390636444e-02,1.991803012788295746e-02,-3.428474441170692444e-02,-7.546874880790710449e-02,1.987915113568305969e-02,3.264130279421806335e-02,5.716003477573394775e-02,8.183001726865768433e-02,-2.963999100029468536e-02,2.581934817135334015e-02,-3.190598264336585999e-02,-5.023918580263853073e-03,-4.131980240345001221e-02,9.012717753648757935e-02,-4.454714362509548664e-04,-4.034425690770149231e-02,5.700635537505149841e-02,-5.062669515609741211e-04,-3.680078312754631042e-02,-1.081103365868330002e-02,7.311382889747619629e-02,2.337596006691455841e-02,1.754434257745742798e-01,1.000234335660934448e-01,2.227115258574485779e-02,-3.483774140477180481e-02,1.162101030349731445e-01,-5.496207624673843384e-02,-5.389914847910404205e-03,1.065531000494956970e-01,1.537377294152975082e-02,1.073665767908096313e-01,6.447891145944595337e-02,7.355386018753051758e-02,-3.047848679125308990e-02,9.420774132013320923e-02,1.012139245867729187e-01,6.012070178985595703e-02,-6.003392860293388367e-02,8.929401636123657227e-03,-2.597652189433574677e-02,8.371786773204803467e-02,-3.148631379008293152e-02,2.569388411939144135e-02,-3.406724706292152405e-02,1.134532317519187927e-01,9.634073078632354736e-02,-4.723309725522994995e-02,-8.734133839607238770e-02,2.134960610419511795e-03,5.974991247057914734e-02,-7.934763096272945404e-03
-5.149551108479499817e-02,3.718633204698562622e-02,3.066365420818328857e-02,3.668482229113578796e-02,3.943177312612533569e-02,-1.248587574809789658e-02,-8.101442456245422363e-02,-8.091387897729873657e-02,-1.430209260433912277e-02,4.444279521703720093e-02,2.285123988986015320e-02,1.671884208917617798e-02,3.252139315009117126e-02,9.274041652679443359e-02,-4.309260100126266479e-02,1.321827024221420288e-01,1.281187236309051514e-01,2.387647517025470734e-02,4.604733362793922424e-02,-2.418861165642738342e-02,-2.299482747912406921e-02,8.880959823727607727e-03,-3.491188213229179382e-02,-5.567869171500205994e-02,-4.580933600664138794e-02,-1.797234266996383667e-01,3.406706079840660095e-02,-4.233141615986824036e-02,1.746404729783535004e-02,-4.019884392619132996e-02,6.914816796779632568e-02,-3.578599169850349426e-02,-5.712267477065324783e-03,1.134129315614700317e-01,-4.771587625145912170e-02,-3.576139360666275024e-02,-8.860243111848831177e-02,3.354623215273022652e-03,8.476734161376953125e-02,-2.474381029605865479e-02,5.183177068829536438e-03,9.112527966499328613e-02,3.701959550380706787e-02,-7.739658001810312271e-03,-6.346781551837921143e-02,-5.964614078402519226e-02,-5.761684104800224304e-02,1.506851017475128174e-01,6.316329538822174072e-02,5.516837164759635925e-02,-6.448691338300704956e-02,8.756682276725769043e-02,-2.654005214571952820e-02,5.417585000395774841e-02,1.437548175454139709e-02,1.126959919929504395e-01,7.831279188394546509e-03,-2.764122374355792999e-02,-6.284008920192718506e-02,-1.645358838140964508e-02,4.569506645202636719e-02,-1.444928068667650223e-02,-9.853789210319519043e-02,-2.520009689033031464e-02,1.816862225532531738e-01,-3.733570873737335205e-02,1.438980996608734131e-01,5.624737963080406189e-02,1.845992729067802429e-02,-3.357739374041557312e-02,7.594617456197738647e-02,-3.594215959310531616e-02,-2.148892544209957123e-02,7.337139546871185303e-02,8.614296093583106995e-03,2.548298425972461700e-02,4.712974280118942261e-02,-1.966072246432304382e-02,-5.330229923129081726e-02,-1.235304474830627441e-01,8.456464111804962158e-02,5.549732595682144165e-02,7.278230786323547363e-02,1.195822432637214661e-01,-2.423704415559768677e-02,5.540394410490989685e-02,-3.746533393859863281e-02,5.311541631817817688e-02,-6.034262850880622864e-02,2.185479998588562012e-01,-4.842542484402656555e-02,-4.669288545846939087e-02,8.718873560428619385e-02,-1.475579757243394852e-02,6.908834725618362427e-02,-2.205209992825984955e-02,1.398645937442779541e-01,1.278809364885091782e-02,2.621557796373963356e-04,6.374090164899826050e-02,1.166696473956108093e-01,-6.296642124652862549e-02,8.571931719779968262e-02,-2.941508218646049500e-02,-4.239676147699356079e-02,5.704109556972980499e-03,6.234647333621978760e-02,4.446205869317054749e-02,-1.036714017391204834e-01,8.843229711055755615e-02,-4.608176276087760925e-02,8.011123538017272949e-02,1.421304047107696533e-01,9.290043264627456665e-02,3.725919499993324280e-02,-6.490529980510473251e-03,-2.112800255417823792e-02,8.937634527683258057e-02,-3.376863151788711548e-02,3.377564996480941772e-02,-5.005563795566558838e-02,1.234633252024650574e-01,6.244480237364768982e-02,-5.318364500999450684e-02,7.879926264286041260e-02,-1.056851260364055634e-02,9.982790797948837280e-02,-1.198364072479307652e-03
-1.804136186838150024e-01,4.359856247901916504e-02,-7.419287413358688354e-02,2.147394418716430664e-02,3.566491231322288513e-02,-1.573376730084419250e-02,-9.036760777235031128e-03,-1.663207449018955231e-02,-6.697414908558130264e-03,3.648840636014938354e-02,-6.943061482161283493e-03,1.662459969520568848e-02,1.295833848416805267e-02,3.338868916034698486e-02,-2.254747226834297180e-02,3.998170793056488037e-02,6.126847118139266968e-02,8.247164078056812286e-03,2.847432903945446014e-02,-5.469924584031105042e-02,-2.198258228600025177e-02,2.236527577042579651e-02,-1.516002789139747620e-02,3.045986965298652649e-02,-2.590157091617584229e-02,9.632419678382575512e-04,7.825087755918502808e-03,-3.357579931616783142e-02,5.714901257306337357e-03,-1.432024128735065460e-02,2.388460002839565277e-02,-1.062336657196283340e-02,6.368889659643173218e-02,7.077474147081375122e-04,1.088482588529586792e-01,4.585507325828075409e-03,-9.885629266500473022e-02,1.526588480919599533e-02,1.251296997070312500e-01,1.207013498060405254e-03,-2.622476033866405487e-02,-1.715833097696304321e-01,-1.088755726814270020e-01,-4.798358306288719177e-02,-2.480645291507244110e-02,7.367951422929763794e-02,2.244683215394616127e-03,-1.390919983386993408e-01,1.720504462718963623e-01,2.316951006650924683e-02,2.581001259386539459e-02,1.608063578605651855e-01,6.366254296153783798e-03,-1.817296445369720459e-01,-1.615403220057487488e-02,-6.329796463251113892e-02,1.982536778086796403e-04,8.578051626682281494e-02,5.537061020731925964e-02,-2.021299116313457489e-02,-1.076356321573257446e-01,-2.778588049113750458e-02,9.345949627459049225e-03,1.671495474874973297e-02,4.339630901813507080e-02,6.400292366743087769e-02,1.587167382240295410e-01,2.269925922155380249e-02,1.565429382026195526e-02,-1.117361802607774734e-02,1.139179691672325134e-01,-1.718249917030334473e-02,-7.544490043073892593e-03,4.989304393529891968e-02,-1.801322773098945618e-02,1.907505281269550323e-02,1.509933080524206161e-02,7.714910805225372314e-02,-2.759448252618312836e-02,1.355868875980377197e-01,4.911865666508674622e-02,2.548662200570106506e-02,4.259013012051582336e-02,4.284761846065521240e-02,-2.570412121713161469e-02,4.537389799952507019e-02,-2.557052485644817352e-02,1.229211539030075073e-01,-3.726894035935401917e-02,7.483540475368499756e-02,4.440677538514137268e-02,-3.524975851178169250e-02,3.298614919185638428e-02,-1.510466169565916061e-02,3.266494721174240112e-02,-1.023239176720380783e-02,5.442418158054351807e-02,5.695532634854316711e-02,4.242440313100814819e-02,8.057463914155960083e-02,3.064675815403461456e-02,-2.005572058260440826e-02,4.037700593471527100e-02,-3.275911882519721985e-02,-8.667262271046638489e-03,6.037493422627449036e-02,8.065504953265190125e-03,3.884228318929672241e-02,-8.190271444618701935e-03,-1.413281634449958801e-02,-2.415007166564464569e-02,7.207854092121124268e-02,7.613107562065124512e-02,7.458501309156417847e-02,4.065641760826110840e-02,3.239154070615768433e-02,-2.310379408299922943e-02,4.602475091814994812e-02,-2.649958804249763489e-02,4.293636232614517212e-02,-2.895138040184974670e-02,5.304542928934097290e-02,6.313037127256393433e-02,-4.230101406574249268e-02,-1.054382696747779846e-01,-1.318448688834905624e-02,2.132346853613853455e-02,-1.303920708596706390e-02
4.309258237481117249e-02,2.484786324203014374e-03,3.789805620908737183e-02,1.049229875206947327e-03,-1.695407368242740631e-02,-5.085259908810257912e-04,5.284699052572250366e-02,-1.096749794669449329e-03,-8.850674494169652462e-04,3.131899982690811157e-02,1.389914751052856445e-02,1.341574266552925110e-02,8.784650126472115517e-04,5.179666914045810699e-03,-2.206428674980998039e-03,4.814127087593078613e-02,-6.606079638004302979e-03,3.409002965781837702e-05,1.785482745617628098e-03,-1.241039391607046127e-02,2.487697405740618706e-03,-3.528682864271104336e-04,-2.517273416742682457e-03,1.284541096538305283e-03,-5.256763193756341934e-03,-3.038407303392887115e-02,-1.857265457510948181e-02,6.960816972423344851e-05,5.028426647186279297e-02,-8.143869345076382160e-04,1.461124047636985779e-02,2.491146558895707130e-03,-1.437349319458007812e-01,-2.913999743759632111e-02,-6.880066543817520142e-02,7.835267111659049988e-03,-3.239950537681579590e-02,1.775798387825489044e-03,-3.578468924388289452e-03,-5.072279833257198334e-03,-1.388328243046998978e-02,-1.915102265775203705e-02,3.221979364752769470e-02,4.332651384174823761e-03,2.319685183465480804e-03,-3.601190447807312012e-02,6.634563207626342773e-03,1.169401481747627258e-01,2.749479375779628754e-03,4.633562348317354918e-04,3.191034868359565735e-02,-1.945702917873859406e-02,1.509183202870190144e-03,3.673953190445899963e-02,-3.349101636558771133e-03,-5.177125334739685059e-02,-7.845850661396980286e-03,9.782025218009948730e-02,-6.446479260921478271e-02,1.047326717525720596e-03,5.640334263443946838e-02,2.411560621112585068e-03,-2.867932245135307312e-02,-2.456032298505306244e-02,-2.711822977289557457e-03,-2.260349923744797707e-03,4.451715853065252304e-03,3.693673526868224144e-03,-4.625132679939270020e-02,-5.315643502399325371e-04,2.214042283594608307e-02,-4.244402516633272171e-04,-6.372892530634999275e-04,8.556189946830272675e-03,1.777801476418972015e-02,-7.805209606885910034e-04,-1.574551570229232311e-04,4.257557913661003113e-02,-1.670103985816240311e-03,4.350687563419342041e-02,-3.135531023144721985e-02,2.731589600443840027e-03,2.084573917090892792e-02,-1.090148463845252991e-02,4.998930962756276131e-04,-3.721386939287185669e-02,3.364021540619432926e-05,-1.105831656605005264e-02,-5.001054145395755768e-03,-1.939741335809230804e-02,-3.762184455990791321e-02,2.070258371531963348e-03,4.234025254845619202e-02,-1.115918974392116070e-03,3.937812522053718567e-02,2.627082401886582375e-03,1.260882429778575897e-02,1.478574331849813461e-02,2.641612291336059570e-02,1.542855985462665558e-02,-5.019360035657882690e-02,-4.523814131971448660e-04,1.649784110486507416e-02,-1.389281591400504112e-03,-6.941368919797241688e-04,-4.100481048226356506e-03,1.590455323457717896e-02,-1.153838448226451874e-02,8.408240042626857758e-03,1.774863339960575104e-02,-2.028552582487463951e-03,2.363485656678676605e-02,-5.776508245617151260e-03,-4.998881835490465164e-03,-1.092201191931962967e-02,-2.958614565432071686e-02,2.276007784530520439e-03,-3.095695283263921738e-03,-9.606858948245644569e-04,-3.902137745171785355e-03,-2.102540573105216026e-03,2.604159153997898102e-02,-5.610792431980371475e-04,2.536235842853784561e-03,6.697113811969757080e-02,-1.275362097658216953e-03,2.183775603771209717e-02,2.497909124940633774e-03
-1.492770165205001831e-01,1.114765275269746780e-02,1.606590896844863892e-01,2.821546606719493866e-02,1.109390184283256531e-01,-3.100777231156826019e-02,-8.403036743402481079e-02,-6.797592341899871826e-02,-1.108638476580381393e-02,7.137958705425262451e-02,-1.647700183093547821e-02,1.384705025702714920e-02,2.222757786512374878e-02,4.242103919386863708e-02,-3.228774666786193848e-02,-7.402248680591583252e-02,9.427195042371749878e-02,1.563609018921852112e-02,3.763226792216300964e-02,-4.774538427591323853e-02,-2.406852878630161285e-02,-3.210730105638504028e-02,-2.169033326208591461e-02,1.479934249073266983e-02,-3.475794941186904907e-02,2.389546483755111694e-01,2.407681010663509369e-02,-3.881900757551193237e-02,1.039574854075908661e-02,-2.065910957753658295e-02,3.296474739909172058e-02,-2.418301627039909363e-02,-2.438247576355934143e-02,-1.201509833335876465e-01,-1.840308457612991333e-01,1.104380935430526733e-01,1.254105269908905029e-01,-4.502405878156423569e-03,-1.072027981281280518e-01,1.218743063509464264e-02,-3.782529383897781372e-02,-2.939336746931076050e-02,6.034169346094131470e-02,-3.339191898703575134e-02,-4.204912856221199036e-02,1.016041114926338196e-01,-1.080188620835542679e-02,7.131233811378479004e-03,-7.803696393966674805e-02,3.975625336170196533e-02,-4.569638147950172424e-02,-3.052206011489033699e-03,2.658640407025814056e-02,-8.743197470903396606e-02,3.774434328079223633e-02,-1.938033103942871094e-01,1.841420307755470276e-02,9.863594174385070801e-02,2.088273018598556519e-01,2.675509825348854065e-02,3.945600986480712891e-02,-3.180185705423355103e-02,1.330267637968063354e-01,2.267926931381225586e-02,1.029183343052864075e-01,2.610993944108486176e-02,1.522259116172790527e-01,3.719604015350341797e-02,9.769136458635330200e-02,-1.840204559266567230e-02,8.649531751871109009e-02,-1.171322632580995560e-02,-1.011620275676250458e-02,6.650200113654136658e-03,-3.006850369274616241e-02,2.296786196529865265e-02,2.977400645613670349e-02,-7.020206004381179810e-02,-3.987288475036621094e-02,1.930470317602157593e-01,8.285749703645706177e-02,3.911079466342926025e-02,5.469935014843940735e-02,1.127809360623359680e-01,-2.733889408409595490e-02,2.544400095939636230e-02,-3.255180642008781433e-02,1.006385833024978638e-01,-4.771941527724266052e-02,1.387709379196166992e-01,7.349760085344314575e-02,-4.261094704270362854e-02,2.393570169806480408e-02,-4.534916952252388000e-03,5.524911358952522278e-02,-1.912746764719486237e-02,1.107233837246894836e-01,5.841366946697235107e-02,8.618546277284622192e-02,1.599838398396968842e-02,7.950153201818466187e-02,-1.501088310033082962e-02,6.753329932689666748e-02,5.360674578696489334e-03,-7.834060117602348328e-03,1.160394698381423950e-01,1.633899658918380737e-02,1.022741943597793579e-01,-9.433148056268692017e-02,7.658474147319793701e-02,-3.451607003808021545e-02,1.716487407684326172e-01,1.293293088674545288e-01,1.418212652206420898e-01,3.957640379667282104e-03,-1.600344851613044739e-02,-2.424606308341026306e-02,7.621990144252777100e-02,-3.099078312516212463e-02,7.796341925859451294e-02,-3.853563219308853149e-02,1.308122277259826660e-01,-5.092513933777809143e-02,-4.889857769012451172e-02,6.279889494180679321e-03,-2.148360200226306915e-02,7.425163686275482178e-02,-3.367047756910324097e-02
1.338836103677749634e-01,-1.424507051706314087e-02,9.913872182369232178e-02,1.826104894280433655e-02,2.164875157177448273e-02,-1.279369741678237915e-02,-2.905011642724275589e-03,1.314339227974414825e-03,-5.273567046970129013e-03,2.484302408993244171e-02,1.071553444489836693e-03,1.460356637835502625e-02,1.008497551083564758e-02,1.673172600567340851e-02,-1.736616529524326324e-02,-1.013777256011962891e-01,5.073813721537590027e-02,2.470456995069980621e-03,1.922370493412017822e-02,-3.561025252565741539e-03,-1.388736441731452942e-02,-2.699770405888557434e-02,-1.045899465680122375e-02,6.537154782563447952e-03,-2.037538215517997742e-02,-2.115245759487152100e-01,-7.476516184397041798e-04,-2.065368369221687317e-02,1.854927651584148407e-02,-1.218074653297662735e-02,4.615227133035659790e-02,-4.060155712068080902e-03,-1.640863269567489624e-01,7.559601962566375732e-02,-3.638145048171281815e-03,6.644593086093664169e-03,2.361307106912136078e-02,-6.745277438312768936e-03,5.898407846689224243e-02,1.286816038191318512e-02,-1.441480591893196106e-02,1.581670194864273071e-01,4.959209635853767395e-02,-9.070177376270294189e-02,-1.917641051113605499e-02,1.027755513787269592e-01,1.076564891263842583e-03,-6.811117380857467651e-02,1.267762184143066406e-01,1.296826079487800598e-02,-5.777906998991966248e-02,7.959975302219390869e-02,1.008350495249032974e-02,7.285942137241363525e-02,-5.038187839090824127e-03,1.316022127866744995e-01,-7.521154824644327164e-03,1.150532439351081848e-01,4.442720487713813782e-02,-2.658758312463760376e-03,4.930936545133590698e-02,-1.057754643261432648e-02,-9.890240617096424103e-03,9.221220389008522034e-04,1.204686984419822693e-02,1.506814081221818924e-02,-8.788890391588211060e-02,1.965213194489479065e-02,-3.693412989377975464e-02,-1.052655931562185287e-02,4.842724278569221497e-02,-7.466591428965330124e-03,-5.950324703007936478e-03,3.987341374158859253e-02,-1.207508519291877747e-02,2.084247954189777374e-02,1.211003959178924561e-02,1.018245611339807510e-02,-2.190794050693511963e-02,-4.623470827937126160e-02,-2.528194710612297058e-02,1.784870959818363190e-02,2.747469954192638397e-02,6.189538165926933289e-02,-1.578272320330142975e-02,2.433120645582675934e-02,-1.825052499771118164e-02,-3.231035545468330383e-02,-2.808893658220767975e-02,9.653627127408981323e-02,-4.279933124780654907e-02,-2.659288421273231506e-02,3.857374563813209534e-02,-1.203261408954858780e-02,4.387463629245758057e-02,-5.168207921087741852e-03,6.410937011241912842e-02,2.380120195448398590e-02,-8.352354168891906738e-03,5.901194736361503601e-02,-9.383706375956535339e-03,-9.848282672464847565e-03,5.987704172730445862e-02,-1.020791474729776382e-02,-5.561023950576782227e-03,-6.023297831416130066e-02,8.376433514058589935e-03,1.834337413311004639e-02,-3.134720027446746826e-02,1.485616154968738556e-02,-1.875936426222324371e-02,3.472833335399627686e-02,6.752935796976089478e-02,-2.045476809144020081e-02,-2.447555027902126312e-02,-8.033066987991333008e-03,-1.433826982975006104e-02,4.373702406883239746e-02,-1.823142357170581818e-02,-3.853535652160644531e-02,-2.266420237720012665e-02,6.335587799549102783e-02,-1.218828954733908176e-03,-3.338439390063285828e-02,3.692051768302917480e-02,-1.272740773856639862e-02,5.771853029727935791e-02,-5.601047538220882416e-03
4.519921541213989258e-02,6.437310483306646347e-03,-4.851880297064781189e-02,5.127683281898498535e-03,-2.219676785171031952e-02,-1.249169348739087582e-03,5.343697965145111084e-02,9.628180414438247681e-04,-1.658628229051828384e-03,1.406039949506521225e-02,1.326499134302139282e-02,2.161731757223606110e-02,-9.609025437384843826e-05,5.246439203619956970e-02,-2.971339970827102661e-03,2.181935589760541916e-03,-3.554546041414141655e-03,-9.729280718602240086e-04,2.733277389779686928e-03,-2.456758357584476471e-02,-2.555638551712036133e-03,-4.128505010157823563e-03,-3.781818551942706108e-03,5.735276266932487488e-03,-5.274965427815914154e-03,-3.152591362595558167e-02,-1.337151788175106049e-02,-2.623144770041108131e-03,4.226497560739517212e-02,2.416517600067891181e-05,9.123448980972170830e-04,5.007541738450527191e-03,-2.144995629787445068e-01,-5.731406062841415405e-02,-9.564741514623165131e-03,1.906129159033298492e-02,-9.321287274360656738e-02,1.045054849237203598e-02,5.749547109007835388e-02,-2.295094728469848633e-02,-2.421909943222999573e-02,-6.572930514812469482e-02,5.426625162363052368e-02,-3.578437119722366333e-02,-3.241085214540362358e-04,-1.726674884557723999e-01,-7.037364412099123001e-03,1.370543390512466431e-01,-5.006552673876285553e-03,-5.248281522653996944e-04,-6.709396094083786011e-02,-5.922731012105941772e-03,-7.951488718390464783e-03,-1.735517010092735291e-02,-9.419366717338562012e-03,-1.022572442889213562e-02,3.419252345338463783e-03,-8.703271299600601196e-02,-1.650487780570983887e-01,4.639910534024238586e-03,3.892798349261283875e-02,2.829088596627116203e-03,-4.503663256764411926e-02,-2.669406682252883911e-02,1.293552923016250134e-03,1.076325774192810059e-02,-2.443613670766353607e-02,8.577008731663227081e-03,-9.169319272041320801e-02,-1.486343913711607456e-03,3.225461021065711975e-02,2.254118153359740973e-04,-1.108439289964735508e-03,1.558763207867741585e-03,5.102117080241441727e-03,3.891984373331069946e-02,5.412212340161204338e-05,1.106263697147369385e-01,-1.627481309697031975e-03,1.572844944894313812e-02,-2.105021663010120392e-02,1.730124466121196747e-03,3.496845066547393799e-02,-1.409853901714086533e-02,1.904940232634544373e-03,-3.743311390280723572e-02,-3.520574886351823807e-03,9.972949512302875519e-03,-3.637411398813128471e-03,-2.114614099264144897e-02,-4.181048274040222168e-02,-3.512799739837646484e-04,3.870830684900283813e-02,-8.521397830918431282e-05,1.776314526796340942e-02,4.834256134927272797e-03,-6.523982156068086624e-04,1.229878980666399002e-02,2.837647870182991028e-02,1.112562045454978943e-02,-4.831680282950401306e-02,-1.009740051813423634e-03,2.744652144610881805e-02,5.510767223313450813e-04,-1.187334419228136539e-03,-5.509281996637582779e-03,3.876583417877554893e-03,1.540200412273406982e-02,-7.794226519763469696e-03,6.572108715772628784e-02,-2.828620839864015579e-03,1.781539991497993469e-02,-1.012354716658592224e-02,-5.468828603625297546e-03,-9.255160577595233917e-03,-1.375905424356460571e-02,-5.421378300525248051e-04,8.077768725343048573e-04,-4.757677670568227768e-03,7.188880350440740585e-03,-5.140815861523151398e-03,5.025659687817096710e-03,5.530259571969509125e-03,8.430817397311329842e-04,4.086808115243911743e-02,-4.550746525637805462e-04,5.143128335475921631e-02,4.156174138188362122e-03
-1.327571719884872437e-01,5.684671178460121155e-02,-5.826865881681442261e-02,9.115929715335369110e-03,9.962415322661399841e-03,-6.639404688030481339e-03,-2.363705076277256012e-02,-7.191120646893978119e-03,-3.140791784971952438e-03,1.446865405887365341e-02,-1.009080093353986740e-02,2.212620712816715240e-02,5.523549858480691910e-03,8.148311637341976166e-03,-1.483832765370607376e-02,-1.052302401512861252e-02,3.102751076221466064e-02,2.656883560121059418e-03,1.501394622027873993e-02,-6.127282604575157166e-02,-2.988649532198905945e-02,-3.408568352460861206e-02,-1.370234880596399307e-02,5.992482602596282959e-02,-1.790283247828483582e-02,6.681469082832336426e-02,1.192007679492235184e-03,-2.804015576839447021e-02,6.016613333486020565e-04,-7.364552933722734451e-03,1.816099323332309723e-02,-5.239681340754032135e-03,1.066219732165336609e-01,-2.209171094000339508e-02,1.365565210580825806e-01,1.266851834952831268e-02,-2.226973474025726318e-01,1.850108057260513306e-02,-7.965560257434844971e-02,1.112069818191230297e-03,-5.237716715782880783e-03,-4.303739964962005615e-02,-5.863745138049125671e-02,-1.548281684517860413e-02,-1.166440173983573914e-02,1.867032647132873535e-01,-7.691321894526481628e-03,-2.926814258098602295e-01,2.298439294099807739e-01,9.398582391440868378e-03,-3.558921441435813904e-02,-1.460655331611633301e-01,-9.969746693968772888e-03,-8.473299443721771240e-02,8.474810980260372162e-03,-2.090893127024173737e-02,-1.443711109459400177e-03,2.888991311192512512e-02,1.228118166327476501e-01,-5.494841374456882477e-03,-7.188974320888519287e-02,-1.183831482194364071e-03,-7.765525579452514648e-02,5.380665417760610580e-03,1.525930501520633698e-02,5.709350481629371643e-02,9.748058766126632690e-02,7.190722506493330002e-03,-7.523283362388610840e-02,-6.803417578339576721e-03,-3.188965469598770142e-02,-6.204664241522550583e-03,-3.563154023140668869e-03,3.646980226039886475e-02,-1.057024300098419189e-02,2.580480650067329407e-02,5.416270811110734940e-03,1.030600965023040771e-01,-1.439726538956165314e-02,5.111884325742721558e-02,2.579141221940517426e-02,1.285237632691860199e-02,2.704210765659809113e-02,-1.391910575330257416e-02,-3.678077459335327148e-02,2.994430623948574066e-02,-2.219299040734767914e-02,1.100666448473930359e-01,-2.173699811100959778e-02,-2.199410833418369293e-02,1.800964772701263428e-02,-2.879194915294647217e-02,3.414073586463928223e-02,-6.715180352330207825e-03,-4.568710923194885254e-02,-4.659096244722604752e-03,2.517994306981563568e-02,5.004076287150382996e-02,6.465440988540649414e-02,4.283975809812545776e-02,-8.120374754071235657e-03,-6.312004756182432175e-03,1.500989031046628952e-02,-8.842041715979576111e-03,-3.396447515115141869e-03,5.157953873276710510e-02,-2.072982490062713623e-03,1.672345213592052460e-02,-1.642625965178012848e-02,-3.316704416647553444e-03,-1.536874286830425262e-02,5.492632091045379639e-02,2.699064649641513824e-02,3.986265882849693298e-02,3.047377103939652443e-03,1.633562706410884857e-02,-3.539732843637466431e-02,4.115846753120422363e-02,-2.367649041116237640e-02,7.879283279180526733e-02,-1.927164942026138306e-02,5.148192867636680603e-02,2.059130556881427765e-02,-3.608990088105201721e-02,-3.125819191336631775e-02,-6.882918067276477814e-03,1.888917014002799988e-02,-4.630078561604022980e-03
-2.256416380405426025e-01,-5.083216726779937744e-02,8.083861321210861206e-02,3.539766371250152588e-02,1.166542395949363708e-01,-4.049710929393768311e-02,-1.052432358264923096e-01,-3.079493902623653412e-02,-1.683406531810760498e-02,1.068094372749328613e-01,-3.791537880897521973e-02,2.891535498201847076e-02,2.282481826841831207e-02,8.114528656005859375e-02,-3.156628832221031189e-02,2.469232305884361267e-02,1.284288465976715088e-01,1.901278086006641388e-02,3.810127079486846924e-02,-7.985725253820419312e-02,-2.977899461984634399e-02,2.138566672801971436e-01,-4.848805442452430725e-02,-1.321982126682996750e-02,-3.428139910101890564e-02,-6.446669995784759521e-02,4.149509966373443604e-02,-4.506543651223182678e-02,-1.079571153968572617e-02,-4.937742277979850769e-02,5.090317502617835999e-02,-1.449677441269159317e-02,1.296024918556213379e-01,9.092362225055694580e-02,-3.301488980650901794e-02,1.001918911933898926e-01,3.940136730670928955e-02,7.038764189928770065e-03,-6.419042497873306274e-02,-1.094212476164102554e-02,6.216459721326828003e-02,-8.328384160995483398e-02,-1.424433141946792603e-01,-1.229279339313507080e-01,-4.786153510212898254e-02,-5.233944207429885864e-02,3.894844278693199158e-02,1.423143595457077026e-01,4.669102281332015991e-02,4.538170993328094482e-02,-8.686581999063491821e-02,1.939463168382644653e-01,-1.944747380912303925e-02,-2.204079777002334595e-01,-2.213102579116821289e-02,1.160763278603553772e-01,-3.604431450366973877e-02,-1.164190322160720825e-01,9.294242411851882935e-02,-1.659660972654819489e-02,-5.627909675240516663e-03,-2.068814076483249664e-02,6.378727406263351440e-02,4.443883150815963745e-02,3.006264008581638336e-02,7.560417056083679199e-02,-5.822017416357994080e-02,5.344558879733085632e-02,1.665870547294616699e-01,-3.760952875018119812e-02,1.238008737564086914e-01,-7.327000051736831665e-02,-2.608595415949821472e-02,1.069099977612495422e-01,-5.690752342343330383e-02,4.793633148074150085e-02,3.141494840383529663e-02,-8.191038668155670166e-02,-3.836674988269805908e-02,8.606805652379989624e-02,3.250120952725410461e-02,4.538961127400398254e-02,5.863725394010543823e-02,6.481795012950897217e-02,-3.285751864314079285e-02,1.194533631205558777e-01,-3.631031140685081482e-02,8.239684253931045532e-02,-4.546850919723510742e-02,4.682006314396858215e-02,1.671529375016689301e-02,-4.886431246995925903e-02,2.375687099993228912e-02,-5.117453634738922119e-02,2.520007081329822540e-02,-4.075272381305694580e-02,1.199955418705940247e-01,1.030065864324569702e-01,-1.099492702633142471e-02,7.003000378608703613e-02,3.105349093675613403e-02,3.375844797119498253e-03,1.071903035044670105e-01,-1.029194444417953491e-01,-2.010988257825374603e-02,7.392764091491699219e-02,-1.873045461252331734e-03,1.193191111087799072e-01,-1.636811532080173492e-02,4.903998691588640213e-03,-3.333972766995429993e-02,1.165964081883430481e-01,1.610417813062667847e-01,1.076630800962448120e-01,3.255156800150871277e-03,3.529070643708109856e-03,-2.993093989789485931e-02,4.970946535468101501e-02,-3.440209105610847473e-02,8.104375749826431274e-02,-3.778985515236854553e-02,1.535375695675611496e-02,-1.656562387943267822e-01,-5.593633279204368591e-02,-7.138237357139587402e-02,-4.859056696295738220e-02,8.457024395465850830e-02,-2.138434723019599915e-02
-3.264055820181965828e-03,3.592170402407646179e-02,7.752615027129650116e-03,1.251437980681657791e-02,3.572759032249450684e-02,-5.969098769128322601e-03,-2.721422165632247925e-02,-1.702061295509338379e-02,-8.390584844164550304e-04,2.166694495826959610e-03,2.344965934753417969e-02,-2.331295423209667206e-02,1.788504794239997864e-02,2.476634643971920013e-02,-4.392497986555099487e-02,8.817630261182785034e-02,1.746988110244274139e-02,1.240714918822050095e-02,2.243286557495594025e-02,-2.311515435576438904e-02,3.810973465442657471e-02,2.826880291104316711e-02,-8.267031051218509674e-03,-1.822246424853801727e-02,-4.414162039756774902e-02,1.346319615840911865e-01,6.472416222095489502e-03,6.033317651599645615e-03,3.397469595074653625e-02,-4.199883900582790375e-03,-1.217519212514162064e-02,2.752394182607531548e-03,-4.637859389185905457e-02,1.274293661117553711e-01,-2.219895124435424805e-01,-1.732394248247146606e-01,-2.249302864074707031e-01,-3.905938938260078430e-02,4.559444189071655273e-01,6.447866093367338181e-03,1.597494073212146759e-02,-2.667514979839324951e-01,4.294859245419502258e-03,2.632677368819713593e-02,-3.785249590873718262e-02,2.065620422363281250e-01,5.720004066824913025e-02,1.908228546380996704e-01,-2.710148692131042480e-01,2.425807714462280273e-02,1.295851320028305054e-01,4.628829658031463623e-01,6.742496043443679810e-02,-4.511091113090515137e-02,2.338209934532642365e-02,-1.920095384120941162e-01,-5.331425741314888000e-02,1.559658441692590714e-03,-1.845640838146209717e-01,-4.995741695165634155e-02,-2.833058685064315796e-02,5.470800679177045822e-03,-1.004567835479974747e-02,-2.809286676347255707e-02,1.752049662172794342e-02,5.226188525557518005e-02,1.888722181320190430e-02,2.283084206283092499e-02,9.344130009412765503e-02,-6.177216768264770508e-03,8.458189666271209717e-02,-2.015168778598308563e-02,-4.168042214587330818e-04,-3.759575635194778442e-02,3.144934400916099548e-02,-2.610524743795394897e-02,3.263868391513824463e-02,1.934546418488025665e-02,-5.539633706212043762e-02,1.305952370166778564e-01,3.326196968555450439e-02,1.972981356084346771e-02,2.916823886334896088e-02,3.418920189142227173e-02,4.566251859068870544e-02,3.064058022573590279e-03,-1.311215478926897049e-02,7.644624449312686920e-03,-5.239527672529220581e-02,1.694843545556068420e-02,2.493548206984996796e-03,5.530659575015306473e-03,3.513028472661972046e-02,-2.855526749044656754e-03,2.866614423692226410e-02,3.318642964586615562e-03,3.362962976098060608e-02,4.821812361478805542e-02,4.124848917126655579e-02,6.601234525442123413e-02,1.241953521966934204e-01,-4.185078199952840805e-03,-1.513781026005744934e-02,-1.781354099512100220e-02,-9.958838345482945442e-04,-1.370959263294935226e-02,4.728822410106658936e-02,5.794186610728502274e-03,2.639499725773930550e-04,9.407001547515392303e-03,-4.728358238935470581e-02,8.240940421819686890e-02,7.613270543515682220e-03,7.520269602537155151e-02,4.980089608579874039e-03,-1.529770996421575546e-02,5.662366375327110291e-02,-2.409611083567142487e-02,-1.087348163127899170e-02,-3.753775730729103088e-03,-4.607062041759490967e-02,6.722594797611236572e-02,-6.512477248907089233e-02,1.028308551758527756e-02,2.994276024401187897e-02,-3.921926487237215042e-03,-1.920211128890514374e-03,2.318082610145211220e-03
2.665682323276996613e-02,3.951593860983848572e-02,4.780087992548942566e-02,8.589340373873710632e-03,2.909367531538009644e-02,-4.776187997777014971e-04,7.738302461802959442e-03,-1.623205095529556274e-02,4.138621501624584198e-03,8.722609840333461761e-03,1.748673245310783386e-02,-2.371104247868061066e-02,1.180828176438808441e-02,7.910229265689849854e-03,-3.542779758572578430e-02,-6.442677229642868042e-03,8.993050083518028259e-03,6.037699989974498749e-03,1.566522754728794098e-02,-3.458083840087056160e-03,4.788734018802642822e-02,4.141562804579734802e-02,-1.723779481835663319e-03,-1.468497607856988907e-02,-3.221030905842781067e-02,-1.723423227667808533e-02,5.135518033057451248e-03,1.949066296219825745e-02,1.372293196618556976e-02,-5.753652658313512802e-04,-4.624566994607448578e-03,2.725465921685099602e-03,-3.025668486952781677e-02,3.881129622459411621e-02,-2.424722760915756226e-01,-1.365714371204376221e-01,9.872514754533767700e-02,-6.306446343660354614e-02,3.559970762580633163e-03,2.085495926439762115e-02,3.273859247565269470e-02,-4.593416582792997360e-03,4.934304580092430115e-02,5.105491727590560913e-02,-3.388031199574470520e-02,1.662697196006774902e-01,7.485005259513854980e-02,-3.692471608519554138e-02,-2.428207546472549438e-01,1.251602917909622192e-02,1.724530607461929321e-01,2.614175677299499512e-01,7.886806130409240723e-02,2.518725097179412842e-01,4.910717904567718506e-02,-8.249610662460327148e-02,-5.043534561991691589e-02,-1.700703240931034088e-02,-2.312414646148681641e-01,-7.141877710819244385e-02,-1.398629881441593170e-02,1.047270093113183975e-02,1.195178832858800888e-03,-4.340314120054244995e-02,-3.180256113409996033e-03,5.559347197413444519e-02,2.983436733484268188e-02,1.132080331444740295e-02,4.346998035907745361e-02,3.194563323631882668e-04,4.086131602525711060e-02,-1.803636364638805389e-02,5.273935385048389435e-03,-1.457272563129663467e-03,2.306391671299934387e-02,-2.873696386814117432e-02,2.805586345493793488e-02,-2.822304144501686096e-02,-4.741401597857475281e-02,-1.682536443695425987e-03,2.412874996662139893e-02,1.094617322087287903e-02,1.601031608879566193e-02,2.057500928640365601e-02,5.603240057826042175e-02,6.228666380047798157e-02,-3.571411594748497009e-03,-1.047904882580041885e-02,-3.886152803897857666e-02,8.310899138450622559e-03,-2.214539097622036934e-03,1.659812964498996735e-02,-7.758122519589960575e-04,2.460602845530956984e-04,8.795104920864105225e-03,3.545616520568728447e-03,3.663870319724082947e-02,5.408377945423126221e-02,3.976634144783020020e-02,1.104934141039848328e-02,4.977671802043914795e-02,-1.114566694013774395e-03,-2.260226570069789886e-02,-1.668095961213111877e-02,4.917809274047613144e-04,1.009817933663725853e-03,3.830658644437789917e-02,-4.652691539376974106e-03,5.414481088519096375e-02,1.881186664104461670e-02,-3.891536965966224670e-02,3.851121664047241211e-02,-7.800730410963296890e-03,3.169832006096839905e-02,-1.181636005640029907e-02,-3.609559312462806702e-02,6.493733078241348267e-02,-2.102191373705863953e-02,4.630870651453733444e-03,-1.578291528858244419e-03,-3.174899145960807800e-02,3.325055539608001709e-02,-4.480996727943420410e-02,2.261964231729507446e-02,1.997294649481773376e-02,-5.261907353997230530e-04,-1.845408417284488678e-02,3.413483267650008202e-03
-6.159608252346515656e-03,-9.144705720245838165e-03,-7.795949280261993408e-02,2.857577055692672729e-02,7.268635928630828857e-02,-1.565138436853885651e-02,1.351335346698760986e-01,-4.605928063392639160e-02,-9.609297849237918854e-03,4.008154571056365967e-02,-1.055005937814712524e-03,2.035276964306831360e-02,1.767878234386444092e-02,2.889329195022583008e-02,-2.678528428077697754e-02,-5.690576508641242981e-02,8.181220293045043945e-02,9.492693468928337097e-03,3.002139180898666382e-02,-1.827542297542095184e-02,-2.369953505694866180e-02,-1.566381603479385376e-01,-2.287674322724342346e-02,5.676827579736709595e-02,-3.236834704875946045e-02,6.044819578528404236e-02,9.858461096882820129e-03,-3.622958436608314514e-02,1.667705923318862915e-02,-1.661961525678634644e-02,7.483502477407455444e-02,-1.176594663411378860e-02,-9.377834200859069824e-02,3.466271609067916870e-02,9.806964546442031860e-02,1.406225375831127167e-02,-3.400503098964691162e-02,1.697621308267116547e-02,1.955413967370986938e-01,1.631732098758220673e-02,6.999211758375167847e-02,1.403831690549850464e-01,-7.795330137014389038e-02,-3.092331811785697937e-02,-3.397529199719429016e-02,1.154822334647178650e-01,-1.870231330394744873e-02,-2.623025178909301758e-01,3.102241270244121552e-02,2.832132764160633087e-02,-3.088098578155040741e-02,3.321336209774017334e-02,2.751171402633190155e-02,9.557352960109710693e-02,6.596931815147399902e-02,-1.563049405813217163e-01,6.728567648679018021e-03,-1.181053817272186279e-01,1.157266125082969666e-01,-2.054748125374317169e-02,-1.497870963066816330e-02,8.830361068248748779e-03,-1.125458925962448120e-01,2.454539202153682709e-02,1.303512454032897949e-01,-2.957255393266677856e-02,-4.824736341834068298e-02,3.277403488755226135e-02,1.843543536961078644e-02,-1.353599969297647476e-02,7.213097810745239258e-02,-2.065249904990196228e-02,-1.078281830996274948e-02,3.698342666029930115e-02,-1.297156699001789093e-02,3.073357976973056793e-02,2.146816067397594452e-02,2.762803994119167328e-02,-3.252268955111503601e-02,2.168893516063690186e-01,5.355565249919891357e-02,3.389602154493331909e-02,4.539596289396286011e-02,7.671085745096206665e-02,-2.810538373887538910e-02,4.756915569305419922e-02,-2.659452147781848907e-02,8.922505378723144531e-02,-4.540571197867393494e-02,1.010895967483520508e-01,2.320590056478977203e-02,-4.190534353256225586e-02,4.580194875597953796e-02,-1.670696027576923370e-02,-6.310188211500644684e-03,-1.480502262711524963e-02,8.636743575334548950e-02,3.858532011508941650e-02,-1.179192448034882545e-03,-4.386971239000558853e-03,1.735540665686130524e-02,-1.434413064271211624e-02,6.993387639522552490e-02,-2.939019165933132172e-02,-1.765690930187702179e-02,-1.075862068682909012e-02,1.800324209034442902e-02,7.635294646024703979e-02,5.156401917338371277e-02,-3.023405559360980988e-02,-2.856385335326194763e-02,1.572453826665878296e-01,8.142234385013580322e-02,1.059189066290855408e-01,1.674932427704334259e-02,1.999197900295257568e-02,-2.522684633731842041e-02,9.392512589693069458e-02,-2.517689578235149384e-02,-1.326946541666984558e-02,-3.568021580576896667e-02,7.175942510366439819e-02,-4.197113215923309326e-02,-4.984002932906150818e-02,-6.660222262144088745e-02,-8.886678144335746765e-03,3.338660299777984619e-02,-1.497422903776168823e-02
2.173130400478839874e-03,8.163313567638397217e-02,5.355121940374374390e-02,3.708781301975250244e-02,8.585680276155471802e-02,-2.712363936007022858e-02,2.621654793620109558e-02,-5.787068977952003479e-02,-2.249666117131710052e-02,5.972898378968238831e-02,-2.655346319079399109e-02,2.777252718806266785e-02,2.610228583216667175e-02,7.673013210296630859e-02,-3.470866382122039795e-02,-1.674396544694900513e-01,1.216222271323204041e-01,1.845377311110496521e-02,4.240810871124267578e-02,-3.541947901248931885e-02,-3.474657982587814331e-02,-1.021692529320716858e-02,-2.849308773875236511e-02,3.481947351247072220e-03,-3.812786191701889038e-02,-1.537668406963348389e-01,5.038883537054061890e-02,-4.884594306349754333e-02,9.928748011589050293e-03,-1.022960338741540909e-02,6.736524403095245361e-02,-5.271751061081886292e-02,9.153792262077331543e-02,-1.094479039311408997e-01,2.700778469443321228e-02,4.077112767845392227e-03,1.253857463598251343e-01,7.652471307665109634e-03,-1.935173869132995605e-01,2.747446112334728241e-02,-5.242829769849777222e-02,-3.931477293372154236e-02,6.551109999418258667e-02,-2.899658866226673126e-02,-5.308179557323455811e-02,1.981690060347318649e-03,4.986865818500518799e-02,7.953197509050369263e-02,-9.344337135553359985e-02,4.790855944156646729e-02,-4.624004289507865906e-02,-1.706337630748748779e-01,-1.569026708602905273e-02,-4.244923591613769531e-02,3.586788102984428406e-02,-5.113378167152404785e-02,2.200712449848651886e-02,-1.767735183238983154e-01,1.658118814229965210e-01,-2.493644133210182190e-02,-9.654131531715393066e-02,5.444800108671188354e-02,-4.811470210552215576e-02,-2.745692990720272064e-02,8.770327270030975342e-02,-4.047050327062606812e-02,-3.663954883813858032e-02,5.250291153788566589e-02,-3.668323624879121780e-03,-1.336005330085754395e-02,4.484637640416622162e-03,-5.265329405665397644e-02,-1.914833486080169678e-02,2.409306587651371956e-03,-4.893818870186805725e-02,4.494357481598854065e-02,3.709581866860389709e-02,4.415036365389823914e-02,-4.138628020882606506e-02,-1.865235390141606331e-03,-4.996339604258537292e-02,4.793426021933555603e-02,6.457811594009399414e-02,1.443671733140945435e-01,-4.007248580455780029e-02,1.323268413543701172e-01,-3.871339187026023865e-02,3.705217316746711731e-02,-5.072316154837608337e-02,5.401165783405303955e-02,7.221733778715133667e-02,-5.252311378717422485e-02,5.907980725169181824e-02,-2.515729144215583801e-02,-9.396550059318542480e-02,-2.235476858913898468e-02,1.692818701267242432e-01,9.681419283151626587e-02,9.997717291116714478e-02,9.374473243951797485e-02,5.271488800644874573e-02,-4.711827263236045837e-02,1.711746901273727417e-01,-6.174819171428680420e-02,-2.174470573663711548e-02,-4.006636515259742737e-02,9.328221902251243591e-03,1.127359867095947266e-01,-5.282877013087272644e-02,6.507115066051483154e-02,-3.677422553300857544e-02,1.097236722707748413e-01,1.429343372583389282e-01,1.333075910806655884e-01,-1.300816088914871216e-01,1.640919595956802368e-03,-3.623429685831069946e-02,1.363306939601898193e-01,-3.560554981231689453e-02,1.593374162912368774e-01,-4.181570932269096375e-02,1.611905246973037720e-01,1.532614082098007202e-01,-6.014099344611167908e-02,-3.795725107192993164e-02,-5.612327251583337784e-03,8.911076188087463379e-02,-6.316267699003219604e-02
-6.877763569355010986e-02,5.532724410295486450e-02,-7.296834141016006470e-02,2.409812621772289276e-02,2.885255962610244751e-02,-2.240055613219738007e-02,-1.021422222256660461e-01,-2.186088077723979950e-02,-8.885107003152370453e-03,3.247655928134918213e-02,-2.057110331952571869e-02,3.239118307828903198e-02,1.215951796621084213e-02,4.245832562446594238e-02,-1.821683906018733978e-02,-1.706612110137939453e-01,8.146268129348754883e-02,6.157851777970790863e-03,2.713214047253131866e-02,-4.331527277827262878e-02,-2.663205005228519440e-02,7.749500125646591187e-02,-2.205066382884979248e-02,1.392898429185152054e-02,-2.381481975317001343e-02,-1.612737923860549927e-01,1.454905048012733459e-02,-3.927964717149734497e-02,1.311072148382663727e-03,-1.905042491853237152e-02,5.032521858811378479e-02,-1.817016489803791046e-02,-8.882972411811351776e-03,7.219897955656051636e-02,2.028588056564331055e-01,1.273630261421203613e-01,4.932554811239242554e-02,1.769865490496158600e-02,7.926365733146667480e-02,1.767730340361595154e-02,2.166640572249889374e-02,5.133077502250671387e-02,-1.062850560992956161e-02,-1.928658038377761841e-02,-2.473999932408332825e-02,8.014654368162155151e-02,-1.768523827195167542e-02,-5.252909287810325623e-02,3.518011793494224548e-02,2.182163856923580170e-02,-2.593133412301540375e-02,-6.441044807434082031e-02,-3.062064526602625847e-03,-8.286492526531219482e-02,3.956877440214157104e-02,6.600122898817062378e-03,9.209266863763332367e-03,-1.528724879026412964e-01,2.386766299605369568e-02,-2.420569397509098053e-02,-9.425150603055953979e-02,-5.045336484909057617e-02,5.724290758371353149e-02,1.388603635132312775e-02,6.251102685928344727e-02,6.267396360635757446e-02,3.509848564863204956e-02,2.359553985297679901e-02,-2.629969641566276550e-02,-1.351951900869607925e-02,-8.593428134918212891e-02,-2.771869301795959473e-02,-9.933655150234699249e-03,8.523926138877868652e-03,-4.260943457484245300e-02,4.506738111376762390e-02,1.394592691212892532e-02,2.601389586925506592e-02,-2.096693217754364014e-02,-2.073778398334980011e-02,-3.953395783901214600e-02,2.540959045290946960e-02,3.932729735970497131e-02,8.361566066741943359e-02,-3.079881519079208374e-02,1.986755803227424622e-02,-3.053516708314418793e-02,4.247891157865524292e-02,-3.126905113458633423e-02,1.332285404205322266e-01,1.348252641037106514e-03,-4.141080752015113831e-02,3.630762919783592224e-02,-2.164943516254425049e-02,-2.579244039952754974e-02,-1.126590277999639511e-02,7.996214181184768677e-02,5.439518392086029053e-02,7.981522381305694580e-02,-1.654748432338237762e-02,4.067298397421836853e-02,-5.744231864809989929e-03,8.263137936592102051e-02,-3.358623012900352478e-02,-7.244733627885580063e-03,5.193019658327102661e-02,-1.232224330306053162e-02,7.067102938890457153e-02,1.039089448750019073e-02,1.481592804193496704e-01,-1.905976794660091400e-02,4.002610966563224792e-02,1.076634079217910767e-01,9.600637853145599365e-02,-8.263944089412689209e-02,3.846874088048934937e-02,-2.827491424977779388e-02,1.051095053553581238e-01,-3.109383024275302887e-02,1.971379853785037994e-02,-2.624003030359745026e-02,1.123124733567237854e-01,2.653483534231781960e-03,-4.970184341073036194e-02,-6.327731907367706299e-02,-2.660304680466651917e-02,5.983157455921173096e-02,-1.700518839061260223e-02
1.703512668609619141e-01,2.178579941391944885e-02,1.541885584592819214e-01,1.894252561032772064e-02,2.362756431102752686e-02,-7.196588907390832901e-03,4.323206841945648193e-03,-4.391093738377094269e-03,-4.944527987390756607e-03,3.178947418928146362e-02,1.786503568291664124e-02,2.050013048574328423e-03,1.334859151393175125e-02,2.789460122585296631e-02,-2.594017237424850464e-02,1.851696074008941650e-01,2.822955884039402008e-02,5.461896304041147232e-03,3.187328204512596130e-02,-3.286590427160263062e-02,-2.206356823444366455e-02,-8.976620435714721680e-02,-1.095485594123601913e-02,-4.257241263985633850e-02,-2.756283991038799286e-02,4.390782862901687622e-02,-3.574387868866324425e-03,-2.332434803247451782e-02,5.312092602252960205e-02,-4.486691206693649292e-03,3.916246350854635239e-03,-2.479432150721549988e-03,-1.246716454625129700e-02,-5.745518486946821213e-03,-1.758955717086791992e-01,-4.605739191174507141e-02,-1.441043764352798462e-01,2.138374838978052139e-03,8.553338050842285156e-02,-1.714764721691608429e-02,-1.156979706138372421e-03,-1.656741499900817871e-01,4.147670045495033264e-02,1.053186040371656418e-02,-2.374146133661270142e-02,1.426537185907363892e-01,6.872167577967047691e-04,1.441534459590911865e-01,2.325485646724700928e-01,1.833572238683700562e-02,7.374285161495208740e-02,-1.097376495599746704e-01,-2.795843873172998428e-03,1.417398601770401001e-01,-2.050230465829372406e-02,-6.056257989257574081e-03,2.860929118469357491e-03,1.412797421216964722e-01,4.825676977634429932e-02,7.587208878248929977e-03,5.274236947298049927e-02,4.228001087903976440e-02,-9.204328060150146484e-02,-1.876816153526306152e-02,5.501105263829231262e-02,2.849666029214859009e-02,5.791604891419410706e-02,2.445594593882560730e-02,-1.980340480804443359e-02,-7.660260424017906189e-03,-5.895980075001716614e-02,-4.431589972227811813e-03,-5.114482250064611435e-03,4.784861952066421509e-02,1.402855850756168365e-02,2.123045967891812325e-03,1.760237477719783783e-02,2.761331945657730103e-02,-3.103106841444969177e-02,2.163548171520233154e-01,4.286899045109748840e-02,2.154737710952758789e-02,4.908481612801551819e-02,1.954700052738189697e-02,-2.759912982583045959e-02,1.220517326146364212e-02,-2.084237150847911835e-02,-3.583506913855671883e-03,-3.776300325989723206e-02,9.670677036046981812e-02,4.768920317292213440e-02,-2.782384678721427917e-02,5.431843549013137817e-02,-2.305762143805623055e-03,6.685648858547210693e-02,-3.299594391137361526e-03,6.653398275375366211e-02,2.962377108633518219e-02,6.133919954299926758e-02,7.735040783882141113e-02,-6.885462440550327301e-03,-5.244208965450525284e-03,5.258688330650329590e-02,-2.877716440707445145e-03,-4.985551815479993820e-03,-2.617912739515304565e-02,3.174208104610443115e-02,3.550553694367408752e-02,-2.868472225964069366e-02,4.741000384092330933e-02,-2.806679345667362213e-02,8.385697007179260254e-02,3.205113485455513000e-02,5.854563787579536438e-02,8.165597170591354370e-02,-1.573400944471359253e-02,-2.580188773572444916e-02,3.434390574693679810e-02,-2.180802077054977417e-02,1.179853547364473343e-02,-3.033939376473426819e-02,7.695055752992630005e-02,5.579757317900657654e-02,-3.434462472796440125e-02,6.727572064846754074e-03,-4.510679747909307480e-03,2.793135121464729309e-02,-4.606185480952262878e-03
7.820657640695571899e-02,1.165062002837657928e-02,-3.302709385752677917e-02,6.464403588324785233e-03,-2.233160845935344696e-02,-2.608634531497955322e-03,1.008644402027130127e-01,-4.163242992945015430e-04,-2.091787988319993019e-03,1.620650663971900940e-02,1.651112549006938934e-02,2.552422136068344116e-02,-2.080219564959406853e-05,1.937181502580642700e-02,-8.058186620473861694e-03,9.229460358619689941e-02,-2.179071074351668358e-03,-1.721490756608545780e-03,8.744283579289913177e-03,1.588234864175319672e-02,-1.117043476551771164e-02,-5.363001301884651184e-02,-5.083844065666198730e-03,-5.041920579969882965e-03,-5.917537026107311249e-03,-1.629325151443481445e-01,-2.600003220140933990e-02,-9.329884313046932220e-03,5.834244191646575928e-02,-1.779138692654669285e-03,2.115412056446075439e-02,2.655270509421825409e-03,-4.117758274078369141e-01,-1.432800386101007462e-02,1.023616082966327667e-02,2.181047387421131134e-02,-1.087906211614608765e-01,1.053859479725360870e-02,-3.098743036389350891e-02,-1.115469168871641159e-02,-1.869189925491809845e-02,-5.364632979035377502e-02,5.774559080600738525e-02,-1.249001268297433853e-02,-3.569874097593128681e-04,-1.073836237192153931e-01,-1.033217739313840866e-02,-6.824128329753875732e-03,9.196089953184127808e-02,-1.553552807308733463e-03,-3.029169887304306030e-02,-2.376315295696258545e-01,-1.595925539731979370e-02,-6.001931056380271912e-02,-9.827439673244953156e-03,2.541688457131385803e-02,1.038387650623917580e-03,-1.489048004150390625e-01,-2.228072434663772583e-01,6.865263450890779495e-03,4.641804844141006470e-02,5.153220612555742264e-03,-2.983061037957668304e-02,-2.195079997181892395e-02,-8.418739773333072662e-03,7.489230483770370483e-03,-9.198962710797786713e-03,9.411944076418876648e-03,-9.252848476171493530e-02,-2.911590505391359329e-03,2.198318764567375183e-02,-7.183035486377775669e-04,-1.810238230973482132e-03,-5.753003526479005814e-03,2.239686809480190277e-02,3.598872199654579163e-02,-1.704484748188406229e-04,1.072165146470069885e-01,-5.387987010180950165e-03,8.862800896167755127e-02,-2.775903791189193726e-02,2.291619777679443359e-03,2.913550846278667450e-02,-2.271599136292934418e-02,-9.844768792390823364e-03,-5.434957146644592285e-02,-7.120931521058082581e-03,1.137199532240629196e-02,-3.872876521199941635e-03,-2.756664901971817017e-02,-5.476710200309753418e-02,-7.603380829095840454e-03,6.444899737834930420e-02,-1.762866857461631298e-03,2.976017259061336517e-02,3.551193745806813240e-03,1.612834632396697998e-02,2.145625650882720947e-02,5.289059597998857498e-03,1.959787495434284210e-02,-5.329213663935661316e-02,-1.891678548417985439e-03,3.626641258597373962e-02,-1.816542062442749739e-04,-1.201758161187171936e-03,-4.394483566284179688e-02,1.459151785820722580e-02,4.328172188252210617e-03,1.025805901736021042e-02,4.857073351740837097e-02,-8.173753507435321808e-03,3.401328623294830322e-02,9.942075237631797791e-03,-2.324700355529785156e-03,3.849031869322061539e-03,-6.193905696272850037e-02,-1.180389523506164551e-02,3.331218287348747253e-02,-9.229553863406181335e-03,-5.204487824812531471e-04,-5.643361713737249374e-03,1.805703900754451752e-02,2.955266460776329041e-02,-9.428652003407478333e-03,7.835951447486877441e-02,-1.900444389320909977e-03,5.604345351457595825e-02,2.970577916130423546e-03
2.919235229492187500e-01,3.179563581943511963e-02,1.345169693231582642e-01,1.919092983007431030e-02,3.914001956582069397e-02,-6.588027812540531158e-03,1.194654498249292374e-02,-2.850100165233016014e-03,-4.327866248786449432e-03,3.517620265483856201e-02,6.509855389595031738e-03,3.775525605306029320e-03,1.198276504874229431e-02,1.520570088177919388e-02,-2.328214980661869049e-02,5.729332193732261658e-02,2.441737800836563110e-02,3.501398954540491104e-03,2.972835302352905273e-02,-3.681749105453491211e-02,-3.132023289799690247e-02,-9.266586601734161377e-02,-1.076531037688255310e-02,-6.284788995981216431e-02,-2.291193976998329163e-02,-1.806921362876892090e-01,-3.346981946378946304e-03,-2.268678881227970123e-02,5.450627952814102173e-02,-3.850439563393592834e-03,4.065253958106040955e-02,-4.803819581866264343e-03,-1.691820174455642700e-01,-3.481762949377298355e-03,1.421518772840499878e-01,3.002753667533397675e-02,1.207390353083610535e-01,-9.334800764918327332e-03,-1.581801325082778931e-01,-1.434375438839197159e-02,1.025181915611028671e-02,1.506993621587753296e-01,5.475650355219841003e-02,5.498265847563743591e-03,-2.178852073848247528e-02,-1.495391577482223511e-01,7.576781790703535080e-03,-1.152133494615554810e-01,9.717018902301788330e-02,1.530336774885654449e-02,6.450188905000686646e-02,-6.742418557405471802e-02,1.823380735004320741e-04,2.669943124055862427e-02,2.298569120466709137e-02,-9.219520539045333862e-02,6.352541968226432800e-03,-2.863351441919803619e-02,1.264843344688415527e-01,1.112196710892021656e-03,8.087735623121261597e-03,-8.654253906570374966e-04,2.118588387966156006e-01,-3.569529950618743896e-02,1.883283630013465881e-02,6.769341975450515747e-02,3.894405812025070190e-02,2.027377299964427948e-02,-8.443091064691543579e-02,-6.006432697176933289e-03,-4.492006823420524597e-02,-5.701144691556692123e-03,-4.647467285394668579e-03,1.638597249984741211e-02,1.460841763764619827e-02,5.258499644696712494e-03,1.615264266729354858e-02,2.327403926756232977e-04,-2.606311999261379242e-02,5.103010311722755432e-02,-9.674757719039916992e-03,1.965056173503398895e-02,4.805705323815345764e-02,1.749585615471005440e-03,-3.896001726388931274e-02,1.190233752131462097e-01,-2.022121846675872803e-02,-1.536703202873468399e-02,-3.087789006531238556e-02,1.199745535850524902e-01,3.065833356231451035e-03,-2.714519761502742767e-02,5.268369987607002258e-02,-3.233482828363776207e-03,8.436457812786102295e-02,-3.621428273618221283e-03,8.419841527938842773e-02,4.690871760249137878e-02,6.358554959297180176e-02,3.288703784346580505e-02,-8.271843940019607544e-02,-5.652363412082195282e-03,6.270980834960937500e-02,5.906271282583475113e-03,-5.121573340147733688e-03,-2.221115864813327789e-02,3.078115545213222504e-02,2.343332208693027496e-02,1.047265380620956421e-01,1.121806129813194275e-01,-2.508773095905780792e-02,8.364053815603256226e-02,2.438251860439777374e-02,1.750397868454456329e-02,2.586491964757442474e-02,-3.254509344696998596e-02,-3.762206435203552246e-02,4.233095049858093262e-02,-2.119266986846923828e-02,-6.282865535467863083e-03,-2.491699904203414917e-02,8.706225454807281494e-02,1.496796309947967529e-01,-3.463694825768470764e-02,2.029537409543991089e-02,-4.275391809642314911e-03,3.482834249734878540e-02,-4.108802415430545807e-03
6.903520226478576660e-02,2.558127976953983307e-02,-4.336252436041831970e-02,1.796900667250156403e-02,2.648112364113330841e-02,-9.554231539368629456e-03,-5.373198911547660828e-02,-1.326626818627119064e-02,-4.941297695040702820e-03,2.429692819714546204e-02,-1.269806234631687403e-04,1.239495817571878433e-03,1.619006320834159851e-02,2.517956495285034180e-02,-2.666138112545013428e-02,-2.186787128448486328e-01,5.012442544102668762e-02,6.031752564013004303e-03,2.902644500136375427e-02,-2.365161478519439697e-02,-8.498005568981170654e-03,6.610856205224990845e-02,-1.286585442721843719e-02,-7.581010926514863968e-03,-2.740391902625560760e-02,-2.623475492000579834e-01,6.939592305570840836e-03,-2.318217419087886810e-02,1.621199958026409149e-02,-8.457547053694725037e-03,1.776933856308460236e-02,-5.635064560920000076e-03,3.212055936455726624e-02,8.333015441894531250e-02,1.052798703312873840e-01,-1.793715357780456543e-02,2.118102908134460449e-01,-2.500553615391254425e-02,-6.440248340368270874e-02,5.020768381655216217e-03,-2.635631896555423737e-02,-1.256150752305984497e-01,1.160340532660484314e-01,9.988878667354583740e-02,-2.782363630831241608e-02,-2.035417407751083374e-01,2.504987176507711411e-03,1.141991540789604187e-01,-2.310030162334442139e-01,2.030315250158309937e-02,-1.601169630885124207e-02,-8.032606542110443115e-02,1.890990883111953735e-02,-6.495297700166702271e-02,-2.892344072461128235e-02,-1.139589771628379822e-01,-8.021194487810134888e-03,8.067785948514938354e-02,-1.308610737323760986e-01,-5.736955441534519196e-03,8.507278747856616974e-03,1.397711597383022308e-02,1.665859371423721313e-01,-1.556775253266096115e-02,-4.097043070942163467e-03,2.137517556548118591e-02,-3.582707419991493225e-02,1.950477622449398041e-02,-3.886456787586212158e-02,-9.454390034079551697e-03,-2.137081930413842201e-03,-1.223222631961107254e-02,-5.338252522051334381e-03,3.822571784257888794e-02,-1.354823913425207138e-02,3.688047640025615692e-03,2.271729148924350739e-02,-1.110195647925138474e-02,-3.456338495016098022e-02,-2.845960259437561035e-01,-1.442661881446838379e-02,2.041023410856723785e-02,3.620342910289764404e-02,4.953293874859809875e-02,-7.584301754832267761e-03,4.777293652296066284e-02,-2.443187311291694641e-02,-1.173182576894760132e-02,-3.724047914147377014e-02,1.226149275898933411e-01,-5.754357576370239258e-02,-2.735986374318599701e-02,2.853804081678390503e-02,-6.119935307651758194e-03,8.501234464347362518e-03,-3.698334097862243652e-03,8.309977501630783081e-02,3.266739472746849060e-02,5.938405543565750122e-02,7.597174961119890213e-03,-7.811768446117639542e-03,-3.904432756826281548e-03,5.077945813536643982e-02,-1.682991907000541687e-02,-5.496001336723566055e-03,-2.210734039545059204e-02,1.814990676939487457e-02,4.190846532583236694e-02,6.947662681341171265e-02,1.137245222926139832e-01,-2.919923700392246246e-02,1.766492426395416260e-02,6.366407871246337891e-02,1.874342374503612518e-02,-1.237648446112871170e-02,-3.679227456450462341e-02,-5.669736303389072418e-03,4.251867160201072693e-02,-2.496329694986343384e-02,-1.771074905991554260e-02,-3.064382635056972504e-02,8.101928234100341797e-02,1.453801244497299194e-01,-3.219091519713401794e-02,-6.159234326332807541e-03,-5.659428890794515610e-03,2.612246945500373840e-02,-4.791273269802331924e-03
-1.315629184246063232e-01,-2.516034804284572601e-02,-1.765846610069274902e-01,3.483399748802185059e-02,4.282082989811897278e-02,-4.556425288319587708e-02,2.444159053266048431e-02,-7.552205026149749756e-02,-1.313638500869274139e-02,4.397026821970939636e-02,-4.132338985800743103e-02,3.855337202548980713e-02,1.926936581730842590e-02,6.407292932271957397e-02,-2.536883763968944550e-02,-3.289677798748016357e-01,1.201757043600082397e-01,1.227158401161432266e-02,3.484207764267921448e-02,-4.472519084811210632e-02,-3.190276399254798889e-02,1.333558112382888794e-01,-3.804390877485275269e-02,6.333424150943756104e-02,-2.987759932875633240e-02,-2.039166688919067383e-01,4.363460093736648560e-02,-4.776857048273086548e-02,-5.638896953314542770e-03,-4.211986809968948364e-02,4.488238692283630371e-02,-2.009030058979988098e-02,8.420120179653167725e-02,4.671642556786537170e-02,-5.534813925623893738e-02,1.514314860105514526e-01,1.071872115135192871e-01,-2.288373745977878571e-02,6.698729842901229858e-02,2.319118008017539978e-02,-2.506169490516185760e-02,-1.092836912721395493e-02,-9.197509288787841797e-02,-8.074875175952911377e-02,-4.103281348943710327e-02,-1.517389714717864990e-01,5.559046193957328796e-02,-2.138943523168563843e-01,-1.484268009662628174e-01,3.530628979206085205e-02,-5.542512238025665283e-02,-8.680116385221481323e-02,2.582926675677299500e-02,-7.599695026874542236e-02,-6.260100752115249634e-03,1.261005997657775879e-01,-6.292378902435302734e-02,-1.824944913387298584e-01,-7.184335961937904358e-03,-1.194810867309570312e-02,-1.128345280885696411e-01,-2.227971516549587250e-02,1.413376927375793457e-01,-1.996977627277374268e-02,7.264306396245956421e-02,2.835941966623067856e-03,2.985082753002643585e-02,3.526450693607330322e-02,9.785438887774944305e-03,-1.978946104645729065e-02,6.753711961209774017e-03,-3.325514867901802063e-02,-2.169376052916049957e-02,1.949036493897438049e-02,-7.202049344778060913e-02,5.910291522741317749e-02,2.583684958517551422e-02,3.779267892241477966e-02,-2.967055141925811768e-02,-2.748292088508605957e-01,-6.686654407531023026e-03,3.842997178435325623e-02,4.965125769376754761e-02,1.380952596664428711e-01,-3.671486675739288330e-02,3.781788051128387451e-02,-3.932603448629379272e-02,1.678758412599563599e-01,-3.840610757470130920e-02,5.170782282948493958e-02,-8.551782811991870403e-04,-5.040625110268592834e-02,3.480501100420951843e-02,-4.296629130840301514e-02,4.173669964075088501e-02,-1.520805619657039642e-02,8.386751264333724976e-02,8.518001437187194824e-02,1.282659322023391724e-01,-2.979039214551448822e-02,7.389220595359802246e-02,-3.437789902091026306e-02,1.022261083126068115e-01,-5.998359993100166321e-02,-7.930041290819644928e-03,8.276889473199844360e-02,-1.970531046390533447e-02,7.983756810426712036e-02,-1.423873603343963623e-01,1.690928936004638672e-01,-2.638154104351997375e-02,-3.682113066315650940e-02,1.286365091800689697e-01,2.408865839242935181e-02,-8.452175557613372803e-02,-2.356882207095623016e-02,-3.314808383584022522e-02,5.882512032985687256e-02,-3.754355758428573608e-02,1.058551967144012451e-01,-3.277571126818656921e-02,1.569025032222270966e-02,1.447218507528305054e-01,-5.898458883166313171e-02,-1.454040855169296265e-01,-4.905794560909271240e-02,9.036678820848464966e-02,-2.546638064086437225e-02
-5.090410821139812469e-03,2.083168737590312958e-02,1.555410958826541901e-02,4.503629636019468307e-03,5.201223120093345642e-02,-7.530042203143239021e-04,1.093653067946434021e-01,-1.756819547154009342e-03,8.356401813216507435e-04,2.825299976393580437e-03,-2.006536908447742462e-02,5.272307898849248886e-03,-9.227261762134730816e-04,-1.370104122906923294e-02,-6.168458145111799240e-03,-1.010107472538948059e-01,5.919653456658124924e-03,4.058124497532844543e-03,-1.269282656721770763e-04,-1.640186761505901814e-03,-5.524632986634969711e-03,-6.278946995735168457e-02,-2.196511719375848770e-03,-1.658774539828300476e-02,-5.854268558323383331e-03,-1.556635089218616486e-02,4.288076423108577728e-03,-3.262645332142710686e-03,3.138270974159240723e-02,-7.079396746121346951e-04,8.367273956537246704e-02,-2.367764245718717575e-03,-3.217678070068359375e-01,-8.368522860109806061e-03,-8.462694287300109863e-02,5.607157014310359955e-03,1.030889675021171570e-01,5.192146636545658112e-04,1.610858887434005737e-01,1.795537397265434265e-02,-4.959120415151119232e-04,9.082891047000885010e-03,4.140182584524154663e-02,-8.251548744738101959e-03,1.959209039341658354e-04,-1.173184532672166824e-02,-1.062592677772045135e-02,-2.536026537418365479e-01,-2.153889387845993042e-01,5.684038624167442322e-03,-7.197463419288396835e-03,1.134427860379219055e-01,-9.099517948925495148e-03,-8.569835126399993896e-02,-2.062072977423667908e-03,-1.521455496549606323e-01,2.715349430218338966e-03,1.082629663869738579e-03,5.515715479850769043e-02,2.839807886630296707e-03,4.326938837766647339e-02,-2.870796015486121178e-03,7.446293532848358154e-02,1.067634578794240952e-02,6.455030525103211403e-04,4.988592118024826050e-02,-4.078945610672235489e-03,4.927639849483966827e-03,1.708875969052314758e-02,-8.002230897545814514e-04,2.182312309741973877e-02,-1.669206656515598297e-03,-1.108076248783618212e-04,-1.214701496064662933e-02,7.226361893117427826e-03,1.590272411704063416e-02,-1.664198643993586302e-04,1.687234081327915192e-02,-4.848698154091835022e-03,1.318438351154327393e-01,-7.770221680402755737e-02,3.208705456927418709e-03,1.031680963933467865e-02,-1.686204038560390472e-02,-1.235858071595430374e-03,-1.904505491256713867e-02,-3.708267584443092346e-03,2.957399003207683563e-02,-3.960996400564908981e-03,2.358203381299972534e-02,5.493572447448968887e-03,-2.192418789491057396e-03,3.520057536661624908e-03,-1.386600197292864323e-03,3.922668844461441040e-02,-1.003586803562939167e-03,1.690509356558322906e-02,3.596437349915504456e-02,2.133559901267290115e-03,-1.196790672838687897e-02,-1.180414203554391861e-02,-7.070770952850580215e-04,3.068189509212970734e-02,-1.391003956086933613e-03,3.494725970085710287e-04,-3.244706988334655762e-02,-1.278619514778256416e-03,-1.759532652795314789e-02,5.181971006095409393e-03,3.053215332329273224e-02,-6.489952560514211655e-03,3.588787466287612915e-02,6.972511298954486847e-03,5.638807080686092377e-03,-2.051434293389320374e-02,-3.159112855792045593e-02,-3.853740869089961052e-03,1.103923283517360687e-02,-3.227134933695197105e-03,1.815571822226047516e-02,-5.833955015987157822e-03,1.169214118272066116e-02,-5.198441445827484131e-03,-2.293596044182777405e-03,1.410813909024000168e-02,-5.701169138774275780e-04,5.507620424032211304e-02,-1.657449058257043362e-03
1.185826659202575684e-01,2.644271217286586761e-02,3.905431181192398071e-02,1.061191130429506302e-02,1.294388528913259506e-02,-1.589688239619135857e-03,4.719916731119155884e-02,-6.975416094064712524e-03,-2.578059909865260124e-03,2.607136033475399017e-02,2.773972041904926300e-02,-4.031274467706680298e-02,-2.700622426345944405e-03,1.864053308963775635e-02,-1.629107072949409485e-02,1.746639907360076904e-01,-2.277207560837268829e-02,1.036705821752548218e-02,1.893487013876438141e-02,-4.764690622687339783e-02,-1.354974228888750076e-03,1.806736551225185394e-02,-7.278161589056253433e-03,-4.780150577425956726e-02,-8.638550527393817902e-03,7.622738182544708252e-02,6.855162326246500015e-03,2.378160832449793816e-03,8.810836821794509888e-02,-2.791322302073240280e-03,1.846193149685859680e-02,-7.000210462138056755e-05,-3.335993885993957520e-01,1.973281241953372955e-02,2.721775323152542114e-02,-1.002607271075248718e-01,-7.562077790498733521e-02,-1.080034580081701279e-02,4.228942394256591797e-01,1.125642564147710800e-02,5.512687843292951584e-03,-1.600356549024581909e-01,3.961461409926414490e-02,7.815029821358621120e-04,-1.113069057464599609e-02,2.086951434612274170e-01,2.663403190672397614e-02,1.432576179504394531e-01,-1.702662110328674316e-01,1.535454392433166504e-02,9.989518672227859497e-02,6.447767615318298340e-01,2.758179791271686554e-02,-7.319141924381256104e-02,-9.222255088388919830e-03,-1.217665746808052063e-01,-4.147830605506896973e-02,4.593195766210556030e-02,1.723483204841613770e-02,-1.073368918150663376e-02,-2.915824297815561295e-04,-1.935299858450889587e-02,1.232884004712104797e-01,5.823018727824091911e-05,4.484341293573379517e-02,5.490683391690254211e-02,-5.179208237677812576e-03,1.549966447055339813e-02,-1.466705929487943649e-02,-1.430229633115231991e-03,2.093335986137390137e-02,-6.789998617023229599e-03,-2.339687198400497437e-03,-4.648793023079633713e-03,4.744691774249076843e-02,-4.421009123325347900e-02,5.266445223242044449e-03,-4.856175929307937622e-02,-2.075670287013053894e-02,2.345940917730331421e-01,-6.621728837490081787e-02,1.517570670694112778e-02,3.041539900004863739e-02,-1.945468410849571228e-02,4.287827759981155396e-03,-1.047219429165124893e-02,-9.973797947168350220e-03,-4.199166316539049149e-03,-1.203728280961513519e-02,5.519679188728332520e-02,-1.993011916056275368e-03,2.360653132200241089e-03,4.014036059379577637e-02,-1.468766364268958569e-03,1.106235086917877197e-01,1.125179580412805080e-03,5.112719535827636719e-02,4.600503295660018921e-02,2.650206210091710091e-03,3.061874024569988251e-02,-2.332665957510471344e-02,-9.506177157163619995e-04,1.805758289992809296e-02,-6.728571839630603790e-03,-1.640803413465619087e-03,-1.494625397026538849e-02,4.996022209525108337e-02,-2.949502691626548767e-02,-1.760751567780971527e-02,3.756234422326087952e-02,-1.810491643846035004e-02,8.191718161106109619e-02,-3.137001767754554749e-02,4.101034253835678101e-02,-9.836435317993164062e-03,-4.395790398120880127e-02,2.359184902161359787e-03,-2.147743292152881622e-02,-1.062906906008720398e-02,-1.525310613214969635e-02,-1.129686553031206131e-02,6.304672360420227051e-02,-1.294785458594560623e-02,3.881679847836494446e-03,6.266292184591293335e-02,-2.689284039661288261e-03,1.219931337982416153e-02,2.105128514813259244e-04
