-8.444456383585929871e-03
2.036836929619312286e-02
-7.138371933251619339e-03
1.191410701721906662e-02
-4.159561358392238617e-03
2.791188890114426613e-03
2.686488442122936249e-03
4.265506286174058914e-03
-1.419283077120780945e-02
-1.382000651210546494e-02
1.373211853206157684e-02
1.868636161088943481e-02
-1.573839038610458374e-02
9.439008426852524281e-04
1.289721485227346420e-02
3.531462978571653366e-03
-2.258787676692008972e-02
-2.250727452337741852e-02
6.049142219126224518e-03
-1.757013797760009766e-02
1.172307413071393967e-02
6.974294083192944527e-04
3.489735070616006851e-03
-8.214053697884082794e-03
-3.784134238958358765e-02
1.890580402687191963e-03
-1.941416412591934204e-02
-2.501694951206445694e-03
-3.314062952995300293e-03
1.058510039001703262e-02
-8.602716960012912750e-03
-2.346463873982429504e-02
3.642743825912475586e-02
-6.858542561531066895e-03
5.750176031142473221e-03
9.925611084327101707e-04
-3.894297173246741295e-03
1.742982491850852966e-02
2.000359818339347839e-02
-1.299527101218700409e-02
4.286328330636024475e-03
6.540254689753055573e-03
-2.232834696769714355e-02
2.882753871381282806e-02
2.039044164121150970e-03
2.569592371582984924e-02
3.148070070892572403e-03
-1.036914531141519547e-02
1.587541773915290833e-02
-6.594944745302200317e-03
-1.577164232730865479e-02
-7.073028828017413616e-04
-1.098548527806997299e-02
-1.253488846123218536e-02
-1.614267937839031219e-02
-1.897903531789779663e-02
2.879842650145292282e-03
-3.808684647083282471e-02
1.189263258129358292e-02
-1.347983255982398987e-02
5.426222924143075943e-04
-1.520097628235816956e-02
-3.417536849156022072e-03
-9.764273650944232941e-03
-4.336432553827762604e-03
-7.271646987646818161e-03
3.443633671849966049e-03
-7.057998795062303543e-03
-3.260903467889875174e-04
-4.202517680823802948e-03
-3.416110412217676640e-04
-4.755279514938592911e-03
6.690186914056539536e-03
2.653551753610372543e-03
-8.243740885518491268e-04
1.878500799648463726e-03
-2.978829725179821253e-04
9.230376221239566803e-03
1.423060894012451172e-03
-1.179473660886287689e-02
-7.710299454629421234e-03
-5.978044122457504272e-03
1.622475683689117432e-02
-5.185751244425773621e-03
9.423831943422555923e-04
9.229365736246109009e-03
2.697517164051532745e-03
-1.786163193173706532e-03
-1.060502696782350540e-02
-1.444439031183719635e-02
1.872833468951284885e-03
-7.257831748574972153e-04
-1.053613796830177307e-02
-7.964289747178554535e-03
6.828980520367622375e-03
3.660868154838681221e-03
-9.792151860892772675e-03
6.859099958091974258e-03
-8.316141553223133087e-03
-3.586009144783020020e-03
5.855390336364507675e-03
9.353004395961761475e-03
3.519959980621933937e-03
-3.069906262680888176e-03
-4.553155042231082916e-03
3.175716614350676537e-03
1.445888425223529339e-03
-1.048805378377437592e-02
7.064733654260635376e-05
-5.037017166614532471e-03
-4.872670862823724747e-03
1.897024339996278286e-03
-7.499759085476398468e-03
7.442279718816280365e-03
1.957432599738240242e-03
1.398978475481271744e-02
-1.491968636400997639e-03
1.495516276918351650e-03
-8.232591673731803894e-03
-8.202823810279369354e-03
-1.451225113123655319e-02
-1.287574972957372665e-02
-1.356661412864923477e-02
5.673307459801435471e-03
-1.471363939344882965e-02
3.034051507711410522e-03
-1.109713129699230194e-02
2.328931586816906929e-03
-7.628406397998332977e-03
4.687445610761642456e-02
-1.025149971246719360e-02
1.312802266329526901e-02
-2.845250535756349564e-03
-1.454017357900738716e-03
3.129010088741779327e-03
1.234488189220428467e-02
-1.426357030868530273e-02
-1.925546862185001373e-02
3.246637806296348572e-02
2.431024610996246338e-02
-1.773571968078613281e-02
1.801233552396297455e-02
2.173953317105770111e-02
3.679102985188364983e-03
-2.476718090474605560e-02
-2.216810733079910278e-02
2.362519502639770508e-02
-1.920049265027046204e-02
1.476906239986419678e-02
-3.600639291107654572e-03
2.227885648608207703e-02
-8.135861717164516449e-03
-2.064955793321132660e-02
1.019279472529888153e-03
-2.055129967629909515e-02
-3.508160589262843132e-03
4.985770210623741150e-03
1.653036288917064667e-02
4.110929090529680252e-03
-2.513831853866577148e-02
5.643361061811447144e-02
-4.301510751247406006e-03
4.969963803887367249e-03
2.329037291929125786e-03
-8.177340496331453323e-04
2.147939428687095642e-02
2.554051578044891357e-02
-9.322272613644599915e-03
1.227129623293876648e-02
4.594755824655294418e-03
-2.098192088305950165e-02
3.369358181953430176e-02
2.604803070425987244e-03
8.296423405408859253e-02
4.641868174076080322e-03
-1.364666316658258438e-02
1.437704917043447495e-02
-8.153514936566352844e-03
-1.186407357454299927e-02
-2.237141365185379982e-03
-1.135357003659009933e-02
-5.340657662600278854e-03
-1.612832956016063690e-02
-2.028508484363555908e-02
8.578552864491939545e-03
-3.459996357560157776e-02
1.466492563486099243e-02
-1.264980714768171310e-02
7.071557454764842987e-03
-1.345602888613939285e-02
9.589336812496185303e-03
-7.974998094141483307e-03
-6.526644341647624969e-03
3.971998766064643860e-02
-6.035880651324987411e-03
1.432507578283548355e-02
6.007167976349592209e-03
3.517857519909739494e-03
-5.040867254137992859e-03
5.572223104536533356e-03
-1.766232401132583618e-02
-1.939178071916103363e-02
3.839464625343680382e-03
1.815279759466648102e-02
-1.717360317707061768e-02
1.931239105761051178e-02
2.177112922072410583e-02
5.607281345874071121e-03
-2.043886668980121613e-02
-1.621884480118751526e-02
2.304568141698837280e-02
-1.819358021020889282e-02
2.103425189852714539e-02
-3.350466024130582809e-03
5.058009177446365356e-03
-3.208175068721175194e-03
-3.790491819381713867e-02
-7.956158369779586792e-03
-1.983414590358734131e-02
9.240917279385030270e-04
-4.463104531168937683e-03
4.588131327182054520e-03
1.892357319593429565e-02
-2.623258903622627258e-02
4.922503605484962463e-02
-8.466672152280807495e-03
5.005079787224531174e-03
-6.555717845913022757e-06
-1.986562274396419525e-03
2.512212283909320831e-02
4.695563763380050659e-02
-1.668089814484119415e-02
6.559920962899923325e-03
8.501038886606693268e-03
-2.489511668682098389e-02
2.417426370084285736e-02
-1.912206760607659817e-03
4.873010516166687012e-02
2.597174607217311859e-04
-1.829072833061218262e-02
1.129160914570093155e-02
-6.018262356519699097e-03
-1.724217087030410767e-02
-4.440108314156532288e-03
-3.429338103160262108e-03
-8.727664127945899963e-03
-1.408176589757204056e-02
-1.966316998004913330e-02
6.993009708821773529e-03
-3.677718341350555420e-02
7.014595437794923782e-03
-1.435969863086938858e-02
-2.956034382805228233e-03
-1.385327428579330444e-02
1.743250712752342224e-02
-1.008182484656572342e-02
