4.735004622489213943e-03,9.541708976030349731e-03,-4.037161916494369507e-02,9.378069080412387848e-03,7.416334468871355057e-03,1.035226229578256607e-02,7.756415288895368576e-04,-2.440293319523334503e-02,-9.949972853064537048e-03,-2.120104851201176643e-03,2.593387477099895477e-02,3.730429802089929581e-03,-2.361637167632579803e-02,-8.734821458347141743e-04,2.650906145572662354e-02,-6.285973358899354935e-03,-6.673306226730346680e-02,-1.460942476987838745e-01,-4.857154190540313721e-02,-9.457071125507354736e-02,1.360773947089910507e-02,-2.164024859666824341e-03,-3.323920816183090210e-02,4.090510774403810501e-03,-3.582210838794708252e-02,-1.417793706059455872e-02,1.333567872643470764e-02,3.883767500519752502e-02,5.041490495204925537e-02,-1.551475189626216888e-02,-4.077191650867462158e-02,-3.407343104481697083e-02,-1.726416796445846558e-01,-9.385594725608825684e-02,-8.226493000984191895e-02,2.591180428862571716e-02,9.951929003000259399e-02,-9.623443335294723511e-02,-2.435993999242782593e-01,3.990555182099342346e-02,-4.514203220605850220e-02,-1.489329617470502853e-02,1.592683941125869751e-01,2.148249298334121704e-01,2.309093922376632690e-01,9.231045842170715332e-03,-5.282144062221050262e-03,-1.245183404535055161e-02,-1.755466610193252563e-01,2.516156807541847229e-02,-1.839252859354019165e-01,-3.698317334055900574e-02,-1.493032127618789673e-01,1.726077869534492493e-02,1.047822907567024231e-01,2.789236009120941162e-01,1.630301028490066528e-01,1.823923550546169281e-02,-1.944801062345504761e-01,-2.661285698413848877e-01,-1.920718252658843994e-01,-9.512120485305786133e-02,-8.792193233966827393e-02,1.138379890471696854e-02,-1.503170188516378403e-02,-2.857442200183868408e-02,-5.728023871779441833e-02,-1.172941643744707108e-02,1.450075861066579819e-02,-5.521244183182716370e-02,-4.044780880212783813e-02,-3.794772550463676453e-02,-2.069447562098503113e-02,-1.506751403212547302e-02,-2.129541151225566864e-02,4.292485490441322327e-02,-4.224703460931777954e-02,3.455249592661857605e-03,5.583202000707387924e-04,-2.654587291181087494e-02,-1.044593304395675659e-01,-1.389907747507095337e-01,-8.483853191137313843e-02,-9.235641360282897949e-02,1.162095367908477783e-02,-1.252605319023132324e-01,-4.308707267045974731e-02,5.535124614834785461e-02,-6.697602570056915283e-02,-4.103594645857810974e-02,1.639744825661182404e-02,5.614858120679855347e-02,6.160293892025947571e-02,-5.060411617159843445e-02,-4.062645509839057922e-02,-9.171731770038604736e-02,8.417422650381922722e-04,-3.210607543587684631e-02,-9.916914254426956177e-02,-1.622041314840316772e-02,-4.381016828119754791e-03,-7.441481202840805054e-02,-2.379566989839076996e-02,-6.855098903179168701e-02,-1.032244339585304260e-01,-6.621728092432022095e-02,-5.201295763254165649e-02,5.186683963984251022e-03,-1.964144781231880188e-02,-3.428710624575614929e-05,-1.709747128188610077e-02,-1.008421033620834351e-01,-1.475705206394195557e-01,-7.446183264255523682e-02,-1.215870082378387451e-01,-7.834109663963317871e-02,-4.569497425109148026e-03,-7.369188219308853149e-02,-2.325392514467239380e-02,6.776054203510284424e-02,-1.057368144392967224e-01,-6.301546841859817505e-02,-1.716459728777408600e-02,1.100720167160034180e-01,-1.325943134725093842e-02,-7.489291578531265259e-02,-1.819397788494825363e-03,-1.335706412792205811e-01
4.194201156497001648e-02,2.699094824492931366e-02,1.007953844964504242e-02,8.531844243407249451e-03,9.845592081546783447e-03,2.413644641637802124e-02,1.702807098627090454e-02,2.475432492792606354e-02,-3.351886989548802376e-03,1.431168988347053528e-02,4.050089046359062195e-02,2.114220149815082550e-02,1.807251945137977600e-02,1.482553686946630478e-02,2.303696982562541962e-02,1.163900643587112427e-02,1.700388453900814056e-02,-4.285804927349090576e-03,1.479380391538143158e-02,1.929250545799732208e-02,1.189927384257316589e-02,-1.275026518851518631e-02,4.509637597948312759e-03,1.460344810038805008e-02,1.385547500103712082e-02,3.116074204444885254e-02,1.413683500140905380e-02,1.598443952389061451e-03,-1.365158357657492161e-03,4.063212126493453979e-02,-1.698266156017780304e-02,3.194734826683998108e-02,6.404354423284530640e-02,-6.634758412837982178e-02,-3.823410719633102417e-02,4.975557699799537659e-02,1.468474138528108597e-02,-8.930025249719619751e-02,-7.157892733812332153e-02,4.628277942538261414e-02,7.727333903312683105e-02,6.644335389137268066e-02,4.809788241982460022e-02,-6.245885416865348816e-02,-9.148456901311874390e-02,-2.887892536818981171e-02,5.613084509968757629e-02,-9.478905051946640015e-02,3.339676558971405029e-02,6.090350449085235596e-02,-1.066225115209817886e-02,-8.603110909461975098e-03,-1.155036613345146179e-01,-5.727726221084594727e-02,5.112911388278007507e-02,-2.704452723264694214e-02,-3.316089138388633728e-02,6.542488932609558105e-02,3.991583362221717834e-02,1.276938021183013916e-01,2.955406159162521362e-02,4.835147783160209656e-02,1.144511699676513672e-01,-5.218244716525077820e-02,6.198914349079132080e-02,5.721884965896606445e-02,2.077790163457393646e-02,4.075604677200317383e-02,1.484353002160787582e-02,9.840659797191619873e-02,4.747349023818969727e-02,5.840026587247848511e-02,-5.463410634547472000e-03,2.552727982401847839e-02,4.396316036581993103e-02,4.357138648629188538e-02,2.355304360389709473e-02,1.778559945523738861e-02,4.861947149038314819e-02,3.926581889390945435e-02,3.179464116692543030e-02,3.185233846306800842e-02,2.789558470249176025e-02,3.250417858362197876e-02,2.370340749621391296e-02,8.190874755382537842e-02,2.409014292061328888e-02,2.425131946802139282e-02,3.039653971791267395e-02,5.793565139174461365e-02,5.132287740707397461e-02,2.589402254670858383e-03,2.200682088732719421e-02,8.577838540077209473e-02,1.769272796809673309e-02,8.366798609495162964e-02,8.610983937978744507e-02,5.620601028203964233e-02,3.384862467646598816e-02,2.761187590658664703e-02,7.294251769781112671e-02,6.468204408884048462e-02,6.561408936977386475e-02,8.280690014362335205e-02,1.181065477430820465e-02,5.793681368231773376e-02,7.973139733076095581e-02,3.011516109108924866e-02,5.745127424597740173e-02,6.060004234313964844e-02,2.794326469302177429e-02,3.732543811202049255e-02,4.973657056689262390e-02,3.876282274723052979e-02,4.826403781771659851e-02,5.718987435102462769e-02,4.413693025708198547e-02,6.451488286256790161e-02,4.861191287636756897e-02,2.291242405772209167e-02,6.630746275186538696e-02,6.457322090864181519e-02,3.696348518133163452e-02,2.369661256670951843e-02,5.704371258616447449e-02,9.132639318704605103e-02,4.950267821550369263e-02,8.294824510812759399e-02
1.839151792228221893e-02,-1.351031707599759102e-03,9.793872013688087463e-03,-3.913184255361557007e-02,8.396885357797145844e-03,-7.653769105672836304e-02,1.343401707708835602e-02,-7.675515487790107727e-03,-5.015460308641195297e-03,-5.110727623105049133e-03,-9.422665461897850037e-03,-3.341563744470477104e-03,6.517251487821340561e-03,2.331477589905261993e-02,1.118454337120056152e-02,-1.249475590884685516e-02,-1.526532787829637527e-02,-1.877612806856632233e-02,-2.927894517779350281e-02,-1.760892570018768311e-02,1.957717724144458771e-02,-7.471621781587600708e-02,2.351158671081066132e-02,1.710114628076553345e-02,9.508705697953701019e-03,-2.903843298554420471e-02,-7.785400375723838806e-03,2.226451411843299866e-02,-3.014374524354934692e-03,-5.786230787634849548e-02,1.313155516982078552e-02,-7.909757643938064575e-02,-2.990446984767913818e-02,-8.793336153030395508e-02,3.712327685207128525e-03,-1.077168807387351990e-01,1.351584494113922119e-01,-8.430159091949462891e-02,-1.818620972335338593e-02,4.041293263435363770e-02,-7.841691374778747559e-02,-6.518035382032394409e-02,4.199540615081787109e-02,-6.858738511800765991e-02,-2.495156833902001381e-03,-1.595577299594879150e-01,-7.985524088144302368e-02,6.626660004258155823e-03,6.281449645757675171e-02,-1.068110167980194092e-01,5.924893543124198914e-02,-6.021981313824653625e-02,-9.697467833757400513e-02,1.817934066057205200e-01,3.828314319252967834e-02,1.301924046128988266e-02,1.271705329418182373e-02,1.389590501785278320e-01,7.976978272199630737e-02,5.746863782405853271e-02,-1.412670165300369263e-01,-8.823077380657196045e-02,-1.795807033777236938e-01,-7.647455483675003052e-02,2.594423294067382812e-02,2.752581611275672913e-02,1.026563905179500580e-02,-3.526215627789497375e-02,2.819955721497535706e-02,1.826739497482776642e-02,3.287166357040405273e-02,1.966100931167602539e-02,-9.433677420020103455e-03,1.235618488863110542e-03,1.489698328077793121e-02,1.715935580432415009e-02,3.214352577924728394e-02,5.881255865097045898e-02,6.977257132530212402e-02,-1.060426002368330956e-04,-2.360233664512634277e-02,1.175156980752944946e-02,-4.462998360395431519e-02,-1.074529159814119339e-02,1.234907377511262894e-02,-8.893231302499771118e-02,2.747488208115100861e-02,2.986804954707622528e-02,3.398631000891327858e-03,-1.949570886790752411e-02,2.027639420703053474e-03,3.449115902185440063e-02,4.055782780051231384e-02,-8.133109658956527710e-02,2.823713235557079315e-02,1.628939062356948853e-02,5.084837973117828369e-02,2.416464500129222870e-02,-4.596529994159936905e-03,-5.389099940657615662e-02,7.226500660181045532e-02,-2.826259844005107880e-02,5.591139197349548340e-02,3.482665494084358215e-02,-3.846460208296775818e-02,5.893413443118333817e-03,3.876424394547939301e-03,-8.189257234334945679e-02,7.282742857933044434e-02,2.975761331617832184e-02,3.025922691449522972e-03,-4.838017746806144714e-02,-3.610409051179885864e-02,-1.305614039301872253e-02,-5.630322173237800598e-02,-3.152652457356452942e-02,5.572304502129554749e-02,-8.200903981924057007e-02,3.568740189075469971e-02,4.597810283303260803e-02,2.580958534963428974e-04,-1.883920840919017792e-02,2.891461923718452454e-02,1.559531223028898239e-02,2.054856158792972565e-03,-9.946886450052261353e-02,2.930992469191551208e-02,-5.256126448512077332e-02
3.039707988500595093e-02,1.931553333997726440e-02,3.472096845507621765e-02,1.277201808989048004e-02,2.153915539383888245e-02,1.512813847512006760e-02,3.848281130194664001e-02,-1.400808524340391159e-02,2.233188226819038391e-02,2.007780410349369049e-02,2.106344513595104218e-02,1.286762859672307968e-02,2.752829343080520630e-02,3.364064171910285950e-02,4.175487905740737915e-02,2.924322336912155151e-02,-3.795381169766187668e-03,4.150712117552757263e-02,-1.036203838884830475e-02,2.911958470940589905e-02,4.512527957558631897e-02,1.607720856554806232e-03,2.682352624833583832e-02,4.834293574094772339e-02,1.862371154129505157e-02,8.493863046169281006e-03,2.343379706144332886e-02,5.768086016178131104e-02,4.193269833922386169e-02,-5.034002661705017090e-02,9.651424735784530640e-02,-1.709506660699844360e-02,-1.209574937820434570e-01,4.710616171360015869e-02,7.384688407182693481e-02,-7.657285779714584351e-02,-5.129969865083694458e-02,-6.716932356357574463e-02,-1.139378920197486877e-01,-1.542872041463851929e-01,-7.659932971000671387e-02,-1.833904534578323364e-02,1.928647756576538086e-01,-5.651393160223960876e-02,-6.755214929580688477e-02,-1.466566622257232666e-01,-1.236430369317531586e-03,8.376252651214599609e-02,1.429968476295471191e-01,-1.070289984345436096e-01,5.733236297965049744e-02,-1.414128839969635010e-01,-9.874930605292320251e-03,-3.098742663860321045e-02,5.242854729294776917e-02,-3.627629950642585754e-03,-1.326164882630109787e-02,7.099849730730056763e-02,5.567383766174316406e-02,1.502751410007476807e-01,-5.089867487549781799e-02,-4.354275763034820557e-02,8.355494588613510132e-02,-1.320240646600723267e-01,6.329973787069320679e-02,5.660970881581306458e-02,4.100537300109863281e-02,5.130999535322189331e-02,6.321091949939727783e-02,5.844980105757713318e-02,8.565358072519302368e-02,3.665866702795028687e-02,3.012487292289733887e-02,3.760324418544769287e-02,4.365582019090652466e-02,4.929320886731147766e-02,7.257329672574996948e-02,7.035910338163375854e-02,9.299655258655548096e-02,5.286870524287223816e-02,3.538289805874228477e-03,5.765619501471519470e-02,-3.292346838861703873e-03,3.422321006655693054e-02,6.835377216339111328e-02,7.587155699729919434e-02,4.849841818213462830e-02,8.775169402360916138e-02,2.703372389078140259e-02,3.863545134663581848e-02,7.965225726366043091e-02,7.525013387203216553e-02,1.276073604822158813e-01,-5.627842620015144348e-02,1.129597499966621399e-01,1.672768965363502502e-02,1.072372570633888245e-01,1.044851616024971008e-01,2.894917316734790802e-02,4.682364687323570251e-02,1.316011548042297363e-01,7.951580733060836792e-02,1.275622248649597168e-01,9.585280716419219971e-02,4.194821044802665710e-02,9.632146358489990234e-02,8.882120996713638306e-02,-1.239353884011507034e-02,1.226218044757843018e-01,7.823958992958068848e-02,1.028942391276359558e-01,9.869138151407241821e-02,1.515100710093975067e-02,5.207706615328788757e-02,1.745600136928260326e-03,8.672535419464111328e-03,1.237867921590805054e-01,2.326549589633941650e-02,7.580719888210296631e-02,8.771029114723205566e-02,5.254554003477096558e-02,7.129992544651031494e-02,1.181808412075042725e-01,1.211395636200904846e-01,1.238432526588439941e-01,-6.072438880801200867e-02,1.137372329831123352e-01,3.137233853340148926e-02
6.308701634407043457e-02,2.550274319946765900e-02,1.591801643371582031e-02,1.638695248402655125e-03,1.712935604155063629e-02,-3.183137252926826477e-02,2.444878965616226196e-02,1.755434460937976837e-02,-3.766454523429274559e-03,3.280321881175041199e-02,7.172774523496627808e-02,3.484651073813438416e-02,3.825191408395767212e-02,3.198002278804779053e-02,3.678612783551216125e-02,3.415402024984359741e-02,2.302884357050061226e-03,-8.345557004213333130e-02,8.341497741639614105e-03,-2.849157899618148804e-02,2.365447767078876495e-02,-7.485119160264730453e-03,-4.035225138068199158e-03,1.653033308684825897e-02,2.021488733589649200e-02,1.868407987058162689e-02,2.510956488549709320e-03,2.440930530428886414e-02,4.392837733030319214e-02,3.053485788404941559e-02,-4.318030551075935364e-02,-3.476019203662872314e-02,-6.429173797369003296e-02,-2.630946598947048187e-02,5.480745062232017517e-02,7.153512537479400635e-02,1.307903230190277100e-01,1.859467774629592896e-01,-7.839223742485046387e-02,1.364349275827407837e-01,3.059612773358821869e-02,-2.377557009458541870e-02,-1.812165044248104095e-02,-4.469479247927665710e-02,1.413171645253896713e-03,-3.542184457182884216e-02,5.785556510090827942e-02,6.756969541311264038e-02,-4.228821024298667908e-02,8.376283943653106689e-02,1.898541301488876343e-02,-2.814689651131629944e-02,-2.999135293066501617e-02,6.657465547323226929e-02,1.908441074192523956e-02,-7.850688695907592773e-02,8.663474000059068203e-05,-6.221670284867286682e-02,-8.551926910877227783e-02,1.791359186172485352e-01,1.330199986696243286e-01,-3.242667019367218018e-02,8.420361578464508057e-02,2.204712778329849243e-01,8.364497125148773193e-02,4.458061605691909790e-02,2.985368482768535614e-02,2.274489589035511017e-02,5.718797445297241211e-02,4.127101600170135498e-02,5.479441583156585693e-02,7.621482014656066895e-02,3.547580447047948837e-03,5.718306079506874084e-02,6.025000289082527161e-02,7.392568886280059814e-02,7.921928167343139648e-02,5.925139039754867554e-02,5.793250352144241333e-02,6.476555019617080688e-02,1.099624391645193100e-02,-2.970594912767410278e-02,1.740085519850254059e-02,-1.754619367420673370e-02,3.751847892999649048e-02,6.219062209129333496e-02,2.446089871227741241e-02,3.283371776342391968e-02,3.901467472314834595e-02,4.339518770575523376e-02,2.898083999752998352e-02,9.095721878111362457e-03,9.449966251850128174e-02,6.161889806389808655e-02,3.349107457324862480e-03,1.109662000089883804e-02,1.329690068960189819e-01,7.916136085987091064e-02,8.020843565464019775e-02,4.017990455031394958e-02,9.656226634979248047e-02,1.943385042250156403e-02,8.885938674211502075e-02,1.132965683937072754e-01,1.445851172320544720e-03,7.728397101163864136e-02,1.217227727174758911e-01,6.816555559635162354e-02,1.219873204827308655e-01,1.397479176521301270e-01,3.680772706866264343e-02,8.140639960765838623e-02,2.715610153973102570e-02,3.072112612426280975e-02,3.818476945161819458e-02,1.885750330984592438e-02,6.602530926465988159e-02,7.125246524810791016e-02,6.702156364917755127e-02,4.534132033586502075e-02,6.655837595462799072e-02,5.620509758591651917e-02,3.999128565192222595e-02,7.105306535959243774e-02,1.003422066569328308e-01,8.716432005167007446e-02,5.486987903714179993e-02,2.561786025762557983e-02
-3.005156666040420532e-02,-5.500839091837406158e-03,5.152416997589170933e-04,5.993019789457321167e-03,7.639746647328138351e-03,3.230207366868853569e-03,3.248848224757239223e-05,7.824677042663097382e-03,3.479635342955589294e-03,2.019288949668407440e-03,-4.266385734081268311e-02,-3.218652680516242981e-03,-1.134507078677415848e-02,-7.075525820255279541e-03,-4.351295996457338333e-03,3.968235570937395096e-03,-6.290469900704920292e-04,1.398005336523056030e-02,2.060659462586045265e-03,-3.941559232771396637e-03,-8.162125013768672943e-03,4.146042745560407639e-03,1.127304788678884506e-02,1.535487826913595200e-03,-2.505552722141146660e-03,8.496914990246295929e-03,2.232518279924988747e-03,5.435371771454811096e-03,6.247421260923147202e-03,-1.636076159775257111e-02,-6.331753917038440704e-03,1.194935105741024017e-02,-3.177502378821372986e-02,-2.536724787205457687e-03,-1.028194092214107513e-02,-2.039690129458904266e-02,9.004210121929645538e-03,-2.194788865745067596e-02,-1.908921264111995697e-02,1.099022477865219116e-02,1.191978808492422104e-02,-3.762512933462858200e-03,-2.902042120695114136e-03,3.729639342054724693e-03,1.021755207329988480e-02,1.880346797406673431e-02,2.758420538157224655e-03,-3.583526704460382462e-03,2.836450934410095215e-03,1.590783521533012390e-02,-8.689850568771362305e-03,1.446119882166385651e-02,-1.722560264170169830e-02,3.697298839688301086e-02,-1.102152559906244278e-02,2.573968842625617981e-02,-3.324884921312332153e-03,-1.432398334145545959e-02,1.054544374346733093e-02,-3.712689504027366638e-03,-7.941923290491104126e-02,2.230487152701243758e-04,-7.787261158227920532e-02,-2.729798108339309692e-02,-3.291072696447372437e-02,-8.388336747884750366e-03,-2.016990765696391463e-04,4.255099687725305557e-03,6.406290456652641296e-03,3.315231879241764545e-05,-3.089315723627805710e-03,6.192344706505537033e-03,4.544125869870185852e-03,2.207124838605523109e-03,-4.080319032073020935e-02,-1.211521029472351074e-02,-1.526213344186544418e-02,-1.059223525226116180e-02,-9.880837053060531616e-03,4.688752349466085434e-03,-2.352971117943525314e-03,8.103963918983936310e-03,8.350245770998299122e-04,-6.690286565572023392e-03,-5.969413090497255325e-03,-1.625493168830871582e-04,1.054955366998910904e-02,-8.711769478395581245e-04,-3.889551851898431778e-03,6.916013546288013458e-03,-1.244333339855074883e-03,6.344351451843976974e-03,1.455053221434354782e-03,-3.318812698125839233e-02,-7.748160511255264282e-03,1.039383839815855026e-02,-3.790046647191047668e-02,-1.699332147836685181e-02,-3.690625599119812250e-04,8.736649528145790100e-03,-8.712259121239185333e-03,3.832812886685132980e-03,-5.805807653814554214e-03,6.965991575270891190e-03,9.871219284832477570e-03,-1.421961002051830292e-03,-3.892093151807785034e-02,7.167553529143333435e-03,-3.266765177249908447e-02,-1.067828387022018433e-02,3.529974725097417831e-03,1.143178809434175491e-02,-1.804526662454009056e-03,5.522152408957481384e-03,3.584296500775963068e-04,-5.447776988148689270e-03,-1.478483062237501144e-02,8.681728504598140717e-03,8.600888773798942566e-03,-5.452238023281097412e-03,-5.842724349349737167e-03,1.140303444117307663e-02,2.539242152124643326e-03,-7.675973698496818542e-03,1.117121241986751556e-02,-3.565513342618942261e-02,-1.019875053316354752e-02,6.018153391778469086e-03
4.181447625160217285e-02,3.628174215555191040e-02,-8.414755575358867645e-03,3.848966211080551147e-02,-1.567551679909229279e-02,2.923292294144630432e-02,-1.269505079835653305e-02,-2.576919458806514740e-02,2.689744904637336731e-02,-3.980034496635198593e-03,6.531775742769241333e-02,5.719513632357120514e-03,1.853634417057037354e-02,3.436428960412740707e-03,2.392915822565555573e-02,8.220250159502029419e-02,-4.573692567646503448e-03,-6.348928809165954590e-02,2.538962289690971375e-02,-3.230617195367813110e-02,3.827489167451858521e-02,1.366300880908966064e-02,-3.648371249437332153e-02,2.009812556207180023e-02,-1.295679714530706406e-03,-5.520619451999664307e-02,2.616233192384243011e-02,4.427600279450416565e-02,5.124080926179885864e-02,6.938806921243667603e-02,-1.370326429605484009e-02,-4.083283245563507080e-03,-5.630641058087348938e-02,2.442929148674011230e-02,-2.839365415275096893e-02,2.215598374605178833e-01,-5.278478935360908508e-02,3.124139308929443359e-01,-6.134043261408805847e-02,-8.407465368509292603e-02,-6.679459009319543839e-03,1.635555922985076904e-02,-7.579586654901504517e-02,1.304816603660583496e-01,-1.102782636880874634e-01,1.139497607946395874e-01,1.455161869525909424e-01,6.511069089174270630e-02,-2.861465513706207275e-02,5.298624560236930847e-02,-1.131942216306924820e-02,1.037029083818197250e-02,6.639843434095382690e-02,-1.297712177038192749e-01,-4.339570179581642151e-02,-1.102478802204132080e-02,-4.395743459463119507e-02,-2.308715432882308960e-01,-1.729143112897872925e-01,-1.806475818157196045e-01,1.773089319467544556e-01,-7.840539515018463135e-02,-9.359650313854217529e-02,1.392453461885452271e-01,4.242394119501113892e-02,8.040113002061843872e-02,1.338500529527664185e-02,5.356276035308837891e-02,3.674190025776624680e-03,8.885573595762252808e-02,-9.074026718735694885e-03,1.261986978352069855e-02,4.716980084776878357e-02,4.029368516057729721e-03,6.834496557712554932e-02,1.593998447060585022e-02,1.422829832881689072e-02,-1.399610377848148346e-02,5.394644290208816528e-02,1.176083981990814209e-01,9.511466138064861298e-03,3.423337591812014580e-03,4.267587140202522278e-02,-1.692094095051288605e-02,4.526910558342933655e-02,5.350053682923316956e-02,-1.401283778250217438e-02,-1.193818822503089905e-02,3.152687568217515945e-03,-4.373778030276298523e-02,3.676682338118553162e-02,-2.531616576015949249e-02,9.071917086839675903e-02,1.072631329298019409e-01,3.309704363346099854e-02,5.343502014875411987e-02,9.016648679971694946e-02,1.373190283775329590e-01,4.080044478178024292e-02,1.171377077698707581e-01,-9.073835611343383789e-02,6.839498877525329590e-02,-5.543414968997240067e-03,-6.524601578712463379e-02,4.891954362392425537e-02,2.856957167387008667e-02,1.533201336860656738e-01,2.999196760356426239e-02,-5.167338252067565918e-02,-3.324095532298088074e-02,1.227894350886344910e-01,1.762801706790924072e-01,1.754128932952880859e-02,1.157164052128791809e-01,5.648504570126533508e-02,3.190831094980239868e-02,7.922371476888656616e-02,8.953969925642013550e-02,-1.418242976069450378e-02,4.677839577198028564e-02,-1.266123726963996887e-02,-3.819056972861289978e-02,8.379671722650527954e-02,1.507967859506607056e-01,-9.305780753493309021e-03,1.350169330835342407e-01,6.859564036130905151e-02,5.938345938920974731e-02
4.816790577024221420e-03,-2.273731864988803864e-03,2.905464963987469673e-03,-4.226037301123142242e-03,2.547473413869738579e-03,5.272941198199987411e-03,-6.240818765945732594e-04,-6.181612145155668259e-03,1.810676476452499628e-04,-3.047190140932798386e-03,7.154930848628282547e-03,-5.029254592955112457e-03,-2.122967503964900970e-03,1.131708122557029128e-04,2.575321705080568790e-04,-1.390220317989587784e-02,-6.944164168089628220e-03,7.171025499701499939e-03,-7.617300376296043396e-03,9.380307979881763458e-03,3.292723093181848526e-03,-1.124802511185407639e-02,2.318155718967318535e-03,1.055085565894842148e-03,-3.703830530866980553e-03,-4.614994861185550690e-03,-8.573025115765631199e-04,-1.187776564620435238e-03,-8.243982680141925812e-03,-4.951989394612610340e-04,1.776389218866825104e-02,1.186349545605480671e-03,-1.356059499084949493e-02,1.200325600802898407e-02,2.175925113260746002e-02,1.719385758042335510e-02,-1.182713732123374939e-02,-3.834543004631996155e-02,4.537464119493961334e-03,-1.868748664855957031e-02,-3.744299337267875671e-02,-4.083851817995309830e-03,1.129754073917865753e-02,-6.160924211144447327e-03,1.233081892132759094e-02,-1.581009477376937866e-02,-4.367488902062177658e-03,1.679354906082153320e-02,1.107535231858491898e-02,-4.169514402747154236e-02,8.557418361306190491e-03,-2.800881303846836090e-02,-4.450068250298500061e-02,-1.095559541136026382e-02,2.085484005510807037e-02,1.075868494808673859e-02,-5.482221953570842743e-03,1.395637448877096176e-02,-2.015831694006919861e-02,3.526801243424415588e-03,3.037660848349332809e-03,-1.197836943902075291e-03,-1.942511089146137238e-02,3.937566280364990234e-02,7.442009169608354568e-03,-5.892627406865358353e-03,1.682393020018935204e-03,-5.739840213209390640e-03,-8.649140945635735989e-04,7.049324340187013149e-04,-3.044553566724061966e-03,-1.420221664011478424e-02,-8.663753396831452847e-04,-5.334910936653614044e-03,1.074826437979936600e-02,-9.829643182456493378e-03,-6.558371707797050476e-03,5.433110636658966541e-04,-2.039193641394376755e-03,-2.093719691038131714e-02,-1.111231651157140732e-02,8.331866003572940826e-03,-1.189744193106889725e-02,1.479454338550567627e-02,1.025296864099800587e-03,-1.358414441347122192e-02,1.519302022643387318e-03,-7.299179560504853725e-04,-7.636147085577249527e-03,-6.958640646189451218e-03,-1.961775589734315872e-03,-3.347461810335516930e-03,-2.072395943105220795e-02,-2.289347583428025246e-03,1.985664293169975281e-02,-3.946277312934398651e-03,4.757203627377748489e-03,-3.620960749685764313e-03,-8.695501834154129028e-03,-1.808555983006954193e-02,2.714883070439100266e-03,5.807813140563666821e-04,-2.448728075250983238e-03,-4.738825839012861252e-03,-5.788315320387482643e-04,-8.221844211220741272e-03,2.526093507185578346e-03,-1.678807660937309265e-02,-4.075933247804641724e-03,-1.392848137766122818e-02,-3.243583953008055687e-03,-2.821493893861770630e-02,-1.329670101404190063e-02,-5.943601718172430992e-04,-1.571917347609996796e-02,3.225316060706973076e-03,7.029197178781032562e-03,-2.343582920730113983e-02,-1.158443628810346127e-03,-1.068722267518751323e-04,-9.647510014474391937e-03,-9.085399098694324493e-03,-7.197877392172813416e-03,-4.332145676016807556e-03,-1.088945660740137100e-02,1.804701169021427631e-04,4.186233505606651306e-03,-5.110394675284624100e-03
2.456341311335563660e-02,5.628252867609262466e-03,-3.050138475373387337e-04,6.695282645523548126e-04,-7.900862954556941986e-03,3.205195767804980278e-03,1.384496572427451611e-03,-6.072747986763715744e-03,-1.143303001299500465e-03,-1.588895451277494431e-03,2.751329354941844940e-02,9.160790941677987576e-04,5.174517631530761719e-03,2.271736506372690201e-03,4.991194233298301697e-03,1.376758562400937080e-03,1.311214582528918982e-04,-1.245210412889719009e-02,-1.100400346331298351e-03,8.134694653563201427e-04,8.616371080279350281e-03,3.585326252505183220e-03,-7.292531896382570267e-03,2.555576618760824203e-03,1.886083628050982952e-03,-4.144147969782352448e-03,9.461675072088837624e-04,2.675008727237582207e-05,-1.364657306112349033e-03,9.663178585469722748e-03,5.533005110919475555e-03,-2.975071314722299576e-03,4.964707884937524796e-03,-1.714407233521342278e-03,1.014190446585416794e-02,8.842775598168373108e-03,-5.769631359726190567e-03,-9.200996719300746918e-03,-2.868909854441881180e-03,-1.257291063666343689e-02,-3.050346160307526588e-03,1.478269696235656738e-03,2.243614010512828827e-02,2.711590845137834549e-03,-8.041521534323692322e-03,6.646960508078336716e-03,6.129855290055274963e-03,2.191248582676053047e-03,-2.655860595405101776e-02,-2.460531657561659813e-03,-8.078630082309246063e-03,-1.058218348771333694e-02,4.041596781462430954e-03,-4.158403724431991577e-02,8.545425720512866974e-03,-3.859757259488105774e-02,-4.523224662989377975e-03,1.219683606177568436e-02,-1.957044564187526703e-02,-7.494528312236070633e-03,5.284100770950317383e-02,-8.869245066307485104e-04,1.165308174677193165e-03,-7.568384986370801926e-03,2.761539258062839508e-02,7.977903820574283600e-03,3.367110912222415209e-05,7.194197969511151314e-04,-7.149432785809040070e-03,1.934519270434975624e-03,2.431272529065608978e-03,-6.745566148310899734e-03,-1.402745372615754604e-03,-1.563787460327148438e-03,2.612502686679363251e-02,4.726153798401355743e-03,7.412282750010490417e-03,2.513823099434375763e-03,8.630487136542797089e-03,2.081295009702444077e-03,1.199087011627852917e-03,-1.003750413656234741e-02,-2.922047497122548521e-05,1.455884310416877270e-03,8.206143043935298920e-03,3.017908893525600433e-03,-7.321110460907220840e-03,5.077189300209283829e-03,3.579260548576712608e-03,-4.060264211148023605e-03,2.659227000549435616e-03,2.045131521299481392e-03,4.578856285661458969e-03,1.998683065176010132e-02,2.656944328919053078e-03,-3.132395911961793900e-03,3.148510307073593140e-02,1.236506644636392593e-02,7.759661530144512653e-04,8.051982149481773376e-04,-6.242305971682071686e-04,4.940896178595721722e-05,4.062823019921779633e-03,-9.904421865940093994e-03,-3.506693989038467407e-03,1.039863564074039459e-03,2.554530650377273560e-02,1.008188817650079727e-03,1.291822828352451324e-02,2.551924902945756912e-03,9.693625383079051971e-03,2.990311244502663612e-03,1.169335329905152321e-03,-4.400007426738739014e-03,3.845543833449482918e-04,2.759221708402037621e-03,1.407137326896190643e-02,9.309995220974087715e-04,-7.236239500343799591e-03,7.953846827149391174e-03,3.428838681429624557e-03,-4.034692887216806412e-03,3.088359022513031960e-03,1.087057590484619141e-02,-1.079121883958578110e-02,2.318085730075836182e-02,7.333984598517417908e-03,-8.339892374351620674e-04
2.738484553992748260e-02,-6.692216265946626663e-03,2.105272142216563225e-03,-3.174838796257972717e-02,-9.687117300927639008e-03,-6.243831664323806763e-02,7.472163531929254532e-03,-1.378976367413997650e-02,-1.164979580789804459e-02,-7.586270570755004883e-03,1.880497299134731293e-02,-3.456891863606870174e-04,1.712547801434993744e-02,1.360038481652736664e-02,1.172097492963075638e-02,-9.471880272030830383e-03,-5.193230696022510529e-03,-4.310289770364761353e-02,-1.313953753560781479e-02,-2.472668886184692383e-02,7.180567365139722824e-03,-5.035523697733879089e-02,-1.220005098730325699e-03,1.362952031195163727e-02,1.341722346842288971e-02,-1.914213597774505615e-02,-1.231836341321468353e-02,9.352842345833778381e-03,1.239593047648668289e-02,-2.013972215354442596e-02,5.863941740244626999e-03,-7.150480151176452637e-02,-5.283032730221748352e-02,6.963236257433891296e-03,-1.768662221729755402e-02,-1.303452625870704651e-02,4.042972624301910400e-02,5.843403562903404236e-02,-5.447933450341224670e-02,4.203625395894050598e-02,-5.415159463882446289e-02,-2.504178695380687714e-02,2.008511126041412354e-02,-8.478265255689620972e-03,3.983976319432258606e-02,-6.926169246435165405e-02,1.203203201293945312e-02,6.021393928676843643e-03,-1.804769039154052734e-02,-4.808089882135391235e-02,1.589524559676647186e-02,-1.950082555413246155e-02,4.747194051742553711e-02,-7.398962229490280151e-02,1.477974187582731247e-02,-3.239836916327476501e-02,-5.711260251700878143e-03,-7.628211379051208496e-02,1.072853058576583862e-02,-1.282639950513839722e-01,-1.057130396366119385e-01,-7.090908288955688477e-02,-1.101317182183265686e-01,5.694352835416793823e-02,3.195191174745559692e-02,6.264536641538143158e-03,3.916756715625524521e-03,-4.101923480629920959e-02,5.727539304643869400e-03,-3.694940730929374695e-02,1.437051221728324890e-02,1.766146859154105186e-03,-1.282974984496831894e-02,-3.987966105341911316e-03,4.046462476253509521e-02,6.925620138645172119e-03,3.912430629134178162e-02,4.770732671022415161e-02,5.640590190887451172e-02,-8.121746592223644257e-03,-8.765771053731441498e-03,-2.385561726987361908e-02,-2.271860092878341675e-02,-2.113406546413898468e-02,-8.661870379000902176e-04,-6.653530895709991455e-02,5.757230101153254509e-04,1.417272910475730896e-02,1.127941627055406570e-02,-1.990722492337226868e-02,-2.223296836018562317e-02,4.024857655167579651e-02,2.337257750332355499e-02,-2.592498436570167542e-02,-1.415100693702697754e-02,-2.221115864813327789e-02,5.601744353771209717e-02,3.054155036807060242e-02,7.605437189340591431e-03,-1.897958479821681976e-02,1.472198776900768280e-02,-3.323922678828239441e-02,3.327137231826782227e-02,-1.272842986509203911e-03,-3.644420951604843140e-02,-4.468596540391445160e-03,2.332886680960655212e-02,-3.113507293164730072e-02,4.217297956347465515e-02,3.438183292746543884e-02,2.185693383216857910e-02,-1.802422478795051575e-02,-2.007664553821086884e-02,-6.289113778620958328e-03,-3.182477876543998718e-02,-2.367883920669555664e-02,3.433035686612129211e-02,-3.641222789883613586e-02,1.084999646991491318e-02,4.774421826004981995e-02,-4.418519325554370880e-03,-1.618809998035430908e-02,2.385948598384857178e-02,1.758945360779762268e-02,-2.261517103761434555e-03,-2.281752601265907288e-02,9.165517054498195648e-03,-5.351309478282928467e-02
2.554347179830074310e-02,2.619225718080997467e-02,-3.192275762557983398e-02,4.835111647844314575e-02,-8.727995678782463074e-03,-3.019793517887592316e-02,1.693929918110370636e-02,4.591695219278335571e-02,-1.104425825178623199e-02,5.533482180908322334e-05,2.091287821531295776e-02,1.204720139503479004e-02,4.108215123414993286e-02,8.337600156664848328e-03,-6.643850356340408325e-04,3.004237636923789978e-02,2.792378701269626617e-02,-3.512262180447578430e-02,3.888015076518058777e-02,-1.440393924713134766e-02,-7.017001044005155563e-03,5.260709300637245178e-02,-2.561052888631820679e-02,-1.572615094482898712e-02,1.422634068876504898e-02,5.908886715769767761e-02,1.217878609895706177e-02,-5.151668563485145569e-03,2.019351162016391754e-02,5.108741298317909241e-02,-5.852380767464637756e-02,2.291963808238506317e-02,9.049839526414871216e-02,5.279037868604063988e-04,-7.571585476398468018e-02,1.518512517213821411e-02,-3.996330872178077698e-02,4.251158609986305237e-02,2.636851370334625244e-02,1.446970272809267044e-03,6.814430654048919678e-02,4.161924868822097778e-02,-6.451095640659332275e-02,2.561448141932487488e-03,-2.955649793148040771e-02,2.117935195565223694e-02,5.473541468381881714e-02,-3.074662014842033386e-02,-3.814370930194854736e-02,5.961482226848602295e-02,-2.974888496100902557e-02,5.462273955345153809e-02,5.392100289463996887e-02,-5.600074771791696548e-03,-7.780953496694564819e-02,-6.509419996291399002e-03,-1.539127714931964874e-02,-8.001543581485748291e-02,-2.347068674862384796e-02,-4.192541167140007019e-02,1.090986952185630798e-01,4.769929498434066772e-02,8.956635743379592896e-02,8.404856175184249878e-02,2.085118368268013000e-02,4.222375899553298950e-02,-2.156004868447780609e-02,6.285499781370162964e-02,-5.148886702954769135e-03,4.644208028912544250e-02,2.689323760569095612e-02,7.185377180576324463e-02,-6.320111453533172607e-03,2.757821930572390556e-03,2.099326439201831818e-02,-9.625753387808799744e-03,4.818121343851089478e-02,1.180122699588537216e-02,2.419875934720039368e-03,5.419013276696205139e-02,4.419464617967605591e-02,-1.127775199711322784e-02,5.956692621111869812e-02,-1.025093905627727509e-02,-6.816257257014513016e-03,9.198834002017974854e-02,-1.255285926163196564e-02,-4.289774224162101746e-02,3.245012462139129639e-02,7.346159219741821289e-02,9.192922152578830719e-03,-1.450825296342372894e-02,3.459113836288452148e-02,7.652660459280014038e-02,-5.518050491809844971e-02,7.199613004922866821e-02,3.447515144944190979e-02,3.270835801959037781e-02,2.129239402711391449e-02,7.619842886924743652e-02,-1.245897379703819752e-03,8.270319551229476929e-03,2.570892870426177979e-02,5.561086162924766541e-02,2.875684294849634171e-03,2.157711051404476166e-02,5.153220891952514648e-02,3.297297284007072449e-02,5.203831568360328674e-02,5.996334925293922424e-02,1.919624395668506622e-03,4.554193839430809021e-02,5.667039006948471069e-02,1.060836948454380035e-02,8.568079024553298950e-02,1.607942953705787659e-02,-1.505764946341514587e-02,9.732542932033538818e-02,4.022320732474327087e-03,-1.038036774843931198e-02,5.445538088679313660e-02,7.159630954265594482e-02,1.983917504549026489e-02,5.409395322203636169e-03,6.483033299446105957e-02,1.003689244389533997e-01,-1.671202480792999268e-02,5.928757786750793457e-02
-5.956791341304779053e-02,-4.027211666107177734e-02,-1.838065870106220245e-02,-3.414458408951759338e-02,-2.973872423171997070e-02,-9.711636230349540710e-03,-4.825890064239501953e-02,-4.458804056048393250e-02,-1.759383268654346466e-02,-3.875352069735527039e-02,-4.047935828566551208e-02,-3.453274443745613098e-02,-5.069312080740928650e-02,-5.271157249808311462e-02,-4.872677102684974670e-02,-6.231447681784629822e-02,-2.981027588248252869e-02,4.245314747095108032e-02,-2.729712612926959991e-02,1.177606359124183655e-02,-4.340992122888565063e-02,-3.797129914164543152e-02,-2.208151482045650482e-02,-5.352567881345748901e-02,-4.048331454396247864e-02,-2.611797489225864410e-02,-3.189788758754730225e-02,-6.728097796440124512e-02,-6.666865944862365723e-02,-9.846328757703304291e-03,-9.628708474338054657e-03,2.788305748254060745e-03,1.133688446134328842e-02,8.060381561517715454e-02,-1.005785763263702393e-01,-9.208311326801776886e-03,5.036971718072891235e-02,3.974008187651634216e-02,8.949033170938491821e-02,3.795946389436721802e-02,-2.649196237325668335e-02,-5.106222257018089294e-02,-9.929517656564712524e-02,1.097517181187868118e-02,2.766601368784904480e-02,1.071892604231834412e-01,-2.387297153472900391e-02,9.974759817123413086e-02,-5.967399850487709045e-02,5.147803947329521179e-02,-7.898009568452835083e-02,7.217434793710708618e-02,-2.564053982496261597e-02,1.015256270766258240e-01,-6.126811727881431580e-02,6.983236968517303467e-02,-5.582523345947265625e-02,-4.403966292738914490e-02,-1.151446369476616383e-03,5.470854789018630981e-02,1.078620925545692444e-02,-2.029511844739317894e-03,-2.454349957406520844e-02,-9.602906182408332825e-03,-1.020123139023780823e-01,-1.007435619831085205e-01,-2.980439923703670502e-02,-8.276234567165374756e-02,-7.668142020702362061e-02,-7.701079547405242920e-02,-1.004552245140075684e-01,-1.221981495618820190e-01,-3.761585429310798645e-02,-6.350439041852951050e-02,-6.778196990489959717e-02,-8.725930750370025635e-02,-1.027559936046600342e-01,-1.016970723867416382e-01,-1.128009185194969177e-01,-1.000883579254150391e-01,-5.571954697370529175e-02,-2.455180883407592773e-02,-4.959637299180030823e-02,-6.108072120696306229e-03,-9.011217206716537476e-02,-1.218451336026191711e-01,-6.165534257888793945e-02,-1.033105701208114624e-01,-6.180879101157188416e-02,-5.966799706220626831e-02,-1.031498908996582031e-01,-8.268299698829650879e-02,-1.596451252698898315e-01,-4.583184421062469482e-02,-6.795112788677215576e-02,-3.586971759796142578e-02,-1.766724884510040283e-01,-1.761654764413833618e-01,-8.567402511835098267e-02,-9.579755365848541260e-02,-1.588218957185745239e-01,-9.184669703245162964e-02,-1.595904082059860229e-01,-1.664485931396484375e-01,-5.594309046864509583e-02,-1.130860149860382080e-01,-1.830124258995056152e-01,-4.308123141527175903e-02,-1.664416790008544922e-01,-1.569203883409500122e-01,-1.372280269861221313e-01,-1.721901893615722656e-01,-6.580161303281784058e-02,-9.780343621969223022e-02,-7.334928959608078003e-02,-4.710974916815757751e-02,-1.233443617820739746e-01,-1.144597306847572327e-01,-1.094773337244987488e-01,-1.380629241466522217e-01,-1.126579716801643372e-01,-8.618553727865219116e-02,-1.298456639051437378e-01,-1.460810303688049316e-01,-1.559062451124191284e-01,-7.503277808427810669e-02,-1.380219906568527222e-01,-6.879542768001556396e-02
-4.168559983372688293e-02,-1.103451848030090332e-02,-1.260448480024933815e-04,-9.039992466568946838e-03,1.700790412724018097e-02,8.534081280231475830e-03,-1.861534081399440765e-02,-1.172376703470945358e-02,1.102608907967805862e-02,-7.565999403595924377e-03,-3.628967702388763428e-02,-1.611807756125926971e-02,-2.645054832100868225e-02,-1.637000218033790588e-02,-1.941487938165664673e-02,-3.311151638627052307e-02,-1.761998049914836884e-02,3.630416840314865112e-02,-1.484261639416217804e-02,1.378674339503049850e-02,-1.465755514800548553e-02,-3.325738012790679932e-02,1.071288343518972397e-02,-1.136062480509281158e-02,-1.881438679993152618e-02,-4.270483739674091339e-03,-4.932247567921876907e-03,-1.145149208605289459e-02,-2.434252761304378510e-02,-2.047096006572246552e-02,1.873821951448917389e-02,1.567884162068367004e-02,-5.569640547037124634e-02,5.017293244600296021e-02,2.213683724403381348e-02,-9.943882003426551819e-03,-1.127323787659406662e-02,-2.212461084127426147e-02,-1.310959924012422562e-02,5.409558303654193878e-03,-5.019192770123481750e-02,-7.634882815182209015e-03,-6.978943012654781342e-03,-3.035391867160797119e-02,2.920411899685859680e-02,6.529771257191896439e-03,-1.868542842566967010e-02,9.082617610692977905e-02,-3.680747468024492264e-03,-5.301813408732414246e-02,1.157987304031848907e-02,-1.452843938022851944e-02,-4.602963477373123169e-02,-4.301275685429573059e-02,-1.647720858454704285e-02,2.107308432459831238e-02,-2.696810476481914520e-02,5.487763322889804840e-03,-5.076288804411888123e-02,-7.901108264923095703e-02,-4.393793176859617233e-03,-1.212915312498807907e-02,-1.293860226869583130e-01,-4.530049860477447510e-02,-5.455785617232322693e-02,-3.080948628485202789e-02,-7.985600270330905914e-03,-2.293034270405769348e-02,-4.124134313315153122e-03,-1.325955800712108612e-02,-4.031037911772727966e-02,-4.711898416280746460e-02,1.133617665618658066e-02,-1.513858605176210403e-02,-3.839697316288948059e-02,-4.242576286196708679e-02,-4.978756234049797058e-02,-3.007776662707328796e-02,-4.922236874699592590e-02,-4.490809142589569092e-02,-3.229321539402008057e-02,8.746181614696979523e-03,-2.704925462603569031e-02,1.120591629296541214e-02,-2.402031049132347107e-02,-5.709306895732879639e-02,-2.722876612097024918e-03,-2.874353714287281036e-02,-3.502400219440460205e-02,-2.029955573379993439e-02,-2.311654761433601379e-02,-2.061044424772262573e-02,-6.962291151285171509e-02,-5.392296984791755676e-02,7.564018480479717255e-03,-8.648568764328956604e-03,-8.471801131963729858e-02,-5.434694141149520874e-02,-4.002803936600685120e-02,-4.696878790855407715e-02,-2.781876921653747559e-02,-1.377581246197223663e-02,-5.444629490375518799e-02,-4.237706586718559265e-02,7.856608368456363678e-03,-4.037450253963470459e-02,-7.368899881839752197e-02,-2.334694191813468933e-02,-6.795269995927810669e-02,-5.936644226312637329e-02,-3.610477596521377563e-02,-6.855528056621551514e-02,-4.141395911574363708e-02,-1.979658938944339752e-02,-4.180137440562248230e-02,-1.425059232860803604e-02,-3.693752363324165344e-02,-6.381635367870330811e-02,-2.110283635556697845e-02,-3.809980303049087524e-02,-5.163929238915443420e-02,-3.188777342438697815e-02,-4.200610518455505371e-02,-3.808448836207389832e-02,-3.705917298793792725e-02,-6.115690246224403381e-02,-3.459889814257621765e-02,-2.197703719139099121e-02
-1.659495569765567780e-02,-1.782050170004367828e-02,2.737406641244888306e-02,1.204055640846490860e-02,-4.546117782592773438e-02,2.279533445835113525e-02,-1.078007742762565613e-02,2.514865435659885406e-02,-7.365660276263952255e-03,-3.160749003291130066e-02,-6.689275801181793213e-02,2.137875556945800781e-02,5.794635042548179626e-03,1.473340485244989395e-02,-2.059537451714277267e-03,-2.683232165873050690e-02,2.321305498480796814e-02,1.876001209020614624e-01,-9.552545845508575439e-03,1.099284365773200989e-01,4.035959485918283463e-03,-1.414115913212299347e-02,7.187961041927337646e-02,-1.341261900961399078e-02,1.881492882966995239e-02,-2.486612647771835327e-02,3.130664676427841187e-02,-6.783376913517713547e-03,-4.203656315803527832e-02,-2.780117094516754150e-02,5.164655297994613647e-02,6.272488087415695190e-02,6.353458017110824585e-02,-3.471551090478897095e-02,5.356917157769203186e-03,-7.960944436490535736e-03,9.697043150663375854e-02,-9.241461008787155151e-02,5.152736604213714600e-02,1.449696347117424011e-02,8.592087775468826294e-03,-1.497910940088331699e-03,-8.526347577571868896e-02,-3.283763825893402100e-01,5.772371776401996613e-03,-2.603494524955749512e-01,-7.036999613046646118e-02,-7.758181542158126831e-03,-1.799490489065647125e-02,-2.267906628549098969e-02,4.596207756549119949e-03,-1.585375890135765076e-02,-7.242756336927413940e-02,7.559510320425033569e-02,3.002042882144451141e-02,-1.369646042585372925e-01,3.238557651638984680e-02,8.766624331474304199e-02,1.112400069832801819e-01,1.636234521865844727e-01,-1.142313852906227112e-01,1.103517040610313416e-01,1.998882740736007690e-02,5.947042629122734070e-02,-1.168724615126848221e-02,-1.316500082612037659e-02,3.321093320846557617e-02,4.623587429523468018e-02,-6.741131097078323364e-02,8.548450656235218048e-03,3.510772250592708588e-03,3.768535703420639038e-02,-1.912908814847469330e-02,-5.094698071479797363e-02,-3.474335744976997375e-02,7.047586143016815186e-03,7.149634417146444321e-03,5.328045692294836044e-03,2.086674235761165619e-02,-6.105536222457885742e-02,3.545457869768142700e-02,1.612995415925979614e-01,-1.493479590862989426e-03,1.040236577391624451e-01,1.425103936344385147e-02,7.696806639432907104e-02,8.265054970979690552e-02,-4.742711037397384644e-02,2.682038210332393646e-02,-2.342811599373817444e-02,4.820795357227325439e-02,-7.292392849922180176e-02,-2.433910034596920013e-03,-7.752059493213891983e-03,7.492591440677642822e-02,9.275528788566589355e-02,2.195298857986927032e-02,-1.317355432547628880e-03,4.912421852350234985e-02,-3.075157850980758667e-02,2.491592615842819214e-02,1.107265357859432697e-03,6.602450739592313766e-03,1.189055517315864563e-01,4.874864965677261353e-02,1.371299847960472107e-02,5.047161597758531570e-03,-2.179148606956005096e-02,1.909125782549381256e-02,1.757023856043815613e-02,2.043726481497287750e-02,-5.770986899733543396e-02,3.643079474568367004e-02,9.587962925434112549e-02,1.715570129454135895e-02,8.426268398761749268e-02,2.910983189940452576e-02,2.000227011740207672e-02,8.882272243499755859e-02,-1.555781625211238861e-02,5.681443586945533752e-02,1.057755202054977417e-02,1.673537492752075195e-02,-4.712623544037342072e-03,-1.057419867720454931e-04,-2.935280092060565948e-02,6.868334114551544189e-02,8.939375728368759155e-02
4.408203810453414917e-02,4.271779325790703297e-04,1.655373349785804749e-02,-1.186115946620702744e-02,-1.102795917540788651e-02,-2.723197452723979950e-03,6.975073833018541336e-03,-7.440325804054737091e-03,-6.094496697187423706e-03,-9.036520496010780334e-03,4.561548680067062378e-02,-2.271857578307390213e-03,3.751014359295368195e-03,4.949466325342655182e-03,3.963616327382624149e-04,-1.964335516095161438e-02,-1.058574579656124115e-02,-2.041482366621494293e-04,-1.192174386233091354e-02,8.404837921261787415e-03,1.890086196362972260e-02,-2.236838452517986298e-02,-1.074943866115063429e-04,1.841946039348840714e-03,3.796805860474705696e-03,-1.641397364437580109e-02,-6.069702096283435822e-03,-5.826217238791286945e-04,-1.355475187301635742e-02,-4.180885851383209229e-03,4.906748980283737183e-02,-1.998330466449260712e-02,1.973870024085044861e-02,1.322578825056552887e-02,6.327649950981140137e-02,1.165942475199699402e-02,-1.511824689805507660e-02,1.605297438800334930e-02,-1.628864184021949768e-02,-5.530519410967826843e-02,-7.211623340845108032e-02,-1.603205502033233643e-02,2.155156806111335754e-02,-1.179804280400276184e-02,8.072975091636180878e-03,-5.486337468028068542e-02,7.529975380748510361e-03,4.395833238959312439e-02,3.921759873628616333e-02,-6.990651041269302368e-02,3.821009770035743713e-02,-6.157465279102325439e-02,-1.065560616552829742e-03,-2.463077753782272339e-02,7.593630254268646240e-02,-4.306016489863395691e-02,-4.079605452716350555e-03,2.612114697694778442e-02,-1.019873088807798922e-04,1.218961086124181747e-02,-4.163240641355514526e-02,-1.818981952965259552e-02,-2.524419687688350677e-02,-8.919800631701946259e-03,7.182203233242034912e-02,1.230209693312644958e-02,2.858472615480422974e-02,-2.113498374819755554e-02,-9.753907099366188049e-03,1.503877900540828705e-02,1.950707100331783295e-02,-1.833629235625267029e-02,-1.138946600258350372e-02,-1.568395458161830902e-02,6.945200264453887939e-02,8.935460820794105530e-03,1.232790201902389526e-02,1.794906891882419586e-02,1.885560341179370880e-02,-3.606361150741577148e-02,-1.929437369108200073e-02,5.641369149088859558e-03,-2.690807916224002838e-02,3.253760561347007751e-02,2.964621409773826599e-02,-1.908505335450172424e-02,1.339894719421863556e-03,8.116823621094226837e-03,4.870534408837556839e-03,-1.859191432595252991e-02,-6.258700159378349781e-04,-1.036310289055109024e-02,-2.218482643365859985e-02,5.521023645997047424e-03,6.809257715940475464e-02,-1.923089660704135895e-02,6.519988179206848145e-02,2.583143115043640137e-02,8.156687952578067780e-03,-5.437469109892845154e-02,2.405171468853950500e-02,7.281383965164422989e-03,1.940750330686569214e-02,-2.540153451263904572e-03,-7.941704243421554565e-03,-5.172943230718374252e-03,5.034385249018669128e-02,-3.130673989653587341e-02,2.953947335481643677e-02,-1.503453403711318970e-02,-1.035098684951663017e-04,-4.128297790884971619e-02,-2.318325825035572052e-02,-3.040957497432827950e-03,-3.618614003062248230e-02,1.251902338117361069e-02,5.365541577339172363e-02,-5.353006348013877869e-02,1.459757797420024872e-03,2.152085304260253906e-02,4.720502533018589020e-03,-2.619436010718345642e-02,-1.523261331021785736e-02,4.427242558449506760e-03,-3.004010021686553955e-02,6.749080494046211243e-03,4.302985221147537231e-02,-1.624356023967266083e-02
4.225245863199234009e-02,5.064870417118072510e-02,-2.167778834700584412e-02,1.558566000312566757e-02,-2.161413803696632385e-02,-1.612314581871032715e-02,3.846492851153016090e-03,8.964508771896362305e-03,1.226144190877676010e-02,1.558761950582265854e-02,5.133929103612899780e-02,2.189296856522560120e-02,3.243146836757659912e-02,1.175161451101303101e-02,3.391014039516448975e-02,6.045426800847053528e-02,1.117378380149602890e-02,-7.014471292495727539e-02,2.598930522799491882e-02,-2.301829494535923004e-02,1.898205839097499847e-03,-8.030960336327552795e-03,-3.423777967691421509e-02,-3.941352013498544693e-03,-2.840284723788499832e-04,-5.317380186170339584e-03,9.526343084871768951e-03,2.141689322888851166e-02,3.484464436769485474e-02,6.650467216968536377e-02,-4.185117036104202271e-02,-1.616058126091957092e-02,-1.286898646503686905e-02,-9.838879341259598732e-04,-7.628051936626434326e-02,1.470018476247787476e-01,8.723389357328414917e-03,1.229160875082015991e-01,-8.388705551624298096e-02,1.491581201553344727e-01,5.523468181490898132e-02,9.144804626703262329e-02,2.203845418989658356e-02,1.513989549130201340e-02,3.526202961802482605e-02,-2.722119353711605072e-02,7.686787843704223633e-02,-1.125945597887039185e-01,-5.524545162916183472e-02,1.241363286972045898e-01,-8.289201557636260986e-02,8.738253382034599781e-05,-4.670788720250129700e-02,-3.246647119522094727e-01,7.873842120170593262e-02,-1.742136105895042419e-02,5.588700622320175171e-02,-5.191634222865104675e-02,-1.595392674207687378e-01,1.060378253459930420e-01,-1.203285679221153259e-01,3.778953850269317627e-02,2.564229965209960938e-01,1.845746040344238281e-01,5.417334288358688354e-02,6.487558037042617798e-02,-1.086892746388912201e-02,3.083677031099796295e-02,-2.639269223436713219e-04,5.033535882830619812e-02,1.620986312627792358e-02,3.887892886996269226e-02,2.348072826862335205e-02,2.464337833225727081e-02,3.596984222531318665e-02,3.486259654164314270e-02,4.565769806504249573e-02,1.003156974911689758e-02,2.052546478807926178e-02,8.850391954183578491e-02,2.370476350188255310e-02,-2.799992263317108154e-02,4.115461558103561401e-02,-1.024062559008598328e-02,8.145532570779323578e-03,3.629820793867111206e-02,-1.390874292701482773e-02,-2.176428586244583130e-02,1.209600921720266342e-02,4.744884790852665901e-04,1.214217208325862885e-02,1.401056814938783646e-02,4.502110183238983154e-02,9.233499318361282349e-02,-1.823322847485542297e-02,2.081832662224769592e-02,8.521573245525360107e-02,7.262155413627624512e-02,3.642658516764640808e-02,7.033114880323410034e-02,-4.303925856947898865e-02,9.759911336004734039e-03,6.955821532756090164e-03,-2.152903378009796143e-02,7.743113674223423004e-03,1.845834963023662567e-02,8.622631430625915527e-02,6.923012435436248779e-02,1.572395861148834229e-02,8.255553990602493286e-02,4.898630455136299133e-02,6.302186846733093262e-02,2.695448324084281921e-02,3.860032185912132263e-02,5.725994706153869629e-02,4.004630446434020996e-02,4.840156063437461853e-03,7.494428753852844238e-02,1.490877009928226471e-02,1.847641170024871826e-02,6.491309963166713715e-03,-7.707093376666307449e-03,2.882399223744869232e-02,7.861489057540893555e-02,-7.157171610742807388e-03,1.298903971910476685e-01,3.448215872049331665e-02,2.057459764182567596e-02
-3.909228742122650146e-02,-5.160015448927879333e-02,3.671739995479583740e-02,-3.418156132102012634e-02,-2.678647823631763458e-02,-2.410081215202808380e-02,1.136305462568998337e-02,3.839096426963806152e-02,-2.821762487292289734e-02,-7.233906537294387817e-02,-6.685220450162887573e-02,-6.499004550278186798e-03,-2.465161122381687164e-02,2.592475153505802155e-02,-2.683136239647865295e-02,-6.517394632101058960e-02,-2.894836012274026871e-03,1.378768980503082275e-01,-3.857297450304031372e-02,7.268851995468139648e-02,4.738735966384410858e-03,-2.844139933586120605e-03,9.179809689521789551e-02,-3.034269064664840698e-02,3.683736920356750488e-02,-1.568719185888767242e-02,-9.477348066866397858e-03,-3.464589267969131470e-02,-5.202693119645118713e-02,-8.378938585519790649e-02,5.421855673193931580e-02,1.226233690977096558e-02,-2.591519989073276520e-02,1.104620993137359619e-01,7.744757086038589478e-02,-9.604122489690780640e-03,1.032491773366928101e-01,3.312631323933601379e-02,-6.036179885268211365e-02,2.823323570191860199e-02,-5.159332230687141418e-02,-2.883655764162540436e-02,1.101893559098243713e-01,-2.594066858291625977e-01,8.794300258159637451e-03,-4.889554977416992188e-01,9.732550010085105896e-03,8.002017438411712646e-02,8.230819366872310638e-03,-6.286196876317262650e-03,6.787070631980895996e-02,-7.466533780097961426e-02,2.769883163273334503e-02,-8.313925564289093018e-02,7.236047834157943726e-02,-4.434851929545402527e-02,2.416018955409526825e-02,1.174546629190444946e-01,-5.135121289640665054e-03,-2.751762978732585907e-02,-1.976373344659805298e-01,-5.096263252198696136e-03,3.489656746387481689e-02,9.650404751300811768e-02,-3.414917737245559692e-02,-4.783226177096366882e-02,3.486625850200653076e-02,-3.481212258338928223e-02,-1.203257963061332703e-02,-1.661483943462371826e-02,2.507997490465641022e-02,3.079604543745517731e-02,-4.176659137010574341e-02,-9.161101281642913818e-02,-4.416231811046600342e-02,-2.732066996395587921e-02,-1.910729520022869110e-02,3.039576113224029541e-02,1.157517195679247379e-03,-7.776914536952972412e-02,-1.527142710983753204e-02,1.030195578932762146e-01,-5.639356374740600586e-02,6.509130448102951050e-02,9.493445046246051788e-03,-9.295914322137832642e-03,9.886501729488372803e-02,-2.532331086695194244e-02,2.993451617658138275e-02,-2.589484490454196930e-02,-8.891450241208076477e-03,-4.213521257042884827e-02,-2.891916781663894653e-02,-9.250734001398086548e-02,3.847956657409667969e-02,1.313266810029745102e-02,-5.438260734081268311e-02,-6.250578910112380981e-02,-1.951478421688079834e-03,-1.207204237580299377e-01,1.005199551582336426e-01,-2.292623184621334076e-02,3.336482867598533630e-02,1.154412850737571716e-01,-2.341070771217346191e-02,-1.837592013180255890e-02,-8.600839227437973022e-02,-1.587087810039520264e-01,2.932727895677089691e-02,-4.820793494582176208e-02,-8.195182681083679199e-02,-1.386482268571853638e-01,-3.852633759379386902e-02,7.825909182429313660e-03,-7.218258082866668701e-02,3.626655787229537964e-02,2.749523520469665527e-02,-6.218357756733894348e-02,9.208002686500549316e-02,-5.279113724827766418e-02,4.072870686650276184e-02,7.407954428344964981e-03,-4.117470234632492065e-02,-1.161596253514289856e-01,-1.236318238079547882e-02,-1.418872028589248657e-01,2.573075890541076660e-02,2.912618219852447510e-04
8.954782783985137939e-02,4.845914617180824280e-02,2.859336324036121368e-02,3.310319781303405762e-02,2.519084513187408447e-02,1.070867944508790970e-02,4.648375883698463440e-02,4.484092816710472107e-02,1.430760603398084641e-02,4.066376760601997375e-02,8.039662986993789673e-02,3.957600146532058716e-02,6.081450730562210083e-02,5.680027976632118225e-02,5.646263435482978821e-02,7.228415459394454956e-02,3.636662662029266357e-02,-4.845534637570381165e-02,3.193440288305282593e-02,-6.966502871364355087e-03,4.653349518775939941e-02,4.290634766221046448e-02,1.334238797426223755e-02,5.386583879590034485e-02,5.133998766541481018e-02,2.799326367676258087e-02,3.143610432744026184e-02,6.317607313394546509e-02,6.530825048685073853e-02,4.118958860635757446e-02,1.144006662070751190e-02,2.142816781997680664e-03,9.486237168312072754e-02,-1.514750123023986816e-01,-8.140299469232559204e-03,1.081452220678329468e-01,-4.454411938786506653e-02,2.249390259385108948e-02,-1.343703176826238632e-02,3.234487771987915039e-02,5.745782703161239624e-02,1.783189363777637482e-03,7.201118767261505127e-02,8.735499531030654907e-02,6.337215751409530640e-02,-1.326210945844650269e-01,4.139733687043190002e-02,-4.225168749690055847e-02,-3.146267309784889221e-02,3.240100666880607605e-02,4.421368613839149475e-02,-1.075864303857088089e-02,3.699231147766113281e-02,-5.861734971404075623e-02,7.897320389747619629e-02,2.371872030198574066e-02,-9.720076806843280792e-03,-7.782494276762008667e-02,-8.491678535938262939e-02,1.326211243867874146e-01,1.560647338628768921e-01,5.203070864081382751e-02,5.608097184449434280e-03,1.319371908903121948e-01,1.384229063987731934e-01,1.123142987489700317e-01,5.578709393739700317e-02,7.339319586753845215e-02,7.163787633180618286e-02,7.104828208684921265e-02,9.795372188091278076e-02,1.329102963209152222e-01,3.756429627537727356e-02,7.227130979299545288e-02,1.151191443204879761e-01,9.779621660709381104e-02,1.147750914096832275e-01,1.105422675609588623e-01,1.224138587713241577e-01,1.118075698614120483e-01,7.414118200540542603e-02,2.813877351582050323e-02,5.786118283867835999e-02,1.886792853474617004e-02,7.961451262235641479e-02,1.230403929948806763e-01,5.796176940202713013e-02,8.271191269159317017e-02,9.342556446790695190e-02,6.594444811344146729e-02,9.055697172880172729e-02,8.300413936376571655e-02,1.559293866157531738e-01,9.447525441646575928e-02,8.050156384706497192e-02,6.408876180648803711e-02,2.330778390169143677e-01,1.812730580568313599e-01,9.655117243528366089e-02,1.230533346533775330e-01,1.463464200496673584e-01,8.702746033668518066e-02,1.602579504251480103e-01,1.811792254447937012e-01,5.625889822840690613e-02,1.268325746059417725e-01,2.339413464069366455e-01,7.510288804769515991e-02,1.780632138252258301e-01,1.683340072631835938e-01,1.473098546266555786e-01,1.903664916753768921e-01,1.177713498473167419e-01,1.189048141241073608e-01,1.117266267538070679e-01,7.552523910999298096e-02,1.208304315805435181e-01,1.343196183443069458e-01,1.164900660514831543e-01,1.195116415619850159e-01,1.454506069421768188e-01,1.139941215515136719e-01,1.326657086610794067e-01,1.373193114995956421e-01,1.430654376745223999e-01,1.313335746526718140e-01,1.612738072872161865e-01,1.056441739201545715e-01
-7.063601166009902954e-03,-7.664457429200410843e-03,-1.220384892076253891e-02,-9.079252369701862335e-03,-6.445545703172683716e-03,-9.667468257248401642e-03,-3.461517021059989929e-02,5.236120428889989853e-03,-5.694425664842128754e-03,-1.377933751791715622e-02,1.968913339078426361e-02,-4.274131264537572861e-03,-9.731342084705829620e-03,-1.843617111444473267e-02,-1.936763711273670197e-02,-2.259538508951663971e-02,7.058096118271350861e-03,-4.562452435493469238e-03,7.739792112261056900e-03,1.291463384404778481e-03,-3.436461091041564941e-02,-1.011152099817991257e-02,-1.625654660165309906e-02,-2.990877814590930939e-02,-7.953777909278869629e-03,-3.752937773242592812e-03,-1.709518395364284515e-02,-3.586000204086303711e-02,-2.795788832008838654e-02,5.951533839106559753e-02,-5.261353775858879089e-02,1.202664058655500412e-02,1.068633422255516052e-01,9.166011214256286621e-02,-8.608139306306838989e-02,5.684387683868408203e-02,7.255053520202636719e-02,-2.634517289698123932e-02,-5.119238421320915222e-02,4.482802003622055054e-02,6.215123459696769714e-02,3.338648006319999695e-02,-1.792741417884826660e-01,4.129830747842788696e-02,2.827213145792484283e-02,-3.345622122287750244e-02,-1.290725823491811752e-02,-5.937496945261955261e-02,-3.088223934173583984e-02,1.317394226789474487e-01,-5.689602717757225037e-02,1.374634653329849243e-01,-1.014015153050422668e-01,-3.822985291481018066e-02,3.435599431395530701e-02,-8.857823908329010010e-02,3.382887691259384155e-02,4.090094938874244690e-02,-2.282927371561527252e-02,-1.508274115622043610e-02,-2.335875295102596283e-02,5.765393376350402832e-02,1.246704384684562683e-01,-3.503781184554100037e-02,-2.397440932691097260e-02,-3.168369457125663757e-02,-6.915342994034290314e-03,-3.125037625432014465e-02,-3.633997961878776550e-02,-3.601903840899467468e-02,-6.420270353555679321e-02,-2.703247964382171631e-02,-6.644271314144134521e-03,-2.602221444249153137e-02,3.143928712233901024e-03,-2.529051899909973145e-02,-3.845842182636260986e-02,-3.804665058851242065e-02,-5.587335675954818726e-02,-3.497442975640296936e-02,4.433867055922746658e-03,-1.162622496485710144e-02,7.940610870718955994e-03,3.603087039664387703e-03,-5.443643033504486084e-02,-4.962409660220146179e-02,-3.001270443201065063e-02,-5.409207195043563843e-02,-1.491054520010948181e-02,-1.863621175289154053e-02,-4.738400503993034363e-02,-4.543047025799751282e-02,-8.661671727895736694e-02,8.372564613819122314e-02,-5.585318431258201599e-02,-9.200595319271087646e-03,-5.284879729151725769e-02,-6.454812735319137573e-02,-1.636658050119876862e-02,-3.368221968412399292e-02,-8.493256568908691406e-02,-5.043675005435943604e-02,-9.206844121217727661e-02,-5.975323915481567383e-02,-1.554373186081647873e-02,-5.797181278467178345e-02,-3.179666772484779358e-02,2.205928787589073181e-02,-6.532496958971023560e-02,-4.518205299973487854e-02,-6.072153151035308838e-02,-6.562662869691848755e-02,-2.263002796098589897e-03,-2.292976342141628265e-02,2.874186960980296135e-03,9.069608524441719055e-03,-9.047732502222061157e-02,-1.789539493620395660e-02,-4.494768008589744568e-02,-8.679548650979995728e-02,-2.571259066462516785e-02,-3.392284736037254333e-02,-8.321548253297805786e-02,-7.907447963953018188e-02,-7.505860179662704468e-02,8.215003460645675659e-02,-5.949912965297698975e-02,-7.031813263893127441e-03
3.716740384697914124e-02,1.915641874074935913e-02,-1.762722618877887726e-02,-3.309465711936354637e-03,1.941449753940105438e-02,2.593837492167949677e-02,8.351221680641174316e-03,1.787305460311472416e-03,1.288862805813550949e-02,2.130397595465183258e-02,4.718707874417304993e-02,2.261907793581485748e-02,1.835411041975021362e-02,2.956609986722469330e-02,4.537870641797780991e-03,5.649204552173614502e-02,-1.264818012714385986e-02,-8.717284351587295532e-02,1.015624403953552246e-02,-4.926255717873573303e-02,1.166918594390153885e-02,4.513798281550407410e-03,-2.467812970280647278e-02,2.019673213362693787e-02,1.570824970258399844e-04,-1.204183604568243027e-02,-1.496308948844671249e-02,3.821016848087310791e-02,4.746889695525169373e-02,2.170628868043422699e-02,-3.734213113784790039e-02,-3.382830694317817688e-02,9.057601913809776306e-03,-1.075312346220016479e-01,-6.690189987421035767e-02,1.439858525991439819e-01,2.808764204382896423e-02,3.416687622666358948e-02,-4.601325094699859619e-02,-3.331753984093666077e-02,3.023915737867355347e-02,1.720989681780338287e-02,4.641999676823616028e-02,1.210964471101760864e-01,-4.073746968060731888e-03,2.195800468325614929e-02,1.165671274065971375e-01,-7.141198217868804932e-02,1.449161395430564880e-02,5.241173133254051208e-02,-6.195046752691268921e-02,-8.736125892028212547e-04,-6.661423482000827789e-03,-2.690547704696655273e-02,-7.452116906642913818e-02,2.494025975465774536e-01,7.507176604121923447e-03,-6.415068358182907104e-02,-5.156937241554260254e-02,-2.094357907772064209e-01,-1.353878229856491089e-01,-6.268756836652755737e-02,-8.092322945594787598e-02,-5.712855234742164612e-02,4.225377738475799561e-02,4.264228790998458862e-02,-1.460906583815813065e-02,6.595477461814880371e-03,4.679969325661659241e-02,6.617547571659088135e-02,2.115834690630435944e-02,3.434306383132934570e-02,2.339369617402553558e-02,2.964971400797367096e-02,3.464378416538238525e-02,7.016385346651077271e-02,3.136523813009262085e-02,6.239951774477958679e-02,7.626152597367763519e-03,8.331134170293807983e-02,-7.114497479051351547e-03,-5.403730645775794983e-02,2.162707038223743439e-02,-3.982105106115341187e-02,1.381326001137495041e-02,1.760346814990043640e-02,-1.079894043505191803e-02,5.491074547171592712e-02,3.808018984273076057e-03,-2.986195962876081467e-03,6.060291547328233719e-03,7.474293559789657593e-02,9.844724088907241821e-02,3.759234398603439331e-02,-2.927768218796700239e-04,-5.791718605905771255e-03,6.280137598514556885e-02,4.881010577082633972e-02,1.271080691367387772e-02,1.889003068208694458e-02,-1.565385609865188599e-02,2.220080047845840454e-02,3.028044942766427994e-03,-2.905897982418537140e-02,-2.561224158853292465e-03,2.169992029666900635e-02,7.530250400304794312e-02,7.928569801151752472e-03,1.542924158275127411e-02,3.736630454659461975e-02,-2.208852907642722130e-03,7.295180857181549072e-02,2.961071673780679703e-03,3.220590576529502869e-02,2.866036258637905121e-02,-5.944599863141775131e-03,1.642790250480175018e-02,3.412321954965591431e-02,-3.928596153855323792e-03,2.855019643902778625e-02,-1.953560858964920044e-02,-3.161837160587310791e-02,1.100168935954570770e-02,3.403289243578910828e-02,-8.309457334689795971e-04,4.514505341649055481e-02,2.943072095513343811e-02,-1.711395569145679474e-02
9.702424705028533936e-02,2.500655874609947205e-02,-1.454880693927407265e-03,-1.602375693619251251e-02,-5.246099550276994705e-03,1.231059432029724121e-02,1.723774243146181107e-03,-1.958436705172061920e-02,4.571675090119242668e-04,-1.434464007616043091e-03,1.139822602272033691e-01,3.252997761592268944e-03,2.768454886972904205e-02,1.527507696300745010e-02,1.023220457136631012e-02,6.156363990157842636e-03,-9.682081639766693115e-03,-5.235623195767402649e-02,-9.604880586266517639e-03,3.809455549344420433e-03,1.740721799433231354e-02,-6.077670026570558548e-03,-1.390372216701507568e-02,1.370081957429647446e-02,8.313489146530628204e-03,-1.615158282220363617e-02,-1.185138430446386337e-02,-7.774109486490488052e-03,-5.574194714426994324e-03,2.326053380966186523e-02,1.803135126829147339e-02,-2.220807224512100220e-02,1.986343413591384888e-02,-1.194489467889070511e-02,5.310864746570587158e-02,8.960479870438575745e-03,-3.451890125870704651e-02,9.447234915569424629e-04,-1.362763158977031708e-02,-5.310915783047676086e-02,-8.521512150764465332e-02,-8.750239387154579163e-03,5.019963160157203674e-02,-1.521650422364473343e-02,2.546668052673339844e-02,2.004754263907670975e-03,1.608694903552532196e-02,7.255276199430227280e-03,3.394880518317222595e-02,-8.785814046859741211e-02,3.441824018955230713e-02,-8.938358724117279053e-02,-1.715447753667831421e-02,-3.286501159891486168e-03,1.278328150510787964e-01,-1.173077709972858429e-02,2.185395918786525726e-03,1.138736493885517120e-02,-7.111689075827598572e-03,-1.155377086251974106e-02,-1.172337401658296585e-02,-3.628693148493766785e-02,-2.983421087265014648e-02,-2.719579264521598816e-02,1.340193897485733032e-01,4.444640502333641052e-02,2.708601299673318863e-03,-2.677550353109836578e-02,-4.050820134580135345e-03,1.811717823147773743e-02,4.836332052946090698e-03,-3.540867194533348083e-02,2.261147368699312210e-03,2.360903890803456306e-03,1.426439136266708374e-01,2.706312201917171478e-02,5.200220271944999695e-02,1.843875832855701447e-02,2.802367508411407471e-02,1.637530326843261719e-02,-1.497557666152715683e-02,-4.651133343577384949e-02,-1.618115790188312531e-02,9.590478613972663879e-03,4.829960688948631287e-02,-2.318123541772365570e-02,-2.846914343535900116e-02,3.665022552013397217e-02,1.493094954639673233e-02,-2.952362224459648132e-02,-5.466564092785120010e-03,-1.324258372187614441e-02,7.902983343228697777e-04,5.651412531733512878e-02,4.613178595900535583e-02,-3.430179879069328308e-02,1.351246088743209839e-01,6.885720789432525635e-02,2.480586292222142220e-03,-3.268408030271530151e-02,2.321708574891090393e-02,3.781962441280484200e-03,1.765334047377109528e-02,-3.929203748703002930e-02,-2.230148296803236008e-03,1.050305459648370743e-02,1.338407248258590698e-01,8.105018176138401031e-03,7.428961992263793945e-02,1.867429912090301514e-02,2.516728639602661133e-02,-6.603578571230173111e-03,-1.535297092050313950e-02,-3.055032342672348022e-02,-2.055245079100131989e-02,1.019069273024797440e-02,9.075278788805007935e-02,-2.997706830501556396e-02,-2.505511045455932617e-02,5.915688350796699524e-02,8.562668226659297943e-03,-5.336333066225051880e-02,-3.887998871505260468e-03,6.267383694648742676e-02,-3.599637374281883240e-02,7.780026644468307495e-02,4.526142776012420654e-02,-1.702508144080638885e-02
4.167814925312995911e-02,6.121132522821426392e-03,-3.240723162889480591e-02,-2.796550514176487923e-03,-2.858453243970870972e-02,-4.168852791190147400e-02,1.226262003183364868e-02,-7.463638903573155403e-04,1.024784985929727554e-03,-7.119312416762113571e-03,6.181353330612182617e-02,1.500658877193927765e-02,3.093042410910129547e-02,1.502340100705623627e-02,3.417949378490447998e-02,1.008854527026414871e-02,3.262734389863908291e-05,-8.923121541738510132e-02,-8.854112587869167328e-03,-4.753517732024192810e-02,8.348722476512193680e-04,1.065466832369565964e-02,-3.134022280573844910e-02,7.861578837037086487e-03,1.064973603934049606e-02,-2.912963926792144775e-02,8.233285916503518820e-05,2.895462699234485626e-02,2.431899309158325195e-02,2.765131928026676178e-02,-2.960359305143356323e-02,-5.693325027823448181e-02,-1.227727383375167847e-01,-8.857929706573486328e-02,-3.120226226747035980e-02,9.312695264816284180e-02,9.373997896909713745e-02,1.380159556865692139e-01,-1.367594748735427856e-01,1.572175920009613037e-01,9.857016615569591522e-03,-2.464075200259685516e-02,4.380918666720390320e-02,9.462295472621917725e-02,1.200997382402420044e-01,3.280569240450859070e-02,-8.662920445203781128e-02,-7.576312124729156494e-02,-5.314601212739944458e-02,2.191496454179286957e-02,-7.906191796064376831e-02,1.383620314300060272e-02,-1.558122336864471436e-01,-9.739500284194946289e-02,-6.040137261152267456e-02,-1.200714260339736938e-01,1.016200184822082520e-01,2.413349784910678864e-02,9.881006553769111633e-03,-2.226609885692596436e-01,-1.747679710388183594e-01,-2.411453239619731903e-02,-3.155554458498954773e-02,6.646749377250671387e-02,4.522496089339256287e-02,2.803733339533209801e-03,-3.077460080385208130e-02,-6.093589123338460922e-03,-3.640083596110343933e-02,-7.710923254489898682e-02,-6.046246198820881546e-05,-5.476564634591341019e-03,6.100549362599849701e-03,-1.506127044558525085e-02,5.757710337638854980e-02,3.640662878751754761e-02,3.166292235255241394e-02,6.014489009976387024e-02,4.379286989569664001e-02,6.195259629748761654e-04,2.760577481240034103e-04,-6.529437750577926636e-02,-1.821403577923774719e-02,-4.093629866838455200e-02,-2.576318569481372833e-03,-7.422649860382080078e-02,-3.716566413640975952e-02,2.665711939334869385e-02,1.707568950951099396e-02,-6.374735385179519653e-02,-2.342257462441921234e-02,1.111921072006225586e-01,2.493960410356521606e-02,2.557990327477455139e-02,-4.854505509138107300e-02,-7.300255447626113892e-02,7.940261811017990112e-02,4.696138575673103333e-02,1.403831411153078079e-04,4.306381568312644958e-02,-6.792476028203964233e-02,-9.315875917673110962e-02,-8.587087504565715790e-03,-6.079651415348052979e-02,-3.068575635552406311e-02,-4.365540295839309692e-02,6.116854399442672729e-02,3.474735468626022339e-02,4.502794705331325531e-03,5.570087209343910217e-02,5.249932780861854553e-02,6.864853668957948685e-03,-8.670581504702568054e-03,1.919167488813400269e-02,-1.470885798335075378e-02,-4.358262522146105766e-04,9.584856219589710236e-03,-1.883741118945181370e-03,-1.805819571018218994e-02,5.151674896478652954e-02,-1.059085037559270859e-02,-5.558216571807861328e-02,2.811526134610176086e-02,8.388128131628036499e-02,-6.408650428056716919e-02,4.163622483611106873e-02,1.873635500669479370e-02,-7.055908441543579102e-02
5.041881650686264038e-02,8.872278966009616852e-03,2.616324694827198982e-03,-1.565923541784286499e-02,-1.407400052994489670e-02,-4.809171892702579498e-03,-1.002543023787438869e-03,-1.030748337507247925e-02,-5.302698817104101181e-03,-9.573252871632575989e-03,5.480485782027244568e-02,2.419539028778672218e-03,1.164099853485822678e-02,8.417389355599880219e-03,6.729880813509225845e-03,-1.017106324434280396e-02,-9.307725355029106140e-03,-1.897314563393592834e-02,-1.275389455258846283e-02,5.327090155333280563e-03,2.161266095936298370e-02,-8.125727996230125427e-03,-9.644987992942333221e-03,4.087332636117935181e-03,1.932447776198387146e-03,-2.485128119587898254e-02,-9.781673550605773926e-03,-3.626657882705330849e-03,-1.275392901152372360e-02,7.864143699407577515e-03,3.583157807588577271e-02,-2.122111059725284576e-02,2.795069944113492966e-03,1.822336576879024506e-03,4.770211502909660339e-02,1.804028870537877083e-03,-7.242880016565322876e-02,-1.566059072501957417e-03,-1.067117229104042053e-02,-5.693963170051574707e-02,-5.532979220151901245e-02,8.887907490134239197e-03,2.391611225903034210e-02,-1.041881181299686432e-02,-1.001666858792304993e-02,1.079990155994892120e-02,-1.524763996712863445e-03,9.764207527041435242e-03,2.617398649454116821e-02,-6.681259721517562866e-02,2.007809840142726898e-02,-4.364002496004104614e-02,-9.333069436252117157e-03,-2.425078116357326508e-02,5.741870030760765076e-02,-8.865945041179656982e-03,-3.075720742344856262e-03,1.036717463284730911e-02,-6.732437293976545334e-03,-1.125107984989881516e-02,-2.028692513704299927e-02,-2.020217292010784149e-02,-4.056388512253761292e-02,-1.818711869418621063e-02,6.482615321874618530e-02,1.722657680511474609e-02,2.602133201435208321e-03,-1.949253678321838379e-02,-1.802990213036537170e-02,-5.389133002609014511e-03,2.455665729939937592e-03,-2.238272689282894135e-02,-7.988393306732177734e-03,-1.326136849820613861e-02,6.411762535572052002e-02,1.967360079288482666e-02,2.120372466742992401e-02,3.731491509824991226e-03,2.706743404269218445e-02,-1.544030942022800446e-02,-1.247911620885133743e-02,-1.511666737496852875e-02,-1.909689977765083313e-02,1.065950468182563782e-02,2.744424715638160706e-02,-1.371196936815977097e-02,-1.745917461812496185e-02,1.973287761211395264e-02,1.268944353796541691e-03,-3.134852275252342224e-02,-3.637475194409489632e-03,-4.623465356417000294e-04,-1.348730921745300293e-02,1.947747729718685150e-02,4.768915101885795593e-02,-2.563488110899925232e-02,6.186893954873085022e-02,3.083760850131511688e-02,-9.634376503527164459e-03,-3.281690180301666260e-02,9.264132007956504822e-03,-1.265442278236150742e-02,2.130249980837106705e-03,-2.303937077522277832e-02,-1.510366518050432205e-02,-7.615845184773206711e-03,5.054944753646850586e-02,5.608370527625083923e-03,3.880213946104049683e-02,-4.393007606267929077e-03,1.206608861684799194e-02,-1.842335984110832214e-02,-1.790947467088699341e-02,-1.356266438961029053e-02,-2.767072618007659912e-02,9.813195792958140373e-04,5.126323550939559937e-02,-3.795995190739631653e-02,-1.836694777011871338e-02,3.175506740808486938e-02,-2.833172678947448730e-03,-4.507447406649589539e-02,-9.382999502122402191e-03,2.952730469405651093e-02,-5.561057105660438538e-02,2.025524526834487915e-02,3.190845251083374023e-02,-2.090487070381641388e-02
-1.779176853597164154e-02,-3.526341606630012393e-05,-1.777187455445528030e-03,-7.297275587916374207e-03,4.711420275270938873e-03,-4.880544915795326233e-02,1.022189576178789139e-02,-7.506535388529300690e-03,1.260275952517986298e-02,1.542671956121921539e-02,-3.089142963290214539e-02,-1.196783850900828838e-03,1.026388071477413177e-02,1.555485557764768600e-02,-3.821702557615935802e-04,2.983823232352733612e-02,-8.816566318273544312e-03,-4.597424343228340149e-02,-1.228316780179738998e-02,-5.175612494349479675e-02,7.610858883708715439e-03,-1.331440359354019165e-02,6.529477890580892563e-03,1.144988834857940674e-02,7.577145472168922424e-03,-1.518371514976024628e-02,-5.220144987106323242e-03,4.032711312174797058e-02,5.123453587293624878e-02,-5.744120106101036072e-02,1.454629469662904739e-02,-7.512049376964569092e-02,-1.773135811090469360e-01,-3.258639574050903320e-02,3.131025657057762146e-02,-5.490715429186820984e-02,6.612619757652282715e-02,3.637428954243659973e-02,1.007035281509160995e-02,1.860903762280941010e-02,-5.869578570127487183e-02,-8.627039194107055664e-02,5.775465816259384155e-02,-6.286746263504028320e-02,-1.068194489926099777e-02,-1.242951825261116028e-01,1.732444041408598423e-03,6.311900168657302856e-02,3.773683309555053711e-02,-9.824651479721069336e-02,2.445487119257450104e-02,-1.918330043554306030e-02,-1.013697758316993713e-01,1.300728917121887207e-01,2.578155323863029480e-02,3.285082802176475525e-02,7.808801718056201935e-03,-2.495491318404674530e-02,5.154975131154060364e-02,-2.014170400798320770e-02,1.024031415581703186e-01,-5.081598833203315735e-02,-8.785970509052276611e-02,-8.588055521249771118e-02,-1.410144846886396408e-02,2.257935144007205963e-02,-1.332615502178668976e-02,-1.136061269789934158e-02,3.069659322500228882e-02,-1.001757606863975525e-01,1.190530415624380112e-02,2.174631319940090179e-02,1.986494474112987518e-02,2.610468864440917969e-02,-3.266654536128044128e-02,2.439408190548419952e-02,4.873888939619064331e-02,4.613568261265754700e-02,2.505481615662574768e-02,3.122984990477561951e-02,-1.797598600387573242e-02,-4.636984691023826599e-02,-2.359228953719139099e-02,-6.706935912370681763e-02,2.256547473371028900e-02,-6.348975002765655518e-02,5.723534617573022842e-03,3.658379614353179932e-02,8.356824517250061035e-03,-8.558792062103748322e-03,1.536830328404903412e-03,4.706605523824691772e-02,9.573914855718612671e-02,-9.392999857664108276e-02,1.247352454811334610e-02,-6.966524571180343628e-02,2.855508588254451752e-02,4.525523260235786438e-02,1.880095922388136387e-03,5.126859992742538452e-03,4.338854923844337463e-02,-5.032315477728843689e-02,3.456438705325126648e-02,3.874776512384414673e-02,4.721565172076225281e-03,2.335838787257671356e-02,-3.229018766433000565e-03,-2.525881119072437286e-02,6.334193795919418335e-02,5.666722357273101807e-02,3.753988072276115417e-02,2.610938996076583862e-02,-3.125520050525665283e-02,1.159194391220808029e-03,-4.058943688869476318e-02,-5.088177695870399475e-02,5.547978729009628296e-02,-9.437527507543563843e-03,2.933591604232788086e-02,7.217179983854293823e-02,-1.363279670476913452e-02,-3.589875996112823486e-03,4.407238215208053589e-02,7.348552346229553223e-02,6.227182969450950623e-02,-8.941595256328582764e-02,3.976026922464370728e-02,-7.699868828058242798e-02
-2.897929027676582336e-02,2.143607009202241898e-03,-1.655423641204833984e-02,8.877569809556007385e-03,9.870981797575950623e-03,-2.020417945459485054e-03,-2.693470101803541183e-03,5.458196625113487244e-03,5.394396837800741196e-03,1.158848311752080917e-02,-2.770114876329898834e-02,2.809690777212381363e-03,-4.504947923123836517e-03,-2.477728761732578278e-03,-5.227233283221721649e-03,4.169670119881629944e-02,6.671948358416557312e-03,-9.490174241364002228e-03,1.103062182664871216e-02,-1.710999011993408203e-02,-1.144730299711227417e-02,2.834219485521316528e-02,6.411013193428516388e-03,-1.859903102740645409e-03,-1.195761957205832005e-03,6.820603739470243454e-03,-2.839190186932682991e-03,-1.902652671560645103e-03,1.506680995225906372e-02,5.426617572084069252e-04,-4.235124215483665466e-02,4.290903452783823013e-03,-2.674953080713748932e-02,-1.183429267257452011e-02,-5.508190765976905823e-02,-1.022352091968059540e-02,1.254735235124826431e-02,-4.348492715507745743e-03,2.999091520905494690e-03,2.603872865438461304e-02,5.826618894934654236e-02,3.340853611007332802e-03,4.308616917114704847e-04,-2.810810506343841553e-02,3.803127631545066833e-02,8.250810205936431885e-02,1.249221619218587875e-03,-4.685144498944282532e-02,-1.198057085275650024e-02,6.458222866058349609e-02,-7.233469281345605850e-03,5.344450846314430237e-02,1.689204829744994640e-03,2.972894906997680664e-02,-6.323512643575668335e-02,1.016127318143844604e-02,2.050193957984447479e-03,-4.765695706009864807e-02,1.457897387444972992e-02,-5.907517671585083008e-02,1.037474125623703003e-01,-2.200912870466709137e-02,2.461814694106578827e-02,4.296147730201482773e-03,-5.438344180583953857e-02,-1.972956815734505653e-03,-2.560963109135627747e-02,1.624029874801635742e-02,9.234597906470298767e-03,-2.015328034758567810e-02,-7.890982553362846375e-03,1.867524906992912292e-02,1.282357331365346909e-02,2.015480399131774902e-02,-5.157095938920974731e-02,1.891659572720527649e-02,-4.318911582231521606e-03,-2.446994371712207794e-02,-8.032681420445442200e-03,7.094322890043258667e-02,1.274541020393371582e-02,-2.764139324426651001e-02,2.468097209930419922e-02,-4.509921744465827942e-02,-2.063234895467758179e-02,2.721311338245868683e-02,-2.314011799171566963e-03,1.177384704351425171e-02,-3.408974967896938324e-03,3.979361616075038910e-03,-4.769030492752790451e-03,1.115882489830255508e-02,5.061217769980430603e-02,-6.735308561474084854e-03,-5.971905961632728577e-02,-2.460273914039134979e-03,-4.286453127861022949e-02,-1.464842166751623154e-02,-2.723151585087180138e-03,6.014062836766242981e-02,-3.405013307929039001e-02,-1.533332746475934982e-02,-1.200627256184816360e-02,-6.432761438190937042e-03,6.438435986638069153e-03,1.342168450355529785e-02,-3.289216384291648865e-02,7.238993048667907715e-02,-1.662280224263668060e-02,1.983880065381526947e-02,1.475109439343214035e-02,7.459826022386550903e-02,1.402308605611324310e-02,-7.210839539766311646e-03,3.045093081891536713e-02,-2.001076191663742065e-02,-4.524871334433555603e-02,5.341731384396553040e-02,-8.466704748570919037e-03,-1.055959146469831467e-04,-1.096200197935104370e-02,-7.462388603016734123e-04,1.600068062543869019e-02,2.493764273822307587e-02,1.454598270356655121e-02,-1.038396265357732773e-02,-2.362346835434436798e-02,-2.174391178414225578e-03
1.891355216503143311e-02,1.835702103562653065e-03,-7.640954107046127319e-02,1.412368845194578171e-02,-2.355251833796501160e-02,1.482239365577697754e-02,-2.024734951555728912e-02,2.669195644557476044e-02,-1.940021850168704987e-02,-3.118474408984184265e-02,-6.696290802210569382e-03,-1.745080575346946716e-02,5.502299405634403229e-03,-1.693060435354709625e-02,-1.297012995928525925e-02,1.764476299285888672e-02,6.184352189302444458e-02,-1.464028004556894302e-02,6.137747317552566528e-02,-8.038806729018688202e-03,-2.036446332931518555e-02,3.616647794842720032e-02,-3.230690956115722656e-02,8.829776197671890259e-03,9.767434094101190567e-04,-1.868703216314315796e-02,2.252408489584922791e-02,-1.166502013802528381e-02,-3.859765082597732544e-02,7.491511106491088867e-02,-7.528688013553619385e-02,2.779712341725826263e-02,7.900033891201019287e-02,-1.501969546079635620e-01,-2.229978293180465698e-01,7.096169888973236084e-02,-3.496468663215637207e-01,-1.914312690496444702e-01,-1.542507670819759369e-02,-1.098347827792167664e-01,1.461972743272781372e-01,2.292394042015075684e-01,8.573945611715316772e-02,4.253271967172622681e-02,-1.547864526510238647e-01,6.882829964160919189e-02,-7.561043649911880493e-02,-3.524424135684967041e-01,-1.508525665849447250e-02,1.226609870791435242e-01,-3.939901292324066162e-02,3.547435626387596130e-02,-2.255553379654884338e-03,-2.344298809766769409e-01,-9.353746473789215088e-02,1.681319624185562134e-01,-2.938050031661987305e-02,-5.796746909618377686e-02,-9.320556372404098511e-02,-7.684080302715301514e-02,2.107212506234645844e-02,4.436864331364631653e-02,2.222450524568557739e-01,-2.119570672512054443e-01,2.227863483130931854e-02,1.401042751967906952e-02,-7.955317199230194092e-02,2.294807881116867065e-02,-5.624007806181907654e-02,4.284352064132690430e-02,-1.990049518644809723e-02,1.326313801109790802e-02,-1.615431718528270721e-02,-5.236550047993659973e-02,9.764294140040874481e-03,-5.690760165452957153e-02,-2.836039662361145020e-02,-3.495839610695838928e-02,-8.666203357279300690e-03,3.713281080126762390e-02,8.739172667264938354e-02,1.258520036935806274e-02,7.934261858463287354e-02,7.855248637497425079e-03,-3.076116554439067841e-02,6.268718093633651733e-02,-2.170154079794883728e-02,-2.275568246841430664e-02,3.006301587447524071e-03,-2.679036930203437805e-02,1.487046014517545700e-02,6.536411587148904800e-03,-1.051052883267402649e-01,1.064553409814834595e-01,-5.411849543452262878e-02,7.305773347616195679e-02,6.520926952362060547e-03,3.061044774949550629e-02,-6.205209717154502869e-02,7.539530843496322632e-02,-8.610087633132934570e-02,1.881846226751804352e-02,-2.899730391800403595e-02,-7.838422805070877075e-02,-1.124776341021060944e-02,-3.977444395422935486e-02,2.344978228211402893e-02,-4.022207111120223999e-03,-8.616055548191070557e-02,-7.826899737119674683e-02,4.038973525166511536e-02,2.762727811932563782e-02,1.089973598718643188e-01,4.305479303002357483e-02,9.985584020614624023e-02,6.572984904050827026e-02,-5.650513991713523865e-02,8.659020066261291504e-02,-3.617634624242782593e-02,-1.033110637217760086e-02,1.638555526733398438e-02,-1.415397040545940399e-02,5.978978425264358521e-02,-2.526078745722770691e-02,-1.036078557372093201e-01,1.419657468795776367e-01,-1.575680077075958252e-02,7.466048002243041992e-02
3.652348741888999939e-02,1.804701425135135651e-02,2.270662039518356323e-02,5.317216273397207260e-03,1.231616921722888947e-02,1.709713600575923920e-03,4.280975833535194397e-02,4.542375449091196060e-03,5.033372901380062103e-03,1.841861195862293243e-02,1.850757561624050140e-02,2.092509716749191284e-02,2.459029853343963623e-02,3.124368563294410706e-02,3.670056536793708801e-02,2.728419750928878784e-02,4.195692948997020721e-03,-8.360358886420726776e-03,8.159739663824439049e-04,1.425219466909766197e-03,4.061296209692955017e-02,8.392942138016223907e-03,1.703802868723869324e-02,4.134226217865943909e-02,2.265441790223121643e-02,7.467339280992746353e-03,1.865409500896930695e-02,4.067277908325195312e-02,3.272382542490959167e-02,-3.706726804375648499e-02,4.684030264616012573e-02,-2.048099413514137268e-02,-2.550728805363178253e-02,3.425548225641250610e-02,1.090996563434600830e-01,5.073712766170501709e-02,8.183038234710693359e-02,9.822966903448104858e-02,-4.808209836483001709e-02,4.936637356877326965e-02,-4.101277142763137817e-02,1.585607975721359253e-02,-3.642690926790237427e-02,-9.415116906166076660e-02,5.728705227375030518e-02,-1.987357437610626221e-01,-8.958767168223857880e-03,5.640151351690292358e-02,8.841072022914886475e-02,-5.803197249770164490e-02,4.195548593997955322e-02,-8.824966102838516235e-02,2.132457308471202850e-02,-5.645150667987763882e-04,2.184357307851314545e-02,-1.564181894063949585e-01,-5.891453009098768234e-03,4.663800820708274841e-02,-2.556178532540798187e-02,1.231490150094032288e-01,-1.328344047069549561e-01,-6.356789916753768921e-02,-5.445627868175506592e-02,2.749140560626983643e-02,5.513767898082733154e-02,4.401795566082000732e-02,3.205548599362373352e-02,2.425331994891166687e-02,4.265406727790832520e-02,4.518393427133560181e-02,7.896270602941513062e-02,4.757412150502204895e-02,9.401613846421241760e-03,3.504328802227973938e-02,3.321301937103271484e-02,5.540493130683898926e-02,6.073161214590072632e-02,6.279831379652023315e-02,8.402926474809646606e-02,4.269748926162719727e-02,1.330395508557558060e-02,2.100258693099021912e-02,7.835253141820430756e-03,7.906525395810604095e-03,4.772510007023811340e-02,6.652174144983291626e-02,3.847992047667503357e-02,6.908743828535079956e-02,3.533099964261054993e-02,2.997260354459285736e-02,5.312556028366088867e-02,4.900572448968887329e-02,1.070571690797805786e-01,-3.615582361817359924e-02,5.372637510299682617e-02,1.266822032630443573e-02,1.020591408014297485e-01,8.245276659727096558e-02,3.700842708349227905e-02,3.855998069047927856e-02,9.555984288454055786e-02,5.151003599166870117e-02,1.137339547276496887e-01,7.997089624404907227e-02,1.944530196487903595e-02,7.245702296495437622e-02,8.395968377590179443e-02,-6.656313780695199966e-03,1.053645834326744080e-01,6.609496474266052246e-02,7.841564714908599854e-02,7.589632272720336914e-02,1.541929598897695541e-02,3.128596395254135132e-02,2.039677090942859650e-02,1.069923024624586105e-02,9.814750403165817261e-02,3.744249418377876282e-02,6.322041898965835571e-02,7.817148417234420776e-02,6.079760566353797913e-02,5.468363687396049500e-02,8.446446061134338379e-02,6.520169973373413086e-02,9.001783281564712524e-02,-2.761544287204742432e-02,7.454822957515716553e-02,1.491046976298093796e-02
-6.707666069269180298e-02,-1.311593130230903625e-02,4.132413771003484726e-03,1.566019095480442047e-02,4.032145254313945770e-03,-1.024236204102635384e-03,-2.066719811409711838e-03,2.713789232075214386e-03,4.653180018067359924e-03,6.641669198870658875e-03,-7.810983806848526001e-02,-1.653491519391536713e-03,-1.433098316192626953e-02,-1.163096819072961807e-02,-3.231540555134415627e-03,-4.373949021100997925e-03,1.890603336505591869e-03,4.015994817018508911e-02,6.333617027848958969e-03,-4.637125413864850998e-03,-1.216189563274383545e-02,7.360203657299280167e-03,-1.058555091731250286e-03,-1.513548777438700199e-04,-7.717241067439317703e-03,1.475795079022645950e-02,1.261377707123756409e-02,7.859638892114162445e-03,4.002017900347709656e-03,6.936247460544109344e-03,-1.669978722929954529e-02,2.128318138420581818e-02,-4.558997601270675659e-02,1.529563684016466141e-02,-6.413556169718503952e-03,7.567076827399432659e-04,8.037640899419784546e-02,1.107013132423162460e-02,1.916089560836553574e-03,6.337340921163558960e-02,5.266006663441658020e-02,-1.712507382035255432e-02,-3.451047837734222412e-02,1.886471733450889587e-02,1.594883203506469727e-02,-1.754052750766277313e-02,5.549175664782524109e-03,1.595497876405715942e-02,-3.448521718382835388e-02,5.602418258786201477e-02,-3.182008117437362671e-02,4.898281395435333252e-02,1.977271027863025665e-02,-1.489632017910480499e-02,-7.305259257555007935e-02,1.223280746489763260e-02,-1.332365907728672028e-03,-3.277791291475296021e-02,8.922391571104526520e-04,2.913240110501646996e-03,1.440707873553037643e-02,2.023407816886901855e-02,-4.543425515294075012e-03,2.693443559110164642e-02,-1.090732514858245850e-01,-2.756317518651485443e-02,7.791845127940177917e-03,2.177407033741474152e-02,9.594658389687538147e-03,1.612083404324948788e-03,-6.255215965211391449e-03,6.263846531510353088e-03,9.484177455306053162e-03,5.290134344249963760e-03,-1.052597686648368835e-01,-2.657153829932212830e-02,-3.146318346261978149e-02,-1.875803992152214050e-02,-1.865147426724433899e-02,-9.837204590439796448e-03,1.440981141058728099e-04,4.291369020938873291e-02,8.997832424938678741e-03,-5.704335402697324753e-03,-2.969774790108203888e-02,9.926134720444679260e-03,1.659076102077960968e-02,-1.320873573422431946e-02,-1.086167618632316589e-02,2.783281914889812469e-02,4.349792376160621643e-03,1.086055021733045578e-02,-2.435937523841857910e-03,-2.124259062111377716e-02,-2.828253619372844696e-02,2.436124719679355621e-02,-1.052004024386405945e-01,-3.923453390598297119e-02,9.314496070146560669e-03,3.043341636657714844e-02,-2.538282796740531921e-02,1.880355738103389740e-02,-1.347462832927703857e-02,1.413719262927770615e-02,9.927577339112758636e-04,-9.362047538161277771e-03,-8.305893838405609131e-02,-7.613843772560358047e-03,-5.646280199289321899e-02,-2.568790130317211151e-02,1.717004925012588501e-04,6.079140119254589081e-03,4.662666935473680496e-03,2.530550584197044373e-02,1.426713448017835617e-02,-4.746686667203903198e-03,-5.455021187663078308e-02,2.290087379515171051e-02,1.794911921024322510e-02,-2.724166028201580048e-02,-5.971105769276618958e-03,5.438116937875747681e-02,1.582999713718891144e-02,-3.165930137038230896e-02,4.047864302992820740e-02,-2.119191177189350128e-02,-3.340778127312660217e-02,1.649740152060985565e-02
-6.933365948498249054e-04,4.380390979349613190e-03,-2.212626673281192780e-02,8.275047875940799713e-03,-2.206560689955949783e-03,-3.387387096881866455e-02,-7.243205793201923370e-03,3.633285686373710632e-02,-5.651498213410377502e-03,2.176644746214151382e-03,-1.501609222032129765e-03,1.275329617783427238e-03,1.816477812826633453e-02,2.693261019885540009e-03,-1.252203620970249176e-02,3.365864511579275131e-03,2.651681751012802124e-02,-1.593609340488910675e-02,1.989067718386650085e-02,-4.754239693284034729e-03,-2.119688503444194794e-02,1.367217022925615311e-02,-3.868955653160810471e-03,-1.045351102948188782e-02,9.848048910498619080e-03,1.769044622778892517e-02,2.716271905228495598e-03,-7.683214731514453888e-03,1.320904027670621872e-02,4.313285276293754578e-02,-5.613044649362564087e-02,5.652280524373054504e-03,4.941838979721069336e-02,-4.231799021363258362e-02,-8.934582024812698364e-02,-2.698751352727413177e-02,-4.266088828444480896e-02,4.151162877678871155e-02,-3.137621283531188965e-02,7.456225156784057617e-02,9.250321984291076660e-02,8.705206960439682007e-02,-5.002087354660034180e-02,2.830282039940357208e-02,-5.800127983093261719e-02,4.280339181423187256e-02,-4.678530991077423096e-02,-1.780369728803634644e-01,-7.084118574857711792e-02,6.317782402038574219e-02,-3.761871531605720520e-02,5.939627066254615784e-02,1.986810006201267242e-02,-1.168345808982849121e-01,-3.171335905790328979e-02,-9.960740059614181519e-02,7.313960045576095581e-02,3.334763227030634880e-03,4.100272804498672485e-02,3.840521723031997681e-02,-1.414365619421005249e-01,6.787300854921340942e-02,4.912243410944938660e-02,-2.426626719534397125e-02,-9.113707346841692924e-04,8.870687452144920826e-04,-2.391656301915645599e-02,4.381069913506507874e-03,-1.180774439126253128e-02,-4.505673795938491821e-02,-1.380757242441177368e-02,4.219641163945198059e-02,-5.115955136716365814e-03,-2.946803811937570572e-03,-1.308211125433444977e-03,-9.524190798401832581e-03,2.173420600593090057e-02,2.137846685945987701e-02,-3.701739013195037842e-02,-1.155314873903989792e-02,3.530764579772949219e-02,-1.249818038195371628e-02,2.424563653767108917e-02,-4.055174533277750015e-03,-1.729401946067810059e-02,-1.407690718770027161e-02,-6.554559222422540188e-04,-2.505953423678874969e-02,1.839641481637954712e-02,7.266403641551733017e-03,-7.332322187721729279e-03,-5.051027983427047729e-03,-1.856680028140544891e-02,5.492514371871948242e-02,-6.249578669667243958e-02,1.740279840305447578e-03,-4.003103822469711304e-03,5.576417315751314163e-03,3.603952354751527309e-04,2.212535589933395386e-02,-2.259347960352897644e-02,-4.511114582419395447e-02,-1.890625804662704468e-02,1.042759511619806290e-02,4.411585978232324123e-04,-1.200637593865394592e-02,8.639754727482795715e-03,1.272874767892062664e-03,7.760534062981605530e-03,3.079277463257312775e-02,-2.101477980613708496e-02,-1.476495061069726944e-02,4.190782085061073303e-02,1.399151422083377838e-02,3.585849329829216003e-02,3.036216646432876587e-02,-3.962058946490287781e-02,2.937469258904457092e-02,7.016761228442192078e-03,-1.814075186848640442e-02,1.870040036737918854e-02,8.817480877041816711e-03,-2.873111050575971603e-03,-2.018971554934978485e-02,6.669207476079463959e-03,7.180407643318176270e-02,-2.630689367651939392e-02,1.302255876362323761e-02
2.628851216286420822e-03,2.435071393847465515e-03,-2.117686439305543900e-03,6.844534073024988174e-03,-5.821540486067533493e-03,-1.714147161692380905e-03,1.445023342967033386e-03,6.480394396930932999e-03,-8.912373450584709644e-04,2.271333476528525352e-03,3.587898332625627518e-03,4.947633482515811920e-03,4.574714694172143936e-03,1.288383500650525093e-04,5.497811944223940372e-04,1.591818220913410187e-02,6.043726578354835510e-03,-1.002293825149536133e-02,8.096614852547645569e-03,-6.861966103315353394e-03,-1.222219201736152172e-03,1.618506386876106262e-02,-5.710433702915906906e-03,1.346005243249237537e-03,3.406738629564642906e-03,4.166774451732635498e-03,1.089035300537943840e-03,2.530416939407587051e-03,1.071469858288764954e-02,7.717167027294635773e-03,-1.956601068377494812e-02,-8.331943536177277565e-05,1.301111839711666107e-02,2.195396833121776581e-02,-2.660190872848033905e-02,-2.070353738963603973e-02,-8.155330084264278412e-03,2.229751087725162506e-03,1.925706677138805389e-02,1.131139509379863739e-02,3.441318124532699585e-02,1.201885286718606949e-02,-3.679572790861129761e-02,9.578997269272804260e-03,-1.445576176047325134e-02,3.754730522632598877e-02,1.489107962697744370e-02,3.419095650315284729e-03,-2.421386167407035828e-02,4.366045445203781128e-02,-7.647268939763307571e-03,2.480258047580718994e-02,7.966596633195877075e-02,-2.810907177627086639e-02,-2.013895660638809204e-02,-2.892050892114639282e-02,-7.273692172020673752e-04,-7.030510902404785156e-02,-2.648940496146678925e-02,-1.005361601710319519e-02,-4.143096134066581726e-02,6.970827002078294754e-03,3.959665820002555847e-02,5.524102132767438889e-03,2.480517840012907982e-03,5.135030485689640045e-03,-5.104601150378584862e-04,8.858466520905494690e-03,-3.130787750706076622e-03,-3.915166482329368591e-03,3.805264364928007126e-03,1.432830840349197388e-02,-2.780721697490662336e-04,3.705679904669523239e-03,-4.756180860567837954e-04,8.774167858064174652e-03,7.759294938296079636e-03,-1.705089001916348934e-03,2.216933527961373329e-03,2.096887864172458649e-02,1.024644915014505386e-02,-7.516167126595973969e-03,1.239458378404378891e-02,-1.090565882623195648e-02,1.351012964732944965e-03,1.630395650863647461e-02,-4.399866797029972076e-03,4.138329066336154938e-03,7.660078816115856171e-03,5.891952663660049438e-03,2.957790624350309372e-03,4.839301109313964844e-03,1.832022517919540405e-02,1.655964367091655731e-02,-2.388914674520492554e-02,2.537829277571290731e-05,3.336033318191766739e-03,8.480140008032321930e-03,1.032897457480430603e-02,2.103423327207565308e-02,-7.048174273222684860e-03,1.811643014661967754e-03,3.852803260087966919e-03,-2.768057165667414665e-03,2.347935922443866730e-03,7.422228343784809113e-03,8.914654143154621124e-03,2.326731570065021515e-02,2.338241552934050560e-03,1.005670055747032166e-02,1.165450830012559891e-02,3.295780718326568604e-02,1.236992143094539642e-02,3.507205285131931305e-03,1.676305197179317474e-02,1.502938452176749706e-03,-2.564219292253255844e-03,2.581585012376308441e-02,-2.079799072816967964e-03,2.993245609104633331e-03,1.009893883019685745e-02,7.729134056717157364e-03,7.221325766295194626e-03,9.522825479507446289e-03,1.089655887335538864e-02,1.772178523242473602e-02,-3.831751877442002296e-03,6.734766997396945953e-03
