8.929591625928878784e-03
1.558283716440200806e-02
-1.506824325770139694e-02
-1.622817292809486389e-02
6.435321178287267685e-03
9.304851293563842773e-03
-1.194287277758121490e-02
-1.308537274599075317e-02
2.100171521306037903e-03
-1.111453305929899216e-02
6.550443824380636215e-03
-1.514247152954339981e-02
-4.405525978654623032e-03
-1.823286898434162140e-02
1.332819182425737381e-02
2.931524650193750858e-04
1.569617167115211487e-02
-1.553875114768743515e-02
-1.543353218585252762e-02
-7.031368557363748550e-03
-1.164858695119619370e-02
1.470959000289440155e-02
8.492207154631614685e-03
-1.130979601293802261e-02
-1.085943914949893951e-02
2.409063978120684624e-03
-1.084253937005996704e-02
-1.554291695356369019e-02
-1.001772470772266388e-02
-1.209288090467453003e-02
-1.591710560023784637e-02
-1.526972558349370956e-02
7.131269201636314392e-03
1.836802437901496887e-02
-2.059275470674037933e-02
1.254708226770162582e-02
-2.112572267651557922e-02
-1.894507743418216705e-02
1.448195986449718475e-02
9.353742003440856934e-03
1.120043639093637466e-02
1.089331042021512985e-02
-1.390121597796678543e-02
1.408355962485074997e-02
-9.643593803048133850e-03
1.372565515339374542e-02
-1.116331107914447784e-02
1.421396620571613312e-02
1.454077474772930145e-02
-1.622475497424602509e-02
1.339180395007133484e-02
1.136941276490688324e-02
-1.649959199130535126e-02
1.545723341405391693e-02
1.098992954939603806e-02
1.374527718871831894e-02
-1.914539001882076263e-02
1.017486024647951126e-02
-1.450042519718408585e-02
1.547319535166025162e-02
-1.893625408411026001e-02
1.221569161862134933e-02
-1.708362624049186707e-02
-7.479852065443992615e-03
1.279583666473627090e-02
-1.391762122511863708e-02
9.971932508051395416e-03
-1.169030787423253059e-03
1.327879913151264191e-02
1.267191953957080841e-02
8.357607759535312653e-03
1.365428045392036438e-02
1.400336902588605881e-02
-1.990615949034690857e-02
-7.843395695090293884e-03
1.087286137044429779e-02
-2.320214407518506050e-03
1.094378903508186340e-02
-3.148856805637478828e-03
1.228712312877178192e-02
-1.591058634221553802e-02
-1.294984016567468643e-02
-1.810902357101440430e-02
-3.690297715365886688e-03
-9.702115785330533981e-04
1.617514155805110931e-02
3.208807902410626411e-03
-2.066554874181747437e-02
-1.418317761272192001e-02
8.858134038746356964e-03
1.519938278943300247e-02
-1.709313504397869110e-02
-2.853427547961473465e-03
1.034548273310065269e-03
1.312323939055204391e-02
-1.644168049097061157e-02
6.563181057572364807e-03
-4.187451559118926525e-04
-1.501916721463203430e-02
-1.660828106105327606e-02
-1.822787895798683167e-02
1.237602531909942627e-02
-8.872830308973789215e-03
-1.525443978607654572e-02
-4.250107798725366592e-03
-1.700264401733875275e-02
-2.296843752264976501e-02
1.310757268220186234e-02
8.045026101171970367e-03
-3.785145469009876251e-03
9.506247937679290771e-03
-1.680792495608329773e-02
-1.429825648665428162e-02
5.562412115978077054e-05
-1.763932220637798309e-02
1.292981766164302826e-02
-2.122735418379306793e-02
-9.726595133543014526e-03
-8.854973129928112030e-03
1.537249702960252762e-02
1.760620437562465668e-02
1.301543135195970535e-02
1.378578599542379379e-02
3.779497696086764336e-03
-1.064532902091741562e-02
8.200499229133129120e-03
-2.623601583763957024e-03
3.211895469576120377e-03
1.969804242253303528e-02
-1.032577082514762878e-02
-1.957611739635467529e-02
-1.060240808874368668e-02
-4.603757988661527634e-03
9.665745310485363007e-03
-1.203602738678455353e-02
7.484258618205785751e-03
-1.328587299212813377e-03
6.518288515508174896e-03
-1.395988464355468750e-02
1.098891813308000565e-02
1.334719732403755188e-02
-8.640312589704990387e-03
9.565544314682483673e-03
-7.034973707050085068e-03
1.078648678958415985e-02
9.667132049798965454e-03
8.359565399587154388e-03
7.574182469397783279e-03
8.420065976679325104e-03
1.214583870023488998e-02
-4.926840309053659439e-03
1.426613051444292068e-02
7.126791402697563171e-03
3.803038503974676132e-03
-1.832174696028232574e-02
-1.330550294369459152e-02
1.169542409479618073e-02
-1.461710222065448761e-02
-9.374538436532020569e-03
-1.228509005159139633e-02
-1.487407833337783813e-02
-1.540231890976428986e-02
-1.895173639059066772e-02
-1.340046897530555725e-02
1.024678815156221390e-02
-1.221761014312505722e-02
-1.067180559039115906e-02
1.479912176728248596e-02
1.101618818938732147e-02
-1.835296861827373505e-02
-1.918422174639999866e-03
-2.547178592067211866e-04
2.764664590358734131e-03
-1.298452727496623993e-02
1.512254867702722549e-02
5.277725402265787125e-03
-1.688970252871513367e-02
5.469521041959524155e-03
-2.895044628530740738e-03
-2.034740336239337921e-02
1.417032815515995026e-02
-1.084415894001722336e-02
-1.328904740512371063e-02
-1.494970452040433884e-02
-9.458682499825954437e-03
-7.421703543514013290e-03
-2.067295461893081665e-02
-4.323594272136688232e-03
-1.300342008471488953e-02
-1.511128526180982590e-02
-9.259604848921298981e-03
3.989142365753650665e-03
1.336848735809326172e-02
1.429203245788812637e-02
1.236682478338479996e-02
-9.511052630841732025e-03
1.292120385915040970e-02
-1.364465686492621899e-03
1.473138947039842606e-02
-1.610681414604187012e-02
-6.929204799234867096e-03
7.868603803217411041e-03
1.506623346358537674e-02
-9.474063292145729065e-03
-1.376806013286113739e-02
-1.429451722651720047e-02
-1.485091447830200195e-02
-1.392057724297046661e-02
-9.873097762465476990e-03
1.248198933899402618e-02
1.397536788135766983e-02
-8.468844927847385406e-03
1.560761313885450363e-02
-1.476851571351289749e-02
1.291393418796360493e-03
1.273953635245561600e-02
-1.698096469044685364e-02
-4.206238314509391785e-03
-1.411980949342250824e-02
3.940769471228122711e-03
-8.869459852576255798e-03
-1.894759200513362885e-02
1.124664675444364548e-03
-8.701595477759838104e-03
-1.867949403822422028e-02
2.032558899372816086e-03
1.017861813306808472e-02
-6.343721412122249603e-03
-2.479684539139270782e-03
1.250455062836408615e-02
-1.423830166459083557e-02
-1.285421010106801987e-02
8.491077460348606110e-03
-1.850249432027339935e-02
7.057926617562770844e-03
1.266711391508579254e-02
-1.495345402508974075e-02
1.435881573706865311e-02
-1.652488671243190765e-02
-1.073456462472677231e-02
-8.711897768080234528e-03
7.005894556641578674e-03
-2.108296565711498260e-02
1.396183017641305923e-02
-1.349007058888673782e-02
1.339413691312074661e-02
-6.317200139164924622e-03
1.153461541980504990e-02
-3.211419098079204559e-03
-8.168319240212440491e-03
-1.569097116589546204e-02
-1.520352158695459366e-02
-1.849910430610179901e-02
-1.969670318067073822e-02
-1.667127572000026703e-02
-1.438048668205738068e-02
1.189398299902677536e-02
-1.539119053632020950e-02
-1.370892208069562912e-02
9.612249210476875305e-03
-9.125838987529277802e-03
-1.332640275359153748e-02
1.380734611302614212e-02
1.832852140069007874e-02
6.399109028279781342e-03
2.182485349476337433e-02
3.333486150950193405e-03
2.045586332678794861e-02
-2.268091589212417603e-02
1.393731031566858292e-02
-1.407059002667665482e-02
-1.409422326833009720e-02
2.139109931886196136e-02
1.196343358606100082e-02
1.430140342563390732e-02
2.329398132860660553e-02
1.176614593714475632e-02
-1.482622232288122177e-02
-1.269474718719720840e-02
1.373501680791378021e-02
-4.002810921519994736e-03
1.403970364481210709e-02
1.167432591319084167e-02
1.659468375146389008e-02
7.325504557229578495e-04
-8.690887130796909332e-03
1.523462776094675064e-02
-1.538979448378086090e-02
9.034922346472740173e-03
-8.846439304761588573e-04
1.383516564965248108e-02
-1.326085999608039856e-02
6.261822767555713654e-03
-5.071577150374650955e-03
1.403042301535606384e-02
-1.614563912153244019e-02
1.716842688620090485e-02
-1.376649457961320877e-02
-1.501140836626291275e-02
-1.439601182937622070e-02
-2.180225588381290436e-02
-1.584708131849765778e-02
1.552115194499492645e-02
-1.484999619424343109e-02
1.942513510584831238e-02
1.509018428623676300e-02
-1.491998881101608276e-02
-1.872791349887847900e-02
1.059835311025381088e-02
1.549540180712938309e-02
-1.413798704743385315e-02
-1.487221848219633102e-02
1.532774418592453003e-02
7.582508958876132965e-03
8.425420150160789490e-03
1.614948548376560211e-02
4.749235522467643023e-04
1.419969275593757629e-02
7.130628451704978943e-03
1.904281042516231537e-02
1.447329670190811157e-02
1.398659404367208481e-02
-1.425717491656541824e-02
-1.040890906006097794e-02
1.474033389240503311e-02
1.497521437704563141e-02
-1.482247933745384216e-02
1.445493753999471664e-02
8.896425366401672363e-03
-1.382542401552200317e-02
1.213279459625482559e-02
-1.243311166763305664e-02
1.138007454574108124e-02
-1.380202732980251312e-02
-9.522558189928531647e-03
1.593481563031673431e-02
-1.374994497746229172e-02
1.505962107330560684e-02
-1.132762338966131210e-02
1.385411899536848068e-02
3.006476536393165588e-02
1.069736573845148087e-02
5.973327439278364182e-03
-1.334196981042623520e-02
-1.437272969633340836e-02
-1.436105370521545410e-02
-1.423439942300319672e-02
1.177675090730190277e-02
-1.369106397032737732e-02
-1.304116938263177872e-02
-1.129939872771501541e-02
1.913961023092269897e-02
-1.289768237620592117e-02
1.612180657684803009e-02
-6.862068083137273788e-03
-7.547711487859487534e-03
1.092701219022274017e-02
-1.485695783048868179e-02
-1.286440901458263397e-02
1.785910129547119141e-02
1.457654684782028198e-02
1.374715194106101990e-02
1.440380048006772995e-02
1.376612763851881027e-02
-7.985796779394149780e-03
1.495895674452185631e-03
-1.200580038130283356e-02
-1.481746044009923935e-02
1.517648901790380478e-02
3.558538737706840038e-04
1.724158972501754761e-02
1.469292491674423218e-02
-1.318591646850109100e-02
-1.612499915063381195e-02
7.637599483132362366e-03
-1.449751015752553940e-02
-1.476182602345943451e-02
1.378604210913181305e-02
-6.966514512896537781e-03
1.706619374454021454e-02
-1.436883024871349335e-02
-1.484021265059709549e-02
1.297113113105297089e-02
-1.369326747953891754e-02
1.622676663100719452e-02
1.311692781746387482e-02
1.394529175013303757e-02
1.615465432405471802e-02
-4.179159644991159439e-03
-1.437288150191307068e-02
-1.171110663563013077e-02
1.427884493023157120e-02
-1.349569018930196762e-02
1.773086562752723694e-02
1.707816682755947113e-02
-1.787258125841617584e-02
1.478848885744810104e-02
4.527875222265720367e-03
1.498367451131343842e-02
-1.475138124078512192e-02
-3.505515865981578827e-03
-1.455493178218603134e-02
1.925704628229141235e-02
-1.278857886791229248e-02
1.266643032431602478e-02
1.252087112516164780e-02
-1.174239441752433777e-02
-1.456973236054182053e-02
-1.446017250418663025e-02
-3.021256416104733944e-04
-1.011253986507654190e-02
1.333692856132984161e-02
-1.845126971602439880e-03
1.431787945330142975e-02
-1.969181001186370850e-02
-1.456551719456911087e-02
1.326246559619903564e-02
9.335104376077651978e-03
-1.771142520010471344e-02
-1.218985207378864288e-02
-2.767899632453918457e-02
2.115180948749184608e-03
1.100238878279924393e-02
-1.785310357809066772e-02
1.299633737653493881e-02
2.120571397244930267e-02
-1.210982166230678558e-02
4.831675614695996046e-04
-7.307974621653556824e-03
-1.536115910857915878e-02
-2.120216377079486847e-02
-2.154424972832202911e-02
-1.392645016312599182e-02
1.168704684823751450e-02
-1.595546724274754524e-03
1.462664548307657242e-02
1.054340694099664688e-02
2.084061969071626663e-03
-1.756919920444488525e-02
7.808777503669261932e-03
1.229820214211940765e-02
1.449871342629194260e-02
-1.442398317158222198e-02
-1.822383346734568477e-04
-1.493057701736688614e-02
-9.901766898110508919e-04
-1.650274172425270081e-02
-1.893116720020771027e-02
-1.465713139623403549e-02
1.488070841878652573e-02
-3.777606179937720299e-03
-2.480707876384258270e-02
1.446857489645481110e-02
1.153790857642889023e-02
-1.272937096655368805e-02
-4.851771984249353409e-03
-1.584035530686378479e-02
-9.334743022918701172e-03
-9.152132086455821991e-03
-7.860381156206130981e-03
-8.332297205924987793e-03
4.294903017580509186e-03
1.677639037370681763e-02
1.480937283486127853e-02
1.492453739047050476e-02
6.252738181501626968e-03
5.775570403784513474e-03
1.878009736537933350e-02
-1.796748675405979156e-02
-1.588136702775955200e-02
-1.630017347633838654e-02
1.462667714804410934e-02
-1.526352111250162125e-02
9.428823366761207581e-03
7.945396006107330322e-03
1.900756172835826874e-02
-6.474758964031934738e-03
-1.230042614042758942e-02
1.114305015653371811e-02
1.734240941004827619e-04
9.766700677573680878e-03
1.442876644432544708e-02
-1.232698094099760056e-02
1.962180249392986298e-02
-1.490770746022462845e-02
1.515488512814044952e-02
1.818940974771976471e-02
-1.400080882012844086e-02
1.605544798076152802e-02
6.808792240917682648e-03
-2.113569527864456177e-02
-2.112559974193572998e-02
-1.137527916580438614e-02
1.494455151259899139e-02
-1.424436084926128387e-02
6.796122528612613678e-03
-1.396812219172716141e-02
-1.092551858164370060e-03
1.925670728087425232e-02
1.491186674684286118e-02
-1.309945248067378998e-02
-1.515951287001371384e-02
2.442187070846557617e-02
-1.344168558716773987e-02
2.899807645007967949e-03
-4.443652462214231491e-03
-1.312442123889923096e-02
1.530058402568101883e-02
-1.483643427491188049e-02
-1.599583216011524200e-02
8.683074265718460083e-03
-1.453893445432186127e-02
-8.279889589175581932e-04
1.660840213298797607e-02
-1.455066073685884476e-02
-1.515305787324905396e-02
3.419778542593121529e-03
1.082543190568685532e-02
-1.242169924080371857e-02
-1.698727160692214966e-02
1.729704381432384253e-04
-4.679607227444648743e-03
-4.341548774391412735e-03
-1.859016530215740204e-02
-1.661567203700542450e-02
-1.550036296248435974e-02
1.255820225924253464e-02
1.006237417459487915e-02
2.232211828231811523e-02
-1.192318368703126907e-02
-1.812837459146976471e-02
-1.163644716143608093e-02
-1.686441898345947266e-02
1.477418839931488037e-02
1.046055112965404987e-03
-1.200565136969089508e-02
-1.319417636841535568e-02
-4.415668954607099295e-04
-1.359918992966413498e-02
-1.529883593320846558e-02
9.975932771340012550e-04
-1.226372830569744110e-02
-1.478875149041414261e-02
-1.380183082073926926e-02
1.656745374202728271e-02
1.829469762742519379e-02
-2.041054517030715942e-02
1.068599056452512741e-02
-1.901203207671642303e-02
-2.131203934550285339e-02
1.459600869566202164e-02
1.516605727374553680e-02
9.282927960157394409e-03
9.494807571172714233e-03
-1.382867526262998581e-02
1.395035441964864731e-02
-1.236461102962493896e-02
8.016498759388923645e-03
-1.418711245059967041e-02
1.446478441357612610e-02
9.526275098323822021e-03
-1.397114805877208710e-02
1.431726664304733276e-02
9.845552034676074982e-03
-1.577916555106639862e-02
1.592404022812843323e-02
1.257247850298881531e-02
1.447969302535057068e-02
-1.618668064475059509e-02
-4.935162607580423355e-03
-1.853113248944282532e-02
1.385554298758506775e-02
-1.855888031423091888e-02
8.276769891381263733e-03
-1.808090694248676300e-02
-8.110370486974716187e-03
1.123079843819141388e-02
-1.362634543329477310e-02
1.335228700190782547e-02
-2.064308384433388710e-03
1.329635176807641983e-02
1.443307008594274521e-02
1.402143761515617371e-02
1.322809047996997833e-02
1.400247868150472641e-02
-1.958717405796051025e-02
-1.269205566495656967e-02
5.980427842587232590e-03
-5.556353367865085602e-03
1.058994326740503311e-02
3.257317002862691879e-03
1.209704764187335968e-02
-1.429176889359951019e-02
-1.089860033243894577e-02
-1.662008278071880341e-02
-9.978440590202808380e-03
1.999424304813146591e-03
1.578153111040592194e-02
3.828763030469417572e-03
-1.455439254641532898e-02
-1.424917113035917282e-02
1.291952282190322876e-02
1.656571961939334869e-02
-1.488465256989002228e-02
-8.693119511008262634e-03
9.261840023100376129e-03
1.296547055244445801e-02
-1.584539189934730530e-02
1.144945900887250900e-02
-9.150980971753597260e-03
1.724904403090476990e-02
-1.717626675963401794e-02
-1.680671796202659607e-02
1.337024010717868805e-02
-8.947870694100856781e-03
-3.589464351534843445e-03
-1.527327951043844223e-02
-1.556396391242742538e-02
-2.203496359288692474e-02
1.094898302108049393e-02
8.372530341148376465e-03
1.358717493712902069e-02
1.391735672950744629e-02
-1.383260358124971390e-02
-1.442582160234451294e-02
-5.404535841080360115e-07
-1.622071117162704468e-02
1.149351149797439575e-02
-1.754025183618068695e-02
-1.117699500173330307e-02
-9.604444727301597595e-03
7.790818810462951660e-03
1.659893430769443512e-02
1.326495967805385590e-02
1.385748665779829025e-02
1.437425264157354832e-03
-4.726773127913475037e-03
6.490230094641447067e-03
-5.591407883912324905e-03
-3.543501370586454868e-04
1.916938461363315582e-02
1.036126352846622467e-02
-1.799293607473373413e-02
-2.105578035116195679e-02
2.627353649586439133e-03
1.053349487483501434e-02
-1.055673230439424515e-02
9.802203625440597534e-03
-5.197441205382347107e-03
-9.663019329309463501e-03
-1.221479289233684540e-02
1.495127473026514053e-02
1.395963039249181747e-02
-9.483164176344871521e-03
1.578043960034847260e-02
-7.974928244948387146e-03
1.074113883078098297e-02
1.248321961611509323e-02
5.762062966823577881e-03
6.867672782391309738e-03
1.298220176249742508e-02
6.538946647197008133e-03
-1.290180906653404236e-02
1.421415433287620544e-02
1.171808131039142609e-02
3.711658064275979996e-03
-2.052316069602966309e-02
-1.275823451578617096e-02
9.967324323952198029e-03
-1.523178815841674805e-02
-1.137174852192401886e-02
-1.281337812542915344e-02
-1.410541404038667679e-02
-1.486451551318168640e-02
-1.552652660757303238e-02
-1.328702270984649658e-02
8.716931566596031189e-03
-1.222117524594068527e-02
-9.584280662238597870e-03
1.696246117353439331e-02
1.120025571435689926e-02
-1.482683140784502029e-02
-1.165002118796110153e-02
1.081586629152297974e-02
-1.082866638898849487e-02
-1.359662320464849472e-02
1.643961295485496521e-02
-5.900793708860874176e-03
-1.728559099137783051e-02
9.502733126282691956e-03
5.969946272671222687e-03
-1.817137002944946289e-02
1.380883995443582535e-02
-8.026923052966594696e-03
-1.123373396694660187e-02
-1.467273198068141937e-02
-1.289136335253715515e-02
-1.975862123072147369e-02
-1.638315804302692413e-02
-6.091933231800794601e-03
-1.418880000710487366e-02
-1.411270350217819214e-02
-2.192737534642219543e-02
-3.261523786932229996e-03
1.391247566789388657e-02
1.434377394616603851e-02
7.553124800324440002e-03
-9.537883102893829346e-03
1.331196166574954987e-02
6.500667892396450043e-03
1.332003809511661530e-02
-1.168796513229608536e-02
-2.639981918036937714e-03
8.788139559328556061e-03
1.499162614345550537e-02
-8.141302503645420074e-03
-1.429761853069067001e-02
-1.398774143308401108e-02
-1.466923765838146210e-02
-1.485587004572153091e-02
-1.266666222363710403e-02
1.312094833701848984e-02
1.406356040388345718e-02
-1.033888570964336395e-02
1.399762090295553207e-02
-1.508607994765043259e-02
-6.343490444123744965e-03
1.373363006860017776e-02
-1.568830944597721100e-02
-1.357067842036485672e-02
-1.451709121465682983e-02
-4.936997313052415848e-03
-1.223367545753717422e-02
-1.511429529637098312e-02
5.174975842237472534e-03
-2.096442691981792450e-02
-1.837884448468685150e-02
-1.687686599325388670e-04
4.687839187681674957e-03
-1.203246228396892548e-02
-1.496732886880636215e-02
1.450903061777353287e-02
-1.407366245985031128e-02
-7.176168262958526611e-03
8.042774163186550140e-03
-2.055631764233112335e-02
8.854442858137190342e-04
7.864728569984436035e-03
-1.460338383913040161e-02
1.465238817036151886e-02
-1.890852861106395721e-02
-1.536140218377113342e-02
8.086418383754789829e-04
1.213757600635290146e-02
-2.058364078402519226e-02
1.444669626653194427e-02
-1.348605565726757050e-02
1.344348769634962082e-02
-1.053533516824245453e-02
1.342293247580528259e-02
5.174676422029733658e-03
-1.264277752488851547e-02
-1.549693942070007324e-02
-1.384766679257154465e-02
-1.459256932139396667e-02
-1.933183521032333374e-02
-1.477211341261863708e-02
-1.434771157801151276e-02
-9.985542856156826019e-03
-5.010068416595458984e-03
-1.504971552640199661e-02
-1.546806842088699341e-02
-1.015005446970462799e-02
-1.501479465514421463e-02
-1.489931531250476837e-02
-1.088400185108184814e-02
5.909726023674011230e-03
-1.150937564671039581e-02
-2.327846549451351166e-02
-1.566380634903907776e-02
-1.896674279123544693e-03
-2.073983289301395416e-02
1.233134791254997253e-02
1.823567436076700687e-03
2.307004667818546295e-02
-1.618698425590991974e-02
-7.156060542911291122e-03
-1.111053768545389175e-02
-1.772413030266761780e-02
7.343954872339963913e-03
-5.515522789210081100e-03
-1.344572100788354874e-02
-7.109134458005428314e-03
-4.616641439497470856e-03
-1.029023062437772751e-02
-1.844373345375061035e-02
1.948620378971099854e-02
-1.002094242721796036e-02
-1.612875610589981079e-02
-1.530466787517070770e-02
1.274222694337368011e-02
2.478025294840335846e-02
-1.993842609226703644e-02
-1.178100612014532089e-02
-1.880987174808979034e-02
-2.130277268588542938e-02
1.560575561597943306e-03
-1.101574511267244816e-03
1.707402057945728302e-02
-6.576461717486381531e-03
-1.407913397997617722e-02
-3.723361529409885406e-03
-1.002292707562446594e-02
1.370412856340408325e-02
-1.226396206766366959e-02
1.341559085994958878e-02
3.047319874167442322e-02
-1.616124622523784637e-02
-9.746847674250602722e-03
-1.289075892418622971e-02
-1.592138223350048065e-02
1.506397593766450882e-02
6.862282287329435349e-03
9.350837208330631256e-03
-1.742449030280113220e-02
8.568657562136650085e-03
-8.368056267499923706e-03
-1.429426949471235275e-02
-1.889612153172492981e-02
-1.162964291870594025e-02
-1.579734310507774353e-02
-1.070118881762027740e-02
1.231805887073278427e-02
-1.365738734602928162e-02
-8.540390059351921082e-03
-8.274136111140251160e-03
-6.594242993742227554e-03
3.394283819943666458e-03
-8.428841829299926758e-04
3.991226200014352798e-03
-1.141820661723613739e-02
-2.080358192324638367e-02
-2.037016116082668304e-02
-5.037114024162292480e-03
-4.075568635016679764e-03
-2.719318680465221405e-02
2.097841352224349976e-04
6.933208787813782692e-04
-1.553265750408172607e-02
-1.174569409340620041e-02
-1.940446905791759491e-02
-1.675385981798171997e-02
2.964232116937637329e-03
1.353216357529163361e-03
1.165667176246643066e-02
-1.854545809328556061e-02
-1.470205746591091156e-02
2.319861017167568207e-02
1.876697875559329987e-02
-1.670948415994644165e-02
-1.733172871172428131e-02
2.139657549560070038e-02
1.364464219659566879e-02
-1.555049978196620941e-02
-6.411734037101268768e-03
-1.211651228368282318e-02
1.377986837178468704e-02
-2.029539644718170166e-02
-1.678759418427944183e-02
-3.997981548309326172e-03
-1.102485228329896927e-02
-2.021184191107749939e-03
-2.518625929951667786e-03
-1.562199648469686508e-02
-2.005196735262870789e-02
-4.260449204593896866e-03
-6.029292489984072745e-05
2.398675121366977692e-02
-5.398522989707998931e-05
-1.537506654858589172e-02
-1.453340426087379456e-02
-2.212680689990520477e-02
-1.583709754049777985e-02
-9.959978051483631134e-04
-2.109517157077789307e-02
-9.700778871774673462e-03
-1.363714784383773804e-02
-1.689990516752004623e-03
9.741561487317085266e-03
1.372523885220289230e-02
-3.085436765104532242e-03
-5.350046791136264801e-03
-4.275042098015546799e-03
8.283603820018470287e-04
-5.492475465871393681e-04
-3.103794762864708900e-03
5.765537731349468231e-03
3.727257251739501953e-03
-1.955846697092056274e-02
-1.977516897022724152e-02
1.844409666955471039e-02
-5.192071199417114258e-03
-5.603976547718048096e-03
1.046609599143266678e-03
-1.686791516840457916e-02
-9.031215682625770569e-03
-1.463280618190765381e-02
4.171813838183879852e-03
4.122393671423196793e-03
-1.403983868658542633e-02
1.739892549812793732e-02
-7.259077858179807663e-03
-1.175377052277326584e-02
5.601247306913137436e-03
2.404062822461128235e-02
8.550168015062808990e-03
-1.847621425986289978e-02
-1.619903487153351307e-03
-1.121740508824586868e-02
7.022634614259004593e-03
-8.603768423199653625e-03
-2.057425677776336670e-02
-1.499691326171159744e-02
-1.351268310099840164e-02
1.292292587459087372e-02
-1.593174785375595093e-02
-7.478962186723947525e-03
-1.097681280225515366e-02
-1.496657449752092361e-02
-1.520990952849388123e-02
-1.635487563908100128e-02
-1.707664318382740021e-02
1.137600932270288467e-02
-1.120752561837434769e-02
-1.079514622688293457e-02
2.105211652815341949e-02
-1.914805360138416290e-02
-1.626499928534030914e-02
-1.193196978420019150e-02
1.587211526930332184e-02
-1.193973515182733536e-02
-9.662778116762638092e-03
2.460169978439807892e-02
-6.039369851350784302e-03
-2.030743286013603210e-02
6.621317472308874130e-03
-9.315514937043190002e-03
-6.314684869721531868e-04
9.389475453644990921e-04
-1.879595592617988586e-02
-1.298819761723279953e-02
-1.494602207094430923e-02
-1.514811068773269653e-02
-1.094547845423221588e-02
-1.523914933204650879e-02
-7.824600674211978912e-03
-1.493082754313945770e-02
-1.548331882804632187e-02
2.192248031497001648e-02
-9.081738069653511047e-03
1.607473241165280342e-03
-6.716308649629354477e-03
2.341545885428786278e-03
-1.039573829621076584e-02
3.527375636622309685e-03
8.113507181406021118e-03
2.579000545665621758e-03
-1.670450530946254730e-02
8.278315886855125427e-03
-2.110988833010196686e-03
8.214592933654785156e-03
-1.420626509934663773e-02
-1.460446789860725403e-02
-1.479903236031532288e-02
-1.486094016581773758e-02
-1.207446120679378510e-02
-8.973640389740467072e-03
1.311184186488389969e-02
2.609649486839771271e-02
-7.322588935494422913e-03
3.060151077806949615e-02
-1.626158878207206726e-02
-1.316097378730773926e-02
-6.318016909062862396e-03
-1.644961535930633545e-02
-9.387239813804626465e-03
-1.543483324348926544e-02
-1.360941398888826370e-02
-1.612404361367225647e-02
-1.844308525323867798e-02
-1.092930615413933992e-04
-1.745747402310371399e-02
-1.930596306920051575e-02
-3.676564898341894150e-03
-6.803312804549932480e-03
-6.154338363558053970e-03
-1.992219686508178711e-02
-1.045483443886041641e-02
-1.460500899702310562e-02
-6.706865387968719006e-04
2.549029700458049774e-02
-4.499197006225585938e-03
-2.182935737073421478e-02
2.035687305033206940e-02
-1.738047972321510315e-02
1.180117297917604446e-02
-1.957500539720058441e-02
-1.573585346341133118e-02
6.883020978420972824e-04
-6.476225331425666809e-03
-2.191113866865634918e-02
-4.195720423012971878e-03
-1.451828982681035995e-02
-6.270576268434524536e-03
-1.081006042659282684e-02
5.591671215370297432e-04
-1.911286381073296070e-03
-1.619667373597621918e-02
-1.542289741337299347e-02
-1.508590579032897949e-02
-1.685929484665393829e-02
-1.935436762869358063e-02
-1.572529412806034088e-02
-1.470697764307260513e-02
