6.036100536584854126e-02,-1.493217051029205322e-02,-3.031278494745492935e-03,4.947190731763839722e-02,-1.041610538959503174e-02,7.016152143478393555e-02,-5.126115866005420685e-03,-1.486220303922891617e-02,-8.003044873476028442e-03,1.978263258934020996e-02,2.838637493550777435e-02,2.522811293601989746e-02,1.905271969735622406e-02,-1.758983545005321503e-02,-3.146596252918243408e-02,4.491034895181655884e-02,2.194361947476863861e-02,-1.765260356478393078e-03,2.329861186444759369e-02,-4.746725782752037048e-02,4.896137118339538574e-02,1.970405131578445435e-02,2.017204836010932922e-02,-3.161179646849632263e-02,-1.172149740159511566e-02,4.013605415821075439e-02,4.184927046298980713e-02,1.159858237951993942e-02,7.053425908088684082e-02,1.507132966071367264e-02,-3.095919638872146606e-02,2.879290841519832611e-02,-2.160130999982357025e-02,6.447237730026245117e-02,-1.942968741059303284e-02,5.010652542114257812e-02,4.815088957548141479e-02,-6.109391339123249054e-03,-7.580599281936883926e-03,2.488519437611103058e-02,-1.606203988194465637e-02,-2.365550957620143890e-02,-1.636714860796928406e-02,4.843417555093765259e-02,-2.604010514914989471e-02,9.267135523259639740e-03,3.661459311842918396e-02,-1.122508756816387177e-02,3.205104544758796692e-02,3.503547981381416321e-02,5.982866138219833374e-02,-2.831599861383438110e-02,3.046859800815582275e-02,1.742822304368019104e-02,1.736610755324363708e-02,-4.642780125141143799e-02,8.263440430164337158e-02,4.499485343694686890e-02,-3.931915760040283203e-02,-1.671623811125755310e-02,-4.544145613908767700e-02,4.415922984480857849e-02,2.763332985341548920e-02,-9.691682644188404083e-03,-3.338205441832542419e-02,-1.746521331369876862e-02,-3.366639465093612671e-02,-2.220396324992179871e-02,-2.896606456488370895e-03,6.744473427534103394e-02,-4.678892716765403748e-02,3.745243418961763382e-03,5.185572803020477295e-02,-1.278422586619853973e-02,8.718975586816668510e-04,7.706138491630554199e-02,-6.370139867067337036e-02,-5.435714498162269592e-02,-4.456438124179840088e-02,-1.688406616449356079e-02,2.671310491859912872e-02,-7.158014923334121704e-03,-1.451019290834665298e-02,6.582777202129364014e-02,1.416381355375051498e-02,7.528249174356460571e-02,-2.198198996484279633e-02,8.382870815694332123e-03,5.222563818097114563e-02,-2.630928903818130493e-02,-2.854098565876483917e-02,2.064685709774494171e-02,2.406822890043258667e-02,-5.655152257531881332e-03,4.947771504521369934e-02,3.729831054806709290e-02,1.044238079339265823e-02,8.008813485503196716e-03,4.259602632373571396e-03,-1.032829098403453827e-02,-5.152997747063636780e-02,2.087280899286270142e-02,-3.244085982441902161e-02,-6.825652904808521271e-03,1.078291013836860657e-01,-4.084722697734832764e-02,-5.575207993388175964e-02,2.161301672458648682e-02,2.848711796104907990e-02,-9.141012094914913177e-03,2.616122178733348846e-02,-4.701642692089080811e-02,-6.217248737812042236e-03,1.551718171685934067e-02,-9.084504097700119019e-03,8.223938755691051483e-03,6.006552278995513916e-02,7.124534994363784790e-02,3.963418770581483841e-03,-3.332493826746940613e-02,-2.287893369793891907e-02,-8.120879530906677246e-02,-3.831351920962333679e-02,2.015545405447483063e-02,1.731863431632518768e-02,3.022110834717750549e-02,3.303037583827972412e-02,-4.351820796728134155e-02,-4.954310134053230286e-02,4.926141817122697830e-03,3.370302543044090271e-02,5.867310613393783569e-02,5.855978280305862427e-02,-2.299901843070983887e-02,5.895492061972618103e-02,-7.613469660282135010e-02,-1.020649746060371399e-01,1.419719215482473373e-02,-6.301300227642059326e-02,-4.451111704111099243e-02,-5.392518639564514160e-02,-1.488358154892921448e-02,3.214546665549278259e-02,-1.548843365162611008e-02,-9.601759910583496094e-02,2.247719094157218933e-02,-6.254765391349792480e-02,1.368113141506910324e-02,-8.989713340997695923e-02,-3.362431377172470093e-02,-3.529356047511100769e-02,-2.427052147686481476e-02,-2.801256254315376282e-02,-1.421504467725753784e-02,1.261151675134897232e-02,1.769336638972163200e-03,-7.367696613073348999e-03,-1.061790529638528824e-02,6.099457293748855591e-02,5.587256699800491333e-02,3.267165645956993103e-02,4.519288986921310425e-02,-3.474985808134078979e-02,-3.628871636465191841e-03,6.086673587560653687e-02,1.137774717062711716e-02,2.078387886285781860e-02,6.814763695001602173e-02,8.331327885389328003e-02,-6.020662933588027954e-02,1.499083940871059895e-03,-9.302645176649093628e-02,7.217762619256973267e-02,3.591967001557350159e-02,-7.048358023166656494e-02,7.608342170715332031e-02,3.409681841731071472e-02,3.150597587227821350e-02,2.040945738554000854e-02,1.894555799663066864e-02,-4.928340762853622437e-02,-6.304925680160522461e-02,1.464863400906324387e-02,4.050477594137191772e-02,-7.454471290111541748e-02,-3.195851296186447144e-02,-5.537227913737297058e-02,-7.838229089975357056e-02,-3.962425515055656433e-02,-2.956085465848445892e-02,3.955421596765518188e-02,6.058529764413833618e-02,2.864614501595497131e-02,3.797793015837669373e-02,7.052894681692123413e-02,-1.258492562919855118e-02,-3.521537035703659058e-02,-7.276639342308044434e-02,-6.003127200528979301e-04,-9.597555734217166901e-03,-7.699829339981079102e-02,-6.934071332216262817e-02,-6.152067333459854126e-03,-7.492823898792266846e-02,2.412517741322517395e-02,7.325934618711471558e-02,2.029869332909584045e-02,-1.903016865253448486e-02,-1.569859869778156281e-02,2.895854599773883820e-02,-8.379688858985900879e-02,-7.238128781318664551e-02,9.900574572384357452e-03,4.777537658810615540e-02,-9.727172553539276123e-02,1.536590699106454849e-02,8.796562999486923218e-02,-7.939151674509048462e-02,-6.697876006364822388e-02,1.450178679078817368e-02,7.226742804050445557e-02,-1.174507662653923035e-03,-5.822999775409698486e-02,-4.355330392718315125e-02,-1.742102322168648243e-03,-2.705169143155217171e-03,5.765659734606742859e-02,6.511027365922927856e-02,-2.666790224611759186e-02,3.609005361795425415e-02,5.561348423361778259e-02,1.111958641558885574e-02,5.260915309190750122e-02,-5.237967893481254578e-02,6.889953464269638062e-02,-7.428716868162155151e-02,-1.232683807611465454e-01,-4.819654673337936401e-02,1.178883016109466553e-02,2.646292746067047119e-02,-4.147822782397270203e-02,9.836738556623458862e-02,-8.156338334083557129e-02,8.196526020765304565e-02,7.459994405508041382e-02,-5.757359042763710022e-02,-2.046153135597705841e-02,5.719468928873538971e-03,-9.641803801059722900e-03,2.692751027643680573e-02,3.003600426018238068e-02,-5.046368017792701721e-02,1.759882457554340363e-02,-3.512005135416984558e-02,-6.550478190183639526e-02,-9.934268891811370850e-02,-1.648906618356704712e-02,2.613433822989463806e-02,-1.134295947849750519e-02,-2.038845093920826912e-03,2.369677275419235229e-02,-2.578062750399112701e-02,7.245559990406036377e-02,-1.686048135161399841e-02,-8.950103074312210083e-02,-3.901580721139907837e-02,3.776163980364799500e-02,-5.070505291223526001e-02,-2.361318841576576233e-02,1.249849516898393631e-02,5.979219824075698853e-02,6.503734737634658813e-02,2.433734200894832611e-02,-2.672295831143856049e-02,3.280594199895858765e-02,4.672469943761825562e-02,-3.853498399257659912e-02,-5.588723346590995789e-02,-2.231431752443313599e-02,-5.099520552903413773e-03,2.247093059122562408e-02,8.275560685433447361e-04,-1.618989370763301849e-02,-1.191165018826723099e-02,5.517009645700454712e-02,-1.073157787322998047e-02,-2.558009326457977295e-02,8.563286066055297852e-02,-6.230238825082778931e-02,6.526843458414077759e-02,6.293330807238817215e-04,2.890232251957058907e-03,-3.354461491107940674e-02,-4.971076920628547668e-02,-2.113043889403343201e-02,-6.438504904508590698e-02,7.220076397061347961e-03,-4.484835267066955566e-02,-9.925493970513343811e-03,2.797002205625176430e-03,-1.493423711508512497e-02,8.715984411537647247e-03,1.035095080733299255e-01,5.418388172984123230e-02,5.969746410846710205e-02,-2.182123437523841858e-02,4.653040319681167603e-02,1.412132941186428070e-02,-2.750037796795368195e-02,-8.015412092208862305e-02,-4.669848829507827759e-02,-4.609122872352600098e-02,4.710961133241653442e-02,1.119665615260601044e-02,4.049023613333702087e-02,-7.380780577659606934e-02,-3.528032451868057251e-02,-5.587095022201538086e-02,-6.255220156162977219e-03,-2.293310873210430145e-02,1.491925958544015884e-02,-5.512994248420000076e-03,-1.263237372040748596e-02,5.499113467521965504e-04,-4.036317113786935806e-03,4.783584550023078918e-02,-6.663172692060470581e-02,6.683061830699443817e-03,2.947049401700496674e-02,9.137278422713279724e-03,-1.707239821553230286e-02,-5.226856842637062073e-02,-3.191963536664843559e-03,5.068005248904228210e-02,-5.327632185071706772e-03,1.750403642654418945e-02,-6.724330037832260132e-02,3.664973750710487366e-02,5.670984461903572083e-02,-2.506081387400627136e-02,-7.359886914491653442e-02,1.540225464850664139e-02,1.198484795168042183e-03,-4.533621668815612793e-02,3.169726207852363586e-02,5.519492551684379578e-03,5.542661622166633606e-02,-3.504136344417929649e-03,5.328402295708656311e-02,-4.226465895771980286e-02,2.708880417048931122e-02,5.254258587956428528e-02,-2.261122316122055054e-02,-5.270651075989007950e-03,-1.261323597282171249e-02,6.452150642871856689e-02,5.574444681406021118e-02,6.276960950344800949e-03,2.283279970288276672e-02,-2.859153784811496735e-02,4.515586793422698975e-02,-6.277348380535840988e-03,5.454099923372268677e-02,-1.612811908125877380e-02,-3.263170644640922546e-02,-1.753333024680614471e-02,1.961890235543251038e-02,4.962681978940963745e-02,-5.643174424767494202e-02,-8.764049038290977478e-03,5.915968492627143860e-02,-2.812704443931579590e-02,-6.534112244844436646e-02,3.536387532949447632e-02,-3.798802942037582397e-02,5.920624360442161560e-02,-6.389061361551284790e-02,-8.522578328847885132e-02,5.871713906526565552e-02,7.650115340948104858e-02,-2.061702497303485870e-02,-4.086986556649208069e-02,1.965277828276157379e-03,-3.740787040442228317e-03,7.814852148294448853e-02,-3.512102738022804260e-02,-4.417292773723602295e-03,6.462593376636505127e-02,7.158560678362846375e-03,4.906313121318817139e-02,-1.072357408702373505e-02,1.688384078443050385e-02,-6.368394196033477783e-02,-3.356039896607398987e-02,2.889239042997360229e-02,-7.145089656114578247e-02,-5.555998161435127258e-02,3.688820078969001770e-02,-1.306125707924365997e-02,-1.448544580489397049e-02,4.046710953116416931e-02,-6.690297275781631470e-02,4.417145252227783203e-02,2.491146733518689871e-04,-2.396001853048801422e-02,-9.580076672136783600e-03,-5.284801498055458069e-02,4.807145148515701294e-02,-1.119127310812473297e-02,-2.399383578449487686e-03,7.605716236867010593e-04,-1.308719255030155182e-02,6.995957344770431519e-02,-2.854611165821552277e-02,-4.586053639650344849e-02,-1.351805287413299084e-03,-1.718324795365333557e-02,-2.378331869840621948e-02,-1.207606419920921326e-01,1.373610086739063263e-02,1.790991402231156826e-03,-2.108089812099933624e-02,-5.963527411222457886e-02,-1.615318097174167633e-02,-3.498087823390960693e-02,-2.914333529770374298e-02,-2.182890661060810089e-02,-5.753143341280519962e-05,-1.927330158650875092e-02,-1.401223358698189259e-03,-3.672255575656890869e-02,5.013587698340415955e-02,-3.450898453593254089e-02,3.517867252230644226e-02,8.614712394773960114e-03,-3.492761775851249695e-02,-4.211734980344772339e-02,-6.395778059959411621e-02,5.097390711307525635e-02,-5.209147185087203979e-02,4.289403930306434631e-02,-4.923250153660774231e-02,-3.485611826181411743e-02,-2.426680736243724823e-02,-7.076039910316467285e-02,-6.022287905216217041e-02,-7.885187864303588867e-03,-6.586090475320816040e-02,-9.143262170255184174e-03,7.828003913164138794e-02,7.941419258713722229e-03,3.407935798168182373e-02,5.118136480450630188e-02,2.499874308705329895e-02,1.049897912889719009e-02,1.275104284286499023e-02,5.542301759123802185e-02,3.118960745632648468e-02,1.209585927426815033e-02,1.498219370841979980e-02,-5.391184240579605103e-02,-2.739715017378330231e-02,8.506856858730316162e-02,5.284202843904495239e-02,-1.838483288884162903e-02,9.262259118258953094e-03,3.079201839864253998e-02,3.652061149477958679e-02,-8.735951036214828491e-02,1.299790572375059128e-02,-6.300479173660278320e-02,-7.416810840368270874e-02,3.472183644771575928e-02,-1.264734473079442978e-02,1.761641912162303925e-02,-2.629431523382663727e-02,-4.411501809954643250e-02,-6.588676944375038147e-03,5.789896100759506226e-02,5.756796151399612427e-02,-6.262087728828191757e-03,1.948589272797107697e-02,4.609063267707824707e-03,1.487782783806324005e-02,-2.313930913805961609e-02,-4.147179797291755676e-02,6.734853982925415039e-02,3.190369158983230591e-02,2.312164753675460815e-03,-2.680506743490695953e-02,6.350780278444290161e-02,9.558284655213356018e-03,4.684476181864738464e-02,6.937871128320693970e-02,-2.183933928608894348e-02,5.365692079067230225e-03,1.410126686096191406e-02,-7.781886379234492779e-04,-3.926955163478851318e-02,-3.131550922989845276e-02,-5.885130912065505981e-02,8.853061497211456299e-02,-8.249354548752307892e-03,-8.464118465781211853e-03,3.248540684580802917e-02,-1.388297043740749359e-02,5.077124014496803284e-02,5.765691772103309631e-02,-1.053052395582199097e-02,6.493358314037322998e-02,3.801008686423301697e-02,3.790616244077682495e-02
-1.235836930572986603e-02,-3.394271060824394226e-02,1.481116935610771179e-02,-9.200618416070938110e-02,5.996244493871927261e-03,5.421104282140731812e-02,5.616679787635803223e-02,1.875708810985088348e-02,-9.209149330854415894e-02,-5.897663906216621399e-02,6.166209280490875244e-02,3.031014651060104370e-02,-6.823170185089111328e-02,-2.588656358420848846e-02,1.049669459462165833e-02,-2.095227129757404327e-03,3.406714275479316711e-02,2.646409533917903900e-02,1.456065569072961807e-02,-1.203813776373863220e-02,4.145132377743721008e-02,-3.204167261719703674e-02,-8.476729691028594971e-02,6.087603047490119934e-02,5.998652055859565735e-02,3.150583058595657349e-02,-6.016328558325767517e-02,2.101860940456390381e-02,-5.664159357547760010e-02,2.183493413031101227e-02,-3.507487848401069641e-02,4.478986933827400208e-02,3.801864758133888245e-02,1.733471639454364777e-02,-1.410082820802927017e-02,-6.032712385058403015e-02,1.737506873905658722e-02,3.231824189424514771e-02,-1.393412984907627106e-02,2.861761860549449921e-02,-6.407937407493591309e-02,-7.353806495666503906e-02,-7.302636653184890747e-02,-7.210021466016769409e-02,-6.097545847296714783e-02,-6.147615239024162292e-02,3.049331158399581909e-02,4.545786883682012558e-03,-3.417252749204635620e-02,3.015649691224098206e-02,-4.194366186857223511e-02,-2.831136435270309448e-02,9.079634211957454681e-03,-5.339017137885093689e-02,-5.960603058338165283e-02,-2.284994907677173615e-02,-2.994796447455883026e-02,-2.519840840250253677e-03,2.357965102419257164e-03,-9.200053289532661438e-03,-4.923421144485473633e-02,8.361672982573509216e-03,-4.632295295596122742e-02,-8.284565806388854980e-02,-8.014926686882972717e-03,7.714565843343734741e-02,-6.802726536989212036e-03,6.313849985599517822e-02,3.870062902569770813e-02,-1.517693605273962021e-02,1.740060513839125633e-03,7.557508652098476887e-04,-6.542880833148956299e-02,2.442208118736743927e-02,2.866585180163383484e-02,-2.885179221630096436e-02,-5.184487998485565186e-02,2.809845376759767532e-03,2.226912789046764374e-02,4.723916575312614441e-02,-3.827397525310516357e-02,-3.331605345010757446e-02,3.137442097067832947e-02,-7.004104554653167725e-02,4.826072603464126587e-03,7.152035087347030640e-02,4.351086169481277466e-02,5.612702667713165283e-02,7.857245951890945435e-02,-7.467107474803924561e-02,-7.335826754570007324e-02,2.264449745416641235e-02,-3.123961947858333588e-02,4.112394154071807861e-02,2.914098277688026428e-02,1.369701419025659561e-02,-7.073685992509126663e-03,-4.628657922148704529e-02,2.257211878895759583e-02,-2.771065384149551392e-02,-2.515971101820468903e-02,-4.643656685948371887e-02,-5.582790821790695190e-03,6.413685530424118042e-02,-4.311977326869964600e-02,5.670781712979078293e-03,5.737829208374023438e-02,5.671943724155426025e-02,-1.876152306795120239e-02,-2.954919263720512390e-02,3.502197563648223877e-02,-5.146912112832069397e-02,-2.988735213875770569e-02,9.762685745954513550e-03,-4.022752121090888977e-02,2.044391445815563202e-02,2.938936650753021240e-02,4.006686061620712280e-02,3.105922788381576538e-02,-7.422339171171188354e-02,4.214563593268394470e-02,2.923599258065223694e-02,2.197129186242818832e-03,-2.726060338318347931e-02,-3.245760500431060791e-02,6.181698292493820190e-02,5.342019721865653992e-02,3.948482871055603027e-02,-2.813980355858802795e-02,3.562968596816062927e-02,-2.657246030867099762e-02,6.679446995258331299e-02,-8.895982056856155396e-03,3.935633599758148193e-02,-3.370036184787750244e-02,6.698849052190780640e-02,-8.052787184715270996e-02,-4.238718375563621521e-02,5.757115408778190613e-02,-1.192869152873754501e-02,-5.848832800984382629e-02,4.008130356669425964e-02,-2.227471210062503815e-02,-3.353865444660186768e-02,5.355406086891889572e-03,4.191968590021133423e-02,2.948388271033763885e-02,2.981805987656116486e-02,-1.675404980778694153e-02,2.104149200022220612e-02,-2.392283873632550240e-03,1.929556578397750854e-02,-3.982216492295265198e-02,-2.408799901604652405e-02,-1.415904238820075989e-02,2.727628126740455627e-02,3.592988103628158569e-02,6.763003766536712646e-03,-7.189859449863433838e-02,-5.803916975855827332e-02,-3.296051546931266785e-02,-9.345015510916709900e-03,-1.186409406363964081e-02,2.407000027596950531e-02,-4.534250497817993164e-02,2.117883786559104919e-02,1.045702844858169556e-01,5.264315754175186157e-02,3.290412947535514832e-02,9.092221409082412720e-02,1.685737445950508118e-02,-4.177974071353673935e-03,7.402415852993726730e-03,-3.999118134379386902e-02,-6.624773889780044556e-02,-1.113717094995081425e-03,2.693086303770542145e-02,-3.060030750930309296e-02,2.311846986413002014e-02,-8.522697724401950836e-03,-5.682932958006858826e-02,-2.077423781156539917e-02,1.213023904711008072e-02,-1.040796749293804169e-02,5.956417322158813477e-02,3.210288658738136292e-02,3.977944329380989075e-02,-3.903292864561080933e-02,4.556877538561820984e-02,-3.241576626896858215e-02,-2.794297225773334503e-02,6.504236254841089249e-03,1.520596817135810852e-02,-6.737767904996871948e-02,-4.817992448806762695e-02,-1.696288958191871643e-02,8.588968217372894287e-02,-4.202965274453163147e-02,-3.885162249207496643e-02,5.416882038116455078e-02,-5.608206987380981445e-02,5.302414298057556152e-03,-1.099663320928812027e-02,-6.586080044507980347e-02,-7.663019001483917236e-03,-2.833882533013820648e-02,4.512378200888633728e-02,7.117325067520141602e-02,-2.372917253524065018e-03,-6.500450521707534790e-02,-6.390621513128280640e-02,-6.909419596195220947e-02,5.087558925151824951e-02,-8.113932609558105469e-02,1.183131616562604904e-02,7.629083935171365738e-03,-7.409336045384407043e-03,1.729847304522991180e-02,-8.905959129333496094e-02,-2.290480770170688629e-02,-3.026258014142513275e-02,-8.767167478799819946e-02,2.582860924303531647e-02,9.426826238632202148e-02,7.313789799809455872e-03,5.914103984832763672e-02,-1.373961102217435837e-02,-2.069328725337982178e-02,2.135446853935718536e-02,-8.586811833083629608e-03,-4.388734325766563416e-02,5.353206768631935120e-02,-6.197401508688926697e-02,-5.359413102269172668e-03,-7.619506213814020157e-03,1.410602778196334839e-02,4.294889792799949646e-02,2.815965935587882996e-02,-2.658393932506442070e-03,2.643071301281452179e-02,-1.430495548993349075e-02,5.594613030552864075e-02,-1.508523616939783096e-02,-1.391812320798635483e-02,-5.219975486397743225e-02,-3.760035708546638489e-02,-7.041968405246734619e-02,5.253116413950920105e-02,8.553850650787353516e-02,-4.692516475915908813e-02,3.131272271275520325e-02,-8.371593803167343140e-02,7.668140530586242676e-02,2.542873471975326538e-02,3.677462413907051086e-02,-2.175025269389152527e-02,-1.943787001073360443e-02,-2.970354817807674408e-02,-3.308055223897099495e-03,-5.167755298316478729e-03,-6.569698452949523926e-02,8.220265619456768036e-03,-4.612787067890167236e-02,-3.697263449430465698e-02,-3.940507303923368454e-04,3.330319002270698547e-02,-4.201312549412250519e-03,-3.009252622723579407e-02,2.115383930504322052e-02,4.508233815431594849e-02,4.955292120575904846e-02,1.431486383080482483e-02,3.323094919323921204e-02,-4.609884321689605713e-02,-3.424265235662460327e-02,2.819926477968692780e-02,-5.518779158592224121e-02,-1.505404524505138397e-02,-4.259504377841949463e-02,2.532480098307132721e-02,-5.879205092787742615e-02,-4.929490014910697937e-02,2.172880247235298157e-02,-5.630624666810035706e-02,-2.477011829614639282e-02,7.616903632879257202e-02,-9.379590861499309540e-03,-6.105570867657661438e-02,-1.612801849842071533e-02,6.514815241098403931e-02,-3.521369025111198425e-02,-2.858111448585987091e-02,3.283321112394332886e-02,-3.808666020631790161e-02,3.392425179481506348e-02,-2.384355664253234863e-02,-2.284497953951358795e-02,-8.622720837593078613e-02,2.364102192223072052e-02,2.717040292918682098e-02,6.410377100110054016e-03,-9.528218768537044525e-03,-7.478489726781845093e-02,2.943961881101131439e-02,-5.062271282076835632e-02,4.229975119233131409e-02,5.676554143428802490e-02,-1.454386394470930099e-02,4.772271215915679932e-02,2.211312577128410339e-02,-8.322234451770782471e-02,-2.202965691685676575e-02,-7.357236742973327637e-02,7.190825790166854858e-02,-6.121247634291648865e-02,4.358972981572151184e-02,7.316756993532180786e-03,-5.778702720999717712e-02,-8.262687921524047852e-02,2.970991283655166626e-02,-1.263458654284477234e-02,-3.420926257967948914e-02,5.182087793946266174e-02,5.303106456995010376e-02,-8.843296021223068237e-02,6.855586916208267212e-02,-6.161282584071159363e-02,-4.147934168577194214e-02,-4.762468487024307251e-02,2.314637787640094757e-02,2.077274210751056671e-02,-4.368616640567779541e-02,-8.656903356313705444e-02,-4.745342209935188293e-02,-4.340130463242530823e-02,5.610500276088714600e-02,5.247583612799644470e-02,-5.944860749877989292e-04,4.900002852082252502e-02,-1.912498101592063904e-02,-6.666092574596405029e-02,4.461860284209251404e-02,-3.512579575181007385e-02,2.916514500975608826e-02,5.678246170282363892e-02,-6.298448890447616577e-02,-7.959227263927459717e-02,3.346099331974983215e-02,-7.247417420148849487e-02,-6.520236842334270477e-03,6.396155059337615967e-02,8.527018129825592041e-02,-8.069959469139575958e-03,3.621539473533630371e-02,-7.451274245977401733e-02,5.328133702278137207e-02,-1.675345934927463531e-02,-1.448549889028072357e-02,3.091644681990146637e-02,-4.654855281114578247e-02,-3.479629755020141602e-02,3.593411669135093689e-02,5.164502933621406555e-02,3.336232388392090797e-03,-6.786941085010766983e-03,-3.233379125595092773e-02,6.812816858291625977e-02,-6.095863878726959229e-02,6.022457405924797058e-02,-8.818282186985015869e-02,4.441965371370315552e-02,-5.759094841778278351e-03,1.602855138480663300e-02,3.434192016720771790e-02,-3.523192927241325378e-02,-3.831844776868820190e-02,4.025066271424293518e-02,1.278925314545631409e-02,-5.654750391840934753e-03,3.477816283702850342e-02,6.475318223237991333e-02,-1.930560451000928879e-03,4.679161682724952698e-02,-1.900555193424224854e-02,2.531239762902259827e-02,-4.156463593244552612e-02,5.944543983787298203e-03,-6.211631465703248978e-03,8.454846218228340149e-03,1.340403407812118530e-02,-7.145339995622634888e-02,6.389180570840835571e-02,6.366914510726928711e-02,-4.408393055200576782e-02,2.903115749359130859e-02,-5.126476287841796875e-02,6.237662583589553833e-02,-2.944117784500122070e-02,8.775657415390014648e-02,3.466766700148582458e-02,-4.505391046404838562e-02,-2.232642611488699913e-03,-4.923096299171447754e-02,-7.344329357147216797e-02,-2.524087030906230211e-04,-4.481625184416770935e-02,2.188855968415737152e-02,5.788005888462066650e-02,-4.340171441435813904e-02,-1.582664065062999725e-02,-4.102619364857673645e-02,-6.123441085219383240e-02,7.525710761547088623e-02,-4.148367419838905334e-02,4.943174868822097778e-02,-7.216373831033706665e-02,5.758029967546463013e-02,-4.141827300190925598e-02,-8.758847415447235107e-02,2.145849913358688354e-02,3.665772965177893639e-03,-1.770183071494102478e-02,-4.746570065617561340e-02,-5.503904446959495544e-02,-5.836341157555580139e-02,6.344541907310485840e-03,-5.119626596570014954e-02,5.764409154653549194e-02,-1.688962429761886597e-02,1.899754442274570465e-02,-1.962763257324695587e-02,-5.703416839241981506e-02,3.158719465136528015e-02,1.261109672486782074e-02,-3.301467001438140869e-02,2.878198586404323578e-02,7.920302450656890869e-03,-6.824142485857009888e-02,-6.232290714979171753e-02,5.685336887836456299e-02,-3.508529812097549438e-02,3.872132673859596252e-02,2.090848749503493309e-03,6.233294843696057796e-04,-5.090139433741569519e-02,-1.408877316862344742e-02,-8.174047619104385376e-02,-1.660165749490261078e-02,2.363735809922218323e-03,-3.979526087641716003e-02,9.190998971462249756e-03,1.199866458773612976e-02,-2.721014991402626038e-02,5.514295399188995361e-02,-9.344229474663734436e-03,-5.720565095543861389e-02,4.493683576583862305e-02,-4.631423857063055038e-03,-1.106995064765214920e-02,4.470616206526756287e-02,-3.629986662417650223e-03,6.682285666465759277e-02,-9.491020441055297852e-02,-4.318970814347267151e-02,-5.690446123480796814e-02,2.800722420215606689e-02,-1.610057987272739410e-02,4.984491690993309021e-02,4.017104208469390869e-02,-6.998735666275024414e-02,-8.078700304031372070e-02,3.267608582973480225e-02,-3.375453874468803406e-02,-2.720829285681247711e-02,-7.102267444133758545e-02,1.411848980933427811e-02,6.866444647312164307e-02,-5.619949195533990860e-03,1.436392311006784439e-02,6.140343844890594482e-02,-8.549321442842483521e-02,-6.027422100305557251e-02,-3.922662511467933655e-02,-3.104862943291664124e-02,-1.950698718428611755e-02,4.725190252065658569e-02,-3.812325000762939453e-02,-2.925208210945129395e-02,5.135073140263557434e-02,2.782577835023403168e-02,-3.104773908853530884e-02,5.266913771629333496e-02,-4.592373594641685486e-02,8.288571611046791077e-03,1.750145852565765381e-02,9.843176230788230896e-03,-2.320453990250825882e-03,5.423865094780921936e-02,-4.303342720959335566e-04,4.692428931593894958e-02,-7.275378704071044922e-02,-1.558602787554264069e-02,8.222702890634536743e-02,4.607705026865005493e-02,-5.573605746030807495e-02,6.699816882610321045e-02,-3.427821211516857147e-03,-2.397596463561058044e-02,3.987274691462516785e-02,-3.158009052276611328e-02,-2.936651185154914856e-02,-2.458940632641315460e-02
7.050000131130218506e-02,3.011599765159189701e-04,-1.739391498267650604e-02,5.000533163547515869e-02,2.785062976181507111e-02,6.477431207895278931e-02,3.205994144082069397e-02,4.391980543732643127e-02,-6.811009347438812256e-02,-5.316027905791997910e-03,4.450579639524221420e-03,4.564897343516349792e-02,-7.086948305368423462e-02,1.615695655345916748e-02,-3.580708801746368408e-02,-7.245549559593200684e-02,-4.815183952450752258e-02,4.113695025444030762e-02,2.307658270001411438e-02,-4.729124531149864197e-02,-4.695862904191017151e-02,-6.407314538955688477e-02,-7.932503521442413330e-02,4.812042787671089172e-02,-4.366144910454750061e-02,-6.200788542628288269e-02,-2.675682865083217621e-02,2.562833949923515320e-02,-3.493903204798698425e-02,-2.193023450672626495e-02,7.280384749174118042e-02,-5.753453820943832397e-02,2.239741571247577667e-02,-3.240022063255310059e-02,-6.198133900761604309e-02,-1.185936946421861649e-02,3.232799842953681946e-02,-9.481434710323810577e-03,4.010165110230445862e-02,6.713414937257766724e-02,-3.466537967324256897e-02,5.425253137946128845e-02,1.173687633126974106e-02,-5.896703526377677917e-02,4.933664947748184204e-02,-2.262223511934280396e-03,3.506425023078918457e-02,-6.015564501285552979e-02,-8.295281231403350830e-02,-2.187575399875640869e-02,4.373160004615783691e-02,2.793886885046958923e-02,-8.102005720138549805e-02,-2.823488973081111908e-02,2.949008345603942871e-02,2.267017960548400879e-02,1.902107032947242260e-03,-6.268561631441116333e-02,-2.478246577084064484e-02,-1.125534996390342712e-02,-6.427700817584991455e-02,7.609283784404397011e-04,-8.281885832548141479e-02,3.102735988795757294e-02,-5.795743316411972046e-02,5.358007922768592834e-02,-2.826006524264812469e-02,-7.874421030282974243e-02,-1.789864152669906616e-02,3.096259012818336487e-02,2.205950953066349030e-02,3.252774477005004883e-02,2.121486142277717590e-02,6.193806976079940796e-02,-6.026957184076309204e-02,-5.761973932385444641e-02,-2.475787326693534851e-02,2.792651019990444183e-02,2.884379588067531586e-02,3.766858950257301331e-02,-4.093145579099655151e-02,-5.819458141922950745e-02,-6.242448091506958008e-02,-2.319270931184291840e-02,-1.530289556831121445e-02,-4.237455874681472778e-02,-1.812990382313728333e-02,-2.123643830418586731e-02,6.620768457651138306e-02,5.902092158794403076e-02,1.619864441454410553e-02,8.717129006981849670e-03,5.058222264051437378e-02,-5.157697573304176331e-02,-7.100101560354232788e-02,1.219596154987812042e-02,-8.296342194080352783e-02,-2.966535650193691254e-02,-3.489672765135765076e-02,7.798863947391510010e-02,8.604402653872966766e-03,-3.533895686268806458e-02,-6.888198852539062500e-02,-5.344530567526817322e-02,8.072849363088607788e-03,5.914775282144546509e-02,1.334163080900907516e-02,-1.143180113285779953e-02,4.277024045586585999e-02,-5.772812664508819580e-02,5.144935846328735352e-02,5.286917835474014282e-02,-6.209380924701690674e-02,-8.067521452903747559e-02,4.774875193834304810e-02,2.663760632276535034e-02,1.866162009537220001e-02,4.269734770059585571e-02,-1.525748614221811295e-02,-5.254013091325759888e-02,-6.709654629230499268e-02,-2.143162535503506660e-03,2.102273749187588692e-03,1.927654258906841278e-02,1.588839851319789886e-02,5.650920048356056213e-02,1.627288758754730225e-02,-2.576081454753875732e-02,7.886052131652832031e-02,2.426561526954174042e-02,8.723767846822738647e-02,5.528102815151214600e-02,1.244775601662695408e-03,5.416598543524742126e-02,-7.770731300115585327e-02,-4.386108368635177612e-02,7.181959599256515503e-02,4.957804083824157715e-02,4.849670454859733582e-02,4.970229044556617737e-02,-3.765188530087471008e-02,-7.037893682718276978e-02,-6.575695425271987915e-02,7.825952023267745972e-02,-7.705700397491455078e-02,-6.131139025092124939e-02,-2.645019255578517914e-02,-7.461165636777877808e-02,-6.489270180463790894e-02,-1.595997996628284454e-02,-6.419242173433303833e-02,2.762136282399296761e-04,7.750580459833145142e-02,5.240894854068756104e-03,3.471873328089714050e-02,6.922673434019088745e-02,-7.442315667867660522e-02,5.761409923434257507e-02,-4.251173511147499084e-02,7.959901541471481323e-02,-8.224261552095413208e-02,1.394370757043361664e-02,4.151769727468490601e-02,-9.232810884714126587e-02,-7.633858919143676758e-02,-3.092701919376850128e-02,1.180077996104955673e-02,-3.589068353176116943e-02,7.190345972776412964e-02,-1.206841412931680679e-02,-7.793684490025043488e-03,3.156477585434913635e-02,-5.484403297305107117e-02,2.086865343153476715e-02,5.851104483008384705e-02,5.237058550119400024e-02,4.392565414309501648e-02,-2.754918858408927917e-02,-1.689452328719198704e-03,1.280105300247669220e-02,-2.414350397884845734e-02,-3.832688182592391968e-02,-7.597695291042327881e-02,5.057114735245704651e-02,1.215304993093013763e-02,2.202734164893627167e-02,-6.919297575950622559e-02,4.743888042867183685e-03,9.516736119985580444e-02,6.318260729312896729e-02,-4.954422637820243835e-02,-9.454322978854179382e-03,6.354170292615890503e-02,9.033419191837310791e-02,-4.374381899833679199e-02,5.684423446655273438e-02,-8.166893571615219116e-02,-2.616259269416332245e-02,-7.629422005265951157e-03,2.832686714828014374e-02,-2.399440854787826538e-03,5.872347950935363770e-02,4.797115921974182129e-02,-3.104963153600692749e-02,7.293375674635171890e-03,-2.401825040578842163e-02,7.345915585756301880e-02,8.616196922957897186e-03,6.708985567092895508e-02,1.954925619065761566e-02,-4.614308848977088928e-02,6.556545197963714600e-02,1.903512515127658844e-02,-7.588426023721694946e-02,-3.030433692038059235e-02,-3.963817656040191650e-02,1.337276585400104523e-02,-2.281349385157227516e-03,5.751242116093635559e-02,-1.564447581768035889e-02,1.239884365350008011e-02,-6.213795021176338196e-02,-1.050250977277755737e-02,-6.190152093768119812e-02,-2.942071855068206787e-02,1.464954670518636703e-02,-5.225479230284690857e-02,9.975363314151763916e-02,1.302314735949039459e-02,-3.617354854941368103e-02,1.335151400417089462e-02,1.520943734794855118e-02,-6.225177273154258728e-02,-5.453101918101310730e-02,3.375405445694923401e-03,-3.686743229627609253e-02,-5.639462918043136597e-02,-7.678940147161483765e-02,-1.373752392828464508e-02,5.954698473215103149e-02,-5.307646468281745911e-02,-7.100440561771392822e-02,6.598657369613647461e-02,4.279827699065208435e-02,-3.198587149381637573e-02,-2.618615515530109406e-02,5.157671123743057251e-02,-1.187525689601898193e-02,-3.656989894807338715e-03,-3.863637521862983704e-02,-8.235702663660049438e-02,-8.403263986110687256e-02,1.021926198154687881e-02,-6.596038490533828735e-02,2.014362066984176636e-02,8.342158794403076172e-02,6.154019758105278015e-02,-4.581186175346374512e-02,-2.916991896927356720e-02,-1.945362053811550140e-02,-2.800711616873741150e-02,4.876671358942985535e-02,1.240616571158170700e-02,-4.298542812466621399e-02,-3.469837829470634460e-02,-4.452552646398544312e-02,-4.719565436244010925e-02,5.577062815427780151e-02,3.495526313781738281e-02,-5.025661084800958633e-05,1.729423552751541138e-02,-8.159308880567550659e-02,-5.823478475213050842e-02,-3.736541420221328735e-02,-3.449706733226776123e-02,-3.932863846421241760e-02,3.227926418185234070e-02,2.341561950743198395e-02,1.079021673649549484e-02,-5.689385905861854553e-02,3.731977567076683044e-02,-8.392266929149627686e-02,3.213030099868774414e-02,-2.085543051362037659e-02,-1.189351640641689301e-02,-1.288448274135589600e-02,3.322068601846694946e-02,-2.276461943984031677e-02,-4.631293937563896179e-02,-1.541471481323242188e-02,4.585265647619962692e-03,1.673666201531887054e-02,-4.490999504923820496e-02,-4.074645414948463440e-02,-1.870792824774980545e-03,5.725926160812377930e-02,-4.342572763562202454e-02,2.632297575473785400e-03,-6.325618177652359009e-02,6.970713380724191666e-03,-1.949609816074371338e-02,-4.029413685202598572e-02,1.047690492123365402e-02,4.631698876619338989e-02,-4.988982900977134705e-02,-4.147170856595039368e-02,-4.815585166215896606e-02,2.448605000972747803e-02,2.728586085140705109e-02,-5.512071400880813599e-02,-2.800647355616092682e-02,-3.350747749209403992e-02,5.891166627407073975e-02,4.257705435156822205e-02,-8.970233052968978882e-02,3.073639608919620514e-02,3.949867561459541321e-02,-7.848569750785827637e-02,-2.942117117345333099e-02,-6.814908236265182495e-02,3.339270129799842834e-02,-5.148213356733322144e-02,5.153224617242813110e-02,2.866102196276187897e-02,-5.384598299860954285e-02,5.644356831908226013e-02,-1.983219198882579803e-02,-2.429948002099990845e-02,-1.826794818043708801e-02,-6.106467917561531067e-02,4.098493605852127075e-03,4.557816311717033386e-02,2.858585864305496216e-02,-6.075332686305046082e-02,4.223653301596641541e-02,7.782213389873504639e-02,-6.457398831844329834e-02,3.736097365617752075e-02,2.865965850651264191e-02,-8.239686489105224609e-03,3.801736049354076385e-03,-5.312226340174674988e-02,-2.277069725096225739e-02,-1.293792575597763062e-02,-1.682315766811370850e-02,-6.290835794061422348e-03,-5.792655423283576965e-02,3.110336698591709137e-02,1.514390483498573303e-02,4.069409891963005066e-02,4.673785716295242310e-02,-3.417456150054931641e-02,-5.793361365795135498e-02,-7.630287855863571167e-02,1.268513686954975128e-02,-3.037800639867782593e-02,-1.713942363858222961e-02,-2.321341820061206818e-02,-6.926404684782028198e-02,1.675747148692607880e-02,-3.626195341348648071e-02,-6.746296584606170654e-02,6.514246016740798950e-02,2.961650304496288300e-02,-6.170849874615669250e-02,5.285241454839706421e-02,-7.359072566032409668e-03,2.598970383405685425e-02,5.370438843965530396e-02,4.806851595640182495e-02,-1.237477920949459076e-02,1.917408034205436707e-02,-1.529331505298614502e-02,-4.052797332406044006e-02,2.820273116230964661e-02,-3.013292141258716583e-02,2.915700897574424744e-02,-5.755928903818130493e-02,2.550640702247619629e-02,4.108786582946777344e-02,4.355625808238983154e-02,6.380716711282730103e-02,5.118416994810104370e-02,2.345705963671207428e-02,-6.564112007617950439e-02,-6.260715425014495850e-02,-8.373092859983444214e-03,4.381231591105461121e-02,-7.576470077037811279e-02,4.665338620543479919e-02,-2.569507807493209839e-02,2.335806749761104584e-02,5.302811041474342346e-02,-1.377534586936235428e-02,1.791513408534228802e-03,-7.611481845378875732e-02,4.022138193249702454e-02,3.443926572799682617e-02,-4.125537350773811340e-03,-6.297425180673599243e-02,-6.848323345184326172e-02,1.339614484459161758e-02,2.394566126167774200e-02,5.449622496962547302e-02,4.447950795292854309e-02,6.050040945410728455e-03,-5.440277978777885437e-02,-6.470762938261032104e-02,-5.845972895622253418e-02,-3.623442724347114563e-02,5.326147750020027161e-02,7.388542871922254562e-03,2.838288620114326477e-02,-4.252607375383377075e-02,-3.755857795476913452e-02,7.634633802808821201e-04,4.667209461331367493e-02,-4.307295382022857666e-02,-7.656373828649520874e-02,1.358226407319307327e-02,1.258458103984594345e-02,1.273011229932308197e-02,-4.404560849070549011e-02,5.051202024333178997e-04,6.043894961476325989e-02,-8.015622943639755249e-02,2.413705736398696899e-02,-7.863681763410568237e-02,-6.435436010360717773e-02,-3.797723352909088135e-02,1.893802732229232788e-02,-6.768424995243549347e-03,-1.895913854241371155e-02,1.570443436503410339e-02,3.435793146491050720e-02,-5.853706970810890198e-02,2.672548033297061920e-02,2.612373605370521545e-02,-5.796105414628982544e-02,-3.579837083816528320e-02,-3.629287704825401306e-02,-7.374840229749679565e-02,4.388336464762687683e-02,2.366621792316436768e-02,-1.953028887510299683e-02,6.854680180549621582e-02,-8.967725932598114014e-02,1.699483953416347504e-02,-5.020516738295555115e-02,-5.490704625844955444e-02,-4.754282999783754349e-03,-2.175184665247797966e-03,-8.964363485574722290e-02,-1.000450644642114639e-02,-8.394064754247665405e-02,-1.999269425868988037e-02,3.462359681725502014e-02,8.122579008340835571e-02,1.429568137973546982e-02,8.184703998267650604e-03,-7.617726176977157593e-02,-1.432496495544910431e-02,4.254722222685813904e-02,7.647693902254104614e-02,-5.791268497705459595e-02,-1.153240795247256756e-03,-2.172300778329372406e-02,-4.041022062301635742e-02,-1.973874121904373169e-02,-2.080617286264896393e-02,-1.738133653998374939e-02,-1.750808954238891602e-02,-3.941420465707778931e-02,3.745856508612632751e-02,4.858718439936637878e-02,-2.195639908313751221e-02,9.499750100076198578e-03,7.385483477264642715e-03,1.850194111466407776e-02,4.117387160658836365e-02,-2.570778317749500275e-02,-4.514459148049354553e-02,-8.540733158588409424e-02,-5.563798174262046814e-02,-5.573059245944023132e-02,-4.911318887025117874e-03,-3.820044174790382385e-02,4.709983617067337036e-02,1.308087911456823349e-02,-6.137843430042266846e-02,-5.930344015359878540e-02,-5.562183260917663574e-02,7.524029933847486973e-04,-7.600634358823299408e-03,5.059709772467613220e-02,-3.224971005693078041e-03,4.844549298286437988e-02,6.394548714160919189e-02,-3.947209194302558899e-02,-9.275104850530624390e-02,-3.597543016076087952e-02,-1.114629581570625305e-02,3.231694549322128296e-02,-4.028153792023658752e-02,-4.003075882792472839e-02,-5.507543310523033142e-02,4.449013248085975647e-02,-3.187082940712571144e-03,3.318154439330101013e-02,6.716502457857131958e-02,-5.452218651771545410e-02,5.087717995047569275e-02
-7.157720625400543213e-02,-2.894784696400165558e-02,1.364211272448301315e-02,-6.053388863801956177e-02,7.549800723791122437e-02,1.076521631330251694e-02,6.851070560514926910e-03,-2.319598104804754257e-03,1.904444955289363861e-02,5.295999720692634583e-02,-1.460024621337652206e-02,5.308143794536590576e-02,-2.932559698820114136e-02,4.207157343626022339e-02,2.494408935308456421e-02,-3.734776750206947327e-02,-3.495847433805465698e-02,1.577260531485080719e-02,-2.640989795327186584e-02,-2.690112218260765076e-02,-5.331806093454360962e-02,3.775638993829488754e-03,-5.012625083327293396e-02,-1.809151656925678253e-02,-4.487451538443565369e-02,-1.011535618454217911e-02,8.283200114965438843e-02,-1.195089425891637802e-02,8.711729198694229126e-03,5.290750041604042053e-02,-4.526432231068611145e-02,-5.087082460522651672e-02,-1.426479406654834747e-02,-7.771203294396400452e-03,3.523464500904083252e-02,1.535817142575979233e-02,-4.114909097552299500e-02,6.839987635612487793e-02,-4.915877431631088257e-02,2.798423636704683304e-03,6.903949379920959473e-02,-3.517876612022519112e-04,-3.558130562305450439e-02,9.142083674669265747e-02,-5.243866145610809326e-02,2.507409639656543732e-02,-6.816906481981277466e-02,-5.519627034664154053e-02,-4.770584031939506531e-02,2.528559044003486633e-02,-6.435862183570861816e-02,1.498352829366922379e-02,6.361414492130279541e-02,3.882364556193351746e-02,6.221937760710716248e-02,7.568357884883880615e-02,-5.009767040610313416e-02,5.118403211236000061e-02,7.872186601161956787e-02,6.595759093761444092e-02,-8.032628893852233887e-02,2.641048096120357513e-02,8.871994912624359131e-02,9.057555347681045532e-02,-4.243139550089836121e-02,4.943806678056716919e-02,-2.695971913635730743e-02,-6.896166130900382996e-03,4.275114089250564575e-02,-2.056777663528919220e-02,5.803289264440536499e-02,-5.637729912996292114e-02,-7.790768984705209732e-03,2.144905366003513336e-02,-6.779745966196060181e-02,-4.834682866930961609e-02,9.222529083490371704e-02,-1.275834254920482635e-02,1.022691745311021805e-02,-5.308246612548828125e-02,5.324326921254396439e-03,3.494523465633392334e-02,-1.562040951102972031e-02,1.095114927738904953e-02,-3.438909724354743958e-02,5.286726355552673340e-02,3.969598188996315002e-02,-2.723252959549427032e-02,-5.325227230787277222e-02,-7.093480974435806274e-02,-3.061150386929512024e-02,2.827324531972408295e-02,-5.474103242158889771e-02,7.339901290833950043e-03,2.723260782659053802e-02,-2.204537950456142426e-02,3.213202580809593201e-02,4.618171229958534241e-02,-4.529585689306259155e-02,-6.178484857082366943e-02,2.200178988277912140e-02,-1.531552802771329880e-02,7.004528492689132690e-02,-1.915350556373596191e-03,-4.850394651293754578e-02,-1.683815941214561462e-02,-1.165522728115320206e-02,6.890548020601272583e-02,-1.173474360257387161e-02,-6.637214124202728271e-02,2.979978546500205994e-02,5.313906446099281311e-02,-6.854966282844543457e-02,-4.900634661316871643e-02,2.853586152195930481e-02,4.131527151912450790e-03,-2.784443274140357971e-02,2.372311800718307495e-02,-2.756483480334281921e-02,3.839417919516563416e-02,-2.545922761783003807e-04,8.760570734739303589e-02,8.676238358020782471e-02,-8.136699348688125610e-02,7.104476541280746460e-02,-9.715327993035316467e-03,6.071141362190246582e-02,6.914542615413665771e-02,-7.481458783149719238e-02,-2.203330770134925842e-02,-5.358584970235824585e-02,-3.117462061345577240e-02,7.801826298236846924e-02,2.388660050928592682e-02,-3.483574464917182922e-02,7.016828656196594238e-02,8.703478425741195679e-02,4.469565674662590027e-02,1.689137518405914307e-02,7.569666206836700439e-02,-8.839216083288192749e-02,7.551326602697372437e-02,2.917186915874481201e-02,3.536011558026075363e-03,5.250430107116699219e-02,-5.228614434599876404e-03,-2.660259045660495758e-02,-7.322807610034942627e-02,4.813260585069656372e-02,-6.223504990339279175e-02,-4.758026823401451111e-02,1.010133698582649231e-01,-7.155136018991470337e-02,5.237411707639694214e-02,4.698517173528671265e-02,7.606423646211624146e-02,5.625478550791740417e-02,-5.308788269758224487e-02,2.277040667831897736e-02,6.759203225374221802e-02,-5.270795524120330811e-02,-4.388958960771560669e-02,1.279342453926801682e-02,6.392438709735870361e-02,4.977166280150413513e-02,7.742977142333984375e-02,-8.414401859045028687e-02,-1.512098219245672226e-02,1.858412660658359528e-02,-5.397785571403801441e-04,-1.767857186496257782e-02,-2.875456586480140686e-02,-2.357309125363826752e-02,-2.809787541627883911e-02,7.887632399797439575e-02,-5.616735294461250305e-02,-6.051694601774215698e-02,-1.867461204528808594e-02,6.107282266020774841e-02,2.564556337893009186e-02,-6.432578898966312408e-03,7.814753800630569458e-02,-3.373013064265251160e-02,5.478737503290176392e-02,-7.930177450180053711e-02,-7.741968333721160889e-02,-7.265248149633407593e-02,-2.139341272413730621e-02,-8.072958886623382568e-02,8.212800323963165283e-02,-4.387920349836349487e-02,5.187514051795005798e-02,-4.182469472289085388e-02,-6.433199346065521240e-02,-6.027978658676147461e-02,-5.597612261772155762e-02,-6.019213795661926270e-02,4.526579007506370544e-02,-3.353795735165476799e-03,-2.579671144485473633e-02,6.636171042919158936e-02,-9.191587567329406738e-02,-1.221436914056539536e-02,4.993437230587005615e-02,7.325270026922225952e-02,-4.429184831678867340e-03,4.414526280015707016e-03,-2.427091076970100403e-02,7.915209978818893433e-02,-8.028470724821090698e-02,-1.509216963313519955e-03,-4.077442362904548645e-02,-7.240409404039382935e-02,5.324793979525566101e-02,-6.095015630125999451e-02,5.071215704083442688e-02,3.355358913540840149e-02,-1.979963667690753937e-02,-1.056398823857307434e-02,5.147684365510940552e-03,6.249812245368957520e-02,2.792189642786979675e-02,1.360190287232398987e-02,-5.326572805643081665e-02,7.568494975566864014e-02,-1.963931694626808167e-02,7.076885551214218140e-02,-4.958405345678329468e-02,8.009483665227890015e-02,-8.739887177944183350e-02,9.487965703010559082e-02,9.529905393719673157e-03,1.794721558690071106e-02,-8.847754448652267456e-02,-8.234377950429916382e-02,6.325367838144302368e-02,1.149278832599520683e-03,1.165824290364980698e-02,-6.358253210783004761e-02,-2.342452853918075562e-02,6.319274008274078369e-02,-6.807161122560501099e-02,3.220417350530624390e-02,5.056025832891464233e-02,1.017338633537292480e-01,-7.773640006780624390e-02,3.920419886708259583e-02,4.429833963513374329e-02,7.253281027078628540e-02,-4.641604050993919373e-02,-2.080498263239860535e-02,6.519732624292373657e-02,-6.140779703855514526e-02,-1.159313134849071503e-02,1.674578897655010223e-02,-8.962396532297134399e-02,-4.258570447564125061e-02,-7.689428981393575668e-03,2.662309445440769196e-02,4.744147509336471558e-02,7.672072201967239380e-02,-3.234306722879409790e-02,-3.977295383810997009e-02,7.437289506196975708e-02,-2.856912091374397278e-02,4.351332038640975952e-02,-4.530320316553115845e-02,-6.039837375283241272e-03,3.515305742621421814e-02,-6.688132882118225098e-02,-3.427819907665252686e-02,9.349543601274490356e-02,-3.122151456773281097e-02,6.299259513616561890e-02,-3.794755414128303528e-02,3.066772595047950745e-02,7.747714221477508545e-02,1.782822608947753906e-02,1.326539181172847748e-02,-4.266764596104621887e-02,1.537165604531764984e-02,1.057048514485359192e-01,8.713583648204803467e-02,-3.724260255694389343e-02,4.118089377880096436e-02,-9.536892175674438477e-03,-7.665314525365829468e-02,7.492467761039733887e-02,-4.337955638766288757e-02,-7.331217080354690552e-02,-1.522596273571252823e-02,-5.607987567782402039e-02,-1.873608119785785675e-02,7.881974801421165466e-03,7.873004674911499023e-02,-2.117909118533134460e-02,4.578257445245981216e-03,5.315153300762176514e-02,-1.958325132727622986e-02,-6.638239324092864990e-02,6.912831217050552368e-02,-4.140596836805343628e-02,-7.023685425519943237e-02,9.716577082872390747e-02,5.639493092894554138e-02,1.509245485067367554e-02,5.858857929706573486e-02,-4.804470017552375793e-02,1.161821559071540833e-02,2.431989833712577820e-02,-4.386547952890396118e-02,-4.629584401845932007e-02,5.442586913704872131e-02,9.562565013766288757e-03,8.367385715246200562e-03,7.730238884687423706e-02,-6.266309320926666260e-02,2.943237125873565674e-02,2.398123033344745636e-02,6.399776786565780640e-02,-1.867998950183391571e-02,5.707649141550064087e-02,3.148480551317334175e-03,-2.433145232498645782e-02,9.948098659515380859e-02,-3.970954567193984985e-02,-2.436737902462482452e-02,2.636303380131721497e-02,9.474322944879531860e-02,2.995853684842586517e-02,-2.514897100627422333e-02,3.532765805721282959e-02,-5.423893220722675323e-03,-7.383646070957183838e-02,-6.104383990168571472e-02,5.425739660859107971e-02,6.392698734998703003e-02,4.813256487250328064e-02,-4.812277853488922119e-02,-2.949006296694278717e-02,7.304565608501434326e-02,8.179743587970733643e-02,-1.459174323827028275e-02,1.016631908714771271e-02,-8.144544064998626709e-02,-7.008687406778335571e-02,3.962219133973121643e-02,-2.333216927945613861e-02,-6.756340712308883667e-02,6.919901072978973389e-02,6.140935048460960388e-02,1.773155853152275085e-02,8.711420930922031403e-03,8.913554251194000244e-02,4.084350168704986572e-02,2.810985036194324493e-02,-3.265133127570152283e-02,-5.119882151484489441e-02,-7.944847457110881805e-03,-5.586963519454002380e-02,-1.722835237160325050e-03,-1.341130677610635757e-02,-7.085712254047393799e-02,5.724237486720085144e-02,1.846530102193355560e-02,-2.721117809414863586e-02,6.706959009170532227e-02,-1.435503084212541580e-02,6.871934980154037476e-02,-5.083762481808662415e-02,8.519080281257629395e-02,4.486421123147010803e-02,4.337690025568008423e-02,-1.647469773888587952e-02,-5.508977547287940979e-02,1.775841414928436279e-02,-3.704873472452163696e-02,-2.626781165599822998e-02,1.810491643846035004e-02,5.649600923061370850e-02,3.850588202476501465e-02,-1.957982406020164490e-02,5.580007284879684448e-02,4.431421309709548950e-02,-2.277383208274841309e-02,-2.428619004786014557e-02,1.491161715239286423e-02,-5.721478164196014404e-02,8.250658214092254639e-02,-7.809127680957317352e-03,-6.580364704132080078e-02,-5.785803124308586121e-02,5.226239189505577087e-02,-6.033740192651748657e-02,-1.981601864099502563e-02,-6.888238340616226196e-02,6.798852235078811646e-02,-2.445117942988872528e-02,-4.134094715118408203e-02,4.244008660316467285e-02,2.214013971388339996e-02,4.405567422509193420e-02,7.423993665724992752e-03,8.119942247867584229e-02,-7.279191166162490845e-02,-6.154334405437111855e-04,5.273485556244850159e-02,2.739009447395801544e-02,5.592646822333335876e-02,-3.809924051165580750e-02,8.961682766675949097e-02,4.663344472646713257e-02,5.966955423355102539e-02,7.517359405755996704e-02,-7.910136878490447998e-02,2.053534239530563354e-02,4.625049233436584473e-02,3.947288542985916138e-02,-2.354436088353395462e-03,6.787139922380447388e-02,4.643771052360534668e-02,-1.086102053523063660e-02,-2.088822424411773682e-02,7.751661469228565693e-04,1.037018597126007080e-01,9.425359964370727539e-02,8.440655469894409180e-02,3.705485537648200989e-02,-2.039795368909835815e-02,7.371063530445098877e-02,6.076224520802497864e-02,-5.562743917107582092e-02,-1.879026181995868683e-02,-3.882712870836257935e-02,3.942957893013954163e-02,8.641734719276428223e-03,9.302102774381637573e-02,8.101735264062881470e-02,2.577296271920204163e-02,-3.244081512093544006e-02,-4.275585711002349854e-02,7.570349425077438354e-02,-3.333410248160362244e-02,-5.041447654366493225e-02,4.744685441255569458e-02,-2.370387688279151917e-02,-4.951665550470352173e-02,8.109712600708007812e-02,5.157050117850303650e-02,-1.678298972547054291e-02,2.564429491758346558e-02,4.005537834018468857e-03,9.113226085901260376e-02,-7.642386108636856079e-02,-5.209466442465782166e-02,-5.449037253856658936e-02,2.067641727626323700e-02,5.830311030149459839e-02,4.743298515677452087e-02,-1.065349113196134567e-02,-1.423347834497690201e-02,9.991352260112762451e-02,4.400379210710525513e-02,-3.912217542529106140e-02,-2.965102158486843109e-02,3.589713014662265778e-04,-2.860758081078529358e-02,3.094561398029327393e-02,2.291552908718585968e-02,7.902070879936218262e-02,-3.969409316778182983e-02,-6.143552437424659729e-02,-7.770218700170516968e-02,3.039543703198432922e-02,4.688753187656402588e-02,3.117249533534049988e-02,-1.190506760030984879e-02,-5.221335683017969131e-03,6.772346049547195435e-02,-6.352848559617996216e-02,8.682205528020858765e-02,-2.638331428170204163e-02,5.706473439931869507e-02,-1.637932471930980682e-02,7.424578070640563965e-02,6.185296177864074707e-02,1.196782104671001434e-03,-1.474296581000089645e-02,-3.369632735848426819e-02,6.200345978140830994e-02,-7.376929372549057007e-02,-3.793993592262268066e-02,-6.342659890651702881e-02,6.772568076848983765e-02,6.550796329975128174e-02,2.951928786933422089e-02,-3.850694000720977783e-02,-6.688974052667617798e-02,-5.817341804504394531e-02,5.372863262891769409e-02,8.471099287271499634e-02,6.736759096384048462e-02,-6.608323007822036743e-02,8.833394944667816162e-02,-1.815200783312320709e-02,-4.416325315833091736e-02,6.343235075473785400e-02,-3.113374672830104828e-02,-2.705804072320461273e-02,-5.489131808280944824e-02,-2.363638207316398621e-02,8.271953463554382324e-02
4.385773092508316040e-02,-5.200077593326568604e-02,4.460092261433601379e-02,3.610178083181381226e-02,-8.847754797898232937e-04,1.496457215398550034e-02,6.409297883510589600e-02,-8.681900799274444580e-03,6.102234870195388794e-02,3.010094398632645607e-03,7.016349583864212036e-03,3.369504585862159729e-02,-5.812663584947586060e-03,2.367013506591320038e-02,-3.632295131683349609e-02,9.126608073711395264e-02,-4.444153979420661926e-02,-2.820326946675777435e-02,6.219758093357086182e-02,4.422748088836669922e-02,-2.437152899801731110e-02,-2.138682082295417786e-02,-7.980485260486602783e-02,-7.685584016144275665e-03,-1.910101249814033508e-02,4.688959941267967224e-02,1.965117268264293671e-02,-3.460560366511344910e-02,6.680692732334136963e-02,7.538646459579467773e-02,2.194895222783088684e-02,6.834909319877624512e-03,-4.048090055584907532e-02,-1.243677362799644470e-02,3.842919319868087769e-02,6.332449615001678467e-02,2.316587045788764954e-02,3.460600227117538452e-02,7.916199415922164917e-02,5.948082078248262405e-03,1.045610234141349792e-01,-5.566220730543136597e-02,-2.146477997303009033e-02,7.757502049207687378e-02,2.018094249069690704e-02,1.499046850949525833e-02,-2.638265676796436310e-02,2.963488548994064331e-02,-4.545984789729118347e-02,4.418741445988416672e-04,-3.048904240131378174e-02,7.413779199123382568e-02,-4.298956319689750671e-02,3.476389124989509583e-02,-5.787758901715278625e-02,6.905638426542282104e-02,2.761990204453468323e-02,-4.611519351601600647e-02,-3.708989545702934265e-02,6.955598294734954834e-02,-7.137571275234222412e-02,2.208013460040092468e-02,1.421929220668971539e-03,-1.825527474284172058e-02,5.564140900969505310e-02,-6.990921497344970703e-02,5.268892645835876465e-02,8.896920084953308105e-02,3.540727496147155762e-02,-3.047494031488895416e-02,-3.373043984174728394e-02,3.321818262338638306e-02,-8.624134585261344910e-03,-5.156801268458366394e-02,5.316303670406341553e-02,1.951929554343223572e-02,-6.398314237594604492e-02,2.742957882583141327e-02,-3.158649429678916931e-02,-1.043941359966993332e-02,-5.110938847064971924e-02,6.273402273654937744e-02,-2.843111008405685425e-02,-1.149557158350944519e-02,1.021628007292747498e-01,8.016854524612426758e-03,-5.642155185341835022e-02,-4.016933962702751160e-02,1.921495422720909119e-02,3.850675188004970551e-03,4.425309970974922180e-02,1.479363627731800079e-02,8.286317437887191772e-02,-3.340533003211021423e-02,5.566932633519172668e-02,4.749434441328048706e-02,-1.902612298727035522e-02,-5.969442427158355713e-03,4.211093764752149582e-03,-7.840230315923690796e-02,2.251711674034595490e-02,-1.723062247037887573e-02,-2.236909931525588036e-03,7.603517174720764160e-02,6.773090362548828125e-02,-5.441923066973686218e-02,-2.278597652912139893e-02,-1.399734523147344589e-02,-1.059030368924140930e-02,1.803097128868103027e-02,-1.928709680214524269e-03,6.754800677299499512e-02,8.795336820185184479e-03,-9.110763669013977051e-03,7.540997862815856934e-02,-1.400527264922857285e-02,7.105045765638351440e-02,-4.863375425338745117e-02,-5.845379829406738281e-02,-4.923098161816596985e-02,7.671637833118438721e-02,-7.023493759334087372e-03,-2.761005610227584839e-02,4.865354672074317932e-02,2.058448828756809235e-02,5.514035373926162720e-02,3.857471048831939697e-02,5.533075705170631409e-02,2.577204816043376923e-02,3.010935708880424500e-02,6.922014057636260986e-02,-3.187213838100433350e-02,2.990647219121456146e-02,-2.005365863442420959e-02,-4.390307515859603882e-02,-3.842448815703392029e-02,-6.978869438171386719e-02,-1.763701625168323517e-02,-1.397295016795396805e-02,-3.159398213028907776e-02,-4.370664805173873901e-02,-7.604365795850753784e-02,-6.778056174516677856e-02,-9.256124496459960938e-02,8.736045099794864655e-03,-4.070594906806945801e-02,1.115949917584657669e-02,-5.513688921928405762e-02,1.296714600175619125e-02,-2.056341990828514099e-02,-6.583809386938810349e-03,3.961169347167015076e-02,-3.716087341308593750e-02,9.812661446630954742e-03,8.022588491439819336e-02,1.509264204651117325e-02,-8.092430979013442993e-02,7.468803226947784424e-02,7.399137318134307861e-02,-2.224385924637317657e-02,2.661285689100623131e-03,8.371704816818237305e-02,-3.833853080868721008e-02,-8.185809850692749023e-02,-6.779255345463752747e-03,-7.072924077510833740e-02,-5.861010774970054626e-02,-9.376426786184310913e-02,-4.540208727121353149e-02,-3.933673352003097534e-02,1.450630649924278259e-02,-7.064419239759445190e-02,5.325746163725852966e-02,5.395642947405576706e-03,4.955312609672546387e-02,8.584950119256973267e-03,-6.160376220941543579e-02,-5.851747095584869385e-02,7.840056717395782471e-02,-6.779865920543670654e-02,-1.735843718051910400e-02,-3.744258731603622437e-02,-4.863446205854415894e-02,-9.074321389198303223e-02,-1.629476435482501984e-02,1.346510089933872223e-02,-4.209911078214645386e-02,9.302813559770584106e-02,2.018781378865242004e-02,-6.510242819786071777e-02,7.837297022342681885e-02,-1.159487944096326828e-02,-3.428703919053077698e-02,3.088998608291149139e-02,-8.285500109195709229e-02,5.471022054553031921e-02,6.842747330665588379e-02,-9.224775433540344238e-02,7.340645045042037964e-02,-2.777168713510036469e-02,1.100109610706567764e-02,-9.096349775791168213e-02,-2.545979432761669159e-02,-2.309119887650012970e-02,1.118940860033035278e-02,-3.916934877634048462e-02,-4.568321630358695984e-02,7.110492326319217682e-03,1.468896400183439255e-02,-3.462174162268638611e-02,2.147018350660800934e-02,-6.546191871166229248e-02,1.756226830184459686e-02,2.293610572814941406e-02,-1.210978627204895020e-02,-5.142358690500259399e-02,7.069551944732666016e-02,5.409482493996620178e-02,-2.052712626755237579e-02,5.335141718387603760e-02,-8.886568248271942139e-02,-6.316035240888595581e-02,-2.509556524455547333e-02,-5.560077354311943054e-02,3.484831005334854126e-02,-9.864111430943012238e-03,-4.741206765174865723e-02,-4.676733165979385376e-02,-9.197593480348587036e-02,6.952997762709856033e-03,2.090311609208583832e-02,5.315984785556793213e-02,3.724137321114540100e-02,-1.315878983587026596e-02,2.491892315447330475e-02,7.176851481199264526e-02,5.411133915185928345e-02,-2.039457485079765320e-02,1.421993039548397064e-02,-1.042136922478675842e-01,3.365204483270645142e-02,-2.608861401677131653e-02,-3.807810321450233459e-02,5.148586258292198181e-02,1.098755528801120818e-04,5.121504142880439758e-02,1.483304612338542938e-02,-1.206833682954311371e-02,-5.456022173166275024e-02,5.686044692993164062e-03,-2.831543982028961182e-02,-1.601025834679603577e-02,-3.643353935331106186e-03,8.901051478460431099e-04,-7.184140384197235107e-02,-9.401394426822662354e-02,4.681222140789031982e-03,-7.383854128420352936e-03,-3.486510831862688065e-03,3.165390715003013611e-02,6.784235686063766479e-02,-6.021663174033164978e-02,5.924449488520622253e-02,-4.180333763360977173e-02,-4.307444393634796143e-02,5.094517767429351807e-02,-6.091543659567832947e-02,-2.771134488284587860e-02,-3.234758600592613220e-02,-2.480900660157203674e-02,-2.003107033669948578e-02,-3.896135091781616211e-02,-5.275805294513702393e-02,6.921967864036560059e-02,2.873191144317388535e-03,6.973254680633544922e-02,2.703762799501419067e-02,-8.106440305709838867e-02,6.864480208605527878e-03,7.801146805286407471e-02,-4.701834172010421753e-02,8.882465772330760956e-03,-2.990207821130752563e-02,-9.152703918516635895e-03,1.596914231777191162e-02,-3.727745637297630310e-02,3.662129119038581848e-02,3.770972788333892822e-02,5.180909857153892517e-02,-4.764754325151443481e-02,3.478483855724334717e-02,6.060765311121940613e-02,5.789798125624656677e-02,4.391444846987724304e-02,5.178541690111160278e-02,-1.632498577237129211e-02,-2.668553730472922325e-03,3.950755298137664795e-02,-4.279994219541549683e-02,-1.723635941743850708e-02,8.678916841745376587e-02,4.323060065507888794e-02,2.516514062881469727e-02,-3.669689595699310303e-02,2.057977952063083649e-02,2.202824503183364868e-02,-6.886368989944458008e-02,-4.332577064633369446e-02,6.792821735143661499e-02,-3.893952816724777222e-02,-4.126705974340438843e-02,-2.403144165873527527e-02,-5.338763073086738586e-02,-6.023888289928436279e-02,5.049553513526916504e-02,-7.125975936651229858e-02,4.419006034731864929e-02,8.423685282468795776e-02,8.434990048408508301e-02,-5.686799809336662292e-02,5.799369513988494873e-02,-6.105128675699234009e-02,-5.622868239879608154e-02,1.402733288705348969e-02,-6.555098295211791992e-02,2.993813902139663696e-02,-7.082752883434295654e-03,3.138083964586257935e-02,-5.927988886833190918e-02,2.213750034570693970e-02,-9.234665049007162452e-05,-8.300535380840301514e-02,6.993728224188089371e-03,2.892330754548311234e-03,-6.020745262503623962e-02,1.210483163595199585e-02,7.826354354619979858e-02,3.873390331864356995e-02,-4.191519692540168762e-02,6.646046042442321777e-02,-9.618149138987064362e-03,-1.453812047839164734e-02,7.284133881330490112e-02,-6.708683818578720093e-02,-2.783037163317203522e-02,-5.984731391072273254e-02,-1.350004225969314575e-02,-5.868611391633749008e-03,9.279138594865798950e-02,-3.376297652721405029e-02,5.479106307029724121e-02,6.366241723299026489e-02,9.808231145143508911e-03,-5.391092039644718170e-03,5.477760359644889832e-02,-4.508047550916671753e-02,5.947078391909599304e-02,-2.439707331359386444e-02,-3.379400074481964111e-02,-1.019614841789007187e-02,8.919826708734035492e-03,-4.162533581256866455e-02,1.648496254347264767e-03,7.465571165084838867e-02,-1.810621656477451324e-02,4.643992986530065536e-03,-8.140279911458492279e-03,3.286410495638847351e-02,8.459439873695373535e-02,-5.525930225849151611e-02,-1.014940626919269562e-02,-5.033930018544197083e-02,4.409286007285118103e-02,6.704588979482650757e-02,5.987093225121498108e-02,6.244298070669174194e-02,-3.394189849495887756e-02,-6.750669330358505249e-03,2.541884593665599823e-02,-2.645818982273340225e-03,3.400427522137761116e-03,7.944920659065246582e-02,7.667646557092666626e-02,-3.718722984194755554e-02,-8.870682795532047749e-04,2.665862557478249073e-04,4.387065023183822632e-02,-2.324649132788181305e-02,-5.156752094626426697e-02,3.447977825999259949e-02,-1.151091651991009712e-03,8.751686662435531616e-02,-7.218018174171447754e-02,2.384879626333713531e-02,2.326712571084499359e-02,-5.696477368474006653e-02,1.054650405421853065e-03,1.241178344935178757e-02,-2.659067697823047638e-02,1.285210438072681427e-02,-5.341076478362083435e-02,-2.328411937924101949e-04,-2.708053402602672577e-02,-3.499456495046615601e-02,-9.041896462440490723e-02,-2.913242578506469727e-02,-7.043782621622085571e-02,7.992841303348541260e-02,-3.503656759858131409e-02,-7.727646734565496445e-03,1.581550575792789459e-02,-5.341086536645889282e-02,4.135038703680038452e-02,7.629404217004776001e-02,-3.319183737039566040e-02,-1.193675119429826736e-02,-3.952172398567199707e-02,2.785645611584186554e-02,-2.590765804052352905e-02,8.293806016445159912e-02,9.148874878883361816e-02,7.094577699899673462e-02,5.601315945386886597e-02,5.653125233948230743e-03,9.388528764247894287e-02,-6.252682209014892578e-02,-1.842061430215835571e-02,-4.215636849403381348e-02,2.719459682703018188e-02,-4.457053169608116150e-02,-5.119653418660163879e-02,5.224865674972534180e-02,1.968040131032466888e-02,5.065654590725898743e-02,-6.324216723442077637e-02,-4.553572088479995728e-02,-5.377306416630744934e-02,-4.184804391115903854e-03,5.796734709292650223e-03,-1.647140085697174072e-02,-7.418864220380783081e-02,2.904170751571655273e-02,6.045321747660636902e-02,-6.464681588113307953e-03,-4.037946928292512894e-04,-1.461669988930225372e-02,-2.425521239638328552e-02,-1.669519580900669098e-02,1.001488789916038513e-02,-5.434756726026535034e-02,6.786695122718811035e-02,3.632611408829689026e-02,-6.751207262277603149e-02,4.324126243591308594e-02,-3.135143220424652100e-02,-5.495312158018350601e-03,1.257594022899866104e-02,8.598870597779750824e-03,3.084111958742141724e-02,4.406812414526939392e-02,-1.927032135426998138e-02,-5.373399704694747925e-02,-6.857744883745908737e-03,8.064622431993484497e-02,-6.747694313526153564e-02,7.004583021625876427e-04,-2.909870818257331848e-02,4.320459906011819839e-03,-4.644079133868217468e-02,-6.882230518385767937e-04,-2.890373207628726959e-02,-5.782014876604080200e-02,-5.888157989829778671e-03,6.069175153970718384e-02,-5.792734399437904358e-02,3.853401867672801018e-03,4.852559790015220642e-02,4.154639318585395813e-02,-2.415648289024829865e-02,-1.636379398405551910e-02,1.008165348321199417e-02,-2.685377188026905060e-02,2.395433932542800903e-02,1.651754975318908691e-02,-1.175079308450222015e-02,-6.188663467764854431e-02,-5.865352600812911987e-02,8.639452606439590454e-02,5.958737060427665710e-02,8.845357224345207214e-03,7.024580240249633789e-02,-6.405820697546005249e-02,-4.800840106327086687e-04,-3.282984346151351929e-02,-5.231376737356185913e-03,-7.889386266469955444e-02,2.370310761034488678e-02,-4.856656491756439209e-02,6.870862841606140137e-02,5.097855348140001297e-03,3.735853359103202820e-02,1.499024778604507446e-02,6.400839239358901978e-02,7.736729085445404053e-02,1.391955371946096420e-02,-7.002263516187667847e-02,7.961835712194442749e-02,-1.604381948709487915e-02,-5.822310224175453186e-03,-2.320717088878154755e-02,-5.270540714263916016e-02,9.072971343994140625e-02
-2.391154691576957703e-02,-5.332318693399429321e-02,-3.864539042115211487e-02,9.665329009294509888e-03,-7.925816625356674194e-02,-5.350592546164989471e-03,3.186056017875671387e-02,1.936861872673034668e-02,-8.527714759111404419e-02,-1.284228358417749405e-02,2.425963804125785828e-02,3.237986564636230469e-02,6.690581887960433960e-02,2.034950628876686096e-02,8.713744580745697021e-03,-2.767413295805454254e-02,-6.178104877471923828e-02,6.163050234317779541e-02,-7.435919344425201416e-02,3.343428298830986023e-02,8.524389564990997314e-02,-3.985605202615261078e-03,-8.905339986085891724e-03,-9.155272692441940308e-02,6.759632378816604614e-02,2.218293026089668274e-02,-2.629969827830791473e-02,-2.049662725767120719e-04,-8.260540664196014404e-02,-1.752069778740406036e-02,4.902021586894989014e-02,2.701244316995143890e-02,-6.670670211315155029e-02,9.656431153416633606e-03,5.646912381052970886e-02,-4.593530669808387756e-03,-7.240068167448043823e-02,-6.195650622248649597e-02,-3.164325281977653503e-02,-7.683988660573959351e-02,-1.392224896699190140e-02,-5.944757536053657532e-02,-6.621675193309783936e-02,3.335435688495635986e-02,-9.243763238191604614e-02,-4.508571326732635498e-02,5.137166380882263184e-02,7.625944912433624268e-02,-3.298290818929672241e-02,-3.754415735602378845e-02,1.423444249667227268e-03,-8.132924139499664307e-02,1.653851754963397980e-02,-2.404550462961196899e-02,-8.748190850019454956e-02,2.332230098545551300e-02,-3.836424276232719421e-02,-4.787883907556533813e-02,-2.558273961767554283e-03,2.545371837913990021e-02,-1.591621525585651398e-02,4.904233664274215698e-02,-5.854266136884689331e-02,-6.369335949420928955e-02,-6.795948743820190430e-02,-3.474413976073265076e-02,-4.621509090065956116e-02,-1.476080738939344883e-03,-7.175190001726150513e-02,5.144730210304260254e-02,-2.340609766542911530e-02,-5.994447320699691772e-02,-5.483011528849601746e-02,-7.370444387197494507e-02,6.263758987188339233e-02,2.578612044453620911e-02,-6.505666673183441162e-02,-7.890903204679489136e-02,-6.245743110775947571e-02,4.630684852600097656e-02,-5.047367885708808899e-02,-6.546100974082946777e-02,-7.930153608322143555e-02,-4.566395655274391174e-02,-8.150397986173629761e-02,-2.914319373667240143e-02,-4.726669937372207642e-02,4.952378571033477783e-02,3.864330798387527466e-02,1.135139167308807373e-02,8.674654364585876465e-02,3.268292546272277832e-02,-3.028746694326400757e-03,4.095261171460151672e-02,-8.490107208490371704e-02,3.753292560577392578e-02,1.967456936836242676e-02,5.174280144274234772e-03,-8.500176668167114258e-02,-6.701452657580375671e-03,5.279450491070747375e-02,-3.518034517765045166e-02,-4.389041289687156677e-02,1.389963366091251373e-02,4.952782392501831055e-02,7.282074540853500366e-02,7.886201143264770508e-02,-4.904763400554656982e-02,-3.680993989109992981e-02,-1.632951572537422180e-02,-3.615178540349006653e-02,7.942843367345631123e-04,2.278875187039375305e-02,-4.190068691968917847e-02,-3.632343560457229614e-02,-4.283869266510009766e-02,9.482567012310028076e-02,1.734666526317596436e-02,-6.676944345235824585e-02,4.756937175989151001e-02,-8.694878965616226196e-02,-5.958131700754165649e-02,2.548255398869514465e-02,3.043877659365534782e-03,-4.402370750904083252e-02,-3.363073244690895081e-02,3.535128757357597351e-02,-3.946540504693984985e-02,8.505019545555114746e-02,4.592369496822357178e-02,1.181637402623891830e-02,-6.871597468852996826e-02,-5.495013669133186340e-02,3.970912843942642212e-02,-5.253921449184417725e-02,4.263711348176002502e-02,-1.439544185996055603e-02,9.277213364839553833e-02,-1.751702837646007538e-02,5.437776446342468262e-02,5.564137920737266541e-02,8.520797826349735260e-03,-2.295396290719509125e-02,6.829746067523956299e-03,3.952002525329589844e-02,-3.819289803504943848e-02,8.477082103490829468e-02,-6.468714773654937744e-02,6.943880021572113037e-02,-5.898110195994377136e-02,-8.946159854531288147e-03,8.419430255889892578e-02,2.903368510305881500e-02,2.192990481853485107e-02,5.379258841276168823e-02,-1.850964501500129700e-02,-4.999158903956413269e-02,1.278060115873813629e-02,-1.739822886884212494e-02,1.753203757107257843e-02,1.831573992967605591e-02,1.604687795042991638e-02,-2.325241267681121826e-02,-6.970190256834030151e-02,3.341139107942581177e-02,-4.532000049948692322e-02,7.859858870506286621e-02,4.180245101451873779e-02,-3.482389077544212341e-02,4.178712889552116394e-02,-5.644635111093521118e-02,-5.131098907440900803e-03,6.859297305345535278e-02,-2.766885235905647278e-02,-5.020204931497573853e-02,-4.183428827673196793e-03,4.589116200804710388e-02,3.356441110372543335e-02,-6.977369636297225952e-02,6.956671178340911865e-02,5.568822380155324936e-03,-7.308003306388854980e-02,-5.827922746539115906e-02,-7.047481834888458252e-02,-8.873495273292064667e-03,4.878607764840126038e-02,-8.003603667020797729e-02,7.337581831961870193e-03,9.063889086246490479e-02,-3.132613003253936768e-02,-5.352326110005378723e-02,2.577105909585952759e-02,-1.889774925075471401e-03,6.948051601648330688e-02,5.723052471876144409e-02,-2.597588580101728439e-03,1.855242066085338593e-02,6.827142834663391113e-02,-7.164334505796432495e-02,2.829807065427303314e-02,2.502314560115337372e-02,-6.473701447248458862e-02,-2.228752337396144867e-02,9.274038672447204590e-02,-5.501793697476387024e-03,-5.492632463574409485e-02,5.930886417627334595e-02,-7.289636880159378052e-02,4.174778610467910767e-02,2.744728513062000275e-02,8.094824105501174927e-02,5.825690552592277527e-02,-2.616232633590698242e-02,-1.888054981827735901e-02,4.432991892099380493e-02,5.187352374196052551e-02,4.166611004620790482e-03,1.076090559363365173e-01,-1.423051487654447556e-02,-3.833970054984092712e-02,-7.431082427501678467e-02,-4.254864901304244995e-02,2.140854112803936005e-02,2.800131961703300476e-02,-1.200586464256048203e-02,-4.584331810474395752e-02,2.223955281078815460e-02,5.774962529540061951e-02,-5.450559780001640320e-02,-7.926557958126068115e-02,7.477858662605285645e-02,2.767501026391983032e-02,9.482382796704769135e-03,-1.977742649614810944e-02,9.832125157117843628e-02,9.438709355890750885e-03,-6.142170168459415436e-03,7.188270241022109985e-02,-2.482461743056774139e-02,6.015886366367340088e-02,-8.522570133209228516e-02,2.162176417186856270e-03,2.613389119505882263e-02,7.451495528221130371e-02,6.995411962270736694e-02,-7.882782816886901855e-02,-6.208644434809684753e-02,-9.847442060708999634e-02,-2.953379228711128235e-02,5.932842567563056946e-02,5.150909721851348877e-02,2.573792450129985809e-02,-1.024602949619293213e-01,5.245326459407806396e-02,1.082432046532630920e-01,-2.764054574072360992e-02,-5.591915547847747803e-02,2.580510638654232025e-02,3.305844217538833618e-02,-1.924223825335502625e-02,3.502492979168891907e-02,2.755249850451946259e-02,-6.236455589532852173e-02,1.987439393997192383e-02,3.383596660569310188e-03,-4.186256602406501770e-02,6.683760136365890503e-02,-3.651283308863639832e-02,-2.275343984365463257e-02,-3.011791966855525970e-02,-8.473765105009078979e-02,3.477686271071434021e-02,5.419675633311271667e-02,4.703142121434211731e-02,6.122771650552749634e-02,2.061580307781696320e-02,2.246781066060066223e-02,5.158401280641555786e-02,-6.117259711027145386e-02,-2.415704540908336639e-02,6.974366307258605957e-02,1.538434997200965881e-02,6.393373478204011917e-03,-2.727353572845458984e-02,-1.012329757213592529e-01,-1.017850413918495178e-01,-4.956594109535217285e-02,6.666566431522369385e-02,-1.627423427999019623e-02,5.180490761995315552e-02,7.462567090988159180e-02,8.384398370981216431e-02,-6.105815619230270386e-02,1.409817952662706375e-03,-3.299869224429130554e-02,6.924202293157577515e-02,2.331047784537076950e-03,-7.820300012826919556e-02,4.947075992822647095e-02,1.244600955396890640e-02,-6.026095151901245117e-02,-3.059523552656173706e-02,5.076291784644126892e-02,7.469452172517776489e-02,-2.555086277425289154e-02,-4.318925130064599216e-05,8.493594825267791748e-02,-8.056066930294036865e-02,-4.057711362838745117e-02,-4.745769500732421875e-02,6.096280366182327271e-02,-2.551598660647869110e-02,-3.226589038968086243e-02,-8.275961875915527344e-02,3.403070569038391113e-02,5.819478631019592285e-02,1.033507939428091049e-02,2.224873378872871399e-02,-7.445517927408218384e-02,-3.031314723193645477e-02,-3.210336342453956604e-02,-5.874387919902801514e-02,6.290514767169952393e-02,1.576231978833675385e-02,-4.251100122928619385e-02,8.888383954763412476e-02,-1.001855358481407166e-01,-5.734451487660408020e-02,5.797075852751731873e-02,-9.141080081462860107e-02,2.094606868922710419e-02,4.665192961692810059e-02,-3.370893001556396484e-02,5.364607647061347961e-02,-1.043862756341695786e-02,-7.474027574062347412e-02,2.327349223196506500e-02,-7.472351193428039551e-02,4.313746467232704163e-03,8.412971161305904388e-03,-6.311593204736709595e-02,2.962934970855712891e-02,1.076365485787391663e-01,4.374597221612930298e-03,1.095419283956289291e-02,-7.038403302431106567e-02,-1.200346741825342178e-03,-5.207666382193565369e-02,-6.210424378514289856e-02,-7.195978611707687378e-02,-1.379827968776226044e-02,5.761426314711570740e-02,-7.483883947134017944e-02,-9.135794639587402344e-02,-6.540248543024063110e-02,-8.971623331308364868e-02,-5.602826178073883057e-02,4.225366562604904175e-02,-5.378289520740509033e-02,1.922190748155117035e-02,5.773137882351875305e-02,2.800809685140848160e-03,-1.279393769800662994e-02,-4.555331915616989136e-02,-7.290899008512496948e-02,-1.139059755951166153e-02,9.343224018812179565e-02,-2.337071672081947327e-02,-7.045064866542816162e-02,-5.409522354602813721e-02,4.940364975482225418e-03,-8.220947533845901489e-02,-5.573012307286262512e-02,5.542638897895812988e-02,4.311107844114303589e-02,-2.676305547356605530e-02,8.923769346438348293e-04,-4.138874262571334839e-02,1.595172332599759102e-03,-3.521655127406120300e-02,-7.876108400523662567e-03,-1.432123221457004547e-02,-6.996575742959976196e-02,-1.492434088140726089e-02,1.474320888519287109e-02,5.399204418063163757e-02,-1.190172415226697922e-02,3.234938904643058777e-02,-2.796556055545806885e-02,2.301347069442272186e-02,2.124417014420032501e-02,-4.911589436233043671e-03,-9.422506392002105713e-02,-6.405037641525268555e-02,-8.169724047183990479e-02,-7.369559258222579956e-02,-4.138591513037681580e-02,6.242946162819862366e-02,-1.365777477622032166e-02,7.661730796098709106e-02,-2.422585524618625641e-02,-5.398000404238700867e-02,3.857181593775749207e-02,2.774365618824958801e-02,9.730767458677291870e-02,-2.128784544765949249e-02,-1.246209535747766495e-02,-8.489701896905899048e-02,-4.046807065606117249e-02,2.653822116553783417e-02,5.215297918766736984e-03,3.410860523581504822e-02,-2.992765791714191437e-02,-8.486778475344181061e-03,-5.883550271391868591e-02,7.280755788087844849e-02,-7.028629630804061890e-02,-5.059663578867912292e-02,-6.127673014998435974e-02,2.148873172700405121e-02,1.632698252797126770e-02,-1.039178296923637390e-01,-7.542361319065093994e-02,2.910578437149524689e-02,6.911338865756988525e-02,-8.069919049739837646e-02,-8.473939448595046997e-02,-8.793484419584274292e-02,-5.103043839335441589e-02,-5.305979400873184204e-02,6.352944672107696533e-02,6.668543815612792969e-02,6.557532399892807007e-02,-1.265554036945104599e-02,-5.398201569914817810e-02,1.021454017609357834e-02,2.772821113467216492e-02,-2.592043951153755188e-02,-6.106701493263244629e-02,-4.001887887716293335e-02,-3.407190740108489990e-02,5.743991583585739136e-02,-1.983771659433841705e-02,-2.621783688664436340e-02,-3.640257939696311951e-02,-7.715598912909626961e-04,2.249765396118164062e-02,4.597109183669090271e-02,-8.526267111301422119e-02,-3.541040048003196716e-02,-1.891586370766162872e-02,-5.320430546998977661e-02,4.385001957416534424e-02,6.576331704854965210e-02,-1.015177294611930847e-01,-2.496126294136047363e-02,2.766532450914382935e-02,1.438764669001102448e-02,3.149903565645217896e-02,1.644622720777988434e-02,-1.621114462614059448e-02,-1.025215834379196167e-01,-8.321178704500198364e-02,4.533505067229270935e-02,5.614084750413894653e-02,-2.884821221232414246e-02,-3.512590378522872925e-02,6.479739397764205933e-02,-4.559849947690963745e-02,-3.263261541724205017e-02,1.357205770909786224e-02,3.037574887275695801e-02,-1.069429703056812286e-02,-9.100805968046188354e-02,9.270442277193069458e-02,-5.880998820066452026e-02,-7.675334811210632324e-03,7.393400650471448898e-03,4.476190730929374695e-02,3.420794755220413208e-02,2.387008257210254669e-02,-5.055528879165649414e-02,-6.325221806764602661e-02,3.119966946542263031e-02,5.161362886428833008e-02,-2.133845165371894836e-02,-5.990274250507354736e-02,-1.690170913934707642e-02,-1.256810594350099564e-02,1.031982302665710449e-01,-5.233855918049812317e-02,2.822611108422279358e-02,8.610802888870239258e-02,-7.150696218013763428e-02,-2.851733006536960602e-02,-5.185934901237487793e-02,-4.591877758502960205e-02,-6.626252084970474243e-02,-3.571298671886324883e-03,-6.673643738031387329e-02,1.034100307151675224e-03,4.832882061600685120e-02,9.046051651239395142e-03,5.323278903961181641e-02,-2.780493907630443573e-02,-3.793865814805030823e-02,-3.285362944006919861e-02,5.287300422787666321e-02,-3.413318097591400146e-02,-1.205929368734359741e-02,-5.081169307231903076e-02,1.854601874947547913e-02
-3.063439950346946716e-02,-3.077412582933902740e-02,1.128857396543025970e-02,-5.321545153856277466e-02,-1.889451034367084503e-02,3.568768873810768127e-02,1.519255340099334717e-02,-5.211509391665458679e-02,-2.949915069621056318e-04,-3.328765928745269775e-02,1.835761778056621552e-02,3.609227389097213745e-02,2.854007296264171600e-02,-4.800130426883697510e-02,-4.742053896188735962e-02,-2.819960936903953552e-02,-2.248546108603477478e-02,-3.593594953417778015e-02,7.912953943014144897e-02,-7.254729419946670532e-02,1.330002211034297943e-02,-1.839610747992992401e-02,-9.358173236250877380e-03,-5.299207940697669983e-02,4.599013179540634155e-02,-6.014076620340347290e-02,2.408006414771080017e-02,-1.812477409839630127e-02,-2.179955504834651947e-02,-3.175106272101402283e-02,-3.541250899434089661e-02,-3.467525914311408997e-02,1.700520515441894531e-02,3.465035185217857361e-02,3.128843009471893311e-02,-1.790363527834415436e-02,-3.839042410254478455e-02,2.989440970122814178e-02,-5.452373623847961426e-02,-4.274350777268409729e-02,9.008957445621490479e-02,7.428050041198730469e-02,7.203859835863113403e-02,-5.350475013256072998e-02,-3.754274919629096985e-02,3.976341336965560913e-02,6.381652504205703735e-02,3.178387996740639210e-04,-9.682017378509044647e-03,-2.075023949146270752e-02,-5.248888581991195679e-02,7.074341177940368652e-02,-8.818609640002250671e-04,5.381221696734428406e-02,-3.068022429943084717e-02,3.175427392125129700e-02,1.907527819275856018e-02,-2.350688911974430084e-02,4.811732470989227295e-02,3.911674395203590393e-02,3.119461610913276672e-02,7.056686282157897949e-02,1.436349190771579742e-02,-3.831228613853454590e-02,5.632277578115463257e-02,-5.537691712379455566e-02,5.004304647445678711e-02,-3.117892704904079437e-02,8.611798286437988281e-02,3.070645965635776520e-02,6.640075892210006714e-02,3.478161245584487915e-02,8.912173658609390259e-02,-9.686028957366943359e-02,4.603659326676279306e-04,5.771556496620178223e-02,1.324576232582330704e-02,-1.054840069264173508e-02,-4.819418862462043762e-02,6.878810469061136246e-03,-5.855664983391761780e-02,-3.394909948110580444e-02,1.089998986572027206e-02,6.540169473737478256e-03,1.996321603655815125e-02,6.807470321655273438e-02,3.828949108719825745e-02,-3.109286166727542877e-02,2.136826142668724060e-02,-2.657726779580116272e-02,-7.503792643547058105e-02,-3.741234168410301208e-02,6.180547177791595459e-02,-3.931632731109857559e-03,-2.084054984152317047e-02,1.840432733297348022e-02,-3.186080604791641235e-02,3.597184643149375916e-02,-4.027178883552551270e-02,1.502880081534385681e-02,-9.580402635037899017e-03,6.149325892329216003e-02,3.115018596872687340e-03,6.840465217828750610e-02,3.136623650789260864e-02,8.772982284426689148e-03,6.659640371799468994e-02,-1.230451278388500214e-02,3.657435998320579529e-02,-3.687952831387519836e-02,4.245929047465324402e-02,-1.960353553295135498e-02,-1.764382421970367432e-02,-3.789313137531280518e-02,-3.759374842047691345e-02,2.632954344153404236e-02,-3.681329637765884399e-02,-6.268879771232604980e-02,-1.692493632435798645e-02,5.496047064661979675e-02,8.594310842454433441e-03,-4.213603585958480835e-02,-4.738109558820724487e-02,1.389776170253753662e-02,6.542450189590454102e-02,5.038039013743400574e-02,-2.075977809727191925e-02,-6.297037750482559204e-02,-9.758885018527507782e-03,2.668270468711853027e-02,2.439279295504093170e-02,7.454067468643188477e-02,6.956157833337783813e-02,5.409175530076026917e-02,1.957120932638645172e-02,-1.003557741641998291e-01,3.985564224421977997e-03,1.779556833207607269e-02,-7.334245741367340088e-02,1.516195852309465408e-02,-9.325519204139709473e-02,-4.834397882223129272e-02,-7.319975644350051880e-02,-7.266537100076675415e-02,1.421354245394468307e-02,-6.978481262922286987e-02,7.100336253643035889e-02,8.135371655225753784e-02,5.872779712080955505e-02,1.630664058029651642e-02,-2.904621185734868050e-03,9.199901670217514038e-02,8.888678997755050659e-02,5.494806542992591858e-02,-2.668445697054266930e-03,-8.630702272057533264e-03,1.509494706988334656e-02,-4.702130332589149475e-02,4.782828036695718765e-03,-9.698773175477981567e-02,4.754285141825675964e-02,-1.633678376674652100e-02,5.868400633335113525e-02,-6.595868617296218872e-02,-7.259302586317062378e-02,6.463887542486190796e-02,-3.172302991151809692e-02,5.812757089734077454e-02,5.944509804248809814e-02,-7.271368056535720825e-02,7.721678912639617920e-02,-3.627225290983915329e-03,-7.937306910753250122e-02,-3.630276769399642944e-02,6.425734609365463257e-02,-4.494721814990043640e-02,4.163147881627082825e-02,6.717607378959655762e-02,5.290248617529869080e-02,2.196542359888553619e-02,-6.795053184032440186e-02,-4.522156715393066406e-02,3.578370064496994019e-02,7.979895174503326416e-02,-5.754267051815986633e-02,-4.915763810276985168e-02,3.759019775316119194e-03,-1.361826807260513306e-02,5.125657096505165100e-02,5.652840482071042061e-04,-2.328749187290668488e-02,6.906964629888534546e-02,-8.259606361389160156e-02,-2.056003548204898834e-03,8.498194068670272827e-02,5.369814857840538025e-02,-6.463655084371566772e-02,-2.882570214569568634e-02,-3.977777063846588135e-02,-3.760375082492828369e-02,3.513207659125328064e-02,1.931978575885295868e-02,4.680974036455154419e-02,5.260051414370536804e-02,7.807549089193344116e-02,1.698653958737850189e-02,-4.839150980114936829e-02,-4.765330627560615540e-02,-6.065506115555763245e-02,-4.926037415862083435e-02,7.342365570366382599e-03,-4.703681543469429016e-02,-7.155175507068634033e-02,1.428084727376699448e-02,5.463110655546188354e-02,5.342148616909980774e-02,-1.412514597177505493e-02,6.514380872249603271e-02,6.367632746696472168e-02,-6.316044181585311890e-02,7.825691252946853638e-02,-3.329193964600563049e-02,-8.429556339979171753e-02,-8.230665698647499084e-03,-1.656538620591163635e-02,7.761370390653610229e-02,6.631243973970413208e-02,-1.797309890389442444e-02,-6.926132738590240479e-02,2.592663280665874481e-03,9.104200452566146851e-02,-6.987367570400238037e-02,5.508361384272575378e-02,-2.336567640304565430e-02,-5.751029122620820999e-03,3.740529296919703484e-03,3.305056318640708923e-02,-1.639059558510780334e-02,3.699434921145439148e-02,-1.670976728200912476e-02,4.718028008937835693e-02,1.819490338675677776e-03,-1.706632785499095917e-02,9.564695879817008972e-03,3.166907653212547302e-02,-1.421341113746166229e-02,-6.350397318601608276e-02,4.032649565488100052e-03,3.417821973562240601e-02,-8.100192993879318237e-02,-6.841577589511871338e-02,1.028579473495483398e-02,1.025169808417558670e-02,-1.019396935589611530e-03,6.993293762207031250e-02,1.569787412881851196e-02,-2.756902761757373810e-02,8.959950506687164307e-02,2.519094198942184448e-02,-3.736683353781700134e-02,-1.196253392845392227e-02,-4.909687861800193787e-02,1.405692286789417267e-02,-3.091643936932086945e-02,6.163650006055831909e-02,3.517240658402442932e-02,-8.876994997262954712e-02,6.286422908306121826e-02,5.330958589911460876e-02,4.610938206315040588e-02,-5.152711272239685059e-02,-6.053238362073898315e-02,1.700742542743682861e-02,5.815343931317329407e-02,-4.552110284566879272e-02,-3.250586986541748047e-02,8.655319362878799438e-02,3.435616567730903625e-02,8.784374594688415527e-02,-3.362067416310310364e-02,8.507024496793746948e-03,1.212882995605468750e-02,-5.128905922174453735e-02,1.229395158588886261e-03,3.553559631109237671e-02,6.680723279714584351e-02,-2.627504430711269379e-02,2.769658528268337250e-02,2.275955490767955780e-02,-7.192086428403854370e-02,-1.307207439094781876e-02,-5.566483829170465469e-03,-7.630615029484033585e-03,-1.812849566340446472e-02,6.948922574520111084e-02,-3.128052456304430962e-03,-1.419902592897415161e-02,-4.652530327439308167e-02,5.965344235301017761e-02,5.888841301202774048e-02,-5.561561556532979012e-04,6.474335491657257080e-02,8.412122726440429688e-02,9.563513100147247314e-02,2.180254785344004631e-03,-1.494740787893533707e-02,1.460912264883518219e-02,6.422355026006698608e-02,-6.987076997756958008e-02,4.730764403939247131e-02,-6.460597366094589233e-02,3.743055462837219238e-02,-1.465091388672590256e-02,5.941896233707666397e-03,2.663781866431236267e-02,-3.226549550890922546e-02,-6.474544107913970947e-02,-6.504469364881515503e-02,2.426124736666679382e-02,4.360424727201461792e-02,4.325614776462316513e-03,5.606557801365852356e-02,-5.959069356322288513e-02,4.783571232110261917e-03,4.844858124852180481e-02,1.587211899459362030e-02,-2.660149708390235901e-02,-4.565279930830001831e-03,5.572210624814033508e-02,-3.835710883140563965e-02,1.873472472652792931e-03,-2.163402363657951355e-02,7.736334949731826782e-02,-4.015849903225898743e-02,-2.188432961702346802e-03,6.964895129203796387e-02,2.058864757418632507e-02,6.147047504782676697e-02,-4.777128621935844421e-02,7.938396185636520386e-02,4.256305098533630371e-02,-3.410760313272476196e-02,-2.425350435078144073e-02,-2.544851414859294891e-02,-8.207110315561294556e-02,-3.007540293037891388e-02,6.048405915498733521e-02,1.074744760990142822e-02,2.673216396942734718e-03,-4.858078807592391968e-02,2.046659402549266815e-02,7.452084869146347046e-02,-2.685812674462795258e-02,8.594799041748046875e-02,2.532958611845970154e-02,6.937880814075469971e-02,8.861875534057617188e-02,7.259077578783035278e-02,5.807037651538848877e-02,1.116380793973803520e-03,-6.619264185428619385e-02,4.088024049997329712e-02,-6.994653493165969849e-02,-1.531369239091873169e-02,-2.127895876765251160e-02,4.459984973073005676e-02,-1.671324484050273895e-02,1.603359542787075043e-02,2.634212188422679901e-02,1.025662105530500412e-02,-6.382758170366287231e-02,3.294735774397850037e-02,7.328782230615615845e-02,6.204413622617721558e-02,-2.314104512333869934e-02,-3.547148033976554871e-02,-5.577430129051208496e-03,-3.598908707499504089e-02,3.454991057515144348e-02,4.330240935087203979e-02,7.776418235152959824e-03,7.975555211305618286e-02,-7.812051102519035339e-03,1.450194139033555984e-02,6.039453670382499695e-02,5.115662887692451477e-02,1.649271510541439056e-02,9.063401259481906891e-03,1.389519893564283848e-03,4.396611079573631287e-02,-5.782091990113258362e-02,1.009215041995048523e-02,9.643169492483139038e-02,-1.094308868050575256e-02,3.229908412322402000e-03,-6.120884791016578674e-03,8.497169613838195801e-02,-2.736067213118076324e-02,-6.796496361494064331e-02,-5.511743575334548950e-02,-5.726145952939987183e-02,9.543399512767791748e-02,1.631390117108821869e-02,3.503104299306869507e-02,4.998438432812690735e-02,-3.700737282633781433e-02,8.827465772628784180e-02,2.086569555103778839e-02,7.574385032057762146e-03,9.846654534339904785e-02,7.888561487197875977e-02,-1.653944840654730797e-03,-1.907591894268989563e-02,-1.087730098515748978e-02,3.468723222613334656e-02,-4.791662842035293579e-02,1.118511799722909927e-02,3.944810107350349426e-02,-2.601409889757633209e-02,-4.647150635719299316e-02,-4.230092093348503113e-02,1.191388536244630814e-02,5.254727974534034729e-02,4.101302009075880051e-03,3.510623797774314880e-02,-6.224733218550682068e-02,1.968248002231121063e-02,2.042095921933650970e-02,2.553652785718441010e-02,2.879039570689201355e-02,6.519323214888572693e-03,-6.692390888929367065e-02,-1.676755584776401520e-02,2.392585203051567078e-02,-5.598370358347892761e-02,8.411348611116409302e-02,6.199754402041435242e-02,2.972068265080451965e-02,4.626846313476562500e-02,-1.044870167970657349e-02,6.838616728782653809e-02,6.072647124528884888e-02,-6.815086584538221359e-03,-5.288935080170631409e-02,4.783947765827178955e-02,5.221578106284141541e-02,1.625909656286239624e-02,4.775246605277061462e-02,7.671282440423965454e-02,-4.104709997773170471e-02,1.708206534385681152e-02,-4.093061015009880066e-02,7.241334766149520874e-02,1.463984791189432144e-02,7.600686699151992798e-02,4.516467452049255371e-02,7.453453540802001953e-02,3.622252866625785828e-02,-4.845413565635681152e-02,5.474481731653213501e-02,8.929935283958911896e-03,5.556428059935569763e-02,7.916627824306488037e-02,6.806374061852693558e-03,-4.419695213437080383e-02,-2.320127561688423157e-02,6.797368079423904419e-02,-3.458252549171447754e-02,-2.471761405467987061e-02,-7.622613757848739624e-02,-5.155178532004356384e-02,-3.041298873722553253e-02,-1.801321841776371002e-02,-1.622675172984600067e-02,8.371035754680633545e-02,5.428270902484655380e-03,-4.613985866308212280e-02,5.512735992670059204e-02,-4.804151505231857300e-02,-7.292696833610534668e-02,8.309482038021087646e-02,7.668347656726837158e-02,-4.780513793230056763e-02,-8.153762668371200562e-02,-4.365282133221626282e-02,8.722598850727081299e-02,2.631286531686782837e-02,-4.753693193197250366e-02,2.907285094261169434e-02,6.870697438716888428e-02,-4.481274262070655823e-02,-3.827036917209625244e-02,-4.856239631772041321e-02,-2.361687459051609039e-02,-3.875056281685829163e-02,-1.063957717269659042e-02,5.722233653068542480e-02,-2.927130833268165588e-02,-1.746553368866443634e-02,-4.931756108999252319e-02,-5.586757883429527283e-02,-5.695602297782897949e-02,4.300224408507347107e-02,5.530498176813125610e-02,-1.951866899617016315e-03,4.804723337292671204e-02,3.339214622974395752e-02,-2.291241101920604706e-02,-2.434099838137626648e-02,-5.344736203551292419e-02,8.096163719892501831e-02,-2.459578588604927063e-02
